~o
<STREAMINFO> 3 12 12 2
<VECSIZE> 26<NULLD><MFCC_E_D><DIAGC>
~h "C"
<BEGINHMM>
<NUMSTATES> 5
<STATE> 2
<SWEIGHTS> 3
 1.000000e+00 1.000000e+00 1.000000e+00
<STREAM> 1
<MEAN> 12
 -1.576728e+01 -3.814369e+00 -2.109316e+00 -5.124000e+00 -4.186782e+00 -3.475669e+00 -2.386706e+00 -1.462911e+00 -5.862585e-01 -1.749525e+00 -2.846823e+00 2.064383e-02
<VARIANCE> 12
 3.447578e+01 4.371228e+01 3.733531e+01 3.600668e+01 3.007900e+01 3.339560e+01 2.440462e+01 2.691592e+01 1.589163e+01 1.905474e+01 1.896725e+01 1.454884e+01
<GCONST> 6.130913e+01
<STREAM> 2
<MEAN> 12
 -2.402056e+00 -1.494441e-01 -9.806182e-01 -2.737644e-01 1.337081e+00 4.788350e-01 7.102709e-01 3.508793e-02 3.374611e-01 1.071926e-02 5.153256e-01 6.325902e-02
<VARIANCE> 12
 6.363066e+00 5.371177e+00 4.870043e+00 6.024608e+00 5.611298e+00 4.202704e+00 4.803632e+00 3.954235e+00 3.351832e+00 2.133413e+00 2.350671e+00 1.692488e+00
<GCONST> 3.841784e+01
<STREAM> 3
<MEAN> 2
 3.313790e-01 -2.703458e-02
<VARIANCE> 2
 6.628759e-02 5.000000e-02
<GCONST> -2.033731e+00
<STATE> 3
<SWEIGHTS> 3
 1.000000e+00 1.000000e+00 1.000000e+00
<STREAM> 1
<MEAN> 12
 -2.227615e+01 -3.950118e+00 -6.172295e+00 -8.906753e+00 -2.507175e+00 -5.565885e+00 -7.198511e-02 -1.208661e+00 -3.570697e-01 -1.465803e+00 -2.075617e+00 1.215746e-01
<VARIANCE> 12
 3.499496e+01 2.501656e+01 3.138755e+01 3.058583e+01 3.286396e+01 3.358156e+01 2.014248e+01 1.762738e+01 1.676251e+01 1.479917e+01 1.175127e+01 1.055576e+01
<GCONST> 5.890921e+01
<STREAM> 2
<MEAN> 12
 1.183674e-01 -3.862340e-01 -1.781464e-01 -2.589448e-01 -2.142496e-01 -6.769886e-02 6.693295e-02 5.252040e-02 1.445854e-01 -1.653358e-02 -8.406747e-02 8.476693e-03
<VARIANCE> 12
 2.919407e+00 1.359593e+00 1.832603e+00 2.273412e+00 1.514247e+00 1.760062e+00 1.737391e+00 1.480319e+00 1.469882e+00 1.912662e+00 1.521945e+00 1.113324e+00
<GCONST> 2.834604e+01
<STREAM> 3
<MEAN> 2
 4.720398e-01 5.830920e-03
<VARIANCE> 2
 6.338124e-02 5.000000e-02
<GCONST> -2.078566e+00
<STATE> 4
<SWEIGHTS> 3
 1.000000e+00 1.000000e+00 1.000000e+00
<STREAM> 1
<MEAN> 12
 -1.164455e+01 -7.445431e+00 -2.734770e+00 -6.472050e+00 -7.397069e+00 -4.658958e+00 -2.861005e+00 4.824608e-01 -1.068940e+00 -1.876162e+00 -3.620648e+00 -2.175089e-02
<VARIANCE> 12
 5.142743e+01 3.739701e+01 5.740819e+01 3.904462e+01 5.751955e+01 4.305377e+01 4.284785e+01 3.554605e+01 3.187114e+01 2.477084e+01 2.051588e+01 1.489258e+01
<GCONST> 6.486767e+01
<STREAM> 2
<MEAN> 12
 2.982511e+00 -6.317284e-01 7.997227e-01 -1.869327e-01 -1.630722e+00 8.994013e-02 -1.703299e+00 4.431291e-01 -5.721872e-01 7.941131e-02 2.120083e-02 -4.991860e-01
<VARIANCE> 12
 5.502548e+00 4.125946e+00 4.962388e+00 4.792001e+00 4.746817e+00 5.825700e+00 5.090840e+00 3.500221e+00 3.233296e+00 2.475856e+00 2.605616e+00 2.147321e+00
<GCONST> 3.834787e+01
<STREAM> 3
<MEAN> 2
 4.709739e-01 5.116361e-02
<VARIANCE> 2
 5.070671e-02 5.000000e-02
<GCONST> -2.301675e+00
<TRANSP> 5
 0.000000e+00 1.000000e+00 0.000000e+00 0.000000e+00 0.000000e+00
 0.000000e+00 4.400992e-01 5.599008e-01 0.000000e+00 0.000000e+00
 0.000000e+00 0.000000e+00 6.919190e-01 3.080810e-01 0.000000e+00
 0.000000e+00 0.000000e+00 0.000000e+00 5.668852e-01 4.331149e-01
 0.000000e+00 0.000000e+00 0.000000e+00 0.000000e+00 0.000000e+00
<ENDHMM>
