~o
<STREAMINFO> 3 12 12 2
<VECSIZE> 26<NULLD><MFCC_E_D><DIAGC>
~h "L"
<BEGINHMM>
<NUMSTATES> 5
<STATE> 2
<SWEIGHTS> 3
 1.000000e+00 1.000000e+00 1.000000e+00
<STREAM> 1
<MEAN> 12
 2.673650e+00 -3.034079e+00 -9.772356e+00 -1.815517e+01 -1.285839e+01 5.267207e+00 -7.245343e+00 -2.130116e+00 -5.270833e+00 -2.088248e-01 -1.280969e-01 -1.619815e+00
<VARIANCE> 12
 9.059050e+00 3.992144e+01 4.692514e+01 5.782761e+01 3.838911e+01 6.260672e+01 3.272476e+01 2.279058e+01 3.516375e+01 2.804152e+01 2.082233e+01 1.452788e+01
<GCONST> 6.285614e+01
<STREAM> 2
<MEAN> 12
 6.372592e-01 -3.925052e-01 -3.731599e-01 -8.219308e-01 -1.872953e-01 6.576359e-01 -4.838231e-01 2.807936e-01 6.157381e-02 -2.876156e-01 2.885986e-01 3.151025e-02
<VARIANCE> 12
 1.312182e+00 2.370525e+00 2.596693e+00 2.193510e+00 2.964456e+00 2.841732e+00 2.283738e+00 2.036112e+00 2.791629e+00 2.361607e+00 1.855484e+00 1.015252e+00
<GCONST> 3.111628e+01
<STREAM> 3
<MEAN> 2
 7.744817e-01 2.431482e-02
<VARIANCE> 2
 5.000000e-02 5.000000e-02
<GCONST> -2.315711e+00
<STATE> 3
<SWEIGHTS> 3
 1.000000e+00 1.000000e+00 1.000000e+00
<STREAM> 1
<MEAN> 12
 3.090290e+00 -8.779582e+00 -1.080434e+01 -1.201092e+01 -1.101300e+01 1.463251e+00 -1.280657e+01 3.475143e+00 -1.088471e+00 -2.099342e+00 -5.307299e-01 -8.924575e-01
<VARIANCE> 12
 7.851484e+00 2.989063e+01 7.149722e+01 8.146187e+01 3.668596e+01 1.421249e+02 3.712326e+01 4.361699e+01 3.884221e+01 3.712018e+01 1.695035e+01 1.498873e+01
<GCONST> 6.494262e+01
<STREAM> 2
<MEAN> 12
 -1.734057e-01 -8.426388e-02 4.535965e-02 3.574954e-01 -3.578654e-01 3.430533e-02 2.464117e-01 -2.631893e-01 6.743092e-04 5.160508e-01 3.661251e-03 -3.312032e-01
<VARIANCE> 12
 4.770061e-01 1.654492e+00 1.457352e+00 2.184710e+00 3.143920e+00 2.634171e+00 2.035268e+00 2.149462e+00 1.789410e+00 2.267609e+00 1.442543e+00 1.412987e+00
<GCONST> 2.867850e+01
<STREAM> 3
<MEAN> 2
 8.076803e-01 -1.501019e-03
<VARIANCE> 2
 5.000000e-02 5.000000e-02
<GCONST> -2.315711e+00
<STATE> 4
<SWEIGHTS> 3
 1.000000e+00 1.000000e+00 1.000000e+00
<STREAM> 1
<MEAN> 12
 -1.970186e-01 -6.152854e+00 -6.838624e+00 -1.111903e+01 -1.073275e+01 9.165204e-02 -9.473472e+00 -5.860215e-01 -2.516023e+00 1.852779e+00 -1.003263e+00 -2.806356e+00
<VARIANCE> 12
 1.911509e+01 4.202168e+01 8.671362e+01 6.073429e+01 7.885558e+01 7.456954e+01 4.612730e+01 5.375850e+01 4.570565e+01 4.053951e+01 3.233059e+01 2.024243e+01
<GCONST> 6.781586e+01
<STREAM> 2
<MEAN> 12
 -1.723373e+00 5.253744e-01 7.940938e-01 1.429663e+00 1.173140e+00 -1.439143e+00 9.629583e-01 -4.964628e-01 4.611652e-01 3.433107e-01 -3.610075e-01 -5.130632e-02
<VARIANCE> 12
 3.940727e+00 5.067276e+00 1.811756e+00 4.482163e+00 6.248565e+00 7.553781e+00 4.462752e+00 3.214319e+00 3.617160e+00 2.319891e+00 3.216849e+00 3.710525e+00
<GCONST> 3.826766e+01
<STREAM> 3
<MEAN> 2
 7.117284e-01 -4.326655e-02
<VARIANCE> 2
 5.000000e-02 5.000000e-02
<GCONST> -2.315711e+00
<TRANSP> 5
 0.000000e+00 1.000000e+00 0.000000e+00 0.000000e+00 0.000000e+00
 0.000000e+00 7.089944e-01 2.910056e-01 0.000000e+00 0.000000e+00
 0.000000e+00 0.000000e+00 6.415145e-01 3.584855e-01 0.000000e+00
 0.000000e+00 0.000000e+00 0.000000e+00 3.453001e-01 6.546998e-01
 0.000000e+00 0.000000e+00 0.000000e+00 0.000000e+00 0.000000e+00
<ENDHMM>
