~o
<STREAMINFO> 3 12 12 2
<VECSIZE> 26<NULLD><MFCC_E_D><DIAGC>
~h "N"
<BEGINHMM>
<NUMSTATES> 5
<STATE> 2
<SWEIGHTS> 3
 1.000000e+00 1.000000e+00 1.000000e+00
<STREAM> 1
<MEAN> 12
 -3.140721e+00 -4.410144e+00 2.739282e+00 -2.100399e-01 -1.121956e+01 1.288739e+00 -9.126541e+00 -8.149839e+00 -5.770266e+00 4.441699e-01 -5.391437e+00 8.337794e-02
<VARIANCE> 12
 3.341577e+00 1.284305e+01 1.380665e+01 3.149486e+01 2.507951e+01 1.977872e+01 2.237094e+01 3.646050e+01 2.666459e+01 2.455689e+01 1.320934e+01 1.633360e+01
<GCONST> 5.665787e+01
<STREAM> 2
<MEAN> 12
 -1.722069e-01 7.217106e-01 -6.743998e-02 7.374347e-01 1.354115e-01 5.067157e-01 1.826993e-01 -2.088838e+00 -8.616686e-01 2.588270e-01 2.026497e-01 7.601531e-01
<VARIANCE> 12
 1.411920e+00 1.517104e+00 1.157549e+00 2.544718e+00 2.480435e+00 2.043833e+00 3.451786e+00 2.954354e+00 3.292567e+00 2.740287e+00 2.339563e+00 1.748929e+00
<GCONST> 3.145073e+01
<STREAM> 3
<MEAN> 2
 4.519685e-01 -1.612140e-02
<VARIANCE> 2
 5.000000e-02 5.000000e-02
<GCONST> -2.315711e+00
<STATE> 3
<SWEIGHTS> 3
 1.000000e+00 1.000000e+00 1.000000e+00
<STREAM> 1
<MEAN> 12
 -4.078246e+00 -9.248357e-01 9.954458e-01 -1.970104e+00 -1.110262e+01 1.414957e+00 -6.633016e+00 -9.233213e+00 -5.526179e+00 -8.218096e-01 -6.096328e+00 3.696054e+00
<VARIANCE> 12
 3.784176e+00 3.667471e+01 1.929146e+01 2.346686e+01 2.297141e+01 1.579848e+01 3.392669e+01 4.104498e+01 2.586186e+01 1.516584e+01 1.927543e+01 1.499741e+01
<GCONST> 5.787425e+01
<STREAM> 2
<MEAN> 12
 -7.289431e-01 3.741328e-01 -1.337512e+00 -8.322389e-01 7.317203e-01 -7.326642e-01 1.100947e+00 1.535098e+00 1.233886e+00 -1.087730e+00 1.069114e-01 -1.674789e-01
<VARIANCE> 12
 3.771548e+00 2.872392e+00 2.479840e+00 4.743620e+00 4.290615e+00 2.214301e+00 2.470361e+00 3.310454e+00 1.895603e+00 1.219568e+00 1.225782e+00 1.469830e+00
<GCONST> 3.268173e+01
<STREAM> 3
<MEAN> 2
 4.233302e-01 -2.397232e-03
<VARIANCE> 2
 5.000000e-02 5.000000e-02
<GCONST> -2.315711e+00
<STATE> 4
<SWEIGHTS> 3
 1.000000e+00 1.000000e+00 1.000000e+00
<STREAM> 1
<MEAN> 12
 -4.452795e+00 -3.746213e+00 -4.468857e+00 -4.734587e+00 -8.362727e+00 2.411698e-01 -5.401042e+00 -4.203172e+00 -2.100980e+00 -2.402315e+00 -4.518319e+00 -1.895398e-01
<VARIANCE> 12
 4.144034e+01 3.015451e+01 5.349157e+01 5.671713e+01 2.147625e+01 1.646363e+01 2.004155e+01 3.861978e+01 2.211298e+01 1.654642e+01 2.337761e+01 7.530004e+00
<GCONST> 6.079540e+01
<STREAM> 2
<MEAN> 12
 -4.047151e-01 -1.428601e+00 -2.889710e+00 -2.616363e+00 9.006484e-01 -1.513253e-01 3.112163e-01 2.359549e+00 2.577129e+00 -8.494454e-01 2.174651e-01 -1.304565e+00
<VARIANCE> 12
 6.968252e+00 3.643617e+00 4.540658e+00 3.349965e+00 4.854865e+00 5.498456e+00 3.212981e+00 7.176589e+00 3.756238e+00 1.621742e+00 1.941900e+00 1.586967e+00
<GCONST> 3.736577e+01
<STREAM> 3
<MEAN> 2
 4.743084e-01 4.414241e-02
<VARIANCE> 2
 5.000000e-02 5.000000e-02
<GCONST> -2.315711e+00
<TRANSP> 5
 0.000000e+00 1.000000e+00 0.000000e+00 0.000000e+00 0.000000e+00
 0.000000e+00 6.857136e-01 3.142864e-01 0.000000e+00 0.000000e+00
 0.000000e+00 0.000000e+00 4.127478e-01 5.872523e-01 0.000000e+00
 0.000000e+00 0.000000e+00 0.000000e+00 2.790933e-01 7.209067e-01
 0.000000e+00 0.000000e+00 0.000000e+00 0.000000e+00 0.000000e+00
<ENDHMM>
