~o
<STREAMINFO> 3 12 12 2
<VECSIZE> 26<NULLD><MFCC_E_D><DIAGC>
~h "S"
<BEGINHMM>
<NUMSTATES> 5
<STATE> 2
<SWEIGHTS> 3
 1.000000e+00 1.000000e+00 1.000000e+00
<STREAM> 1
<MEAN> 12
 -1.240989e+01 -7.544412e+00 -1.012883e+01 -9.040015e+00 -1.799266e+00 1.534063e+00 -3.375435e+00 2.291338e+00 2.906219e+00 1.517113e-01 -6.493742e+00 -3.415046e+00
<VARIANCE> 12
 2.929791e+01 3.284301e+01 2.112858e+01 3.935627e+01 2.431168e+01 2.692230e+01 3.125690e+01 2.439691e+01 1.370837e+01 1.359843e+01 2.925501e+01 6.042554e+01
<GCONST> 6.147310e+01
<STREAM> 2
<MEAN> 12
 -1.924760e-01 -1.117204e-01 -4.055601e-01 2.035943e-01 3.305066e-01 9.877332e-01 2.913917e-01 -3.673746e-02 -5.110900e-01 7.415705e-02 7.834813e-02 3.099371e-01
<VARIANCE> 12
 2.770234e+00 2.253474e+00 1.474650e+00 1.738660e+00 1.271124e+00 2.809635e+00 1.601691e+00 3.253861e+00 9.710821e-01 1.569295e+00 2.326878e+00 2.640848e+00
<GCONST> 2.998823e+01
<STREAM> 3
<MEAN> 2
 1.603905e-01 -2.872659e-02
<VARIANCE> 2
 5.000000e-02 5.000000e-02
<GCONST> -2.315711e+00
<STATE> 3
<SWEIGHTS> 3
 1.000000e+00 1.000000e+00 1.000000e+00
<STREAM> 1
<MEAN> 12
 -1.659994e+01 -1.967755e+00 -7.260147e+00 -5.602397e+00 -2.639057e+00 7.471968e-02 -7.469542e-01 1.599712e+00 -1.370661e+00 -5.589767e-01 -1.805880e+00 -3.641951e-01
<VARIANCE> 12
 7.938858e+00 5.245749e+00 1.073204e+01 1.909584e+01 1.618139e+01 1.220603e+01 1.329663e+01 1.683313e+01 1.201215e+01 1.448689e+01 1.811398e+01 1.139193e+01
<GCONST> 5.229182e+01
<STREAM> 2
<MEAN> 12
 9.409610e-02 2.373172e-01 1.755695e-01 1.145887e-01 -3.285962e-01 1.068421e-01 2.935786e-02 -9.422952e-02 -1.198432e-01 -1.175455e-01 3.114950e-02 -1.272060e-01
<VARIANCE> 12
 4.943316e-01 5.079652e-01 8.955356e-01 1.444446e+00 1.213260e+00 1.111742e+00 1.293898e+00 1.944409e+00 1.370285e+00 1.446933e+00 1.845487e+00 1.376648e+00
<GCONST> 2.376875e+01
<STREAM> 3
<MEAN> 2
 -6.862704e-02 -4.864090e-03
<VARIANCE> 2
 5.000000e-02 5.000000e-02
<GCONST> -2.315711e+00
<STATE> 4
<SWEIGHTS> 3
 1.000000e+00 1.000000e+00 1.000000e+00
<STREAM> 1
<MEAN> 12
 -1.271783e+01 -1.219496e+00 -5.608365e-01 -9.714373e+00 -9.074485e+00 2.136130e-01 -2.146058e+00 1.709989e+00 -5.678921e+00 -2.297152e+00 -2.483036e+00 -2.023738e+00
<VARIANCE> 12
 2.453548e+01 2.306883e+01 6.541330e+01 2.070809e+01 3.686577e+01 2.458450e+01 3.207510e+01 5.532518e+01 5.036212e+01 1.658597e+01 1.195574e+01 2.169648e+01
<GCONST> 6.218124e+01
<STREAM> 2
<MEAN> 12
 4.451355e-01 -2.658517e-01 6.714613e-01 -5.218518e-01 -3.272198e-01 5.694161e-02 -5.765635e-01 1.344584e-02 -3.561518e-01 -4.762293e-01 -1.829759e-01 -1.985347e-01
<VARIANCE> 12
 3.879689e+00 2.429161e+00 1.995743e+00 2.046344e+00 2.894248e+00 1.240395e+00 2.322705e+00 2.978472e+00 2.545930e+00 1.302856e+00 1.523784e+00 1.836266e+00
<GCONST> 3.114518e+01
<STREAM> 3
<MEAN> 2
 1.738840e-01 6.123902e-02
<VARIANCE> 2
 7.081993e-02 5.000000e-02
<GCONST> -1.967593e+00
<TRANSP> 5
 0.000000e+00 1.000000e+00 0.000000e+00 0.000000e+00 0.000000e+00
 0.000000e+00 6.014127e-01 3.985874e-01 0.000000e+00 0.000000e+00
 0.000000e+00 0.000000e+00 8.855107e-01 1.144894e-01 0.000000e+00
 0.000000e+00 0.000000e+00 0.000000e+00 6.837391e-01 3.162609e-01
 0.000000e+00 0.000000e+00 0.000000e+00 0.000000e+00 0.000000e+00
<ENDHMM>
