~o
<STREAMINFO> 3 12 12 2
<VECSIZE> 26<NULLD><MFCC_E_D><DIAGC>
~h "V"
<BEGINHMM>
<NUMSTATES> 5
<STATE> 2
<SWEIGHTS> 3
 1.000000e+00 1.000000e+00 1.000000e+00
<STREAM> 1
<MEAN> 12
 5.100113e-01 -9.020120e+00 -4.083929e+00 -1.080662e+01 -1.284391e+01 1.070685e+00 -1.242985e+01 -1.481728e+00 -2.481053e+00 1.580397e+00 -1.508323e+00 -4.954757e+00
<VARIANCE> 12
 1.445238e+01 3.092615e+01 1.161900e+02 3.128915e+01 6.025579e+01 9.150201e+01 5.502790e+01 3.507460e+01 4.598025e+01 3.349065e+01 2.923395e+01 2.751519e+01
<GCONST> 6.656531e+01
<STREAM> 2
<MEAN> 12
 6.298180e-01 -7.590515e-01 -3.960021e-02 -8.542803e-02 -4.099132e-01 2.826691e-01 -6.787727e-01 1.889404e-01 4.086528e-01 2.309125e-01 -4.009517e-01 -4.256079e-01
<VARIANCE> 12
 1.380028e+00 1.685431e+00 2.226670e+00 1.506551e+00 2.944963e+00 2.770231e+00 2.255224e+00 2.135725e+00 2.092626e+00 1.498455e+00 1.947611e+00 1.601131e+00
<GCONST> 3.006023e+01
<STREAM> 3
<MEAN> 2
 7.835643e-01 2.161913e-02
<VARIANCE> 2
 5.000000e-02 5.000000e-02
<GCONST> -2.315711e+00
<STATE> 3
<SWEIGHTS> 3
 1.000000e+00 1.000000e+00 1.000000e+00
<STREAM> 1
<MEAN> 12
 1.467271e+00 -1.545444e+01 -6.255433e+00 -8.685899e+00 -1.465861e+01 1.376227e+00 -8.749433e+00 5.129887e+00 1.010057e+00 -1.154230e+00 -7.240313e+00 -6.593268e+00
<VARIANCE> 12
 9.461131e+00 3.079181e+01 6.785801e+01 1.615627e+01 3.650106e+01 5.933627e+01 2.960786e+01 3.443950e+01 3.499360e+01 1.899170e+01 2.565262e+01 2.041024e+01
<GCONST> 6.209634e+01
<STREAM> 2
<MEAN> 12
 -3.600716e-01 3.628163e-01 8.881657e-01 2.267897e-01 -2.435906e-01 -9.201670e-01 3.912632e-01 4.179897e-01 -3.207673e-01 -1.100112e-01 -1.729468e-01 5.807536e-01
<VARIANCE> 12
 6.010684e-01 1.755549e+00 3.006176e+00 1.596921e+00 2.508225e+00 2.728464e+00 2.229693e+00 2.953960e+00 1.874406e+00 1.354439e+00 1.973814e+00 1.648323e+00
<GCONST> 2.959674e+01
<STREAM> 3
<MEAN> 2
 8.393881e-01 -1.327242e-02
<VARIANCE> 2
 5.000000e-02 5.000000e-02
<GCONST> -2.315711e+00
<STATE> 4
<SWEIGHTS> 3
 1.000000e+00 1.000000e+00 1.000000e+00
<STREAM> 1
<MEAN> 12
 -3.646815e+00 -6.449950e+00 2.917950e+00 -8.289540e+00 -1.411008e+01 -5.391816e+00 -6.730522e+00 6.057082e-01 -4.353909e+00 1.855380e-01 -4.525448e+00 -1.178367e+00
<VARIANCE> 12
 1.856600e+01 3.265126e+01 6.836876e+01 2.958944e+01 6.121651e+01 5.519563e+01 4.664483e+01 4.257136e+01 5.458043e+01 3.686781e+01 2.825706e+01 1.913862e+01
<GCONST> 6.569318e+01
<STREAM> 2
<MEAN> 12
 -1.676500e+00 2.130542e+00 -6.270216e-01 9.522448e-01 2.065677e+00 1.828135e-01 1.398674e+00 -1.336510e+00 -6.917849e-03 -2.264667e-02 7.230764e-02 4.110700e-01
<VARIANCE> 12
 3.331794e+00 2.770715e+00 5.468997e+00 3.871357e+00 6.299324e+00 3.558008e+00 4.500454e+00 3.533372e+00 6.137187e+00 3.671643e+00 2.312320e+00 2.062765e+00
<GCONST> 3.788322e+01
<STREAM> 3
<MEAN> 2
 6.555170e-01 -6.751854e-02
<VARIANCE> 2
 5.000000e-02 5.000000e-02
<GCONST> -2.315711e+00
<TRANSP> 5
 0.000000e+00 1.000000e+00 0.000000e+00 0.000000e+00 0.000000e+00
 0.000000e+00 6.547052e-01 3.452948e-01 0.000000e+00 0.000000e+00
 0.000000e+00 0.000000e+00 7.150697e-01 2.849303e-01 0.000000e+00
 0.000000e+00 0.000000e+00 0.000000e+00 5.768730e-01 4.231270e-01
 0.000000e+00 0.000000e+00 0.000000e+00 0.000000e+00 0.000000e+00
<ENDHMM>
