~o
<STREAMINFO> 1 39
<VECSIZE> 39<NULLD><MFCC_D_A_0><DIAGC>
~s "silst"
<MEAN> 39
 -1.648600e+01 -1.081921e+01 -4.897449e+00 -7.986279e+00 -5.637480e+00 -1.202724e+01 -5.628197e+00 4.163646e+00 1.804454e+00 -6.312920e+00 -3.741139e-01 -1.511604e+00 5.323346e+01 -3.442744e-02 -4.823662e-01 1.218613e-01 -7.385680e-02 1.122807e-01 -2.174674e-01 4.159301e-02 5.269837e-01 4.321600e-01 -1.236858e-01 -4.519163e-02 -3.155367e-02 2.279084e-01 9.456383e-02 7.958905e-02 -3.039493e-02 -4.508001e-02 -3.418507e-02 5.909749e-02 -6.482657e-02 -9.054787e-02 -1.748605e-02 -5.439785e-02 -3.376006e-02 -3.249953e-02 4.253290e-02
<VARIANCE> 39
 3.082701e+01 6.480272e+01 4.446869e+01 4.464362e+01 5.872958e+01 6.018507e+01 5.148866e+01 1.011918e+02 7.297729e+01 5.246056e+01 2.993773e+01 2.207834e+01 3.767452e+01 2.615206e+00 3.404573e+00 3.494423e+00 4.396986e+00 4.595319e+00 4.386622e+00 3.951869e+00 5.582410e+00 4.601038e+00 4.398927e+00 2.920760e+00 2.147422e+00 2.928183e+00 5.077686e-01 4.802196e-01 6.816484e-01 8.517752e-01 8.999220e-01 7.966130e-01 7.784438e-01 9.011685e-01 7.748939e-01 8.866280e-01 5.781471e-01 4.217255e-01 4.652523e-01
<GCONST> 1.337120e+02
~h "d"
<BEGINHMM>
<NUMSTATES> 5
<STATE> 2
<MEAN> 39
 -1.382194e+01 -8.655541e+00 -6.898887e+00 -7.296344e+00 -5.858810e+00 -1.200743e+01 -5.748472e+00 -1.076448e+00 -6.180624e-01 -7.552812e+00 -2.271435e+00 -1.630859e+00 5.687059e+01 -1.661000e-01 -4.084731e-01 -6.204529e-01 -4.915666e-02 -3.546853e-01 -7.011988e-02 3.674134e-02 6.772802e-01 4.915551e-01 -7.985184e-02 4.971595e-02 5.651903e-01 5.479439e-01 3.353711e-01 1.796127e-01 7.158320e-02 6.482454e-03 -8.344048e-02 -4.600106e-02 -2.155918e-01 -1.521878e-01 2.467255e-02 -9.195694e-02 -3.825707e-02 -1.368566e-01 9.453630e-02
<VARIANCE> 39
 2.566348e+01 6.384332e+01 2.125297e+01 4.335638e+01 3.105945e+01 6.091176e+01 5.346186e+01 4.643877e+01 5.553495e+01 3.116807e+01 2.586985e+01 2.110687e+01 1.055139e+02 1.548508e+00 3.669472e+00 3.021477e+00 3.755154e+00 2.712059e+00 4.399436e+00 3.517404e+00 4.452837e+00 4.397793e+00 3.143158e+00 2.215953e+00 2.711521e+00 8.685208e+00 4.546877e-01 5.127611e-01 5.598591e-01 8.099397e-01 7.410403e-01 7.926280e-01 9.716929e-01 6.919916e-01 5.840723e-01 6.248773e-01 5.466318e-01 4.988292e-01 1.228361e+00
<GCONST> 1.303852e+02
<STATE> 3
<MEAN> 39
 -1.321671e+01 -4.228320e+00 -7.828908e+00 -6.332912e+00 -5.994251e+00 -7.456078e+00 -5.922915e+00 -4.390150e+00 -4.380041e+00 -4.835538e+00 -2.697520e+00 -1.929065e+00 5.085005e+01 6.161619e-01 -7.746568e-01 -7.753477e-01 -9.699741e-01 -1.269600e+00 -1.641209e+00 6.929491e-01 -2.465737e-01 5.879660e-01 -2.261384e-01 6.681316e-01 2.228036e-01 3.713301e+00 5.243106e-01 -2.252053e-01 -6.299705e-02 -2.917769e-01 -4.591181e-01 -6.075237e-01 -9.028269e-02 -1.645713e-01 -9.302939e-02 -5.265433e-01 -1.255521e-01 -1.323783e-01 1.400924e+00
<VARIANCE> 39
 1.486359e+01 6.546414e+00 8.689746e+00 1.854385e+01 1.490727e+01 5.746974e+01 2.675803e+01 1.694893e+01 1.775803e+01 2.602167e+01 1.633499e+01 1.622890e+01 1.144429e+02 1.109882e+00 1.127875e+00 1.275926e+00 1.644892e+00 3.438745e+00 5.686982e+00 3.318901e+00 3.764947e+00 2.150108e+00 2.888599e+00 2.060197e+00 2.385481e+00 1.420819e+01 2.290116e-01 3.566756e-01 2.999183e-01 3.585812e-01 4.824344e-01 8.378270e-01 7.655915e-01 4.660324e-01 4.509366e-01 6.758831e-01 4.407717e-01 4.392647e-01 2.106660e+00
<GCONST> 1.144442e+02
<STATE> 4
<MEAN> 39
 -8.390450e+00 -6.885618e+00 -1.116949e+01 -1.007636e+01 -1.073104e+01 -1.542286e+01 -8.357315e+00 -4.390130e+00 5.822635e-01 -8.739439e+00 -3.382723e+00 -3.148340e+00 6.628187e+01 9.752994e-01 -6.988035e-01 -2.379787e-01 -5.783256e-01 -8.620913e-01 -6.558890e-01 -2.474731e-01 1.032476e-01 1.432685e-01 -8.929191e-01 -2.587076e-01 1.142319e-02 2.075008e+00 -2.807918e-02 -1.179388e-02 2.238331e-01 1.048280e-01 5.052218e-01 4.739268e-01 -2.096792e-01 8.199942e-02 -4.030421e-01 -2.209536e-01 -2.419093e-01 7.343468e-02 -6.836456e-01
<VARIANCE> 39
 1.647441e+01 1.617209e+01 1.132952e+01 1.578514e+01 2.843451e+01 4.167670e+01 7.092336e+01 5.041220e+01 3.214540e+01 4.080472e+01 3.252972e+01 2.468094e+01 8.598660e+01 3.048425e+00 1.727564e+00 1.307561e+00 2.634684e+00 4.090946e+00 6.737746e+00 2.951276e+00 2.629958e+00 2.428918e+00 5.120151e+00 2.062117e+00 2.577912e+00 2.651053e+01 2.871089e-01 2.347179e-01 1.751553e-01 2.829682e-01 5.360799e-01 9.032379e-01 7.479903e-01 7.387771e-01 3.884177e-01 9.710465e-01 5.102479e-01 5.780889e-01 9.762029e-01
<GCONST> 1.225223e+02
<TRANSP> 5
 0.000000e+00 1.000000e+00 0.000000e+00 0.000000e+00 0.000000e+00
 0.000000e+00 5.161705e-01 4.838295e-01 0.000000e+00 0.000000e+00
 0.000000e+00 0.000000e+00 5.598661e-01 4.401339e-01 0.000000e+00
 0.000000e+00 0.000000e+00 0.000000e+00 5.779958e-01 4.220043e-01
 0.000000e+00 0.000000e+00 0.000000e+00 0.000000e+00 0.000000e+00
<ENDHMM>
~h "f"
<BEGINHMM>
<NUMSTATES> 5
<STATE> 2
<MEAN> 39
 -1.559913e+01 -1.663303e+01 -5.776902e+00 -9.814052e+00 -1.029431e+00 -1.337056e+01 -9.127953e+00 7.554253e+00 1.072917e+01 -1.101762e+01 -2.170117e+00 -3.603156e+00 5.766610e+01 -2.770951e-01 1.548109e-01 -6.536291e-02 4.938015e-01 -3.794623e-02 -4.169047e-04 1.578716e-01 5.564016e-02 9.180576e-03 3.006335e-01 -1.233936e-01 4.208947e-02 -2.492599e-01 3.475682e-02 1.907493e-01 -2.991708e-02 -3.852442e-03 -7.534721e-02 8.250645e-02 4.159485e-02 -1.724950e-01 -1.719174e-01 5.701456e-02 1.474503e-02 2.917219e-02 -1.059715e-01
<VARIANCE> 39
 1.147897e+01 3.866184e+01 2.148062e+01 3.355360e+01 3.028276e+01 2.751899e+01 3.887100e+01 7.477419e+01 7.734071e+01 2.739988e+01 1.957175e+01 2.112554e+01 2.357866e+01 2.009528e+00 1.586179e+00 1.221355e+00 3.091475e+00 1.787749e+00 1.812715e+00 2.907335e+00 4.223908e+00 3.702374e+00 2.360656e+00 1.790789e+00 1.675867e+00 1.218885e+00 1.203130e-01 1.572317e-01 2.273940e-01 4.635852e-01 3.083992e-01 3.590184e-01 4.634081e-01 6.267617e-01 5.145832e-01 4.132416e-01 3.668129e-01 3.333631e-01 7.783636e-02
<GCONST> 1.096758e+02
<STATE> 3
<MEAN> 39
 -2.053145e+01 -3.868029e+00 -8.694713e+00 -1.765147e+00 -7.201556e+00 -7.796567e+00 -6.091051e+00 -3.217215e+00 -1.540512e+00 -4.894837e+00 -2.451208e+00 -3.725936e+00 5.420494e+01 -6.621320e-01 1.093377e-01 -1.343165e-01 -4.918312e-02 -1.684841e-01 2.175905e-01 4.231167e-01 -6.196439e-02 2.975676e-03 2.511804e-01 2.446505e-01 2.819997e-02 3.728757e-01 3.495853e-01 -1.242138e-01 -2.523127e-02 -2.655241e-01 -1.309732e-02 -1.664380e-01 -2.165785e-01 -7.878236e-02 3.288300e-02 -1.091515e-01 8.427396e-03 -4.659133e-02 3.221288e-01
<VARIANCE> 39
 2.915386e+01 2.210779e+01 1.280972e+01 1.371693e+01 1.933094e+01 2.278241e+01 1.967229e+01 2.587351e+01 2.248657e+01 1.625120e+01 1.540707e+01 1.575934e+01 4.260604e+01 2.004095e+00 2.337590e+00 1.497482e+00 1.759842e+00 2.259442e+00 2.947766e+00 2.245923e+00 2.925031e+00 2.930125e+00 1.868737e+00 1.702276e+00 1.686718e+00 4.077711e+00 6.084993e-01 4.456962e-01 2.910874e-01 4.748210e-01 4.560801e-01 5.587425e-01 5.164687e-01 5.801259e-01 5.928442e-01 3.988301e-01 3.646383e-01 3.660025e-01 7.904738e-01
<GCONST> 1.116851e+02
<STATE> 4
<MEAN> 39
 -1.579025e+01 -5.304171e+00 -1.040132e+01 -7.623036e+00 -8.800851e+00 -1.140712e+01 -9.241168e+00 -7.440614e+00 -1.596482e+00 -4.643268e+00 -1.023110e+00 -4.710837e+00 6.535880e+01 5.054615e+00 1.754308e-01 -6.823999e-01 -3.778523e+00 2.616023e-01 -5.749167e-01 -2.806104e+00 -2.707846e+00 -9.162977e-02 -1.729554e+00 -2.045604e-01 -9.308411e-01 3.304041e+00 5.813322e-01 4.104759e-01 -1.640020e-01 -7.795876e-01 4.127329e-01 5.113998e-01 -3.208353e-01 -3.476139e-01 1.313932e-01 -6.984667e-01 -2.156040e-02 -1.772391e-01 -7.011957e-02
<VARIANCE> 39
 8.281583e+01 2.902047e+01 1.915455e+01 4.713689e+01 3.279937e+01 2.943228e+01 3.855018e+01 4.688057e+01 2.684690e+01 2.654855e+01 1.800323e+01 1.444969e+01 3.071784e+01 5.351156e+00 5.019777e+00 1.842430e+00 6.857712e+00 3.556964e+00 4.057717e+00 3.744154e+00 4.646004e+00 3.188022e+00 4.603601e+00 3.235656e+00 2.338384e+00 2.981723e+00 1.898134e+00 8.054954e-01 4.166158e-01 1.145381e+00 7.130724e-01 6.493538e-01 1.050859e+00 1.123331e+00 8.116668e-01 7.036350e-01 6.257773e-01 4.371446e-01 6.594301e-01
<GCONST> 1.301579e+02
<TRANSP> 5
 0.000000e+00 1.000000e+00 0.000000e+00 0.000000e+00 0.000000e+00
 0.000000e+00 8.667950e-01 1.332050e-01 0.000000e+00 0.000000e+00
 0.000000e+00 0.000000e+00 9.033185e-01 9.668153e-02 0.000000e+00
 0.000000e+00 0.000000e+00 0.000000e+00 6.981050e-01 3.018950e-01
 0.000000e+00 0.000000e+00 0.000000e+00 0.000000e+00 0.000000e+00
<ENDHMM>
~h "k"
<BEGINHMM>
<NUMSTATES> 5
<STATE> 2
<MEAN> 39
 -1.763415e+01 -1.536093e+01 -5.267805e+00 -8.461155e+00 -4.259177e+00 -1.646290e+01 -5.114715e+00 7.816749e+00 1.011429e+01 -1.081718e+01 -5.398085e-01 -2.835670e+00 5.920092e+01 -2.368395e-01 5.002388e-01 -3.460016e-01 4.541031e-01 2.818592e-01 3.648341e-01 -1.410038e-01 -7.708234e-02 -2.574503e-01 1.852543e-01 -2.309233e-01 1.991070e-01 -3.879701e-01 6.475540e-02 1.074164e-01 -2.008112e-02 -9.795297e-04 6.786104e-02 1.548933e-01 1.138141e-02 -2.889580e-01 -1.400758e-01 1.278544e-01 -5.674001e-02 -6.313754e-03 -1.691729e-01
<VARIANCE> 39
 1.262550e+01 3.672461e+01 1.406570e+01 4.679150e+01 5.934475e+01 2.818604e+01 3.961134e+01 4.611142e+01 7.196534e+01 2.516142e+01 2.760132e+01 2.092981e+01 4.009642e+01 1.203408e+00 1.301556e+00 1.316693e+00 2.032617e+00 2.172833e+00 2.876742e+00 2.486530e+00 3.335895e+00 2.533831e+00 2.149408e+00 2.179805e+00 1.858006e+00 9.746219e-01 1.299285e-01 1.786399e-01 2.499862e-01 3.835199e-01 4.170187e-01 4.876602e-01 4.398645e-01 6.499195e-01 4.385807e-01 3.721765e-01 4.269044e-01 3.497039e-01 1.783970e-01
<GCONST> 1.108484e+02
<STATE> 3
<MEAN> 39
 -2.276725e+01 -2.662346e+00 -8.133676e+00 4.764171e-01 -8.342776e+00 -6.308741e+00 -4.166927e+00 -1.167431e+00 -2.556575e+00 -6.021381e+00 -6.368054e-01 -1.132310e+00 5.486988e+01 -3.548262e-02 3.254952e-01 -2.164912e-01 -1.258503e-01 4.837193e-01 7.494230e-01 4.287168e-02 -5.041421e-01 -1.508294e-01 3.565789e-01 1.931599e-02 -8.104399e-02 -8.091725e-01 2.090706e-01 -1.434567e-01 -2.691641e-02 -1.266872e-01 -8.543169e-02 -3.962407e-01 3.705348e-02 -3.149381e-02 5.653457e-02 -6.928155e-03 4.146372e-02 1.231942e-02 2.508466e-01
<VARIANCE> 39
 4.494633e+01 1.445142e+01 1.152368e+01 1.895713e+01 2.358026e+01 2.574965e+01 1.865265e+01 2.071446e+01 1.860303e+01 1.897511e+01 1.937004e+01 1.432857e+01 6.234441e+01 1.369343e+00 1.176235e+00 1.221412e+00 1.396109e+00 2.064590e+00 3.507521e+00 2.064646e+00 2.555490e+00 2.161287e+00 1.827362e+00 1.771085e+00 1.476919e+00 1.443063e+00 2.198573e-01 2.002304e-01 3.873297e-01 3.134857e-01 4.554780e-01 6.225504e-01 4.371010e-01 5.024931e-01 4.095027e-01 3.991827e-01 3.778387e-01 3.239172e-01 3.968567e-01
<GCONST> 1.060426e+02
<STATE> 4
<MEAN> 39
 -1.576483e+01 -5.331344e+00 -1.524971e+01 -5.300936e+00 -1.369107e+00 -1.045233e+01 -2.990640e+00 -6.555583e+00 -1.209574e+00 -6.398206e-01 -1.152772e+00 -6.572161e-01 5.731311e+01 1.396518e+00 -7.493044e-01 -2.042172e+00 -1.817050e+00 1.400557e+00 -3.257819e+00 -2.870089e-01 -6.852878e-01 1.110711e+00 1.187891e+00 -1.905597e-01 3.533744e-01 4.141613e+00 2.041049e-03 1.194474e-01 6.042522e-01 -4.294588e-02 -2.433721e-01 6.290999e-02 -3.619325e-01 3.280507e-01 1.550080e-01 -1.345247e-01 -1.770236e-01 -2.607183e-01 1.004615e-01
<VARIANCE> 39
 6.862755e+01 2.679243e+01 8.586376e+01 4.867711e+01 8.621840e+01 8.394563e+01 2.870249e+01 3.337186e+01 3.068980e+01 3.589195e+01 1.913303e+01 1.824684e+01 1.134124e+02 3.359985e+00 2.419160e+00 9.758448e+00 3.338278e+00 9.095809e+00 6.339355e+00 4.720683e+00 3.152469e+00 3.723535e+00 2.820157e+00 1.963159e+00 2.722749e+00 9.658880e+00 9.784183e-01 4.363304e-01 2.265268e+00 7.744524e-01 1.384756e+00 2.344943e+00 8.122833e-01 6.549187e-01 6.333305e-01 6.657998e-01 3.875294e-01 6.066140e-01 2.441957e+00
<GCONST> 1.383428e+02
<TRANSP> 5
 0.000000e+00 1.000000e+00 0.000000e+00 0.000000e+00 0.000000e+00
 0.000000e+00 8.270113e-01 1.729887e-01 0.000000e+00 0.000000e+00
 0.000000e+00 0.000000e+00 8.808501e-01 1.191498e-01 0.000000e+00
 0.000000e+00 0.000000e+00 0.000000e+00 6.357296e-01 3.642704e-01
 0.000000e+00 0.000000e+00 0.000000e+00 0.000000e+00 0.000000e+00
<ENDHMM>
~h "l"
<BEGINHMM>
<NUMSTATES> 5
<STATE> 2
<MEAN> 39
 -3.297332e+00 -4.842428e+00 -1.137089e+01 -2.066598e+01 -6.603388e-01 -1.506588e+01 -1.799980e+01 -1.139048e+01 2.887570e+00 -1.851070e+01 -6.316659e+00 -9.870564e+00 7.344796e+01 7.021422e-01 4.857840e-01 -1.058397e+00 -1.657371e+00 1.688248e+00 1.248489e+00 -1.124823e+00 -1.996894e+00 1.383011e+00 -6.866525e-01 1.888215e+00 -1.880625e+00 -3.430233e-01 -1.068869e-01 -1.579849e-02 2.220973e-01 -6.488650e-02 -4.182080e-01 1.854871e-01 6.763194e-01 1.290516e-01 -2.271842e-01 3.562696e-01 6.359510e-01 2.451618e-01 -8.310377e-02
<VARIANCE> 39
 5.881746e+00 1.747845e+01 1.303052e+01 2.314993e+01 3.169255e+01 5.506000e+01 2.626625e+01 6.285654e+01 3.478356e+01 2.483140e+01 4.085918e+01 3.963584e+01 8.320872e+00 5.397691e-01 6.534982e-01 1.597214e+00 2.008614e+00 4.226914e+00 2.488815e+00 3.535929e+00 2.563810e+00 2.918139e+00 2.592078e+00 4.524381e+00 3.718139e+00 4.679256e-01 8.627266e-02 1.387243e-01 1.534744e-01 3.282442e-01 4.372944e-01 4.410610e-01 4.430500e-01 8.693781e-01 7.740588e-01 6.536724e-01 5.427973e-01 6.674843e-01 4.805800e-02
<GCONST> 1.071856e+02
<STATE> 3
<MEAN> 39
 -1.167367e+00 -2.717470e+00 -1.475744e+01 -2.893415e+01 3.491968e+00 -7.434818e+00 -1.590668e+01 -1.877711e+01 5.469583e+00 -2.295601e+01 5.512645e+00 -1.219709e+01 7.238628e+01 1.742302e-01 3.212313e-01 -2.167947e-01 -3.189109e-01 -2.709469e-02 1.873274e-01 -3.855631e-01 3.561721e-01 8.066624e-02 1.572884e-01 6.275693e-01 2.027445e-01 -4.169762e-01 -7.818328e-02 -2.774552e-02 7.716083e-02 2.909445e-01 -1.479366e-01 -1.609258e-01 -8.301575e-02 2.560450e-01 -1.417888e-01 2.444541e-01 -3.150114e-01 1.776209e-01 -9.073739e-02
<VARIANCE> 39
 4.300302e+00 1.333555e+01 1.153082e+01 2.816550e+01 2.142815e+01 3.554810e+01 3.581143e+01 4.086349e+01 3.102452e+01 3.195196e+01 3.605309e+01 2.632442e+01 1.348770e+01 2.583583e-01 5.798451e-01 7.367525e-01 1.684216e+00 1.313080e+00 1.936590e+00 1.997815e+00 1.995735e+00 1.840009e+00 2.144427e+00 3.066684e+00 1.621252e+00 4.362077e-01 5.043003e-02 9.381248e-02 1.161548e-01 2.044924e-01 2.459927e-01 2.664358e-01 2.575241e-01 3.314437e-01 3.303647e-01 3.092433e-01 3.667952e-01 3.726854e-01 7.084517e-02
<GCONST> 9.337228e+01
<STATE> 4
<MEAN> 39
 -1.640431e+00 -1.986749e-01 -1.152513e+01 -1.854088e+01 -3.243641e+00 -1.313678e+01 -2.260966e+01 -8.245628e+00 1.637406e+00 -1.308585e+01 -6.410857e-01 -5.183748e+00 6.536826e+01 -7.310017e-01 -3.616508e-01 7.527494e-01 2.107632e+00 -1.114203e+00 -3.254365e-01 8.113195e-01 9.762768e-01 -1.181977e+00 1.088947e+00 -1.184937e+00 1.086252e+00 -1.168995e+00 -2.915437e-01 -1.657837e-01 6.354298e-03 1.056762e-01 -8.615260e-02 2.540417e-01 6.470972e-01 -1.451667e-01 -1.334682e-01 -1.109652e-01 -2.256215e-02 -1.356537e-01 7.299951e-02
<VARIANCE> 39
 1.054424e+01 1.856483e+01 3.876046e+01 5.794032e+01 4.436211e+01 1.140972e+02 5.444998e+01 5.940762e+01 5.219133e+01 4.435429e+01 9.718958e+01 5.505297e+01 4.563345e+01 1.766561e+00 1.775450e+00 1.967219e+00 4.980487e+00 2.912574e+00 4.720165e+00 6.335497e+00 3.345956e+00 4.409037e+00 4.877339e+00 4.964231e+00 3.398041e+00 3.162588e+00 2.888735e-01 2.715287e-01 3.583085e-01 8.519214e-01 5.070379e-01 7.604809e-01 1.002560e+00 6.757886e-01 8.701921e-01 7.138484e-01 1.012190e+00 5.636221e-01 3.643962e-01
<GCONST> 1.304587e+02
<TRANSP> 5
 0.000000e+00 1.000000e+00 0.000000e+00 0.000000e+00 0.000000e+00
 0.000000e+00 6.151344e-01 3.848656e-01 0.000000e+00 0.000000e+00
 0.000000e+00 0.000000e+00 8.735816e-01 1.264184e-01 0.000000e+00
 0.000000e+00 0.000000e+00 0.000000e+00 8.171318e-01 1.828683e-01
 0.000000e+00 0.000000e+00 0.000000e+00 0.000000e+00 0.000000e+00
<ENDHMM>
~h "n"
<BEGINHMM>
<NUMSTATES> 5
<STATE> 2
<MEAN> 39
 -2.489567e+00 8.251405e-01 -2.646487e+00 -1.386229e+01 -1.290103e+01 -1.484304e+01 -1.965872e+01 -5.696338e+00 -8.930068e+00 -8.235624e+00 -5.227595e+00 -3.438096e+00 6.518842e+01 1.265705e-01 1.070392e+00 7.718534e-01 7.667745e-01 -2.487922e-01 7.205332e-01 -3.498611e-01 -1.653478e+00 -2.921191e-01 4.358742e-01 -4.171260e-01 7.955283e-02 -1.659246e+00 -1.792384e-01 -1.250775e-01 -7.600339e-02 2.078657e-01 1.865141e-01 1.261673e-01 3.267851e-01 -1.989524e-01 4.732313e-02 -4.485524e-01 -1.497607e-02 -2.217694e-01 -9.424663e-02
<VARIANCE> 39
 2.317817e+01 1.582162e+01 8.109371e+01 7.759152e+01 9.527003e+01 7.995920e+01 4.707985e+01 8.377995e+01 5.100105e+01 5.440171e+01 6.470791e+01 4.627513e+01 4.205009e+01 1.742874e+00 1.601308e+00 2.180018e+00 3.260478e+00 3.354291e+00 3.312838e+00 4.322634e+00 4.859486e+00 2.796552e+00 4.013295e+00 3.581671e+00 4.175683e+00 1.980608e+00 2.705610e-01 2.498902e-01 3.998901e-01 4.522492e-01 5.996010e-01 6.712577e-01 5.970192e-01 7.908923e-01 4.904700e-01 6.667879e-01 6.727563e-01 5.825958e-01 2.162437e-01
<GCONST> 1.278154e+02
<STATE> 3
<MEAN> 39
 -1.100699e+00 4.979336e+00 9.959775e-01 -7.386215e+00 -1.335361e+01 -1.436328e+01 -1.959918e+01 -1.284012e+01 -1.027146e+01 -1.140859e+01 -7.706896e+00 -5.043061e+00 5.746781e+01 -5.114573e-01 3.334389e-01 1.962521e-01 6.758040e-01 2.130068e-01 3.333479e-01 7.121778e-01 -7.693679e-01 -1.775887e-01 -3.241515e-01 -1.891424e-01 -3.036415e-01 -1.108552e+00 -3.851947e-01 -3.126510e-01 -2.677582e-01 -8.005006e-02 1.908097e-01 5.664501e-02 3.175694e-01 5.267805e-01 1.246437e-01 1.343936e-01 1.457662e-01 7.135089e-02 1.843453e-01
<VARIANCE> 39
 1.624249e+01 1.274849e+01 3.797603e+01 6.399195e+01 3.390062e+01 4.905641e+01 2.248315e+01 4.291821e+01 3.094444e+01 4.107670e+01 3.937103e+01 2.609405e+01 2.537841e+01 2.143749e+00 1.268644e+00 1.778206e+00 2.373322e+00 2.456113e+00 3.050051e+00 2.890607e+00 3.391201e+00 2.107347e+00 3.136571e+00 2.806777e+00 2.563769e+00 1.148483e+00 2.814169e-01 2.457998e-01 2.747579e-01 3.649317e-01 4.173085e-01 4.882191e-01 4.545045e-01 5.918016e-01 4.036628e-01 5.198111e-01 4.755094e-01 4.972826e-01 1.346435e-01
<GCONST> 1.142643e+02
<STATE> 4
<MEAN> 39
 -8.164915e+00 1.778829e+00 -2.211334e+00 -5.268512e+00 -9.427941e+00 -1.146386e+01 -1.205786e+01 -1.016711e+01 -9.303261e+00 -1.008195e+01 -6.131303e+00 -5.095215e+00 5.211579e+01 -1.524465e+00 -9.688282e-01 -8.199895e-01 2.054970e-01 5.980101e-01 4.306979e-01 1.277416e+00 1.027183e+00 6.988603e-01 4.764273e-01 3.878061e-01 9.844032e-02 -1.778340e-01 8.085974e-02 -2.135180e-01 -2.184442e-01 -3.015592e-01 -5.460012e-02 -1.811208e-01 -2.129918e-01 3.158658e-01 2.388637e-01 1.306653e-01 1.970996e-01 1.624245e-01 4.833892e-01
<VARIANCE> 39
 3.062544e+01 2.050683e+01 2.709510e+01 2.879037e+01 3.006842e+01 3.448527e+01 2.459567e+01 3.133697e+01 2.873553e+01 3.189343e+01 2.455750e+01 2.070756e+01 3.273584e+01 2.579726e+00 2.222862e+00 2.441012e+00 3.076669e+00 3.094532e+00 4.262074e+00 3.016535e+00 3.530571e+00 2.516759e+00 3.189342e+00 2.997756e+00 2.380172e+00 3.344006e+00 5.073904e-01 5.023096e-01 4.506098e-01 4.899517e-01 6.394044e-01 6.442970e-01 6.296689e-01 6.715798e-01 5.352814e-01 5.853330e-01 5.008382e-01 4.545801e-01 3.177857e-01
<GCONST> 1.204619e+02
<TRANSP> 5
 0.000000e+00 1.000000e+00 0.000000e+00 0.000000e+00 0.000000e+00
 0.000000e+00 6.164197e-01 3.835803e-01 0.000000e+00 0.000000e+00
 0.000000e+00 0.000000e+00 7.318536e-01 2.681464e-01 0.000000e+00
 0.000000e+00 0.000000e+00 0.000000e+00 6.938531e-01 3.061469e-01
 0.000000e+00 0.000000e+00 0.000000e+00 0.000000e+00 0.000000e+00
<ENDHMM>
~h "p"
<BEGINHMM>
<NUMSTATES> 5
<STATE> 2
<MEAN> 39
 -9.145396e-01 -2.471048e+00 -4.644804e+00 -6.039999e+00 -8.792130e+00 -1.647799e+01 -2.235096e+01 -1.008433e+01 -4.993085e+00 -1.114366e+01 -9.889836e+00 -7.480363e+00 5.942286e+01 -1.516253e+00 7.500052e-01 -2.283222e-01 2.352777e+00 4.902624e-01 2.311982e+00 2.015139e+00 -8.421152e-02 -1.945510e+00 3.745397e-02 1.735209e+00 1.157282e-01 -3.342124e+00 -2.931854e-01 2.692010e-02 -7.721677e-01 -1.265021e+00 6.181622e-01 1.134755e+00 5.535868e-01 -3.813505e-01 2.032309e-01 6.241159e-01 2.173867e-01 1.717325e-01 -1.208747e-01
<VARIANCE> 39
 1.237640e+01 1.280027e+01 7.590876e+00 2.417150e+01 1.149649e+01 4.634451e+01 3.246435e+01 2.812510e+01 3.626769e+01 1.114974e+01 2.521889e+01 1.144783e+01 3.003739e+01 5.914163e-01 1.028247e+00 2.098027e+00 5.552300e+00 2.386959e+00 6.646501e+00 2.977988e+00 2.335720e+00 2.381731e+00 3.275902e+00 2.083402e+00 9.137235e-01 8.082088e-01 2.130501e-01 3.534083e-01 1.833309e-01 5.481691e-01 4.575624e-01 1.559123e+00 4.671285e-01 4.275586e-01 5.012856e-01 4.486127e-01 7.603344e-01 1.430253e-01 3.465239e-01
<GCONST> 1.076632e+02
<STATE> 3
<MEAN> 39
 -8.933145e+00 -2.564306e+00 -9.261698e+00 -7.275486e+00 -6.798383e+00 -6.223012e+00 -1.100829e+01 -1.078765e+01 -7.685140e+00 -4.344510e+00 -4.245080e+00 -5.574725e+00 4.830182e+01 -1.033695e+00 -6.900507e-01 -4.075646e-01 -1.610545e-02 -2.504286e-01 5.697290e-01 1.414056e+00 7.266219e-01 3.886821e-01 7.815421e-01 5.329883e-01 1.160808e-01 -4.895142e-01 -4.267120e-02 -2.117170e-01 1.605954e-01 2.058794e-01 -3.407767e-01 -5.046318e-01 -1.463069e-01 2.335122e-01 1.745152e-01 -1.568406e-01 3.567181e-02 6.573018e-02 8.884609e-01
<VARIANCE> 39
 8.635114e+00 3.912011e+00 7.906856e+00 7.037344e+00 9.908453e+00 9.293627e+00 1.728800e+01 1.934992e+01 1.587532e+01 1.246937e+01 8.295643e+00 8.597834e+00 6.245893e+00 3.728805e-01 9.674410e-01 9.332669e-01 1.693666e+00 1.316283e+00 1.772712e+00 1.337758e+00 1.880711e+00 1.352357e+00 1.409618e+00 1.442902e+00 8.722522e-01 1.856093e+00 1.647527e-01 1.655891e-01 1.256173e-01 3.387003e-01 4.196171e-01 4.180797e-01 3.139778e-01 2.318973e-01 2.196834e-01 2.461236e-01 3.178225e-01 1.594175e-01 7.379498e-01
<GCONST> 8.631754e+01
<STATE> 4
<MEAN> 39
 -1.326091e+01 -4.275241e+00 -6.696378e+00 -5.291828e+00 -1.545666e+01 -1.320835e+01 -1.342963e+01 -8.479850e+00 -2.872327e+00 -5.733055e+00 -5.428506e+00 -4.666152e+00 6.764153e+01 1.401132e+00 4.959212e-01 1.174287e-01 -7.626835e-01 -2.818740e-01 -6.877404e-01 -2.094593e+00 -9.485050e-01 5.441732e-01 -2.321618e-01 -1.108588e+00 -2.296272e-01 2.328269e+00 3.354357e-01 2.342271e-01 -2.164237e-01 -4.260246e-01 4.729900e-01 3.730098e-01 -1.050915e-01 -1.889350e-01 -1.986367e-01 1.257641e-01 -1.564871e-01 -2.831050e-02 -4.712636e-01
<VARIANCE> 39
 8.722926e+01 4.040878e+01 2.857936e+01 2.176519e+01 3.284649e+01 4.275499e+01 9.946635e+01 3.265894e+01 2.138802e+01 1.996708e+01 4.283435e+01 1.576601e+01 7.762135e+01 1.448874e+01 5.052190e+00 4.920753e+00 3.601496e+00 7.205471e+00 6.469004e+00 6.459077e+00 2.857163e+00 2.118257e+00 3.438835e+00 4.097957e+00 1.833273e+00 1.197272e+01 2.642982e+00 1.249721e+00 9.732866e-01 4.187519e-01 7.565972e-01 8.238199e-01 1.666889e+00 5.804132e-01 5.586619e-01 6.659029e-01 8.478855e-01 4.301820e-01 1.681956e+00
<GCONST> 1.372592e+02
<TRANSP> 5
 0.000000e+00 1.000000e+00 0.000000e+00 0.000000e+00 0.000000e+00
 0.000000e+00 6.935036e-01 3.064964e-01 0.000000e+00 0.000000e+00
 0.000000e+00 0.000000e+00 8.683485e-01 1.316515e-01 0.000000e+00
 0.000000e+00 0.000000e+00 0.000000e+00 8.925757e-01 1.074243e-01
 0.000000e+00 0.000000e+00 0.000000e+00 0.000000e+00 0.000000e+00
<ENDHMM>
~h "r"
<BEGINHMM>
<NUMSTATES> 5
<STATE> 2
<MEAN> 39
 1.837931e-01 -5.232609e+00 1.765676e+00 -2.360346e+00 -1.688991e+01 -2.388255e+01 -1.874664e+01 -8.933111e+00 -3.317339e+00 -9.880219e+00 -1.089263e+01 -4.648296e+00 6.833624e+01 2.009068e+00 -5.473832e-01 -2.230740e+00 1.162371e+00 1.536966e+00 5.443135e-01 -2.238863e+00 -1.657995e+00 1.880145e+00 1.520243e+00 -1.069449e+00 -1.716190e+00 -8.344874e-01 -2.087281e-02 5.159410e-01 -1.358003e-01 -8.943523e-01 -5.789204e-02 6.882422e-01 1.503595e-01 -5.790192e-01 -4.548388e-01 5.442341e-01 4.845933e-01 -2.638418e-01 -2.909932e-02
<VARIANCE> 39
 1.817483e+01 1.244309e+01 1.910492e+01 4.459617e+01 3.824990e+01 2.713303e+01 3.461846e+01 2.843730e+01 2.385093e+01 3.293155e+01 3.013526e+01 3.629467e+01 7.369955e+00 1.771219e+00 9.291715e-01 1.419123e+00 4.915068e+00 2.331096e+00 2.388263e+00 2.794643e+00 2.715524e+00 2.439508e+00 3.299469e+00 3.088080e+00 2.469690e+00 2.685254e-01 2.737984e-01 1.779803e-01 3.075892e-01 4.965311e-01 4.107399e-01 4.173132e-01 6.446044e-01 5.405791e-01 4.792888e-01 5.636770e-01 5.557424e-01 6.659471e-01 5.334038e-02
<GCONST> 1.093783e+02
<STATE> 3
<MEAN> 39
 6.607913e+00 -4.677717e+00 -4.434388e+00 -4.482567e+00 -1.403842e+01 -1.721019e+01 -2.290016e+01 -1.587632e+01 -1.834893e+00 -3.790091e+00 -1.045783e+01 -1.056395e+01 6.553606e+01 1.016259e+00 1.613373e-01 -1.249767e+00 -9.516813e-01 2.807958e-01 1.756301e+00 -3.114601e-01 -1.357297e+00 -3.685929e-01 1.335649e+00 2.097379e-01 -6.304874e-01 -3.392269e-01 -5.878835e-01 2.910580e-02 4.568788e-01 -2.708777e-01 -3.465006e-01 -2.467976e-01 5.056340e-01 6.452662e-01 -3.701473e-01 -4.088055e-01 7.036002e-02 6.636764e-01 3.342517e-01
<VARIANCE> 39
 4.813271e+00 9.093704e+00 1.536524e+01 1.658154e+01 1.869748e+01 2.563033e+01 1.942287e+01 2.386854e+01 1.600684e+01 2.751211e+01 2.528267e+01 2.025411e+01 5.768623e+00 1.157833e+00 8.082744e-01 1.925351e+00 2.047772e+00 2.204697e+00 2.089712e+00 1.697830e+00 2.842905e+00 1.971942e+00 2.361055e+00 2.959347e+00 2.949587e+00 3.901973e-01 1.397160e-01 1.429949e-01 1.784953e-01 3.400177e-01 2.927696e-01 5.258110e-01 3.772259e-01 4.001296e-01 5.131859e-01 4.891685e-01 4.829792e-01 2.945577e-01 2.899770e-02
<GCONST> 9.720743e+01
<STATE> 4
<MEAN> 39
 6.386172e+00 -4.275649e+00 -7.651869e+00 -1.088107e+01 -1.299833e+01 -1.343822e+01 -2.153372e+01 -1.641939e+01 -2.593234e+00 -6.706449e-01 -9.976011e+00 -7.880889e+00 6.719662e+01 -8.655139e-01 -5.116819e-02 5.106943e-01 -1.884583e+00 1.392076e-01 9.336232e-02 5.931681e-01 1.112188e+00 -5.866593e-02 -2.689654e-01 4.252847e-02 1.309391e+00 8.581011e-01 -3.218887e-01 6.080151e-02 3.882862e-01 -2.180225e-01 7.972448e-02 -1.631967e-01 2.577715e-01 7.134723e-02 -1.294418e-01 -1.489145e-01 1.283481e-01 9.037438e-02 9.906628e-02
<VARIANCE> 39
 5.790961e+00 1.092551e+01 3.997302e+01 3.641774e+01 3.382431e+01 4.006924e+01 3.638128e+01 4.589463e+01 3.039146e+01 5.573313e+01 3.412182e+01 3.031188e+01 7.097426e+00 6.261483e-01 9.734951e-01 2.680528e+00 2.738890e+00 3.785167e+00 3.510790e+00 3.237011e+00 2.836570e+00 4.701709e+00 3.008124e+00 2.088398e+00 2.247400e+00 2.658942e-01 9.306474e-02 1.904248e-01 1.732970e-01 3.451738e-01 4.190842e-01 4.590041e-01 6.013253e-01 6.518789e-01 8.843307e-01 8.036841e-01 3.963029e-01 4.544459e-01 6.691058e-02
<GCONST> 1.090551e+02
<TRANSP> 5
 0.000000e+00 1.000000e+00 0.000000e+00 0.000000e+00 0.000000e+00
 0.000000e+00 6.409397e-01 3.590604e-01 0.000000e+00 0.000000e+00
 0.000000e+00 0.000000e+00 7.228414e-01 2.771585e-01 0.000000e+00
 0.000000e+00 0.000000e+00 0.000000e+00 7.674119e-01 2.325881e-01
 0.000000e+00 0.000000e+00 0.000000e+00 0.000000e+00 0.000000e+00
<ENDHMM>
~h "s"
<BEGINHMM>
<NUMSTATES> 5
<STATE> 2
<MEAN> 39
 -9.964436e+00 2.363595e+00 -5.571498e+00 -5.421710e+00 -1.256447e+01 -1.853399e+01 -1.379588e+01 -8.699766e+00 -6.398264e+00 -1.039947e+01 -3.796902e+00 -2.403455e+00 6.233421e+01 -2.149189e+00 7.044587e-01 -2.014478e-01 1.810193e+00 -3.299867e-01 3.455845e-01 1.583073e+00 9.635203e-02 -2.201971e-01 -2.536210e-01 3.366927e-01 -2.170481e-01 -1.569481e-01 -6.007503e-01 -2.333584e-01 -3.473133e-01 -9.775067e-02 3.600227e-01 9.932611e-01 5.476718e-01 1.406603e-01 2.175372e-01 4.578542e-01 1.950391e-01 -8.649895e-02 -1.763964e-02
<VARIANCE> 39
 5.846648e+01 3.153389e+01 2.973960e+01 4.907815e+01 6.908036e+01 7.117348e+01 1.118032e+02 5.392557e+01 5.246182e+01 5.044174e+01 4.573837e+01 3.945386e+01 4.383846e+01 1.028917e+01 2.644416e+00 3.356554e+00 4.554727e+00 4.767296e+00 1.021255e+01 1.331551e+01 4.568342e+00 4.730812e+00 5.431474e+00 4.465286e+00 3.402973e+00 2.902986e+00 7.650582e-01 5.998330e-01 4.596285e-01 6.945438e-01 7.766005e-01 1.465307e+00 1.887311e+00 1.107072e+00 9.453008e-01 9.575837e-01 8.616532e-01 7.642118e-01 4.431529e-01
<GCONST> 1.415181e+02
<STATE> 3
<MEAN> 39
 -2.443875e+01 2.205177e+00 -9.248096e+00 5.702498e-01 -1.051835e+01 -7.417704e+00 -5.548069e+00 -5.724332e+00 -6.140248e+00 -6.839122e+00 -1.742167e+00 -4.251403e+00 6.139215e+01 -1.282655e+00 -5.880447e-01 -3.020678e-01 2.975291e-01 5.183169e-01 1.364680e+00 4.776630e-01 8.999206e-01 6.662377e-01 1.035635e+00 3.759218e-01 4.127789e-01 -6.311906e-01 6.236948e-01 -1.575496e-01 2.427340e-01 -3.478754e-01 -6.998913e-02 -4.209142e-01 -2.793720e-01 8.058600e-03 -4.871931e-02 -1.357765e-01 -4.535108e-02 1.031736e-01 -3.077288e-02
<VARIANCE> 39
 1.706969e+01 2.628597e+01 1.486439e+01 1.696216e+01 2.239497e+01 2.783230e+01 2.792993e+01 2.435727e+01 2.514484e+01 2.117114e+01 2.297136e+01 1.809782e+01 2.700888e+01 2.966778e+00 1.936622e+00 1.687465e+00 1.731434e+00 2.620843e+00 4.217680e+00 2.951276e+00 2.380865e+00 2.300347e+00 2.437951e+00 2.167252e+00 1.940144e+00 1.411522e+00 4.781552e-01 3.755821e-01 2.885646e-01 3.852338e-01 5.467058e-01 7.055548e-01 8.254732e-01 5.205815e-01 4.674877e-01 4.452537e-01 4.365063e-01 4.040800e-01 3.420376e-01
<GCONST> 1.124643e+02
<STATE> 4
<MEAN> 39
 -2.119983e+01 -1.062076e+00 -8.202556e+00 -2.267194e+00 -1.103776e+01 -9.250486e+00 -5.323308e+00 -2.173989e+00 -4.042518e+00 -5.281320e+00 1.240090e-01 -1.337686e+00 6.007582e+01 2.081439e+00 -1.249889e-01 3.562482e-01 -1.068505e+00 -7.056880e-01 -1.548306e+00 -6.698491e-01 2.834182e-01 -1.857179e-01 -7.351511e-01 -1.054359e-01 1.924762e-01 8.607732e-01 3.625401e-01 4.013854e-02 -2.830714e-03 -1.527952e-01 -4.789317e-02 -2.326814e-01 -2.082421e-01 -1.894546e-02 -1.527746e-01 -2.623713e-01 -1.572291e-01 -7.855493e-02 3.421358e-01
<VARIANCE> 39
 6.869170e+01 1.737124e+01 1.851034e+01 2.945246e+01 4.297521e+01 6.428090e+01 3.736691e+01 1.975868e+01 2.108854e+01 2.825574e+01 2.052313e+01 1.546455e+01 5.481845e+01 7.045138e+00 2.326127e+00 1.727736e+00 2.869095e+00 3.956687e+00 6.551866e+00 5.279999e+00 2.220784e+00 2.824610e+00 3.428095e+00 2.299347e+00 1.765039e+00 4.670677e+00 1.160982e+00 4.768931e-01 3.714939e-01 4.779871e-01 8.637333e-01 1.280473e+00 9.807227e-01 4.735246e-01 4.958012e-01 6.351973e-01 4.923413e-01 3.491623e-01 5.263078e-01
<GCONST> 1.245280e+02
<TRANSP> 5
 0.000000e+00 1.000000e+00 0.000000e+00 0.000000e+00 0.000000e+00
 0.000000e+00 6.441653e-01 3.558348e-01 0.000000e+00 0.000000e+00
 0.000000e+00 0.000000e+00 7.917408e-01 2.082592e-01 0.000000e+00
 0.000000e+00 0.000000e+00 0.000000e+00 7.686283e-01 2.313717e-01
 0.000000e+00 0.000000e+00 0.000000e+00 0.000000e+00 0.000000e+00
<ENDHMM>
~h "t"
<BEGINHMM>
<NUMSTATES> 5
<STATE> 2
<MEAN> 39
 -1.121464e+01 -8.065533e-01 -4.206303e+00 -6.386079e+00 -7.778687e+00 -7.453040e+00 -8.540894e+00 -8.158590e+00 -7.334868e+00 -6.497143e+00 -5.299235e+00 -4.550020e+00 4.868279e+01 -1.064367e+00 -1.227961e+00 -4.653313e-01 -1.841832e-01 2.011994e-01 5.115982e-01 6.413810e-01 7.137837e-01 6.054051e-01 4.020460e-01 7.595069e-01 1.398719e-01 4.425614e-01 -1.952954e-01 -6.702685e-02 6.261046e-02 -3.849163e-01 -1.473726e-01 -3.232673e-01 -1.120984e-01 1.092003e-01 4.789724e-02 4.897396e-02 3.293316e-01 1.246525e-01 1.124924e+00
<VARIANCE> 39
 1.652239e+01 1.069318e+01 1.464737e+01 1.395191e+01 2.378232e+01 2.233542e+01 3.429427e+01 2.333478e+01 1.993316e+01 1.937466e+01 1.745191e+01 1.664203e+01 1.938811e+01 1.547753e+00 1.779736e+00 2.951408e+00 3.244219e+00 2.257285e+00 2.923742e+00 3.090185e+00 2.280257e+00 2.680601e+00 2.183672e+00 2.530037e+00 1.738928e+00 8.098917e+00 2.000113e-01 3.011543e-01 3.356294e-01 4.241463e-01 4.602689e-01 5.336992e-01 5.304875e-01 4.376658e-01 4.538691e-01 4.511164e-01 5.007909e-01 3.719407e-01 8.919019e-01
<GCONST> 1.111720e+02
<STATE> 3
<MEAN> 39
 -2.020652e+01 -6.587714e+00 -5.642800e+00 -1.245288e+01 -8.865682e+00 -1.013543e+01 -6.190973e+00 -3.815211e+00 -4.151122e+00 -4.300173e+00 2.535981e+00 -3.796005e+00 6.801641e+01 -1.487466e+00 -6.911248e-02 -4.750320e-01 -4.461808e-01 -5.317287e-01 -1.578691e+00 9.920905e-01 1.191290e+00 -5.135445e-02 1.593371e-01 1.834226e+00 7.717518e-01 4.199188e+00 7.546356e-01 5.343759e-01 2.422567e-01 7.355054e-01 -2.261738e-01 -2.651291e-01 1.220962e-01 -4.900343e-02 -2.084926e-01 -2.994780e-01 -5.537670e-01 2.507367e-01 -1.160213e+00
<VARIANCE> 39
 1.764905e+01 3.250941e+01 3.343287e+01 3.772690e+01 3.733678e+01 3.526270e+01 3.251254e+01 2.896228e+01 2.362764e+01 1.863623e+01 2.008185e+01 1.659440e+01 6.180901e+01 2.705101e+00 3.158734e+00 3.287511e+00 5.011913e+00 3.155979e+00 3.618061e+00 4.160537e+00 3.392756e+00 2.648698e+00 2.322096e+00 3.350008e+00 2.227756e+00 1.009076e+01 4.846091e-01 6.962106e-01 1.039779e+00 8.639180e-01 6.232538e-01 7.380418e-01 8.842028e-01 5.825523e-01 6.917897e-01 4.982362e-01 5.936148e-01 4.147450e-01 1.562477e+00
<GCONST> 1.267339e+02
<STATE> 4
<MEAN> 39
 -1.702591e+01 -6.064425e+00 -5.361843e+00 -7.322010e+00 -1.049786e+01 -1.596628e+01 -2.840142e+00 7.870133e-01 -3.128234e+00 -6.623182e+00 2.292490e+00 9.166880e-01 6.738745e+01 1.650015e+00 1.086632e-01 5.181882e-01 1.381267e+00 -5.313043e-02 -9.269252e-01 -1.213737e+00 -2.253947e-01 2.660227e-01 -9.045300e-01 -1.617652e+00 1.538458e-01 -1.258372e+00 3.837620e-01 2.465143e-01 1.025856e-01 -1.648338e-02 1.511934e-01 3.022219e-01 -8.194388e-01 -7.123516e-01 -1.945817e-01 7.194422e-03 -5.913583e-01 -4.511422e-01 -4.134302e-01
<VARIANCE> 39
 2.628943e+01 2.815597e+01 1.629629e+01 2.135020e+01 3.425864e+01 3.295322e+01 4.626423e+01 3.903576e+01 3.186911e+01 2.451177e+01 3.603222e+01 1.976945e+01 3.753989e+01 2.806098e+00 2.759853e+00 2.832779e+00 2.979507e+00 3.366048e+00 3.917491e+00 7.455962e+00 6.006855e+00 3.856169e+00 3.130118e+00 5.013874e+00 3.656571e+00 1.802820e+00 6.371887e-01 5.841888e-01 4.673154e-01 4.977427e-01 5.407760e-01 6.325452e-01 1.344154e+00 9.776137e-01 9.618050e-01 6.233369e-01 7.820944e-01 5.537812e-01 6.376332e-01
<GCONST> 1.270240e+02
<TRANSP> 5
 0.000000e+00 1.000000e+00 0.000000e+00 0.000000e+00 0.000000e+00
 0.000000e+00 8.200499e-01 1.799501e-01 0.000000e+00 0.000000e+00
 0.000000e+00 0.000000e+00 6.956730e-01 3.043270e-01 0.000000e+00
 0.000000e+00 0.000000e+00 0.000000e+00 7.887917e-01 2.112083e-01
 0.000000e+00 0.000000e+00 0.000000e+00 0.000000e+00 0.000000e+00
<ENDHMM>
~h "v"
<BEGINHMM>
<NUMSTATES> 5
<STATE> 2
<MEAN> 39
 -3.153425e+00 -3.424246e+00 1.928156e+00 -1.458055e+01 -2.199780e+01 -1.608801e+01 -1.331066e+01 -7.196646e+00 -1.067530e+01 -6.504497e+00 -8.143020e+00 -2.964701e+00 6.985087e+01 4.035804e-01 9.533693e-01 4.172108e-01 2.121889e+00 9.037540e-01 -5.542612e-01 -7.032222e-01 -6.200836e-01 1.749904e-01 -1.071920e-01 -4.582503e-01 -4.328968e-02 -2.389441e+00 -4.225167e-01 -3.329411e-02 -3.845266e-01 4.414352e-01 8.315780e-01 4.732638e-01 2.610690e-01 -1.117006e-01 1.262182e-02 -5.257242e-01 1.402177e-01 -2.555157e-01 -3.803458e-01
<VARIANCE> 39
 9.557625e+00 1.372880e+01 2.416593e+01 3.567928e+01 5.383224e+01 4.546584e+01 3.129668e+01 3.975814e+01 2.147178e+01 5.817728e+01 3.832436e+01 2.884809e+01 2.612361e+01 9.518742e-01 7.400056e-01 1.614824e+00 2.567111e+00 5.534318e+00 3.208655e+00 2.354760e+00 2.441567e+00 2.017967e+00 3.909176e+00 2.123309e+00 2.780878e+00 1.234253e+00 3.725764e-01 1.749427e-01 2.634690e-01 4.474285e-01 7.321889e-01 5.306493e-01 5.357673e-01 5.647466e-01 4.217945e-01 7.860212e-01 5.446990e-01 4.721799e-01 1.655519e-01
<GCONST> 1.141232e+02
<STATE> 3
<MEAN> 39
 -4.834456e+00 4.680694e-01 1.067659e-02 -5.301839e+00 -1.261487e+01 -1.570724e+01 -1.460393e+01 -9.683559e+00 -1.067560e+01 -1.205454e+01 -8.257571e+00 -5.037861e+00 5.953224e+01 -2.273966e+00 2.143041e-01 -1.102526e+00 1.484986e+00 1.326815e+00 1.717721e+00 1.371395e+00 -4.588248e-01 3.539863e-01 -4.251596e-01 6.376219e-01 -8.810961e-01 -2.050274e+00 -4.051190e-01 -3.331634e-01 -3.242443e-01 -7.456757e-01 -5.812228e-01 -3.136430e-02 5.666824e-01 4.533640e-01 2.739339e-01 4.117606e-01 1.950442e-01 2.714643e-01 6.591743e-01
<VARIANCE> 39
 2.377951e+01 1.050848e+01 1.588984e+01 1.933659e+01 2.319784e+01 4.041690e+01 2.229101e+01 3.736098e+01 2.788098e+01 3.333018e+01 2.488787e+01 2.511928e+01 1.554785e+01 2.693435e+00 1.318066e+00 2.568795e+00 2.572119e+00 4.821474e+00 3.173108e+00 3.173550e+00 4.405615e+00 2.824038e+00 4.384795e+00 3.088268e+00 2.571759e+00 2.337883e+00 4.941479e-01 2.147728e-01 3.074175e-01 3.487040e-01 6.095206e-01 5.916336e-01 4.735991e-01 7.166669e-01 5.204806e-01 5.880958e-01 4.601546e-01 4.603033e-01 3.363162e-01
<GCONST> 1.160665e+02
<STATE> 4
<MEAN> 39
 -1.399755e+01 -5.123546e+00 -5.489903e+00 -6.005829e+00 -9.267175e+00 -1.190920e+01 -6.453847e+00 -3.199523e+00 -4.220232e+00 -8.381667e+00 -3.717390e+00 -3.079332e+00 5.509157e+01 -5.552522e-01 -1.258216e-01 -4.531022e-01 -7.139647e-02 2.204508e-01 8.667201e-02 5.004362e-01 3.079571e-01 5.163035e-01 5.012398e-01 4.322283e-01 2.114533e-01 -4.424005e-01 2.441881e-01 4.942191e-02 1.332886e-01 -1.038573e-01 -8.050649e-02 -1.159964e-01 -2.086477e-01 -1.020337e-01 -3.751606e-02 7.169448e-02 -5.698436e-02 4.349513e-02 1.571690e-01
<VARIANCE> 39
 3.592103e+01 6.630729e+01 1.779179e+01 2.647077e+01 3.806579e+01 3.596859e+01 3.416847e+01 4.997250e+01 4.183493e+01 2.536387e+01 2.246697e+01 2.628254e+01 4.209936e+01 2.610684e+00 1.939000e+00 1.831532e+00 2.148113e+00 2.720176e+00 3.459970e+00 3.091205e+00 3.442935e+00 2.713102e+00 2.606324e+00 2.483038e+00 2.347756e+00 2.526450e+00 4.796342e-01 3.325558e-01 3.181016e-01 5.128278e-01 5.574943e-01 6.419407e-01 5.496536e-01 5.217922e-01 4.484770e-01 5.304885e-01 5.007694e-01 4.127634e-01 4.602365e-01
<GCONST> 1.198908e+02
<TRANSP> 5
 0.000000e+00 1.000000e+00 0.000000e+00 0.000000e+00 0.000000e+00
 0.000000e+00 6.315021e-01 3.684979e-01 0.000000e+00 0.000000e+00
 0.000000e+00 0.000000e+00 5.672498e-01 4.327502e-01 0.000000e+00
 0.000000e+00 0.000000e+00 0.000000e+00 8.110662e-01 1.889338e-01
 0.000000e+00 0.000000e+00 0.000000e+00 0.000000e+00 0.000000e+00
<ENDHMM>
~h "w"
<BEGINHMM>
<NUMSTATES> 5
<STATE> 2
<MEAN> 39
 -2.883951e+00 2.801174e+00 -1.094236e+01 -1.726261e+01 -1.115864e+01 -6.778986e+00 -1.041481e+01 -6.659410e+00 -6.934754e+00 -7.720380e+00 -1.742327e+00 -1.769751e+00 5.384908e+01 2.202714e+00 1.639994e+00 -2.282016e-01 -2.096247e+00 -1.317132e+00 -2.881780e-02 -7.708394e-01 4.755889e-02 -7.943246e-01 -1.349790e+00 2.985644e-02 -3.746579e-01 1.350699e+00 1.276213e-01 -1.540139e-02 -5.793881e-02 -3.805327e-01 2.278883e-01 2.314372e-01 -3.227222e-01 -1.648893e-02 9.812175e-02 -2.206205e-01 2.809615e-01 -1.751363e-01 3.870705e-01
<VARIANCE> 39
 6.849870e+01 5.995443e+01 2.755879e+01 8.510904e+01 6.220725e+01 2.833294e+01 3.008875e+01 3.194621e+01 4.502797e+01 3.648079e+01 2.698273e+01 1.957811e+01 3.673844e+01 7.521957e+00 3.786702e+00 2.306415e+00 1.132081e+01 4.515965e+00 3.284764e+00 4.406443e+00 3.156175e+00 3.353274e+00 4.879983e+00 4.152577e+00 3.099560e+00 5.016103e+00 1.377782e+00 8.912143e-01 4.205491e-01 1.740200e+00 1.106711e+00 6.018119e-01 5.770277e-01 5.871471e-01 8.079441e-01 8.443559e-01 7.406246e-01 5.803950e-01 5.595728e-01
<GCONST> 1.348788e+02
<STATE> 3
<MEAN> 39
 7.331396e+00 8.709124e+00 -1.185994e+01 -3.011185e+01 -1.225627e+01 -1.567385e+00 -1.917496e+01 -7.361341e+00 -7.226609e+00 -1.565767e+01 3.649004e+00 -5.809754e+00 6.477296e+01 -4.590776e-01 -1.293285e+00 -5.952366e-01 -7.953928e-01 2.351490e+00 1.275198e+00 -1.667270e+00 -1.013757e+00 1.873310e+00 4.960048e-01 7.737846e-01 -3.018716e-01 1.785656e+00 -6.966895e-01 -6.173117e-01 -2.968754e-02 8.223019e-01 5.421526e-01 -4.687616e-01 2.354705e-01 -1.775962e-01 4.503628e-01 4.145162e-01 -8.023307e-01 -9.757459e-03 -8.931663e-02
<VARIANCE> 39
 5.428456e+00 1.370532e+01 1.481676e+01 2.128800e+01 2.764840e+01 2.957112e+01 3.143848e+01 2.840234e+01 5.012797e+01 3.198157e+01 4.178993e+01 3.457222e+01 1.167762e+01 1.074153e+00 1.746562e+00 1.225556e+00 3.453912e+00 2.372337e+00 2.848494e+00 3.326927e+00 3.168251e+00 4.600697e+00 4.129791e+00 5.614712e+00 3.201887e+00 1.069772e+00 3.133376e-01 2.354472e-01 2.505076e-01 7.082123e-01 4.359029e-01 7.015679e-01 7.907462e-01 5.765309e-01 8.485246e-01 1.026696e+00 1.397475e+00 7.323287e-01 2.332630e-01
<GCONST> 1.167169e+02
<STATE> 4
<MEAN> 39
 1.787179e+00 -1.338542e+00 -1.498278e+01 -2.816983e+01 1.114245e+00 -1.034055e+00 -2.337605e+01 -1.357799e+01 3.258905e+00 -1.326444e+01 -1.951283e+00 -8.119196e+00 7.338074e+01 -1.929722e+00 -2.546531e+00 9.756439e-02 2.450919e+00 1.910528e+00 -2.404033e+00 4.497656e-01 5.177190e-01 1.111413e+00 -1.174872e+00 -4.227163e+00 -1.330483e+00 1.735638e+00 7.683850e-02 3.126109e-01 5.035462e-01 4.627100e-01 -1.109770e+00 -6.719946e-01 5.945200e-01 1.082936e+00 -8.373494e-01 -7.115805e-01 -2.588647e-01 3.585201e-01 -3.824743e-01
<VARIANCE> 39
 6.197679e+00 1.844536e+01 9.124743e+00 2.309940e+01 1.991609e+01 3.488815e+01 2.537989e+01 3.219488e+01 3.146751e+01 4.435245e+01 4.930185e+01 2.962661e+01 1.191055e+01 3.340359e-01 1.057385e+00 1.580188e+00 1.402086e+00 3.550258e+00 2.314549e+00 3.659393e+00 3.725288e+00 3.704275e+00 3.894868e+00 2.379200e+00 3.180383e+00 4.081848e-01 9.414230e-02 1.923260e-01 1.867977e-01 4.664783e-01 3.450396e-01 5.778127e-01 5.324519e-01 4.819523e-01 4.750150e-01 7.731747e-01 1.151667e+00 7.354102e-01 5.294333e-02
<GCONST> 1.067611e+02
<TRANSP> 5
 0.000000e+00 1.000000e+00 0.000000e+00 0.000000e+00 0.000000e+00
 0.000000e+00 8.581796e-01 1.418205e-01 0.000000e+00 0.000000e+00
 0.000000e+00 0.000000e+00 7.970863e-01 2.029137e-01 0.000000e+00
 0.000000e+00 0.000000e+00 0.000000e+00 6.465263e-01 3.534736e-01
 0.000000e+00 0.000000e+00 0.000000e+00 0.000000e+00 0.000000e+00
<ENDHMM>
~h "y"
<BEGINHMM>
<NUMSTATES> 5
<STATE> 2
<MEAN> 39
 -7.258064e+00 7.519534e+00 5.860138e+00 -2.189588e+01 -2.114518e+01 -1.053434e+01 -1.088721e+01 -1.115514e+01 -8.117050e+00 -2.156279e+00 -1.184138e+01 -7.145467e+00 6.297888e+01 1.407928e-01 2.146107e-01 5.914126e-01 -1.030987e+00 -8.227121e-01 -5.273550e-02 4.080330e-01 -1.302713e-01 -1.385046e-01 -2.354813e-02 4.455915e-01 -8.199620e-01 1.374009e+00 1.085570e-02 -3.850070e-01 -4.461855e-01 3.389232e-01 3.279193e-01 -7.236565e-02 5.353624e-02 2.053274e-01 1.114086e-01 -2.816469e-01 2.511575e-01 9.066386e-02 4.686328e-02
<VARIANCE> 39
 1.063469e+01 6.474126e+01 5.471613e+01 8.666142e+01 5.907066e+01 2.951433e+01 3.105278e+01 2.793608e+01 3.447292e+01 2.687833e+01 7.828920e+01 5.737944e+01 5.665651e+01 1.293283e+00 9.096966e+00 6.414427e+00 9.310768e+00 7.041187e+00 3.803197e+00 5.109528e+00 4.846158e+00 4.414927e+00 3.144697e+00 9.719155e+00 3.105296e+00 3.876194e+00 2.200389e-01 9.109098e-01 9.898986e-01 1.354749e+00 1.800685e+00 6.713134e-01 9.323807e-01 8.793938e-01 8.123271e-01 7.314412e-01 1.359248e+00 6.560486e-01 5.449182e-01
<GCONST> 1.380633e+02
<STATE> 3
<MEAN> 39
 -4.739307e+00 -7.385161e+00 -3.509276e+00 -1.951725e+01 -1.389322e+01 -1.512054e+01 -5.763892e+00 -5.468687e+00 -2.769953e+00 -1.678905e+01 -4.443159e+00 -7.460811e+00 7.628644e+01 4.267827e-01 -1.964726e+00 -2.177155e+00 1.249409e-01 3.951835e+00 -2.384404e-01 -5.745336e-01 1.440307e-01 1.637723e+00 -3.386523e+00 -9.718161e-01 1.478082e-01 4.620944e-01 -3.788769e-02 5.656725e-01 3.690243e-01 -4.412673e-01 1.967586e-01 1.915813e-01 -4.661629e-01 -5.719513e-01 2.873766e-01 2.103378e-01 -1.367397e-01 -4.525151e-01 -2.704855e-01
<VARIANCE> 39
 2.581660e+00 1.907414e+01 2.598673e+01 9.218054e+00 8.346971e+01 1.484249e+01 2.288428e+01 1.741432e+01 2.591277e+01 8.764687e+01 2.290581e+01 1.469386e+01 3.485174e+00 1.935667e-01 1.937187e+00 1.395343e+00 2.126005e+00 1.516774e+00 1.018044e+00 2.755266e+00 4.808508e+00 3.076634e+00 3.881102e+00 2.089277e+00 3.219519e+00 3.327691e-01 3.168957e-02 1.014507e-01 1.350956e-01 2.222877e-01 7.620751e-01 1.657569e-01 4.176196e-01 5.681471e-01 4.929138e-01 1.419643e+00 8.780904e-01 3.806498e-01 1.693152e-02
<GCONST> 9.708390e+01
<STATE> 4
<MEAN> 39
 -5.382052e-02 -6.115831e+00 -1.117144e+01 -2.380694e+01 4.575940e+00 -1.074552e+01 -1.728420e+01 -1.209708e+01 8.063179e+00 -2.674720e+01 2.634139e+00 -1.561038e+01 7.213696e+01 6.083778e-01 8.851003e-01 -2.726944e-01 7.514917e-02 3.668941e-02 6.949886e-01 -8.706012e-01 -2.860945e-01 -4.447147e-01 9.487747e-02 1.352962e+00 -2.457703e-01 -8.494522e-01 1.361064e-02 8.318498e-02 7.111474e-02 1.735860e-01 -3.474264e-01 8.622021e-04 1.368987e-01 1.165221e-01 -3.771869e-01 2.051429e-01 -7.793121e-02 2.242216e-01 -6.544597e-02
<VARIANCE> 39
 1.046758e+01 2.115762e+01 1.088275e+01 1.206787e+01 1.749219e+01 2.454915e+01 4.046941e+01 1.605450e+01 2.536805e+01 1.431984e+01 7.541645e+01 1.439384e+01 1.650080e+01 1.500668e-01 3.454072e-01 3.630999e-01 1.052017e+00 2.521894e+00 1.006041e+00 1.257697e+00 1.167932e+00 3.640024e+00 1.396397e+00 2.044504e+00 1.687562e+00 2.213752e-01 2.632833e-02 5.452464e-02 7.830586e-02 1.187769e-01 2.320192e-01 2.028697e-01 2.016541e-01 1.935009e-01 3.098778e-01 2.816098e-01 4.013577e-01 1.659883e-01 1.665008e-02
<GCONST> 8.216591e+01
<TRANSP> 5
 0.000000e+00 1.000000e+00 0.000000e+00 0.000000e+00 0.000000e+00
 0.000000e+00 9.201202e-01 7.987975e-02 0.000000e+00 0.000000e+00
 0.000000e+00 0.000000e+00 8.458962e-01 1.541038e-01 0.000000e+00
 0.000000e+00 0.000000e+00 0.000000e+00 9.282119e-01 7.178814e-02
 0.000000e+00 0.000000e+00 0.000000e+00 0.000000e+00 0.000000e+00
<ENDHMM>
~h "z"
<BEGINHMM>
<NUMSTATES> 5
<STATE> 2
<MEAN> 39
 -5.294258e+00 4.144231e+00 -5.909746e+00 -4.839824e+00 -1.470803e+01 -1.668039e+01 -1.794973e+01 -4.537006e+00 -3.031244e+00 -8.631919e+00 -3.095487e+00 1.159305e+00 5.702087e+01 6.769941e-01 1.660265e+00 5.364518e-01 1.481795e+00 -1.269393e+00 -9.550610e-01 -4.099240e-01 8.457603e-02 -8.843604e-01 -1.718992e+00 -9.687684e-01 -4.825476e-01 3.098726e-01 -1.551380e-01 1.468128e-01 -4.304222e-02 -7.683365e-02 2.419035e-01 3.125573e-01 2.832439e-01 -4.326473e-01 -3.175150e-01 -1.304782e-01 -1.664348e-01 -4.818261e-01 1.364087e-01
<VARIANCE> 39
 2.800549e+01 2.264369e+01 2.402184e+01 4.181332e+01 7.308316e+01 5.822434e+01 9.382687e+01 4.960617e+01 5.329163e+01 5.642297e+01 4.866861e+01 3.621035e+01 4.404229e+01 3.528479e+00 3.295294e+00 1.532810e+00 2.172031e+00 4.663845e+00 6.398983e+00 8.417862e+00 6.021341e+00 4.222873e+00 4.025282e+00 4.457080e+00 5.600799e+00 5.469816e+00 7.005324e-01 4.227307e-01 2.590277e-01 4.209312e-01 9.892804e-01 1.266837e+00 1.478428e+00 8.808857e-01 9.047871e-01 8.568254e-01 9.460027e-01 1.004872e+00 6.754431e-01
<GCONST> 1.361981e+02
<STATE> 3
<MEAN> 39
 -7.269028e+00 1.340955e+01 -3.477883e+00 2.074600e+00 -1.548579e+01 -1.552049e+01 -1.435507e+01 -1.027986e+01 -1.147319e+01 -1.619483e+01 -9.497154e+00 -7.808817e+00 5.867393e+01 -1.541543e+00 3.119473e-01 7.723206e-01 6.027253e-02 1.085167e-01 2.814113e-01 1.449939e+00 -1.028597e+00 -9.063469e-01 1.170227e-01 1.763713e-01 -1.045826e+00 1.065065e+00 -5.390551e-02 -8.433447e-01 1.925205e-01 -6.558602e-01 -3.740527e-01 -3.176169e-01 1.981003e-01 2.832433e-01 3.658961e-01 6.007420e-01 7.170006e-01 6.785594e-01 3.698845e-01
<VARIANCE> 39
 5.371955e+01 1.767291e+01 2.463973e+01 2.686265e+01 3.515105e+01 2.751042e+01 3.081966e+01 3.356557e+01 2.976434e+01 1.956365e+01 2.386959e+01 2.496578e+01 1.336935e+01 2.945812e+00 3.350080e+00 2.581945e+00 2.661932e+00 4.700550e+00 4.289594e+00 3.568147e+00 4.287270e+00 4.143766e+00 2.772564e+00 3.974418e+00 4.098283e+00 2.964178e+00 9.308362e-01 4.891874e-01 4.986182e-01 5.342609e-01 1.157357e+00 7.793678e-01 7.838476e-01 7.803029e-01 6.771767e-01 5.334814e-01 5.532234e-01 6.095187e-01 4.525011e-01
<GCONST> 1.248586e+02
<STATE> 4
<MEAN> 39
 -1.130172e+01 8.188681e+00 8.819784e-01 -2.944169e+00 -2.034155e+01 -1.952169e+01 -8.572139e+00 -1.090562e+01 -1.216217e+01 -1.255649e+01 -2.644973e+00 -6.162648e+00 6.721602e+01 1.366223e+00 -2.065688e+00 1.228619e+00 -3.044555e+00 -3.270582e+00 -9.036312e-01 3.106672e-01 -3.564377e-01 4.298553e-01 1.939280e+00 1.895572e+00 1.711332e+00 2.736748e+00 6.494434e-01 1.391467e-01 -5.717419e-02 -5.405073e-01 -1.633730e-01 6.406749e-01 -5.653037e-01 -1.215787e-01 4.936966e-01 4.330421e-01 -6.301811e-01 1.776220e-01 -2.875099e-01
<VARIANCE> 39
 2.405807e+01 1.947964e+01 1.570819e+01 2.225511e+01 3.601445e+01 2.343409e+01 2.436988e+01 2.678209e+01 2.173854e+01 2.286853e+01 2.355753e+01 2.748309e+01 1.582055e+01 3.571056e+00 2.035506e+00 2.073963e+00 2.245475e+00 3.521419e+00 3.030537e+00 3.970302e+00 2.965874e+00 3.362487e+00 2.472934e+00 2.945969e+00 2.634579e+00 1.013597e+00 6.068613e-01 5.282137e-01 3.650100e-01 4.295457e-01 8.690361e-01 6.098177e-01 7.010179e-01 6.155810e-01 6.635650e-01 5.141662e-01 6.324328e-01 6.178755e-01 2.686909e-01
<GCONST> 1.170874e+02
<TRANSP> 5
 0.000000e+00 1.000000e+00 0.000000e+00 0.000000e+00 0.000000e+00
 0.000000e+00 8.156101e-01 1.843899e-01 0.000000e+00 0.000000e+00
 0.000000e+00 0.000000e+00 7.735817e-01 2.264182e-01 0.000000e+00
 0.000000e+00 0.000000e+00 0.000000e+00 6.166670e-01 3.833329e-01
 0.000000e+00 0.000000e+00 0.000000e+00 0.000000e+00 0.000000e+00
<ENDHMM>
~h "ae"
<BEGINHMM>
<NUMSTATES> 5
<STATE> 2
<MEAN> 39
 -6.959272e+00 -1.135203e-01 -4.635512e+00 -6.225762e+00 -5.806899e+00 -9.203100e+00 -1.374643e+01 -1.220212e+01 -8.977705e+00 -8.067503e+00 -6.279126e+00 -5.662543e+00 5.149322e+01 -1.474474e+00 -1.103163e+00 -3.787547e-01 6.241319e-01 3.779674e-03 4.510002e-01 1.704893e+00 8.441954e-01 1.074196e+00 6.836356e-01 4.009136e-01 1.773532e-01 -5.658451e-01 -1.389475e-01 -2.001864e-01 -1.722139e-01 -2.845237e-01 -1.348810e-01 -4.083021e-01 1.353415e-01 1.339499e-01 2.823940e-01 1.472180e-01 -2.899856e-02 1.242783e-01 1.040793e+00
<VARIANCE> 39
 1.604517e+01 1.269115e+01 1.869364e+01 1.221240e+01 1.546540e+01 1.595229e+01 1.998841e+01 2.127466e+01 2.628181e+01 1.707139e+01 2.090643e+01 9.498969e+00 1.608124e+01 1.526901e+00 2.179015e+00 2.108873e+00 1.833346e+00 1.370298e+00 3.399132e+00 3.179887e+00 2.519047e+00 2.951304e+00 2.561142e+00 1.927226e+00 1.275811e+00 8.122493e+00 2.632131e-01 3.983717e-01 4.794574e-01 4.696119e-01 3.270513e-01 4.668444e-01 5.300582e-01 5.188559e-01 6.144237e-01 4.105892e-01 4.192939e-01 3.156020e-01 9.828569e-01
<GCONST> 1.090175e+02
<STATE> 3
<MEAN> 39
 -1.676550e+01 -5.416496e+00 -6.421649e+00 -4.932113e+00 -7.819213e+00 -1.272278e+01 -3.986213e+00 -7.294990e+00 -2.866803e+00 -4.270860e+00 -3.681258e+00 -3.509940e+00 6.052836e+01 1.374919e-01 3.697844e-01 3.625608e-01 -6.449412e-01 -1.423482e+00 -9.882035e-01 4.501785e-01 -7.894066e-02 -2.089819e-02 1.418873e-01 5.448185e-01 4.105924e-01 2.047572e+00 6.454393e-01 8.821861e-02 1.567482e-01 -1.115314e-01 -1.977134e-01 -2.388651e-02 -3.060518e-01 1.129941e-01 -3.217288e-01 -7.522921e-02 -4.309041e-02 -9.264436e-02 -2.609840e-01
<VARIANCE> 39
 2.190711e+01 2.636285e+01 1.977372e+01 2.955649e+01 3.720974e+01 3.036334e+01 3.557103e+01 3.370372e+01 2.555501e+01 2.118343e+01 2.554640e+01 1.547797e+01 1.385632e+02 7.432872e+00 3.087901e+00 3.041361e+00 2.727154e+00 4.515289e+00 5.032607e+00 3.948194e+00 4.516841e+00 3.947376e+00 2.440682e+00 2.806673e+00 1.509310e+00 1.873911e+01 9.705237e-01 9.397264e-01 5.957097e-01 3.915369e-01 6.490633e-01 8.677001e-01 7.969653e-01 1.222383e+00 7.821172e-01 5.345896e-01 6.660232e-01 3.511661e-01 3.139141e+00
<GCONST> 1.302949e+02
<STATE> 4
<MEAN> 39
 -4.722681e+00 -7.986449e+00 -4.208448e+00 -1.559418e+01 -1.913073e+01 -1.706886e+01 -1.929444e+00 -4.951070e+00 -1.037131e+01 -1.069023e+01 -3.861890e+00 -3.913544e+00 7.684500e+01 4.341889e-01 -1.761986e-01 9.026000e-02 -2.022788e-01 3.922284e-04 -2.667700e-01 -3.771258e-01 3.836267e-01 -5.431699e-01 -8.004611e-01 -2.483324e-01 -1.084167e-01 -2.165106e-01 -3.736137e-01 2.402955e-01 -1.028594e-01 2.570652e-01 1.932124e-01 8.361977e-02 -1.376752e-01 -1.682763e-01 9.508155e-02 -1.648159e-02 2.295511e-03 1.403082e-03 -2.277413e-01
<VARIANCE> 39
 2.711953e+00 1.422405e+01 9.093058e+00 1.486566e+01 1.724055e+01 2.895380e+01 1.921165e+01 1.770815e+01 2.247398e+01 4.725289e+01 2.721893e+01 1.352507e+01 7.491779e+00 2.024285e+00 2.820724e+00 1.165436e+00 1.371409e+00 1.986398e+00 3.762662e+00 2.774592e+00 3.079122e+00 1.581332e+00 4.125216e+00 2.734446e+00 1.576679e+00 8.949997e-01 4.086831e-01 2.934744e-01 3.421943e-01 2.207091e-01 6.086547e-01 8.428928e-01 4.777096e-01 5.093914e-01 2.563045e-01 8.082433e-01 5.463886e-01 3.179123e-01 5.137860e-02
<GCONST> 1.036845e+02
<TRANSP> 5
 0.000000e+00 1.000000e+00 0.000000e+00 0.000000e+00 0.000000e+00
 0.000000e+00 8.472978e-01 1.527022e-01 0.000000e+00 0.000000e+00
 0.000000e+00 0.000000e+00 8.971958e-01 1.028042e-01 0.000000e+00
 0.000000e+00 0.000000e+00 0.000000e+00 9.199511e-01 8.004892e-02
 0.000000e+00 0.000000e+00 0.000000e+00 0.000000e+00 0.000000e+00
<ENDHMM>
~h "ah"
<BEGINHMM>
<NUMSTATES> 5
<STATE> 2
<MEAN> 39
 -2.457165e+00 -6.819471e+00 -1.198214e+01 -1.935545e+01 -1.633155e+00 -9.604763e+00 -1.843359e+01 -5.705823e+00 1.217619e+00 -2.101551e+01 -1.050272e+01 -8.163114e+00 7.589368e+01 -6.152771e-01 -6.346433e-01 6.075147e-01 1.518910e+00 -1.208968e+00 -1.415834e+00 8.988811e-01 2.236830e+00 -1.038426e+00 -1.035249e+00 -1.094755e+00 8.749278e-01 2.610243e-01 1.981168e-01 4.075969e-01 2.049436e-02 -2.913769e-01 -2.252397e-01 2.592128e-01 -1.380227e-01 -9.466201e-02 -9.335187e-02 4.226383e-01 7.901117e-01 2.196990e-01 -2.973354e-01
<VARIANCE> 39
 7.045065e+00 1.147054e+01 1.013665e+01 2.262783e+01 2.658457e+01 2.558892e+01 2.349334e+01 3.517027e+01 2.287031e+01 1.735130e+01 5.343754e+01 2.941643e+01 1.955327e+01 4.546984e-01 7.793365e-01 6.582941e-01 1.125902e+00 1.425454e+00 1.836621e+00 1.339525e+00 1.693773e+00 2.031152e+00 2.875971e+00 2.624952e+00 1.675763e+00 3.432018e-01 1.481438e-01 1.042224e-01 1.506784e-01 1.807495e-01 2.717085e-01 2.238653e-01 3.167715e-01 3.048297e-01 3.255978e-01 3.501807e-01 5.173901e-01 3.820860e-01 4.655000e-02
<GCONST> 9.391133e+01
<STATE> 3
<MEAN> 39
 -3.757039e+00 -6.473958e+00 -9.315289e+00 -1.531199e+01 -7.107610e+00 -1.701280e+01 -1.722118e+01 1.584333e+00 -3.219404e+00 -2.205209e+01 -9.281521e+00 -4.056314e+00 7.502673e+01 1.207006e-01 5.548978e-01 3.597498e-01 4.482912e-01 -6.321969e-01 -1.302230e+00 -2.193061e-01 7.166410e-01 -7.011148e-01 5.323891e-01 7.245883e-01 5.086506e-01 -6.362110e-01 9.054576e-02 1.617742e-01 -5.639609e-02 -3.051810e-02 1.489588e-01 2.639902e-03 -1.812014e-01 -1.812738e-01 -2.281996e-02 2.882456e-01 6.833592e-02 -1.867107e-02 -1.509460e-01
<VARIANCE> 39
 6.351658e+00 1.019747e+01 8.896574e+00 1.393561e+01 1.732039e+01 3.251077e+01 2.369705e+01 2.700261e+01 2.837119e+01 2.016850e+01 2.947880e+01 2.485646e+01 1.464041e+01 2.646412e-01 4.512641e-01 5.594302e-01 9.281289e-01 1.370152e+00 1.210454e+00 1.327554e+00 1.288952e+00 1.478506e+00 1.851956e+00 1.371346e+00 1.309882e+00 1.602694e-01 4.045847e-02 5.407026e-02 9.442694e-02 1.510107e-01 1.919712e-01 1.574470e-01 1.924382e-01 2.275862e-01 2.570229e-01 2.562100e-01 2.286529e-01 2.199006e-01 2.383762e-02
<GCONST> 8.066814e+01
<STATE> 4
<MEAN> 39
 -1.089850e+00 -1.094061e+00 -8.195950e+00 -1.060515e+01 -8.277224e+00 -2.333961e+01 -2.149939e+01 5.067047e+00 -8.805521e+00 -1.561391e+01 -4.420340e+00 -8.985113e-01 6.828085e+01 4.920353e-01 9.405822e-01 3.025192e-01 1.126773e+00 1.549540e-01 -8.392933e-02 -8.596288e-01 -3.955457e-01 -1.174691e+00 9.110669e-01 -3.520133e-02 -1.600006e-02 -1.669549e+00 -7.514397e-02 6.102510e-02 1.902813e-01 1.989000e-01 -7.383360e-02 3.744884e-01 1.845761e-01 -6.722958e-01 1.595524e-01 -2.192676e-01 -2.085878e-01 -2.729846e-01 -2.115271e-01
<VARIANCE> 39
 8.458202e+00 9.090178e+00 1.421136e+01 2.611141e+01 2.604307e+01 3.830751e+01 3.287930e+01 4.164861e+01 5.268106e+01 2.494994e+01 3.487325e+01 3.767584e+01 1.589310e+01 3.566146e-01 5.668545e-01 9.685034e-01 1.294891e+00 1.521366e+00 1.910556e+00 1.926963e+00 3.567184e+00 2.498466e+00 2.534866e+00 2.315264e+00 2.085161e+00 5.304806e-01 9.265824e-02 1.133190e-01 2.187942e-01 2.230535e-01 2.605357e-01 3.430337e-01 4.036795e-01 5.302621e-01 5.253476e-01 3.795547e-01 4.084930e-01 3.719212e-01 8.288685e-02
<GCONST> 1.000799e+02
<TRANSP> 5
 0.000000e+00 1.000000e+00 0.000000e+00 0.000000e+00 0.000000e+00
 0.000000e+00 6.374027e-01 3.625973e-01 0.000000e+00 0.000000e+00
 0.000000e+00 0.000000e+00 8.162034e-01 1.837966e-01 0.000000e+00
 0.000000e+00 0.000000e+00 0.000000e+00 7.418407e-01 2.581593e-01
 0.000000e+00 0.000000e+00 0.000000e+00 0.000000e+00 0.000000e+00
<ENDHMM>
~h "ao"
<BEGINHMM>
<NUMSTATES> 5
<STATE> 2
<MEAN> 39
 -3.789188e+00 -2.179175e+00 -1.772989e+01 -2.203942e+01 8.689541e-01 -1.188944e+01 -1.159986e+01 -1.372273e+01 1.805493e+00 -2.116056e+00 -6.005706e-01 -4.384039e+00 7.200810e+01 7.330871e-01 9.273702e-01 8.463287e-01 -3.538541e+00 3.483011e-01 2.259154e+00 -6.826417e-01 2.229140e-01 2.016630e+00 -8.804049e-01 5.984744e-01 -1.027862e+00 1.254851e+00 -1.205589e+00 -3.421736e-01 8.029345e-01 1.173880e+00 -1.831612e-01 9.457262e-01 2.973911e-01 4.185381e-01 -6.574623e-02 -7.664545e-01 1.256669e-02 -8.784270e-02 -1.155497e+00
<VARIANCE> 39
 4.379602e+01 3.922463e+01 2.254078e+01 7.194350e+01 6.021836e+01 4.980982e+01 6.503374e+01 7.451620e+01 4.676114e+01 9.634577e+01 2.855904e+01 2.282627e+01 5.941725e+00 7.721095e+00 2.008692e+00 7.994024e+00 1.222985e+01 2.872362e+00 2.130395e+00 2.207458e+00 5.400780e+00 2.160294e+00 3.106358e+00 3.284006e+00 3.104346e+00 9.096085e-01 1.046911e+00 6.081224e-01 6.659976e-01 5.682836e-01 7.188941e-01 9.542606e-01 9.836407e-01 1.378766e+00 1.295687e+00 1.303835e+00 2.618508e-01 5.440415e-01 5.815256e-01
<GCONST> 1.319671e+02
<STATE> 3
<MEAN> 39
 -9.437261e+00 -5.834722e+00 -1.449214e+01 -1.659721e+01 4.512227e+00 -8.911396e+00 -1.007162e+01 -1.089313e+01 5.058429e+00 -3.259815e+00 -2.706478e+00 -7.814734e+00 7.243456e+01 5.470072e-01 5.946077e-01 1.153164e+00 -7.950997e-01 1.232795e-01 2.159806e+00 -2.065855e+00 -2.276067e+00 -7.529941e-01 -4.425706e+00 8.837277e-02 -1.587283e+00 2.517987e-01 3.463774e-01 -6.019318e-03 -3.034132e-01 3.879072e-02 -9.833503e-02 -3.458481e-01 -1.449347e-01 -6.800882e-01 -5.801758e-01 -8.210794e-01 1.550423e-01 1.302838e-01 -2.201718e-01
<VARIANCE> 39
 4.843179e+01 3.620836e+01 9.835671e+00 7.974887e+01 3.693670e+01 3.930050e+01 5.066826e+01 6.104107e+01 3.433094e+01 9.101991e+01 4.377021e+01 2.635037e+01 3.245193e+00 2.196310e+00 1.357194e+00 1.885216e+00 3.037155e+00 2.188124e+00 1.909913e+00 5.056353e+00 6.768651e+00 7.055779e+00 7.839599e+00 2.157107e+00 3.589425e+00 3.281774e-01 1.180814e+00 4.858581e-01 5.298112e-01 1.414775e+00 3.317143e-01 5.215208e-01 9.287149e-01 1.516428e+00 9.032596e-01 1.685770e+00 4.754509e-01 4.143666e-01 2.111481e-01
<GCONST> 1.251342e+02
<STATE> 4
<MEAN> 39
 2.007070e+00 3.030393e+00 -1.375798e+01 -3.316238e+01 -8.174409e-01 -1.982399e+00 -1.736338e+01 -1.843162e+01 9.868014e-01 -1.753334e+01 6.837069e+00 -4.608829e+00 6.912991e+01 1.931700e-02 4.077678e-02 3.992981e-02 4.109348e-01 -1.501457e-01 -1.208543e-01 -3.411679e-01 9.076615e-02 -4.372423e-01 4.245967e-02 -9.692775e-02 -8.050007e-02 -5.940031e-01 -1.066225e-01 -5.577062e-02 3.255142e-02 2.972345e-01 -1.025037e-01 -1.651057e-01 8.845258e-02 9.189952e-02 -7.949828e-02 2.296334e-01 -1.287503e-01 2.609124e-02 -1.152836e-01
<VARIANCE> 39
 9.449542e+00 1.077685e+01 1.025595e+01 4.028748e+01 2.675005e+01 2.362738e+01 3.043800e+01 3.431944e+01 4.379838e+01 4.740488e+01 4.352574e+01 3.530643e+01 1.658274e+01 7.176703e-01 5.598629e-01 7.862200e-01 3.513590e+00 1.491232e+00 1.610046e+00 2.073935e+00 2.450441e+00 2.254519e+00 5.127121e+00 3.043638e+00 1.827755e+00 7.839842e-01 1.109594e-01 1.013711e-01 1.698074e-01 3.277261e-01 2.330832e-01 2.371813e-01 3.785735e-01 3.339803e-01 4.505240e-01 4.599190e-01 4.795103e-01 3.339206e-01 8.501877e-02
<GCONST> 1.018248e+02
<TRANSP> 5
 0.000000e+00 1.000000e+00 0.000000e+00 0.000000e+00 0.000000e+00
 0.000000e+00 2.882804e-01 7.117196e-01 0.000000e+00 0.000000e+00
 0.000000e+00 0.000000e+00 5.352642e-01 4.647358e-01 0.000000e+00
 0.000000e+00 0.000000e+00 0.000000e+00 9.078431e-01 9.215691e-02
 0.000000e+00 0.000000e+00 0.000000e+00 0.000000e+00 0.000000e+00
<ENDHMM>
~h "ax"
<BEGINHMM>
<NUMSTATES> 5
<STATE> 2
<MEAN> 39
 -3.715855e+00 -1.521981e+01 -9.685895e+00 -1.261728e+01 -6.584825e+00 -1.068073e+01 -1.594929e+01 -4.846046e+00 -2.291049e+00 -2.218515e+01 -6.860247e+00 -8.850517e+00 7.780962e+01 -3.066254e-01 -2.217487e-01 3.034309e-01 -2.768554e-01 -2.283386e-01 4.110870e-01 2.264786e-01 2.536666e-01 -1.001666e+00 -5.238842e-01 3.809936e-02 -5.513585e-02 1.684473e-01 -3.128502e-02 1.001439e-01 1.072148e-01 -8.596942e-02 -5.868699e-02 -1.965455e-01 2.280377e-01 -6.637847e-02 -3.117748e-01 9.672648e-02 1.296534e-01 2.841402e-01 -4.110955e-02
<VARIANCE> 39
 3.084125e+00 2.333330e+01 8.265624e+00 1.265381e+01 1.998031e+01 1.963164e+01 3.076689e+01 3.294613e+01 3.175861e+01 2.463202e+01 1.364837e+01 3.510939e+01 7.816635e+00 3.890954e-01 1.263617e+00 8.237376e-01 8.395456e-01 9.400082e-01 2.447890e+00 4.202338e+00 1.651353e+00 3.254596e+00 2.233331e+00 1.431867e+00 2.622036e+00 4.524508e-01 5.317738e-02 1.129835e-01 1.504373e-01 1.332626e-01 2.335965e-01 3.083926e-01 4.947870e-01 3.123411e-01 3.717138e-01 3.933395e-01 2.501715e-01 3.246551e-01 5.103663e-02
<GCONST> 9.166179e+01
<STATE> 3
<MEAN> 39
 -6.022127e+00 -1.231718e+01 -4.748205e+00 -1.646486e+01 -1.175445e+01 -1.168560e+01 -7.552822e+00 -4.305297e+00 -1.253595e+01 -2.061138e+01 -5.494746e+00 -5.117916e+00 7.764181e+01 -1.440719e-01 7.852222e-01 9.671947e-01 -5.444300e-01 -1.111122e+00 -4.285643e-01 1.048920e+00 -4.302462e-01 -5.401945e-01 1.281564e+00 -2.833151e-01 1.943884e-02 -3.507251e-01 1.127716e-01 2.110360e-01 -2.202171e-02 2.069804e-02 -9.517229e-02 -1.733693e-01 -2.878813e-01 6.612203e-02 4.281926e-01 2.640389e-01 -1.422179e-01 2.260262e-03 -1.391813e-01
<VARIANCE> 39
 2.301289e+00 1.101555e+01 1.436772e+01 1.579920e+01 2.279665e+01 1.532596e+01 2.921724e+01 2.344999e+01 2.917200e+01 2.833731e+01 1.409524e+01 1.383789e+01 5.488537e+00 1.720852e-01 7.786720e-01 5.393241e-01 9.954287e-01 1.639731e+00 1.300609e+00 2.338159e+00 1.788402e+00 3.070689e+00 2.166956e+00 1.539288e+00 1.103801e+00 1.402508e-01 2.617103e-02 9.349306e-02 8.738191e-02 1.060743e-01 1.799215e-01 2.426065e-01 2.728800e-01 3.117329e-01 3.818154e-01 4.047538e-01 2.728899e-01 2.606845e-01 2.173741e-02
<GCONST> 8.180201e+01
<STATE> 4
<MEAN> 39
 -5.346704e+00 -6.631342e+00 1.572140e-01 -2.104065e+01 -1.793627e+01 -1.700005e+01 -4.970411e+00 -5.717695e+00 -9.508421e+00 -1.302494e+01 -9.457755e+00 -4.476190e+00 7.462433e+01 3.201011e-01 3.945558e-01 -7.339815e-01 2.904852e-01 1.066281e+00 -1.118870e+00 -9.743174e-01 4.798347e-01 1.418257e+00 -3.534684e-01 -2.135450e-01 4.447697e-01 -3.587047e-01 2.386567e-02 -4.643218e-02 -3.571994e-01 8.372913e-02 5.812835e-01 1.152317e-01 -4.015676e-01 -1.060190e-01 2.084515e-01 -2.671648e-01 1.261243e-01 -2.239603e-01 -1.227061e-02
<VARIANCE> 39
 2.804594e+00 7.376187e+00 1.716546e+01 2.067812e+01 3.204312e+01 2.533790e+01 2.662047e+01 2.988263e+01 2.922856e+01 3.729379e+01 1.973394e+01 2.041798e+01 5.290812e+00 1.196535e-01 7.284398e-01 2.161019e+00 1.265805e+00 5.292977e+00 1.552421e+00 2.961777e+00 1.844585e+00 2.188321e+00 3.208040e+00 1.429956e+00 1.614159e+00 1.356411e-01 2.957800e-02 1.124878e-01 1.166768e-01 3.445198e-01 2.878657e-01 3.994998e-01 3.255440e-01 5.509298e-01 3.238513e-01 4.421896e-01 2.943833e-01 5.232697e-01 2.025977e-02
<GCONST> 9.125984e+01
<TRANSP> 5
 0.000000e+00 1.000000e+00 0.000000e+00 0.000000e+00 0.000000e+00
 0.000000e+00 8.494185e-01 1.505815e-01 0.000000e+00 0.000000e+00
 0.000000e+00 0.000000e+00 8.426746e-01 1.573254e-01 0.000000e+00
 0.000000e+00 0.000000e+00 0.000000e+00 8.281387e-01 1.718613e-01
 0.000000e+00 0.000000e+00 0.000000e+00 0.000000e+00 0.000000e+00
<ENDHMM>
~h "ay"
<BEGINHMM>
<NUMSTATES> 5
<STATE> 2
<MEAN> 39
 -3.677463e+00 -5.759553e+00 -9.375617e+00 -1.234019e+01 -1.061879e+01 -1.865525e+01 -1.252741e+01 -4.522407e+00 -5.281771e+00 -1.372331e+01 -7.157941e+00 -4.330678e+00 7.088373e+01 8.177656e-01 -2.834372e+00 -1.341876e+00 -1.804645e+00 1.621269e+00 2.919578e-01 -9.787067e-01 9.920102e-01 4.643261e-01 -2.599628e+00 -1.200761e+00 -2.499058e-01 4.213683e+00 -3.762624e-01 -1.456564e-01 2.212886e-01 3.915167e-01 5.180196e-01 1.056563e+00 7.294011e-02 -3.422969e-01 1.965341e-01 -1.204659e-01 1.910048e-01 -1.382599e-01 -9.895669e-01
<VARIANCE> 39
 2.263358e+01 4.495543e+01 2.332252e+01 3.175133e+01 3.527781e+01 6.200573e+01 6.009120e+01 5.190374e+01 2.498756e+01 3.360881e+01 2.100406e+01 2.838417e+01 7.484784e+01 5.907105e+00 4.422933e+00 2.626637e+00 2.252994e+00 4.748743e+00 5.836215e+00 4.909796e+00 6.414193e+00 4.666770e+00 6.598579e+00 2.409977e+00 2.817627e+00 3.800593e+00 1.009498e+00 6.299801e-01 4.382861e-01 6.183466e-01 1.054069e+00 9.072486e-01 1.219122e+00 1.272574e+00 5.275170e-01 8.197456e-01 4.385362e-01 5.818980e-01 1.376145e+00
<GCONST> 1.336267e+02
<STATE> 3
<MEAN> 39
 -3.397716e+00 -1.507740e+01 -1.158565e+01 -1.434518e+01 -3.817567e+00 -1.035444e+01 -1.359712e+01 -7.167128e+00 -8.558863e-01 -2.130406e+01 -7.922780e+00 -7.721140e+00 7.798769e+01 1.762041e-01 -1.273526e+00 8.027534e-02 -1.637815e-02 1.072552e+00 1.313130e+00 -7.752597e-01 -5.642554e-01 9.583786e-01 -1.406675e+00 2.522292e-02 -8.975358e-01 6.521918e-01 -2.300384e-01 5.515159e-01 2.812014e-01 3.343110e-01 -3.671837e-01 -2.526483e-01 1.909558e-02 6.466232e-02 -3.272556e-03 6.942261e-01 2.058079e-01 -4.595082e-02 -7.122222e-01
<VARIANCE> 39
 4.242012e+00 1.603314e+01 9.940550e+00 1.533468e+01 2.066348e+01 3.907647e+01 4.501210e+01 3.120700e+01 3.818666e+01 1.977039e+01 1.999410e+01 2.987675e+01 9.276972e+00 5.489990e-01 1.347080e+00 7.143326e-01 1.254071e+00 2.058899e+00 2.402832e+00 2.938836e+00 2.666415e+00 2.510232e+00 3.257407e+00 1.454161e+00 2.496827e+00 9.036785e-01 3.149216e-01 2.099916e-01 1.820443e-01 3.274486e-01 3.309422e-01 4.274890e-01 6.413538e-01 5.650156e-01 5.176916e-01 5.808719e-01 3.504082e-01 4.728512e-01 3.662080e-01
<GCONST> 1.041366e+02
<STATE> 4
<MEAN> 39
 -4.411585e+00 -1.285818e+01 -6.244401e+00 -1.526888e+01 -9.097589e+00 -9.252720e+00 -1.621557e+01 -4.511922e+00 -4.885280e+00 -1.878559e+01 -7.608905e+00 -8.374357e+00 7.740580e+01 -2.270181e-01 7.711716e-01 1.048833e+00 -2.261397e-01 -1.538043e+00 -6.188751e-02 2.429119e-01 -6.043711e-02 -9.238263e-01 1.210877e+00 6.096605e-02 1.650687e-01 -2.801676e-01 9.635649e-03 1.674929e-01 1.016773e-01 -4.984669e-02 -1.295074e-01 -3.749951e-02 -2.003938e-02 -8.756220e-02 -3.271047e-03 2.026517e-01 -8.071353e-02 9.004918e-02 -1.061324e-01
<VARIANCE> 39
 5.116614e+00 1.807369e+01 2.753205e+01 1.347635e+01 6.339877e+01 1.865466e+01 3.651564e+01 3.283101e+01 6.458301e+01 4.836275e+01 1.602130e+01 2.256073e+01 6.682227e+00 2.424283e-01 9.910324e-01 9.195293e-01 8.476402e-01 2.134365e+00 1.156758e+00 2.397829e+00 2.884431e+00 3.055551e+00 3.282404e+00 1.344586e+00 1.753218e+00 2.381140e-01 4.150406e-02 7.924039e-02 1.074216e-01 1.357467e-01 3.049370e-01 2.108734e-01 4.028862e-01 4.209743e-01 5.069838e-01 4.054667e-01 2.403193e-01 3.032577e-01 2.667052e-02
<GCONST> 9.272310e+01
<TRANSP> 5
 0.000000e+00 1.000000e+00 0.000000e+00 0.000000e+00 0.000000e+00
 0.000000e+00 4.942265e-01 5.057735e-01 0.000000e+00 0.000000e+00
 0.000000e+00 0.000000e+00 7.373230e-01 2.626770e-01 0.000000e+00
 0.000000e+00 0.000000e+00 0.000000e+00 8.912031e-01 1.087969e-01
 0.000000e+00 0.000000e+00 0.000000e+00 0.000000e+00 0.000000e+00
<ENDHMM>
~h "eh"
<BEGINHMM>
<NUMSTATES> 5
<STATE> 2
<MEAN> 39
 -4.342711e+00 -4.201208e+00 -7.193009e+00 -1.331471e+01 -1.649070e+01 -2.056633e+01 -1.042983e+01 1.498275e+00 -9.350075e+00 -1.349385e+01 -2.876778e+00 -4.546092e-01 7.532330e+01 7.147781e-01 -1.751388e+00 -4.670758e-01 -1.175368e+00 1.217602e+00 1.065971e+00 7.461425e-01 2.407814e-01 -5.833513e-01 -1.220410e+00 -1.046469e+00 -3.818136e-01 1.279354e+00 -8.558481e-01 -1.346615e-01 -5.299581e-02 3.763192e-01 4.623929e-01 7.136244e-01 5.280691e-01 -5.098321e-01 2.384372e-01 1.717884e-01 7.853743e-02 -1.461535e-01 -6.014040e-01
<VARIANCE> 39
 3.248082e+00 1.804916e+01 9.259338e+00 1.588416e+01 2.033168e+01 3.063684e+01 3.824461e+01 2.031041e+01 3.451923e+01 1.744219e+01 1.748108e+01 1.859015e+01 8.727277e+00 2.044098e+00 1.176242e+00 1.227870e+00 1.572626e+00 1.808052e+00 3.185745e+00 3.804068e+00 3.954360e+00 2.336260e+00 2.067484e+00 1.717632e+00 1.674638e+00 1.108293e+00 5.553064e-01 4.638378e-01 2.943831e-01 2.300833e-01 5.273886e-01 1.168753e+00 9.924303e-01 4.766843e-01 4.325320e-01 4.621845e-01 3.057503e-01 4.031990e-01 1.168099e-01
<GCONST> 1.057794e+02
<STATE> 3
<MEAN> 39
 -3.943510e+00 -9.706336e+00 -7.491289e+00 -1.539663e+01 -1.077999e+01 -1.662248e+01 -7.877063e+00 -3.927437e+00 -8.051681e+00 -1.915285e+01 -6.809606e+00 -1.959384e+00 7.574388e+01 4.858898e-01 7.640466e-02 1.294334e-01 2.152604e-01 6.274576e-01 -3.597102e-01 -9.455210e-01 -7.434510e-01 1.016800e+00 -1.812096e-01 -3.321673e-01 -2.222610e-02 -6.552942e-01 9.902973e-02 2.922585e-01 8.420973e-02 2.190418e-01 -2.176308e-02 -9.882726e-02 -2.915584e-01 -5.493248e-02 7.952644e-02 3.054480e-01 5.186959e-02 -8.038273e-02 -2.907076e-01
<VARIANCE> 39
 5.567560e+00 9.056090e+00 8.937124e+00 1.115686e+01 1.672983e+01 2.652405e+01 2.729028e+01 2.521120e+01 3.446502e+01 1.868585e+01 1.961378e+01 1.356200e+01 7.058330e+00 2.827907e-01 6.641160e-01 4.572483e-01 7.263213e-01 9.351127e-01 1.251908e+00 1.980338e+00 1.440894e+00 1.659889e+00 1.783571e+00 1.130434e+00 9.492596e-01 6.140732e-01 3.590672e-02 9.316898e-02 1.015537e-01 1.502443e-01 2.095169e-01 3.165765e-01 3.042267e-01 3.008477e-01 3.430198e-01 2.145774e-01 2.180998e-01 2.185079e-01 6.914914e-02
<GCONST> 8.262273e+01
<STATE> 4
<MEAN> 39
 -1.316012e-01 -2.097995e+00 -5.039549e+00 -1.142859e+01 -9.423162e+00 -2.440271e+01 -1.533879e+01 -4.112717e+00 -5.043778e+00 -1.552215e+01 -6.966323e+00 9.214409e-01 6.767113e+01 4.254815e-02 4.094202e-01 7.710557e-02 1.522371e-01 -4.197930e-02 -2.491602e-01 -2.406649e-01 4.155761e-01 -3.566477e-01 1.277310e-01 2.788236e-01 1.944954e-01 -4.005012e-01 -5.278753e-02 -1.993994e-02 -1.324441e-02 2.411567e-04 -8.663341e-02 9.113906e-02 8.336363e-02 -1.752420e-02 -6.320873e-02 -3.039204e-02 9.028686e-03 -4.270753e-02 5.816785e-03
<VARIANCE> 39
 7.719147e+00 1.245948e+01 1.187303e+01 3.663154e+01 3.276498e+01 4.061383e+01 3.142919e+01 6.015741e+01 4.438012e+01 2.143106e+01 3.590785e+01 4.313031e+01 2.467468e+01 6.708904e-01 1.187157e+00 1.140202e+00 3.409032e+00 1.933373e+00 2.570766e+00 2.383870e+00 2.887619e+00 3.438463e+00 2.009997e+00 2.091443e+00 3.171827e+00 3.369661e+00 1.278159e-01 2.004148e-01 2.035179e-01 5.296381e-01 3.324963e-01 4.906173e-01 4.384568e-01 5.338394e-01 6.933176e-01 3.543087e-01 3.578665e-01 5.432072e-01 4.524688e-01
<GCONST> 1.111759e+02
<TRANSP> 5
 0.000000e+00 1.000000e+00 0.000000e+00 0.000000e+00 0.000000e+00
 0.000000e+00 7.464001e-01 2.535999e-01 0.000000e+00 0.000000e+00
 0.000000e+00 0.000000e+00 8.636025e-01 1.363975e-01 0.000000e+00
 0.000000e+00 0.000000e+00 0.000000e+00 9.258159e-01 7.418408e-02
 0.000000e+00 0.000000e+00 0.000000e+00 0.000000e+00 0.000000e+00
<ENDHMM>
~h "ey"
<BEGINHMM>
<NUMSTATES> 5
<STATE> 2
<MEAN> 39
 -1.143693e+01 -4.716486e+00 -4.529105e+00 -1.050309e+01 -1.263152e+01 -6.911318e+00 -7.347517e+00 -5.310398e+00 -3.626618e+00 -8.058100e-01 -2.066078e+00 -2.959614e+00 5.437866e+01 2.267836e-01 -2.809890e-01 1.538462e+00 -1.230093e+00 -1.817432e+00 -3.284165e-01 2.810313e-01 -2.671999e-01 -2.286533e-01 7.383263e-01 -4.390678e-01 4.901546e-02 2.566143e+00 2.301186e-01 1.674825e-01 1.692567e-01 -3.993976e-01 -2.251146e-01 -2.221310e-01 -2.935016e-01 -2.195787e-01 -2.641177e-02 1.066412e-02 -1.394883e-01 2.032502e-02 7.108840e-01
<VARIANCE> 39
 1.495110e+01 1.218127e+01 4.286520e+01 3.817058e+01 8.182731e+01 3.115026e+01 3.274565e+01 3.075503e+01 2.267856e+01 3.462848e+01 2.555773e+01 1.585514e+01 1.066083e+02 2.037464e+00 1.173699e+00 3.394612e+00 6.141688e+00 8.291652e+00 3.954819e+00 4.212825e+00 3.038960e+00 3.250478e+00 4.084110e+00 2.901025e+00 1.801236e+00 1.671584e+01 2.298897e-01 2.814530e-01 6.167536e-01 8.441831e-01 1.469663e+00 7.049075e-01 6.211705e-01 5.659613e-01 6.051147e-01 8.625168e-01 5.455177e-01 3.440921e-01 2.058481e+00
<GCONST> 1.273830e+02
<STATE> 3
<MEAN> 39
 -7.364420e+00 8.311146e-01 7.589950e+00 -2.147499e+01 -2.532728e+01 -1.113068e+01 -1.177103e+01 -1.340007e+01 -5.987342e+00 1.950818e+00 -9.679308e+00 -1.927434e+00 7.457268e+01 1.896399e-01 7.168208e-01 2.665483e-01 3.207390e-01 -2.771022e-01 -1.893744e-01 -2.106495e-01 -4.808358e-01 -4.517426e-01 -5.144928e-01 -3.759992e-01 -3.268638e-02 -1.739899e-01 -9.067474e-02 -8.739656e-03 -2.341501e-01 4.317385e-01 3.418485e-01 1.642627e-02 1.574491e-01 1.970468e-01 -3.945393e-02 -2.482547e-01 1.917661e-01 -6.041801e-02 -5.875062e-01
<VARIANCE> 39
 3.078254e+00 2.009859e+01 1.687690e+01 1.564738e+01 1.557895e+01 1.543534e+01 2.917592e+01 2.584910e+01 2.007850e+01 3.270235e+01 3.248212e+01 2.158688e+01 1.104438e+01 3.176789e-01 1.125573e+00 1.201316e+00 2.500686e+00 1.652330e+00 1.721441e+00 1.991185e+00 2.210989e+00 1.697895e+00 2.447054e+00 2.549272e+00 1.612719e+00 2.363807e+00 8.619030e-02 1.845096e-01 1.907420e-01 2.548901e-01 5.115876e-01 3.282762e-01 3.051543e-01 3.301567e-01 3.144129e-01 3.910738e-01 3.648369e-01 2.828896e-01 6.042194e-01
<GCONST> 9.911082e+01
<STATE> 4
<MEAN> 39
 -7.211778e+00 5.501378e+00 4.463148e+00 -1.022743e+01 -1.975753e+01 -1.269726e+01 -9.120909e+00 -1.208319e+01 -1.063546e+01 -7.643715e+00 -7.366655e+00 -4.888469e+00 6.189429e+01 -5.596718e-01 -2.955971e-01 -1.439497e+00 1.432822e+00 2.809343e+00 3.634505e-01 8.582229e-01 6.886458e-01 1.860272e-01 -1.269469e+00 3.918636e-01 -8.027464e-01 -2.990071e+00 -3.431611e-01 -5.277072e-01 -1.940596e-01 -5.400640e-01 -2.686998e-02 3.353530e-01 -1.344508e-02 -2.370460e-02 5.211836e-01 6.216425e-01 -1.145952e-01 1.838133e-01 3.545212e-01
<VARIANCE> 39
 1.001512e+01 2.270452e+01 1.407843e+01 3.321448e+01 4.926686e+01 2.873100e+01 2.319111e+01 2.120115e+01 2.630483e+01 3.387687e+01 2.135257e+01 2.558732e+01 5.276404e+01 1.225716e+00 2.963379e+00 1.290745e+00 4.461484e+00 3.530607e+00 3.019174e+00 2.526913e+00 2.354764e+00 3.553785e+00 4.221541e+00 2.628053e+00 2.222498e+00 2.474185e+00 2.300343e-01 5.065272e-01 2.447531e-01 9.403381e-01 9.863853e-01 6.274285e-01 5.348448e-01 4.731825e-01 6.058755e-01 6.033592e-01 6.251578e-01 4.288627e-01 1.005353e+00
<GCONST> 1.185456e+02
<TRANSP> 5
 0.000000e+00 1.000000e+00 0.000000e+00 0.000000e+00 0.000000e+00
 0.000000e+00 8.635667e-01 1.364333e-01 0.000000e+00 0.000000e+00
 0.000000e+00 0.000000e+00 9.164570e-01 8.354298e-02 0.000000e+00
 0.000000e+00 0.000000e+00 0.000000e+00 7.335503e-01 2.664497e-01
 0.000000e+00 0.000000e+00 0.000000e+00 0.000000e+00 0.000000e+00
<ENDHMM>
~h "ia"
<BEGINHMM>
<NUMSTATES> 5
<STATE> 2
<MEAN> 39
 -5.855057e+00 4.228510e+00 3.641114e+00 -1.170642e+01 -2.738206e+01 -1.742717e+01 -1.153955e+01 -1.235703e+01 -8.765652e+00 -7.286359e+00 -3.386845e+00 -2.158034e+00 7.164375e+01 4.840777e-01 -2.439067e-01 1.223481e+00 -2.932629e+00 -1.274626e+00 1.169487e+00 4.724866e-01 -1.003428e+00 9.328402e-01 2.742645e+00 -8.273266e-01 3.871744e-01 9.919334e-01 -3.704145e-01 3.461696e-01 -2.398719e-02 2.288188e-01 9.376737e-01 2.768210e-01 1.090799e-03 3.274000e-02 1.791584e-02 -1.607345e-01 -6.611536e-01 -4.562312e-01 -5.071291e-01
<VARIANCE> 39
 2.892359e+00 1.411661e+01 1.319873e+01 2.157473e+01 2.643930e+01 2.290576e+01 3.389689e+01 2.591417e+01 2.525371e+01 4.444881e+01 2.813025e+01 1.945905e+01 5.439703e+00 1.007106e+00 1.291216e+00 9.554130e-01 1.699608e+00 2.533222e+00 2.736388e+00 5.637547e+00 2.877187e+00 4.421682e+00 2.815786e+00 2.912343e+00 2.266858e+00 4.514141e-01 2.182085e-01 2.401261e-01 2.240652e-01 2.822828e-01 4.860352e-01 5.081450e-01 8.830390e-01 4.975718e-01 8.199707e-01 6.636315e-01 5.265020e-01 3.006902e-01 9.984893e-02
<GCONST> 1.056422e+02
<STATE> 3
<MEAN> 39
 -6.535286e+00 4.519136e+00 7.834858e+00 -1.910487e+01 -2.631390e+01 -1.500012e+01 -1.027527e+01 -1.415248e+01 -7.050925e+00 -1.587215e+00 -7.215769e+00 -3.021876e+00 7.287027e+01 3.145991e-01 -7.276987e-01 7.782002e-01 -8.158272e-01 4.071852e-01 -2.414080e-01 2.636667e-01 3.871730e-01 -2.285957e-01 2.616695e-01 -7.011746e-01 -3.441431e-02 -1.279922e-01 2.110970e-01 -3.490644e-01 -2.251613e-01 7.280929e-01 1.410404e-01 -4.653487e-01 -4.045229e-02 3.726485e-01 -2.403730e-01 -6.624816e-01 1.867020e-01 9.357613e-02 -2.340610e-01
<VARIANCE> 39
 2.413452e+00 8.498550e+00 1.141419e+01 1.362554e+01 1.409634e+01 2.014905e+01 1.456201e+01 2.213548e+01 1.779642e+01 2.536800e+01 2.107942e+01 2.194758e+01 3.986113e+00 3.288382e-01 8.870703e-01 6.795722e-01 1.579799e+00 7.772472e-01 1.444559e+00 1.148476e+00 1.426028e+00 1.607579e+00 1.845910e+00 1.801558e+00 7.703864e-01 2.288343e-01 7.369704e-02 1.139415e-01 1.145993e-01 2.004633e-01 2.128842e-01 1.858570e-01 3.074080e-01 2.362179e-01 3.577636e-01 2.680117e-01 2.440912e-01 2.017604e-01 3.713189e-02
<GCONST> 8.113631e+01
<STATE> 4
<MEAN> 39
 -3.170773e+00 -2.076915e+00 7.682316e+00 -1.770404e+01 -2.417216e+01 -1.914103e+01 -8.603520e+00 -8.666574e+00 -9.292074e+00 -5.925846e+00 -6.738168e+00 -1.490467e+00 7.161107e+01 1.439127e+00 -1.964444e+00 -8.897589e-01 1.923584e+00 1.109490e+00 -1.401024e+00 -9.078809e-01 1.430454e+00 4.057547e-01 -1.954646e+00 -4.762833e-01 9.501836e-01 -6.663799e-01 1.391251e-01 1.327724e-01 -6.019395e-01 4.903003e-01 3.853029e-01 1.171307e-01 -6.636238e-01 -2.600523e-01 7.094887e-01 6.540377e-02 -3.103554e-01 -2.360620e-01 -1.095694e-01
<VARIANCE> 39
 6.663425e+00 1.499251e+01 2.557025e+01 1.904479e+01 2.448179e+01 2.816148e+01 2.794514e+01 3.646363e+01 2.394631e+01 4.402302e+01 2.873704e+01 2.235343e+01 7.965749e+00 5.050207e-01 9.294155e-01 1.011551e+00 1.754991e+00 1.395020e+00 9.123486e-01 2.403161e+00 1.171095e+00 2.553473e+00 1.543801e+00 1.872019e+00 1.117034e+00 2.547963e-01 5.916651e-02 1.598429e-01 2.385061e-01 2.549696e-01 2.015245e-01 2.525986e-01 3.371646e-01 3.631305e-01 4.086847e-01 4.559128e-01 2.265341e-01 3.929633e-01 1.589026e-02
<GCONST> 9.248837e+01
<TRANSP> 5
 0.000000e+00 1.000000e+00 0.000000e+00 0.000000e+00 0.000000e+00
 0.000000e+00 5.953414e-01 4.046586e-01 0.000000e+00 0.000000e+00
 0.000000e+00 0.000000e+00 7.890195e-01 2.109804e-01 0.000000e+00
 0.000000e+00 0.000000e+00 0.000000e+00 6.972661e-01 3.027339e-01
 0.000000e+00 0.000000e+00 0.000000e+00 0.000000e+00 0.000000e+00
<ENDHMM>
~h "ih"
<BEGINHMM>
<NUMSTATES> 5
<STATE> 2
<MEAN> 39
 -2.698130e+01 -2.107943e+00 -7.833770e+00 -1.945436e+00 -9.852627e+00 -6.334369e+00 -2.155135e+00 -3.044044e+00 -3.207343e+00 -2.664678e+00 1.681909e+00 -3.014632e+00 6.265299e+01 2.679148e+00 6.488860e-02 1.263957e+00 -2.099127e+00 -2.271029e+00 -2.899073e+00 -7.779256e-01 -8.313565e-01 -1.049297e+00 -1.699820e-01 2.882572e-01 -1.025018e-01 2.514543e+00 1.483895e+00 5.694519e-01 5.965312e-01 -5.129018e-01 -9.104664e-01 -7.182594e-01 -8.702211e-01 -4.996479e-01 -6.129987e-01 -3.066411e-01 -2.793239e-01 -8.212545e-02 2.223917e-01
<VARIANCE> 39
 1.578078e+01 1.421379e+01 1.132775e+01 2.128168e+01 2.393336e+01 3.344442e+01 2.087596e+01 1.750341e+01 1.795824e+01 2.127984e+01 1.675370e+01 1.153055e+01 2.154569e+01 6.577803e+00 2.752292e+00 1.984837e+00 2.240690e+00 4.056229e+00 4.269186e+00 3.886629e+00 3.062002e+00 3.100179e+00 2.568109e+00 1.947610e+00 1.402112e+00 1.426506e+00 3.760178e-01 3.351597e-01 2.392554e-01 3.613068e-01 5.142229e-01 7.423929e-01 4.548509e-01 5.085638e-01 5.430039e-01 5.255534e-01 3.820877e-01 2.736994e-01 3.042991e-01
<GCONST> 1.109443e+02
<STATE> 3
<MEAN> 39
 -7.704822e+00 1.726974e+00 1.478076e+00 -1.299375e+01 -2.360435e+01 -1.720263e+01 -1.084448e+01 -7.951017e+00 -9.772787e+00 -4.109543e+00 -5.585710e-01 -4.217483e+00 7.180499e+01 2.604746e+00 -4.037686e-03 1.807902e+00 -2.256004e+00 -2.141089e+00 -2.366472e-01 -1.333490e+00 -7.712266e-01 -5.019510e-01 5.720883e-01 -1.193974e+00 -3.781800e-01 1.218429e+00 -9.399179e-01 -2.583464e-01 -1.972476e-01 3.126395e-01 5.798694e-01 8.706136e-01 4.525230e-01 -2.900841e-03 4.719467e-01 2.394176e-01 -2.669613e-01 -2.561182e-02 -4.966951e-01
<VARIANCE> 39
 2.503188e+01 1.628165e+01 1.920695e+01 2.984253e+01 3.608226e+01 3.454800e+01 2.818361e+01 2.714941e+01 2.248421e+01 2.844353e+01 1.900818e+01 1.528286e+01 1.454923e+01 7.269727e+00 2.552826e+00 1.591270e+00 1.813565e+00 3.791529e+00 7.026816e+00 3.313647e+00 3.054704e+00 3.271446e+00 3.743018e+00 2.619445e+00 1.616930e+00 1.201393e+00 6.738697e-01 4.397932e-01 2.728666e-01 3.607885e-01 5.001926e-01 9.510483e-01 5.497608e-01 6.674221e-01 4.978639e-01 7.165437e-01 4.634339e-01 2.718154e-01 1.370918e-01
<GCONST> 1.159573e+02
<STATE> 4
<MEAN> 39
 -1.011950e+01 -2.954135e+00 2.420449e+00 -9.782910e+00 -2.195562e+01 -1.576104e+01 -5.139485e+00 -1.145830e+01 -6.472492e+00 -5.706714e+00 -3.103237e+00 -5.161219e+00 6.731972e+01 -1.148080e+00 -4.864789e-01 -8.674151e-01 1.500237e+00 7.342641e-01 -2.478656e-01 8.570535e-01 6.690831e-01 4.456301e-01 -7.856477e-01 5.312849e-01 2.932957e-01 -4.290903e-01 -1.874280e-01 8.815719e-02 -1.959487e-01 1.340609e-01 1.689415e-01 4.145987e-02 -1.186102e-01 2.882940e-01 1.172332e-02 -7.594478e-02 1.406329e-01 7.919554e-02 2.086781e-03
<VARIANCE> 39
 3.195198e+01 4.298557e+01 4.752653e+01 7.473272e+01 4.358374e+01 3.860885e+01 5.203251e+01 3.998540e+01 2.536174e+01 4.733990e+01 4.444182e+01 2.598701e+01 4.392157e+01 1.928315e+00 4.729531e+00 4.240204e+00 3.609498e+00 4.062391e+00 3.607878e+00 4.061553e+00 5.639583e+00 2.567848e+00 3.812841e+00 4.492579e+00 2.396235e+00 5.476957e+00 2.714045e-01 1.031198e+00 8.044577e-01 8.538246e-01 9.008878e-01 8.672497e-01 7.434745e-01 7.587523e-01 5.221342e-01 8.597414e-01 9.313981e-01 4.691868e-01 1.136193e+00
<GCONST> 1.332146e+02
<TRANSP> 5
 0.000000e+00 1.000000e+00 0.000000e+00 0.000000e+00 0.000000e+00
 0.000000e+00 6.680931e-01 3.319069e-01 0.000000e+00 0.000000e+00
 0.000000e+00 0.000000e+00 8.023041e-01 1.976958e-01 0.000000e+00
 0.000000e+00 0.000000e+00 0.000000e+00 9.089527e-01 9.104735e-02
 0.000000e+00 0.000000e+00 0.000000e+00 0.000000e+00 0.000000e+00
<ENDHMM>
~h "iy"
<BEGINHMM>
<NUMSTATES> 5
<STATE> 2
<MEAN> 39
 -2.159309e+00 -3.596562e+00 8.435300e+00 -1.345333e+01 -2.417229e+01 -1.788561e+01 -1.228224e+01 -1.054216e+01 -1.351034e+01 -1.579079e+00 -1.300206e+01 -2.702391e+00 7.110510e+01 -1.552253e+00 1.206712e+00 1.713527e+00 -2.019626e+00 -1.124549e+00 1.345781e+00 1.465350e+00 -1.402398e+00 -1.537952e+00 2.032490e+00 -1.010671e+00 -3.313435e-01 4.051043e-01 1.414512e-01 1.733947e-01 -3.718748e-01 -2.481636e-02 3.872247e-01 4.663081e-01 -6.563349e-01 -4.095840e-01 7.815453e-01 -1.460515e-01 -3.562286e-01 -2.943601e-01 -2.503339e-01
<VARIANCE> 39
 9.910872e+00 1.546841e+01 1.591233e+01 2.207356e+01 2.100483e+01 2.972552e+01 3.105277e+01 2.865098e+01 2.355710e+01 4.453793e+01 2.854062e+01 2.278484e+01 7.987848e+00 8.168198e-01 7.417795e-01 1.217178e+00 1.217481e+00 1.592767e+00 2.215228e+00 4.190695e+00 2.357205e+00 5.260227e+00 2.384540e+00 2.543681e+00 1.703052e+00 2.751900e-01 9.012582e-02 2.493385e-01 1.431354e-01 2.394552e-01 2.886190e-01 5.205969e-01 4.845091e-01 7.648834e-01 5.799553e-01 8.692264e-01 3.723380e-01 5.034274e-01 2.511856e-02
<GCONST> 1.013579e+02
<STATE> 3
<MEAN> 39
 -7.131441e+00 2.827958e+00 1.250035e+01 -2.194741e+01 -2.550944e+01 -1.042152e+01 -1.251437e+01 -1.658647e+01 -1.164240e+01 4.244806e-01 -1.823382e+01 -3.403016e+00 6.932349e+01 -3.246073e-02 3.041708e-01 7.926609e-02 -1.361732e-01 -8.437771e-02 3.100933e-02 -6.712021e-02 -1.229408e-01 2.410949e-01 -1.362109e-01 2.741126e-01 2.646002e-01 -6.628568e-01 1.051784e-01 -1.416799e-01 -2.606638e-01 4.585264e-01 1.379389e-01 -2.658553e-01 5.956815e-02 2.000064e-01 -2.269412e-02 -1.405477e-01 3.978381e-01 3.812064e-02 -1.849024e-01
<VARIANCE> 39
 4.195787e+00 1.331114e+01 1.146018e+01 2.066004e+01 1.795880e+01 1.692629e+01 2.142596e+01 1.999807e+01 2.200016e+01 2.870622e+01 2.962589e+01 1.730755e+01 1.319376e+01 5.394310e-01 9.226258e-01 8.332784e-01 1.872853e+00 1.370794e+00 2.090890e+00 1.429120e+00 1.710857e+00 1.832912e+00 1.835682e+00 2.871629e+00 1.360710e+00 6.088887e-01 1.134241e-01 1.318284e-01 1.607002e-01 2.101431e-01 3.956600e-01 2.967674e-01 2.888603e-01 3.147303e-01 3.171804e-01 3.724587e-01 3.219421e-01 2.638638e-01 9.597269e-02
<GCONST> 9.291005e+01
<STATE> 4
<MEAN> 39
 -7.781401e+00 2.126931e+00 5.056000e+00 -1.144920e+01 -1.992949e+01 -1.274177e+01 -1.152760e+01 -1.375361e+01 -8.475707e+00 -3.218952e+00 -8.405186e+00 -2.460113e+00 5.793102e+01 -1.020592e+00 -2.841676e-01 -2.329683e+00 2.443932e+00 2.254568e+00 2.097047e-01 6.172721e-01 1.025770e+00 6.937914e-01 -1.342918e+00 1.602060e+00 -3.214652e-01 -1.682842e+00 -2.238394e-01 -3.144104e-02 -7.930993e-02 -2.756434e-01 1.083221e-01 2.441991e-01 6.014290e-02 1.389003e-01 7.514238e-02 7.254779e-02 -2.003423e-01 -3.641737e-02 2.257953e-01
<VARIANCE> 39
 2.167934e+01 2.193294e+01 4.130185e+01 4.187216e+01 6.045608e+01 3.511805e+01 2.893321e+01 3.095511e+01 3.912352e+01 4.667007e+01 4.228138e+01 3.149159e+01 4.765023e+01 2.976426e+00 1.877732e+00 2.518420e+00 3.633469e+00 3.953326e+00 3.354135e+00 3.868021e+00 3.173419e+00 3.594044e+00 4.078413e+00 4.495226e+00 2.876173e+00 2.250783e+00 5.140213e-01 3.678863e-01 6.152686e-01 6.407089e-01 1.106752e+00 6.410467e-01 6.870710e-01 6.399589e-01 8.395321e-01 9.892331e-01 9.528286e-01 5.793869e-01 3.711011e-01
<GCONST> 1.278733e+02
<TRANSP> 5
 0.000000e+00 1.000000e+00 0.000000e+00 0.000000e+00 0.000000e+00
 0.000000e+00 7.696937e-01 2.303063e-01 0.000000e+00 0.000000e+00
 0.000000e+00 0.000000e+00 8.919518e-01 1.080482e-01 0.000000e+00
 0.000000e+00 0.000000e+00 0.000000e+00 7.987717e-01 2.012283e-01
 0.000000e+00 0.000000e+00 0.000000e+00 0.000000e+00 0.000000e+00
<ENDHMM>
~h "jh"
<BEGINHMM>
<NUMSTATES> 5
<STATE> 2
<MEAN> 39
 1.321566e+00 -2.490038e-01 -1.373356e+01 -2.989405e+01 1.427866e+00 -9.380511e+00 -1.658304e+01 -1.652935e+01 3.514528e+00 -2.019958e+01 8.090267e+00 -9.656046e+00 7.240279e+01 1.569011e-01 4.162907e-02 -3.443217e-01 -1.795788e-01 1.725484e-01 4.775708e-01 -1.547291e-01 2.314753e-01 -1.087473e+00 -3.309039e-01 2.295941e-02 -5.748804e-01 -4.240785e-01 -1.195305e-01 -1.371929e-02 5.304888e-02 3.634429e-01 -2.629688e-01 -3.363711e-02 1.748407e-02 1.522560e-01 -3.961805e-01 2.311977e-01 -1.928629e-01 -1.607095e-01 -6.568227e-02
<VARIANCE> 39
 4.074080e+00 5.212880e+00 1.259681e+01 5.319166e+01 2.841676e+01 2.309940e+01 2.559583e+01 2.408663e+01 2.199657e+01 6.051177e+01 9.608249e+01 3.283215e+01 6.019795e+00 1.488925e-01 7.861476e-01 8.308267e-01 2.550370e+00 1.885471e+00 2.507965e+00 1.262548e+00 1.597553e+00 2.078473e+00 2.589565e+00 3.242540e+00 3.101431e+00 1.990189e-01 8.257809e-02 8.379383e-02 1.268579e-01 2.375312e-01 1.738772e-01 3.139971e-01 2.344050e-01 2.164469e-01 3.195921e-01 4.054190e-01 4.706481e-01 3.721630e-01 1.973818e-02
<GCONST> 9.235936e+01
<STATE> 3
<MEAN> 39
 2.005319e+00 -1.636702e+00 -1.406116e+01 -2.231802e+01 -2.592619e+00 -9.015576e+00 -1.971099e+01 -1.173465e+01 -1.121400e+01 -1.462238e+01 2.338103e+00 -1.527558e+01 6.840632e+01 1.903258e-01 5.873660e-02 4.056477e-01 1.528513e+00 -5.654455e-01 -5.791180e-01 -4.221739e-01 2.202644e-01 -1.979182e+00 1.317087e+00 -1.022536e+00 5.255818e-01 -8.918961e-01 -7.051695e-04 6.340482e-02 3.025872e-01 3.274522e-01 -1.216658e-01 -1.672786e-01 -3.311861e-02 -2.423015e-01 2.809675e-01 -6.939957e-02 3.592270e-02 2.011324e-01 -2.163325e-01
<VARIANCE> 39
 7.205435e+00 1.431192e+01 1.078357e+01 4.461815e+01 3.258332e+01 4.373475e+01 2.764173e+01 2.215720e+01 7.171579e+01 9.197283e+01 9.494729e+01 6.843526e+01 9.460766e+00 2.588433e-01 1.030777e+00 1.072746e+00 2.963983e+00 1.596936e+00 2.630355e+00 2.418570e+00 2.120201e+00 2.975597e+00 2.976035e+00 2.335978e+00 2.908027e+00 3.999492e-01 5.764535e-02 1.915182e-01 2.170013e-01 4.918483e-01 3.144532e-01 4.822725e-01 3.251664e-01 3.924076e-01 3.917228e-01 5.074291e-01 3.936000e-01 5.128988e-01 1.144024e-01
<GCONST> 1.060028e+02
<STATE> 4
<MEAN> 39
 -6.235288e+00 -5.443555e-01 -4.763395e+00 -1.003155e+01 -8.961362e+00 -1.125169e+01 -1.669735e+01 -1.317758e+01 -1.067164e+01 -7.884903e+00 -3.907567e+00 -5.634078e+00 5.957375e+01 -8.198909e-01 2.983446e-01 9.600810e-01 7.262450e-01 -5.624034e-01 -3.537114e-02 5.040267e-01 -7.239061e-02 4.658692e-01 -4.591418e-01 -2.948329e-01 5.356339e-01 -4.501880e-01 3.098041e-02 -1.267126e-01 -1.100375e-01 -1.413140e-01 1.158063e-01 1.521944e-01 4.865405e-02 1.192834e-01 1.838885e-01 -5.226177e-02 7.815027e-02 -1.731199e-01 -3.053565e-02
<VARIANCE> 39
 1.098354e+02 3.323981e+01 3.293740e+01 3.914866e+01 3.553398e+01 4.480724e+01 8.075595e+01 4.783249e+01 6.550526e+01 3.820104e+01 3.036366e+01 3.674067e+01 7.269148e+01 5.847058e+00 3.929325e+00 2.387791e+00 4.093710e+00 2.411912e+00 4.443350e+00 6.740325e+00 4.042543e+00 3.728208e+00 4.598192e+00 2.729488e+00 3.033836e+00 7.459583e+00 1.086107e+00 8.812513e-01 4.566959e-01 5.901816e-01 4.429128e-01 9.447060e-01 1.037124e+00 8.018376e-01 7.805177e-01 9.195506e-01 4.710968e-01 5.046105e-01 8.783382e-01
<GCONST> 1.355497e+02
<TRANSP> 5
 0.000000e+00 1.000000e+00 0.000000e+00 0.000000e+00 0.000000e+00
 0.000000e+00 6.628885e-01 3.371116e-01 0.000000e+00 0.000000e+00
 0.000000e+00 0.000000e+00 7.834539e-01 2.165460e-01 0.000000e+00
 0.000000e+00 0.000000e+00 0.000000e+00 8.272079e-01 1.727920e-01
 0.000000e+00 0.000000e+00 0.000000e+00 0.000000e+00 0.000000e+00
<ENDHMM>
~h "ng"
<BEGINHMM>
<NUMSTATES> 5
<STATE> 2
<MEAN> 39
 2.924218e+00 7.392979e+00 -4.577415e+00 -8.761108e+00 -1.032293e+01 -9.254028e+00 -1.923166e+01 -1.261769e+01 -7.201776e+00 -9.265021e+00 4.621680e-01 -8.505394e+00 5.878890e+01 -5.689982e-01 2.204344e-01 1.097931e+00 1.039316e+00 -3.396945e-01 -5.962863e-01 1.098274e-02 -9.050072e-02 -3.188295e-02 5.997405e-01 -9.407266e-01 5.980492e-02 -7.148119e-01 -1.164786e-01 -1.764167e-01 3.171434e-02 -1.533783e-02 2.110328e-01 3.494902e-02 1.269927e-02 2.291137e-02 4.634025e-02 -2.404213e-01 3.350972e-02 -1.082086e-01 -4.613842e-02
<VARIANCE> 39
 9.624312e+00 9.112058e+00 3.482156e+01 3.025599e+01 1.749117e+01 2.826678e+01 1.833432e+01 1.838871e+01 2.518557e+01 2.307153e+01 3.318795e+01 1.527053e+01 1.258106e+01 1.192295e+00 1.313604e+00 1.115469e+00 1.268256e+00 1.755414e+00 1.657449e+00 1.628571e+00 1.390505e+00 2.328617e+00 2.385082e+00 2.608135e+00 1.697628e+00 5.518209e-01 2.693470e-01 2.212951e-01 1.948304e-01 1.930089e-01 2.780711e-01 3.529198e-01 3.254802e-01 2.794052e-01 4.881273e-01 3.147524e-01 4.388757e-01 3.798691e-01 9.523105e-02
<GCONST> 9.871323e+01
<STATE> 3
<MEAN> 39
 -7.277331e+00 1.879193e+00 1.556482e+00 -1.846398e-01 -5.802028e+00 -8.324988e+00 -1.370698e+01 -1.011180e+01 -8.945045e+00 -9.861276e+00 -7.367163e+00 -8.182850e+00 4.966785e+01 -1.621750e+00 -1.618468e+00 -1.030237e+00 4.380530e-02 6.539395e-01 1.049909e+00 1.524595e+00 1.100947e+00 4.491383e-01 3.585770e-01 2.528861e-01 6.378563e-01 -8.884213e-01 1.066328e-01 -2.693448e-03 -2.892417e-01 -2.768941e-01 -1.818591e-01 -2.350891e-02 9.300217e-03 7.241358e-02 1.775127e-01 1.990254e-01 2.705365e-01 1.965514e-01 8.650764e-02
<VARIANCE> 39
 1.489556e+01 1.930903e+01 1.806848e+01 1.492942e+01 1.974653e+01 2.248666e+01 3.190489e+01 2.273033e+01 1.549388e+01 2.154309e+01 1.858898e+01 1.704649e+01 6.151731e+00 5.225516e-01 8.392045e-01 1.480040e+00 1.334805e+00 1.679081e+00 1.585276e+00 1.818531e+00 1.178482e+00 1.754943e+00 2.271537e+00 2.823779e+00 2.295300e+00 1.542329e-01 1.114564e-01 2.131952e-01 3.055969e-01 1.439705e-01 2.988970e-01 3.821439e-01 4.235953e-01 2.694657e-01 2.715431e-01 4.052179e-01 4.772768e-01 3.893941e-01 3.268797e-02
<GCONST> 9.347105e+01
<STATE> 4
<MEAN> 39
 -1.472320e+01 -4.398581e+00 -7.088693e+00 -4.085549e+00 -6.040877e+00 -3.461595e+00 -5.792077e+00 -3.977540e+00 -4.223495e+00 -3.540269e+00 -2.888743e+00 -2.116085e+00 4.384430e+01 -4.047146e-02 1.168423e-02 -8.123729e-02 -2.366721e-02 -8.968866e-04 6.784491e-02 9.080980e-02 4.496062e-02 1.781815e-02 1.038402e-01 3.432569e-02 4.297512e-02 -8.926709e-02 2.491158e-02 2.891830e-02 3.014904e-02 2.147802e-02 3.991201e-03 -5.375548e-03 -2.322807e-02 -1.951315e-02 -2.382725e-02 -2.818154e-02 -1.899921e-02 -3.143122e-02 1.207868e-02
<VARIANCE> 39
 1.836730e+00 3.603989e+00 5.175341e+00 6.013726e+00 7.705593e+00 9.686797e+00 1.107613e+01 1.202604e+01 1.185169e+01 1.207089e+01 1.072768e+01 1.027743e+01 5.185725e+00 1.208329e-01 2.771289e-01 4.958059e-01 6.866084e-01 7.779225e-01 1.025660e+00 1.189725e+00 1.304608e+00 1.348976e+00 1.362765e+00 1.227934e+00 1.203033e+00 3.889756e-02 2.862592e-02 6.899304e-02 1.055792e-01 1.398680e-01 1.633677e-01 2.244375e-01 2.402742e-01 2.785400e-01 2.987721e-01 2.981188e-01 2.689981e-01 2.614150e-01 7.852295e-03
<GCONST> 6.464099e+01
<TRANSP> 5
 0.000000e+00 1.000000e+00 0.000000e+00 0.000000e+00 0.000000e+00
 0.000000e+00 9.195582e-01 8.044176e-02 0.000000e+00 0.000000e+00
 0.000000e+00 0.000000e+00 8.608860e-01 1.391140e-01 0.000000e+00
 0.000000e+00 0.000000e+00 0.000000e+00 9.744331e-01 2.556694e-02
 0.000000e+00 0.000000e+00 0.000000e+00 0.000000e+00 0.000000e+00
<ENDHMM>
~h "oh"
<BEGINHMM>
<NUMSTATES> 5
<STATE> 2
<MEAN> 39
 3.039350e-01 -2.110970e+00 -1.123899e+01 -2.107820e+01 2.039240e+00 -2.551704e+01 -1.930618e+01 9.949970e-02 -4.015446e+00 -1.306061e+01 3.899980e+00 -8.974205e+00 6.741827e+01 -5.144300e-02 4.203981e-02 -2.545347e-01 2.824202e-01 3.151736e-01 3.883615e-01 -5.255105e-01 2.378156e-01 6.602935e-01 9.144469e-01 5.128589e-01 -9.258554e-01 -1.075401e+00 -1.793624e-01 8.889346e-02 1.380327e-01 2.759949e-01 -4.016052e-01 4.285228e-01 2.486328e-01 -2.256057e-01 2.519410e-02 1.627831e-01 -1.082898e-01 1.785242e-01 -2.975390e-01
<VARIANCE> 39
 1.359192e+01 1.483965e+01 1.715885e+01 1.516004e+01 2.054648e+01 6.529684e+01 3.293566e+01 7.677112e+01 8.321333e+01 1.874082e+01 3.160902e+01 9.645110e+01 2.508814e+01 4.505589e-01 8.373818e-01 9.049943e-01 1.607328e+00 3.018434e+00 3.307690e+00 1.353980e+00 1.461370e+00 3.829183e+00 2.185942e+00 2.642625e+00 3.099846e+00 1.686024e+00 7.047087e-02 1.649347e-01 1.676126e-01 3.670646e-01 4.024978e-01 3.844818e-01 3.561804e-01 3.657450e-01 6.603937e-01 3.287149e-01 5.709724e-01 5.126145e-01 2.771332e-01
<GCONST> 1.081263e+02
<STATE> 3
<MEAN> 39
 -3.554559e+00 2.451512e+00 -1.384099e+01 -1.964762e+01 -4.361520e-01 -9.570162e+00 -1.951787e+01 -1.214839e+01 2.068619e+00 -1.006921e+01 4.253132e+00 -9.236194e+00 6.006108e+01 1.854679e-01 6.128090e-01 -4.245919e-02 8.647550e-02 7.484697e-02 2.117893e-02 -3.159371e-01 -6.679960e-01 2.581472e-01 3.639440e-03 -4.406503e-01 7.274956e-02 3.649026e-01 5.277774e-02 -2.252450e-02 1.209421e-01 7.399882e-02 -5.460138e-03 -1.571139e-01 7.131591e-02 1.207892e-01 -1.617122e-01 -5.077722e-02 -1.376209e-01 1.101494e-02 1.323506e-03
<VARIANCE> 39
 2.999953e+01 2.724760e+01 2.341705e+01 9.536736e+01 3.600010e+01 3.698707e+01 6.272056e+01 6.698893e+01 8.618017e+01 5.841525e+01 6.203692e+01 3.216620e+01 8.535542e+01 3.027202e+00 1.436114e+00 3.237196e+00 1.192987e+01 3.755218e+00 5.034374e+00 5.111692e+00 5.521951e+00 8.906772e+00 6.000243e+00 9.863816e+00 3.741621e+00 7.650449e+00 4.529309e-01 2.532470e-01 5.402507e-01 1.842742e+00 6.468672e-01 7.369879e-01 1.086260e+00 8.305731e-01 2.008169e+00 1.072974e+00 1.735118e+00 7.678646e-01 1.315722e+00
<GCONST> 1.415415e+02
<STATE> 4
<MEAN> 39
 -2.987965e+00 4.998435e+00 -6.241906e+00 -8.230573e+00 -4.455489e+00 -1.198357e+01 -1.610669e+01 -1.192405e+01 -5.068919e+00 -4.834635e+00 -5.399205e+00 -8.487444e+00 5.399881e+01 -1.306513e+00 -1.335731e+00 4.805907e-01 1.136938e+00 -1.006237e+00 8.122318e-01 2.362195e+00 6.545131e-01 -1.089237e+00 3.938760e-01 2.786123e-01 7.816092e-01 -1.178571e+00 -1.672097e-01 -2.101540e-01 -3.458026e-01 -5.485418e-01 -2.588475e-02 -2.057205e-01 -1.046918e-02 5.168909e-02 4.177571e-01 -3.077860e-01 5.306640e-01 2.232126e-01 9.463693e-01
<VARIANCE> 39
 1.147117e+01 1.475073e+01 1.129172e+01 2.144491e+01 1.222938e+01 3.259486e+01 3.171768e+01 1.377376e+01 2.924863e+01 2.101589e+01 1.631295e+01 1.440115e+01 3.231108e+01 9.736890e-01 1.142187e+00 3.042428e+00 3.630813e+00 8.367109e-01 4.140451e+00 2.942601e+00 2.053406e+00 5.219752e+00 3.008008e+00 3.362961e+00 2.286706e+00 8.875316e+00 1.609080e-01 2.438777e-01 4.523266e-01 2.925810e-01 1.658444e-01 1.270948e+00 7.540700e-01 4.388387e-01 6.987104e-01 7.534515e-01 3.900236e-01 3.272123e-01 1.135859e+00
<GCONST> 1.117518e+02
<TRANSP> 5
 0.000000e+00 1.000000e+00 0.000000e+00 0.000000e+00 0.000000e+00
 0.000000e+00 8.408572e-01 1.591428e-01 0.000000e+00 0.000000e+00
 0.000000e+00 0.000000e+00 9.412488e-01 5.875122e-02 0.000000e+00
 0.000000e+00 0.000000e+00 0.000000e+00 8.700637e-01 1.299363e-01
 0.000000e+00 0.000000e+00 0.000000e+00 0.000000e+00 0.000000e+00
<ENDHMM>
~h "ow"
<BEGINHMM>
<NUMSTATES> 5
<STATE> 2
<MEAN> 39
 -1.081165e+01 -7.180727e+00 -9.865209e+00 -1.107453e+01 -1.679815e+00 -8.233907e+00 -1.171943e+01 -4.002152e+00 2.158373e+00 -3.949483e+00 -3.247213e+00 -3.285208e+00 5.395448e+01 9.243138e-02 1.060934e-01 -3.174958e-01 -6.633605e-01 4.446437e-01 3.823365e-01 8.056359e-02 -2.712703e-01 4.764134e-01 8.378246e-02 1.890534e-01 -6.196531e-02 7.832012e-02 1.505573e-01 8.414511e-02 -1.325643e-01 -3.128181e-01 2.210247e-02 1.862234e-02 -1.191663e-01 -1.415268e-01 1.101497e-01 -1.376549e-01 2.354737e-01 3.490783e-02 3.166591e-01
<VARIANCE> 39
 4.692805e+01 6.600038e+01 2.368315e+01 5.483021e+01 4.141169e+01 4.508337e+01 5.662540e+01 9.567364e+01 9.533797e+01 3.706636e+01 2.302130e+01 2.296007e+01 7.798827e+01 2.775735e+00 1.772577e+00 2.843044e+00 6.172161e+00 3.096898e+00 2.699699e+00 4.131393e+00 3.629362e+00 5.534022e+00 3.422436e+00 2.709474e+00 2.234562e+00 2.288532e+00 5.393640e-01 2.499528e-01 4.875889e-01 1.115392e+00 4.621007e-01 4.425454e-01 8.734450e-01 7.819210e-01 8.808172e-01 5.107571e-01 5.807720e-01 4.157938e-01 7.338573e-01
<GCONST> 1.295597e+02
<STATE> 3
<MEAN> 39
 -2.653858e+00 -1.858024e+00 -1.512073e+01 -2.504892e+01 -9.778705e-01 -6.341914e+00 -1.690119e+01 -1.405209e+01 5.532280e+00 -5.844820e+00 1.812304e+00 -5.626246e+00 6.679498e+01 1.451546e+00 7.276635e-01 -7.999195e-01 -3.137226e+00 1.317683e+00 2.294490e-01 -1.212858e+00 -1.453533e+00 1.073162e+00 -1.760937e+00 1.119237e+00 -1.769298e-01 3.174408e+00 -3.023426e-01 1.365216e-01 3.815895e-01 7.644015e-01 -2.821185e-01 -1.209678e-01 2.915956e-01 2.177016e-01 -6.098497e-01 -1.332056e-01 -2.173686e-01 3.242239e-02 -4.627472e-01
<VARIANCE> 39
 2.604823e+01 1.774993e+01 2.346209e+01 7.752378e+01 2.644338e+01 3.847929e+01 4.658218e+01 3.892218e+01 4.430186e+01 5.260900e+01 5.302161e+01 2.681435e+01 9.337031e+01 3.205869e+00 1.867888e+00 2.870227e+00 8.314987e+00 2.941473e+00 2.659710e+00 4.816024e+00 3.711679e+00 6.900129e+00 3.868660e+00 4.243250e+00 2.451321e+00 8.929973e+00 6.120452e-01 3.451588e-01 5.495619e-01 1.534726e+00 5.918990e-01 4.471355e-01 8.495287e-01 6.787204e-01 1.003507e+00 9.651717e-01 8.146152e-01 5.027398e-01 1.723983e+00
<GCONST> 1.330312e+02
<STATE> 4
<MEAN> 39
 1.760365e+00 4.264325e+00 -1.392356e+01 -2.843230e+01 -7.728263e-01 -7.387573e+00 -1.859870e+01 -1.569051e+01 -3.645120e+00 -1.163047e+01 3.115519e+00 -5.349559e+00 6.869152e+01 -5.192105e-02 1.570361e-01 1.937797e-01 6.834338e-01 -2.480519e-01 -2.039660e-01 -5.812139e-02 2.507303e-01 -7.459221e-01 1.221504e-01 -1.888046e-01 -2.424192e-02 -7.885498e-01 -1.181378e-01 -1.000037e-01 7.464128e-02 2.725844e-01 -9.465577e-02 -7.860187e-02 5.041961e-02 7.422625e-02 1.712803e-02 1.336761e-01 -1.165811e-01 1.540706e-04 -1.227167e-01
<VARIANCE> 39
 6.596384e+00 2.194630e+01 1.128218e+01 3.376278e+01 2.811898e+01 4.229408e+01 3.354682e+01 3.378914e+01 9.018574e+01 5.963137e+01 5.618573e+01 6.432944e+01 2.890862e+01 6.306296e-01 9.232709e-01 9.523206e-01 2.901929e+00 1.435540e+00 1.772908e+00 1.954475e+00 1.865458e+00 2.888499e+00 2.946548e+00 2.965250e+00 2.295995e+00 7.172174e-01 1.196436e-01 1.092218e-01 1.664546e-01 3.132814e-01 2.507806e-01 2.928851e-01 3.616911e-01 3.655201e-01 4.722578e-01 4.507487e-01 4.010734e-01 3.691117e-01 1.143401e-01
<GCONST> 1.057347e+02
<TRANSP> 5
 0.000000e+00 1.000000e+00 0.000000e+00 0.000000e+00 0.000000e+00
