~o
<STREAMINFO> 1 39
<VECSIZE> 39<NULLD><MFCC_D_A_0><DIAGC>
~s "silst"
<MEAN> 39
 -1.524447e+01 -1.134870e+01 -5.737247e+00 -8.545499e+00 -4.802990e+00 -1.170950e+01 -6.331915e+00 3.339515e+00 2.408685e+00 -6.904490e+00 -8.971380e-01 -2.125084e+00 5.442583e+01 -2.023325e-01 -2.374422e-01 9.278397e-02 2.281682e-01 8.889195e-02 -1.434609e-02 1.695241e-01 2.779876e-01 1.700097e-01 5.804902e-02 -7.190748e-02 -4.411887e-03 -1.759963e-01 2.489749e-02 7.735850e-02 -1.139866e-02 -4.152780e-02 -2.694395e-02 6.612664e-02 -4.939246e-03 -8.017585e-02 -3.736495e-02 -2.655168e-02 -5.108526e-03 -1.322150e-02 2.468432e-02
<VARIANCE> 39
 3.448098e+01 7.458344e+01 3.962092e+01 4.419021e+01 5.297502e+01 5.346441e+01 6.334695e+01 1.032114e+02 7.790462e+01 4.645963e+01 2.932826e+01 2.445054e+01 3.977873e+01 2.235205e+00 3.050665e+00 2.853649e+00 4.195592e+00 3.647208e+00 3.696747e+00 3.708058e+00 4.922707e+00 4.382324e+00 3.689717e+00 2.698063e+00 2.099455e+00 2.788234e+00 3.924274e-01 3.993590e-01 5.467380e-01 6.882270e-01 6.977351e-01 6.503637e-01 7.459962e-01 7.746475e-01 7.148235e-01 7.185660e-01 5.290612e-01 4.239069e-01 3.448839e-01
<GCONST> 1.302402e+02
~h "d"
<BEGINHMM>
<NUMSTATES> 5
<STATE> 2
<MEAN> 39
 -1.108823e+01 -1.780751e+00 -6.382480e+00 -5.043906e+00 -5.570087e+00 -7.383079e+00 -8.379486e+00 -7.395458e+00 -6.365087e+00 -5.595568e+00 -4.315930e+00 -4.338637e+00 4.870073e+01 -8.354728e-01 -8.342441e-01 -5.303274e-01 -3.269500e-01 -2.313748e-01 5.205888e-02 1.162332e+00 5.478006e-01 3.929293e-01 3.363128e-01 5.178016e-01 6.542376e-01 6.085196e-01 2.040826e-01 -2.075121e-01 -2.717298e-01 -4.845086e-01 -3.877468e-01 -6.339257e-01 6.305586e-02 1.098900e-01 2.774135e-01 -1.307827e-01 1.997095e-01 1.313648e-01 1.349472e+00
<VARIANCE> 39
 1.868256e+01 1.430780e+01 1.439943e+01 1.518014e+01 1.558677e+01 4.301620e+01 2.211388e+01 1.945579e+01 2.136358e+01 2.658743e+01 1.596201e+01 1.444856e+01 4.127795e+01 1.466786e+00 1.916986e+00 1.974927e+00 1.795364e+00 2.474682e+00 2.525546e+00 2.657840e+00 2.387653e+00 2.417377e+00 2.078636e+00 1.731300e+00 2.176336e+00 4.457585e+00 1.287159e-01 1.780410e-01 2.539207e-01 5.179962e-01 4.230001e-01 5.301806e-01 7.407481e-01 5.782697e-01 4.161412e-01 4.619218e-01 4.435995e-01 3.929695e-01 6.766515e-01
<GCONST> 1.092102e+02
<STATE> 3
<MEAN> 39
 -1.343023e+01 -3.846207e+00 -7.393435e+00 -5.959276e+00 -5.608841e+00 -7.318723e+00 -5.100947e+00 -5.090909e+00 -4.843608e+00 -4.124368e+00 -2.269269e+00 -2.185565e+00 5.017863e+01 2.179349e-01 -1.507044e+00 -1.371055e+00 -1.615465e+00 -1.736637e+00 -2.711694e+00 1.350338e+00 -5.468824e-02 9.721115e-01 -3.755897e-01 1.101385e+00 5.943921e-01 5.824272e+00 7.586825e-01 -2.248145e-01 -1.028137e-01 -4.616969e-01 -6.322392e-01 -7.650544e-01 -4.408656e-01 7.911780e-02 -5.526930e-02 -7.906616e-01 -2.945137e-01 8.754157e-03 1.739151e+00
<VARIANCE> 39
 1.269603e+01 9.403635e+00 1.151278e+01 1.487662e+01 1.525966e+01 5.579924e+01 2.166261e+01 1.468763e+01 1.662117e+01 2.395513e+01 1.328120e+01 1.194336e+01 9.214997e+01 1.814895e+00 1.515130e+00 2.002876e+00 1.879965e+00 2.859518e+00 3.458077e+00 2.568597e+00 5.453448e+00 2.772690e+00 2.822860e+00 1.905888e+00 3.561899e+00 6.805684e+00 2.013198e-01 3.960960e-01 3.000073e-01 3.692928e-01 5.826887e-01 6.429693e-01 8.667884e-01 5.453676e-01 4.676347e-01 6.001197e-01 4.048317e-01 3.634771e-01 1.343733e+00
<GCONST> 1.134965e+02
<STATE> 4
<MEAN> 39
 -8.987786e+00 -6.738972e+00 -1.057734e+01 -1.161558e+01 -1.330263e+01 -1.873881e+01 -6.748168e+00 -4.329494e+00 -1.774645e+00 -9.499384e+00 -2.412506e+00 -1.381910e+00 7.192056e+01 1.685144e+00 -1.118886e+00 -3.930530e-01 -1.202736e+00 -1.428823e+00 -1.263036e+00 -7.756978e-01 9.791944e-01 3.267716e-01 -1.977660e+00 -4.807980e-01 2.409869e-01 4.053413e+00 1.595019e-01 1.583327e-01 3.936105e-01 3.232467e-01 8.000638e-01 9.315481e-01 -4.844134e-01 -1.396360e-01 -3.191040e-01 -2.041298e-01 -3.590857e-01 -2.467273e-01 -1.361667e+00
<VARIANCE> 39
 2.197694e+01 1.930915e+01 1.497493e+01 1.686034e+01 3.244596e+01 3.003586e+01 6.012378e+01 5.108998e+01 2.224749e+01 3.715932e+01 3.728664e+01 2.673038e+01 2.335033e+01 1.866990e+00 2.449495e+00 2.379105e+00 2.806528e+00 4.967657e+00 6.658488e+00 3.022049e+00 4.062415e+00 3.659260e+00 5.322347e+00 2.564636e+00 3.213290e+00 1.783040e+01 5.094723e-01 3.858708e-01 3.249848e-01 4.941255e-01 8.423018e-01 8.624450e-01 8.836177e-01 9.698468e-01 4.907519e-01 1.094996e+00 5.917996e-01 7.830003e-01 6.708276e-01
<GCONST> 1.266091e+02
<TRANSP> 5
 0.000000e+00 1.000000e+00 0.000000e+00 0.000000e+00 0.000000e+00
 0.000000e+00 4.932477e-01 5.067523e-01 0.000000e+00 0.000000e+00
 0.000000e+00 0.000000e+00 4.186419e-01 5.813581e-01 0.000000e+00
 0.000000e+00 0.000000e+00 0.000000e+00 6.517863e-01 3.482137e-01
 0.000000e+00 0.000000e+00 0.000000e+00 0.000000e+00 0.000000e+00
<ENDHMM>
~h "f"
<BEGINHMM>
<NUMSTATES> 5
<STATE> 2
<MEAN> 39
 -1.583036e+01 -1.665733e+01 -5.762656e+00 -9.336881e+00 -1.030218e+00 -1.356285e+01 -8.993590e+00 8.239470e+00 1.146252e+01 -1.072485e+01 -2.355083e+00 -3.606210e+00 5.696681e+01 -7.170972e-02 4.058526e-01 -1.685178e-01 4.573439e-01 -1.355745e-01 1.324063e-01 9.312131e-02 -2.391228e-01 -2.747365e-01 3.210921e-01 -1.150530e-01 6.283889e-02 -4.225625e-01 3.644589e-02 1.344846e-01 -1.582866e-02 1.902270e-02 -3.969662e-02 8.474361e-02 7.555056e-03 -1.522557e-01 -1.885955e-01 3.724360e-02 2.841808e-02 2.909384e-02 -9.136999e-02
<VARIANCE> 39
 7.089888e+00 3.453297e+01 1.759150e+01 3.556567e+01 2.593843e+01 2.376357e+01 3.487115e+01 5.743334e+01 6.188992e+01 2.674526e+01 1.977162e+01 2.026129e+01 2.537300e+01 1.209862e+00 1.115968e+00 1.032413e+00 2.196491e+00 1.632042e+00 1.737736e+00 2.535916e+00 3.550218e+00 3.209312e+00 2.122087e+00 1.783229e+00 1.589574e+00 9.936335e-01 8.074079e-02 1.076265e-01 1.866291e-01 3.929900e-01 2.752051e-01 3.411953e-01 4.304695e-01 4.929475e-01 4.224808e-01 3.885280e-01 3.581558e-01 3.022506e-01 5.355958e-02
<GCONST> 1.033628e+02
<STATE> 3
<MEAN> 39
 -2.056183e+01 -3.574829e+00 -8.693797e+00 -1.840105e+00 -7.448812e+00 -7.543727e+00 -5.980619e+00 -3.356511e+00 -1.823878e+00 -4.866252e+00 -2.347059e+00 -3.744004e+00 5.380945e+01 -6.863074e-01 8.341757e-02 -1.326262e-01 -3.832425e-02 -1.283319e-01 1.809026e-01 4.124451e-01 -1.319091e-02 3.579784e-02 2.142294e-01 2.711949e-01 3.024999e-02 4.279858e-01 3.010269e-01 -1.709931e-01 -2.151781e-02 -2.145992e-01 -6.693963e-03 -1.974350e-01 -1.886376e-01 -3.523143e-02 7.894874e-02 -9.037422e-02 -4.989776e-03 -3.157933e-02 3.645260e-01
<VARIANCE> 39
 2.897655e+01 2.221989e+01 1.292920e+01 1.469007e+01 1.978363e+01 2.320686e+01 1.907403e+01 2.461326e+01 2.197338e+01 1.616109e+01 1.548137e+01 1.538034e+01 4.065811e+01 1.830661e+00 2.286659e+00 1.450128e+00 1.772924e+00 2.249819e+00 2.982144e+00 2.142716e+00 2.544937e+00 2.835700e+00 1.853137e+00 1.653996e+00 1.672046e+00 3.900735e+00 5.607645e-01 4.327655e-01 2.875405e-01 4.410154e-01 4.680920e-01 5.792881e-01 4.861688e-01 5.585561e-01 5.875947e-01 3.991123e-01 3.529331e-01 3.560381e-01 8.011234e-01
<GCONST> 1.109001e+02
<STATE> 4
<MEAN> 39
 -2.008137e+01 -6.708061e+00 -1.019135e+01 -5.290439e+00 -8.617032e+00 -1.079998e+01 -6.784272e+00 -4.433729e+00 -1.551929e-01 -3.261412e+00 -6.760338e-01 -3.739558e+00 6.403085e+01 4.531821e+00 -4.202005e-01 -4.355600e-01 -2.931006e+00 -7.556200e-02 -9.602955e-01 -2.627158e+00 -2.337353e+00 -2.359422e-01 -1.365363e+00 -3.021205e-01 -8.286288e-01 3.564528e+00 1.229810e+00 6.024402e-01 -1.446526e-01 -1.007121e+00 3.330166e-01 4.055175e-01 -7.169088e-01 -8.062716e-01 -1.645457e-01 -8.888714e-01 -1.571834e-01 -3.355209e-01 6.571675e-02
<VARIANCE> 39
 3.812831e+01 2.468096e+01 2.085642e+01 2.830637e+01 3.596829e+01 3.051900e+01 2.570591e+01 2.199278e+01 1.818353e+01 1.849220e+01 1.533931e+01 1.209365e+01 2.967522e+01 5.939632e+00 4.170996e+00 1.696530e+00 5.570429e+00 3.495132e+00 3.745282e+00 4.056840e+00 4.803893e+00 2.957912e+00 4.311246e+00 2.608816e+00 2.045285e+00 3.020094e+00 9.359340e-01 7.815393e-01 4.660290e-01 1.001883e+00 7.682466e-01 6.984523e-01 7.100705e-01 6.217185e-01 6.407637e-01 6.167355e-01 6.364839e-01 4.091144e-01 7.060498e-01
<GCONST> 1.238611e+02
<TRANSP> 5
 0.000000e+00 1.000000e+00 0.000000e+00 0.000000e+00 0.000000e+00
 0.000000e+00 8.645675e-01 1.354325e-01 0.000000e+00 0.000000e+00
 0.000000e+00 0.000000e+00 8.985973e-01 1.014027e-01 0.000000e+00
 0.000000e+00 0.000000e+00 0.000000e+00 6.322632e-01 3.677368e-01
 0.000000e+00 0.000000e+00 0.000000e+00 0.000000e+00 0.000000e+00
<ENDHMM>
~h "k"
<BEGINHMM>
<NUMSTATES> 5
<STATE> 2
<MEAN> 39
 -1.650014e+01 -1.584120e+01 -5.826494e+00 -8.011106e+00 -3.018505e+00 -1.611523e+01 -7.830923e+00 1.032028e+01 1.128288e+01 -1.104956e+01 -2.023446e+00 -3.190416e+00 5.656472e+01 -9.657270e-02 3.518172e-01 -1.933224e-01 3.101634e-01 1.618100e-01 2.237595e-01 -4.910731e-02 -1.898432e-01 -1.896499e-01 1.537071e-01 -1.726059e-01 1.282413e-01 -2.691368e-01 2.389377e-02 9.633304e-02 3.538824e-03 -9.108709e-03 -5.016062e-03 1.248108e-01 4.677764e-02 -2.309767e-01 -1.186439e-01 9.657893e-02 -9.272177e-03 -2.978109e-03 -1.143564e-01
<VARIANCE> 39
 8.844075e+00 2.431493e+01 1.067991e+01 3.827320e+01 3.971278e+01 2.280817e+01 3.419558e+01 4.756653e+01 5.466325e+01 2.257486e+01 2.639070e+01 2.167599e+01 3.660909e+01 7.611235e-01 1.097778e+00 1.013058e+00 1.621300e+00 1.711321e+00 2.465237e+00 2.216972e+00 3.529900e+00 2.630630e+00 2.067615e+00 2.169837e+00 1.760290e+00 8.631773e-01 7.853723e-02 1.015402e-01 1.852314e-01 2.744356e-01 3.190256e-01 3.803377e-01 3.915187e-01 5.740423e-01 4.314710e-01 3.514725e-01 4.116039e-01 3.146792e-01 1.121757e-01
<GCONST> 1.035014e+02
<STATE> 3
<MEAN> 39
 -2.159607e+01 -3.241792e+00 -7.583272e+00 -6.132243e-01 -8.012335e+00 -6.600808e+00 -4.463068e+00 -1.460193e+00 -2.624402e+00 -5.630474e+00 -1.183541e+00 -1.035776e+00 5.392652e+01 -1.441100e-01 3.585076e-01 -1.225429e-01 -1.653194e-01 4.108313e-01 8.008481e-01 1.057753e-01 -5.283937e-01 -2.794977e-01 2.700899e-01 2.845829e-02 -4.881040e-02 -7.501957e-01 2.180817e-01 -1.501021e-01 -8.053307e-02 -6.403403e-02 -2.288801e-02 -3.540189e-01 3.031333e-02 -2.276850e-02 5.974295e-02 8.486998e-04 2.005399e-02 -4.034781e-03 1.805287e-01
<VARIANCE> 39
 4.606242e+01 1.063873e+01 9.909043e+00 1.787527e+01 2.848282e+01 2.776542e+01 1.690725e+01 2.061374e+01 1.685719e+01 2.024407e+01 2.111473e+01 1.389272e+01 7.440965e+01 1.188455e+00 1.124912e+00 1.137148e+00 1.275938e+00 2.163329e+00 3.455732e+00 1.962326e+00 2.393963e+00 2.067682e+00 1.866630e+00 1.847171e+00 1.477552e+00 1.182650e+00 1.918505e-01 1.873254e-01 3.518333e-01 2.896442e-01 4.670460e-01 6.058053e-01 4.227929e-01 5.149810e-01 3.813888e-01 4.167053e-01 4.028845e-01 3.163960e-01 3.746390e-01
<GCONST> 1.048650e+02
<STATE> 4
<MEAN> 39
 -1.556478e+01 -5.528439e+00 -1.423209e+01 -5.393169e+00 -2.709212e+00 -1.133119e+01 -3.189968e+00 -6.275611e+00 -1.319367e+00 -1.144908e+00 -1.337345e+00 -5.294910e-01 5.727866e+01 1.262310e+00 -6.696464e-01 -2.028662e+00 -1.393618e+00 1.596165e+00 -2.700864e+00 -3.136563e-01 -6.444534e-01 1.004507e+00 1.112187e+00 -2.528846e-01 1.505226e-01 3.367835e+00 -1.138503e-01 1.035951e-01 4.824966e-01 4.819353e-02 -6.852854e-02 2.680160e-01 -2.405087e-01 2.477307e-01 1.218696e-01 -8.635693e-02 -1.235313e-01 -2.977354e-01 9.817308e-02
<VARIANCE> 39
 5.869096e+01 2.529767e+01 9.254992e+01 4.438341e+01 1.037437e+02 8.525447e+01 3.247525e+01 3.389948e+01 3.061606e+01 3.851433e+01 1.683254e+01 1.914519e+01 1.120556e+02 2.966368e+00 2.287226e+00 8.838389e+00 3.357238e+00 7.317476e+00 6.989251e+00 4.463292e+00 3.211002e+00 3.873207e+00 3.172235e+00 1.893100e+00 2.555499e+00 1.332855e+01 7.451729e-01 4.442665e-01 2.303183e+00 7.595327e-01 1.429190e+00 2.335836e+00 7.495922e-01 7.181119e-01 6.303760e-01 6.784379e-01 3.828108e-01 5.768211e-01 2.417845e+00
<GCONST> 1.380990e+02
<TRANSP> 5
 0.000000e+00 1.000000e+00 0.000000e+00 0.000000e+00 0.000000e+00
 0.000000e+00 8.630312e-01 1.369688e-01 0.000000e+00 0.000000e+00
 0.000000e+00 0.000000e+00 8.665560e-01 1.334440e-01 0.000000e+00
 0.000000e+00 0.000000e+00 0.000000e+00 6.643724e-01 3.356276e-01
 0.000000e+00 0.000000e+00 0.000000e+00 0.000000e+00 0.000000e+00
<ENDHMM>
~h "l"
<BEGINHMM>
<NUMSTATES> 5
<STATE> 2
<MEAN> 39
 -3.060047e+00 -5.193593e+00 -1.035024e+01 -2.058252e+01 -2.626714e+00 -1.691439e+01 -1.651142e+01 -8.886231e+00 2.669985e+00 -1.828342e+01 -7.001451e+00 -7.512822e+00 7.369308e+01 4.838571e-01 4.478625e-01 -1.204063e+00 -1.163534e+00 2.272152e+00 1.059055e+00 -1.470873e+00 -1.644475e+00 1.716244e+00 -4.115178e-01 1.341519e+00 -1.793167e+00 -4.511846e-01 -3.628524e-02 1.096586e-01 2.487557e-01 -1.112137e-01 -3.848032e-01 2.894395e-01 3.627126e-01 -2.020025e-01 -3.913122e-01 1.640810e-01 5.895558e-01 -9.075837e-02 -1.058932e-01
<VARIANCE> 39
 4.717391e+00 1.751354e+01 1.586999e+01 2.324174e+01 3.784830e+01 5.096682e+01 3.347338e+01 6.458919e+01 3.483969e+01 2.642051e+01 4.221292e+01 4.480866e+01 8.182559e+00 2.496198e-01 6.767495e-01 2.009458e+00 1.700059e+00 4.059688e+00 2.830802e+00 3.768520e+00 3.101127e+00 2.858557e+00 1.818451e+00 5.242457e+00 3.791333e+00 3.325318e-01 5.126749e-02 9.608255e-02 1.218706e-01 3.762562e-01 4.034420e-01 4.486997e-01 3.967629e-01 7.870958e-01 4.533461e-01 3.308199e-01 5.429381e-01 7.967549e-01 3.573975e-02
<GCONST> 1.042694e+02
<STATE> 3
<MEAN> 39
 -1.085469e+00 -2.745878e+00 -1.470925e+01 -2.933363e+01 3.555534e+00 -7.423697e+00 -1.561157e+01 -1.871885e+01 5.683784e+00 -2.310706e+01 5.547051e+00 -1.204782e+01 7.241288e+01 1.439710e-01 3.310852e-01 -2.029001e-01 -2.460441e-01 -2.546559e-02 1.598281e-01 -4.612817e-01 3.990870e-01 3.316441e-02 1.793815e-01 5.456098e-01 1.712061e-01 -4.434113e-01 -5.741357e-02 -2.124199e-02 6.364636e-02 2.674256e-01 -1.605781e-01 -1.525788e-01 -1.119331e-01 2.415551e-01 -1.514495e-01 2.196386e-01 -2.934403e-01 1.683732e-01 -8.308054e-02
<VARIANCE> 39
 4.081656e+00 1.297603e+01 1.170397e+01 2.838272e+01 2.148318e+01 3.674237e+01 3.652128e+01 4.034497e+01 3.031655e+01 3.228018e+01 3.616570e+01 2.722098e+01 1.355899e+01 2.397892e-01 5.864882e-01 7.491625e-01 1.580741e+00 1.277382e+00 2.014654e+00 1.834888e+00 1.916884e+00 1.749286e+00 2.133173e+00 2.941234e+00 1.578808e+00 4.005474e-01 4.375241e-02 9.423819e-02 1.168126e-01 2.022757e-01 2.331505e-01 2.744364e-01 2.525581e-01 3.311069e-01 3.240762e-01 3.159935e-01 3.783076e-01 3.764775e-01 6.727143e-02
<GCONST> 9.275845e+01
<STATE> 4
<MEAN> 39
 -1.631760e+00 -5.322833e-01 -1.119150e+01 -1.825087e+01 -3.966470e+00 -1.336839e+01 -2.217900e+01 -7.489153e+00 1.278404e+00 -1.382426e+01 -9.128399e-01 -4.894307e+00 6.620093e+01 -7.990915e-01 -4.976784e-01 6.169922e-01 1.931960e+00 -1.135342e+00 4.506202e-03 1.066963e+00 8.847505e-01 -1.331687e+00 9.242052e-01 -9.820310e-01 8.794061e-01 -9.710397e-01 -2.869048e-01 -1.516525e-01 2.696921e-02 1.211923e-01 -5.224681e-02 2.291106e-01 5.987951e-01 -1.818956e-01 -1.375585e-01 -4.986814e-02 -6.342501e-02 -1.313998e-01 3.418969e-02
<VARIANCE> 39
 1.022551e+01 1.969805e+01 4.238482e+01 6.107917e+01 5.196431e+01 1.091826e+02 6.020056e+01 6.361328e+01 5.196162e+01 4.520687e+01 9.599438e+01 5.760881e+01 4.387862e+01 1.809528e+00 2.034704e+00 2.067152e+00 5.249082e+00 2.855684e+00 5.345528e+00 7.406347e+00 3.376171e+00 4.466057e+00 5.659705e+00 4.861326e+00 3.878046e+00 3.554036e+00 2.844906e-01 2.729402e-01 3.714736e-01 8.149076e-01 5.470450e-01 7.858410e-01 1.099124e+00 6.782020e-01 8.640549e-01 7.393591e-01 9.539678e-01 5.907592e-01 3.460214e-01
<GCONST> 1.319923e+02
<TRANSP> 5
 0.000000e+00 1.000000e+00 0.000000e+00 0.000000e+00 0.000000e+00
 0.000000e+00 6.565792e-01 3.434208e-01 0.000000e+00 0.000000e+00
 0.000000e+00 0.000000e+00 8.715217e-01 1.284783e-01 0.000000e+00
 0.000000e+00 0.000000e+00 0.000000e+00 8.247108e-01 1.752892e-01
 0.000000e+00 0.000000e+00 0.000000e+00 0.000000e+00 0.000000e+00
<ENDHMM>
~h "n"
<BEGINHMM>
<NUMSTATES> 5
<STATE> 2
<MEAN> 39
 -3.143410e+00 5.556003e-01 -3.157820e-01 -1.593354e+01 -1.500873e+01 -1.269499e+01 -1.907609e+01 -8.004239e+00 -1.017609e+01 -7.442038e+00 -6.501615e+00 -4.155796e+00 6.640963e+01 1.566344e-01 1.039120e+00 6.579668e-01 6.570833e-01 -3.116600e-01 4.343165e-01 -3.263074e-01 -1.319261e+00 -2.081025e-01 6.197916e-01 -2.788543e-01 2.957126e-01 -1.534231e+00 -1.444789e-01 -7.886386e-02 -9.654569e-02 2.458133e-01 2.092538e-01 6.629919e-02 2.201277e-01 -7.167847e-02 8.033340e-02 -4.044602e-01 -7.201109e-03 -1.213571e-01 -1.271244e-01
<VARIANCE> 39
 2.034500e+01 2.087899e+01 8.645258e+01 5.624823e+01 8.817163e+01 8.594720e+01 4.559676e+01 9.007724e+01 4.186807e+01 5.344853e+01 6.801310e+01 4.767724e+01 3.855417e+01 1.225574e+00 1.547887e+00 2.255425e+00 3.253694e+00 3.646665e+00 3.150746e+00 3.634023e+00 4.034878e+00 2.361141e+00 4.931459e+00 3.399710e+00 3.386539e+00 1.329612e+00 2.429648e-01 2.193144e-01 3.321435e-01 3.718307e-01 6.014576e-01 6.178203e-01 6.582634e-01 6.985009e-01 4.285886e-01 5.996100e-01 6.421556e-01 5.197369e-01 1.630382e-01
<GCONST> 1.248041e+02
<STATE> 3
<MEAN> 39
 -4.159176e-01 5.207024e+00 -3.853874e-01 -4.737473e+00 -1.236062e+01 -1.687663e+01 -1.920388e+01 -1.129953e+01 -1.011210e+01 -1.326253e+01 -6.552773e+00 -4.982912e+00 5.646211e+01 -8.485871e-01 3.113776e-01 3.505192e-01 6.730186e-01 1.465741e-01 6.820049e-01 9.141836e-01 -8.844777e-01 -1.925505e-01 -2.203499e-01 -3.065029e-01 -5.028869e-01 -1.110787e+00 -4.458230e-01 -3.682429e-01 -2.800950e-01 -2.016756e-01 2.365356e-01 1.649683e-01 3.137815e-01 5.272679e-01 1.699340e-01 2.108450e-01 9.688504e-02 1.084248e-01 2.277639e-01
<VARIANCE> 39
 1.226420e+01 1.190986e+01 2.619565e+01 3.413013e+01 2.812058e+01 3.038199e+01 2.140268e+01 4.404134e+01 3.485640e+01 2.997761e+01 3.344905e+01 2.700751e+01 1.721892e+01 2.156195e+00 1.495055e+00 1.931206e+00 2.387891e+00 2.331015e+00 3.028192e+00 2.888889e+00 4.305655e+00 2.373966e+00 3.034828e+00 2.831532e+00 2.977086e+00 1.348158e+00 2.664178e-01 2.202371e-01 2.925578e-01 3.219307e-01 3.669767e-01 4.246205e-01 4.358111e-01 6.162297e-01 4.421243e-01 5.293989e-01 5.159825e-01 5.359941e-01 1.326682e-01
<GCONST> 1.121098e+02
<STATE> 4
<MEAN> 39
 -9.407173e+00 7.695152e-01 -2.952033e+00 -5.062314e+00 -8.656836e+00 -1.032120e+01 -1.121378e+01 -9.335556e+00 -8.624109e+00 -9.405610e+00 -5.727616e+00 -4.669327e+00 5.111163e+01 -1.405783e+00 -7.720848e-01 -6.978495e-01 2.570566e-01 3.791108e-01 5.642200e-01 1.181499e+00 8.151894e-01 5.909033e-01 5.904212e-01 3.757635e-01 7.338139e-02 -4.524727e-01 2.361828e-01 -6.807703e-02 -9.697032e-02 -2.802352e-01 -1.484637e-01 -3.189918e-01 -3.215814e-01 2.166481e-01 1.219677e-01 3.753806e-02 1.677118e-01 1.359346e-01 4.659765e-01
<VARIANCE> 39
 2.127866e+01 1.767975e+01 2.372988e+01 2.756671e+01 2.397559e+01 2.834519e+01 2.206583e+01 2.810660e+01 2.725165e+01 3.126126e+01 2.271991e+01 1.890752e+01 3.004843e+01 3.195451e+00 2.060064e+00 2.231602e+00 2.481534e+00 3.091462e+00 4.306687e+00 3.260715e+00 3.444457e+00 2.618436e+00 3.269899e+00 2.932760e+00 2.050557e+00 1.973480e+00 3.657072e-01 4.146943e-01 3.955568e-01 4.465311e-01 4.999995e-01 5.551523e-01 5.130150e-01 6.335653e-01 5.128496e-01 5.863680e-01 4.866295e-01 4.164172e-01 2.643619e-01
<GCONST> 1.163264e+02
<TRANSP> 5
 0.000000e+00 1.000000e+00 0.000000e+00 0.000000e+00 0.000000e+00
 0.000000e+00 7.209980e-01 2.790020e-01 0.000000e+00 0.000000e+00
 0.000000e+00 0.000000e+00 7.264451e-01 2.735549e-01 0.000000e+00
 0.000000e+00 0.000000e+00 0.000000e+00 6.936211e-01 3.063789e-01
 0.000000e+00 0.000000e+00 0.000000e+00 0.000000e+00 0.000000e+00
<ENDHMM>
~h "p"
<BEGINHMM>
<NUMSTATES> 5
<STATE> 2
<MEAN> 39
 -1.950520e+00 -1.467626e+00 -4.247537e+00 -4.246681e+00 -8.051849e+00 -1.506489e+01 -2.114544e+01 -1.007749e+01 -5.989772e+00 -1.161238e+01 -8.565608e+00 -6.989413e+00 5.793547e+01 -1.798549e+00 8.290104e-01 -8.072248e-01 1.546347e+00 9.852626e-01 3.214937e+00 2.455119e+00 -2.482158e-01 -1.706134e+00 5.007737e-01 1.900486e+00 2.611929e-01 -3.631480e+00 -1.566439e-01 -1.618351e-01 -7.426541e-01 -1.405639e+00 4.363737e-01 8.266305e-01 3.854118e-01 -3.688499e-01 3.139674e-01 7.873955e-01 -7.702772e-02 1.491152e-01 5.021376e-02
<VARIANCE> 39
 1.123469e+01 7.652223e+00 7.513564e+00 1.359509e+01 7.811516e+00 4.755232e+01 2.616708e+01 2.384190e+01 3.997514e+01 9.818295e+00 2.041948e+01 1.021040e+01 2.843660e+01 2.482372e-01 1.159908e+00 1.310439e+00 3.974523e+00 1.778438e+00 3.393174e+00 2.868288e+00 2.105245e+00 1.783110e+00 2.881601e+00 2.172436e+00 9.114547e-01 5.809295e-01 1.999327e-01 2.351146e-01 1.951671e-01 5.370598e-01 4.190103e-01 1.628620e+00 4.098259e-01 3.587095e-01 5.148533e-01 3.792294e-01 4.864386e-01 1.490890e-01 3.228642e-01
<GCONST> 1.005484e+02
<STATE> 3
<MEAN> 39
 -9.503778e+00 -2.779511e+00 -9.022012e+00 -7.048786e+00 -6.516259e+00 -5.663810e+00 -1.016313e+01 -1.006321e+01 -7.340776e+00 -4.170474e+00 -4.036361e+00 -5.323243e+00 4.796815e+01 -1.210445e+00 -9.290200e-01 -3.658431e-01 2.786917e-01 -5.930883e-01 2.048066e-01 1.382494e+00 7.926903e-01 4.239020e-01 6.898927e-01 6.964194e-01 2.276342e-01 4.209915e-01 -1.196976e-01 -1.081906e-01 1.269513e-01 1.363236e-01 -4.193962e-01 -5.305641e-01 -2.045133e-01 1.223983e-01 1.212122e-01 -1.781421e-01 -1.684312e-02 4.180931e-02 1.020702e+00
<VARIANCE> 39
 9.875893e+00 4.053801e+00 8.581903e+00 8.317879e+00 1.133797e+01 1.179498e+01 2.075202e+01 2.232863e+01 1.689980e+01 1.200290e+01 8.625248e+00 8.706440e+00 6.449621e+00 7.960619e-01 1.440502e+00 1.000313e+00 2.221458e+00 2.166903e+00 2.798719e+00 1.322977e+00 1.821722e+00 1.245426e+00 1.471084e+00 1.628381e+00 9.842635e-01 7.297673e+00 1.914908e-01 2.610184e-01 1.593086e-01 3.676513e-01 4.650322e-01 4.131287e-01 3.178408e-01 3.111392e-01 2.355411e-01 2.436026e-01 3.426570e-01 1.637951e-01 7.860406e-01
<GCONST> 9.307092e+01
<STATE> 4
<MEAN> 39
 -1.273816e+01 -4.255716e+00 -6.749746e+00 -5.618985e+00 -1.659491e+01 -1.455991e+01 -1.494879e+01 -9.214400e+00 -2.548266e+00 -5.990911e+00 -6.052899e+00 -4.888130e+00 7.051567e+01 1.856269e+00 9.220631e-01 6.476257e-02 -1.222107e+00 1.701040e-01 -3.949726e-01 -2.421076e+00 -1.183132e+00 4.614198e-01 -2.052095e-01 -1.442870e+00 -3.274919e-01 1.698813e+00 4.046800e-01 2.064982e-01 -2.092663e-01 -4.010022e-01 6.301512e-01 4.897815e-01 -2.440128e-03 -1.106539e-01 -2.277415e-01 1.730558e-01 -1.107869e-01 1.218229e-02 -7.598728e-01
<VARIANCE> 39
 1.020726e+02 4.428031e+01 3.056778e+01 2.517178e+01 1.950490e+01 2.735186e+01 9.948201e+01 3.458821e+01 2.271822e+01 2.058212e+01 4.797174e+01 1.668308e+01 1.613793e+01 1.349349e+01 4.007501e+00 5.387137e+00 2.540443e+00 6.936238e+00 6.556440e+00 5.640219e+00 2.379793e+00 2.405321e+00 3.688850e+00 3.101848e+00 1.809588e+00 1.034182e+01 2.832632e+00 1.313258e+00 1.031760e+00 4.444196e-01 5.061397e-01 7.095461e-01 1.799843e+00 5.988606e-01 6.252344e-01 6.837945e-01 8.968316e-01 4.713472e-01 1.009003e+00
<GCONST> 1.339240e+02
<TRANSP> 5
 0.000000e+00 1.000000e+00 0.000000e+00 0.000000e+00 0.000000e+00
 0.000000e+00 6.113790e-01 3.886210e-01 0.000000e+00 0.000000e+00
 0.000000e+00 0.000000e+00 8.840834e-01 1.159166e-01 0.000000e+00
 0.000000e+00 0.000000e+00 0.000000e+00 8.828160e-01 1.171839e-01
 0.000000e+00 0.000000e+00 0.000000e+00 0.000000e+00 0.000000e+00
<ENDHMM>
~h "r"
<BEGINHMM>
<NUMSTATES> 5
<STATE> 2
<MEAN> 39
 8.013912e-02 -5.180505e+00 1.200658e+00 -1.670140e+00 -1.614923e+01 -2.354852e+01 -1.922051e+01 -9.252184e+00 -2.984831e+00 -9.876783e+00 -1.095560e+01 -5.452401e+00 6.824196e+01 1.967785e+00 -4.542264e-01 -2.243678e+00 9.861839e-01 1.418643e+00 7.533935e-01 -2.069517e+00 -1.881889e+00 1.673711e+00 1.725606e+00 -9.725838e-01 -1.856099e+00 -7.886198e-01 -1.521376e-02 5.038245e-01 -1.099388e-01 -9.286244e-01 -1.045942e-01 6.255767e-01 2.312715e-01 -5.136184e-01 -5.424946e-01 5.045545e-01 5.514749e-01 -1.356225e-01 -2.703875e-02
<VARIANCE> 39
 2.624646e+01 1.221567e+01 1.765011e+01 3.836538e+01 3.148021e+01 2.787661e+01 3.175272e+01 2.730044e+01 2.642448e+01 3.631362e+01 3.104880e+01 3.322910e+01 8.004493e+00 1.786385e+00 1.052335e+00 1.460968e+00 4.571180e+00 2.336338e+00 2.806734e+00 2.850733e+00 2.545785e+00 2.552985e+00 2.867153e+00 3.513118e+00 2.355672e+00 3.017818e-01 3.045342e-01 1.730544e-01 3.300921e-01 4.357494e-01 3.840961e-01 4.362378e-01 7.026951e-01 5.598400e-01 5.067955e-01 5.840674e-01 5.949758e-01 6.140550e-01 6.137522e-02
<GCONST> 1.100748e+02
<STATE> 3
<MEAN> 39
 7.112032e+00 -4.167494e+00 -6.313073e+00 -5.184446e+00 -1.320175e+01 -1.610367e+01 -2.245287e+01 -1.729557e+01 -3.197572e+00 -2.192053e+00 -9.178903e+00 -1.092012e+01 6.523028e+01 7.942284e-01 2.474673e-01 -1.195957e+00 -1.177459e+00 1.841614e-01 1.625178e+00 -4.727728e-02 -1.033963e+00 -3.736307e-01 1.324166e+00 2.034524e-01 -3.543380e-01 -1.363678e-01 -5.616188e-01 -7.071308e-02 4.901991e-01 -2.653978e-01 -2.765024e-01 -2.623186e-01 3.127829e-01 7.070521e-01 -1.689461e-02 -4.645030e-01 -1.268869e-01 6.374719e-01 3.599339e-01
<VARIANCE> 39
 5.031518e+00 9.413568e+00 2.024314e+01 1.818012e+01 1.838223e+01 2.666753e+01 2.123548e+01 2.652714e+01 2.060278e+01 3.064029e+01 2.541950e+01 1.908708e+01 5.427100e+00 1.142386e+00 8.059995e-01 1.516426e+00 1.895436e+00 1.835545e+00 1.914380e+00 1.496189e+00 2.526030e+00 1.972499e+00 2.072585e+00 2.788327e+00 2.205642e+00 4.467872e-01 1.345597e-01 1.365942e-01 1.690030e-01 3.489551e-01 3.419538e-01 4.722262e-01 4.166681e-01 3.330807e-01 6.039548e-01 4.549235e-01 3.992915e-01 2.953047e-01 2.703084e-02
<GCONST> 9.660819e+01
<STATE> 4
<MEAN> 39
 6.074043e+00 -4.559085e+00 -6.768507e+00 -1.143409e+01 -1.336566e+01 -1.327786e+01 -2.198544e+01 -1.558942e+01 -1.434433e+00 -1.440788e+00 -1.094132e+01 -7.496869e+00 6.767648e+01 -1.024854e+00 -2.371850e-01 9.079227e-01 -1.911360e+00 1.197991e-01 -1.140340e-01 5.407892e-01 1.429495e+00 1.844873e-02 -6.765473e-01 -3.978056e-02 1.589865e+00 9.334010e-01 -3.339944e-01 1.241861e-01 3.641962e-01 -1.545115e-01 8.023236e-02 -2.351250e-01 3.919209e-01 7.110910e-03 -3.856784e-01 -1.209933e-01 2.879756e-01 8.141600e-02 5.292569e-02
<VARIANCE> 39
 4.717633e+00 1.037281e+01 4.160326e+01 3.785021e+01 3.598947e+01 4.370379e+01 3.936852e+01 4.412806e+01 2.450426e+01 6.070919e+01 3.469141e+01 2.831771e+01 5.966731e+00 4.408146e-01 9.253131e-01 2.027030e+00 2.920347e+00 4.234858e+00 3.702559e+00 3.526541e+00 2.573004e+00 4.838147e+00 2.579223e+00 2.200899e+00 2.059005e+00 2.159171e-01 1.046985e-01 1.706845e-01 1.858550e-01 3.144723e-01 4.294121e-01 4.861340e-01 6.233269e-01 6.496869e-01 7.576483e-01 8.443109e-01 3.338399e-01 4.646347e-01 5.614369e-02
<GCONST> 1.075479e+02
<TRANSP> 5
 0.000000e+00 1.000000e+00 0.000000e+00 0.000000e+00 0.000000e+00
 0.000000e+00 6.942328e-01 3.057672e-01 0.000000e+00 0.000000e+00
 0.000000e+00 0.000000e+00 7.442324e-01 2.557676e-01 0.000000e+00
 0.000000e+00 0.000000e+00 0.000000e+00 7.112957e-01 2.887044e-01
 0.000000e+00 0.000000e+00 0.000000e+00 0.000000e+00 0.000000e+00
<ENDHMM>
~h "s"
<BEGINHMM>
<NUMSTATES> 5
<STATE> 2
<MEAN> 39
 -1.218630e+01 3.071387e+00 -6.057060e+00 -3.697946e+00 -1.179441e+01 -1.788570e+01 -1.224545e+01 -9.208437e+00 -7.576115e+00 -1.143731e+01 -4.071921e+00 -3.556574e+00 6.269849e+01 -2.977383e+00 7.572877e-01 -5.355537e-01 2.120249e+00 -4.511830e-02 1.161542e+00 1.857793e+00 2.354203e-01 -3.760967e-02 7.215003e-02 4.013599e-01 -3.345577e-01 -7.808682e-02 -3.620649e-01 -3.120987e-01 -2.552252e-01 -2.688689e-01 2.983794e-01 8.734874e-01 3.141845e-01 2.205499e-01 2.584183e-01 4.953140e-01 1.411974e-01 4.239910e-02 -3.648359e-02
<VARIANCE> 39
 7.951872e+01 3.102527e+01 2.828709e+01 4.947120e+01 6.075484e+01 6.515031e+01 1.174278e+02 4.521559e+01 4.030338e+01 4.186503e+01 4.197023e+01 3.380608e+01 3.393051e+01 7.079294e+00 2.538140e+00 3.265687e+00 3.334977e+00 4.845335e+00 1.048677e+01 1.136500e+01 4.442058e+00 4.349917e+00 5.834405e+00 4.435487e+00 3.037148e+00 2.191732e+00 1.052145e+00 5.179010e-01 4.904265e-01 6.601868e-01 6.631926e-01 1.334428e+00 2.102930e+00 1.031961e+00 8.168491e-01 8.800363e-01 8.204633e-01 7.105392e-01 2.824081e-01
<GCONST> 1.383345e+02
<STATE> 3
<MEAN> 39
 -2.539699e+01 1.155479e+00 -9.345670e+00 9.562044e-01 -9.687109e+00 -5.776954e+00 -5.064774e+00 -4.196038e+00 -5.024248e+00 -5.722552e+00 -1.027198e+00 -3.457829e+00 5.971377e+01 -6.082119e-01 -5.584581e-01 -9.033719e-02 6.621080e-03 4.067047e-01 7.330909e-01 2.948789e-01 6.251476e-01 4.622465e-01 6.476182e-01 2.728318e-01 3.251338e-01 -5.098978e-01 5.100323e-01 -5.933143e-02 2.012123e-01 -3.169321e-01 -2.162895e-01 -5.436701e-01 -1.191812e-01 -8.750975e-02 -1.052642e-01 -1.650196e-01 7.302020e-03 4.337710e-02 2.167087e-01
<VARIANCE> 39
 1.625652e+01 2.248507e+01 1.347132e+01 1.556970e+01 2.015212e+01 2.208012e+01 2.489490e+01 2.215066e+01 2.306421e+01 1.993462e+01 2.112971e+01 1.640895e+01 3.008276e+01 2.038317e+00 1.670995e+00 1.396203e+00 1.544708e+00 2.214507e+00 3.137208e+00 2.433437e+00 2.127007e+00 2.154606e+00 2.197278e+00 1.921219e+00 1.717551e+00 1.781481e+00 4.778116e-01 3.292940e-01 2.748276e-01 3.536102e-01 5.238998e-01 6.000155e-01 6.497679e-01 4.299735e-01 4.476895e-01 4.210813e-01 3.933297e-01 3.662493e-01 4.131634e-01
<GCONST> 1.085178e+02
<STATE> 4
<MEAN> 39
 -2.020959e+01 -1.403735e+00 -7.832448e+00 -3.428002e+00 -1.246077e+01 -1.169759e+01 -4.964961e+00 -1.917661e+00 -3.925450e+00 -5.975504e+00 5.991731e-01 -7.750432e-01 6.254418e+01 3.302040e+00 6.098427e-02 5.780396e-01 -1.790684e+00 -1.606154e+00 -2.914698e+00 -1.270033e+00 2.356008e-01 -2.904994e-01 -1.009825e+00 -5.204022e-02 4.095033e-01 1.831482e+00 6.378852e-01 1.321597e-01 3.127532e-02 -1.120300e-01 -1.671167e-02 -1.650766e-01 -5.207672e-01 3.459162e-02 -1.838984e-01 -3.375384e-01 -2.945934e-01 -8.484948e-02 8.975066e-02
<VARIANCE> 39
 7.577957e+01 1.786213e+01 2.127874e+01 3.552425e+01 5.124176e+01 7.631744e+01 4.924829e+01 2.243322e+01 2.298779e+01 3.249057e+01 2.243085e+01 1.634212e+01 4.733843e+01 6.002064e+00 2.769739e+00 2.023013e+00 3.038315e+00 4.092291e+00 5.991027e+00 6.434211e+00 2.619635e+00 2.964453e+00 3.925406e+00 2.809784e+00 2.078140e+00 3.869594e+00 1.568544e+00 5.611148e-01 4.719577e-01 6.148695e-01 1.151311e+00 1.832759e+00 1.272887e+00 5.584676e-01 5.607527e-01 7.514350e-01 5.277228e-01 3.791131e-01 5.964093e-01
<GCONST> 1.294449e+02
<TRANSP> 5
 0.000000e+00 1.000000e+00 0.000000e+00 0.000000e+00 0.000000e+00
 0.000000e+00 6.426452e-01 3.573548e-01 0.000000e+00 0.000000e+00
 0.000000e+00 0.000000e+00 8.508129e-01 1.491871e-01 0.000000e+00
 0.000000e+00 0.000000e+00 0.000000e+00 6.453507e-01 3.546493e-01
 0.000000e+00 0.000000e+00 0.000000e+00 0.000000e+00 0.000000e+00
<ENDHMM>
~h "t"
<BEGINHMM>
<NUMSTATES> 5
<STATE> 2
<MEAN> 39
 -1.164571e+01 -1.125589e+00 -4.193637e+00 -6.472076e+00 -8.298192e+00 -6.942736e+00 -7.471114e+00 -7.937122e+00 -7.007463e+00 -6.035190e+00 -5.133439e+00 -4.277282e+00 4.828936e+01 -1.011630e+00 -1.287777e+00 -5.224544e-01 -4.028916e-01 1.721635e-01 3.149306e-01 4.527653e-01 7.276015e-01 6.692088e-01 3.976533e-01 7.298140e-01 1.028826e-01 7.749671e-01 -2.268107e-01 -1.493653e-02 9.794606e-02 -3.146894e-01 -1.452502e-01 -3.877428e-01 -1.537028e-01 1.110159e-01 2.569253e-02 9.344209e-03 3.008532e-01 9.211572e-02 1.205027e+00
<VARIANCE> 39
 1.394611e+01 9.883713e+00 1.543293e+01 1.583594e+01 2.508887e+01 1.944369e+01 2.192883e+01 2.309553e+01 1.919827e+01 1.844742e+01 1.775292e+01 1.649020e+01 1.435223e+01 1.671423e+00 1.821221e+00 2.916346e+00 3.412175e+00 2.224848e+00 2.769482e+00 2.706191e+00 2.379972e+00 2.676383e+00 2.060958e+00 2.483733e+00 1.719708e+00 9.086819e+00 1.899592e-01 2.958885e-01 2.713829e-01 4.773118e-01 4.571153e-01 4.846998e-01 4.489076e-01 4.275455e-01 4.528401e-01 3.998879e-01 4.612729e-01 3.619374e-01 8.111150e-01
<GCONST> 1.094023e+02
<STATE> 3
<MEAN> 39
 -2.089233e+01 -6.447609e+00 -5.579617e+00 -1.305105e+01 -8.989120e+00 -1.089709e+01 -6.060776e+00 -3.263633e+00 -4.398870e+00 -4.579172e+00 2.916348e+00 -3.772484e+00 6.993367e+01 -1.251570e+00 1.369303e-01 -5.580541e-01 -3.863923e-02 -5.326174e-01 -1.598618e+00 1.152379e+00 1.134306e+00 -1.635153e-01 3.855979e-02 1.604120e+00 9.259938e-01 3.631128e+00 8.752257e-01 4.310395e-01 2.646825e-01 7.965732e-01 -2.062192e-01 -1.829756e-01 6.531340e-02 -1.006542e-01 -1.396528e-01 -2.905777e-01 -6.374775e-01 2.633114e-01 -1.378447e+00
<VARIANCE> 39
 1.592347e+01 3.297935e+01 3.239867e+01 3.168107e+01 3.747338e+01 3.346082e+01 3.101249e+01 3.359594e+01 2.474406e+01 1.837999e+01 2.065939e+01 1.804836e+01 2.868187e+01 3.035256e+00 2.903416e+00 2.889094e+00 4.934629e+00 3.359896e+00 3.638489e+00 3.929485e+00 3.371007e+00 2.684506e+00 2.421417e+00 3.678617e+00 2.184295e+00 1.024196e+01 4.031715e-01 7.744091e-01 1.010516e+00 7.846134e-01 5.822894e-01 7.330846e-01 9.259304e-01 6.201351e-01 7.349716e-01 5.093370e-01 6.221127e-01 4.362879e-01 1.027373e+00
<GCONST> 1.254958e+02
<STATE> 4
<MEAN> 39
 -1.703862e+01 -5.899698e+00 -5.181500e+00 -6.785120e+00 -1.082068e+01 -1.723046e+01 -3.302858e+00 -1.784856e-01 -3.482296e+00 -6.773982e+00 1.457259e+00 6.534257e-01 6.935538e+01 2.348560e+00 1.764391e-01 8.785526e-01 1.573471e+00 -3.127608e-01 -1.310579e+00 -1.904815e+00 -5.796728e-01 3.027173e-01 -1.013745e+00 -2.006524e+00 8.291949e-02 -1.027178e+00 4.521531e-01 3.502774e-01 8.854830e-02 -1.764658e-01 1.989105e-01 4.001822e-01 -1.049842e+00 -7.452084e-01 -2.230367e-01 6.529797e-02 -6.469015e-01 -5.313987e-01 -4.159409e-01
<VARIANCE> 39
 2.402451e+01 2.444054e+01 1.598474e+01 1.991332e+01 3.463164e+01 2.775936e+01 4.617472e+01 4.109825e+01 3.040894e+01 2.381964e+01 4.188738e+01 2.000089e+01 1.142025e+01 1.748393e+00 2.976561e+00 2.778805e+00 3.081202e+00 3.049561e+00 3.347212e+00 7.601171e+00 7.170739e+00 3.982349e+00 3.308610e+00 5.638199e+00 4.188812e+00 7.972875e-01 5.673178e-01 5.831288e-01 4.911001e-01 4.832234e-01 5.387716e-01 6.411086e-01 1.200477e+00 1.099953e+00 1.078001e+00 6.907780e-01 7.689874e-01 5.624781e-01 5.381013e-01
<GCONST> 1.245336e+02
<TRANSP> 5
 0.000000e+00 1.000000e+00 0.000000e+00 0.000000e+00 0.000000e+00
 0.000000e+00 8.279778e-01 1.720221e-01 0.000000e+00 0.000000e+00
 0.000000e+00 0.000000e+00 7.080104e-01 2.919895e-01 0.000000e+00
 0.000000e+00 0.000000e+00 0.000000e+00 7.169314e-01 2.830687e-01
 0.000000e+00 0.000000e+00 0.000000e+00 0.000000e+00 0.000000e+00
<ENDHMM>
~h "v"
<BEGINHMM>
<NUMSTATES> 5
<STATE> 2
<MEAN> 39
 -4.308346e+00 -5.168181e+00 8.698328e-01 -1.636137e+01 -2.171387e+01 -1.386860e+01 -1.186763e+01 -6.967809e+00 -1.128646e+01 -7.283089e+00 -7.495715e+00 -3.862591e+00 7.268262e+01 5.084460e-01 1.112564e+00 8.116444e-01 1.243687e+00 -1.456744e-01 -7.668849e-01 -7.232788e-01 -6.421800e-01 3.732879e-01 8.433827e-01 -5.232476e-01 1.136050e-01 -1.865140e+00 -1.404007e-01 -2.342711e-02 -2.638895e-01 4.994431e-01 7.454029e-01 2.195778e-01 -2.170114e-02 -4.422622e-02 5.176174e-02 -4.878847e-01 9.611094e-03 -8.397481e-02 -3.997690e-01
<VARIANCE> 39
 8.825780e+00 1.272499e+01 2.460128e+01 2.410209e+01 4.795952e+01 5.712862e+01 2.827358e+01 3.688419e+01 2.167270e+01 5.169979e+01 3.075570e+01 3.204009e+01 1.839001e+01 5.009093e-01 7.352729e-01 1.484442e+00 3.492675e+00 5.618302e+00 2.094278e+00 1.995590e+00 1.999432e+00 2.026964e+00 4.675277e+00 1.793914e+00 2.251667e+00 1.252583e+00 2.822205e-01 1.517098e-01 2.292150e-01 3.130206e-01 6.305962e-01 5.406848e-01 5.116098e-01 4.931480e-01 4.409677e-01 6.472874e-01 4.476922e-01 5.074236e-01 1.042933e-01
<GCONST> 1.096064e+02
<STATE> 3
<MEAN> 39
 -3.059408e+00 5.657185e-03 3.260173e-01 -6.473762e+00 -1.272631e+01 -1.694812e+01 -1.536292e+01 -8.934426e+00 -1.002004e+01 -1.126607e+01 -9.055361e+00 -4.278573e+00 6.129666e+01 -1.742955e+00 5.900474e-01 -8.767140e-01 2.051852e+00 1.724731e+00 1.542541e+00 7.340007e-01 -6.878228e-01 6.899065e-02 -8.420559e-01 4.599383e-01 -1.125510e+00 -2.547956e+00 -5.920657e-01 -3.431046e-01 -3.273339e-01 -6.429709e-01 -5.742713e-01 2.084603e-01 7.015528e-01 3.015746e-01 1.687512e-01 2.646344e-01 3.120238e-01 1.165192e-01 5.555180e-01
<VARIANCE> 39
 1.835690e+01 8.245577e+00 1.752402e+01 2.198696e+01 3.503562e+01 4.465880e+01 2.107307e+01 4.739064e+01 2.663607e+01 3.867430e+01 2.584632e+01 3.237850e+01 1.553600e+01 2.738583e+00 1.249643e+00 2.449444e+00 2.366862e+00 4.897722e+00 2.700628e+00 3.639110e+00 3.501006e+00 3.022078e+00 3.934684e+00 2.785158e+00 2.138730e+00 1.708095e+00 4.021065e-01 2.020060e-01 3.342034e-01 3.950946e-01 5.721965e-01 6.413298e-01 3.977257e-01 8.108340e-01 5.450379e-01 6.468771e-01 4.296692e-01 5.335455e-01 3.478513e-01
<GCONST> 1.159927e+02
<STATE> 4
<MEAN> 39
 -1.243540e+01 -1.706633e+00 -5.484622e+00 -5.240251e+00 -1.138312e+01 -1.260404e+01 -8.083200e+00 -6.245740e+00 -6.293735e+00 -9.496454e+00 -5.223050e+00 -4.466606e+00 5.646104e+01 -7.606620e-01 -1.757223e-01 -7.098221e-01 -1.257217e-01 1.224167e-01 -1.181825e-02 7.055687e-01 5.875207e-01 7.208833e-01 5.797940e-01 6.794494e-01 3.916721e-01 -4.009411e-01 2.931505e-01 2.412319e-02 1.879417e-01 -1.941658e-01 -1.371684e-01 -1.302517e-01 -2.168197e-01 -7.895667e-02 -3.026485e-02 1.562458e-01 -5.180336e-02 9.482457e-02 2.358169e-01
<VARIANCE> 39
 5.184221e+01 1.550354e+01 1.620074e+01 1.975651e+01 3.166964e+01 4.634176e+01 3.348978e+01 2.477677e+01 2.514224e+01 2.900120e+01 2.171261e+01 2.238763e+01 4.642947e+01 3.421650e+00 1.587671e+00 2.097218e+00 2.487034e+00 3.343256e+00 3.966390e+00 3.247013e+00 3.361932e+00 2.521908e+00 2.353586e+00 2.712613e+00 2.606226e+00 3.299662e+00 5.577743e-01 3.165229e-01 3.515567e-01 5.880650e-01 7.044432e-01 7.739971e-01 5.651806e-01 5.555440e-01 4.864189e-01 5.657546e-01 5.179518e-01 4.581451e-01 6.254678e-01
<GCONST> 1.197401e+02
<TRANSP> 5
 0.000000e+00 1.000000e+00 0.000000e+00 0.000000e+00 0.000000e+00
 0.000000e+00 7.102470e-01 2.897530e-01 0.000000e+00 0.000000e+00
 0.000000e+00 0.000000e+00 5.660902e-01 4.339098e-01 0.000000e+00
 0.000000e+00 0.000000e+00 0.000000e+00 7.831734e-01 2.168266e-01
 0.000000e+00 0.000000e+00 0.000000e+00 0.000000e+00 0.000000e+00
<ENDHMM>
~h "w"
<BEGINHMM>
<NUMSTATES> 5
<STATE> 2
<MEAN> 39
 -5.531101e+00 1.620589e+00 -9.711897e+00 -1.392520e+01 -1.074321e+01 -6.764548e+00 -9.143973e+00 -7.029147e+00 -6.802366e+00 -6.060325e+00 -1.567191e+00 -1.508814e+00 5.121313e+01 2.105102e+00 1.614452e+00 -7.048717e-02 -1.774859e+00 -1.600600e+00 -3.536244e-01 -5.015430e-01 1.336381e-01 -6.795699e-01 -1.175832e+00 -3.542459e-01 -2.241241e-01 1.082646e+00 5.900032e-01 3.159016e-01 -1.870475e-01 -8.079737e-01 -2.000888e-02 1.497523e-01 -4.756699e-01 -5.189096e-02 -7.732153e-02 -4.649791e-01 2.716074e-01 -1.868723e-01 6.787637e-01
<VARIANCE> 39
 5.241356e+01 3.564050e+01 2.453480e+01 7.682327e+01 4.456451e+01 2.654340e+01 2.133261e+01 2.455211e+01 2.289097e+01 2.671776e+01 2.415060e+01 1.604167e+01 2.438729e+01 8.628905e+00 4.181659e+00 2.013262e+00 1.152670e+01 4.213636e+00 2.509098e+00 3.948234e+00 3.212691e+00 2.930125e+00 4.941220e+00 3.060515e+00 2.695764e+00 4.949980e+00 1.064741e+00 7.031167e-01 3.660325e-01 1.486730e+00 1.002422e+00 5.651415e-01 4.685941e-01 5.358196e-01 6.068085e-01 6.433876e-01 6.539227e-01 5.396893e-01 4.158000e-01
<GCONST> 1.279612e+02
<STATE> 3
<MEAN> 39
 7.427819e+00 9.585443e+00 -1.168338e+01 -2.900885e+01 -1.387399e+01 -3.322777e+00 -1.755260e+01 -6.842322e+00 -8.994370e+00 -1.568464e+01 1.892170e+00 -5.254130e+00 6.340379e+01 2.841042e-01 -6.299627e-01 -5.556309e-01 -1.469622e+00 1.685338e+00 1.360357e+00 -1.760973e+00 -7.294794e-01 1.234136e+00 -1.741623e-01 1.092620e+00 -4.340946e-01 1.918213e+00 -8.431354e-01 -7.567474e-01 -2.871988e-02 7.801720e-01 7.354765e-01 -1.592686e-01 1.303789e-01 -2.062031e-01 6.309633e-01 5.750268e-01 -4.147092e-01 2.600901e-02 -1.583042e-01
<VARIANCE> 39
 5.931601e+00 1.208158e+01 1.553475e+01 2.244583e+01 2.691385e+01 3.187448e+01 3.065689e+01 2.810364e+01 4.166834e+01 2.799413e+01 4.521613e+01 3.355416e+01 1.283880e+01 2.717419e+00 2.607359e+00 1.328667e+00 5.318352e+00 3.300149e+00 2.901579e+00 3.381953e+00 3.171676e+00 5.458651e+00 5.333502e+00 4.631982e+00 3.288038e+00 1.682636e+00 4.204534e-01 2.794696e-01 2.440495e-01 7.609322e-01 4.852577e-01 7.802510e-01 7.056457e-01 5.620755e-01 7.668670e-01 8.313019e-01 1.422789e+00 6.774684e-01 2.632179e-01
<GCONST> 1.198730e+02
<STATE> 4
<MEAN> 39
 3.088044e+00 2.460468e-01 -1.516722e+01 -2.997120e+01 -3.927392e-01 6.679182e-01 -2.374496e+01 -1.374784e+01 2.843015e+00 -1.278275e+01 9.037423e-01 -6.851939e+00 7.233600e+01 -1.933907e+00 -2.759924e+00 -2.871976e-01 2.108256e+00 2.642339e+00 -1.858593e+00 5.986131e-02 -2.482112e-01 1.575615e+00 -6.181024e-01 -4.044167e+00 -1.570513e+00 1.941884e+00 -6.586087e-02 1.249721e-01 5.195389e-01 7.082180e-01 -9.297998e-01 -9.090088e-01 6.875058e-01 1.030747e+00 -7.926400e-01 -7.992202e-01 -7.356643e-01 6.513850e-02 -3.048633e-01
<VARIANCE> 39
 7.377647e+00 1.862949e+01 9.020969e+00 2.367589e+01 2.586853e+01 2.626036e+01 2.357246e+01 3.006767e+01 3.677571e+01 4.706278e+01 5.079031e+01 3.040863e+01 1.176669e+01 3.445610e-01 9.589178e-01 1.698766e+00 1.857318e+00 2.793955e+00 2.717045e+00 3.993548e+00 3.533124e+00 3.461560e+00 4.392760e+00 2.908463e+00 2.864705e+00 3.465105e-01 1.176262e-01 2.159390e-01 1.753745e-01 4.602832e-01 4.939819e-01 4.895395e-01 5.059159e-01 5.486601e-01 5.008393e-01 8.107303e-01 1.231865e+00 8.192805e-01 6.103024e-02
<GCONST> 1.082310e+02
<TRANSP> 5
 0.000000e+00 1.000000e+00 0.000000e+00 0.000000e+00 0.000000e+00
 0.000000e+00 8.282211e-01 1.717789e-01 0.000000e+00 0.000000e+00
 0.000000e+00 0.000000e+00 8.258216e-01 1.741785e-01 0.000000e+00
 0.000000e+00 0.000000e+00 0.000000e+00 6.391911e-01 3.608089e-01
 0.000000e+00 0.000000e+00 0.000000e+00 0.000000e+00 0.000000e+00
<ENDHMM>
~h "y"
<BEGINHMM>
<NUMSTATES> 5
<STATE> 2
<MEAN> 39
 -6.813334e+00 1.013717e+01 8.335971e+00 -2.530678e+01 -2.273857e+01 -1.066382e+01 -1.121266e+01 -1.126304e+01 -9.161577e+00 -2.708926e+00 -1.330060e+01 -8.887273e+00 6.554288e+01 2.401468e-01 4.797181e-02 5.279287e-01 -9.049854e-01 -1.090360e+00 -2.455384e-01 4.125086e-01 -2.226459e-01 -9.242348e-03 -2.390224e-01 8.045083e-01 -7.744548e-01 1.785005e+00 -1.819497e-02 -6.505312e-01 -6.386802e-01 6.092885e-01 4.198944e-01 -5.933772e-02 2.291277e-01 2.494925e-01 1.541975e-01 -2.965110e-01 3.705769e-01 1.796433e-01 -1.105490e-01
<VARIANCE> 39
 9.128567e+00 3.828091e+01 2.566412e+01 3.462760e+01 4.074942e+01 2.402637e+01 3.059104e+01 2.843729e+01 3.262823e+01 2.539019e+01 6.928225e+01 4.196352e+01 2.878547e+01 8.299844e-01 9.948092e+00 5.936743e+00 8.463589e+00 5.742994e+00 3.160919e+00 4.563937e+00 4.981593e+00 4.641255e+00 2.844111e+00 9.358761e+00 2.776703e+00 2.463545e+00 1.506786e-01 6.323675e-01 5.625742e-01 7.450638e-01 1.379420e+00 5.180116e-01 7.414222e-01 8.810751e-01 7.963397e-01 7.332131e-01 1.273447e+00 4.740309e-01 3.313453e-01
<GCONST> 1.286932e+02
<STATE> 3
<MEAN> 39
 -4.754804e+00 -7.327831e+00 -3.411414e+00 -1.945844e+01 -1.433224e+01 -1.511653e+01 -5.566686e+00 -5.392807e+00 -3.049289e+00 -1.659019e+01 -4.432802e+00 -7.444199e+00 7.622662e+01 4.244193e-01 -2.015281e+00 -2.237177e+00 1.651104e-01 3.992304e+00 -2.332881e-01 -5.824410e-01 2.119321e-01 1.592709e+00 -3.514827e+00 -1.051687e+00 2.448451e-01 4.797793e-01 -3.969104e-02 5.783430e-01 3.748335e-01 -4.577434e-01 2.228465e-01 1.878214e-01 -4.808002e-01 -6.017014e-01 3.253820e-01 2.063298e-01 -1.501251e-01 -4.606276e-01 -2.738693e-01
<VARIANCE> 39
 2.566887e+00 1.807727e+01 2.470465e+01 9.067824e+00 7.601475e+01 1.497007e+01 2.213264e+01 1.741614e+01 2.453565e+01 8.658270e+01 2.254931e+01 1.494724e+01 3.234837e+00 1.961884e-01 1.853292e+00 1.273721e+00 2.099455e+00 1.506018e+00 1.047451e+00 2.811084e+00 4.793927e+00 3.100615e+00 3.653127e+00 1.996315e+00 3.067570e+00 3.174788e-01 3.251112e-02 1.004957e-01 1.325477e-01 2.208209e-01 7.398696e-01 1.691163e-01 4.225841e-01 5.645696e-01 4.812309e-01 1.447187e+00 8.658723e-01 3.904749e-01 1.717256e-02
<GCONST> 9.641666e+01
<STATE> 4
<MEAN> 39
 -8.150055e-01 -7.289889e+00 -1.084297e+01 -2.399252e+01 4.998375e+00 -1.160122e+01 -1.644473e+01 -1.195282e+01 9.118481e+00 -2.665584e+01 9.851618e-01 -1.566715e+01 7.325846e+01 5.857298e-01 8.218562e-01 -3.383352e-01 -1.151939e-01 3.923480e-01 7.413937e-01 -1.073151e+00 -3.339209e-01 -4.840784e-03 -1.541477e-01 1.648269e+00 -5.107360e-01 -7.653106e-01 2.752337e-02 1.155133e-01 6.157725e-02 1.586813e-01 -3.916325e-01 2.440667e-02 1.036300e-01 1.223422e-01 -4.394012e-01 1.373220e-01 4.183161e-02 2.101656e-01 -8.872905e-02
<VARIANCE> 39
 8.165133e+00 1.507006e+01 1.071521e+01 1.239483e+01 1.705359e+01 2.189866e+01 4.028346e+01 1.570533e+01 1.768331e+01 1.440841e+01 6.661527e+01 1.536118e+01 1.132952e+01 1.577158e-01 3.679345e-01 3.369153e-01 9.298802e-01 2.188258e+00 1.043805e+00 1.038649e+00 1.248578e+00 2.982686e+00 9.452260e-01 1.332149e+00 1.486601e+00 1.979599e-01 2.272473e-02 5.287428e-02 7.477442e-02 1.190066e-01 2.366136e-01 2.014589e-01 2.097387e-01 1.767583e-01 2.775085e-01 2.593921e-01 3.428739e-01 1.468424e-01 1.275633e-02
<GCONST> 7.806247e+01
<TRANSP> 5
 0.000000e+00 1.000000e+00 0.000000e+00 0.000000e+00 0.000000e+00
 0.000000e+00 9.019974e-01 9.800260e-02 0.000000e+00 0.000000e+00
 0.000000e+00 0.000000e+00 8.388504e-01 1.611497e-01 0.000000e+00
 0.000000e+00 0.000000e+00 0.000000e+00 9.184328e-01 8.156722e-02
 0.000000e+00 0.000000e+00 0.000000e+00 0.000000e+00 0.000000e+00
<ENDHMM>
~h "z"
<BEGINHMM>
<NUMSTATES> 5
<STATE> 2
<MEAN> 39
 -5.061828e+00 4.398838e+00 -6.042289e+00 -4.661166e+00 -1.473207e+01 -1.639155e+01 -1.775180e+01 -4.548665e+00 -3.508570e+00 -9.063450e+00 -2.931946e+00 7.151015e-01 5.705458e+01 6.649800e-01 1.637916e+00 5.182486e-01 1.426624e+00 -1.153811e+00 -9.675056e-01 -3.856570e-01 3.995372e-02 -7.882663e-01 -1.622455e+00 -1.109493e+00 -5.535828e-01 3.602688e-01 -1.897964e-01 1.505480e-01 -6.643013e-03 -8.708851e-02 2.068613e-01 2.911235e-01 2.804984e-01 -4.143214e-01 -2.794162e-01 -1.141893e-01 -1.364625e-01 -4.391391e-01 1.284753e-01
<VARIANCE> 39
 2.857133e+01 2.319358e+01 2.681376e+01 4.510232e+01 7.255125e+01 5.872915e+01 9.459130e+01 4.921252e+01 5.244648e+01 5.746338e+01 4.652997e+01 3.337030e+01 4.441032e+01 3.473138e+00 3.301631e+00 1.506804e+00 2.193357e+00 4.712981e+00 6.022245e+00 7.905966e+00 6.095528e+00 4.426341e+00 4.227027e+00 3.833535e+00 5.122402e+00 4.973978e+00 7.282911e-01 4.403028e-01 2.755823e-01 3.855571e-01 1.035889e+00 1.234952e+00 1.501520e+00 8.768427e-01 8.607823e-01 8.924957e-01 8.579485e-01 9.399447e-01 6.808791e-01
<GCONST> 1.358719e+02
<STATE> 3
<MEAN> 39
 -7.164815e+00 1.389499e+01 -3.373270e+00 2.110694e+00 -1.555925e+01 -1.560934e+01 -1.456659e+01 -1.049899e+01 -1.167623e+01 -1.630504e+01 -9.725046e+00 -8.414651e+00 5.850325e+01 -1.734493e+00 3.069701e-01 7.633641e-01 1.510361e-01 1.184895e-01 2.924811e-01 1.449897e+00 -1.030268e+00 -9.050806e-01 1.712813e-01 2.484646e-01 -1.007844e+00 1.060943e+00 -4.574456e-02 -9.099168e-01 1.909823e-01 -6.983269e-01 -4.071862e-01 -3.531104e-01 1.979052e-01 3.241438e-01 3.812858e-01 6.092091e-01 7.470244e-01 7.688223e-01 4.351488e-01
<VARIANCE> 39
 4.600071e+01 1.631568e+01 2.370114e+01 2.766635e+01 3.422190e+01 2.643312e+01 2.583665e+01 2.923120e+01 2.725217e+01 1.833466e+01 2.079075e+01 2.029574e+01 1.277729e+01 2.440084e+00 3.254288e+00 2.624979e+00 2.425685e+00 4.703402e+00 4.148023e+00 3.462729e+00 4.274743e+00 4.291424e+00 2.718984e+00 4.094474e+00 4.136756e+00 2.875230e+00 8.364677e-01 4.546343e-01 4.793930e-01 5.410796e-01 1.136001e+00 7.192154e-01 7.277128e-01 7.265886e-01 6.141898e-01 4.907790e-01 5.096037e-01 4.850323e-01 3.837483e-01
<GCONST> 1.222460e+02
<STATE> 4
<MEAN> 39
 -1.225188e+01 8.198592e+00 4.839859e-01 -2.544629e+00 -1.938926e+01 -1.878014e+01 -8.109794e+00 -1.091543e+01 -1.209047e+01 -1.251213e+01 -2.664155e+00 -6.176383e+00 6.675053e+01 1.352056e+00 -2.065096e+00 1.303953e+00 -3.061534e+00 -3.217288e+00 -1.061977e+00 4.347825e-01 -3.115650e-01 3.346430e-01 1.819405e+00 1.871052e+00 1.631935e+00 2.857021e+00 7.592958e-01 1.201909e-01 -4.325415e-02 -5.753782e-01 -2.685303e-01 5.465082e-01 -6.070173e-01 -1.360509e-01 4.975152e-01 4.270150e-01 -5.928161e-01 1.875286e-01 -2.448561e-01
<VARIANCE> 39
 3.080190e+01 1.849751e+01 1.962996e+01 2.403139e+01 4.156895e+01 3.094608e+01 2.706347e+01 3.013978e+01 2.701778e+01 2.378855e+01 2.596223e+01 2.851967e+01 1.794501e+01 3.544569e+00 2.287560e+00 2.065325e+00 2.124712e+00 3.568421e+00 3.069866e+00 4.126747e+00 3.026200e+00 3.399193e+00 2.616292e+00 3.032148e+00 2.571706e+00 1.057629e+00 6.109560e-01 5.303301e-01 4.277350e-01 4.134383e-01 8.461844e-01 7.439116e-01 7.585912e-01 6.932584e-01 8.208702e-01 5.670732e-01 6.848453e-01 6.829089e-01 3.057685e-01
<GCONST> 1.201138e+02
<TRANSP> 5
 0.000000e+00 1.000000e+00 0.000000e+00 0.000000e+00 0.000000e+00
 0.000000e+00 8.218465e-01 1.781535e-01 0.000000e+00 0.000000e+00
 0.000000e+00 0.000000e+00 7.534389e-01 2.465610e-01 0.000000e+00
 0.000000e+00 0.000000e+00 0.000000e+00 6.181227e-01 3.818773e-01
 0.000000e+00 0.000000e+00 0.000000e+00 0.000000e+00 0.000000e+00
<ENDHMM>
~h "ae"
<BEGINHMM>
<NUMSTATES> 5
<STATE> 2
<MEAN> 39
 -8.007667e+00 -8.020007e-01 -5.425663e+00 -6.182994e+00 -6.002845e+00 -8.270226e+00 -1.255969e+01 -1.131770e+01 -8.455223e+00 -7.627783e+00 -6.062563e+00 -5.336152e+00 5.003545e+01 -1.390971e+00 -1.121835e+00 -6.750905e-01 4.295602e-01 -1.523573e-01 6.842186e-02 1.554089e+00 6.758219e-01 1.105282e+00 8.209776e-01 3.898410e-01 1.985768e-01 1.238144e-01 -1.390205e-01 -1.277982e-01 -2.201418e-02 -2.735331e-01 -1.377618e-01 -5.655093e-01 1.746776e-01 8.449001e-02 2.254006e-01 1.195426e-01 -2.304717e-02 1.360693e-01 1.288457e+00
<VARIANCE> 39
 9.591449e+00 8.846045e+00 1.745452e+01 1.025581e+01 1.498473e+01 1.120701e+01 1.714609e+01 1.861780e+01 2.238844e+01 1.768216e+01 2.020260e+01 9.602556e+00 5.958308e+00 1.680989e+00 2.574385e+00 1.850032e+00 1.502881e+00 1.271998e+00 2.740673e+00 3.261043e+00 2.731203e+00 3.171228e+00 2.311814e+00 2.124537e+00 1.146525e+00 8.054965e+00 2.535339e-01 4.006627e-01 3.983184e-01 3.921252e-01 3.347783e-01 3.560677e-01 5.525173e-01 5.479472e-01 5.771235e-01 4.098558e-01 4.158042e-01 3.092332e-01 7.982340e-01
<GCONST> 1.049370e+02
<STATE> 3
<MEAN> 39
 -1.534606e+01 -5.120508e+00 -5.694880e+00 -5.614168e+00 -9.553247e+00 -1.416531e+01 -4.244645e+00 -7.332064e+00 -3.270578e+00 -4.105146e+00 -3.041485e+00 -3.228687e+00 6.242916e+01 6.568843e-01 8.867385e-02 4.072152e-01 -7.174301e-01 -1.469298e+00 -9.718528e-01 3.467083e-01 3.947047e-01 -1.594119e-01 1.881782e-01 4.836627e-01 2.491630e-01 1.852978e+00 4.530082e-01 -3.591029e-02 -3.204541e-03 -1.008353e-01 -3.199231e-03 1.746741e-01 -1.736691e-01 1.331267e-01 -2.974800e-01 -1.193124e-01 -1.322254e-01 -1.361204e-01 -3.206779e-01
<VARIANCE> 39
 3.700402e+01 2.595008e+01 2.161607e+01 3.238637e+01 5.927242e+01 3.989335e+01 3.526829e+01 3.236928e+01 2.663664e+01 2.075270e+01 2.989635e+01 1.551120e+01 1.423551e+02 8.224088e+00 3.494611e+00 2.858583e+00 2.653912e+00 4.333343e+00 4.799402e+00 3.838635e+00 5.428574e+00 3.806869e+00 2.344641e+00 2.971532e+00 1.760985e+00 1.689358e+01 1.227890e+00 9.811983e-01 7.323583e-01 3.658106e-01 9.019589e-01 1.042102e+00 8.957201e-01 1.143554e+00 7.488440e-01 5.426168e-01 7.229311e-01 3.393005e-01 2.736233e+00
<GCONST> 1.329757e+02
<STATE> 4
<MEAN> 39
 -4.824704e+00 -8.607791e+00 -4.597800e+00 -1.604010e+01 -1.860538e+01 -1.637088e+01 -1.547338e+00 -4.723265e+00 -1.072793e+01 -1.155303e+01 -4.531536e+00 -4.207946e+00 7.704823e+01 7.315405e-03 6.893754e-02 4.353875e-02 -2.658086e-02 1.892056e-01 -1.818416e-01 -4.211822e-01 4.797407e-02 -4.747906e-01 -9.518924e-01 -2.865272e-01 6.168550e-03 -3.618464e-01 -2.946748e-01 3.749799e-01 1.671640e-02 3.022625e-01 4.361574e-02 -6.147184e-02 -2.398661e-01 -2.082263e-01 1.157823e-01 3.696755e-02 1.025887e-01 5.114512e-02 -2.106723e-01
<VARIANCE> 39
 2.250182e+00 1.057944e+01 7.804236e+00 1.369665e+01 1.558583e+01 2.525200e+01 1.799516e+01 1.638628e+01 2.136431e+01 4.233593e+01 2.198299e+01 1.287901e+01 7.063296e+00 3.487637e-01 2.562856e+00 1.068137e+00 1.274945e+00 1.540271e+00 3.813473e+00 2.724465e+00 2.059165e+00 1.497995e+00 4.169879e+00 2.549882e+00 1.422488e+00 7.776384e-01 3.449909e-01 1.192781e-01 2.186820e-01 2.388883e-01 4.288660e-01 6.658618e-01 3.765051e-01 4.814469e-01 2.431705e-01 8.197173e-01 4.506156e-01 3.013351e-01 2.999688e-02
<GCONST> 9.592992e+01
<TRANSP> 5
 0.000000e+00 1.000000e+00 0.000000e+00 0.000000e+00 0.000000e+00
 0.000000e+00 8.223808e-01 1.776191e-01 0.000000e+00 0.000000e+00
 0.000000e+00 0.000000e+00 9.080920e-01 9.190799e-02 0.000000e+00
 0.000000e+00 0.000000e+00 0.000000e+00 9.117125e-01 8.828748e-02
 0.000000e+00 0.000000e+00 0.000000e+00 0.000000e+00 0.000000e+00
<ENDHMM>
~h "ah"
<BEGINHMM>
<NUMSTATES> 5
<STATE> 2
<MEAN> 39
 -2.305609e+00 -6.803905e+00 -1.223246e+01 -2.021926e+01 -8.297257e-01 -9.071153e+00 -1.880673e+01 -6.593486e+00 1.997818e+00 -2.072385e+01 -9.920097e+00 -8.818904e+00 7.601933e+01 -7.323862e-01 -7.667511e-01 6.354612e-01 1.679651e+00 -1.105463e+00 -1.566653e+00 9.409438e-01 2.231908e+00 -1.032350e+00 -1.246113e+00 -1.337165e+00 7.021549e-01 3.464895e-01 2.457585e-01 4.559130e-01 4.720347e-02 -2.725600e-01 -3.750536e-01 2.430635e-01 -1.086282e-01 2.094236e-02 -2.030447e-01 3.531966e-01 7.897947e-01 3.585165e-01 -3.241800e-01
<VARIANCE> 39
 5.514552e+00 8.652680e+00 1.032264e+01 2.273509e+01 2.647579e+01 2.644057e+01 2.367907e+01 3.875418e+01 2.126216e+01 2.229454e+01 5.637936e+01 2.953600e+01 1.490357e+01 5.661752e-01 9.251372e-01 6.560759e-01 1.270104e+00 1.483550e+00 1.892743e+00 1.493217e+00 1.765737e+00 2.096498e+00 2.680954e+00 3.234744e+00 1.737859e+00 4.447070e-01 9.514847e-02 1.075481e-01 1.695831e-01 1.882218e-01 3.424741e-01 2.238885e-01 3.042676e-01 4.062331e-01 3.413063e-01 3.885602e-01 5.404783e-01 4.166156e-01 3.647194e-02
<GCONST> 9.496197e+01
<STATE> 3
<MEAN> 39
 -3.825872e+00 -6.573620e+00 -9.335491e+00 -1.538422e+01 -6.947151e+00 -1.698290e+01 -1.721768e+01 1.517221e+00 -3.178017e+00 -2.212509e+01 -9.192366e+00 -4.038387e+00 7.515649e+01 1.200661e-01 5.497519e-01 3.645859e-01 4.623616e-01 -6.858738e-01 -1.312807e+00 -2.262062e-01 7.412654e-01 -7.592670e-01 4.927079e-01 7.412082e-01 5.304387e-01 -6.409420e-01 1.048427e-01 1.573512e-01 -5.526451e-02 -3.337200e-02 1.425851e-01 -1.287211e-03 -1.824105e-01 -1.688736e-01 -2.801907e-02 2.909345e-01 4.671085e-02 -1.027919e-02 -1.539173e-01
<VARIANCE> 39
 5.517819e+00 8.875043e+00 9.622478e+00 1.483116e+01 1.850520e+01 3.326162e+01 2.355990e+01 2.841430e+01 2.743702e+01 2.131768e+01 3.540849e+01 2.645084e+01 1.297047e+01 2.673154e-01 4.429409e-01 5.609370e-01 8.731839e-01 1.258550e+00 1.156108e+00 1.294425e+00 1.321951e+00 1.528109e+00 1.752965e+00 1.184031e+00 1.173833e+00 1.750350e-01 3.320102e-02 5.271171e-02 9.539191e-02 1.537057e-01 1.832149e-01 1.588011e-01 2.009203e-01 2.394851e-01 2.391178e-01 2.537347e-01 2.429145e-01 2.290531e-01 2.007271e-02
<GCONST> 8.012967e+01
<STATE> 4
<MEAN> 39
 -1.015779e+00 -1.155989e+00 -8.561888e+00 -1.108325e+01 -7.792467e+00 -2.317758e+01 -2.185135e+01 5.086123e+00 -8.077455e+00 -1.565453e+01 -4.022662e+00 -1.269556e+00 6.848533e+01 5.461631e-01 9.748625e-01 2.853843e-01 1.140585e+00 2.267549e-01 -2.062790e-02 -8.712139e-01 -4.478348e-01 -1.262800e+00 9.377543e-01 1.201475e-02 3.968089e-03 -1.741018e+00 -7.586199e-02 6.438185e-02 2.152700e-01 2.329243e-01 -1.019234e-01 4.042104e-01 2.178597e-01 -7.172921e-01 1.327785e-01 -2.103257e-01 -2.482317e-01 -2.805651e-01 -2.345437e-01
<VARIANCE> 39
 8.050813e+00 8.079575e+00 1.419889e+01 3.010626e+01 2.999997e+01 4.015665e+01 3.339001e+01 4.693213e+01 6.182383e+01 2.849211e+01 3.997399e+01 4.318368e+01 1.204361e+01 3.127164e-01 5.615792e-01 1.013058e+00 1.360076e+00 1.640126e+00 1.923372e+00 1.998968e+00 3.604447e+00 2.427275e+00 2.545223e+00 2.422394e+00 2.150250e+00 5.089350e-01 8.376046e-02 1.141464e-01 2.127608e-01 2.283516e-01 2.809357e-01 3.379996e-01 3.942335e-01 5.287853e-01 5.375504e-01 4.127888e-01 3.972813e-01 3.793890e-01 7.639378e-02
<GCONST> 1.007113e+02
<TRANSP> 5
 0.000000e+00 1.000000e+00 0.000000e+00 0.000000e+00 0.000000e+00
 0.000000e+00 6.662422e-01 3.337577e-01 0.000000e+00 0.000000e+00
 0.000000e+00 0.000000e+00 8.212090e-01 1.787910e-01 0.000000e+00
 0.000000e+00 0.000000e+00 0.000000e+00 7.352260e-01 2.647740e-01
 0.000000e+00 0.000000e+00 0.000000e+00 0.000000e+00 0.000000e+00
<ENDHMM>
~h "ao"
<BEGINHMM>
<NUMSTATES> 5
<STATE> 2
<MEAN> 39
 -2.479674e+00 -7.789665e-01 -1.593392e+01 -2.134414e+01 -1.938910e+00 -1.089837e+01 -1.316330e+01 -1.538171e+01 -8.437501e-01 -4.446631e+00 -8.940654e-02 -4.809703e+00 7.108496e+01 2.286207e+00 1.516016e+00 1.118648e-01 -4.665769e+00 5.034855e-01 2.040853e+00 -1.125088e+00 -9.006344e-01 1.549055e+00 -1.318397e+00 8.573120e-01 -7.055747e-01 1.435042e+00 -1.334591e+00 -3.618584e-01 5.507614e-01 8.723049e-01 1.487880e-02 8.286704e-01 4.777075e-01 6.420488e-01 2.894727e-01 -4.954665e-01 1.006351e-01 1.053512e-03 -9.262033e-01
<VARIANCE> 39
 3.610112e+01 3.267910e+01 2.822173e+01 7.302460e+01 6.131823e+01 4.409885e+01 5.424100e+01 6.292320e+01 5.828814e+01 8.391576e+01 2.493814e+01 2.108108e+01 8.340240e+00 1.247612e+01 3.009609e+00 7.078559e+00 1.245877e+01 2.699886e+00 2.239837e+00 2.721463e+00 7.986517e+00 3.348256e+00 3.425131e+00 3.086097e+00 3.005309e+00 1.167101e+00 8.145732e-01 5.232376e-01 7.085116e-01 1.001537e+00 7.043771e-01 8.283611e-01 7.862445e-01 1.107493e+00 1.346586e+00 1.127892e+00 3.055704e-01 4.557801e-01 5.967285e-01
<GCONST> 1.331624e+02
<STATE> 3
<MEAN> 39
 -8.402230e+00 -5.479405e+00 -1.395527e+01 -1.688091e+01 4.654335e+00 -8.589141e+00 -1.289282e+01 -1.443133e+01 2.663318e+00 -8.865257e+00 -3.342668e+00 -1.017996e+01 7.287495e+01 1.067221e+00 5.885471e-01 7.588537e-01 -1.468624e+00 -2.752151e-01 1.490064e+00 -1.682456e+00 -2.352283e+00 -7.129940e-01 -4.216565e+00 5.866725e-01 -1.313446e+00 3.424247e-01 1.720651e-01 -1.183330e-01 -3.178608e-01 -9.011200e-02 -4.800252e-02 -3.138037e-01 3.557035e-01 -1.525980e-01 -3.559414e-02 -3.512650e-02 2.873469e-01 3.557383e-01 -1.311237e-01
<VARIANCE> 39
 3.605357e+01 2.575213e+01 9.930964e+00 5.993338e+01 2.856309e+01 3.275875e+01 5.709844e+01 7.190415e+01 3.851128e+01 1.315689e+02 3.923381e+01 3.523680e+01 3.274179e+00 2.296462e+00 1.195868e+00 1.832414e+00 3.346450e+00 2.126064e+00 2.561210e+00 5.246932e+00 5.572142e+00 5.672541e+00 7.086676e+00 2.609904e+00 3.168161e+00 3.030220e-01 8.139951e-01 3.635236e-01 3.819847e-01 1.018058e+00 3.169794e-01 4.644118e-01 1.299593e+00 1.744087e+00 1.305367e+00 2.504645e+00 5.118333e-01 5.071586e-01 1.601323e-01
<GCONST> 1.242599e+02
<STATE> 4
<MEAN> 39
 2.232580e+00 3.005456e+00 -1.376925e+01 -3.412160e+01 -7.122947e-01 -1.739761e+00 -1.690892e+01 -1.870872e+01 1.488764e+00 -1.844529e+01 7.311300e+00 -4.552330e+00 6.964452e+01 3.263066e-02 4.448111e-02 -4.653095e-02 2.063194e-01 -7.406318e-02 -7.262591e-02 -2.258266e-01 2.177556e-01 -2.860558e-01 1.382267e-01 9.658595e-02 1.424713e-02 -4.978471e-01 -9.783097e-02 -3.463393e-02 3.200498e-02 3.375373e-01 -9.868386e-02 -1.480555e-01 7.727833e-03 7.278795e-02 -1.120158e-01 2.622738e-01 -1.697338e-01 7.640358e-03 -1.247866e-01
<VARIANCE> 39
 6.509197e+00 1.081730e+01 9.278298e+00 2.387027e+01 2.540574e+01 2.204203e+01 2.685513e+01 3.466818e+01 3.916732e+01 3.882135e+01 3.508832e+01 3.432613e+01 1.308292e+01 3.133039e-01 4.188443e-01 6.860812e-01 2.563698e+00 1.301666e+00 1.397263e+00 1.771949e+00 1.739220e+00 2.021346e+00 3.403276e+00 2.817597e+00 1.733666e+00 5.228465e-01 8.165476e-02 8.384523e-02 1.311457e-01 2.489144e-01 2.218970e-01 2.206079e-01 2.577612e-01 2.957837e-01 3.385156e-01 3.287981e-01 3.806140e-01 2.878552e-01 6.809309e-02
<GCONST> 9.352113e+01
<TRANSP> 5
 0.000000e+00 1.000000e+00 0.000000e+00 0.000000e+00 0.000000e+00
 0.000000e+00 4.987719e-01 5.012281e-01 0.000000e+00 0.000000e+00
 0.000000e+00 0.000000e+00 6.948676e-01 3.051324e-01 0.000000e+00
 0.000000e+00 0.000000e+00 0.000000e+00 9.012392e-01 9.876075e-02
 0.000000e+00 0.000000e+00 0.000000e+00 0.000000e+00 0.000000e+00
<ENDHMM>
~h "ax"
<BEGINHMM>
<NUMSTATES> 5
<STATE> 2
<MEAN> 39
 -3.916460e+00 -1.576054e+01 -9.394763e+00 -1.262418e+01 -6.371333e+00 -1.029877e+01 -1.628222e+01 -5.300588e+00 -2.850401e+00 -2.268847e+01 -6.878859e+00 -9.233271e+00 7.794173e+01 -2.440552e-01 -2.344701e-02 4.111983e-01 -3.255882e-01 -1.798872e-01 5.216467e-02 7.383600e-02 2.523747e-01 -1.021223e+00 -3.375296e-01 1.901801e-01 3.234223e-01 4.689014e-02 -2.667181e-02 8.884656e-02 9.738776e-02 -7.817914e-02 -9.617463e-02 -1.620811e-01 2.788063e-01 -4.001763e-02 -2.688987e-01 1.115420e-01 1.280027e-01 2.646305e-01 -2.791956e-02
<VARIANCE> 39
 2.961262e+00 1.558110e+01 7.963110e+00 1.217015e+01 1.717846e+01 1.723907e+01 2.942311e+01 2.801134e+01 3.327649e+01 2.480100e+01 1.363275e+01 3.155252e+01 6.711617e+00 2.066442e-01 6.544237e-01 6.799393e-01 7.495714e-01 9.425589e-01 1.484382e+00 2.423044e+00 1.656358e+00 2.896121e+00 1.718339e+00 1.256193e+00 2.064596e+00 1.789882e-01 4.868345e-02 1.060896e-01 1.387223e-01 1.211916e-01 2.059725e-01 2.855195e-01 4.317307e-01 2.922089e-01 3.847394e-01 4.104299e-01 2.356440e-01 3.222652e-01 4.471681e-02
<GCONST> 8.527345e+01
<STATE> 3
<MEAN> 39
 -6.082710e+00 -1.268511e+01 -5.094390e+00 -1.625845e+01 -1.146303e+01 -1.170634e+01 -7.403462e+00 -4.068914e+00 -1.286450e+01 -2.101692e+01 -5.161819e+00 -5.036963e+00 7.774373e+01 -1.640113e-01 8.260262e-01 1.023527e+00 -5.328629e-01 -1.196063e+00 -3.960746e-01 1.182590e+00 -5.004454e-01 -6.652538e-01 1.357953e+00 -3.163042e-01 -3.656074e-02 -3.744224e-01 1.179946e-01 2.586064e-01 -4.650984e-03 -1.186195e-02 -1.317521e-01 -1.668047e-01 -3.110493e-01 5.751086e-02 4.776098e-01 3.168814e-01 -1.925532e-01 -3.179286e-02 -1.547483e-01
<VARIANCE> 39
 2.369291e+00 9.857827e+00 1.295008e+01 1.302178e+01 2.042470e+01 1.555968e+01 2.782797e+01 2.202601e+01 2.877321e+01 2.295996e+01 1.393028e+01 1.244976e+01 6.188899e+00 1.719890e-01 7.647834e-01 5.280281e-01 9.784147e-01 1.623996e+00 1.318942e+00 2.458666e+00 1.708269e+00 2.935379e+00 2.142633e+00 1.513839e+00 1.077466e+00 1.308372e-01 2.458910e-02 8.025239e-02 8.514239e-02 1.008431e-01 1.660010e-01 2.478506e-01 2.541246e-01 3.051157e-01 3.818098e-01 3.692743e-01 2.797012e-01 2.590252e-01 1.907861e-02
<GCONST> 8.013302e+01
<STATE> 4
<MEAN> 39
 -5.596444e+00 -6.861230e+00 7.819617e-01 -2.133843e+01 -1.883569e+01 -1.585320e+01 -4.343208e+00 -6.284521e+00 -1.072080e+01 -1.251887e+01 -9.140230e+00 -5.141104e+00 7.490968e+01 2.824918e-01 4.705035e-01 -3.851735e-01 2.077045e-01 4.700054e-01 -1.167979e+00 -5.810114e-01 4.734904e-01 1.188080e+00 -8.417242e-02 -2.270240e-01 5.884840e-01 -3.696019e-01 3.214661e-02 -9.317138e-02 -3.915610e-01 1.761307e-01 6.084462e-01 -1.025380e-02 -4.317472e-01 4.079674e-02 2.271806e-01 -3.620332e-01 7.437261e-02 -6.079321e-02 2.286451e-03
<VARIANCE> 39
 2.478866e+00 7.692407e+00 1.312735e+01 2.020038e+01 2.216920e+01 2.292166e+01 2.354914e+01 2.817618e+01 2.433286e+01 3.327627e+01 1.850059e+01 1.928823e+01 5.520755e+00 1.167330e-01 7.522339e-01 1.886589e+00 1.364222e+00 4.097937e+00 1.406833e+00 2.329267e+00 1.807532e+00 1.812491e+00 3.426215e+00 1.464697e+00 1.111983e+00 1.191624e-01 2.704783e-02 1.026604e-01 9.510989e-02 2.570255e-01 2.498940e-01 3.226697e-01 3.145636e-01 4.133582e-01 3.036368e-01 3.623374e-01 2.556986e-01 3.852865e-01 1.697155e-02
<GCONST> 8.634880e+01
<TRANSP> 5
 0.000000e+00 1.000000e+00 0.000000e+00 0.000000e+00 0.000000e+00
 0.000000e+00 8.332322e-01 1.667678e-01 0.000000e+00 0.000000e+00
 0.000000e+00 0.000000e+00 8.078249e-01 1.921751e-01 0.000000e+00
 0.000000e+00 0.000000e+00 0.000000e+00 8.272520e-01 1.727479e-01
 0.000000e+00 0.000000e+00 0.000000e+00 0.000000e+00 0.000000e+00
<ENDHMM>
~h "ay"
<BEGINHMM>
<NUMSTATES> 5
<STATE> 2
<MEAN> 39
 -1.783378e+00 -4.756545e+00 -8.582809e+00 -1.239465e+01 -1.008155e+01 -1.797145e+01 -1.440138e+01 -6.035213e+00 -5.938383e+00 -1.544196e+01 -8.077068e+00 -5.244340e+00 7.035902e+01 8.122287e-01 -2.612757e+00 -1.269267e+00 -1.825200e+00 1.795750e+00 3.999489e-01 -1.159407e+00 7.567869e-01 5.607092e-01 -2.596353e+00 -1.289453e+00 -5.378775e-01 3.844966e+00 -7.044534e-01 -2.891294e-01 5.698336e-02 3.531269e-01 4.789984e-01 9.461501e-01 3.465104e-01 -8.870093e-02 3.594945e-01 2.106147e-01 3.197529e-01 -5.485813e-02 -8.005194e-01
<VARIANCE> 39
 1.550067e+01 6.900370e+01 3.276022e+01 3.350447e+01 3.288617e+01 5.975463e+01 5.222561e+01 5.274906e+01 3.054653e+01 3.102750e+01 1.686587e+01 2.857951e+01 6.659642e+01 6.665882e+00 4.320429e+00 2.583738e+00 2.651425e+00 4.232845e+00 5.833740e+00 5.164103e+00 6.785426e+00 3.961553e+00 6.323155e+00 2.474267e+00 3.013590e+00 2.671573e+00 9.539678e-01 8.634817e-01 5.990400e-01 7.255707e-01 8.606433e-01 6.613353e-01 1.203002e+00 1.345229e+00 5.015141e-01 9.301782e-01 3.992742e-01 6.061078e-01 1.118404e+00
<GCONST> 1.334700e+02
<STATE> 3
<MEAN> 39
 -3.730921e+00 -1.537795e+01 -1.167114e+01 -1.417481e+01 -3.665630e+00 -1.038076e+01 -1.292428e+01 -7.285895e+00 -1.460778e+00 -2.140510e+01 -7.490991e+00 -7.145873e+00 7.828030e+01 8.812048e-02 -1.187588e+00 1.623759e-01 1.047648e-01 1.141761e+00 1.395591e+00 -8.111129e-01 -6.819466e-01 1.266752e+00 -1.224726e+00 9.846090e-02 -1.107562e+00 5.177859e-01 -1.550401e-01 6.293492e-01 3.045016e-01 3.341144e-01 -4.752312e-01 -3.644809e-01 -1.906542e-02 5.289825e-02 3.006093e-02 7.441739e-01 1.808355e-01 -1.085642e-01 -7.063090e-01
<VARIANCE> 39
 4.100333e+00 1.747534e+01 1.035017e+01 1.532752e+01 1.865783e+01 3.393679e+01 4.082604e+01 3.127019e+01 3.545602e+01 2.018837e+01 2.078868e+01 2.741068e+01 9.923466e+00 4.474535e-01 1.301136e+00 7.435350e-01 1.167885e+00 1.798772e+00 2.401462e+00 3.494873e+00 2.805299e+00 2.356791e+00 2.794136e+00 1.504824e+00 2.715822e+00 6.304250e-01 2.655708e-01 1.966973e-01 1.890032e-01 2.939578e-01 2.822105e-01 3.384761e-01 5.698923e-01 5.848590e-01 5.050542e-01 5.456215e-01 3.372815e-01 4.544881e-01 2.528235e-01
<GCONST> 1.018985e+02
<STATE> 4
<MEAN> 39
 -3.859684e+00 -1.425982e+01 -7.976786e+00 -1.473235e+01 -6.239057e+00 -9.135509e+00 -1.722836e+01 -4.330349e+00 -2.837175e+00 -2.106617e+01 -7.889949e+00 -8.845149e+00 7.775623e+01 -2.269716e-01 4.603350e-01 8.164460e-01 -5.670387e-02 -1.276360e+00 -9.299981e-02 2.862814e-01 2.495951e-01 -1.068442e+00 7.266324e-01 1.887940e-01 1.041017e-01 -1.369013e-01 -2.545475e-02 2.077078e-01 1.303676e-01 -8.121677e-02 -2.743984e-01 -6.621929e-02 1.008604e-01 -9.816650e-02 -9.395222e-02 3.113892e-01 -3.133036e-02 6.343015e-02 -7.953344e-02
<VARIANCE> 39
 4.695006e+00 1.060233e+01 1.598963e+01 1.224711e+01 3.411742e+01 2.124923e+01 3.235160e+01 3.471472e+01 6.237864e+01 2.287965e+01 1.480246e+01 2.450398e+01 6.115537e+00 2.390644e-01 7.489535e-01 7.891413e-01 6.996204e-01 2.069902e+00 1.027498e+00 2.379957e+00 2.449641e+00 2.913093e+00 2.534910e+00 1.148158e+00 1.672328e+00 1.554813e-01 3.718869e-02 6.072331e-02 1.009647e-01 1.165529e-01 1.670640e-01 1.977196e-01 3.351499e-01 4.355180e-01 5.117414e-01 2.939830e-01 2.115277e-01 2.927423e-01 2.362250e-02
<GCONST> 8.614211e+01
<TRANSP> 5
 0.000000e+00 1.000000e+00 0.000000e+00 0.000000e+00 0.000000e+00
 0.000000e+00 6.049950e-01 3.950050e-01 0.000000e+00 0.000000e+00
 0.000000e+00 0.000000e+00 6.740749e-01 3.259251e-01 0.000000e+00
 0.000000e+00 0.000000e+00 0.000000e+00 8.792077e-01 1.207924e-01
 0.000000e+00 0.000000e+00 0.000000e+00 0.000000e+00 0.000000e+00
<ENDHMM>
~h "eh"
<BEGINHMM>
<NUMSTATES> 5
<STATE> 2
<MEAN> 39
 -4.070223e+00 -1.957386e+00 -6.709023e+00 -1.171681e+01 -1.746647e+01 -2.258257e+01 -1.261249e+01 1.386381e+00 -8.123992e+00 -1.307374e+01 -2.183134e+00 1.803631e-01 7.389835e+01 1.533429e+00 -1.562396e+00 -5.248557e-01 -1.521459e+00 8.652746e-01 3.749928e-01 1.162441e-01 1.008435e+00 -6.950920e-01 -1.208691e+00 -1.003802e+00 -2.662208e-01 1.760061e+00 -1.225641e+00 -4.762182e-01 -2.258609e-01 3.438412e-01 7.781768e-01 1.231820e+00 9.160996e-01 -4.396164e-01 1.332157e-01 3.066418e-01 1.163154e-02 -2.834971e-01 -6.057199e-01
<VARIANCE> 39
 3.498701e+00 1.609097e+01 1.041692e+01 2.077142e+01 1.892521e+01 2.110848e+01 3.444577e+01 2.421066e+01 3.543895e+01 1.971507e+01 1.679928e+01 2.014930e+01 1.170815e+01 4.099597e+00 2.074057e+00 1.419177e+00 1.884351e+00 2.486313e+00 5.525904e+00 6.198475e+00 3.003939e+00 3.028766e+00 2.493909e+00 1.933683e+00 1.783923e+00 1.089771e+00 3.432777e-01 3.522829e-01 3.347775e-01 2.610364e-01 4.791831e-01 6.989836e-01 6.571774e-01 6.534302e-01 4.657589e-01 5.188997e-01 3.443194e-01 3.981721e-01 1.274153e-01
<GCONST> 1.086934e+02
<STATE> 3
<MEAN> 39
 -4.568328e+00 -9.649392e+00 -7.508302e+00 -1.547768e+01 -1.155832e+01 -1.579576e+01 -6.645277e+00 -3.147706e+00 -9.410915e+00 -1.848182e+01 -6.204322e+00 -2.068438e+00 7.641009e+01 3.066183e-01 -2.886352e-01 3.816484e-02 -6.131906e-03 6.649191e-01 -5.515144e-02 -4.314061e-01 -7.633570e-01 7.517576e-01 -5.901215e-01 -4.636067e-01 -1.175246e-02 -3.078400e-01 1.005129e-01 3.090169e-01 8.013055e-02 1.918302e-01 -5.072545e-02 -2.576123e-01 -3.825512e-01 -6.148607e-02 2.361676e-01 2.510376e-01 9.320549e-02 1.442156e-02 -2.791579e-01
<VARIANCE> 39
 4.007068e+00 8.701502e+00 8.990299e+00 1.049534e+01 1.657865e+01 2.176865e+01 2.037847e+01 2.256751e+01 2.948995e+01 2.087288e+01 1.887860e+01 1.231319e+01 5.492909e+00 2.360030e-01 7.361938e-01 4.319238e-01 5.426570e-01 1.022344e+00 1.743312e+00 2.016809e+00 1.437529e+00 1.772408e+00 1.729632e+00 1.196584e+00 1.024010e+00 2.813180e-01 3.553670e-02 1.041465e-01 1.007666e-01 1.281288e-01 2.043922e-01 2.579232e-01 2.857515e-01 2.854929e-01 2.515853e-01 2.319698e-01 2.099434e-01 1.908923e-01 6.472995e-02
<GCONST> 7.967321e+01
<STATE> 4
<MEAN> 39
 -1.891232e-01 -2.834927e+00 -5.303933e+00 -1.205660e+01 -9.072272e+00 -2.406142e+01 -1.518052e+01 -4.431896e+00 -4.292752e+00 -1.567512e+01 -7.280965e+00 5.801448e-01 6.839394e+01 1.260612e-01 4.094705e-01 8.711495e-02 1.411583e-01 1.099522e-01 -3.448497e-01 -3.815895e-01 3.314610e-01 -2.143806e-01 2.054818e-01 2.413319e-01 2.333694e-01 -4.445132e-01 -3.760745e-02 1.667215e-02 -4.487227e-03 4.386627e-02 -6.489673e-02 9.951392e-02 6.078382e-02 -1.416143e-02 -1.193618e-01 -1.987128e-02 -1.348118e-02 -5.041732e-02 -3.570963e-02
<VARIANCE> 39
 7.023662e+00 1.406602e+01 1.255417e+01 3.584240e+01 2.962610e+01 3.859017e+01 3.130545e+01 6.003450e+01 4.224205e+01 2.052774e+01 3.442681e+01 3.997316e+01 2.358884e+01 7.165278e-01 1.179023e+00 1.120213e+00 3.367127e+00 1.923273e+00 2.285504e+00 2.702740e+00 3.090440e+00 3.543061e+00 1.973906e+00 1.963846e+00 2.849403e+00 3.211072e+00 1.127681e-01 2.144469e-01 2.081228e-01 5.612837e-01 3.166685e-01 4.670388e-01 4.180969e-01 5.369075e-01 7.122472e-01 3.380858e-01 3.410303e-01 5.161445e-01 4.400579e-01
<GCONST> 1.104523e+02
<TRANSP> 5
 0.000000e+00 1.000000e+00 0.000000e+00 0.000000e+00 0.000000e+00
 0.000000e+00 6.939939e-01 3.060061e-01 0.000000e+00 0.000000e+00
 0.000000e+00 0.000000e+00 8.628427e-01 1.371574e-01 0.000000e+00
 0.000000e+00 0.000000e+00 0.000000e+00 9.211677e-01 7.883225e-02
 0.000000e+00 0.000000e+00 0.000000e+00 0.000000e+00 0.000000e+00
<ENDHMM>
~h "ey"
<BEGINHMM>
<NUMSTATES> 5
<STATE> 2
<MEAN> 39
 -1.091950e+01 -4.773809e+00 -3.350337e+00 -1.210434e+01 -1.423206e+01 -7.267062e+00 -7.702711e+00 -5.464590e+00 -3.490277e+00 2.976314e-01 -2.409166e+00 -2.850311e+00 5.681119e+01 2.763731e-01 -1.751778e-01 1.533591e+00 -1.326945e+00 -1.781510e+00 -3.599733e-01 1.022632e-01 -4.882134e-01 -2.217721e-01 8.246337e-01 -6.948916e-01 7.951338e-03 2.648424e+00 1.413928e-01 2.090227e-01 7.997906e-02 -2.251697e-01 -5.751152e-02 -1.967001e-01 -2.447250e-01 -2.385243e-01 -4.198012e-02 -1.133926e-01 -1.533218e-01 3.220980e-02 4.365968e-01
<VARIANCE> 39
 1.546955e+01 1.268930e+01 5.069767e+01 4.781566e+01 8.967660e+01 2.960543e+01 3.665640e+01 3.189806e+01 2.364588e+01 3.367353e+01 2.982580e+01 1.661497e+01 1.361536e+02 1.792566e+00 1.386373e+00 3.261204e+00 6.253107e+00 7.960763e+00 3.773957e+00 4.321117e+00 3.253819e+00 3.096317e+00 3.999040e+00 2.653301e+00 1.849388e+00 1.651113e+01 2.423528e-01 2.888464e-01 6.570646e-01 1.007536e+00 1.568597e+00 6.260825e-01 6.325220e-01 5.662826e-01 6.214113e-01 8.786749e-01 5.054957e-01 3.517509e-01 2.584355e+00
<GCONST> 1.288810e+02
<STATE> 3
<MEAN> 39
 -7.371710e+00 1.135795e+00 7.800316e+00 -2.187521e+01 -2.519825e+01 -1.111159e+01 -1.190381e+01 -1.386502e+01 -5.681395e+00 2.056940e+00 -9.974711e+00 -1.914628e+00 7.470292e+01 1.224876e-01 6.581942e-01 3.038422e-01 2.933825e-01 -3.170985e-01 -4.517759e-02 -1.982011e-01 -4.724809e-01 -3.706477e-01 -4.269679e-01 -4.173747e-01 2.111225e-02 -3.447699e-01 -5.873787e-02 -4.175469e-02 -1.947015e-01 4.113592e-01 2.158753e-01 -2.346990e-02 1.631867e-01 2.373436e-01 -9.038756e-02 -2.260169e-01 2.200067e-01 -5.494074e-02 -4.588458e-01
<VARIANCE> 39
 2.813922e+00 1.763070e+01 1.612419e+01 1.442283e+01 1.392688e+01 1.508519e+01 2.968849e+01 2.359544e+01 1.891451e+01 3.090940e+01 3.141954e+01 2.178781e+01 9.594207e+00 2.275390e-01 1.069149e+00 1.007442e+00 1.580591e+00 1.215380e+00 1.428122e+00 1.627695e+00 1.959999e+00 1.631009e+00 2.086304e+00 2.216466e+00 1.545446e+00 6.663172e-01 7.231727e-02 1.633861e-01 1.647728e-01 2.304003e-01 3.835377e-01 3.200038e-01 2.915896e-01 3.056999e-01 2.879121e-01 3.565626e-01 3.557974e-01 2.625324e-01 4.533975e-01
<GCONST> 9.324101e+01
<STATE> 4
<MEAN> 39
 -6.791537e+00 5.786767e+00 5.795094e+00 -1.080137e+01 -2.212033e+01 -1.308939e+01 -1.028427e+01 -1.252126e+01 -1.127152e+01 -6.452267e+00 -7.797006e+00 -4.162074e+00 6.447488e+01 -3.785687e-01 1.153233e-01 -1.400717e+00 2.091481e+00 2.949152e+00 1.140707e-01 9.634238e-01 7.176043e-01 -2.315010e-01 -1.803911e+00 7.450104e-01 -9.241574e-01 -3.227307e+00 -3.334781e-01 -5.379045e-01 -2.366620e-01 -5.994369e-01 2.501040e-01 3.960684e-01 6.984314e-02 -2.220727e-02 6.171358e-01 5.631620e-01 -1.740145e-01 1.274086e-01 2.169961e-02
<VARIANCE> 39
 8.442989e+00 2.092600e+01 1.350429e+01 3.547104e+01 5.884822e+01 2.657729e+01 2.351413e+01 2.035069e+01 2.029144e+01 4.623497e+01 2.489657e+01 2.799847e+01 4.624001e+01 1.169970e+00 2.867918e+00 1.187816e+00 3.700005e+00 2.929697e+00 3.297335e+00 2.771714e+00 2.120746e+00 3.158811e+00 3.650534e+00 2.864278e+00 1.975826e+00 1.526181e+00 1.845859e-01 4.673180e-01 2.305609e-01 6.969830e-01 1.227538e+00 5.199445e-01 5.004631e-01 4.257884e-01 4.091788e-01 7.082376e-01 5.786468e-01 4.515287e-01 9.298255e-01
<GCONST> 1.161779e+02
<TRANSP> 5
 0.000000e+00 1.000000e+00 0.000000e+00 0.000000e+00 0.000000e+00
 0.000000e+00 8.662964e-01 1.337036e-01 0.000000e+00 0.000000e+00
 0.000000e+00 0.000000e+00 9.043470e-01 9.565300e-02 0.000000e+00
 0.000000e+00 0.000000e+00 0.000000e+00 7.359276e-01 2.640724e-01
 0.000000e+00 0.000000e+00 0.000000e+00 0.000000e+00 0.000000e+00
<ENDHMM>
~h "ia"
<BEGINHMM>
<NUMSTATES> 5
<STATE> 2
<MEAN> 39
 -6.034792e+00 4.728014e+00 3.751778e+00 -1.216627e+01 -2.788950e+01 -1.758793e+01 -1.067731e+01 -1.303968e+01 -8.902322e+00 -6.074543e+00 -3.200786e+00 -1.964034e+00 7.186000e+01 5.604688e-01 -2.779006e-01 1.145367e+00 -2.989722e+00 -1.085842e+00 1.345252e+00 6.342070e-02 -9.273170e-01 1.225962e+00 2.593436e+00 -1.062104e+00 4.240810e-01 9.436871e-01 -3.821027e-01 3.187849e-01 -1.179926e-03 3.176398e-01 9.869596e-01 2.108048e-01 -3.259154e-02 1.138989e-01 -1.942019e-02 -2.959004e-01 -5.927890e-01 -4.468950e-01 -5.231338e-01
<VARIANCE> 39
 2.616069e+00 1.140750e+01 1.294836e+01 2.257150e+01 2.031191e+01 2.117467e+01 1.767239e+01 2.377324e+01 2.153171e+01 3.328468e+01 2.394520e+01 1.878106e+01 5.536993e+00 9.912639e-01 1.178373e+00 8.972868e-01 1.346719e+00 2.814158e+00 1.776730e+00 3.625567e+00 2.770532e+00 2.602626e+00 2.357749e+00 2.130918e+00 2.316528e+00 4.748756e-01 1.911128e-01 2.315153e-01 1.955116e-01 2.531106e-01 3.327023e-01 5.151325e-01 6.686488e-01 4.620710e-01 7.445136e-01 4.722860e-01 5.034679e-01 2.740278e-01 7.900053e-02
<GCONST> 9.955066e+01
<STATE> 3
<MEAN> 39
 -6.610978e+00 4.287992e+00 7.817907e+00 -1.961418e+01 -2.612918e+01 -1.496315e+01 -1.003754e+01 -1.386537e+01 -6.515639e+00 -1.506971e+00 -7.074696e+00 -3.385080e+00 7.305580e+01 3.408036e-01 -7.856538e-01 6.103476e-01 -6.166089e-01 4.433676e-01 -3.558340e-01 3.323699e-01 5.874793e-01 -3.805185e-01 1.109977e-02 -4.477797e-01 1.638384e-02 -1.412010e-01 2.332294e-01 -3.754678e-01 -2.223188e-01 6.896272e-01 9.997945e-02 -4.504285e-01 -6.741499e-02 3.762427e-01 -2.740418e-01 -6.462562e-01 1.771636e-01 1.575342e-01 -2.097059e-01
<VARIANCE> 39
 2.277698e+00 8.961827e+00 1.184759e+01 1.339116e+01 1.402603e+01 1.890377e+01 1.436724e+01 2.333893e+01 1.802630e+01 2.645689e+01 2.249217e+01 2.379821e+01 4.092412e+00 2.990827e-01 7.873440e-01 9.026015e-01 1.204789e+00 7.684571e-01 1.179669e+00 1.062097e+00 1.343561e+00 1.445698e+00 1.781938e+00 2.032685e+00 7.915484e-01 2.057489e-01 6.041058e-02 9.974145e-02 9.946104e-02 1.992257e-01 1.865143e-01 1.922853e-01 2.721040e-01 2.183805e-01 2.903541e-01 2.768362e-01 2.523394e-01 1.952084e-01 3.326459e-02
<GCONST> 7.963148e+01
<STATE> 4
<MEAN> 39
 -2.215540e+00 -2.518566e+00 8.607225e+00 -1.651807e+01 -2.478091e+01 -1.956835e+01 -9.133573e+00 -8.744224e+00 -9.903995e+00 -6.188884e+00 -8.019198e+00 -8.797882e-01 7.071275e+01 1.652568e+00 -2.149450e+00 -9.466264e-01 2.312690e+00 1.144561e+00 -1.443693e+00 -1.241963e+00 1.246890e+00 7.902434e-01 -1.859781e+00 -8.402807e-01 8.182972e-01 -8.150873e-01 1.290538e-01 2.016920e-01 -7.201618e-01 5.117771e-01 4.320756e-01 1.976942e-01 -7.080702e-01 -3.981579e-01 8.204023e-01 1.643155e-01 -2.614734e-01 -3.856824e-01 -1.012457e-01
<VARIANCE> 39
 6.554455e+00 1.598733e+01 1.815685e+01 2.048085e+01 2.043707e+01 3.097650e+01 2.925900e+01 3.516099e+01 2.058156e+01 4.182233e+01 2.518808e+01 1.851684e+01 6.374774e+00 3.466251e-01 6.954251e-01 1.344222e+00 1.654568e+00 1.502179e+00 9.441454e-01 2.500431e+00 1.321386e+00 3.089723e+00 1.465795e+00 1.470741e+00 1.289388e+00 1.391539e-01 7.041516e-02 1.850862e-01 1.911936e-01 3.139570e-01 2.098580e-01 3.128689e-01 3.622141e-01 3.955457e-01 2.959023e-01 5.433474e-01 2.531985e-01 4.152524e-01 1.833946e-02
<GCONST> 9.159061e+01
<TRANSP> 5
 0.000000e+00 1.000000e+00 0.000000e+00 0.000000e+00 0.000000e+00
 0.000000e+00 6.462502e-01 3.537497e-01 0.000000e+00 0.000000e+00
 0.000000e+00 0.000000e+00 7.810332e-01 2.189668e-01 0.000000e+00
 0.000000e+00 0.000000e+00 0.000000e+00 6.858782e-01 3.141218e-01
 0.000000e+00 0.000000e+00 0.000000e+00 0.000000e+00 0.000000e+00
<ENDHMM>
~h "ih"
<BEGINHMM>
<NUMSTATES> 5
<STATE> 2
<MEAN> 39
 -2.197503e+01 -1.442963e+00 -5.828055e+00 -5.417404e+00 -1.381612e+01 -1.083276e+01 -3.284637e+00 -4.693537e+00 -5.009583e+00 -3.258175e+00 1.969284e+00 -3.467772e+00 6.674763e+01 5.233379e+00 1.412156e+00 2.418777e+00 -2.479701e+00 -3.510670e+00 -3.727221e+00 -2.223585e+00 -1.641466e+00 -2.051318e+00 -9.372998e-01 -4.042411e-01 -2.505946e-01 2.341411e+00 8.649542e-01 3.767842e-01 4.600376e-01 -2.024028e-01 -4.966460e-01 1.252242e-01 -6.362223e-01 -2.016238e-01 -2.614286e-01 -7.648437e-02 -3.958645e-01 -5.120503e-02 -2.103424e-01
<VARIANCE> 39
 4.033186e+01 1.774810e+01 2.002631e+01 2.309753e+01 2.916990e+01 3.769823e+01 2.494740e+01 2.028140e+01 2.372255e+01 2.829163e+01 2.104198e+01 1.104777e+01 1.662550e+01 2.653030e+00 1.591100e+00 1.738349e+00 2.386595e+00 2.850436e+00 3.103411e+00 2.890609e+00 2.551257e+00 2.409394e+00 2.489727e+00 1.809161e+00 1.581474e+00 1.151757e+00 1.056589e+00 4.949206e-01 3.470811e-01 4.386604e-01 6.708059e-01 9.471484e-01 6.266017e-01 6.567881e-01 6.477525e-01 7.394621e-01 5.218949e-01 3.249738e-01 2.369720e-01
<GCONST> 1.145882e+02
<STATE> 3
<MEAN> 39
 -5.651412e+00 9.974060e-01 4.348471e+00 -1.613807e+01 -2.624609e+01 -1.542099e+01 -1.191596e+01 -1.014338e+01 -9.216221e+00 -2.311926e+00 -3.661711e+00 -4.528465e+00 7.300742e+01 8.664612e-01 -1.523224e-01 1.222014e+00 -1.074493e+00 -8.853340e-01 3.727407e-01 -2.163240e-01 -9.220753e-01 1.920600e-01 3.647391e-01 -1.098456e+00 -2.628588e-01 1.501491e-01 -7.422385e-01 -1.129963e-01 -3.505795e-01 6.299324e-01 6.981314e-01 2.194537e-01 5.267581e-01 4.851698e-02 2.630517e-01 -1.912127e-01 1.967271e-01 -3.315235e-02 -5.491703e-01
<VARIANCE> 39
 3.800336e+00 1.431078e+01 1.440639e+01 2.557386e+01 2.109394e+01 3.746146e+01 2.266438e+01 3.103925e+01 1.995540e+01 2.965380e+01 3.500126e+01 1.872920e+01 9.548859e+00 3.840857e+00 1.585973e+00 1.314899e+00 3.450438e+00 3.175300e+00 3.672667e+00 3.429556e+00 3.337803e+00 2.162947e+00 3.388656e+00 3.174028e+00 1.688336e+00 2.193662e+00 5.325941e-01 4.171226e-01 2.554948e-01 4.482316e-01 3.941593e-01 1.251635e+00 4.427699e-01 6.159107e-01 4.736262e-01 7.891809e-01 8.594248e-01 2.932580e-01 1.521097e-01
<GCONST> 1.126826e+02
<STATE> 4
<MEAN> 39
 -1.206536e+01 -4.245641e+00 6.801402e-01 -5.911368e+00 -1.962524e+01 -1.685618e+01 -2.677658e+00 -1.107256e+01 -5.805550e+00 -7.885760e+00 -1.167314e+00 -5.258179e+00 6.486609e+01 -1.574033e+00 -8.477933e-01 -1.618684e+00 1.984422e+00 1.012371e+00 -4.250548e-01 9.189172e-01 1.553118e+00 4.165347e-01 -8.343951e-01 1.151430e+00 4.701601e-01 -2.359032e-01 -1.475721e-01 7.515807e-02 -8.517559e-02 -2.259769e-01 -6.216839e-02 2.905428e-01 -3.317242e-01 3.333554e-01 3.469339e-02 1.976844e-01 -1.287722e-01 1.386830e-01 2.591571e-01
<VARIANCE> 39
 3.384877e+01 5.261656e+01 5.331800e+01 5.257922e+01 3.548503e+01 3.748382e+01 3.973713e+01 4.797857e+01 2.890955e+01 3.624785e+01 3.907196e+01 2.837164e+01 3.670949e+01 1.866822e+00 5.919915e+00 3.669271e+00 3.361757e+00 4.761008e+00 3.934159e+00 4.863670e+00 4.019917e+00 2.993912e+00 3.985266e+00 3.482548e+00 2.597477e+00 7.203448e+00 3.113417e-01 1.395397e+00 1.000223e+00 6.176500e-01 9.456269e-01 8.330117e-01 6.731587e-01 9.031156e-01 6.564491e-01 7.453404e-01 7.446955e-01 5.183362e-01 1.348061e+00
<GCONST> 1.334698e+02
<TRANSP> 5
 0.000000e+00 1.000000e+00 0.000000e+00 0.000000e+00 0.000000e+00
 0.000000e+00 6.141734e-01 3.858266e-01 0.000000e+00 0.000000e+00
 0.000000e+00 0.000000e+00 8.661428e-01 1.338572e-01 0.000000e+00
 0.000000e+00 0.000000e+00 0.000000e+00 8.699312e-01 1.300689e-01
 0.000000e+00 0.000000e+00 0.000000e+00 0.000000e+00 0.000000e+00
<ENDHMM>
~h "iy"
<BEGINHMM>
<NUMSTATES> 5
<STATE> 2
<MEAN> 39
 -1.278966e+00 -4.365937e+00 7.677092e+00 -1.239177e+01 -2.359452e+01 -1.887421e+01 -1.294563e+01 -9.373461e+00 -1.307704e+01 -2.754489e+00 -1.221321e+01 -2.271115e+00 7.094875e+01 -1.697041e+00 1.119792e+00 1.928956e+00 -2.016861e+00 -1.377316e+00 1.149716e+00 1.992551e+00 -1.239937e+00 -2.152879e+00 2.334484e+00 -7.389063e-01 -2.382765e-01 5.548691e-01 9.468566e-02 2.698182e-01 -3.590063e-01 -1.110424e-01 3.776670e-01 6.341115e-01 -6.635687e-01 -6.400387e-01 7.902355e-01 5.893940e-02 -4.647572e-01 -4.501097e-01 -2.504695e-01
<VARIANCE> 39
 9.413420e+00 1.403796e+01 1.595750e+01 2.044258e+01 2.301553e+01 2.739146e+01 3.520152e+01 2.446725e+01 2.587427e+01 4.584039e+01 2.479320e+01 2.406247e+01 8.080055e+00 7.254594e-01 8.333483e-01 1.123584e+00 1.303954e+00 1.356178e+00 2.527349e+00 3.711653e+00 2.865571e+00 4.661212e+00 2.008165e+00 2.612192e+00 2.039904e+00 2.256943e-01 9.363884e-02 2.441416e-01 1.680155e-01 2.395708e-01 3.392375e-01 4.257643e-01 5.327558e-01 6.383399e-01 6.398065e-01 8.887320e-01 3.237896e-01 4.771816e-01 2.173305e-02
<GCONST> 1.007429e+02
<STATE> 3
<MEAN> 39
 -7.035732e+00 2.427611e+00 1.231619e+01 -2.151154e+01 -2.539419e+01 -1.055161e+01 -1.227683e+01 -1.633077e+01 -1.205032e+01 5.295747e-01 -1.841387e+01 -3.640381e+00 6.995641e+01 -2.190429e-01 4.359957e-01 2.766440e-01 -5.517514e-01 -7.191413e-02 3.388933e-01 -8.905398e-02 -2.918572e-01 3.086848e-01 -8.170973e-02 -1.672408e-01 2.078125e-01 -4.976236e-01 1.693503e-01 -1.601996e-01 -2.168400e-01 3.925414e-01 7.006428e-02 -3.226353e-01 -6.295250e-03 2.038110e-01 6.633589e-03 -1.545611e-01 3.797621e-01 8.605544e-02 -1.545902e-01
<VARIANCE> 39
 4.205632e+00 1.347377e+01 1.136229e+01 2.206980e+01 1.635480e+01 1.788946e+01 2.061640e+01 1.917371e+01 2.018924e+01 2.655728e+01 2.855737e+01 1.575684e+01 1.028772e+01 5.050396e-01 9.105996e-01 6.790712e-01 1.321058e+00 1.094475e+00 2.062722e+00 1.357438e+00 1.725724e+00 1.741716e+00 1.535796e+00 2.290682e+00 1.197715e+00 3.709487e-01 7.355633e-02 1.099055e-01 1.225718e-01 1.703777e-01 2.728339e-01 2.488077e-01 2.553727e-01 3.095752e-01 3.210965e-01 3.678014e-01 3.007825e-01 2.396739e-01 6.161739e-02
<GCONST> 8.793641e+01
<STATE> 4
<MEAN> 39
 -6.747701e+00 2.423979e+00 6.957522e+00 -1.444709e+01 -2.176632e+01 -1.250690e+01 -1.234002e+01 -1.506928e+01 -8.957923e+00 -1.695340e+00 -1.003703e+01 -1.930134e+00 6.029315e+01 -6.407118e-01 -1.651959e-01 -2.089221e+00 2.460894e+00 1.819692e+00 -1.147519e-02 4.755303e-01 8.188938e-01 5.107758e-01 -1.184230e+00 1.894221e+00 -1.625583e-01 -1.806390e+00 -3.144939e-01 -2.802677e-02 -2.072903e-01 2.256813e-02 2.877232e-01 2.371230e-01 1.339691e-01 2.187715e-01 8.392291e-02 -1.491117e-01 -1.246794e-01 -1.233862e-01 5.001292e-02
<VARIANCE> 39
 1.648586e+01 2.174992e+01 5.160447e+01 5.172094e+01 5.934111e+01 3.131243e+01 3.007079e+01 3.206524e+01 4.049665e+01 4.755495e+01 5.134662e+01 3.274173e+01 4.927384e+01 3.004196e+00 1.859506e+00 2.508787e+00 3.280617e+00 4.861560e+00 3.532468e+00 3.664515e+00 3.340460e+00 3.565850e+00 4.340310e+00 4.718416e+00 3.055623e+00 1.971538e+00 4.030798e-01 3.347982e-01 6.377391e-01 7.614908e-01 1.110461e+00 6.327134e-01 7.096627e-01 6.298609e-01 8.298356e-01 9.856837e-01 1.026150e+00 5.681089e-01 4.014500e-01
<GCONST> 1.284616e+02
<TRANSP> 5
 0.000000e+00 1.000000e+00 0.000000e+00 0.000000e+00 0.000000e+00
 0.000000e+00 7.291076e-01 2.708924e-01 0.000000e+00 0.000000e+00
 0.000000e+00 0.000000e+00 8.877141e-01 1.122858e-01 0.000000e+00
 0.000000e+00 0.000000e+00 0.000000e+00 8.181335e-01 1.818665e-01
 0.000000e+00 0.000000e+00 0.000000e+00 0.000000e+00 0.000000e+00
<ENDHMM>
~h "jh"
<BEGINHMM>
<NUMSTATES> 5
<STATE> 2
<MEAN> 39
 1.617042e+00 -5.190294e-01 -1.447349e+01 -3.033021e+01 1.253879e+00 -8.173570e+00 -1.733559e+01 -1.515694e+01 1.045628e+00 -2.121658e+01 9.195641e+00 -1.292871e+01 7.167141e+01 1.016659e-01 2.177820e-02 -2.030177e-01 6.304984e-01 -1.966896e-01 3.289289e-01 -4.421082e-01 6.441800e-01 -1.578908e+00 3.802449e-01 -5.489326e-01 -7.900031e-01 -5.478853e-01 -5.669683e-02 -3.999253e-02 1.101429e-01 3.818915e-01 -2.381687e-01 -1.604179e-01 2.339334e-02 1.061816e-01 -3.158474e-01 2.826521e-01 -2.842007e-01 9.741900e-02 -5.783493e-02
<VARIANCE> 39
 4.480822e+00 5.886261e+00 1.061418e+01 3.887870e+01 2.366827e+01 2.817111e+01 2.430670e+01 2.161496e+01 3.838769e+01 4.937794e+01 7.206818e+01 4.913656e+01 4.895089e+00 1.552756e-01 7.409057e-01 6.255481e-01 2.624769e+00 1.764732e+00 1.952886e+00 1.695627e+00 1.517967e+00 2.091062e+00 3.175287e+00 3.469661e+00 3.206301e+00 1.019067e-01 4.502404e-02 9.813362e-02 1.295384e-01 2.589072e-01 1.745881e-01 2.893068e-01 2.165678e-01 2.231737e-01 3.339699e-01 3.302162e-01 4.147341e-01 4.581545e-01 1.364270e-02
<GCONST> 9.058903e+01
<STATE> 3
<MEAN> 39
 1.994465e+00 -1.321271e+00 -1.350787e+01 -1.997201e+01 -3.627619e+00 -1.022978e+01 -2.155375e+01 -1.104100e+01 -1.207191e+01 -1.098112e+01 -1.163413e+00 -1.313708e+01 6.754783e+01 2.302189e-01 1.913244e-01 7.254490e-01 1.797186e+00 -6.374189e-01 -1.103836e+00 -5.865138e-01 -6.542263e-02 -1.659937e+00 1.523192e+00 -1.310285e+00 1.260981e+00 -1.054503e+00 -3.917702e-03 5.908938e-02 3.890668e-01 3.348667e-01 -1.215769e-01 -1.167048e-01 1.147495e-01 -3.386284e-01 3.356818e-01 -2.916186e-01 1.432076e-01 -1.229529e-02 -2.883030e-01
<VARIANCE> 39
 7.922599e+00 1.686829e+01 1.219940e+01 3.815401e+01 3.066443e+01 4.893489e+01 2.567925e+01 1.963993e+01 9.068757e+01 7.051563e+01 8.033669e+01 7.012548e+01 8.504962e+00 3.018770e-01 1.153345e+00 1.325582e+00 3.088183e+00 1.964579e+00 2.995197e+00 2.620483e+00 3.141093e+00 3.361626e+00 3.291107e+00 2.980537e+00 1.809862e+00 3.673963e-01 7.252108e-02 2.153947e-01 2.326339e-01 5.397860e-01 3.548928e-01 6.856432e-01 4.163466e-01 3.926085e-01 3.988008e-01 5.289733e-01 4.277321e-01 5.399359e-01 1.221022e-01
<GCONST> 1.085318e+02
<STATE> 4
<MEAN> 39
 -6.137645e+00 1.698094e-02 -4.047436e+00 -9.561624e+00 -8.957563e+00 -1.134620e+01 -1.678533e+01 -1.314888e+01 -1.043118e+01 -7.743353e+00 -4.717423e+00 -5.331666e+00 5.909725e+01 -9.824964e-01 1.235908e-01 1.006144e+00 8.110043e-01 -4.446624e-01 1.632346e-01 7.608255e-01 1.714622e-01 4.318281e-01 -3.867873e-01 -2.310034e-01 4.260124e-01 -7.402274e-01 1.830399e-02 -1.883121e-01 -2.033147e-01 -1.366174e-01 9.652095e-02 1.342040e-01 1.316490e-02 1.520256e-01 2.019347e-01 -2.484701e-02 7.389146e-02 -1.723220e-01 -1.476961e-02
<VARIANCE> 39
 1.027826e+02 3.220337e+01 2.831694e+01 3.114310e+01 3.271869e+01 4.150264e+01 7.258386e+01 4.508191e+01 6.300465e+01 2.874461e+01 2.996605e+01 3.193595e+01 6.462952e+01 5.698392e+00 3.782231e+00 2.317282e+00 4.078774e+00 2.462055e+00 5.121436e+00 6.833261e+00 3.691938e+00 3.832524e+00 4.608888e+00 2.986191e+00 3.060275e+00 7.960899e+00 1.050486e+00 8.499805e-01 5.074056e-01 6.510517e-01 4.560950e-01 8.931949e-01 9.511335e-01 7.739619e-01 7.934399e-01 8.914336e-01 4.850315e-01 5.206243e-01 8.670197e-01
<GCONST> 1.343521e+02
<TRANSP> 5
 0.000000e+00 1.000000e+00 0.000000e+00 0.000000e+00 0.000000e+00
 0.000000e+00 7.454327e-01 2.545673e-01 0.000000e+00 0.000000e+00
 0.000000e+00 0.000000e+00 7.501657e-01 2.498343e-01 0.000000e+00
 0.000000e+00 0.000000e+00 0.000000e+00 8.371115e-01 1.628885e-01
 0.000000e+00 0.000000e+00 0.000000e+00 0.000000e+00 0.000000e+00
<ENDHMM>
~h "ng"
<BEGINHMM>
<NUMSTATES> 5
<STATE> 2
<MEAN> 39
 3.267930e+00 6.905669e+00 -5.366802e+00 -9.867593e+00 -9.542830e+00 -8.831379e+00 -1.930979e+01 -1.253911e+01 -7.121130e+00 -1.049551e+01 1.249688e+00 -8.666634e+00 5.917625e+01 -5.170193e-01 2.868732e-01 1.014279e+00 1.125175e+00 -4.987889e-01 -4.826226e-01 1.243368e-01 -5.403369e-02 -2.699423e-01 8.910713e-01 -1.064457e+00 2.282846e-01 -7.275129e-01 -1.484918e-01 -1.557858e-01 1.319777e-02 -9.826582e-03 2.017819e-01 2.938360e-02 1.345320e-02 2.624611e-02 1.146577e-01 -2.208150e-01 3.257260e-02 -1.273271e-01 -8.692192e-03
<VARIANCE> 39
 1.012804e+01 1.025929e+01 3.837661e+01 3.767677e+01 2.342512e+01 2.960309e+01 1.830498e+01 1.739535e+01 2.374738e+01 3.349698e+01 3.693054e+01 1.655059e+01 1.331295e+01 1.210119e+00 1.313007e+00 1.099960e+00 1.242672e+00 1.944407e+00 1.725521e+00 1.619602e+00 1.332134e+00 2.609793e+00 2.756222e+00 2.584558e+00 1.956219e+00 5.180453e-01 2.535118e-01 2.195994e-01 1.957821e-01 1.917342e-01 2.964732e-01 3.506268e-01 3.166386e-01 2.706178e-01 5.011309e-01 3.137833e-01 4.455178e-01 3.845082e-01 9.623415e-02
<GCONST> 1.004296e+02
<STATE> 3
<MEAN> 39
 -7.813345e+00 1.325984e+00 1.142539e+00 -2.435573e-01 -5.603265e+00 -7.858421e+00 -1.317220e+01 -9.877329e+00 -8.789275e+00 -9.777120e+00 -7.191212e+00 -7.825556e+00 4.941008e+01 -1.552769e+00 -1.581765e+00 -1.085229e+00 -3.142238e-02 5.846809e-01 9.937786e-01 1.482689e+00 1.062787e+00 4.636142e-01 3.674221e-01 2.866258e-01 6.968768e-01 -8.515830e-01 1.374888e-01 4.842971e-02 -2.472134e-01 -2.629296e-01 -1.812498e-01 -5.667325e-02 -2.288132e-02 5.802684e-02 1.562352e-01 1.937996e-01 2.478114e-01 1.660757e-01 9.418181e-02
<VARIANCE> 39
 1.537266e+01 2.080175e+01 1.919306e+01 1.480074e+01 1.743794e+01 1.969382e+01 3.066955e+01 2.254519e+01 1.780281e+01 2.081133e+01 1.908712e+01 1.821054e+01 5.834353e+00 4.915785e-01 8.150671e-01 1.372609e+00 1.305100e+00 1.764779e+00 1.588377e+00 1.890089e+00 1.206212e+00 1.689506e+00 2.276954e+00 2.794875e+00 2.282377e+00 1.534638e-01 1.097287e-01 2.199009e-01 3.070665e-01 1.456172e-01 2.897696e-01 3.485874e-01 4.132988e-01 2.711010e-01 3.138596e-01 3.976079e-01 4.857586e-01 4.036873e-01 3.063774e-02
<GCONST> 9.334171e+01
<STATE> 4
<MEAN> 39
 -1.451255e+01 -4.761979e+00 -6.910300e+00 -4.320317e+00 -5.735606e+00 -3.850324e+00 -5.821811e+00 -4.200552e+00 -4.160011e+00 -3.666324e+00 -2.820400e+00 -2.048540e+00 4.459441e+01 -4.777690e-02 1.497713e-02 -9.531962e-02 -4.173288e-02 -8.326557e-03 5.592803e-02 6.036728e-02 3.752264e-02 2.999361e-02 9.794308e-02 1.678087e-02 3.351303e-02 -9.681354e-02 2.336884e-02 2.798782e-02 3.907454e-02 1.987362e-02 -2.375842e-05 2.664926e-03 -2.234421e-02 -2.162753e-02 -2.561088e-02 -2.980280e-02 -2.094872e-02 -3.485021e-02 1.382704e-02
<VARIANCE> 39
 1.031171e+00 2.850119e+00 4.234223e+00 5.115449e+00 6.582788e+00 9.034378e+00 1.059082e+01 1.052728e+01 1.086643e+01 1.177651e+01 9.836163e+00 1.038802e+01 1.361345e+00 1.041144e-01 2.835656e-01 4.839723e-01 6.227248e-01 6.958818e-01 1.035938e+00 1.154943e+00 1.228367e+00 1.286806e+00 1.374688e+00 1.175577e+00 1.231618e+00 3.532624e-02 2.507009e-02 7.074864e-02 1.059640e-01 1.276993e-01 1.499686e-01 2.226634e-01 2.240868e-01 2.610216e-01 2.746389e-01 3.008518e-01 2.547473e-01 2.699303e-01 7.384780e-03
<GCONST> 6.036045e+01
<TRANSP> 5
 0.000000e+00 1.000000e+00 0.000000e+00 0.000000e+00 0.000000e+00
 0.000000e+00 9.312568e-01 6.874320e-02 0.000000e+00 0.000000e+00
 0.000000e+00 0.000000e+00 8.643523e-01 1.356477e-01 0.000000e+00
 0.000000e+00 0.000000e+00 0.000000e+00 9.660096e-01 3.399046e-02
 0.000000e+00 0.000000e+00 0.000000e+00 0.000000e+00 0.000000e+00
<ENDHMM>
~h "oh"
<BEGINHMM>
<NUMSTATES> 5
<STATE> 2
<MEAN> 39
 -2.224217e+00 -4.328784e+00 -8.221807e+00 -1.957230e+01 -6.602859e-01 -2.872197e+01 -1.660885e+01 3.199646e+00 -1.859596e+00 -1.517942e+01 1.491771e+00 -9.132945e-01 6.981844e+01 1.141386e-01 -1.010887e-01 -6.628410e-01 -2.282924e-02 1.292771e+00 -1.193845e-01 -1.087124e+00 4.241070e-01 1.286316e+00 8.012124e-01 6.975673e-01 -1.200232e+00 -7.723067e-01 -1.202493e-01 9.689240e-02 1.304605e-01 2.312027e-01 -3.922824e-01 5.076782e-01 2.700243e-01 -2.530660e-01 9.034815e-02 3.607531e-01 2.470907e-02 -1.436871e-01 -2.858761e-01
<VARIANCE> 39
 1.274783e+01 8.872459e+00 1.335839e+01 1.588061e+01 3.856222e+01 5.197477e+01 6.049770e+01 5.006435e+01 4.052825e+01 1.436957e+01 4.426036e+01 4.100168e+01 3.819644e+01 4.778347e-01 8.588898e-01 8.098931e-01 1.007044e+00 2.676023e+00 2.877554e+00 1.022909e+00 1.368114e+00 2.187193e+00 2.297779e+00 1.971179e+00 3.018829e+00 9.603071e-01 9.655993e-02 1.750552e-01 1.556702e-01 3.407304e-01 4.734820e-01 3.020764e-01 3.446204e-01 3.759375e-01 5.019507e-01 2.541889e-01 6.805409e-01 4.608068e-01 3.545943e-01
<GCONST> 1.042751e+02
<STATE> 3
<MEAN> 39
 -3.208896e+00 2.835606e+00 -1.370301e+01 -1.969282e+01 -1.472931e-01 -1.060450e+01 -2.015178e+01 -1.180665e+01 2.620739e+00 -9.906505e+00 3.823112e+00 -9.422578e+00 6.074106e+01 2.185255e-01 6.095780e-01 1.256601e-01 2.851846e-01 -1.703914e-02 1.339091e-01 -1.540742e-01 -5.728831e-01 1.489188e-02 1.385492e-01 -5.147501e-01 -1.695477e-02 8.733896e-02 1.770325e-02 -5.092378e-02 1.294516e-01 1.107887e-01 -2.909118e-02 -2.483203e-02 1.691333e-01 4.643033e-02 -2.416962e-01 -9.249315e-02 -1.128823e-01 3.593049e-02 -8.373616e-02
<VARIANCE> 39
 2.898350e+01 3.015070e+01 2.344909e+01 8.913320e+01 3.260400e+01 4.803871e+01 6.008562e+01 7.260278e+01 7.784600e+01 5.616805e+01 6.373764e+01 3.099340e+01 7.953170e+01 2.710510e+00 1.396772e+00 3.552592e+00 1.173893e+01 3.746095e+00 5.236821e+00 5.365895e+00 5.349252e+00 9.604081e+00 6.002203e+00 9.320831e+00 3.448564e+00 8.396919e+00 4.278626e-01 2.690770e-01 5.222950e-01 1.692428e+00 6.256996e-01 9.138808e-01 1.072091e+00 8.271918e-01 1.946733e+00 1.036648e+00 1.600810e+00 7.702417e-01 1.267921e+00
<GCONST> 1.414128e+02
<STATE> 4
<MEAN> 39
 -2.354392e+00 5.165141e+00 -5.155449e+00 -7.034295e+00 -4.084095e+00 -1.088744e+01 -1.530438e+01 -1.239686e+01 -6.545086e+00 -5.216945e+00 -6.082204e+00 -9.593987e+00 5.322259e+01 -1.257363e+00 -1.425658e+00 2.878495e-01 1.306792e+00 -1.109093e+00 1.527176e+00 1.962322e+00 1.870551e-01 -1.067394e+00 6.764675e-01 5.022371e-01 5.132105e-01 -2.302663e+00 -3.083186e-01 -1.758544e-01 -5.751046e-01 -7.356502e-01 4.880523e-02 -3.814004e-01 -2.483412e-01 1.236738e-01 7.757035e-01 -9.103768e-02 6.082463e-01 3.635947e-01 9.623153e-01
<VARIANCE> 39
 7.391865e+00 1.248449e+01 7.785837e+00 1.300614e+01 9.861947e+00 2.248638e+01 1.321026e+01 1.344477e+01 2.004224e+01 2.094457e+01 1.533686e+01 9.440524e+00 1.377585e+01 4.528900e-01 8.874753e-01 2.348953e+00 2.833641e+00 5.876869e-01 3.376826e+00 3.168641e+00 1.690915e+00 4.058680e+00 1.850135e+00 1.587923e+00 2.275488e+00 2.438277e+00 7.994291e-02 2.601765e-01 4.157660e-01 2.592745e-01 1.114471e-01 7.760969e-01 6.222299e-01 4.226011e-01 5.100778e-01 6.850528e-01 3.524573e-01 2.647105e-01 5.409383e-01
<GCONST> 9.865726e+01
<TRANSP> 5
 0.000000e+00 1.000000e+00 0.000000e+00 0.000000e+00 0.000000e+00
 0.000000e+00 7.917190e-01 2.082810e-01 0.000000e+00 0.000000e+00
 0.000000e+00 0.000000e+00 9.450028e-01 5.499726e-02 0.000000e+00
 0.000000e+00 0.000000e+00 0.000000e+00 7.942548e-01 2.057451e-01
 0.000000e+00 0.000000e+00 0.000000e+00 0.000000e+00 0.000000e+00
<ENDHMM>
~h "ow"
<BEGINHMM>
<NUMSTATES> 5
<STATE> 2
<MEAN> 39
 -8.512802e+00 -2.085308e+00 -1.064569e+01 -1.210659e+01 -6.010253e+00 -7.698183e+00 -1.181625e+01 -8.700483e+00 -2.189864e+00 -2.386846e+00 -1.866621e+00 -3.814741e+00 5.485929e+01 1.075212e+00 1.542587e-01 -9.202663e-01 -2.302789e+00 1.052142e+00 4.767795e-01 -7.587466e-01 -7.642035e-01 1.381334e+00 -2.703259e-01 6.465731e-01 -3.671922e-01 1.418346e+00 3.574754e-01 1.436669e-01 -2.662842e-01 -7.808202e-01 2.313483e-01 2.504033e-02 -3.230093e-01 -3.279636e-01 3.849851e-01 -4.065173e-01 3.147948e-01 -5.504752e-02 8.112827e-01
<VARIANCE> 39
 5.710043e+01 2.736620e+01 2.655731e+01 6.447592e+01 2.788402e+01 4.328960e+01 5.468597e+01 4.284136e+01 6.062991e+01 3.509048e+01 3.453168e+01 2.692939e+01 8.775050e+01 7.173089e+00 2.246842e+00 3.727366e+00 1.186474e+01 3.554884e+00 3.274951e+00 6.197961e+00 4.756880e+00 6.495577e+00 5.564677e+00 5.000524e+00 3.154335e+00 8.359037e+00 7.313672e-01 3.461888e-01 5.457780e-01 1.462931e+00 5.541808e-01 5.935782e-01 1.064192e+00 7.484912e-01 1.144814e+00 8.456097e-01 9.284316e-01 5.358830e-01 1.284429e+00
<GCONST> 1.377628e+02
<STATE> 3
<MEAN> 39
 -7.630461e-01 -1.125452e+00 -1.575113e+01 -2.811359e+01 -1.719959e-01 -7.309501e+00 -1.891912e+01 -1.652413e+01 6.475848e+00 -8.038376e+00 2.367808e+00 -6.520126e+00 7.161867e+01 1.192375e+00 7.652923e-01 -4.375739e-01 -2.482935e+00 1.229943e+00 5.759334e-02 -8.092393e-01 -1.159676e+00 6.538833e-01 -1.785469e+00 7.955647e-01 -4.709342e-02 2.359430e+00 -5.809082e-01 4.148081e-02 4.577684e-01 1.132120e+00 -4.081524e-01 -5.648977e-02 5.390350e-01 5.398207e-01 -6.801374e-01 1.271667e-01 -2.530280e-01 1.176358e-01 -9.591292e-01
<VARIANCE> 39
 8.742779e+00 1.588939e+01 1.508290e+01 2.686254e+01 2.280924e+01 4.373782e+01 2.987015e+01 2.607590e+01 3.387414e+01 4.253561e+01 5.145359e+01 2.614718e+01 2.419735e+01 3.252359e+00 1.663425e+00 2.272064e+00 7.403814e+00 2.949412e+00 2.564254e+00 3.931054e+00 4.038408e+00 5.684512e+00 3.049489e+00 3.793397e+00 2.151205e+00 7.710272e+00 5.562897e-01 3.340850e-01 3.972432e-01 6.541043e-01 4.717453e-01 4.173004e-01 5.481253e-01 6.149566e-01 8.456278e-01 6.990238e-01 7.903423e-01 4.562707e-01 6.241736e-01
<GCONST> 1.223755e+02
<STATE> 4
<MEAN> 39
 1.901600e+00 4.478928e+00 -1.401232e+01 -2.904904e+01 -4.829016e-01 -7.505456e+00 -1.851063e+01 -1.564319e+01 -3.498150e+00 -1.201710e+01 3.435599e+00 -5.523526e+00 6.925648e+01 7.051370e-02 2.086536e-01 1.168018e-01 4.959481e-01 -2.161234e-01 -1.818140e-01 -1.134073e-01 2.208606e-01 -8.328671e-01 7.168505e-02 -1.878405e-01 -2.203440e-02 -7.150028e-01 -8.223263e-02 -1.017894e-01 6.563414e-02 2.645601e-01 -9.768189e-02 -9.203604e-02 -2.047898e-03 4.546937e-02 2.592582e-02 1.497416e-01 -1.149948e-01 -4.715882e-03 -1.069726e-01
<VARIANCE> 39
 6.113884e+00 2.137201e+01 1.040764e+01 2.735694e+01 2.618999e+01 4.223845e+01 3.049468e+01 3.414779e+01 8.635323e+01 5.727214e+01 5.496426e+01 6.708396e+01 2.197014e+01 3.195114e-01 8.038803e-01 8.528274e-01 2.153481e+00 1.372660e+00 1.648880e+00 1.729791e+00 1.713892e+00 2.594501e+00 2.728796e+00 2.837692e+00 2.226219e+00 4.642750e-01 8.349587e-02 9.961236e-02 1.533699e-01 2.803323e-01 2.343549e-01 2.653841e-01 2.913089e-01 3.281038e-01 4.081225e-01 3.972896e-01 3.431434e-01 3.463415e-01 7.799891e-02
<GCONST> 1.005907e+02
<TRANSP> 5
 0.000000e+00 1.000000e+00 0.000000e+00 0.000000e+00 0.000000e+00
