~o
<STREAMINFO> 1 39
<VECSIZE> 39<NULLD><MFCC_D_A_0><DIAGC>
~h "proto"
<BEGINHMM>
<NUMSTATES> 5
<STATE> 2
<MEAN> 39
 -3.864637e-001 -1.276892e+000 6.429603e-001 -4.361009e+000 6.207581e-001 -6.569096e-001 2.480589e+000 -2.788665e+000 -1.313366e-001 6.740692e-001 -3.017518e+000 -1.560625e+000 5.566235e+001 1.460256e-003 4.730462e-004 -4.827005e-004 -7.249162e-004 -6.306474e-004 6.637267e-004 1.647110e-003 -2.088301e-003 9.362018e-005 -1.825078e-003 -1.855212e-003 -1.778467e-003 3.644651e-003 -1.163874e-004 1.333342e-004 -2.520498e-005 -1.577687e-005 1.496438e-004 -1.295793e-004 -2.109938e-004 5.133062e-004 3.661055e-004 6.873756e-005 1.892049e-004 1.713871e-004 -1.179971e-005
<VARIANCE> 39
 4.492153e+001 2.800227e+001 4.004902e+001 7.262168e+001 3.713427e+001 5.923348e+001 3.089855e+001 3.635918e+001 4.011551e+001 3.448929e+001 3.661570e+001 3.404308e+001 7.104830e+001 1.414941e+000 1.002086e+000 1.289929e+000 1.967196e+000 1.588490e+000 1.981885e+000 1.694523e+000 2.165956e+000 1.937736e+000 1.799082e+000 1.821838e+000 1.620020e+000 1.004474e+000 1.865744e-001 1.427446e-001 1.801455e-001 2.748002e-001 2.518953e-001 3.164474e-001 3.122217e-001 3.736564e-001 3.291466e-001 3.174342e-001 3.133416e-001 2.797257e-001 1.262979e-001
<GCONST> 1.081255e+002
<STATE> 3
<MEAN> 39
 -3.864637e-001 -1.276892e+000 6.429603e-001 -4.361009e+000 6.207581e-001 -6.569096e-001 2.480589e+000 -2.788665e+000 -1.313366e-001 6.740692e-001 -3.017518e+000 -1.560625e+000 5.566235e+001 1.460256e-003 4.730462e-004 -4.827005e-004 -7.249162e-004 -6.306474e-004 6.637267e-004 1.647110e-003 -2.088301e-003 9.362018e-005 -1.825078e-003 -1.855212e-003 -1.778467e-003 3.644651e-003 -1.163874e-004 1.333342e-004 -2.520498e-005 -1.577687e-005 1.496438e-004 -1.295793e-004 -2.109938e-004 5.133062e-004 3.661055e-004 6.873756e-005 1.892049e-004 1.713871e-004 -1.179971e-005
<VARIANCE> 39
 4.492153e+001 2.800227e+001 4.004902e+001 7.262168e+001 3.713427e+001 5.923348e+001 3.089855e+001 3.635918e+001 4.011551e+001 3.448929e+001 3.661570e+001 3.404308e+001 7.104830e+001 1.414941e+000 1.002086e+000 1.289929e+000 1.967196e+000 1.588490e+000 1.981885e+000 1.694523e+000 2.165956e+000 1.937736e+000 1.799082e+000 1.821838e+000 1.620020e+000 1.004474e+000 1.865744e-001 1.427446e-001 1.801455e-001 2.748002e-001 2.518953e-001 3.164474e-001 3.122217e-001 3.736564e-001 3.291466e-001 3.174342e-001 3.133416e-001 2.797257e-001 1.262979e-001
<GCONST> 1.081255e+002
<STATE> 4
<MEAN> 39
 -3.864637e-001 -1.276892e+000 6.429603e-001 -4.361009e+000 6.207581e-001 -6.569096e-001 2.480589e+000 -2.788665e+000 -1.313366e-001 6.740692e-001 -3.017518e+000 -1.560625e+000 5.566235e+001 1.460256e-003 4.730462e-004 -4.827005e-004 -7.249162e-004 -6.306474e-004 6.637267e-004 1.647110e-003 -2.088301e-003 9.362018e-005 -1.825078e-003 -1.855212e-003 -1.778467e-003 3.644651e-003 -1.163874e-004 1.333342e-004 -2.520498e-005 -1.577687e-005 1.496438e-004 -1.295793e-004 -2.109938e-004 5.133062e-004 3.661055e-004 6.873756e-005 1.892049e-004 1.713871e-004 -1.179971e-005
<VARIANCE> 39
 4.492153e+001 2.800227e+001 4.004902e+001 7.262168e+001 3.713427e+001 5.923348e+001 3.089855e+001 3.635918e+001 4.011551e+001 3.448929e+001 3.661570e+001 3.404308e+001 7.104830e+001 1.414941e+000 1.002086e+000 1.289929e+000 1.967196e+000 1.588490e+000 1.981885e+000 1.694523e+000 2.165956e+000 1.937736e+000 1.799082e+000 1.821838e+000 1.620020e+000 1.004474e+000 1.865744e-001 1.427446e-001 1.801455e-001 2.748002e-001 2.518953e-001 3.164474e-001 3.122217e-001 3.736564e-001 3.291466e-001 3.174342e-001 3.133416e-001 2.797257e-001 1.262979e-001
<GCONST> 1.081255e+002
<TRANSP> 5
 0.000000e+000 1.000000e+000 0.000000e+000 0.000000e+000 0.000000e+000
 0.000000e+000 6.000000e-001 4.000000e-001 0.000000e+000 0.000000e+000
 0.000000e+000 0.000000e+000 6.000000e-001 4.000000e-001 0.000000e+000
 0.000000e+000 0.000000e+000 0.000000e+000 7.000000e-001 3.000000e-001
 0.000000e+000 0.000000e+000 0.000000e+000 0.000000e+000 0.000000e+000
<ENDHMM>
