~o
<STREAMINFO> 1 39
<VECSIZE> 39<NULLD><MFCC_D_A_0><DIAGC>
~s "silst"
<MEAN> 39
 -3.402573e+000 -1.139593e+000 1.680347e+000 1.492179e+000 2.552802e+000 3.217320e+000 5.047451e+000 -4.271758e+000 1.143171e+000 1.900385e+000 -2.578135e+000 4.045683e-001 4.700097e+001 -3.544063e-002 -2.041753e-002 -3.709770e-002 1.257181e-002 -2.121043e-003 3.033387e-003 2.786342e-002 -1.032933e-002 1.567846e-002 2.942126e-002 3.232225e-002 4.307885e-002 -4.351887e-002 7.241569e-003 8.838831e-003 3.926471e-003 -1.371699e-002 -3.216088e-003 -1.441867e-002 -8.407707e-003 1.150125e-002 -9.806053e-004 -8.412829e-003 1.270843e-003 -5.968577e-003 1.680431e-002
<VARIANCE> 39
 5.022465e+000 6.864996e+000 7.800472e+000 8.523065e+000 1.130031e+001 1.500763e+001 1.524072e+001 2.021104e+001 1.827940e+001 1.818639e+001 1.918165e+001 1.320029e+001 4.552238e+000 1.575567e-001 3.169634e-001 4.863573e-001 6.283067e-001 8.549984e-001 1.077271e+000 1.263373e+000 1.500345e+000 1.464992e+000 1.450102e+000 1.340136e+000 1.169744e+000 1.043085e-001 2.995355e-002 5.745568e-002 9.316335e-002 1.259903e-001 1.751125e-001 2.211685e-001 2.582197e-001 3.011884e-001 3.063289e-001 2.974322e-001 2.716151e-001 2.394021e-001 1.812627e-002
<GCONST> 7.269783e+001
~h "d"
<BEGINHMM>
<NUMSTATES> 5
<STATE> 2
<MEAN> 39
 -2.034690e+000 -7.476254e-001 6.814760e-001 6.644012e-001 6.239470e-001 3.381536e+000 5.830856e+000 -2.535454e+000 4.549593e+000 4.868309e+000 -1.332073e-001 2.225946e+000 4.703223e+001 -4.458223e-001 -2.773854e-001 -2.867038e-001 1.202281e-001 1.620084e-001 5.115289e-001 5.122260e-001 2.452776e-001 1.887116e-001 -7.231772e-002 1.422077e-001 2.076948e-001 -3.917303e-001 7.347400e-002 6.950904e-002 7.121810e-002 -2.433418e-001 1.214641e-001 -2.690786e-001 -3.713610e-001 -1.090105e-001 -4.313433e-001 -2.219210e-001 -1.993743e-001 -1.232772e-001 3.807569e-001
<VARIANCE> 39
 5.889588e+000 4.551511e+000 6.198775e+000 9.409489e+000 1.092570e+001 1.744575e+001 1.630628e+001 2.408758e+001 1.516809e+001 1.671838e+001 1.698400e+001 1.754052e+001 4.892695e+000 6.169581e-001 5.801312e-001 6.427290e-001 9.245735e-001 1.146433e+000 1.364137e+000 2.021938e+000 2.190392e+000 1.929267e+000 1.699441e+000 1.710725e+000 1.531333e+000 7.183398e-001 1.027295e-001 9.311709e-002 1.478812e-001 1.923552e-001 2.128055e-001 3.207425e-001 3.822059e-001 4.272510e-001 2.384911e-001 3.710165e-001 3.486826e-001 2.512626e-001 1.323000e-001
<GCONST> 8.569425e+001
<STATE> 3
<MEAN> 39
 -4.757745e+000 -7.643368e-002 2.450370e+000 1.388909e+000 2.373811e+000 1.808011e+000 5.275856e+000 -4.650012e+000 -2.588752e-001 3.743642e-001 -2.869246e+000 7.391997e-002 4.705196e+001 3.225155e-005 -2.927661e-002 3.358947e-003 -7.685960e-003 7.547916e-002 1.134582e-002 -4.738691e-002 -1.841524e-002 -7.669371e-002 -7.403751e-002 -2.486750e-002 1.298902e-002 1.299416e-002 8.703534e-003 -6.251871e-002 -4.711802e-002 -1.480667e-001 -2.341612e-002 -1.554019e-001 -9.545826e-002 1.075110e-001 2.166699e-002 -1.253972e-002 3.415057e-002 2.248573e-002 2.068807e-001
<VARIANCE> 39
 5.087544e+000 5.295419e+000 5.743506e+000 8.015775e+000 9.657932e+000 1.370034e+001 1.362954e+001 1.705458e+001 1.920570e+001 1.833429e+001 1.815263e+001 1.311641e+001 2.861631e+000 2.809026e-001 5.091625e-001 6.067516e-001 7.361628e-001 9.954561e-001 1.259595e+000 1.366742e+000 1.653295e+000 1.660935e+000 1.876723e+000 1.531105e+000 1.477066e+000 1.870809e-001 7.752874e-002 1.204250e-001 1.314002e-001 2.313653e-001 2.134901e-001 3.428276e-001 3.190868e-001 3.856350e-001 4.032689e-001 4.126158e-001 3.681104e-001 3.210204e-001 2.147637e-001
<GCONST> 8.174556e+001
<STATE> 4
<MEAN> 39
 -5.234364e+000 -2.506773e+000 9.513394e-001 -2.901093e+000 2.229742e+000 5.235525e-001 2.425388e+000 -5.046583e-001 2.348852e+000 1.436356e+000 -3.554232e-001 2.347642e+000 5.231916e+001 3.618385e-001 -4.118298e-001 -2.032788e-001 -1.573509e+000 8.819614e-002 -2.197781e+000 -1.087918e+000 1.269873e+000 -3.500571e-001 -6.527498e-001 -6.876327e-001 -3.707056e-001 2.670542e+000 5.031281e-001 -7.385916e-002 2.406941e-002 -1.607284e-001 5.527147e-002 -2.790079e-001 -3.147767e-002 1.348580e-001 -1.456263e-002 9.685409e-002 -5.791374e-001 -4.903461e-001 3.713526e-001
<VARIANCE> 39
 2.221375e+001 1.281319e+001 1.559484e+001 3.545044e+001 1.800194e+001 3.336293e+001 2.381438e+001 3.694980e+001 2.020459e+001 2.332584e+001 2.221045e+001 1.245029e+001 4.794321e+001 4.207616e+000 1.613583e+000 2.081831e+000 4.128937e+000 2.300795e+000 4.746045e+000 2.553198e+000 4.005164e+000 2.670082e+000 2.620031e+000 3.944628e+000 2.266604e+000 6.082689e+000 6.483274e-001 3.223539e-001 3.801246e-001 5.928909e-001 4.418176e-001 8.032868e-001 4.605309e-001 7.778431e-001 4.701586e-001 5.403052e-001 5.914904e-001 5.249858e-001 1.015746e+000
<GCONST> 1.195504e+002
<TRANSP> 5
 0.000000e+000 1.000000e+000 0.000000e+000 0.000000e+000 0.000000e+000
 0.000000e+000 5.072300e-001 4.927700e-001 0.000000e+000 0.000000e+000
 0.000000e+000 0.000000e+000 8.360883e-001 1.639117e-001 0.000000e+000
 0.000000e+000 0.000000e+000 0.000000e+000 7.581664e-001 2.418336e-001
 0.000000e+000 0.000000e+000 0.000000e+000 0.000000e+000 0.000000e+000
<ENDHMM>
~h "f"
<BEGINHMM>
<NUMSTATES> 5
<STATE> 2
<MEAN> 39
 -1.338614e+000 -8.988258e-001 1.077491e+000 1.178018e+000 3.189569e+000 3.369720e+000 3.592266e+000 -1.540573e+000 1.799303e+000 1.520294e+000 -1.446287e+000 -1.318906e-001 5.176811e+001 -7.315298e-001 -3.237553e-001 4.794794e-002 7.110654e-001 6.827956e-001 2.171822e-001 -1.331436e-001 7.356118e-001 3.357579e-001 4.758139e-002 3.608708e-001 -1.273642e-002 7.756864e-001 -2.125870e-001 -1.164307e-001 -2.944355e-002 -8.758852e-002 -5.102826e-002 -1.031499e-001 -6.494662e-002 1.086823e-001 -1.201402e-003 4.060467e-002 5.779077e-002 6.913792e-002 2.336597e-001
<VARIANCE> 39
 1.835505e+001 1.183332e+001 1.367423e+001 1.609354e+001 1.707668e+001 2.106125e+001 2.016491e+001 2.419992e+001 2.256630e+001 2.158835e+001 1.869633e+001 1.669748e+001 3.442572e+001 2.552945e+000 1.140535e+000 1.301007e+000 2.597314e+000 1.871175e+000 2.255035e+000 1.785768e+000 2.654349e+000 2.288656e+000 1.941479e+000 2.040838e+000 1.507444e+000 1.561489e+000 2.450195e-001 1.651311e-001 1.927377e-001 2.952189e-001 3.258062e-001 3.707984e-001 3.670657e-001 4.278050e-001 3.706325e-001 3.685609e-001 3.110592e-001 2.958682e-001 1.701026e-001
<GCONST> 1.021550e+002
<STATE> 3
<MEAN> 39
 -9.635503e+000 -4.358811e+000 -5.016844e-001 3.140913e+000 3.738882e+000 3.141504e+000 2.123399e+000 3.258984e+000 3.155848e+000 1.794202e+000 5.275826e-001 3.626184e-001 6.061857e+001 -3.388141e-001 -3.063599e-001 -3.426498e-001 -1.084341e-001 -1.148589e-001 3.269702e-002 -3.779277e-002 1.551420e-001 6.922309e-002 9.670136e-002 6.416085e-002 6.129538e-002 2.297641e-001 4.581604e-001 1.597050e-001 -6.169178e-003 -2.859563e-001 -9.579815e-002 -6.064276e-002 -4.640001e-002 -2.160349e-001 -1.359839e-001 -3.411771e-002 -1.091833e-001 -1.439757e-001 -9.200478e-002
<VARIANCE> 39
 9.919551e+000 1.290062e+001 1.373731e+001 1.427475e+001 1.465522e+001 1.469806e+001 1.649925e+001 1.461825e+001 1.637090e+001 1.537573e+001 1.427703e+001 1.388331e+001 1.353999e+001 1.861120e+000 9.147234e-001 9.485339e-001 1.311468e+000 1.429362e+000 1.536723e+000 1.774743e+000 1.675082e+000 1.754107e+000 1.707324e+000 1.641828e+000 1.605526e+000 1.041399e+000 3.236423e-001 2.014000e-001 2.013024e-001 3.962099e-001 3.363192e-001 3.240705e-001 3.844759e-001 3.621917e-001 3.850127e-001 3.637909e-001 3.241129e-001 3.531297e-001 1.198552e-001
<GCONST> 9.512045e+001
<STATE> 4
<MEAN> 39
 1.047137e-001 -1.781870e+000 -2.779834e+000 -5.033150e+000 1.780939e+000 2.725490e+000 1.234148e-002 -4.717859e-001 1.862321e-001 1.927447e+000 -1.283629e+000 -3.588785e+000 6.109945e+001 4.464077e+000 1.629470e+000 -1.412694e+000 -4.832709e+000 -1.323532e+000 5.469380e-001 -1.401760e+000 -1.832535e+000 -1.557961e+000 3.625412e-001 -3.380746e-001 -2.000055e+000 7.924066e-001 -2.181224e-001 -1.322795e-001 -3.993433e-001 -5.543802e-001 -1.183342e-001 3.882790e-001 -3.950915e-002 7.455362e-002 -4.736712e-002 2.521924e-002 1.280318e-001 -1.018105e-001 3.134037e-001
<VARIANCE> 39
 5.937595e+001 1.798380e+001 1.562498e+001 6.525682e+001 1.636653e+001 1.327779e+001 1.716083e+001 2.364326e+001 2.121063e+001 1.904496e+001 1.570662e+001 2.210185e+001 1.267030e+001 1.593889e+000 1.598038e+000 2.178782e+000 4.215419e+000 1.836284e+000 2.384794e+000 1.800330e+000 1.591913e+000 1.976754e+000 2.919715e+000 2.176677e+000 2.849989e+000 8.300717e-001 1.369659e+000 4.587509e-001 2.573789e-001 1.189163e+000 4.135287e-001 3.207437e-001 4.526870e-001 4.965891e-001 4.436810e-001 4.054908e-001 3.304735e-001 4.468467e-001 1.070831e-001
<GCONST> 1.094056e+002
<TRANSP> 5
 0.000000e+000 1.000000e+000 0.000000e+000 0.000000e+000 0.000000e+000
 0.000000e+000 8.060359e-001 1.939642e-001 0.000000e+000 0.000000e+000
 0.000000e+000 0.000000e+000 9.098079e-001 9.019215e-002 0.000000e+000
 0.000000e+000 0.000000e+000 0.000000e+000 6.973292e-001 3.026708e-001
 0.000000e+000 0.000000e+000 0.000000e+000 0.000000e+000 0.000000e+000
<ENDHMM>
~h "k"
<BEGINHMM>
<NUMSTATES> 5
<STATE> 2
<MEAN> 39
 -7.441923e+000 5.601414e-001 -4.605016e+000 2.366802e+000 7.198525e+000 -5.071045e+000 2.996470e+000 -2.888180e+000 3.022613e+000 2.820860e+000 -8.174236e-001 -9.779523e-001 5.588804e+001 -1.797062e+000 -3.998988e-002 -9.360676e-001 1.383824e-001 9.827234e-001 1.210833e+000 1.006863e-001 2.064953e-001 1.624274e+000 1.588528e-001 6.434493e-001 2.001953e-001 3.165924e-001 1.196491e-001 -1.669694e-002 3.687092e-001 -1.596979e-001 -4.072916e-001 -3.524534e-001 -3.827444e-002 2.066796e-001 -4.054173e-001 -2.496747e-002 7.503556e-002 -3.281462e-002 2.561538e-001
<VARIANCE> 39
 3.458085e+001 1.183607e+001 3.325736e+001 2.124917e+001 3.206977e+001 4.228431e+001 2.049568e+001 2.603020e+001 4.082698e+001 2.062452e+001 2.601430e+001 1.854538e+001 2.802565e+001 1.684902e+000 1.180630e+000 6.171164e+000 2.825198e+000 4.153059e+000 5.338021e+000 2.609021e+000 3.389494e+000 5.613917e+000 2.291856e+000 2.370241e+000 2.088866e+000 2.118965e+000 3.617507e-001 2.827113e-001 9.299302e-001 6.601345e-001 6.401166e-001 7.376074e-001 5.171650e-001 6.074086e-001 8.568141e-001 4.796115e-001 5.327378e-001 4.077078e-001 3.793390e-001
<GCONST> 1.196595e+002
<STATE> 3
<MEAN> 39
 -1.413840e+001 3.980480e+000 -3.911837e+000 2.618468e+000 9.177894e+000 -2.827754e+000 3.234552e+000 -2.382429e-001 5.290152e+000 2.999124e+000 1.121757e+000 -1.442765e+000 5.696786e+001 1.966494e-001 1.830054e-001 8.492638e-002 -1.574904e-001 -1.351748e-001 1.227298e-001 1.108752e-001 -3.642961e-002 -1.275267e-001 -9.040799e-002 -9.146578e-002 -1.009265e-001 -1.968573e-001 1.280394e-001 -5.084158e-002 9.390981e-004 -4.308255e-002 -1.341704e-002 1.378695e-002 1.205615e-002 -6.630480e-002 -5.692589e-002 -2.976247e-002 -3.727875e-002 5.203626e-003 -5.879806e-002
<VARIANCE> 39
 1.403805e+001 8.699566e+000 9.767230e+000 1.901933e+001 1.884350e+001 1.861155e+001 1.729561e+001 1.640113e+001 2.003485e+001 1.526518e+001 1.691458e+001 1.527886e+001 2.159193e+001 4.092046e-001 5.545009e-001 6.102307e-001 7.789410e-001 9.764385e-001 1.421501e+000 1.341199e+000 1.474758e+000 1.604266e+000 1.481302e+000 1.296025e+000 1.356432e+000 3.040318e-001 6.938927e-002 7.820413e-002 1.044301e-001 1.455255e-001 2.149674e-001 3.015249e-001 2.946382e-001 2.848266e-001 3.384655e-001 3.194872e-001 2.715015e-001 2.872592e-001 3.361937e-002
<GCONST> 8.380126e+001
<STATE> 4
<MEAN> 39
 -4.066634e+000 -2.835582e+000 -8.805356e-001 2.996688e-001 3.639982e+000 9.731754e-001 4.812899e+000 -3.107584e-001 4.964916e+000 3.807137e+000 3.366692e-001 1.400119e+000 5.055641e+001 1.013442e-001 2.616627e-002 3.471235e-003 3.286297e-002 -3.212195e-002 6.176664e-002 4.201427e-002 3.622495e-002 -1.065198e-001 2.514254e-002 -7.837307e-002 4.697522e-003 -3.827405e-002 -2.914880e-003 1.462144e-002 1.301034e-002 -1.227580e-002 5.508757e-002 -8.002682e-003 -8.428445e-003 -5.691914e-003 -1.169607e-002 -2.048148e-002 -9.807480e-004 -5.814278e-003 1.012869e-002
<VARIANCE> 39
 1.926006e+001 1.646575e+001 8.896449e+000 1.037726e+001 1.863116e+001 1.839004e+001 1.722580e+001 1.918125e+001 1.681917e+001 2.166849e+001 1.417857e+001 1.286374e+001 1.755513e+001 3.253697e-001 4.025971e-001 4.738705e-001 6.564111e-001 9.472406e-001 1.235821e+000 1.505047e+000 1.490317e+000 1.315051e+000 1.589103e+000 1.201327e+000 1.050471e+000 2.533575e-001 5.817828e-002 6.477664e-002 1.039832e-001 1.337724e-001 1.846029e-001 2.314887e-001 3.172310e-001 2.928708e-001 2.691461e-001 3.257437e-001 2.496365e-001 2.227274e-001 3.494211e-002
<GCONST> 8.086747e+001
<TRANSP> 5
 0.000000e+000 1.000000e+000 0.000000e+000 0.000000e+000 0.000000e+000
 0.000000e+000 8.228287e-001 1.771713e-001 0.000000e+000 0.000000e+000
 0.000000e+000 0.000000e+000 8.164024e-001 1.835976e-001 0.000000e+000
 0.000000e+000 0.000000e+000 0.000000e+000 8.049606e-001 1.950394e-001
 0.000000e+000 0.000000e+000 0.000000e+000 0.000000e+000 0.000000e+000
<ENDHMM>
~h "l"
<BEGINHMM>
<NUMSTATES> 5
<STATE> 2
<MEAN> 39
 7.119001e-001 -2.389146e+000 3.297740e+000 -6.114100e+000 2.196171e+000 -7.076294e+000 -3.311239e+000 -3.492883e+000 -2.793683e-001 4.088226e+000 -6.228911e+000 2.441623e-001 6.122503e+001 -3.900588e-001 -4.387418e-001 -1.319623e-001 -3.189097e-001 2.730374e-001 -5.073804e-001 -6.422600e-001 5.180280e-001 9.822894e-001 -2.140339e-001 -9.272128e-002 -1.080066e-001 1.038230e+000 6.657363e-002 -1.626036e-002 -9.105573e-002 -1.598168e-001 2.418860e-002 2.600249e-001 2.713361e-001 3.018516e-002 -1.411545e-001 -1.297953e-001 9.316982e-002 -1.796895e-001 -3.865630e-002
<VARIANCE> 39
 3.077134e+001 2.500581e+001 5.368708e+001 4.178989e+001 3.258448e+001 5.604870e+001 6.868763e+001 6.883173e+001 8.347159e+001 4.362879e+001 4.765961e+001 2.720685e+001 4.621272e+001 7.692382e-001 1.800957e+000 3.130758e+000 2.715582e+000 2.964954e+000 4.281397e+000 4.049387e+000 3.602926e+000 3.938820e+000 3.944898e+000 3.861813e+000 3.095046e+000 4.239662e+000 1.678587e-001 2.908072e-001 5.123950e-001 4.339371e-001 5.531386e-001 8.264878e-001 7.773314e-001 6.565996e-001 9.830061e-001 6.779426e-001 6.657303e-001 6.684125e-001 7.305836e-001
<GCONST> 1.280595e+002
<STATE> 3
<MEAN> 39
 2.202759e+000 -5.767610e+000 -1.417336e+000 -1.152017e+001 5.910413e+000 -4.642533e+000 1.628821e+000 -1.160883e+000 5.405009e-001 1.282745e+000 -5.757133e+000 -6.518573e+000 6.580365e+001 1.280233e+000 5.946381e-001 -5.940646e-001 -1.661936e+000 1.331479e-001 8.116173e-001 1.537728e-001 -1.476431e+000 -1.706522e+000 3.914334e-001 -1.783114e-001 -1.068925e+000 3.758633e-001 -4.415321e-002 1.502236e-001 8.012909e-003 -7.322179e-002 -2.181756e-001 2.530898e-002 -1.667384e-001 -1.447520e-001 -1.138626e-001 1.186202e-001 1.765195e-002 3.855440e-001 3.196850e-003
<VARIANCE> 39
 2.619500e+001 1.916789e+001 6.266451e+001 3.646396e+001 4.887999e+001 7.527273e+001 4.859104e+001 3.996637e+001 5.063464e+001 3.491209e+001 4.095985e+001 4.769872e+001 9.027379e+000 2.113434e+000 2.180648e+000 2.057909e+000 2.559115e+000 3.095081e+000 3.212960e+000 3.728305e+000 3.451062e+000 4.304974e+000 3.122629e+000 2.488413e+000 5.209383e+000 8.444948e-001 4.442243e-001 3.937014e-001 2.331904e-001 3.782444e-001 3.702550e-001 4.776205e-001 5.273073e-001 8.593053e-001 7.967016e-001 5.352443e-001 5.350067e-001 6.080239e-001 1.310498e-001
<GCONST> 1.209965e+002
<STATE> 4
<MEAN> 39
 6.135800e+000 -1.488880e+000 -2.087380e+000 -1.958076e+001 3.565667e+000 -3.202427e+000 -1.578420e+000 -6.031405e+000 -5.557131e+000 2.857231e+000 -7.343544e+000 -3.715242e+000 6.606738e+001 -3.973095e-003 4.050734e-001 -1.134649e-002 4.840619e-002 -9.856889e-002 3.126784e-001 -7.971038e-002 -3.047068e-001 -1.272776e-001 -1.535594e-001 2.131177e-001 3.138127e-001 -3.066917e-001 -8.068904e-002 -1.948099e-002 2.658155e-002 2.613078e-001 1.907460e-002 6.949617e-003 7.673299e-002 1.110479e-001 9.782525e-002 -6.033203e-002 2.041614e-002 -3.660396e-002 -5.057501e-002
<VARIANCE> 39
 6.524000e+000 2.671137e+001 7.824752e+001 5.029465e+001 3.991771e+001 8.589579e+001 3.686520e+001 3.204070e+001 3.764264e+001 3.388396e+001 3.311829e+001 3.388452e+001 1.448503e+001 2.158564e-001 7.813068e-001 1.170633e+000 1.958080e+000 1.386443e+000 1.961519e+000 1.564817e+000 1.844691e+000 1.803295e+000 1.766769e+000 1.534652e+000 1.574774e+000 3.956038e-001 7.206719e-002 1.157512e-001 1.357705e-001 2.328284e-001 1.975023e-001 2.462840e-001 2.200616e-001 3.233725e-001 2.673628e-001 2.632563e-001 2.283299e-001 2.588024e-001 5.288060e-002
<GCONST> 9.707205e+001
<TRANSP> 5
 0.000000e+000 1.000000e+000 0.000000e+000 0.000000e+000 0.000000e+000
 0.000000e+000 7.319251e-001 2.680748e-001 0.000000e+000 0.000000e+000
 0.000000e+000 0.000000e+000 5.686414e-001 4.313585e-001 0.000000e+000
 0.000000e+000 0.000000e+000 0.000000e+000 8.822309e-001 1.177691e-001
 0.000000e+000 0.000000e+000 0.000000e+000 0.000000e+000 0.000000e+000
<ENDHMM>
~h "n"
<BEGINHMM>
<NUMSTATES> 5
<STATE> 2
<MEAN> 39
 4.361770e+000 -5.419421e+000 5.856416e+000 -8.479084e+000 -4.634285e+000 -9.985110e+000 5.131666e+000 -5.220690e-001 -5.994890e+000 -4.628488e+000 -8.697880e+000 -1.315459e+000 6.323402e+001 -4.174362e-002 1.382835e+000 1.728182e+000 3.258539e-001 -8.421137e-001 -4.788994e-001 -6.388754e-001 -6.712021e-001 -8.739640e-001 7.888795e-001 4.069360e-001 7.884378e-001 -8.647507e-001 2.662644e-004 2.210842e-001 -2.089015e-001 1.393946e-001 3.074676e-001 2.756522e-001 -3.708473e-001 -3.934602e-001 1.717724e-001 1.438894e-001 6.162634e-003 -3.236611e-001 -1.052833e-001
<VARIANCE> 39
 8.732121e+000 2.612369e+001 3.047001e+001 2.586730e+001 2.357211e+001 3.386106e+001 2.943002e+001 3.537755e+001 2.366706e+001 5.201814e+001 2.948334e+001 3.051221e+001 2.595442e+001 3.597291e-001 1.068994e+000 1.221853e+000 9.804541e-001 1.910754e+000 1.983265e+000 2.694608e+000 2.635579e+000 1.720146e+000 1.915364e+000 2.107135e+000 1.702162e+000 4.355541e-001 6.815511e-002 1.206903e-001 2.841664e-001 1.955253e-001 3.247218e-001 2.881292e-001 3.513696e-001 3.769857e-001 2.897151e-001 3.283900e-001 3.367575e-001 3.269021e-001 5.894371e-002
<GCONST> 9.926570e+001
<STATE> 3
<MEAN> 39
 4.513850e+000 2.245460e+000 9.561171e+000 -5.458127e+000 -3.775916e+000 -7.676620e+000 -7.867413e-001 -7.087082e+000 -8.145820e+000 2.790022e-001 -6.839889e+000 -2.652370e+000 5.787817e+001 2.646650e-001 1.214327e+000 -1.606880e-001 1.559801e+000 3.996010e-001 1.422170e-001 -7.246897e-001 -1.822064e+000 5.520862e-001 1.204552e+000 -5.442675e-001 -9.533764e-001 -9.905421e-001 -3.348259e-002 -3.048709e-001 -3.452357e-001 6.131392e-002 -7.913391e-003 2.648470e-004 3.249498e-001 1.361429e-001 3.830608e-001 -4.121758e-002 -1.183284e-001 -6.474476e-002 1.159827e-001
<VARIANCE> 39
 1.072818e+001 1.335006e+001 2.641884e+001 3.440804e+001 2.132198e+001 4.133955e+001 3.468228e+001 3.797040e+001 2.666506e+001 5.107294e+001 3.704753e+001 3.299272e+001 2.076707e+001 9.510186e-001 1.168329e+000 2.568608e+000 2.024659e+000 1.750354e+000 3.671746e+000 2.961423e+000 3.229300e+000 2.178509e+000 1.967157e+000 2.541402e+000 2.313516e+000 1.142548e+000 1.352891e-001 1.817809e-001 3.056364e-001 3.736657e-001 2.751405e-001 4.312471e-001 4.465897e-001 4.921162e-001 3.999963e-001 3.772222e-001 3.890597e-001 3.925807e-001 9.575555e-002
<GCONST> 1.083716e+002
<STATE> 4
<MEAN> 39
 6.007476e+000 4.198929e+000 7.337121e+000 -2.074407e+000 -3.120654e+000 -7.355111e+000 -1.344673e+000 -1.350002e+001 -6.282425e+000 6.740182e+000 -1.438429e+001 -5.767107e+000 5.654664e+001 -3.089188e-001 -8.746761e-003 -1.479460e-001 4.777549e-001 3.013781e-001 5.277533e-001 3.370196e-001 1.425792e-001 5.764500e-001 -5.595414e-002 2.204839e-001 5.796737e-002 -3.702163e-001 -1.527844e-001 -1.833107e-001 -1.557299e-001 -1.732477e-001 1.327410e-001 1.614939e-001 6.504005e-002 4.310957e-001 7.362377e-003 -2.161973e-001 2.962264e-001 1.180359e-001 6.077018e-002
<VARIANCE> 39
 5.923234e+000 6.564320e+000 8.789366e+000 3.054052e+001 1.879616e+001 3.173735e+001 3.206373e+001 2.984957e+001 2.211230e+001 3.983881e+001 4.854722e+001 1.986933e+001 1.579955e+001 5.314399e-001 6.399306e-001 9.019951e-001 1.199020e+000 1.302542e+000 2.170828e+000 1.634967e+000 2.397161e+000 1.428744e+000 1.919524e+000 2.564627e+000 1.407191e+000 4.517461e-001 1.069943e-001 1.134985e-001 1.857308e-001 2.071898e-001 2.463492e-001 3.005903e-001 3.085148e-001 3.978152e-001 2.537826e-001 3.839650e-001 3.699218e-001 2.634813e-001 6.505650e-002
<GCONST> 9.374232e+001
<TRANSP> 5
 0.000000e+000 1.000000e+000 0.000000e+000 0.000000e+000 0.000000e+000
 0.000000e+000 6.304868e-001 3.695132e-001 0.000000e+000 0.000000e+000
 0.000000e+000 0.000000e+000 6.023463e-001 3.976537e-001 0.000000e+000
 0.000000e+000 0.000000e+000 0.000000e+000 8.325611e-001 1.674388e-001
 0.000000e+000 0.000000e+000 0.000000e+000 0.000000e+000 0.000000e+000
<ENDHMM>
~h "r"
<BEGINHMM>
<NUMSTATES> 5
<STATE> 2
<MEAN> 39
 1.057696e+001 -6.585454e+000 -5.662599e-001 9.309365e-001 -9.313949e+000 -8.309746e+000 -2.452090e+000 -8.276373e+000 -1.305229e-002 5.579464e+000 -1.886150e+000 -7.249501e+000 6.214522e+001 1.002382e+000 -6.625144e-001 -7.463164e-001 8.579687e-001 -1.119371e+000 -6.719710e-001 8.107907e-001 -5.704458e-001 -1.627492e+000 3.614650e-001 9.254354e-001 2.790651e-001 -2.557158e-001 -5.035577e-001 3.283549e-001 1.704286e-001 -5.951116e-001 6.373350e-001 1.088158e-001 -1.065433e-001 5.848553e-001 2.013415e-001 -3.836628e-001 -6.708700e-002 2.942728e-001 6.590006e-002
<VARIANCE> 39
 5.913974e+000 7.047788e+000 3.997316e+001 1.626422e+001 1.177187e+001 2.815546e+001 1.546971e+001 1.871530e+001 1.277698e+001 1.399490e+001 2.498745e+001 1.156627e+001 8.588824e+000 6.459814e-001 1.100987e+000 1.149436e+000 2.841954e+000 1.553481e+000 2.277328e+000 1.272452e+000 1.586781e+000 1.214818e+000 1.183644e+000 1.198123e+000 1.187764e+000 2.120399e-001 1.620518e-001 1.074210e-001 2.404690e-001 2.903712e-001 3.626720e-001 3.042023e-001 2.754445e-001 3.809562e-001 2.718286e-001 2.194350e-001 3.173332e-001 1.884989e-001 3.641789e-002
<GCONST> 8.821374e+001
<STATE> 3
<MEAN> 39
 1.203216e+001 -7.117085e+000 -3.831970e+000 -1.380204e+000 -1.117732e+001 -6.474684e+000 -1.607381e+000 -9.521329e+000 -2.569307e+000 5.557031e+000 8.727317e-001 -5.552405e+000 6.270933e+001 -1.433216e-001 4.512824e-002 7.321737e-001 -1.224620e+000 -4.445732e-001 3.352089e-001 7.446235e-002 7.711871e-003 -2.026560e-001 -3.255382e-001 -1.658373e-001 8.635157e-001 9.367657e-002 -2.699206e-001 9.673025e-002 4.303974e-001 -4.064686e-001 1.095060e-001 -5.125824e-002 -9.428398e-002 3.438434e-001 2.503619e-001 -3.323458e-001 -3.043449e-001 1.767442e-001 8.252823e-002
<VARIANCE> 39
 3.339398e+000 6.807898e+000 3.983340e+001 1.635471e+001 1.468481e+001 4.748211e+001 2.455828e+001 1.984792e+001 1.704322e+001 1.362057e+001 2.606340e+001 1.579136e+001 7.395377e+000 2.555245e-001 7.104055e-001 9.232571e-001 9.642324e-001 5.943753e-001 1.507944e+000 1.312219e+000 2.179006e+000 1.979275e+000 9.899666e-001 1.290022e+000 1.074230e+000 3.217355e-001 4.395240e-002 5.817237e-002 9.390166e-002 1.171461e-001 1.380365e-001 1.993170e-001 1.980597e-001 2.191344e-001 2.814773e-001 1.790289e-001 2.471086e-001 1.911652e-001 2.155006e-002
<GCONST> 7.938113e+001
<STATE> 4
<MEAN> 39
 1.067468e+001 -4.920555e+000 -1.393593e+000 -8.746614e+000 -1.330314e+001 -2.510202e+000 3.977227e-001 -9.701211e+000 -2.292649e+000 1.714693e+000 -9.286788e-001 -1.771694e+000 6.278235e+001 -6.548588e-001 7.877142e-001 1.362248e+000 -2.214126e+000 5.003710e-001 -2.868628e-001 -2.881857e-001 1.530787e+000 -5.453190e-001 -1.500976e+000 -4.277261e-001 1.367451e+000 -1.727435e-002 -1.363644e-001 1.452854e-001 -1.458708e-002 1.279711e-001 3.241999e-001 -3.651810e-001 -8.605097e-002 3.259811e-001 -2.434772e-001 -5.964501e-002 2.200220e-001 -1.759165e-001 -2.240366e-002
<VARIANCE> 39
 5.073768e+000 2.521321e+001 5.697089e+001 3.355835e+001 2.037387e+001 1.130551e+002 4.863634e+001 6.144566e+001 3.095198e+001 2.106267e+001 2.474345e+001 1.838265e+001 9.049888e+000 3.679951e-001 8.850411e-001 8.538703e-001 1.041598e+000 1.625585e+000 2.738195e+000 2.034520e+000 2.501782e+000 2.120029e+000 1.570226e+000 1.842744e+000 1.462576e+000 5.395233e-001 2.738863e-002 8.888230e-002 8.596876e-002 1.796505e-001 2.023137e-001 1.620527e-001 5.231110e-001 4.941364e-001 3.671531e-001 2.744261e-001 2.544697e-001 3.178346e-001 2.658978e-002
<GCONST> 9.469390e+001
<TRANSP> 5
 0.000000e+000 1.000000e+000 0.000000e+000 0.000000e+000 0.000000e+000
 0.000000e+000 5.328846e-001 4.671154e-001 0.000000e+000 0.000000e+000
 0.000000e+000 0.000000e+000 6.952263e-001 3.047737e-001 0.000000e+000
 0.000000e+000 0.000000e+000 0.000000e+000 6.229755e-001 3.770246e-001
 0.000000e+000 0.000000e+000 0.000000e+000 0.000000e+000 0.000000e+000
<ENDHMM>
~h "s"
<BEGINHMM>
<NUMSTATES> 5
<STATE> 2
<MEAN> 39
 -4.822701e+000 1.925978e+000 -1.058881e-001 -1.994080e+000 5.984737e+000 -1.592633e+000 2.142560e+000 -4.803886e-001 2.649188e-001 1.143390e+000 -1.345444e+000 -2.023985e+000 5.764578e+001 -2.340929e+000 1.438703e-001 -5.606596e-001 8.267575e-001 1.026569e+000 -1.206895e-001 9.189861e-002 1.555608e+000 8.778005e-001 -2.585352e-001 1.177534e+000 2.176564e-001 4.544619e-001 -7.067406e-002 -3.580659e-002 -7.911139e-002 -1.455127e-001 -2.370375e-001 -1.197438e-001 -9.377730e-003 -8.534244e-002 -8.196176e-003 7.418276e-002 -6.933363e-002 1.376927e-001 6.345799e-002
<VARIANCE> 39
 4.872047e+001 1.610545e+001 1.845177e+001 3.969602e+001 4.274125e+001 2.585052e+001 3.164152e+001 3.847266e+001 3.040815e+001 2.982829e+001 3.281358e+001 2.324151e+001 3.768575e+001 3.663774e+000 1.250415e+000 1.915722e+000 3.745821e+000 2.826913e+000 3.238094e+000 2.320523e+000 2.964107e+000 2.589837e+000 2.658292e+000 3.522826e+000 2.328802e+000 1.140716e+000 5.865109e-001 2.349800e-001 2.414794e-001 5.133170e-001 4.535452e-001 5.253590e-001 3.918822e-001 6.402844e-001 4.321054e-001 4.540808e-001 5.193909e-001 4.269236e-001 1.382416e-001
<GCONST> 1.159276e+002
<STATE> 3
<MEAN> 39
 -1.527774e+001 3.785365e+000 -4.219968e+000 5.154329e-001 5.760795e+000 -2.703800e+000 3.987648e+000 3.139864e+000 3.364849e+000 1.272115e-001 1.946283e+000 9.079449e-001 5.957295e+001 -1.837729e-001 9.270559e-002 -1.188919e-001 -1.010034e-001 -1.294669e-001 -3.406818e-002 1.967271e-001 2.266308e-002 1.067414e-001 -8.727812e-002 -7.967063e-002 1.707756e-001 -4.446507e-002 3.510633e-001 -4.693274e-002 1.816712e-001 -1.030539e-001 -3.152242e-002 -5.886995e-002 -6.408086e-002 -7.029012e-002 -6.535120e-002 -3.147287e-002 -1.615349e-001 -1.138800e-001 -4.045793e-002
<VARIANCE> 39
 5.934825e+000 9.833306e+000 1.144964e+001 1.585842e+001 3.089139e+001 1.664273e+001 2.004783e+001 1.869041e+001 1.730096e+001 1.880772e+001 1.449978e+001 1.655262e+001 1.567471e+001 7.002874e-001 6.546660e-001 9.430162e-001 1.165743e+000 1.365096e+000 1.369930e+000 1.510809e+000 1.671089e+000 1.642775e+000 1.657807e+000 1.395397e+000 1.521243e+000 3.405298e-001 2.088999e-001 1.125805e-001 1.756684e-001 2.161422e-001 2.551641e-001 3.186668e-001 3.061240e-001 3.436295e-001 3.369709e-001 3.354858e-001 3.123136e-001 3.041667e-001 6.059942e-002
<GCONST> 8.955634e+001
<STATE> 4
<MEAN> 39
 -1.168107e+001 3.309309e+000 -1.584680e+000 -1.012185e+000 6.644480e+000 -3.702773e+000 3.834163e+000 3.134151e+000 3.544904e+000 2.009492e-001 -6.126823e-001 -5.404392e-001 5.846774e+001 2.852676e+000 -4.856267e-001 1.088227e+000 -8.432655e-001 -8.819999e-001 -1.029360e+000 -8.706287e-001 -5.439932e-001 -3.755342e-001 1.968066e-002 -1.295293e+000 -6.908237e-001 -2.844969e-001 7.225001e-001 -2.717074e-001 1.496612e-002 -2.068436e-001 -4.892007e-001 -3.268282e-001 -3.050634e-001 -2.679123e-001 -1.339408e-001 1.844044e-001 -2.516622e-001 -9.550053e-002 1.984897e-001
<VARIANCE> 39
 2.694713e+001 1.021045e+001 1.549686e+001 1.936526e+001 2.881445e+001 2.095476e+001 2.501724e+001 2.830532e+001 2.031454e+001 2.193495e+001 1.918073e+001 1.894006e+001 2.152740e+001 3.824609e+000 1.247139e+000 1.210111e+000 2.201949e+000 2.279166e+000 4.509905e+000 2.202353e+000 2.435730e+000 1.942570e+000 1.955249e+000 3.424443e+000 2.084267e+000 2.633440e+000 6.220151e-001 1.967217e-001 2.922520e-001 3.827270e-001 3.543188e-001 5.629088e-001 4.787717e-001 5.727583e-001 4.546234e-001 4.021516e-001 5.032459e-001 3.850858e-001 3.136769e-001
<GCONST> 1.101519e+002
<TRANSP> 5
 0.000000e+000 1.000000e+000 0.000000e+000 0.000000e+000 0.000000e+000
 0.000000e+000 7.453263e-001 2.546737e-001 0.000000e+000 0.000000e+000
 0.000000e+000 0.000000e+000 8.624574e-001 1.375426e-001 0.000000e+000
 0.000000e+000 0.000000e+000 0.000000e+000 5.429643e-001 4.570358e-001
 0.000000e+000 0.000000e+000 0.000000e+000 0.000000e+000 0.000000e+000
<ENDHMM>
~h "t"
<BEGINHMM>
<NUMSTATES> 5
<STATE> 2
<MEAN> 39
 -1.190857e+000 -3.618713e-001 2.440431e+000 -1.801659e+000 1.410830e+000 -1.708669e+000 3.387825e+000 -2.200334e+000 3.447011e-002 8.164947e-002 -4.144576e+000 2.351811e-001 5.313537e+001 -9.730216e-001 -1.663858e-001 8.868976e-002 3.065102e-001 3.427354e-002 9.510571e-001 -1.550655e-001 1.997795e-001 5.248012e-001 3.119153e-001 1.029283e+000 3.821562e-001 -7.986304e-001 -2.605078e-001 -2.135448e-001 -8.306226e-002 -4.194422e-001 -5.213612e-002 -6.855799e-002 -1.275070e-001 1.877570e-001 -3.204522e-002 -1.767745e-001 1.477384e-001 2.612324e-002 5.801872e-001
<VARIANCE> 39
 2.155931e+001 1.531505e+001 1.456896e+001 2.848889e+001 1.785148e+001 5.961259e+001 3.216839e+001 3.248998e+001 2.676854e+001 3.162888e+001 4.070720e+001 1.752196e+001 5.502974e+001 2.057439e+000 3.334061e+000 1.924480e+000 4.967095e+000 2.304904e+000 4.365670e+000 3.855556e+000 3.007752e+000 2.760012e+000 2.643753e+000 2.735654e+000 1.849676e+000 6.033168e+000 4.175889e-001 3.551024e-001 3.291402e-001 6.160836e-001 4.111747e-001 9.827818e-001 7.501895e-001 6.144872e-001 4.809409e-001 4.512169e-001 5.291916e-001 3.744506e-001 9.772069e-001
<GCONST> 1.207406e+002
<STATE> 3
<MEAN> 39
 -9.413319e+000 -4.822308e+000 1.826161e+000 -9.262305e+000 -4.198208e-001 2.286168e-001 -9.623039e-001 2.182828e+000 2.222983e+000 -9.955985e-001 2.499406e+000 2.916873e+000 6.050987e+001 -2.136605e+000 6.544399e-001 5.376616e-001 -9.569657e-001 -1.461376e-001 -8.041523e-001 -1.081795e+000 1.848388e+000 6.047452e-001 -9.455843e-001 6.486245e-001 6.692493e-001 3.016836e+000 4.077583e-001 6.210135e-001 4.558997e-001 1.096382e+000 3.672258e-001 -1.085475e-002 3.705678e-001 -6.213770e-002 1.318156e-001 3.202282e-002 -5.221402e-001 -1.175340e-001 -5.837755e-001
<VARIANCE> 39
 1.890558e+001 2.982440e+001 1.941019e+001 1.820712e+001 2.896021e+001 2.891248e+001 2.065677e+001 1.966479e+001 1.923811e+001 1.797601e+001 1.577598e+001 1.575413e+001 2.285551e+001 2.887337e+000 3.075857e+000 2.902192e+000 5.114385e+000 3.153992e+000 3.227952e+000 2.957639e+000 3.105617e+000 3.031661e+000 2.373598e+000 2.553718e+000 1.790424e+000 3.404892e+000 7.124577e-001 7.592217e-001 4.648927e-001 7.079325e-001 7.739993e-001 5.474022e-001 4.513500e-001 5.358996e-001 3.729889e-001 4.868217e-001 3.220613e-001 4.212451e-001 6.377481e-001
<GCONST> 1.170883e+002
<STATE> 4
<MEAN> 39
 -1.187426e+001 -1.705996e+000 5.976034e+000 -4.780566e+000 1.449209e+000 6.561592e-001 -5.733883e-002 5.712832e+000 5.045088e+000 -2.272265e+000 1.337879e+000 4.488484e+000 6.075993e+001 1.150642e+000 9.816097e-002 6.406876e-001 1.240425e+000 2.883905e-001 -1.815884e-001 6.245136e-003 -1.742948e-001 3.467055e-001 -9.561732e-003 -7.167668e-001 -2.865658e-001 -2.965988e-001 5.157079e-001 -1.016984e-001 -2.492327e-001 5.063564e-002 2.401846e-002 7.390747e-003 2.051031e-003 -4.276029e-001 -1.811031e-001 1.777715e-001 -1.260198e-001 -2.701311e-001 -3.310970e-001
<VARIANCE> 39
 3.151608e+001 1.765281e+001 2.629922e+001 2.722881e+001 2.524803e+001 4.259457e+001 2.977828e+001 2.700212e+001 4.203454e+001 2.235147e+001 2.258049e+001 1.853907e+001 2.674704e+001 3.098233e+000 2.073063e+000 2.460841e+000 3.311488e+000 2.711272e+000 2.510358e+000 2.085682e+000 2.627430e+000 2.694135e+000 2.105055e+000 1.946839e+000 2.261554e+000 1.164075e+000 5.522967e-001 2.978636e-001 3.291022e-001 4.082594e-001 3.627086e-001 4.362367e-001 4.319572e-001 6.278761e-001 5.259284e-001 4.226312e-001 3.493513e-001 3.883362e-001 2.445640e-001
<GCONST> 1.134874e+002
<TRANSP> 5
 0.000000e+000 1.000000e+000 0.000000e+000 0.000000e+000 0.000000e+000
 0.000000e+000 8.549855e-001 1.450145e-001 0.000000e+000 0.000000e+000
 0.000000e+000 0.000000e+000 6.469931e-001 3.530069e-001 0.000000e+000
 0.000000e+000 0.000000e+000 0.000000e+000 7.896594e-001 2.103406e-001
 0.000000e+000 0.000000e+000 0.000000e+000 0.000000e+000 0.000000e+000
<ENDHMM>
~h "v"
<BEGINHMM>
<NUMSTATES> 5
<STATE> 2
<MEAN> 39
 5.400306e+000 -7.688378e+000 -6.832594e-001 -6.702872e+000 -2.227865e+000 -9.137069e+000 1.155405e+000 -1.640537e-001 2.029248e+000 -4.053147e+000 -6.912941e+000 -6.054599e+000 6.450439e+001 4.114805e-001 6.650270e-001 3.519285e-001 4.857508e-001 -2.432577e-001 -9.299445e-002 -8.807135e-001 -2.580322e-001 2.735383e-001 8.033035e-001 2.201527e-001 2.344695e-001 -7.429338e-001 -1.116237e-001 1.564583e-001 -1.966276e-002 7.500295e-002 2.315056e-001 2.493363e-001 -1.129161e-001 -2.360049e-001 -1.457062e-001 1.725068e-001 2.940511e-002 -2.393793e-002 -8.284149e-002
<VARIANCE> 39
 1.740426e+001 1.653354e+001 2.448362e+001 3.043654e+001 2.388028e+001 3.886370e+001 3.383094e+001 2.394175e+001 1.838012e+001 3.933579e+001 2.167649e+001 4.173816e+001 2.010893e+001 1.119151e+000 1.382116e+000 1.090757e+000 1.424768e+000 1.831231e+000 2.183906e+000 1.918585e+000 2.045764e+000 1.376544e+000 1.879593e+000 1.302613e+000 2.040267e+000 1.147775e+000 2.476023e-001 1.652163e-001 1.326255e-001 1.913057e-001 2.348693e-001 3.575608e-001 3.052605e-001 2.837804e-001 2.287352e-001 3.244064e-001 2.246533e-001 3.503092e-001 1.059344e-001
<GCONST> 1.003898e+002
<STATE> 3
<MEAN> 39
 6.779869e+000 -5.182460e+000 1.662230e+000 -8.177001e+000 -2.948796e+000 -1.010034e+001 -4.275402e+000 -2.168544e+000 9.109237e-001 1.612373e+000 -6.268766e+000 -6.668656e+000 6.392327e+001 -1.623830e-001 5.570953e-001 -2.157315e-002 3.381318e-001 3.876389e-001 5.656386e-001 -4.605631e-004 -3.022713e-001 -5.063653e-001 2.582483e-001 -7.624283e-002 -3.556506e-001 -3.820341e-001 -1.671516e-001 2.028557e-001 9.259182e-002 2.024502e-001 7.826666e-002 1.812432e-001 1.725940e-001 -1.750535e-001 -3.333317e-001 -6.880785e-002 6.076699e-002 1.010438e-001 -1.422074e-001
<VARIANCE> 39
 7.631768e+000 9.124607e+000 4.117332e+001 1.693788e+001 1.437364e+001 3.497673e+001 1.682457e+001 2.830370e+001 4.163083e+001 2.366525e+001 1.788187e+001 5.989880e+001 1.141743e+001 6.255462e-001 1.439672e+000 1.238956e+000 1.136431e+000 1.030956e+000 2.383841e+000 1.556669e+000 3.234357e+000 2.114585e+000 1.884205e+000 2.222118e+000 1.870316e+000 9.267015e-001 1.357369e-001 1.273291e-001 1.180625e-001 1.375670e-001 1.470349e-001 2.263860e-001 2.429028e-001 4.182424e-001 2.836372e-001 3.132024e-001 2.511483e-001 2.496419e-001 1.184014e-001
<GCONST> 9.545036e+001
<STATE> 4
<MEAN> 39
 3.043741e+000 -3.924427e-001 9.528642e-001 -2.318891e+000 7.659726e-001 -2.147330e+000 -1.945577e+000 -5.528281e+000 -2.074759e+000 9.384017e-001 -4.058577e+000 -6.617332e+000 5.791946e+001 -4.877712e-001 4.670064e-001 3.090064e-001 4.403383e-001 1.989049e-001 4.194685e-001 3.710502e-001 -2.744875e-001 -5.172902e-001 3.031593e-001 -2.680154e-002 4.011085e-001 -4.965478e-001 -7.279325e-003 -9.636392e-002 2.875640e-002 -5.349456e-002 -1.053789e-001 -1.602833e-001 9.646740e-002 8.066194e-002 9.557550e-002 -2.223785e-002 -1.037525e-001 1.052221e-001 6.068518e-002
<VARIANCE> 39
 2.970306e+001 1.360806e+001 1.209100e+001 2.969986e+001 1.682164e+001 2.067413e+001 1.945477e+001 2.381544e+001 2.397272e+001 2.630327e+001 2.107899e+001 3.458416e+001 1.759574e+001 1.015687e+000 1.034015e+000 8.511013e-001 1.235751e+000 1.179011e+000 1.516507e+000 1.264686e+000 2.185043e+000 1.997807e+000 1.807437e+000 1.772030e+000 1.393545e+000 4.306464e-001 1.246123e-001 1.676946e-001 1.469396e-001 1.809733e-001 2.178192e-001 2.659864e-001 2.445033e-001 3.843969e-001 2.742558e-001 3.089757e-001 2.789395e-001 2.574751e-001 8.153774e-002
<GCONST> 9.418435e+001
<TRANSP> 5
 0.000000e+000 1.000000e+000 0.000000e+000 0.000000e+000 0.000000e+000
 0.000000e+000 6.976484e-001 3.023516e-001 0.000000e+000 0.000000e+000
 0.000000e+000 0.000000e+000 6.889494e-001 3.110506e-001 0.000000e+000
 0.000000e+000 0.000000e+000 0.000000e+000 8.132300e-001 1.867700e-001
 0.000000e+000 0.000000e+000 0.000000e+000 0.000000e+000 0.000000e+000
<ENDHMM>
~h "w"
<BEGINHMM>
<NUMSTATES> 5
<STATE> 2
<MEAN> 39
 2.899389e+000 2.173875e+000 1.113488e+000 -3.946676e+000 -1.009044e+000 1.276209e+000 3.933326e-001 -4.170036e+000 7.567234e-002 1.838449e+000 -2.298866e+000 -2.521962e+000 5.269712e+001 1.093427e+000 7.633794e-001 -7.089863e-001 -1.223526e+000 -7.850724e-001 6.734279e-001 1.276083e-001 -6.482762e-001 -9.041967e-001 -8.953404e-001 1.520743e-001 -7.372366e-002 -1.152761e-002 1.968792e-001 1.557913e-001 1.188655e-002 -5.348533e-001 -4.241538e-001 -1.283609e-001 2.125437e-002 9.229048e-002 -3.414999e-001 -3.259425e-001 -5.349593e-002 7.050839e-002 2.429399e-001
<VARIANCE> 39
 2.172327e+001 1.414928e+001 1.187160e+001 5.339391e+001 4.988584e+001 3.586079e+001 3.520088e+001 3.063211e+001 3.882717e+001 2.907156e+001 3.094084e+001 1.885366e+001 4.353131e+001 2.284813e+000 1.681482e+000 1.876123e+000 3.462887e+000 4.478517e+000 3.591121e+000 3.459479e+000 2.851611e+000 3.509698e+000 3.163319e+000 2.649557e+000 1.993609e+000 1.709952e+000 2.124585e-001 1.808898e-001 3.019756e-001 5.144979e-001 5.463316e-001 3.808112e-001 6.590314e-001 5.827051e-001 4.241986e-001 6.554171e-001 5.042921e-001 3.819336e-001 1.548038e-001
<GCONST> 1.159521e+002
<STATE> 3
<MEAN> 39
 9.978327e+000 6.297473e+000 -8.361676e-001 -1.314497e+001 -7.631366e+000 3.756287e-001 3.284813e-002 -6.762593e+000 -7.249577e+000 -3.167685e+000 -2.759961e+000 -2.896443e+000 5.689245e+001 8.277534e-001 4.431451e-001 -4.635840e-001 -1.967448e+000 -1.068473e+000 4.300221e-001 7.248728e-002 4.934731e-001 -7.098624e-001 -1.086912e+000 2.363066e-001 -2.631198e-001 5.081950e-001 -3.210404e-001 -4.309180e-001 9.823939e-004 1.759282e-001 3.798579e-001 -3.548400e-003 -1.510206e-001 2.100434e-001 4.415988e-001 3.146073e-001 1.315477e-001 -1.807648e-001 1.564549e-001
<VARIANCE> 39
 3.357716e+000 8.444398e+000 7.676764e+000 2.756824e+001 1.601268e+001 1.269582e+001 2.049796e+001 1.814413e+001 2.078445e+001 2.184387e+001 2.878111e+001 2.052106e+001 8.924478e+000 9.577086e-001 1.200665e+000 1.064725e+000 3.390267e+000 2.198185e+000 1.825047e+000 2.827218e+000 2.148272e+000 2.353377e+000 2.567525e+000 3.114026e+000 2.043457e+000 1.605076e+000 1.663316e-001 1.458798e-001 2.284440e-001 3.414157e-001 3.522750e-001 4.178903e-001 3.438271e-001 4.316851e-001 3.292837e-001 4.182026e-001 5.875762e-001 3.637862e-001 9.118946e-002
<GCONST> 9.902347e+001
<STATE> 4
<MEAN> 39
 1.087440e+001 4.423410e+000 -4.360957e+000 -1.949123e+001 -8.151309e+000 4.264632e+000 -3.138238e-001 -5.173965e+000 -5.278055e+000 -5.111242e+000 1.742431e+000 -5.385139e+000 6.022504e+001 -3.043175e-001 -1.067221e+000 -1.107639e+000 -9.512706e-001 6.680372e-001 1.107437e+000 -4.195403e-001 -2.879095e-001 7.281592e-001 4.182606e-001 9.555196e-001 -9.413863e-001 1.139304e+000 -2.439377e-001 -2.313824e-001 -3.927382e-002 3.216978e-001 3.634705e-001 -3.918474e-002 -1.488746e-002 -1.193976e-001 1.872823e-001 2.492665e-001 -3.154053e-001 -2.836049e-001 9.471224e-002
<VARIANCE> 39
 2.333802e+000 8.150706e+000 1.212147e+001 2.185741e+001 1.214585e+001 1.637393e+001 1.297418e+001 1.603298e+001 2.111885e+001 1.926992e+001 2.418050e+001 1.913989e+001 8.253463e+000 3.435507e-001 7.721525e-001 7.597190e-001 9.853511e-001 1.077121e+000 1.091295e+000 9.070424e-001 1.210944e+000 1.079296e+000 1.674045e+000 1.941438e+000 1.931562e+000 5.172536e-001 5.037281e-002 5.197258e-002 1.025036e-001 2.528823e-001 1.273116e-001 2.147271e-001 1.723346e-001 2.167373e-001 2.164339e-001 2.376396e-001 5.141465e-001 2.829481e-001 5.824718e-002
<GCONST> 8.075911e+001
<TRANSP> 5
 0.000000e+000 1.000000e+000 0.000000e+000 0.000000e+000 0.000000e+000
 0.000000e+000 6.686690e-001 3.313310e-001 0.000000e+000 0.000000e+000
 0.000000e+000 0.000000e+000 6.910619e-001 3.089381e-001 0.000000e+000
 0.000000e+000 0.000000e+000 0.000000e+000 7.493073e-001 2.506927e-001
 0.000000e+000 0.000000e+000 0.000000e+000 0.000000e+000 0.000000e+000
<ENDHMM>
~h "y"
<BEGINHMM>
<NUMSTATES> 5
<STATE> 2
<MEAN> 39
 3.325387e-001 1.731784e+000 1.351607e+001 -4.092953e+000 -1.739750e+000 -9.314286e+000 -5.615841e+000 -6.000583e+000 -7.785445e+000 -5.164881e-001 -3.224940e+000 1.168008e-001 6.173481e+001 -3.173882e-001 3.775262e-001 2.119890e+000 -5.792004e-001 -3.356741e-001 -5.805035e-001 -4.412723e-002 2.027395e-001 -1.024895e+000 -7.726712e-001 -1.891147e-001 8.072429e-001 1.436977e-001 1.755486e-002 1.011505e-001 2.928267e-002 -2.300636e-001 6.194904e-002 7.965364e-002 -6.062619e-002 5.784121e-002 -3.911517e-002 -1.067915e-001 -6.654227e-002 1.008134e-001 -2.684020e-002
<VARIANCE> 39
 1.899902e+001 2.243252e+001 5.203579e+001 3.294921e+001 2.585009e+001 3.181955e+001 2.180066e+001 1.948490e+001 4.485565e+001 4.461772e+001 2.128010e+001 1.641251e+001 1.552991e+001 9.679049e-001 1.410417e+000 2.631206e+000 2.527657e+000 2.096181e+000 2.599152e+000 2.089232e+000 2.422702e+000 2.783470e+000 2.762350e+000 2.265696e+000 1.945714e+000 4.905683e-001 1.551791e-001 3.189340e-001 6.099246e-001 3.560566e-001 4.891375e-001 5.627776e-001 4.569350e-001 5.006839e-001 6.465933e-001 5.057410e-001 3.532546e-001 2.953857e-001 9.619804e-002
<GCONST> 1.094601e+002
<STATE> 3
<MEAN> 39
 -2.929550e-001 2.497375e+000 2.094621e+001 -1.058629e+001 -3.724387e+000 -1.348292e+001 -8.266828e+000 -2.760574e+000 -1.012297e+001 -5.044508e+000 -4.809458e+000 6.794322e+000 6.411942e+001 2.953884e-001 -8.574932e-001 -1.019063e+000 -5.808672e-001 -5.558966e-001 -7.876290e-001 -3.391899e-002 8.171544e-001 1.030261e+000 1.936503e-001 -1.598609e-001 2.992653e-001 6.042504e-001 1.121903e-001 -2.463107e-001 -4.865310e-001 1.524376e-002 6.442830e-003 8.435857e-003 1.794259e-001 1.544478e-001 2.516535e-001 2.171108e-001 -1.403885e-001 -2.835369e-001 7.734086e-002
<VARIANCE> 39
 3.433981e+000 2.018011e+001 1.351064e+001 1.018519e+001 2.142754e+001 2.022952e+001 1.294241e+001 1.099379e+001 2.877258e+001 1.914162e+001 1.325427e+001 1.343614e+001 1.255720e+001 4.289805e-001 1.776000e+000 2.405951e+000 6.664653e-001 1.635010e+000 1.153358e+000 1.265871e+000 1.592505e+000 2.120456e+000 1.806681e+000 1.165332e+000 1.460834e+000 5.509906e-001 4.033292e-002 1.301140e-001 1.402259e-001 1.375564e-001 3.785027e-001 2.593916e-001 1.884610e-001 2.564978e-001 2.988966e-001 2.408071e-001 2.773736e-001 3.362236e-001 6.578800e-002
<GCONST> 8.643453e+001
<STATE> 4
<MEAN> 39
 3.833340e+000 -8.595041e+000 1.497529e+000 -1.594972e+001 -1.488078e+000 -1.384418e+001 -3.028573e+000 3.945898e+000 -3.076342e-001 -1.173892e+000 -1.313518e+001 -1.355024e+000 6.966267e+001 2.842867e-001 -8.057306e-001 -2.744946e+000 -3.437901e-001 2.234139e+000 1.674452e+000 9.921936e-001 -1.008611e+000 4.674703e-001 -4.268622e-002 -1.134280e+000 -2.057542e+000 2.775876e-001 -1.084461e-001 2.839389e-001 2.924995e-001 1.544916e-001 2.437640e-001 2.663784e-001 -9.091966e-002 -7.404560e-001 -3.286016e-001 -1.794932e-001 4.308319e-001 1.830295e-001 -1.152021e-001
<VARIANCE> 39
 1.986679e+000 8.777953e+000 3.662552e+001 1.536406e+001 3.632177e+001 2.546280e+001 2.023194e+001 2.537070e+001 1.595159e+001 1.383917e+001 3.372026e+001 3.937470e+001 4.000575e+000 2.221532e-001 6.801627e-001 1.063230e+000 7.077214e-001 1.074838e+000 1.344862e+000 1.019866e+000 5.915853e+000 1.512566e+000 1.320957e+000 3.621976e+000 2.067406e+000 1.313647e-001 1.874434e-002 4.472409e-002 1.215530e-001 1.075426e-001 3.437682e-001 2.964860e-001 1.831944e-001 5.509669e-001 2.617257e-001 2.278303e-001 5.515133e-001 5.070763e-001 1.351317e-002
<GCONST> 8.418507e+001
<TRANSP> 5
 0.000000e+000 1.000000e+000 0.000000e+000 0.000000e+000 0.000000e+000
 0.000000e+000 8.765849e-001 1.234151e-001 0.000000e+000 0.000000e+000
 0.000000e+000 0.000000e+000 8.936509e-001 1.063491e-001 0.000000e+000
 0.000000e+000 0.000000e+000 0.000000e+000 8.495879e-001 1.504122e-001
 0.000000e+000 0.000000e+000 0.000000e+000 0.000000e+000 0.000000e+000
<ENDHMM>
~h "z"
<BEGINHMM>
<NUMSTATES> 5
<STATE> 2
<MEAN> 39
 2.323449e+000 3.504831e+000 3.883118e+000 -2.208742e+000 2.430867e+000 -7.881994e+000 -9.106787e-001 -5.720609e+000 -3.393188e+000 1.826064e+000 -3.953216e+000 -2.316425e+000 5.665997e+001 -7.075027e-001 1.186732e+000 3.467000e-002 1.033313e+000 7.473128e-001 -4.330631e-001 -4.963436e-001 -3.254321e-001 4.159037e-001 -3.746653e-001 1.253683e-001 -3.089043e-001 1.543150e-001 -3.493100e-001 7.877002e-002 -1.300550e-001 -2.804249e-002 -2.197007e-002 2.882720e-001 2.102896e-001 1.727121e-001 1.105391e-001 -1.930676e-001 1.007211e-001 1.197727e-001 -2.197155e-002
<VARIANCE> 39
 2.028082e+001 1.153771e+001 2.091516e+001 5.663935e+001 2.206824e+001 4.536411e+001 3.639664e+001 2.122144e+001 3.207088e+001 3.473811e+001 2.572430e+001 1.793443e+001 2.760643e+001 2.336957e+000 1.285586e+000 1.899466e+000 2.285434e+000 1.811008e+000 3.601998e+000 1.919960e+000 1.682604e+000 2.188834e+000 2.167654e+000 1.812609e+000 1.648490e+000 1.546207e+000 2.464204e-001 2.209526e-001 2.415801e-001 2.464053e-001 2.267948e-001 4.779205e-001 3.116653e-001 3.320324e-001 3.374219e-001 3.763725e-001 2.959940e-001 3.099784e-001 1.128284e-001
<GCONST> 1.060833e+002
<STATE> 3
<MEAN> 39
 -4.355535e+000 8.429339e+000 2.904279e+000 1.588085e+000 5.255555e+000 -6.654930e+000 -3.487564e-001 -5.324373e+000 -1.230366e+000 -1.061333e+000 -3.076154e+000 -2.023398e+000 5.721957e+001 -1.398869e+000 4.468569e-001 -3.375781e-001 4.902301e-001 4.132546e-001 6.257989e-001 8.130201e-001 5.520959e-001 6.080194e-001 -5.450824e-001 2.192756e-001 2.858812e-001 -9.857161e-002 3.490882e-001 -3.162101e-001 8.764619e-002 -3.378119e-001 -2.880616e-001 -3.371109e-001 5.157439e-002 1.214006e-001 -9.211845e-002 1.028712e-001 -3.520307e-002 4.329843e-003 1.579273e-001
<VARIANCE> 39
 1.557607e+001 7.745680e+000 1.147815e+001 1.906798e+001 2.105816e+001 2.826473e+001 2.094559e+001 1.670301e+001 2.077735e+001 1.982634e+001 1.518138e+001 1.373247e+001 1.432562e+001 1.680667e+000 6.858961e-001 1.138589e+000 1.425753e+000 1.102293e+000 2.653203e+000 1.782278e+000 1.837572e+000 1.666170e+000 2.005862e+000 1.366390e+000 1.048505e+000 4.510010e-001 1.356021e-001 1.260310e-001 1.539943e-001 1.816072e-001 2.047536e-001 3.725865e-001 3.653069e-001 2.950825e-001 2.737930e-001 3.002307e-001 2.457768e-001 1.842798e-001 8.116186e-002
<GCONST> 9.123242e+001
<STATE> 4
<MEAN> 39
 -7.657814e+000 5.074707e+000 -2.223673e-002 1.099343e+000 5.266485e+000 -2.268627e+000 4.719903e+000 -1.601409e-001 2.354895e+000 -3.217806e-001 -4.241593e-001 4.116407e-001 5.569564e+001 5.295881e-001 1.494791e-002 4.119010e-001 -2.013358e-001 -5.965992e-001 -1.323789e+000 -4.334240e-001 -1.251729e-002 -2.583298e-001 -1.859710e-001 -2.374129e-001 -2.024840e-001 4.701543e-001 5.865996e-001 -2.181467e-001 3.602390e-001 -1.007579e-001 -3.707634e-001 -5.633622e-001 -3.763829e-001 -1.829630e-001 -3.458090e-001 8.609575e-002 -1.421506e-001 -1.043803e-001 1.515997e-001
<VARIANCE> 39
 2.323818e+001 3.890054e+001 1.429991e+001 1.550301e+001 2.199929e+001 3.666627e+001 2.429540e+001 2.529815e+001 1.861271e+001 2.902459e+001 1.896725e+001 1.710110e+001 2.246562e+001 2.644209e+000 1.111604e+000 1.697300e+000 1.223498e+000 1.755568e+000 3.140121e+000 2.506971e+000 2.898248e+000 2.252851e+000 1.715155e+000 1.575366e+000 1.734084e+000 6.245554e-001 2.251149e-001 3.185880e-001 2.711137e-001 2.635457e-001 3.728873e-001 5.496117e-001 4.255444e-001 4.826066e-001 3.825625e-001 4.177691e-001 3.037150e-001 3.181359e-001 1.141522e-001
<GCONST> 1.047876e+002
<TRANSP> 5
 0.000000e+000 1.000000e+000 0.000000e+000 0.000000e+000 0.000000e+000
 0.000000e+000 7.396879e-001 2.603121e-001 0.000000e+000 0.000000e+000
 0.000000e+000 0.000000e+000 7.211769e-001 2.788230e-001 0.000000e+000
 0.000000e+000 0.000000e+000 0.000000e+000 7.623125e-001 2.376874e-001
 0.000000e+000 0.000000e+000 0.000000e+000 0.000000e+000 0.000000e+000
<ENDHMM>
~h "ah"
<BEGINHMM>
<NUMSTATES> 5
<STATE> 2
<MEAN> 39
 6.446012e+000 -4.434778e+000 -9.765869e+000 -1.931794e+001 7.362041e-001 7.452378e+000 -1.900528e+000 -6.957129e+000 -1.321251e-001 -4.293370e-001 -1.120283e+000 -1.342124e+001 6.679689e+001 -7.736293e-001 -1.257336e+000 -3.146873e-001 9.775717e-001 1.635533e+000 -5.917041e-001 3.705339e-002 3.616049e-002 6.578539e-001 2.869772e-001 -1.846841e+000 -1.024925e+000 6.692404e-001 6.462130e-002 1.551625e-001 3.010293e-001 2.540388e-001 -1.863845e-001 -4.542227e-001 1.791310e-001 1.600660e-001 -1.107347e-001 -3.391685e-001 -2.364932e-001 4.355076e-001 -2.162754e-001
<VARIANCE> 39
 4.713932e+000 1.145803e+001 1.115146e+001 1.634461e+001 2.177248e+001 2.495766e+001 9.833026e+000 1.579115e+001 1.512454e+001 2.683817e+001 4.032233e+001 1.988758e+001 7.420447e+000 2.700073e-001 6.331553e-001 5.979587e-001 5.752332e-001 5.930727e-001 1.681636e+000 6.098072e-001 1.326941e+000 1.046448e+000 1.569250e+000 1.807896e+000 1.587231e+000 3.591871e-001 4.620438e-002 5.131521e-002 8.831204e-002 1.227424e-001 1.261423e-001 1.714125e-001 1.342170e-001 1.599108e-001 1.460334e-001 2.705719e-001 3.786036e-001 2.217323e-001 3.284869e-002
<GCONST> 7.702158e+001
<STATE> 3
<MEAN> 39
 3.711902e+000 -8.849121e+000 -7.731197e+000 -1.163814e+001 5.597656e+000 -1.076401e+000 7.827236e-001 -4.794965e+000 1.363982e+000 -4.660067e+000 -1.009840e+001 -1.160193e+001 6.768379e+001 -1.112498e-001 -4.050796e-001 9.100208e-001 9.707864e-001 -2.745663e-001 -1.430509e+000 7.284088e-001 6.039895e-001 -2.217219e-001 -1.188830e+000 -3.604511e-001 9.919876e-001 -1.562310e-001 1.019252e-001 1.471675e-001 2.355459e-001 -1.040423e-001 -3.860971e-001 2.809347e-003 7.957409e-002 1.277298e-001 -2.161000e-001 -2.571983e-002 3.733054e-001 2.094295e-001 -1.186172e-001
<VARIANCE> 39
 3.584871e+000 7.224637e+000 1.194746e+001 1.754693e+001 1.184124e+001 1.886493e+001 8.904638e+000 1.718642e+001 1.175395e+001 1.838344e+001 1.530498e+001 1.992507e+001 8.020107e+000 2.525853e-001 3.454849e-001 7.733126e-001 4.443072e-001 1.006291e+000 1.583201e+000 8.062636e-001 9.039295e-001 6.081599e-001 1.124834e+000 1.441110e+000 9.634847e-001 1.571014e-001 4.391779e-002 5.636574e-002 6.170265e-002 6.076369e-002 8.959643e-002 1.042205e-001 1.020155e-001 1.210936e-001 1.145063e-001 1.800141e-001 1.659013e-001 1.653748e-001 2.612794e-002
<GCONST> 6.685654e+001
<STATE> 4
<MEAN> 39
 4.134979e+000 -9.927900e+000 5.932920e-001 -9.124575e+000 -5.385130e-001 -8.873195e+000 5.456298e+000 2.283544e-001 -2.487751e+000 -9.606789e+000 -8.757965e+000 -4.985048e+000 6.642620e+001 1.750448e-001 8.634539e-001 2.111953e+000 3.602835e-001 -1.725053e+000 -9.805940e-001 5.968254e-001 6.346108e-001 -1.473080e+000 1.951140e-002 1.073978e+000 1.783711e+000 -8.541949e-001 2.556081e-002 4.828255e-001 4.408523e-002 -7.636698e-002 7.076625e-002 4.051424e-001 -5.381526e-001 -2.811068e-001 -1.978116e-001 6.794578e-001 1.241450e-001 -2.169126e-001 -2.216752e-001
<VARIANCE> 39
 3.506269e+000 6.989636e+000 2.152951e+001 1.998145e+001 2.312079e+001 1.786908e+001 1.275805e+001 1.630760e+001 1.413111e+001 1.455609e+001 2.022190e+001 1.950288e+001 1.120867e+001 3.123880e-001 6.919618e-001 1.316539e+000 4.046490e-001 8.668622e-001 1.541069e+000 1.403196e+000 1.065251e+000 1.006646e+000 1.946757e+000 9.613446e-001 1.784070e+000 2.614028e-001 4.906956e-002 8.346424e-002 1.071845e-001 8.462206e-002 2.062522e-001 1.896613e-001 2.234527e-001 2.171131e-001 2.201730e-001 2.358878e-001 1.840009e-001 2.755849e-001 4.014554e-002
<GCONST> 7.880075e+001
<TRANSP> 5
 0.000000e+000 1.000000e+000 0.000000e+000 0.000000e+000 0.000000e+000
 0.000000e+000 7.854674e-001 2.145326e-001 0.000000e+000 0.000000e+000
 0.000000e+000 0.000000e+000 8.147750e-001 1.852249e-001 0.000000e+000
 0.000000e+000 0.000000e+000 0.000000e+000 6.618700e-001 3.381300e-001
 0.000000e+000 0.000000e+000 0.000000e+000 0.000000e+000 0.000000e+000
<ENDHMM>
~h "ao"
<BEGINHMM>
<NUMSTATES> 5
<STATE> 2
<MEAN> 39
 6.536689e+000 1.904160e+000 -9.548667e+000 -2.051707e+001 -2.481937e+000 8.547158e+000 -1.266675e-001 -3.835974e+000 -2.708282e+000 -9.200051e-001 -9.411214e-002 -5.322734e+000 6.235147e+001 -8.718816e-002 1.929599e-001 -8.345270e-001 -2.133468e+000 -3.175696e-001 1.101474e+000 3.255770e-001 2.892118e-001 -2.349480e-002 -1.208616e+000 1.974098e-001 -2.162284e-001 6.018189e-001 -6.303971e-001 -2.878949e-001 4.624293e-001 9.331490e-001 4.143417e-001 -3.214718e-001 2.722837e-001 3.274285e-001 2.624394e-001 -2.059354e-001 -1.230538e-001 2.141912e-001 -1.880487e-001
<VARIANCE> 39
 1.676175e+001 1.060176e+001 2.323379e+001 7.818575e+001 2.893698e+001 1.547394e+001 1.970462e+001 1.607136e+001 1.901560e+001 3.069187e+001 1.541927e+001 2.700520e+001 4.119901e+001 8.724349e-001 5.760805e-001 1.321856e+000 3.413724e+000 1.375953e+000 1.152928e+000 1.197091e+000 1.312582e+000 1.235130e+000 1.806136e+000 1.257164e+000 1.082048e+000 4.143474e-001 5.092853e-001 2.506130e-001 1.644068e-001 5.280896e-001 2.560882e-001 1.691451e-001 2.478378e-001 2.767318e-001 2.815230e-001 3.132242e-001 2.340218e-001 2.660694e-001 5.840997e-002
<GCONST> 9.593835e+001
<STATE> 3
<MEAN> 39
 6.452294e+000 4.199874e+000 -1.011852e+001 -2.709384e+001 -2.837082e+000 8.967424e+000 2.700545e+000 -2.703204e-001 -2.211829e+000 -9.034679e+000 -8.319820e-001 -5.190918e+000 6.264643e+001 9.927300e-002 2.619176e-001 3.063092e-001 -8.818863e-002 -2.609567e-001 -1.981767e-001 5.172045e-002 3.476488e-001 -8.272688e-002 -2.582057e-001 -4.104234e-002 1.284860e-002 -2.840948e-001 3.308648e-002 -3.934335e-003 5.874502e-002 1.151736e-001 -6.056366e-003 -8.906228e-002 -3.694089e-002 -2.813797e-002 -3.791592e-002 1.341116e-001 -3.167588e-002 -5.145234e-003 -4.148904e-002
<VARIANCE> 39
 6.650375e+000 1.004115e+001 1.451399e+001 3.688361e+001 4.662712e+001 1.719516e+001 1.703127e+001 2.807693e+001 1.853907e+001 2.605791e+001 1.119612e+001 2.150007e+001 1.836305e+001 1.931863e-001 2.677065e-001 4.172938e-001 5.785071e-001 5.543451e-001 6.562876e-001 6.466681e-001 7.080404e-001 7.281532e-001 9.422006e-001 5.924262e-001 7.163789e-001 1.558079e-001 2.987252e-002 4.588739e-002 5.937290e-002 8.816422e-002 8.826362e-002 1.035110e-001 1.131893e-001 1.211345e-001 1.093766e-001 1.227828e-001 9.922738e-002 9.291286e-002 2.771421e-002
<GCONST> 6.691146e+001
<STATE> 4
<MEAN> 39
 7.461764e+000 6.017638e+000 -2.121113e+000 -1.660657e+001 -4.573611e+000 3.792287e+000 3.340520e+000 6.946046e-001 -4.009044e+000 -4.494542e+000 -3.874663e+000 -5.160846e+000 5.564186e+001 -4.074193e-001 -3.252774e-001 6.695982e-001 2.045093e+000 7.112841e-001 -4.191409e-001 2.949849e-001 -5.490396e-001 1.951526e-001 1.110276e+000 -2.402366e-001 2.474183e-001 -6.745796e-001 -1.948635e-001 -1.400405e-001 -7.170326e-002 1.047038e-001 1.438867e-001 5.295970e-002 -3.402686e-002 -7.439621e-002 1.940721e-001 7.549629e-002 7.739589e-002 8.922052e-002 5.813107e-002
<VARIANCE> 39
 1.313448e+001 8.135829e+000 1.488120e+001 1.007517e+002 3.043551e+001 2.268099e+001 2.824998e+001 2.373225e+001 3.149309e+001 2.822072e+001 2.067045e+001 2.597916e+001 2.168139e+001 6.240216e-001 5.587358e-001 7.964379e-001 2.204927e+000 1.781244e+000 1.662327e+000 1.437400e+000 1.813423e+000 1.810629e+000 1.668108e+000 1.702006e+000 1.508703e+000 3.178278e-001 6.603623e-002 6.801953e-002 1.514811e-001 3.855909e-001 2.405516e-001 2.823314e-001 3.127127e-001 2.917215e-001 2.583265e-001 2.942303e-001 3.150912e-001 2.683669e-001 7.474088e-002
<GCONST> 9.434338e+001
<TRANSP> 5
 0.000000e+000 1.000000e+000 0.000000e+000 0.000000e+000 0.000000e+000
 0.000000e+000 5.827329e-001 4.172672e-001 0.000000e+000 0.000000e+000
 0.000000e+000 0.000000e+000 9.177044e-001 8.229562e-002 0.000000e+000
 0.000000e+000 0.000000e+000 0.000000e+000 8.353180e-001 1.646820e-001
 0.000000e+000 0.000000e+000 0.000000e+000 0.000000e+000 0.000000e+000
<ENDHMM>
~h "ax"
<BEGINHMM>
<NUMSTATES> 5
<STATE> 2
<MEAN> 39
 5.104025e+000 -1.147833e+001 -1.950940e+000 -1.174958e+001 4.174790e+000 -6.345984e+000 4.955681e+000 1.023908e+000 4.873255e-001 -4.840534e+000 -1.297821e+001 -7.845995e+000 6.863898e+001 7.347571e-002 2.354971e-001 9.606509e-001 3.746178e-001 -1.242473e+000 -1.431750e+000 1.132742e+000 6.347725e-001 3.481741e-001 -4.370180e-001 4.120425e-001 2.943514e-001 -3.906655e-001 -5.292420e-002 2.562176e-001 9.159736e-002 -5.337095e-002 -9.297334e-002 2.954990e-002 -2.486131e-001 -2.106756e-001 -3.138892e-002 3.515433e-001 3.110442e-001 1.377204e-001 -1.049805e-001
<VARIANCE> 39
 3.412385e+000 1.289044e+001 1.637134e+001 1.232641e+001 9.573153e+000 2.355105e+001 2.040033e+001 2.985568e+001 2.246487e+001 2.116852e+001 1.445172e+001 1.849166e+001 1.221819e+001 2.013000e-001 4.392601e-001 1.388096e+000 1.041451e+000 1.158302e+000 4.431173e+000 1.571823e+000 1.075416e+000 1.257416e+000 1.599295e+000 9.347363e-001 1.484396e+000 2.094001e-001 4.623818e-002 7.667884e-002 1.160283e-001 8.495974e-002 1.401283e-001 1.461312e-001 1.357220e-001 2.119602e-001 1.958101e-001 1.292306e-001 1.072550e-001 1.451841e-001 2.266163e-002
<GCONST> 7.709541e+001
<STATE> 3
<MEAN> 39
 4.214628e+000 -9.233038e+000 2.637257e+000 -1.050472e+001 -1.480905e-001 -1.031092e+001 7.662024e+000 1.047121e+000 4.770647e-001 -5.254661e+000 -1.000339e+001 -4.110232e+000 6.659757e+001 -1.857457e-001 7.928202e-001 1.068832e+000 1.772842e-001 -1.162458e+000 -8.323777e-001 -1.591927e-001 9.547511e-003 -8.770110e-002 5.596792e-001 1.177771e+000 1.088601e+000 -6.333047e-001 -1.016437e-002 1.997126e-001 -7.331722e-002 -9.352140e-002 1.629432e-001 2.511331e-001 -5.203425e-001 -3.182379e-001 -1.201485e-001 2.867123e-001 1.283690e-001 5.974320e-002 -3.891797e-002
<VARIANCE> 39
 4.176857e+000 1.863215e+001 3.346206e+001 2.869517e+001 3.151011e+001 7.184394e+001 1.904634e+001 3.210003e+001 2.867173e+001 2.306396e+001 2.364292e+001 2.712950e+001 2.882441e+001 4.867937e-001 8.561621e-001 1.859781e+000 9.388410e-001 1.750318e+000 3.181275e+000 2.344249e+000 1.439657e+000 1.987082e+000 1.525678e+000 1.254022e+000 1.750991e+000 2.928783e-001 5.418071e-002 9.309727e-002 1.582706e-001 1.555074e-001 2.022943e-001 3.344079e-001 2.958885e-001 2.035751e-001 2.659240e-001 2.972741e-001 2.405096e-001 1.984066e-001 3.071357e-002
<GCONST> 9.308156e+001
<STATE> 4
<MEAN> 39
 4.646970e+000 -3.880678e+000 -6.002467e+000 -9.898210e+000 9.778619e-001 1.423292e-001 3.695771e+000 -5.793110e+000 3.573221e+000 -2.243978e+000 -3.047157e+000 -1.138679e+001 6.232056e+001 -4.227595e-002 4.915427e-001 3.961310e-001 2.622350e-001 -3.187316e-002 1.532829e-001 -1.284831e-001 -2.587066e-001 -2.934884e-001 1.652340e-001 3.966290e-001 4.067988e-001 -4.972339e-001 -1.542776e-002 2.167241e-003 2.371856e-002 -7.013535e-004 8.648782e-002 8.981935e-002 -7.720897e-002 -5.815578e-002 -1.691456e-002 3.901559e-002 -9.107160e-002 4.090432e-002 -1.054544e-002
<VARIANCE> 39
 3.904171e+000 1.913088e+001 6.242493e+001 2.257620e+001 2.069699e+001 8.592028e+001 1.486859e+001 3.876163e+001 2.950301e+001 2.173461e+001 3.830440e+001 5.916278e+001 2.484798e+001 2.451144e-001 6.589278e-001 9.721783e-001 9.307237e-001 9.997084e-001 1.272447e+000 1.293939e+000 1.113899e+000 9.050383e-001 1.408029e+000 1.667129e+000 1.111755e+000 2.658831e-001 3.936479e-002 7.434773e-002 1.190951e-001 1.082039e-001 1.469410e-001 2.266944e-001 1.437708e-001 1.922619e-001 1.915416e-001 1.941544e-001 2.150289e-001 1.582237e-001 3.377745e-002
<GCONST> 8.546512e+001
<TRANSP> 5
 0.000000e+000 1.000000e+000 0.000000e+000 0.000000e+000 0.000000e+000
 0.000000e+000 1.049454e-001 8.950545e-001 0.000000e+000 0.000000e+000
 0.000000e+000 0.000000e+000 6.875107e-001 3.124893e-001 0.000000e+000
 0.000000e+000 0.000000e+000 0.000000e+000 7.015267e-001 2.984733e-001
 0.000000e+000 0.000000e+000 0.000000e+000 0.000000e+000 0.000000e+000
<ENDHMM>
~h "ay"
<BEGINHMM>
<NUMSTATES> 5
<STATE> 2
<MEAN> 39
 5.158738e+000 -1.062058e-002 2.640078e-001 -6.905065e+000 -6.107861e-001 -5.517003e+000 -1.529567e+000 -6.170032e+000 -2.282447e+000 3.653311e+000 -8.287466e+000 -7.459401e+000 6.141252e+001 6.006856e-001 -1.885386e+000 -1.777246e+000 -2.130093e+000 1.270863e+000 -4.441941e-001 -2.893366e-001 2.232705e+000 8.983173e-002 -1.100153e+000 -1.287193e+000 -1.126812e+000 2.465814e+000 -3.891173e-001 -6.052968e-001 -1.471554e-001 1.714516e-001 4.593589e-001 5.019932e-001 4.140225e-001 2.243460e-001 2.371082e-001 -3.040135e-001 -2.929975e-002 1.071265e-001 -9.047776e-002
<VARIANCE> 39
 1.544982e+001 1.845607e+001 7.512800e+001 4.917026e+001 1.747730e+001 6.589038e+001 1.606990e+001 6.769707e+001 1.821061e+001 3.709583e+001 4.056092e+001 4.180933e+001 1.809866e+001 2.461460e+000 1.304268e+000 2.346358e+000 1.538397e+000 1.816496e+000 3.304587e+000 2.059894e+000 7.296204e+000 1.721130e+000 3.189840e+000 3.321784e+000 4.533819e+000 1.656106e+000 6.237794e-001 1.907194e-001 5.783455e-001 8.148674e-001 2.856688e-001 7.746398e-001 3.258863e-001 1.034720e+000 3.203830e-001 5.270051e-001 4.048974e-001 7.065576e-001 2.668964e-001
<GCONST> 1.184768e+002
<STATE> 3
<MEAN> 39
 5.757446e+000 -8.116881e+000 -4.009642e+000 -1.206250e+001 5.379862e+000 -4.249884e+000 5.832652e-002 -1.951318e-001 -6.439989e-001 -6.797063e-001 -1.256171e+001 -1.002244e+001 6.714006e+001 -6.991830e-002 -1.416680e+000 -1.327514e+000 -9.705815e-001 1.095401e+000 1.907529e+000 1.852852e-001 -6.155254e-001 4.650972e-001 -1.363468e+000 9.914327e-002 -1.154068e+000 1.181424e+000 -3.406142e-001 4.575016e-001 2.253979e-001 5.046217e-001 -1.950871e-001 3.074204e-001 -5.665195e-002 -7.016869e-001 -6.445412e-003 9.251787e-002 5.544946e-001 3.041547e-001 -5.023507e-001
<VARIANCE> 39
 4.673315e+000 1.146752e+001 2.218922e+001 1.920629e+001 1.678378e+001 5.188197e+001 1.422209e+001 2.803733e+001 2.045581e+001 2.480000e+001 3.162106e+001 3.209713e+001 9.582634e+000 1.080409e+000 1.581705e+000 1.336522e+000 1.309845e+000 1.143811e+000 2.482095e+000 1.802462e+000 4.535867e+000 1.430444e+000 2.362350e+000 3.061332e+000 2.255115e+000 7.490399e-001 2.033627e-001 1.811758e-001 2.331776e-001 1.643680e-001 2.160850e-001 7.755256e-001 3.679116e-001 8.777570e-001 2.949614e-001 4.224994e-001 4.681335e-001 5.136005e-001 1.215407e-001
<GCONST> 1.018895e+002
<STATE> 4
<MEAN> 39
 3.736633e+000 -1.006269e+001 -8.189671e+000 -1.162889e+001 6.997934e+000 1.546345e+000 8.113394e-001 -5.000998e+000 -1.836534e-001 -4.279210e+000 -9.326807e+000 -1.128852e+001 6.842401e+001 -6.516774e-002 -2.566832e-001 3.405415e-001 2.631012e-001 -2.761283e-001 -6.307839e-001 4.446739e-001 3.073680e-001 -4.629537e-002 -3.890429e-001 -1.512047e-001 3.618617e-001 -7.965684e-003 6.174502e-002 5.961414e-002 1.626250e-001 2.557437e-002 -1.752414e-001 -2.315597e-001 7.198905e-002 1.530284e-001 -1.626177e-002 4.369202e-002 -1.511856e-002 9.465992e-002 -7.409749e-002
<VARIANCE> 39
 4.218566e+000 1.016163e+001 1.585732e+001 1.749156e+001 1.315091e+001 3.138803e+001 1.722359e+001 1.804901e+001 1.459706e+001 1.714560e+001 1.763823e+001 1.735628e+001 9.153675e+000 2.275128e-001 3.672752e-001 6.843169e-001 4.656373e-001 1.015089e+000 1.391545e+000 8.507946e-001 1.000216e+000 6.864610e-001 8.639753e-001 8.239100e-001 6.773248e-001 1.414717e-001 3.553697e-002 5.725403e-002 6.416072e-002 7.241664e-002 8.598861e-002 1.280377e-001 1.226023e-001 1.328053e-001 1.173486e-001 1.542600e-001 1.389913e-001 9.547161e-002 2.274734e-002
<GCONST> 6.746740e+001
<TRANSP> 5
 0.000000e+000 1.000000e+000 0.000000e+000 0.000000e+000 0.000000e+000
 0.000000e+000 4.652830e-001 5.347170e-001 0.000000e+000 0.000000e+000
 0.000000e+000 0.000000e+000 6.918113e-001 3.081888e-001 0.000000e+000
 0.000000e+000 0.000000e+000 0.000000e+000 9.187830e-001 8.121706e-002
 0.000000e+000 0.000000e+000 0.000000e+000 0.000000e+000 0.000000e+000
<ENDHMM>
~h "eh"
<BEGINHMM>
<NUMSTATES> 5
<STATE> 2
<MEAN> 39
 4.636473e+000 -3.998733e+000 -1.847033e-001 -9.467381e+000 -2.948792e+000 -1.443399e+001 -1.189245e+000 2.080379e+000 2.728111e+000 1.249880e+000 -1.137375e+001 -3.622730e+000 6.562072e+001 1.720977e+000 -2.205869e+000 1.324359e-001 -1.794751e+000 -1.190554e+000 -8.465745e-001 -1.714932e-001 1.004244e+000 -1.768269e-001 -8.053459e-002 -1.233900e+000 -2.075958e-001 1.797230e+000 -1.218138e+000 1.086902e-001 -2.250001e-001 3.604248e-001 4.643526e-001 8.268240e-001 6.027507e-001 3.929999e-001 1.022162e-002 -4.554709e-001 6.995484e-001 1.554664e-001 -3.159949e-001
<VARIANCE> 39
 4.536541e+000 1.611300e+001 1.244354e+001 1.706145e+001 1.025574e+001 1.902485e+001 1.219626e+001 1.724577e+001 7.949611e+000 1.232128e+001 1.025874e+001 1.221264e+001 9.753800e+000 4.572113e+000 7.397650e-001 1.073635e+000 1.473268e+000 1.996126e+000 3.353191e+000 1.929206e+000 2.393439e+000 1.157436e+000 2.524226e+000 2.452526e+000 1.315273e+000 8.904982e-001 2.582390e-001 2.312627e-001 1.687215e-001 2.258368e-001 2.523166e-001 3.399131e-001 2.245923e-001 4.321989e-001 2.304593e-001 2.754481e-001 2.412500e-001 2.014439e-001 1.672631e-001
<GCONST> 9.243401e+001
<STATE> 3
<MEAN> 39
 4.433291e+000 -9.177128e+000 -2.159308e-001 -1.151027e+001 -2.720012e+000 -1.274726e+001 2.262273e+000 5.517577e+000 2.412841e+000 -3.607358e+000 -1.098229e+001 -5.205233e+000 6.798148e+001 2.700233e-001 4.962463e-002 5.936893e-002 1.899661e-001 1.527565e-001 1.595234e-001 -3.466730e-001 -5.248661e-001 9.107907e-002 3.746883e-002 4.395885e-001 -3.296079e-001 -3.026351e-001 7.772988e-002 2.934200e-001 -1.145888e-002 2.110996e-001 2.310169e-002 1.081711e-001 -2.736684e-001 -3.752959e-001 -2.640857e-003 2.432211e-001 1.704391e-001 -4.231408e-002 -2.390560e-001
<VARIANCE> 39
 4.470790e+000 5.900611e+000 1.486296e+001 1.450973e+001 1.365525e+001 2.849902e+001 1.750948e+001 1.694908e+001 1.304277e+001 1.577455e+001 1.528552e+001 2.229751e+001 4.404799e+000 3.108819e-001 5.963453e-001 3.903010e-001 6.508489e-001 4.803749e-001 9.153373e-001 1.956595e+000 1.635446e+000 7.393386e-001 1.561684e+000 8.066567e-001 6.126630e-001 4.266377e-001 4.503837e-002 5.863546e-002 6.983866e-002 1.030171e-001 9.723204e-002 1.866817e-001 1.677345e-001 1.570096e-001 1.749133e-001 1.545839e-001 1.172890e-001 1.181748e-001 3.851684e-002
<GCONST> 7.083144e+001
<STATE> 4
<MEAN> 39
 7.587469e+000 -3.046540e+000 1.621442e-002 -6.469229e+000 -1.542138e+000 -7.884230e+000 -6.409702e+000 -5.903825e+000 8.938640e-001 2.264632e+000 -3.821547e+000 -8.312951e+000 6.096211e+001 1.291067e-001 8.460532e-001 4.249953e-003 5.401270e-001 1.330188e-001 1.084298e+000 -5.820156e-001 -1.236755e+000 -6.169862e-001 6.424002e-001 8.185806e-001 -4.763324e-001 -7.101206e-001 -1.139784e-001 -3.905710e-001 2.380364e-002 -4.021653e-001 -4.975701e-002 -3.144875e-001 4.331363e-001 6.206460e-001 6.870991e-002 -1.976941e-001 -4.114512e-001 6.716865e-002 4.280819e-001
<VARIANCE> 39
 3.656693e+000 8.838942e+000 6.669775e+000 1.080897e+001 8.020225e+000 1.593018e+001 9.097249e+000 1.897599e+001 1.480268e+001 1.382492e+001 1.457528e+001 1.357134e+001 7.554870e+000 3.902206e-001 1.539144e+000 3.323053e-001 1.713417e+000 5.965942e-001 1.610418e+000 1.355404e+000 2.762874e+000 1.320999e+000 1.200864e+000 1.364347e+000 9.059336e-001 1.342069e+000 7.304480e-002 1.858816e-001 6.816968e-002 1.934065e-001 1.144774e-001 2.433874e-001 1.691510e-001 2.326497e-001 3.019851e-001 2.294654e-001 2.005096e-001 1.512442e-001 1.102288e-001
<GCONST> 7.942379e+001
<TRANSP> 5
 0.000000e+000 1.000000e+000 0.000000e+000 0.000000e+000 0.000000e+000
 0.000000e+000 7.313748e-001 2.686252e-001 0.000000e+000 0.000000e+000
 0.000000e+000 0.000000e+000 8.963540e-001 1.036461e-001 0.000000e+000
 0.000000e+000 0.000000e+000 0.000000e+000 7.971241e-001 2.028759e-001
 0.000000e+000 0.000000e+000 0.000000e+000 0.000000e+000 0.000000e+000
<ENDHMM>
~h "ey"
<BEGINHMM>
<NUMSTATES> 5
<STATE> 2
<MEAN> 39
 -1.029128e+000 -9.509037e-001 3.252395e-002 -2.627804e+000 -1.656949e+000 4.865646e-001 3.499829e+000 -3.534975e+000 2.660371e+000 3.389849e+000 -8.741182e-001 -5.659547e-001 5.007019e+001 -3.000073e-001 -8.076501e-001 -4.849310e-001 3.277318e-001 7.421553e-001 1.835604e-001 7.236527e-001 7.163196e-001 6.598362e-001 -2.425831e-001 -6.580648e-001 -4.394225e-001 7.975291e-002 1.149071e-001 -1.963552e-001 -8.933417e-002 -2.182901e-001 1.352981e-001 -1.203401e-001 -1.391714e-002 2.150288e-002 -1.926221e-001 -3.192926e-001 -2.988722e-001 -1.841835e-001 4.375399e-001
<VARIANCE> 39
 2.155609e+001 1.269282e+001 2.987268e+001 4.004907e+001 2.615820e+001 4.533870e+001 3.241813e+001 4.307579e+001 3.679208e+001 3.030192e+001 3.271861e+001 3.336362e+001 2.785830e+001 2.092527e+000 1.708340e+000 2.765484e+000 3.499150e+000 2.297418e+000 3.235310e+000 2.361185e+000 4.245254e+000 4.367415e+000 4.458312e+000 3.001768e+000 3.359879e+000 3.640713e+000 3.572342e-001 3.502125e-001 4.699424e-001 4.470787e-001 4.334050e-001 5.521788e-001 4.765518e-001 8.256049e-001 7.845108e-001 6.798906e-001 4.509395e-001 5.875500e-001 5.058846e-001
<GCONST> 1.218220e+002
<STATE> 3
<MEAN> 39
 1.642149e+000 -1.042425e+001 -5.334810e+000 -7.695040e+000 4.146655e+000 -4.581457e+000 5.465705e+000 6.388367e-001 1.254629e+000 -4.291467e+000 -1.058873e+001 -6.733947e+000 6.268188e+001 6.775842e-001 -1.491404e+000 -4.269958e-001 -1.064830e+000 4.201387e-001 -8.049569e-001 1.072731e-001 1.571104e-001 -7.042692e-001 -1.191307e+000 -9.836989e-001 -7.611929e-001 2.493130e+000 -1.874898e-001 2.974690e-001 2.775678e-001 2.437476e-001 -2.241465e-001 2.291960e-001 2.462836e-002 -2.213007e-001 2.755783e-002 1.546266e-001 4.700831e-001 3.301638e-001 -3.783487e-001
<VARIANCE> 39
 1.240676e+001 1.800149e+001 2.467063e+001 1.795663e+001 3.080103e+001 4.542207e+001 2.132427e+001 2.589285e+001 2.693199e+001 2.148092e+001 1.710040e+001 2.792487e+001 3.250504e+001 1.023340e+000 1.710066e+000 2.176729e+000 1.906249e+000 2.034365e+000 2.118774e+000 2.066396e+000 2.397600e+000 1.589462e+000 2.243239e+000 2.480112e+000 2.042028e+000 2.528419e+000 1.891699e-001 2.648321e-001 3.447720e-001 3.306495e-001 3.693358e-001 4.286726e-001 3.713504e-001 4.043370e-001 3.109095e-001 4.420660e-001 3.013161e-001 3.306330e-001 3.662983e-001
<GCONST> 1.074126e+002
<STATE> 4
<MEAN> 39
 2.694380e+000 -1.233764e+001 -4.134287e+000 -8.832957e+000 1.888131e+000 -7.022718e+000 7.721436e+000 -5.287544e-001 -1.314134e+000 -9.752198e+000 -1.035456e+001 -5.533875e+000 6.840543e+001 9.104620e-002 3.697962e-001 2.970366e-001 3.897795e-002 -4.107119e-001 -3.983006e-001 1.210975e-001 1.072778e-001 2.038541e-002 -1.908177e-002 -1.211376e-001 3.897671e-001 -1.043115e-001 5.074033e-003 1.699766e-001 7.382090e-002 7.396836e-002 -1.299155e-002 -4.797639e-002 -1.036081e-001 4.420082e-002 4.351456e-002 1.687533e-001 -1.421128e-002 4.183504e-002 -1.848452e-001
<VARIANCE> 39
 4.274087e+000 1.124857e+001 1.307721e+001 1.539945e+001 1.387271e+001 1.913358e+001 1.159276e+001 1.485940e+001 1.578706e+001 1.469547e+001 9.884543e+000 1.402702e+001 8.221425e+000 2.341127e-001 5.560330e-001 4.466036e-001 4.787477e-001 5.560037e-001 6.987075e-001 7.292574e-001 6.617327e-001 6.489375e-001 1.002847e+000 6.866011e-001 5.672453e-001 3.127485e-001 5.187951e-002 6.408630e-002 7.846806e-002 1.073757e-001 9.329116e-002 1.026468e-001 1.454251e-001 1.208564e-001 1.110328e-001 1.326406e-001 1.204485e-001 1.004897e-001 6.785694e-002
<GCONST> 6.578526e+001
<TRANSP> 5
 0.000000e+000 1.000000e+000 0.000000e+000 0.000000e+000 0.000000e+000
 0.000000e+000 8.616085e-001 1.383916e-001 0.000000e+000 0.000000e+000
 0.000000e+000 0.000000e+000 7.952366e-001 2.047634e-001 0.000000e+000
 0.000000e+000 0.000000e+000 0.000000e+000 9.210735e-001 7.892650e-002
 0.000000e+000 0.000000e+000 0.000000e+000 0.000000e+000 0.000000e+000
<ENDHMM>
~h "ia"
<BEGINHMM>
<NUMSTATES> 5
<STATE> 2
<MEAN> 39
 7.542694e-001 3.552743e+000 7.247087e+000 -1.462354e+000 -1.109412e+000 -1.729958e+001 -1.945377e+000 -2.351333e+000 -3.452383e+000 -1.513001e+000 -3.571722e+000 -1.954504e+000 6.138006e+001 1.698947e+000 -2.080405e+000 1.694325e+000 -1.466591e+000 -1.716251e+000 -1.992060e+000 -2.954239e-001 7.021213e-001 -9.366770e-001 2.557506e-001 -2.908815e-001 6.579597e-001 1.107504e+000 -2.795666e-001 -1.820406e-001 -5.643908e-002 -1.917341e-001 3.580317e-002 5.826061e-001 3.418298e-001 1.089110e-001 2.353454e-001 -4.231085e-003 6.136478e-002 2.621272e-001 9.387311e-003
<VARIANCE> 39
 1.346014e+001 2.023724e+001 1.905644e+001 1.749199e+001 2.087710e+001 1.852110e+001 1.278771e+001 1.153205e+001 1.832253e+001 1.437622e+001 1.448659e+001 1.346850e+001 1.162254e+001 1.669247e+000 1.299111e+000 1.253170e+000 1.151161e+000 1.733614e+000 2.595036e+000 1.973626e+000 1.371987e+000 1.730907e+000 1.392107e+000 1.335769e+000 1.601121e+000 2.955570e-001 3.136502e-001 3.081592e-001 2.523561e-001 2.023440e-001 2.084980e-001 3.496749e-001 2.456043e-001 2.972285e-001 3.304286e-001 2.286719e-001 2.287837e-001 2.741798e-001 4.431285e-002
<GCONST> 9.239080e+001
<STATE> 3
<MEAN> 39
 4.038367e+000 -5.914344e+000 1.136698e+001 -8.900546e+000 -8.625087e+000 -1.820009e+001 -3.390882e-001 1.315727e+000 -3.324905e+000 -1.134974e+000 -4.275430e+000 2.377279e+000 6.665578e+001 2.177292e-001 -7.652134e-001 -1.020715e+000 -3.853220e-001 -3.025319e-001 8.160677e-001 4.927872e-002 3.092643e-001 1.091143e+000 -3.794383e-002 -3.541156e-001 -5.756854e-001 4.162426e-001 1.807066e-003 1.289837e-001 -3.805290e-001 2.068746e-001 2.525429e-001 3.128670e-001 -1.741648e-001 -1.469363e-001 1.573419e-001 3.317691e-002 -4.882064e-002 -3.947505e-001 -1.232829e-001
<VARIANCE> 39
 3.845045e+000 8.074303e+000 3.507280e+001 1.130764e+001 1.452661e+001 1.493320e+001 1.360012e+001 1.418133e+001 3.365385e+001 1.269076e+001 1.363169e+001 1.950707e+001 7.424829e+000 2.061555e-001 4.322531e-001 1.803165e+000 7.112638e-001 1.755986e+000 1.429129e+000 1.289770e+000 1.035932e+000 1.204420e+000 8.033345e-001 1.136323e+000 2.347420e+000 1.809775e-001 6.021954e-002 7.593244e-002 1.602580e-001 1.309442e-001 1.995991e-001 2.124778e-001 1.768054e-001 2.575507e-001 2.088335e-001 1.504487e-001 1.902065e-001 1.728607e-001 2.414767e-002
<GCONST> 7.756167e+001
<STATE> 4
<MEAN> 39
 8.546304e+000 -9.475556e+000 -5.767976e+000 -3.804275e+000 -9.830857e+000 -5.121518e+000 -1.396386e+000 -3.923383e+000 6.422435e+000 -1.741522e-001 -3.518095e+000 -1.092035e+001 6.665881e+001 5.940934e-001 1.134705e-001 -1.447362e+000 6.752892e-001 -4.459329e-001 1.185661e+000 2.275478e-001 -1.403908e+000 -2.252766e-001 5.299128e-001 8.819928e-001 -5.536635e-001 -2.899695e-001 -3.572071e-002 1.650143e-001 2.181922e-001 -9.316402e-002 -1.266090e-001 -1.655172e-001 2.252653e-001 -8.869618e-002 -3.532137e-001 2.716413e-002 1.966495e-001 3.768157e-001 -4.913766e-002
<VARIANCE> 39
 5.234567e+000 6.505819e+000 3.315791e+001 2.944530e+001 1.838710e+001 2.407078e+001 2.378930e+001 3.323396e+001 1.808692e+001 2.325109e+001 3.132596e+001 2.454010e+001 7.111315e+000 2.524058e-001 5.291108e-001 1.073467e+000 1.513141e+000 1.135928e+000 1.744450e+000 1.391497e+000 1.462034e+000 1.706884e+000 1.023716e+000 1.152197e+000 2.671496e+000 7.756760e-002 3.936185e-002 5.277999e-002 9.865783e-002 2.752101e-001 2.288873e-001 2.223783e-001 2.518474e-001 3.112154e-001 1.933001e-001 1.658039e-001 2.049053e-001 2.429584e-001 1.457380e-002
<GCONST> 8.251810e+001
<TRANSP> 5
 0.000000e+000 1.000000e+000 0.000000e+000 0.000000e+000 0.000000e+000
 0.000000e+000 7.656680e-001 2.343320e-001 0.000000e+000 0.000000e+000
 0.000000e+000 0.000000e+000 8.836146e-001 1.163854e-001 0.000000e+000
 0.000000e+000 0.000000e+000 0.000000e+000 8.747627e-001 1.252373e-001
 0.000000e+000 0.000000e+000 0.000000e+000 0.000000e+000 0.000000e+000
<ENDHMM>
~h "ih"
<BEGINHMM>
<NUMSTATES> 5
<STATE> 2
<MEAN> 39
 -1.002216e+001 3.350795e+000 -7.939659e-001 -2.467196e+000 3.962843e+000 -5.909794e+000 4.317546e+000 2.934470e+000 4.296903e+000 -1.579944e+000 -1.677819e+000 1.357780e-001 5.853363e+001 5.042850e+000 -7.160491e-001 1.971773e+000 -1.263005e+000 -1.475424e+000 -3.383745e+000 -2.285473e+000 -9.950423e-001 -9.755650e-001 2.985167e-001 -2.281641e+000 -1.353230e+000 9.423174e-001 5.529538e-001 -5.418492e-001 -1.300485e-002 -3.400566e-001 -6.459560e-001 -5.736938e-001 -3.582949e-001 -1.100223e-001 -2.986172e-001 3.013403e-001 -6.006798e-002 1.780664e-001 6.442173e-001
<VARIANCE> 39
 2.447751e+001 8.413060e+000 1.425257e+001 1.452553e+001 1.791622e+001 1.697498e+001 2.054300e+001 1.825482e+001 1.432841e+001 1.970116e+001 1.982541e+001 2.134162e+001 8.341267e+000 1.177858e+000 9.063482e-001 1.119744e+000 1.726860e+000 1.490288e+000 1.611228e+000 1.703926e+000 1.759369e+000 1.616637e+000 1.905874e+000 1.485407e+000 1.454661e+000 7.289879e-001 5.801858e-001 1.496947e-001 3.165673e-001 2.557283e-001 2.128377e-001 3.481953e-001 4.001827e-001 3.717439e-001 3.495748e-001 3.747315e-001 4.562243e-001 4.102355e-001 8.213228e-002
<GCONST> 9.639920e+001
<STATE> 3
<MEAN> 39
 3.704566e+000 -1.957060e+000 2.760427e+000 -7.846326e+000 -3.216331e+000 -1.670080e+001 -2.264086e+000 5.374196e-001 7.404927e-001 1.066235e+000 -7.267296e+000 -1.270113e+000 6.483685e+001 1.856240e+000 -2.021948e+000 8.533925e-001 -1.593082e+000 -2.471256e+000 -1.900057e+000 -6.557274e-001 2.425381e-001 -5.297380e-001 9.360386e-002 -2.113985e-001 3.313285e-001 1.886703e+000 -1.324157e+000 8.053420e-002 -2.526522e-001 3.352027e-001 1.331809e-001 9.090973e-001 7.391164e-001 3.769595e-001 1.934694e-001 -3.428999e-001 7.501823e-001 2.862586e-001 -2.246084e-001
<VARIANCE> 39
 6.912292e+000 1.516099e+001 1.685826e+001 1.432178e+001 1.722648e+001 1.553119e+001 1.293792e+001 1.136893e+001 1.265407e+001 1.965022e+001 1.130651e+001 1.385580e+001 1.313882e+001 5.010789e+000 8.770119e-001 1.615663e+000 1.579147e+000 1.114297e+000 4.155461e+000 2.631161e+000 1.941595e+000 1.730432e+000 2.507776e+000 2.860518e+000 1.900315e+000 6.633759e-001 2.153384e-001 2.637352e-001 2.009921e-001 3.042918e-001 2.657059e-001 2.497039e-001 2.472540e-001 2.761627e-001 2.505894e-001 3.452605e-001 2.672871e-001 3.326111e-001 2.045337e-001
<GCONST> 9.635868e+001
<STATE> 4
<MEAN> 39
 2.510780e+000 -4.908810e+000 6.081115e+000 -6.859533e+000 -9.384255e+000 -1.700817e+001 1.121428e+000 2.621378e+000 -4.195296e+000 -1.477417e+000 -1.881634e+000 -9.564341e-001 6.595149e+001 -1.966191e-001 4.460938e-001 -2.026576e-002 7.390833e-001 5.194561e-001 1.363889e-001 1.740974e-001 -2.568679e-001 -5.430055e-001 1.684885e-001 1.132512e-001 -1.430439e-001 -6.313549e-001 -1.049841e-001 1.344808e-001 -2.537198e-001 1.457786e-001 3.411735e-001 2.316203e-001 -2.042066e-002 -1.223439e-001 2.570248e-001 8.400045e-002 -9.508916e-002 -2.470600e-002 -1.791359e-001
<VARIANCE> 39
 4.133403e+000 1.200806e+001 1.941910e+001 2.059616e+001 2.199483e+001 2.632376e+001 1.214477e+001 1.537029e+001 5.062411e+001 1.715539e+001 2.246062e+001 1.638734e+001 1.493752e+001 5.610659e-001 1.110825e+000 1.733409e+000 1.220099e+000 2.990655e+000 2.055543e+000 1.001316e+000 1.365475e+000 3.496227e+000 1.090289e+000 1.461745e+000 8.995641e-001 1.059287e+000 1.125813e-001 1.745879e-001 2.861649e-001 1.502045e-001 2.256743e-001 3.955723e-001 1.786878e-001 1.923796e-001 7.164526e-001 1.701265e-001 2.281098e-001 1.684438e-001 1.004963e-001
<GCONST> 9.209311e+001
<TRANSP> 5
 0.000000e+000 1.000000e+000 0.000000e+000 0.000000e+000 0.000000e+000
 0.000000e+000 4.691274e-001 5.308726e-001 0.000000e+000 0.000000e+000
 0.000000e+000 0.000000e+000 6.966126e-001 3.033874e-001 0.000000e+000
 0.000000e+000 0.000000e+000 0.000000e+000 9.274293e-001 7.257063e-002
 0.000000e+000 0.000000e+000 0.000000e+000 0.000000e+000 0.000000e+000
<ENDHMM>
~h "iy"
<BEGINHMM>
<NUMSTATES> 5
<STATE> 2
<MEAN> 39
 4.384311e+000 -7.242788e+000 1.418070e+001 -9.338533e+000 -1.019826e+001 -1.924896e+001 -1.857679e+000 6.444355e-001 -7.104150e+000 -5.994117e-001 -2.496384e+000 4.127868e+000 6.542812e+001 -8.229597e-001 7.550358e-001 1.214337e+000 -8.092343e-001 -1.599002e-001 -2.657545e-001 5.414182e-001 -5.955067e-001 -1.272551e+000 -2.549568e-001 2.687904e-001 9.018268e-001 -1.355958e-002 8.890142e-002 1.731299e-001 -2.498219e-001 1.998276e-001 1.539449e-001 3.789822e-001 -2.119404e-001 -4.226630e-001 1.425030e-001 1.085083e-001 -1.078108e-001 -2.594200e-001 -1.825059e-001
<VARIANCE> 39
 5.740901e+000 8.646755e+000 2.149275e+001 1.452649e+001 8.372341e+000 1.182739e+001 1.496905e+001 1.743431e+001 3.252976e+001 1.047842e+001 9.976966e+000 1.380522e+001 6.601933e+000 2.586878e-001 4.258516e-001 9.634606e-001 6.437259e-001 1.153426e+000 1.425272e+000 1.264460e+000 1.692668e+000 1.480754e+000 9.420868e-001 9.284922e-001 1.225705e+000 1.804680e-001 4.056005e-002 7.042751e-002 1.192497e-001 1.108683e-001 1.923337e-001 1.736758e-001 2.046617e-001 3.402243e-001 2.208322e-001 2.161665e-001 1.638177e-001 2.019652e-001 2.170379e-002
<GCONST> 7.492548e+001
<STATE> 3
<MEAN> 39
 6.087108e-001 8.644649e-001 1.971140e+001 -1.119702e+001 -8.087261e+000 -1.375167e+001 -4.332544e+000 -6.594049e+000 -1.170702e+001 -3.614173e+000 -2.748119e+000 5.495424e+000 6.228461e+001 -4.711954e-002 5.028509e-001 -5.569578e-002 1.553307e-001 2.841865e-001 4.674996e-001 -7.744282e-003 -4.152067e-001 -1.407950e-003 -2.645634e-001 1.772788e-002 -2.049824e-001 -4.146495e-001 5.445540e-002 -3.005210e-002 -1.874980e-001 1.336046e-001 3.498308e-002 3.885737e-002 5.154229e-002 7.475013e-002 1.454737e-001 4.853287e-002 2.071152e-002 -1.151393e-001 -3.248766e-002
<VARIANCE> 39
 4.646442e+000 1.596316e+001 1.611049e+001 1.380476e+001 1.271770e+001 2.366243e+001 1.669228e+001 1.643149e+001 3.279902e+001 1.886036e+001 1.157325e+001 1.245364e+001 1.017015e+001 1.666471e-001 4.312475e-001 7.106047e-001 6.008634e-001 6.308046e-001 7.612169e-001 7.694325e-001 8.053815e-001 8.602989e-001 8.123483e-001 5.957903e-001 7.041402e-001 1.680964e-001 2.478979e-002 5.556415e-002 1.087706e-001 1.075684e-001 1.237606e-001 1.289988e-001 1.324632e-001 1.471304e-001 1.615549e-001 1.301609e-001 1.153644e-001 1.489100e-001 2.244709e-002
<GCONST> 6.788696e+001
<STATE> 4
<MEAN> 39
 1.872572e-001 3.284387e+000 1.389427e+001 -5.165748e+000 -3.919294e+000 -4.586645e+000 -1.610296e+000 -7.226147e+000 -5.997928e+000 -2.485693e+000 -2.552422e+000 9.895432e-001 5.600326e+001 -2.241569e-001 -1.739181e-001 -1.270443e+000 9.480107e-001 6.433529e-001 1.217903e+000 4.825532e-001 3.727584e-001 1.189737e+000 5.532494e-001 -3.252171e-002 -5.382566e-001 -7.270561e-001 -1.124193e-001 -7.746313e-002 -1.267520e-001 2.812205e-002 7.045812e-002 8.563786e-002 8.668510e-004 1.084713e-001 1.325334e-001 6.170414e-002 5.636354e-003 3.775445e-002 -5.859986e-003
<VARIANCE> 39
 1.121523e+001 2.000536e+001 2.069106e+001 2.475317e+001 3.118353e+001 8.149172e+001 2.366850e+001 2.130994e+001 3.108107e+001 2.065587e+001 1.648339e+001 1.841155e+001 2.337779e+001 8.146466e-001 1.158626e+000 1.662097e+000 1.827893e+000 1.753859e+000 2.392209e+000 1.610454e+000 1.727626e+000 2.100239e+000 1.630701e+000 1.566979e+000 1.810579e+000 3.529944e-001 1.579721e-001 1.473452e-001 1.979928e-001 2.896764e-001 3.064031e-001 4.945675e-001 2.670339e-001 3.172095e-001 3.345928e-001 2.902493e-001 2.859558e-001 3.249690e-001 5.402127e-002
<GCONST> 9.886739e+001
<TRANSP> 5
 0.000000e+000 1.000000e+000 0.000000e+000 0.000000e+000 0.000000e+000
 0.000000e+000 7.958917e-001 2.041082e-001 0.000000e+000 0.000000e+000
 0.000000e+000 0.000000e+000 8.869294e-001 1.130706e-001 0.000000e+000
 0.000000e+000 0.000000e+000 0.000000e+000 8.380417e-001 1.619583e-001
 0.000000e+000 0.000000e+000 0.000000e+000 0.000000e+000 0.000000e+000
<ENDHMM>
~h "jh"
<BEGINHMM>
<NUMSTATES> 5
<STATE> 2
<MEAN> 39
 1.085476e+000 -2.757048e-002 1.944525e+000 -1.310526e+000 1.171709e-001 9.588693e-001 4.176669e-001 -6.548255e+000 1.832225e-001 4.331512e+000 -3.557960e+000 3.367760e-003 5.153307e+001 -1.680261e+000 -1.378283e+000 -1.529393e-001 -8.032122e-001 -4.152988e-001 1.395094e+000 -2.041151e-001 1.627617e+000 1.495249e+000 -2.214713e-001 1.967772e+000 1.456054e+000 -4.568333e-001 -2.644517e-001 6.872062e-002 3.605225e-001 -4.314053e-001 -5.463379e-001 -2.422014e-001 -1.763722e-001 -3.554063e-001 1.632025e-002 1.131673e-001 -5.825585e-001 5.124318e-002 7.217191e-001
<VARIANCE> 39
 1.200094e+001 1.404723e+001 2.060589e+001 6.639342e+001 1.280311e+001 2.018494e+001 2.833987e+001 1.913622e+001 3.145929e+001 1.943928e+001 2.397569e+001 3.066216e+001 3.776019e+001 1.553732e+000 1.056298e+000 1.798627e+000 3.058125e+000 3.000832e+000 3.180856e+000 3.171304e+000 2.973469e+000 1.666847e+000 1.545625e+000 3.303489e+000 2.177748e+000 3.828790e+000 1.496421e-001 2.665891e-001 1.920483e-001 6.450538e-001 5.236474e-001 1.629779e-001 5.569398e-001 3.418225e-001 4.748279e-001 3.130006e-001 3.739105e-001 8.729130e-001 4.798130e-001
<GCONST> 1.102957e+002
<STATE> 3
<MEAN> 39
 2.931339e+000 -1.088942e+000 -5.190321e-001 -1.329346e+001 1.131556e+000 -2.545143e+000 -8.090513e+000 -6.082674e+000 -1.612749e-001 6.958042e+000 -5.677761e+000 9.890206e-001 6.358610e+001 -1.648453e+000 7.443777e-001 2.357315e+000 1.699972e+000 -6.741667e-001 -7.654298e-002 -2.192287e-001 6.160738e-001 1.896930e+000 -1.312545e+000 1.525201e-001 6.827778e-001 4.124019e-001 -4.620288e-001 2.935137e-001 8.146555e-002 4.146722e-001 -7.836142e-002 6.277850e-001 8.570725e-001 1.492040e-001 -3.993729e-001 -3.576093e-001 1.444259e-001 -3.326520e-001 -3.619988e-001
<VARIANCE> 39
 4.394428e+001 7.650748e+000 2.751436e+001 4.017310e+001 1.678311e+001 4.524005e+001 2.042556e+001 9.746984e+000 4.301750e+001 2.823893e+001 1.535754e+001 1.809064e+001 3.811554e+001 2.253162e+000 1.056857e+000 2.052169e+000 6.471014e+000 3.565592e+000 3.932093e+000 1.956157e+000 9.565509e-001 3.695840e+000 3.609217e+000 2.091163e+000 1.854995e+000 5.518675e+000 1.428816e-001 1.776243e-001 4.771698e-001 3.072295e-001 4.241017e-001 1.137242e+000 1.917624e-001 2.946780e-001 8.911049e-001 5.920311e-001 3.902118e-001 3.269984e-001 4.338918e-001
<GCONST> 1.124445e+002
<STATE> 4
<MEAN> 39
 -8.895905e+000 -1.815137e+000 8.777412e+000 -1.612252e+000 -5.773898e+000 6.936790e-001 2.115376e+000 -2.719278e+000 6.005653e-001 2.204239e+000 -4.948071e-002 2.249858e+000 6.033240e+001 7.325578e-001 -9.150077e-002 6.849613e-001 9.130456e-001 -3.205508e-001 -1.320727e+000 -1.421818e-002 1.187137e-001 -1.122953e+000 -2.132821e-001 2.491891e-001 -6.511182e-002 4.520115e-001 5.647089e-001 -6.751334e-002 -1.975733e-001 -2.407688e-001 1.770846e-001 -2.073617e-001 -2.595908e-001 -1.647929e-001 -1.904511e-001 1.229059e-001 -2.182763e-002 4.449666e-003 -6.297876e-002
<VARIANCE> 39
 7.235496e+001 1.513620e+001 2.146527e+001 4.092965e+001 4.255508e+001 7.344131e+001 4.525430e+001 1.546877e+001 3.934552e+001 2.777348e+001 1.442763e+001 1.935350e+001 3.608422e+001 1.333271e+001 1.908237e+000 1.912305e+000 5.731252e+000 3.249491e+000 7.160952e+000 8.070379e+000 2.166455e+000 3.527767e+000 4.060411e+000 2.517486e+000 2.209178e+000 5.041813e+000 1.567071e+000 4.316485e-001 4.432253e-001 1.612434e+000 5.786188e-001 1.142423e+000 1.305922e+000 4.866998e-001 5.548504e-001 9.009746e-001 6.618008e-001 4.717651e-001 7.930897e-001
<GCONST> 1.302183e+002
<TRANSP> 5
 0.000000e+000 1.000000e+000 0.000000e+000 0.000000e+000 0.000000e+000
 0.000000e+000 7.489126e-001 2.510874e-001 0.000000e+000 0.000000e+000
 0.000000e+000 0.000000e+000 5.365210e-001 4.634790e-001 0.000000e+000
 0.000000e+000 0.000000e+000 0.000000e+000 9.073621e-001 9.263790e-002
 0.000000e+000 0.000000e+000 0.000000e+000 0.000000e+000 0.000000e+000
<ENDHMM>
~h "ng"
<BEGINHMM>
<NUMSTATES> 5
<STATE> 2
<MEAN> 39
 6.530749e+000 -4.354166e+000 -1.230039e+001 -1.273669e+001 8.857677e+000 2.784963e+000 1.886127e+000 -1.170890e+001 -7.824314e+000 -1.640684e+000 -8.493053e-001 -9.845561e+000 6.499046e+001 9.979300e-002 7.141233e-001 -3.619538e-002 3.458706e-001 -3.020246e-001 5.485142e-001 8.371519e-001 -2.986419e-001 -1.013870e+000 5.021577e-001 3.375450e-001 1.739385e-001 -6.973761e-001 -7.692855e-002 -5.452526e-003 2.333044e-001 -5.075113e-002 -8.649555e-002 -1.090449e-001 8.304293e-002 8.113308e-002 1.083639e-001 -1.980661e-002 -4.133574e-001 2.208941e-001 7.310197e-003
<VARIANCE> 39
 3.621944e+000 1.346620e+001 9.281948e+000 1.397101e+001 8.817261e+000 1.120108e+001 2.231193e+001 7.786077e+000 2.260241e+001 1.840845e+001 1.618110e+001 1.185944e+001 8.407882e+000 2.487484e-001 3.393201e-001 9.812219e-001 5.382422e-001 7.131992e-001 5.436788e-001 1.197561e+000 9.732544e-001 1.311032e+000 7.630628e-001 2.971525e+000 1.761124e+000 2.038240e-001 3.375952e-002 5.019731e-002 8.021604e-002 6.712110e-002 1.389285e-001 7.983055e-002 2.038730e-001 1.778995e-001 2.180866e-001 1.650680e-001 2.034615e-001 1.710617e-001 1.831145e-002
<GCONST> 6.965131e+001
<STATE> 3
<MEAN> 39
 4.482950e+000 3.519055e-001 -2.079134e+000 -1.074990e+001 2.683096e+000 2.317577e+000 5.539538e+000 -1.093081e+001 -8.822687e+000 6.044415e-001 -1.197638e+001 -4.215312e+000 6.058170e+001 -1.930229e-001 3.612886e-001 1.419572e+000 3.430551e-001 -6.414907e-001 -4.185553e-001 -4.907025e-001 4.226063e-001 5.737038e-001 -9.032268e-002 -1.237351e+000 5.775498e-002 -3.225523e-001 3.864016e-002 7.175704e-003 -6.560106e-002 7.686953e-002 1.040613e-001 -3.462315e-002 -6.133664e-002 3.208993e-002 1.085816e-001 2.272883e-003 1.419845e-001 -1.320128e-001 -2.065659e-002
<VARIANCE> 39
 5.640413e+000 6.208158e+000 3.100555e+001 1.386519e+001 1.190469e+001 2.016631e+001 2.146095e+001 8.841099e+000 1.235333e+001 1.083965e+001 2.633690e+001 1.698539e+001 7.563151e+000 2.964096e-001 3.302956e-001 6.939798e-001 4.097777e-001 6.528424e-001 9.721292e-001 1.021223e+000 8.278357e-001 9.786367e-001 8.607434e-001 9.408365e-001 1.330277e+000 2.795551e-001 4.299391e-002 5.726008e-002 1.138033e-001 7.037490e-002 1.145189e-001 1.696949e-001 2.094449e-001 1.454058e-001 1.864478e-001 1.395907e-001 1.139723e-001 2.720405e-001 4.332808e-002
<GCONST> 7.109380e+001
<STATE> 4
<MEAN> 39
 3.150766e+000 3.530452e+000 6.639140e+000 -1.983645e+000 3.015069e+000 1.794234e+000 3.456588e+000 -6.979036e+000 -2.119708e+000 1.313771e+000 -1.397076e+001 -3.242309e+000 5.449067e+001 -3.331550e-001 -1.364382e-001 3.522437e-002 9.589958e-001 3.945329e-001 4.577727e-001 3.071739e-001 4.270972e-001 5.627067e-001 1.084471e-001 6.611559e-001 3.612791e-001 -7.355896e-001 -7.307508e-002 -1.225710e-001 -1.208336e-001 -8.300185e-002 -2.471252e-002 3.973687e-002 7.624953e-002 1.199980e-002 -4.747139e-002 4.132861e-002 1.329233e-001 9.573061e-002 1.787765e-002
<VARIANCE> 39
 6.231327e+000 3.249797e+000 6.032256e+000 2.874757e+001 1.412156e+001 1.299018e+001 1.487008e+001 1.902074e+001 1.327103e+001 1.770168e+001 1.534531e+001 1.874673e+001 8.784102e+000 2.901233e-001 4.553729e-001 7.395832e-001 1.581960e+000 9.519879e-001 9.933708e-001 1.402030e+000 1.585151e+000 1.395164e+000 1.510852e+000 1.059081e+000 1.435524e+000 1.357872e-001 2.949653e-002 5.158582e-002 1.250142e-001 3.015507e-001 1.851501e-001 1.957776e-001 2.923793e-001 3.237153e-001 2.573160e-001 3.141980e-001 2.114305e-001 3.042842e-001 2.398533e-002
<GCONST> 7.760522e+001
<TRANSP> 5
 0.000000e+000 1.000000e+000 0.000000e+000 0.000000e+000 0.000000e+000
 0.000000e+000 8.982801e-001 1.017199e-001 0.000000e+000 0.000000e+000
 0.000000e+000 0.000000e+000 9.018629e-001 9.813712e-002 0.000000e+000
 0.000000e+000 0.000000e+000 0.000000e+000 9.004351e-001 9.956495e-002
 0.000000e+000 0.000000e+000 0.000000e+000 0.000000e+000 0.000000e+000
<ENDHMM>
~h "ow"
<BEGINHMM>
<NUMSTATES> 5
<STATE> 2
<MEAN> 39
 3.541858e+000 -1.648139e-001 -4.598368e+000 -1.304058e+001 -1.724005e+000 4.461940e+000 4.678499e-001 -3.982020e+000 -2.476780e-001 1.986221e+000 1.444834e-001 -4.601063e+000 5.715629e+001 2.906751e-001 3.885382e-002 -6.891074e-001 -1.673549e+000 3.399417e-001 7.832505e-001 -3.126080e-001 3.540582e-001 -3.165264e-001 -4.617204e-001 2.605938e-001 -8.259555e-001 7.618839e-001 -1.216818e-001 3.312992e-002 9.259733e-002 2.201459e-001 -2.401807e-003 -7.745817e-002 1.107716e-001 2.829970e-002 -1.026365e-002 -2.078886e-001 -2.400784e-002 4.686286e-003 2.827537e-002
<VARIANCE> 39
 3.037072e+001 9.813331e+000 3.584202e+001 1.140101e+002 3.374173e+001 4.514581e+001 3.616280e+001 2.551250e+001 4.010345e+001 4.102218e+001 2.869754e+001 4.672359e+001 6.238729e+001 1.774556e+000 1.056297e+000 2.590861e+000 6.902674e+000 2.412660e+000 2.519206e+000 2.387695e+000 2.602869e+000 2.893243e+000 2.571017e+000 2.467791e+000 2.853089e+000 2.944135e+000 4.253149e-001 1.856577e-001 4.340022e-001 1.442570e+000 3.496287e-001 4.088595e-001 4.760669e-001 4.543774e-001 5.073744e-001 5.253147e-001 4.569337e-001 5.274642e-001 4.644735e-001
<GCONST> 1.207724e+002
<STATE> 3
<MEAN> 39
 8.682637e+000 4.077189e+000 -5.179550e+000 -2.468077e+001 -6.163961e+000 5.875855e+000 -1.446239e+000 -1.443630e+000 -3.502120e+000 -5.243944e+000 1.478423e+000 -5.861316e+000 6.205627e+001 1.363782e-001 4.249735e-001 3.824226e-001 1.362136e-001 -2.070216e-001 -4.293737e-001 3.292479e-002 3.458898e-001 -3.863234e-001 -3.916510e-001 -1.532260e-001 -2.055708e-002 -3.923538e-001 -1.239063e-002 -2.958200e-002 3.649646e-002 2.259879e-001 -2.048150e-003 -7.667132e-002 8.859771e-002 -8.321958e-002 1.431753e-002 1.323249e-001 -1.299858e-001 -1.883249e-003 -5.712565e-002
<VARIANCE> 39
 5.076906e+000 1.026032e+001 1.697751e+001 3.367424e+001 3.438847e+001 2.295230e+001 2.096854e+001 2.777525e+001 3.346553e+001 4.553872e+001 2.361054e+001 2.200883e+001 1.685991e+001 1.806182e-001 2.351182e-001 3.955573e-001 8.206719e-001 8.044636e-001 6.122931e-001 8.259703e-001 8.336568e-001 9.722262e-001 1.059318e+000 8.923736e-001 9.522250e-001 1.618855e-001 2.889991e-002 4.043832e-002 6.895969e-002 1.362602e-001 9.265477e-002 9.352490e-002 1.304444e-001 1.535570e-001 1.526193e-001 1.745745e-001 2.300075e-001 1.406914e-001 2.914471e-002
<GCONST> 7.343493e+001
<STATE> 4
<MEAN> 39
 7.915397e+000 5.773011e+000 3.735163e-001 -1.248117e+001 -5.152955e+000 6.500079e-001 1.681873e+000 -2.946963e+000 -6.183162e+000 -1.152066e+000 -5.919959e+000 -6.224265e+000 5.658232e+001 -6.512787e-001 -2.831634e-001 6.635693e-001 1.635981e+000 6.914842e-001 -3.086300e-001 4.206580e-001 -5.164995e-001 2.804499e-001 1.100498e+000 -1.246617e+000 3.375960e-001 -4.736658e-001 -1.408561e-001 -1.181157e-001 1.047952e-002 5.003243e-002 9.386476e-002 3.981464e-002 -1.099548e-001 -6.887235e-002 1.699408e-001 1.296703e-001 9.806692e-002 1.189940e-001 3.627539e-002
<VARIANCE> 39
 9.156019e+000 1.032448e+001 1.270106e+001 6.266137e+001 2.559674e+001 1.935176e+001 2.723822e+001 2.339216e+001 4.690268e+001 3.230206e+001 5.058110e+001 2.581413e+001 2.771642e+001 3.873520e-001 5.967748e-001 9.310642e-001 1.334373e+000 2.136228e+000 1.815426e+000 1.781272e+000 1.990760e+000 1.606157e+000 1.582557e+000 5.142292e+000 1.759361e+000 1.928677e-001 5.714776e-002 6.383160e-002 1.339450e-001 2.708151e-001 2.072881e-001 2.357266e-001 3.701059e-001 2.903108e-001 2.867808e-001 3.336914e-001 6.505286e-001 2.799542e-001 2.564319e-002
<GCONST> 9.435784e+001
<TRANSP> 5
 0.000000e+000 1.000000e+000 0.000000e+000 0.000000e+000 0.000000e+000
 0.000000e+000 7.814081e-001 2.185919e-001 0.000000e+000 0.000000e+000
 0.000000e+000 0.000000e+000 8.891200e-001 1.108800e-001 0.000000e+000
 0.000000e+000 0.000000e+000 0.000000e+000 8.313165e-001 1.686834e-001
 0.000000e+000 0.000000e+000 0.000000e+000 0.000000e+000 0.000000e+000
<ENDHMM>
~h "sp"
<BEGINHMM>
<NUMSTATES> 3
<STATE> 2
~s "silst"
<TRANSP> 3
 0.000000e+000 2.205741e-001 7.794259e-001
 0.000000e+000 9.765121e-001 2.348787e-002
 0.000000e+000 0.000000e+000 0.000000e+000
<ENDHMM>
~h "th"
<BEGINHMM>
<NUMSTATES> 5
<STATE> 2
<MEAN> 39
 -4.490597e+000 8.070976e-001 1.195053e+000 -1.099787e+000 4.681040e+000 -2.996544e+000 3.947948e+000 -8.248035e-001 9.256539e-001 8.405894e-001 -1.129453e+000 -4.088702e-001 5.518035e+001 -1.831749e+000 2.873287e-001 -6.713659e-001 3.909024e-001 8.488480e-001 -3.548187e-001 2.026277e-001 1.314074e+000 7.617370e-001 -1.488556e-001 7.860761e-001 1.849145e-001 7.603392e-001 -1.518081e-001 -6.416743e-002 -8.147500e-002 -9.764118e-002 -7.624752e-002 -6.265485e-002 -3.238870e-003 5.222804e-002 3.527690e-002 3.880854e-002 4.254714e-002 9.740187e-002 1.152757e-001
<VARIANCE> 39
 2.933694e+001 2.195086e+001 1.964388e+001 2.616582e+001 3.227265e+001 4.311944e+001 2.678463e+001 3.359032e+001 3.359183e+001 2.496986e+001 2.863607e+001 2.264669e+001 4.238166e+001 3.613406e+000 1.366842e+000 1.671863e+000 3.375132e+000 2.460772e+000 3.916116e+000 2.316595e+000 2.397644e+000 2.627723e+000 1.679185e+000 2.290082e+000 2.467849e+000 1.374485e+000 4.051829e-001 2.212191e-001 2.363586e-001 3.848002e-001 3.809791e-001 5.666878e-001 4.488782e-001 4.404709e-001 4.172243e-001 2.997481e-001 3.510659e-001 4.759580e-001 1.306899e-001
<GCONST> 1.123564e+002
<STATE> 3
<MEAN> 39
 -1.515194e+001 4.030191e+000 -2.876419e+000 7.283543e-002 8.692241e+000 -4.354520e+000 4.857071e+000 4.662513e+000 4.472118e+000 -2.597450e-001 1.004622e+000 7.175333e-001 6.119801e+001 1.207009e-001 2.543435e-002 1.201796e-001 -1.687652e-001 1.227280e-001 -1.019621e-001 -1.882568e-001 2.208948e-001 1.234185e-001 -9.979219e-002 -1.316402e-001 -1.189613e-001 1.335944e-001 4.468409e-001 -6.353926e-002 1.793840e-001 -8.187360e-002 -1.393481e-001 -2.010548e-002 -1.948734e-001 -1.707352e-001 -5.621123e-002 2.289168e-002 -1.265998e-001 -1.299813e-001 -6.307241e-002
<VARIANCE> 39
 6.270869e+000 1.005683e+001 1.044769e+001 1.860430e+001 2.729358e+001 1.466055e+001 1.972140e+001 2.039769e+001 1.648321e+001 2.043584e+001 1.506388e+001 1.603067e+001 7.933953e+000 1.703989e+000 7.738144e-001 1.061053e+000 1.435103e+000 1.380400e+000 1.475767e+000 1.673830e+000 1.602948e+000 1.554203e+000 1.740332e+000 1.544703e+000 1.532525e+000 3.516462e-001 2.687638e-001 1.393707e-001 1.965799e-001 2.816001e-001 3.259267e-001 3.047502e-001 3.437245e-001 4.146757e-001 2.926035e-001 3.790370e-001 3.314735e-001 3.185374e-001 5.388041e-002
<GCONST> 9.186060e+001
<STATE> 4
<MEAN> 39
 2.531290e-001 5.712463e-001 3.353417e+000 -4.301910e+000 3.418336e+000 -6.902721e+000 -4.017598e+000 5.878492e-001 4.586336e+000 1.461218e+000 -3.787694e+000 -4.440637e+000 6.174802e+001 4.302892e+000 -1.735631e+000 1.050591e+000 2.519601e-001 -3.311398e+000 -5.592485e-001 -1.830410e+000 -2.907140e+000 -5.790901e-001 1.503865e+000 -1.002657e+000 -1.128798e+000 1.703296e-001 -3.232302e-001 -2.923588e-001 -4.591120e-001 5.831679e-001 -4.138289e-001 -1.039889e-001 6.043567e-001 -1.812788e-001 -3.867498e-001 1.595380e-001 3.050390e-001 1.826435e-001 -8.927469e-003
<VARIANCE> 39
 5.651197e+001 1.773745e+001 1.426411e+001 1.582922e+001 3.885957e+001 2.544886e+001 3.125388e+001 4.825895e+001 1.518558e+001 2.584643e+001 1.902162e+001 1.584543e+001 1.110508e+001 2.370970e+000 1.812452e+000 2.142029e+000 3.283877e+000 2.502152e+000 2.666655e+000 3.553698e+000 3.011045e+000 1.766943e+000 2.045364e+000 2.137347e+000 1.498831e+000 6.230032e-001 8.469478e-001 3.035595e-001 3.471845e-001 4.223411e-001 7.511793e-001 5.310367e-001 7.042310e-001 1.151707e+000 3.033477e-001 5.530822e-001 4.535930e-001 3.081707e-001 1.142296e-001
<GCONST> 1.116347e+002
<TRANSP> 5
 0.000000e+000 1.000000e+000 0.000000e+000 0.000000e+000 0.000000e+000
 0.000000e+000 8.276332e-001 1.723668e-001 0.000000e+000 0.000000e+000
 0.000000e+000 0.000000e+000 9.215498e-001 7.845019e-002 0.000000e+000
 0.000000e+000 0.000000e+000 0.000000e+000 7.647018e-001 2.352982e-001
 0.000000e+000 0.000000e+000 0.000000e+000 0.000000e+000 0.000000e+000
<ENDHMM>
~h "uh"
<BEGINHMM>
<NUMSTATES> 5
<STATE> 2
<MEAN> 39
