~o
<STREAMINFO> 3 12 12 2
<VECSIZE> 26<NULLD><MFCC_E_D><DIAGC>
~h "C"
<BEGINHMM>
<NUMSTATES> 5
<STATE> 2
<SWEIGHTS> 3
 1.000000e+00 1.000000e+00 1.000000e+00
<STREAM> 1
<MEAN> 12
 -1.374579e+01 -3.856881e+00 -1.934169e+00 -4.565010e+00 -5.208660e+00 -3.984532e+00 -2.752163e+00 -1.414520e+00 -1.331421e+00 -1.118983e+00 -3.099586e+00 -4.897959e-01
<VARIANCE> 12
 4.292528e+01 5.363516e+01 3.680221e+01 4.616066e+01 3.986171e+01 3.568904e+01 3.250725e+01 3.448662e+01 2.385882e+01 1.944758e+01 2.233775e+01 1.569764e+01
<GCONST> 6.351584e+01
<STREAM> 2
<MEAN> 12
 -2.156709e+00 9.264837e-02 -1.164644e+00 -2.917304e-01 1.595276e+00 5.285001e-01 5.924721e-01 -1.455678e-01 3.356957e-01 -5.370405e-02 1.823347e-01 4.386206e-02
<VARIANCE> 12
 5.847220e+00 5.929217e+00 4.347382e+00 6.323732e+00 6.337543e+00 3.892374e+00 4.813936e+00 4.323938e+00 3.423924e+00 2.346339e+00 2.409338e+00 1.839957e+00
<GCONST> 3.872819e+01
<STREAM> 3
<MEAN> 2
 3.410667e-01 -3.553602e-02
<VARIANCE> 2
 5.648822e-02 5.000000e-02
<GCONST> -2.193702e+00
<STATE> 3
<SWEIGHTS> 3
 1.000000e+00 1.000000e+00 1.000000e+00
<STREAM> 1
<MEAN> 12
 -2.176355e+01 -4.241611e+00 -6.424765e+00 -8.805499e+00 -2.162786e+00 -5.120687e+00 -5.003721e-01 -1.408449e+00 -1.898232e-01 -1.530272e+00 -2.012228e+00 6.246927e-02
<VARIANCE> 12
 3.562905e+01 2.351665e+01 2.901547e+01 3.163277e+01 2.660950e+01 3.550573e+01 2.101209e+01 1.647235e+01 1.714677e+01 1.559955e+01 1.191930e+01 1.093946e+01
<GCONST> 5.876475e+01
<STREAM> 2
<MEAN> 12
 1.090424e-01 -4.200212e-01 -1.576535e-01 -3.340890e-01 -2.255249e-01 -5.116107e-02 -1.260329e-02 6.420619e-02 8.028400e-02 -9.621183e-02 -7.911123e-02 -1.146896e-02
<VARIANCE> 12
 3.232118e+00 1.760605e+00 2.027189e+00 2.596891e+00 1.679087e+00 2.076651e+00 1.965366e+00 1.788238e+00 1.770422e+00 1.857990e+00 1.581110e+00 1.165441e+00
<GCONST> 2.976214e+01
<STREAM> 3
<MEAN> 2
 4.508417e-01 9.893902e-03
<VARIANCE> 2
 6.832596e-02 5.000000e-02
<GCONST> -2.003444e+00
<STATE> 4
<SWEIGHTS> 3
 1.000000e+00 1.000000e+00 1.000000e+00
<STREAM> 1
<MEAN> 12
 -9.242508e+00 -8.380816e+00 -3.503929e+00 -7.109840e+00 -8.492939e+00 -3.926613e+00 -4.400959e+00 8.761055e-01 -1.275399e+00 -1.360883e+00 -3.406692e+00 -8.287183e-01
<VARIANCE> 12
 7.306818e+01 4.039268e+01 6.938628e+01 3.565803e+01 5.885048e+01 5.174447e+01 5.345535e+01 3.468587e+01 3.417052e+01 2.578848e+01 2.357887e+01 1.675795e+01
<GCONST> 6.616525e+01
<STREAM> 2
<MEAN> 12
 2.849912e+00 -7.478586e-01 5.846317e-01 -3.491662e-01 -1.761150e+00 1.738553e-01 -1.638937e+00 3.527222e-01 -4.816257e-01 1.893673e-01 1.137116e-02 -4.558605e-01
<VARIANCE> 12
 4.726912e+00 3.768140e+00 4.797874e+00 4.501026e+00 4.553570e+00 5.292869e+00 5.035264e+00 2.803923e+00 3.137038e+00 2.442148e+00 2.473691e+00 2.111758e+00
<GCONST> 3.752601e+01
<STREAM> 3
<MEAN> 2
 5.474473e-01 5.661147e-02
<VARIANCE> 2
 5.000000e-02 5.000000e-02
<GCONST> -2.315711e+00
<TRANSP> 5
 0.000000e+00 1.000000e+00 0.000000e+00 0.000000e+00 0.000000e+00
 0.000000e+00 5.312754e-01 4.687246e-01 0.000000e+00 0.000000e+00
 0.000000e+00 0.000000e+00 7.374793e-01 2.625208e-01 0.000000e+00
 0.000000e+00 0.000000e+00 0.000000e+00 6.486576e-01 3.513424e-01
 0.000000e+00 0.000000e+00 0.000000e+00 0.000000e+00 0.000000e+00
<ENDHMM>
