~o
<STREAMINFO> 3 12 12 2
<VECSIZE> 26<NULLD><MFCC_E_D><DIAGC>
~h "L"
<BEGINHMM>
<NUMSTATES> 5
<STATE> 2
<SWEIGHTS> 3
 1.000000e+00 1.000000e+00 1.000000e+00
<STREAM> 1
<MEAN> 12
 1.981915e+00 -1.977960e+00 -7.621834e+00 -1.385181e+01 -1.195654e+01 8.702213e-01 -8.771146e+00 -2.782640e+00 -4.542839e+00 -6.403689e-01 -2.144196e+00 -1.131873e+00
<VARIANCE> 12
 1.291579e+01 4.451267e+01 4.557987e+01 7.377129e+01 4.266254e+01 6.362525e+01 3.814075e+01 3.811500e+01 4.568732e+01 4.476912e+01 3.174024e+01 1.585179e+01
<GCONST> 6.556161e+01
<STREAM> 2
<MEAN> 12
 5.946913e-01 -1.325125e-01 -1.012112e-01 -6.999866e-01 -2.453604e-01 1.955504e-01 -6.655330e-01 3.249802e-01 -1.956044e-01 -2.518138e-01 2.362697e-01 1.033521e-01
<VARIANCE> 12
 1.880527e+00 2.807238e+00 3.556801e+00 2.683357e+00 4.275267e+00 4.740238e+00 2.892755e+00 3.718710e+00 2.476748e+00 2.908336e+00 3.248669e+00 9.032327e-01
<GCONST> 3.440973e+01
<STREAM> 3
<MEAN> 2
 7.019430e-01 1.907244e-02
<VARIANCE> 2
 5.000000e-02 5.000000e-02
<GCONST> -2.315711e+00
<STATE> 3
<SWEIGHTS> 3
 1.000000e+00 1.000000e+00 1.000000e+00
<STREAM> 1
<MEAN> 12
 2.836050e+00 -9.933959e+00 -7.693115e+00 -7.716936e+00 -1.367354e+01 -4.473728e+00 -1.131288e+01 4.709838e+00 -1.292489e+00 -1.188558e+00 -9.693463e-01 -1.697518e+00
<VARIANCE> 12
 9.260216e+00 4.124236e+01 9.072761e+01 5.755188e+01 3.089666e+01 7.680714e+01 3.179092e+01 6.330898e+01 4.321188e+01 2.583138e+01 1.732710e+01 1.370686e+01
<GCONST> 6.442729e+01
<STREAM> 2
<MEAN> 12
 -3.677264e-01 -1.951613e-01 2.103977e-01 1.675739e-01 -1.854291e-01 2.027295e-01 6.463619e-01 -2.924652e-01 -1.671472e-01 2.681968e-01 2.534931e-02 -2.699754e-01
<VARIANCE> 12
 3.948527e-01 2.405426e+00 2.273476e+00 2.188551e+00 3.378748e+00 2.866227e+00 2.390113e+00 1.924120e+00 2.174477e+00 1.376365e+00 1.930491e+00 1.570234e+00
<GCONST> 2.960910e+01
<STREAM> 3
<MEAN> 2
 7.847996e-01 -2.059589e-04
<VARIANCE> 2
 5.000000e-02 5.000000e-02
<GCONST> -2.315711e+00
<STATE> 4
<SWEIGHTS> 3
 1.000000e+00 1.000000e+00 1.000000e+00
<STREAM> 1
<MEAN> 12
 -1.889252e+00 -5.153402e+00 -3.652720e+00 -8.912803e+00 -1.075353e+01 -3.212675e+00 -8.676331e+00 -1.960790e+00 -3.932092e+00 1.554291e+00 -2.653348e+00 -1.228715e+00
<VARIANCE> 12
 3.113789e+01 5.116033e+01 1.044568e+02 6.245450e+01 7.244099e+01 8.830082e+01 5.124520e+01 6.439016e+01 5.776458e+01 2.077016e+01 3.370572e+01 2.286958e+01
<GCONST> 6.881360e+01
<STREAM> 2
<MEAN> 12
 -1.842439e+00 7.016867e-02 9.921176e-01 1.032990e+00 3.966405e-01 -8.892615e-01 8.672415e-01 -6.119165e-02 1.450730e-01 1.211198e-01 -2.805650e-01 2.700925e-01
<VARIANCE> 12
 4.800716e+00 5.068809e+00 2.364095e+00 4.344132e+00 7.399173e+00 6.559042e+00 5.895877e+00 4.420491e+00 4.168313e+00 2.314398e+00 2.875475e+00 2.285845e+00
<GCONST> 3.886795e+01
<STREAM> 3
<MEAN> 2
 6.942991e-01 -2.774256e-02
<VARIANCE> 2
 5.000000e-02 5.000000e-02
<GCONST> -2.315711e+00
<TRANSP> 5
 0.000000e+00 1.000000e+00 0.000000e+00 0.000000e+00 0.000000e+00
 0.000000e+00 5.912452e-01 4.087547e-01 0.000000e+00 0.000000e+00
 0.000000e+00 0.000000e+00 5.591189e-01 4.408812e-01 0.000000e+00
 0.000000e+00 0.000000e+00 0.000000e+00 5.381805e-01 4.618195e-01
 0.000000e+00 0.000000e+00 0.000000e+00 0.000000e+00 0.000000e+00
<ENDHMM>
