~o
<STREAMINFO> 3 12 12 2
<VECSIZE> 26<NULLD><MFCC_E_D><DIAGC>
~h "N"
<BEGINHMM>
<NUMSTATES> 5
<STATE> 2
<SWEIGHTS> 3
 1.000000e+00 1.000000e+00 1.000000e+00
<STREAM> 1
<MEAN> 12
 -3.088734e+00 -5.734129e+00 3.179389e+00 -8.017482e-01 -1.160260e+01 1.172658e+00 -9.816529e+00 -6.362799e+00 -4.872098e+00 -2.287053e-01 -5.822281e+00 4.574000e-02
<VARIANCE> 12
 3.385738e+00 1.537007e+01 1.417229e+01 2.526471e+01 2.809096e+01 1.867371e+01 2.616949e+01 5.276105e+01 2.813754e+01 2.770395e+01 1.355364e+01 1.753892e+01
<GCONST> 5.750991e+01
<STREAM> 2
<MEAN> 12
 -3.143136e-02 6.253692e-01 1.463825e-01 1.088678e+00 1.105667e-02 7.628204e-01 -1.306495e-01 -2.303027e+00 -1.239490e+00 3.961751e-01 2.415689e-01 9.042192e-01
<VARIANCE> 12
 1.740518e+00 1.774507e+00 1.939839e+00 2.641156e+00 3.282809e+00 2.098294e+00 3.798928e+00 3.577672e+00 4.305941e+00 2.721441e+00 2.824487e+00 1.954609e+00
<GCONST> 3.352498e+01
<STREAM> 3
<MEAN> 2
 4.697348e-01 -2.073430e-02
<VARIANCE> 2
 5.000000e-02 5.000000e-02
<GCONST> -2.315711e+00
<STATE> 3
<SWEIGHTS> 3
 1.000000e+00 1.000000e+00 1.000000e+00
<STREAM> 1
<MEAN> 12
 -3.971991e+00 -2.767156e+00 2.281908e+00 -1.283625e+00 -1.197811e+01 1.384128e+00 -7.957685e+00 -8.464452e+00 -5.114540e+00 -1.442448e+00 -7.015535e+00 3.984126e+00
<VARIANCE> 12
 2.612336e+00 3.191422e+01 1.460877e+01 1.789075e+01 1.949830e+01 1.584027e+01 2.585480e+01 3.760628e+01 2.612566e+01 2.019098e+01 1.461576e+01 1.242151e+01
<GCONST> 5.612596e+01
<STREAM> 2
<MEAN> 12
 -3.742093e-01 3.867418e-01 -1.194587e+00 -1.002742e+00 6.527923e-01 -6.865690e-01 7.909360e-01 1.339959e+00 1.292657e+00 -1.245502e+00 2.474564e-01 6.296944e-02
<VARIANCE> 12
 2.143423e+00 2.885587e+00 2.287534e+00 4.026492e+00 3.937842e+00 2.314634e+00 2.252978e+00 4.584795e+00 1.481343e+00 1.156660e+00 1.804044e+00 1.822100e+00
<GCONST> 3.237041e+01
<STREAM> 3
<MEAN> 2
 4.300611e-01 5.516179e-03
<VARIANCE> 2
 5.000000e-02 5.000000e-02
<GCONST> -2.315711e+00
<STATE> 4
<SWEIGHTS> 3
 1.000000e+00 1.000000e+00 1.000000e+00
<STREAM> 1
<MEAN> 12
 -4.873205e+00 -4.969828e+00 -3.448643e+00 -6.508979e+00 -9.411839e+00 -8.987877e-01 -5.215939e+00 -2.059111e+00 -9.069546e-01 -3.953271e+00 -4.265927e+00 3.140146e-01
<VARIANCE> 12
 4.937835e+01 3.330374e+01 4.927256e+01 4.999757e+01 3.093247e+01 2.505508e+01 2.537158e+01 4.262373e+01 2.205073e+01 2.461992e+01 1.973525e+01 8.357224e+00
<GCONST> 6.231041e+01
<STREAM> 2
<MEAN> 12
 -5.430899e-01 -6.920775e-01 -2.616148e+00 -2.693805e+00 3.455376e-01 -1.545158e-01 6.309873e-01 1.675259e+00 2.329587e+00 -4.998232e-01 6.428329e-01 -1.160639e+00
<VARIANCE> 12
 7.417695e+00 2.558421e+00 4.106183e+00 2.046277e+00 5.521362e+00 4.486721e+00 2.410741e+00 5.211587e+00 3.379381e+00 1.099380e+00 3.002149e+00 1.986546e+00
<GCONST> 3.596503e+01
<STREAM> 3
<MEAN> 2
 5.118520e-01 4.900363e-02
<VARIANCE> 2
 5.000000e-02 5.000000e-02
<GCONST> -2.315711e+00
<TRANSP> 5
 0.000000e+00 1.000000e+00 0.000000e+00 0.000000e+00 0.000000e+00
 0.000000e+00 6.925191e-01 3.074809e-01 0.000000e+00 0.000000e+00
 0.000000e+00 0.000000e+00 5.146192e-01 4.853808e-01 0.000000e+00
 0.000000e+00 0.000000e+00 0.000000e+00 4.074191e-01 5.925810e-01
 0.000000e+00 0.000000e+00 0.000000e+00 0.000000e+00 0.000000e+00
<ENDHMM>
