~o
<STREAMINFO> 3 12 12 2
<VECSIZE> 26<NULLD><MFCC_E_D><DIAGC>
~h "S"
<BEGINHMM>
<NUMSTATES> 5
<STATE> 2
<SWEIGHTS> 3
 1.000000e+00 1.000000e+00 1.000000e+00
<STREAM> 1
<MEAN> 12
 -1.315606e+01 -6.934288e+00 -9.495327e+00 -9.694279e+00 -1.910253e+00 -1.723685e-01 -3.775324e+00 1.922355e+00 2.773008e+00 -1.178009e-01 -6.290626e+00 -3.203776e+00
<VARIANCE> 12
 2.862012e+01 3.228622e+01 1.914547e+01 3.225178e+01 2.336671e+01 3.972063e+01 2.819721e+01 2.340308e+01 1.327359e+01 1.256962e+01 2.677726e+01 5.855646e+01
<GCONST> 6.110879e+01
<STREAM> 2
<MEAN> 12
 1.050019e-01 -1.162367e-01 -4.380388e-01 2.836890e-01 2.146049e-01 1.049131e+00 2.195565e-02 -1.432915e-01 -4.153677e-01 1.252641e-01 1.230200e-01 1.344061e-01
<VARIANCE> 12
 3.512774e+00 2.048619e+00 1.401115e+00 2.293665e+00 1.679873e+00 3.165295e+00 2.260820e+00 3.184421e+00 9.130358e-01 1.472686e+00 2.697107e+00 3.156740e+00
<GCONST> 3.127831e+01
<STREAM> 3
<MEAN> 2
 1.681433e-01 -3.529316e-02
<VARIANCE> 2
 5.000000e-02 5.000000e-02
<GCONST> -2.315711e+00
<STATE> 3
<SWEIGHTS> 3
 1.000000e+00 1.000000e+00 1.000000e+00
<STREAM> 1
<MEAN> 12
 -1.655403e+01 -1.907820e+00 -7.337419e+00 -5.579727e+00 -2.785017e+00 1.440217e-02 -7.630971e-01 1.485950e+00 -1.328173e+00 -5.667727e-01 -1.802316e+00 -3.999745e-01
<VARIANCE> 12
 8.036196e+00 5.678334e+00 1.115624e+01 1.902061e+01 1.666290e+01 1.278578e+01 1.306753e+01 1.807483e+01 1.204157e+01 1.448808e+01 1.781734e+01 1.155623e+01
<GCONST> 5.254791e+01
<STREAM> 2
<MEAN> 12
 1.045889e-01 2.663209e-01 1.754464e-01 1.027731e-01 -3.339725e-01 9.618989e-02 3.423931e-02 -8.668494e-02 -1.339363e-01 -1.113835e-01 4.127211e-02 -9.295135e-02
<VARIANCE> 12
 4.879298e-01 5.393230e-01 9.112443e-01 1.410892e+00 1.199934e+00 1.121718e+00 1.291417e+00 1.957116e+00 1.359307e+00 1.442062e+00 1.823864e+00 1.401851e+00
<GCONST> 2.380692e+01
<STREAM> 3
<MEAN> 2
 -6.582993e-02 -3.674676e-03
<VARIANCE> 2
 5.000000e-02 5.000000e-02
<GCONST> -2.315711e+00
<STATE> 4
<SWEIGHTS> 3
 1.000000e+00 1.000000e+00 1.000000e+00
<STREAM> 1
<MEAN> 12
 -1.228576e+01 -2.500559e+00 -2.698449e+00 -1.005769e+01 -8.760488e+00 1.208767e+00 -2.135801e+00 1.613058e+00 -3.870449e+00 -2.148660e+00 -2.383355e+00 -2.077857e+00
<VARIANCE> 12
 4.307573e+01 2.505126e+01 5.715710e+01 2.595527e+01 4.177238e+01 3.644816e+01 2.871428e+01 3.818215e+01 3.951221e+01 1.981235e+01 1.379420e+01 2.141169e+01
<GCONST> 6.301958e+01
<STREAM> 2
<MEAN> 12
 4.991362e-01 -5.392779e-01 5.350564e-01 -7.513099e-01 -8.265220e-02 5.021089e-01 -8.205019e-01 -1.212630e-02 -3.869943e-01 -5.259586e-01 -1.900156e-01 -2.367122e-01
<VARIANCE> 12
 5.335317e+00 2.571820e+00 4.169075e+00 2.568311e+00 2.993728e+00 1.862884e+00 2.250451e+00 3.340525e+00 2.426171e+00 1.833179e+00 1.486144e+00 2.043144e+00
<GCONST> 3.338337e+01
<STREAM> 3
<MEAN> 2
 1.870941e-01 7.392751e-02
<VARIANCE> 2
 7.337486e-02 5.000000e-02
<GCONST> -1.932152e+00
<TRANSP> 5
 0.000000e+00 1.000000e+00 0.000000e+00 0.000000e+00 0.000000e+00
 0.000000e+00 6.418265e-01 3.581735e-01 0.000000e+00 0.000000e+00
 0.000000e+00 0.000000e+00 8.881583e-01 1.118417e-01 0.000000e+00
 0.000000e+00 0.000000e+00 0.000000e+00 6.879249e-01 3.120750e-01
 0.000000e+00 0.000000e+00 0.000000e+00 0.000000e+00 0.000000e+00
<ENDHMM>
