~o
<STREAMINFO> 3 12 12 2
<VECSIZE> 26<NULLD><MFCC_E_D><DIAGC>
~h "V"
<BEGINHMM>
<NUMSTATES> 5
<STATE> 2
<SWEIGHTS> 3
 1.000000e+00 1.000000e+00 1.000000e+00
<STREAM> 1
<MEAN> 12
 5.330627e-01 -7.964960e+00 -4.466610e+00 -1.294546e+01 -1.300829e+01 2.441639e+00 -1.185951e+01 -1.012118e+00 -3.499955e+00 6.783066e-01 -1.253725e+00 -3.382648e+00
<VARIANCE> 12
 1.737142e+01 3.286150e+01 1.247056e+02 4.677555e+01 5.600198e+01 1.041006e+02 5.358115e+01 3.405810e+01 4.284306e+01 3.497120e+01 2.348923e+01 2.383290e+01
<GCONST> 6.689265e+01
<STREAM> 2
<MEAN> 12
 4.965428e-01 -5.653678e-01 -3.872794e-02 -7.519162e-02 -4.094828e-01 3.125048e-01 -5.245476e-01 1.768094e-01 3.894652e-01 1.861740e-01 -1.631866e-01 -3.198804e-01
<VARIANCE> 12
 1.485007e+00 1.693046e+00 2.403329e+00 1.785148e+00 2.940769e+00 2.484329e+00 2.337711e+00 2.209872e+00 2.670334e+00 1.748435e+00 1.686900e+00 1.519965e+00
<GCONST> 3.054611e+01
<STREAM> 3
<MEAN> 2
 7.951859e-01 1.582633e-02
<VARIANCE> 2
 5.000000e-02 5.000000e-02
<GCONST> -2.315711e+00
<STATE> 3
<SWEIGHTS> 3
 1.000000e+00 1.000000e+00 1.000000e+00
<STREAM> 1
<MEAN> 12
 1.460099e+00 -1.499418e+01 -6.535163e+00 -8.896377e+00 -1.462841e+01 1.856799e+00 -8.443484e+00 4.358593e+00 7.951396e-01 -7.622468e-01 -6.757017e+00 -6.786404e+00
<VARIANCE> 12
 1.156985e+01 3.502606e+01 7.185599e+01 1.817420e+01 3.836006e+01 5.881718e+01 3.137698e+01 3.459533e+01 3.857338e+01 2.012914e+01 2.722246e+01 2.368258e+01
<GCONST> 6.306844e+01
<STREAM> 2
<MEAN> 12
 -3.575482e-01 3.742345e-01 8.489358e-01 2.310678e-01 -1.840541e-01 -8.307225e-01 4.480053e-01 3.585827e-01 -2.523431e-01 9.643047e-03 -1.909304e-01 5.006980e-01
<VARIANCE> 12
 6.669260e-01 2.024246e+00 2.900923e+00 1.733846e+00 2.403605e+00 2.798128e+00 2.225574e+00 2.538932e+00 1.852933e+00 1.647171e+00 1.944620e+00 2.004431e+00
<GCONST> 3.008395e+01
<STREAM> 3
<MEAN> 2
 8.449769e-01 -1.548071e-02
<VARIANCE> 2
 5.000000e-02 5.000000e-02
<GCONST> -2.315711e+00
<STATE> 4
<SWEIGHTS> 3
 1.000000e+00 1.000000e+00 1.000000e+00
<STREAM> 1
<MEAN> 12
 -5.364142e+00 -5.261149e+00 2.261317e+00 -7.959812e+00 -1.237451e+01 -4.636852e+00 -5.514541e+00 1.021999e+00 -3.350029e+00 -3.962114e-02 -3.950223e+00 -1.043309e+00
<VARIANCE> 12
 3.744093e+01 3.717595e+01 6.080409e+01 3.610742e+01 6.792141e+01 5.089077e+01 4.724582e+01 4.080213e+01 4.700822e+01 3.636795e+01 2.649526e+01 1.812713e+01
<GCONST> 6.631763e+01
<STREAM> 2
<MEAN> 12
 -2.245299e+00 1.826593e+00 -8.713791e-01 1.028903e+00 2.381768e+00 4.340962e-02 1.351108e+00 -1.194560e+00 3.049014e-01 2.139602e-02 2.260075e-01 2.692856e-01
<VARIANCE> 12
 4.884670e+00 3.215794e+00 5.280235e+00 3.826203e+00 5.592963e+00 4.398497e+00 5.022762e+00 3.855919e+00 6.055559e+00 3.255538e+00 2.471601e+00 1.742383e+00
<GCONST> 3.842236e+01
<STREAM> 3
<MEAN> 2
 6.197283e-01 -7.312919e-02
<VARIANCE> 2
 5.000000e-02 5.000000e-02
<GCONST> -2.315711e+00
<TRANSP> 5
 0.000000e+00 1.000000e+00 0.000000e+00 0.000000e+00 0.000000e+00
 0.000000e+00 7.321516e-01 2.678484e-01 0.000000e+00 0.000000e+00
 0.000000e+00 0.000000e+00 7.186220e-01 2.813779e-01 0.000000e+00
 0.000000e+00 0.000000e+00 0.000000e+00 6.189578e-01 3.810422e-01
 0.000000e+00 0.000000e+00 0.000000e+00 0.000000e+00 0.000000e+00
<ENDHMM>
