~o
<STREAMINFO> 1 39
<VECSIZE> 39<NULLD><MFCC_D_A_0><DIAGC>
~s "silst"
<MEAN> 39
 -1.577147e+01 -1.180674e+01 -5.413565e+00 -8.545324e+00 -4.799338e+00 -1.192859e+01 -5.917246e+00 3.984553e+00 2.594017e+00 -6.987533e+00 -6.922603e-01 -2.026921e+00 5.448043e+01 -1.430937e-01 -3.237574e-01 1.004967e-01 1.132091e-01 8.337487e-02 -8.194554e-02 1.103468e-01 3.751494e-01 2.503944e-01 -9.387199e-03 -7.464431e-02 -2.030519e-02 -3.346652e-02 5.601700e-02 8.743661e-02 -1.281813e-02 -3.369181e-02 -3.904101e-02 5.508729e-02 -2.850651e-02 -8.198763e-02 -3.818185e-02 -2.656864e-02 -1.488892e-02 -1.283727e-02 1.788047e-02
<VARIANCE> 39
 3.141713e+01 7.296107e+01 4.041946e+01 4.283008e+01 5.513050e+01 5.391381e+01 6.082738e+01 1.006867e+02 7.683954e+01 4.790997e+01 2.885564e+01 2.414327e+01 3.875673e+01 2.338984e+00 3.107770e+00 2.981666e+00 4.180072e+00 3.835332e+00 3.755805e+00 3.749511e+00 5.024308e+00 4.384250e+00 3.760495e+00 2.703280e+00 2.095346e+00 2.746598e+00 4.086929e-01 4.184803e-01 5.721852e-01 7.190477e-01 7.366621e-01 6.680098e-01 7.405260e-01 8.084314e-01 7.215793e-01 7.452269e-01 5.300903e-01 4.112005e-01 3.579626e-01
<GCONST> 1.306126e+02
~h "d"
<BEGINHMM>
<NUMSTATES> 5
<STATE> 2
<MEAN> 39
 -1.185915e+01 -2.200156e+00 -7.005398e+00 -5.929018e+00 -5.547674e+00 -9.328793e+00 -7.852453e+00 -6.416814e+00 -6.137897e+00 -6.407540e+00 -3.784635e+00 -3.313984e+00 5.167231e+01 -7.196914e-01 -1.189538e+00 -9.225034e-01 -7.208793e-01 -3.427874e-01 -2.571445e-01 9.471189e-01 9.184269e-01 6.959348e-01 1.887698e-01 4.787214e-01 1.001469e+00 1.415053e+00 4.468000e-01 -2.651963e-02 -1.243227e-01 -3.576682e-01 -3.509749e-01 -4.431691e-01 -2.465170e-01 1.166897e-01 2.864528e-01 -1.427892e-01 1.301397e-02 4.238018e-02 8.973264e-01
<VARIANCE> 39
 1.907977e+01 1.390573e+01 1.446383e+01 2.503380e+01 2.318801e+01 6.620358e+01 1.915416e+01 1.966859e+01 1.813869e+01 2.889603e+01 1.430187e+01 1.589874e+01 1.035013e+02 1.467104e+00 2.704431e+00 2.601395e+00 2.934476e+00 2.414697e+00 4.292474e+00 2.760169e+00 3.453312e+00 3.537909e+00 2.647347e+00 1.819124e+00 3.194575e+00 7.842124e+00 2.712935e-01 2.831695e-01 3.477122e-01 6.522129e-01 6.844836e-01 6.702609e-01 1.139460e+00 6.613546e-01 3.467606e-01 5.945237e-01 5.547991e-01 3.803532e-01 8.071548e-01
<GCONST> 1.183449e+02
<STATE> 3
<MEAN> 39
 -1.305818e+01 -4.013353e+00 -7.806043e+00 -6.342842e+00 -5.893545e+00 -6.797826e+00 -5.526587e+00 -5.144747e+00 -4.659682e+00 -4.036800e+00 -2.630356e+00 -2.409146e+00 4.964640e+01 2.392131e-01 -9.407467e-01 -8.482514e-01 -1.051843e+00 -1.339288e+00 -1.777630e+00 9.078866e-01 1.619673e-02 6.864847e-01 -2.342591e-01 7.719437e-01 3.977692e-01 3.938997e+00 5.579205e-01 -1.870206e-01 -6.450179e-02 -3.061234e-01 -5.235183e-01 -6.862718e-01 -2.119797e-01 -6.627844e-02 -5.848493e-02 -5.965869e-01 -1.111485e-01 -8.069554e-02 1.546505e+00
<VARIANCE> 39
 1.317552e+01 6.654495e+00 9.924502e+00 1.587924e+01 1.348618e+01 5.149094e+01 2.080135e+01 1.582507e+01 1.593206e+01 1.991862e+01 1.332988e+01 1.373742e+01 8.516034e+01 1.303791e+00 1.247152e+00 1.559586e+00 1.999076e+00 2.832838e+00 4.687476e+00 2.789577e+00 4.360215e+00 2.556976e+00 2.529727e+00 2.031868e+00 2.469754e+00 1.299682e+01 2.399661e-01 3.770212e-01 3.257384e-01 3.616163e-01 5.457332e-01 6.361699e-01 8.143817e-01 4.467383e-01 4.014685e-01 5.613153e-01 4.765612e-01 3.871976e-01 1.691925e+00
<GCONST> 1.124530e+02
<STATE> 4
<MEAN> 39
 -8.912210e+00 -6.889382e+00 -1.081262e+01 -1.123324e+01 -1.259288e+01 -1.792965e+01 -7.497017e+00 -3.997735e+00 -6.323161e-01 -9.437757e+00 -2.731816e+00 -1.823116e+00 7.076904e+01 1.501241e+00 -8.866793e-01 -2.893439e-01 -9.126025e-01 -1.309905e+00 -1.145654e+00 -6.506703e-01 6.064477e-01 3.305744e-01 -1.622327e+00 -3.891434e-01 2.507978e-02 3.400758e+00 9.199649e-02 9.974804e-02 3.412415e-01 2.684088e-01 6.982267e-01 8.218056e-01 -3.315653e-01 -1.164543e-01 -3.901808e-01 -1.792683e-01 -3.196281e-01 -1.473558e-01 -1.200671e+00
<VARIANCE> 39
 2.189107e+01 1.769128e+01 1.432187e+01 1.619633e+01 2.778372e+01 3.024267e+01 6.556469e+01 5.215409e+01 2.554646e+01 3.867978e+01 4.038651e+01 2.800242e+01 3.131528e+01 2.319123e+00 2.190188e+00 2.198087e+00 2.854408e+00 4.908004e+00 7.090421e+00 2.912254e+00 3.606167e+00 3.046053e+00 5.211996e+00 2.568457e+00 2.846843e+00 2.293750e+01 4.551067e-01 3.562755e-01 2.903630e-01 4.266670e-01 6.862359e-01 8.906745e-01 8.398017e-01 9.513443e-01 4.705794e-01 1.113175e+00 5.906975e-01 7.714193e-01 7.192867e-01
<GCONST> 1.261880e+02
<TRANSP> 5
 0.000000e+00 1.000000e+00 0.000000e+00 0.000000e+00 0.000000e+00
 0.000000e+00 1.354406e-01 8.645595e-01 0.000000e+00 0.000000e+00
 0.000000e+00 0.000000e+00 5.793594e-01 4.206406e-01 0.000000e+00
 0.000000e+00 0.000000e+00 0.000000e+00 6.318128e-01 3.681873e-01
 0.000000e+00 0.000000e+00 0.000000e+00 0.000000e+00 0.000000e+00
<ENDHMM>
~h "f"
<BEGINHMM>
<NUMSTATES> 5
<STATE> 2
<MEAN> 39
 -1.579485e+01 -1.675142e+01 -5.716158e+00 -9.505044e+00 -9.796161e-01 -1.364291e+01 -9.073213e+00 8.387934e+00 1.153365e+01 -1.086293e+01 -2.336835e+00 -3.669257e+00 5.711513e+01 -1.065045e-01 3.962908e-01 -1.678629e-01 5.082924e-01 -1.148999e-01 1.296569e-01 1.178346e-01 -2.445617e-01 -2.733390e-01 3.390633e-01 -1.117116e-01 6.629967e-02 -4.146220e-01 3.602642e-02 1.405285e-01 -2.513671e-02 2.099636e-02 -5.017202e-02 8.626609e-02 6.064117e-03 -1.498990e-01 -1.891948e-01 4.488932e-02 2.530415e-02 3.257674e-02 -1.021779e-01
<VARIANCE> 39
 7.050627e+00 3.333279e+01 1.724994e+01 3.428176e+01 2.569595e+01 2.314970e+01 3.506174e+01 6.014689e+01 6.179073e+01 2.597294e+01 1.982030e+01 2.055866e+01 2.404968e+01 1.348278e+00 1.067787e+00 1.011932e+00 2.203131e+00 1.637530e+00 1.711980e+00 2.638778e+00 3.540523e+00 3.168229e+00 2.107629e+00 1.773079e+00 1.649301e+00 9.409174e-01 8.000853e-02 1.089107e-01 1.861822e-01 3.966823e-01 2.779908e-01 3.423448e-01 4.254617e-01 5.031659e-01 4.349646e-01 3.873818e-01 3.528373e-01 3.068525e-01 4.973414e-02
<GCONST> 1.032279e+02
<STATE> 3
<MEAN> 39
 -2.056940e+01 -3.613018e+00 -8.699833e+00 -1.878289e+00 -7.384197e+00 -7.571285e+00 -5.981159e+00 -3.319886e+00 -1.742412e+00 -4.821847e+00 -2.336855e+00 -3.716478e+00 5.394224e+01 -6.376690e-01 5.825977e-02 -1.417963e-01 -6.413998e-02 -1.465452e-01 1.715265e-01 4.014793e-01 -3.905321e-02 2.975406e-02 2.335263e-01 2.718261e-01 2.678814e-02 4.599420e-01 3.441017e-01 -1.514620e-01 -2.527859e-02 -2.388403e-01 -4.612057e-03 -1.887212e-01 -2.142628e-01 -6.004758e-02 5.691455e-02 -1.107702e-01 -9.337836e-03 -4.717656e-02 3.587339e-01
<VARIANCE> 39
 2.912173e+01 2.210707e+01 1.282193e+01 1.465680e+01 1.990615e+01 2.320677e+01 1.926418e+01 2.488052e+01 2.191546e+01 1.621083e+01 1.560476e+01 1.526227e+01 4.170996e+01 1.936818e+00 2.364446e+00 1.462515e+00 1.821219e+00 2.310404e+00 3.088532e+00 2.196067e+00 2.652202e+00 2.849962e+00 1.863824e+00 1.670174e+00 1.654947e+00 4.123628e+00 6.102200e-01 4.380514e-01 2.864705e-01 4.715386e-01 4.648766e-01 5.697682e-01 5.191975e-01 5.849307e-01 5.878626e-01 4.077914e-01 3.617249e-01 3.587802e-01 7.935129e-01
<GCONST> 1.115539e+02
<STATE> 4
<MEAN> 39
 -1.842665e+01 -6.663339e+00 -1.014624e+01 -5.858986e+00 -8.793914e+00 -1.133767e+01 -7.676176e+00 -5.390963e+00 -7.086909e-01 -3.675601e+00 -8.691483e-01 -4.085124e+00 6.486911e+01 5.055951e+00 -5.595360e-02 -4.937761e-01 -3.389208e+00 3.549548e-02 -8.033081e-01 -2.867500e+00 -2.701426e+00 -3.352467e-01 -1.657441e+00 -3.149618e-01 -9.281416e-01 3.481584e+00 1.011948e+00 5.984550e-01 -1.676370e-01 -1.010457e+00 3.775725e-01 5.026409e-01 -5.877399e-01 -6.643325e-01 -4.104618e-02 -8.566945e-01 -1.016802e-01 -2.790539e-01 -2.126925e-02
<VARIANCE> 39
 5.106496e+01 2.440226e+01 2.056491e+01 2.878403e+01 3.516732e+01 2.976061e+01 2.783570e+01 2.890549e+01 2.228698e+01 2.055058e+01 1.562036e+01 1.259982e+01 2.649081e+01 5.163307e+00 4.670346e+00 1.707236e+00 6.067476e+00 3.259324e+00 3.581801e+00 3.645777e+00 4.683879e+00 2.987468e+00 4.400033e+00 2.837664e+00 2.047741e+00 3.052347e+00 1.218526e+00 7.871049e-01 4.666393e-01 9.854093e-01 7.682123e-01 6.827937e-01 7.714109e-01 7.596681e-01 7.534940e-01 6.587198e-01 6.569046e-01 4.248400e-01 6.645439e-01
<GCONST> 1.254017e+02
<TRANSP> 5
 0.000000e+00 1.000000e+00 0.000000e+00 0.000000e+00 0.000000e+00
 0.000000e+00 8.659555e-01 1.340445e-01 0.000000e+00 0.000000e+00
 0.000000e+00 0.000000e+00 9.035147e-01 9.648533e-02 0.000000e+00
 0.000000e+00 0.000000e+00 0.000000e+00 6.236443e-01 3.763557e-01
 0.000000e+00 0.000000e+00 0.000000e+00 0.000000e+00 0.000000e+00
<ENDHMM>
~h "k"
<BEGINHMM>
<NUMSTATES> 5
<STATE> 2
<MEAN> 39
 -1.648242e+01 -1.600840e+01 -5.555527e+00 -8.151957e+00 -3.021515e+00 -1.635243e+01 -7.458824e+00 1.063448e+01 1.126843e+01 -1.110989e+01 -2.013452e+00 -3.338995e+00 5.675356e+01 -7.009979e-02 4.409078e-01 -2.621235e-01 4.135459e-01 1.628685e-01 2.810357e-01 -4.772112e-02 -2.764872e-01 -2.926945e-01 2.031873e-01 -1.883463e-01 1.749290e-01 -3.385929e-01 2.291113e-02 1.009460e-01 1.614922e-02 -2.113984e-03 2.952273e-03 1.441239e-01 1.936025e-02 -2.221558e-01 -1.313182e-01 9.262307e-02 -2.043308e-02 7.760317e-03 -1.268593e-01
<VARIANCE> 39
 8.962809e+00 2.271939e+01 1.233652e+01 3.851384e+01 3.937776e+01 2.097256e+01 3.627910e+01 4.517160e+01 5.172663e+01 2.221457e+01 2.648586e+01 2.203328e+01 3.400784e+01 7.921149e-01 1.011890e+00 1.046244e+00 1.648537e+00 1.730776e+00 2.411028e+00 2.107930e+00 3.402683e+00 2.459148e+00 2.033140e+00 2.025262e+00 1.782604e+00 7.583171e-01 7.301594e-02 1.133082e-01 1.863678e-01 2.912385e-01 3.317965e-01 4.087932e-01 3.679922e-01 5.639856e-01 4.202470e-01 3.421296e-01 3.929916e-01 3.209508e-01 1.040725e-01
<GCONST> 1.030058e+02
<STATE> 3
<MEAN> 39
 -2.164451e+01 -3.057055e+00 -7.762879e+00 -2.994269e-01 -7.981660e+00 -6.357080e+00 -4.447251e+00 -1.443803e+00 -2.620648e+00 -5.594550e+00 -1.026797e+00 -1.062178e+00 5.381213e+01 -1.375183e-01 3.623829e-01 -1.513621e-01 -1.556347e-01 3.959503e-01 8.033220e-01 1.161620e-01 -5.160527e-01 -2.552275e-01 3.062149e-01 6.183882e-02 -5.376376e-02 -7.439846e-01 2.096585e-01 -1.417345e-01 -5.226749e-02 -8.880679e-02 -5.435146e-02 -3.746937e-01 3.174447e-02 -8.006277e-03 5.748917e-02 -9.327212e-03 2.624419e-02 4.052344e-03 1.940916e-01
<VARIANCE> 39
 4.590648e+01 1.138711e+01 1.041311e+01 1.880207e+01 2.763873e+01 2.579865e+01 1.734641e+01 2.032018e+01 1.760177e+01 2.018573e+01 2.090570e+01 1.382324e+01 6.979330e+01 1.201970e+00 1.054895e+00 1.144460e+00 1.343784e+00 2.143639e+00 3.464604e+00 2.128883e+00 2.450201e+00 2.106161e+00 1.846009e+00 1.850099e+00 1.487371e+00 1.259311e+00 2.013431e-01 1.853496e-01 3.458674e-01 3.022201e-01 4.700590e-01 5.801029e-01 4.359732e-01 5.238154e-01 4.021984e-01 4.171798e-01 3.914347e-01 3.235330e-01 3.635887e-01
<GCONST> 1.051722e+02
<STATE> 4
<MEAN> 39
 -1.614385e+01 -5.259037e+00 -1.441137e+01 -5.229228e+00 -2.852347e+00 -1.077072e+01 -2.707158e+00 -6.118045e+00 -1.499094e+00 -1.146144e+00 -8.549774e-01 -4.628046e-01 5.734090e+01 1.523290e+00 -7.319785e-01 -2.046053e+00 -1.756881e+00 1.308639e+00 -3.299986e+00 -3.775306e-01 -6.265398e-01 1.047037e+00 1.129164e+00 -2.056205e-01 3.649774e-01 3.754841e+00 1.392210e-02 9.506913e-02 4.742900e-01 -2.879658e-02 -8.499260e-02 1.097913e-01 -3.541066e-01 2.740941e-01 1.738179e-01 -7.267708e-02 -1.783023e-01 -2.609770e-01 9.254281e-02
<VARIANCE> 39
 6.543865e+01 2.673708e+01 8.649371e+01 4.745824e+01 1.015187e+02 8.418524e+01 3.109719e+01 3.408955e+01 2.978099e+01 3.671548e+01 1.938515e+01 1.831581e+01 1.096722e+02 3.142278e+00 2.173797e+00 9.054445e+00 3.338120e+00 9.358515e+00 5.883289e+00 4.921671e+00 3.056878e+00 3.795432e+00 3.037297e+00 1.945026e+00 2.609923e+00 1.130762e+01 9.034926e-01 3.997671e-01 2.244679e+00 8.204302e-01 1.435105e+00 2.344692e+00 8.210407e-01 6.705299e-01 6.106847e-01 6.387814e-01 3.961249e-01 5.741010e-01 2.420644e+00
<GCONST> 1.382653e+02
<TRANSP> 5
 0.000000e+00 1.000000e+00 0.000000e+00 0.000000e+00 0.000000e+00
 0.000000e+00 8.784937e-01 1.215063e-01 0.000000e+00 0.000000e+00
 0.000000e+00 0.000000e+00 8.896018e-01 1.103982e-01 0.000000e+00
 0.000000e+00 0.000000e+00 0.000000e+00 6.529486e-01 3.470514e-01
 0.000000e+00 0.000000e+00 0.000000e+00 0.000000e+00 0.000000e+00
<ENDHMM>
~h "l"
<BEGINHMM>
<NUMSTATES> 5
<STATE> 2
<MEAN> 39
 -3.019727e+00 -5.038638e+00 -1.074577e+01 -2.085924e+01 -1.894448e+00 -1.642794e+01 -1.702441e+01 -9.510525e+00 3.068168e+00 -1.840807e+01 -6.714194e+00 -8.483535e+00 7.354342e+01 5.009283e-01 4.740449e-01 -1.206545e+00 -1.315291e+00 2.188036e+00 1.211459e+00 -1.340292e+00 -1.783935e+00 1.683653e+00 -4.280547e-01 1.562845e+00 -1.908047e+00 -4.366046e-01 -5.714056e-02 7.401605e-02 2.664819e-01 -8.241612e-02 -4.264394e-01 2.590202e-01 4.557577e-01 -1.213379e-01 -3.934363e-01 1.789558e-01 5.947427e-01 2.767165e-02 -9.834611e-02
<VARIANCE> 39
 4.733641e+00 1.762712e+01 1.457327e+01 2.248083e+01 3.426403e+01 5.095129e+01 3.089715e+01 5.968883e+01 3.362362e+01 2.599548e+01 4.217867e+01 4.155412e+01 8.323108e+00 2.695190e-01 6.911137e-01 1.852374e+00 1.683362e+00 3.929529e+00 2.593723e+00 3.892543e+00 2.866689e+00 2.838600e+00 1.724434e+00 5.167763e+00 3.735594e+00 3.620740e-01 6.104716e-02 9.975893e-02 1.188083e-01 3.683797e-01 4.002331e-01 4.429692e-01 3.511035e-01 8.161612e-01 4.785919e-01 3.721835e-01 5.589411e-01 7.563645e-01 3.925599e-02
<GCONST> 1.039286e+02
<STATE> 3
<MEAN> 39
 -1.113773e+00 -2.782851e+00 -1.474532e+01 -2.928018e+01 3.546964e+00 -7.323925e+00 -1.555189e+01 -1.888347e+01 5.598748e+00 -2.315425e+01 5.550552e+00 -1.204732e+01 7.248424e+01 1.519110e-01 3.148380e-01 -1.999975e-01 -2.794774e-01 -3.208481e-02 1.600115e-01 -4.162493e-01 3.881379e-01 6.096889e-02 1.715076e-01 5.407696e-01 1.838977e-01 -4.214667e-01 -6.338867e-02 -1.873656e-02 6.854598e-02 2.725087e-01 -1.514923e-01 -1.551436e-01 -1.145723e-01 2.406915e-01 -1.504620e-01 2.271579e-01 -2.984457e-01 1.603549e-01 -8.729228e-02
<VARIANCE> 39
 4.113575e+00 1.312704e+01 1.139573e+01 2.831449e+01 2.132250e+01 3.527137e+01 3.636171e+01 4.045585e+01 3.029246e+01 3.203469e+01 3.570534e+01 2.654132e+01 1.351080e+01 2.423203e-01 5.831556e-01 7.503806e-01 1.586426e+00 1.270835e+00 1.972796e+00 1.918117e+00 1.929562e+00 1.747053e+00 2.138410e+00 2.961414e+00 1.568347e+00 4.087360e-01 4.534817e-02 9.392837e-02 1.149024e-01 2.057641e-01 2.343478e-01 2.682825e-01 2.491244e-01 3.239741e-01 3.213592e-01 3.132966e-01 3.742177e-01 3.701715e-01 6.702881e-02
<GCONST> 9.263685e+01
<STATE> 4
<MEAN> 39
 -1.575693e+00 -3.432927e-01 -1.119550e+01 -1.840121e+01 -3.737050e+00 -1.346712e+01 -2.246734e+01 -7.766250e+00 1.483082e+00 -1.353286e+01 -8.430760e-01 -4.928865e+00 6.588804e+01 -7.634842e-01 -4.304523e-01 6.719742e-01 1.982758e+00 -1.129051e+00 -1.138633e-01 9.477274e-01 9.216455e-01 -1.272692e+00 1.013630e+00 -1.017836e+00 9.575776e-01 -1.060060e+00 -2.904200e-01 -1.604858e-01 8.988235e-03 1.208787e-01 -6.616335e-02 2.532559e-01 6.300287e-01 -1.673756e-01 -1.476402e-01 -7.159115e-02 -5.617714e-02 -1.440665e-01 4.963643e-02
<VARIANCE> 39
 1.002581e+01 1.866010e+01 4.206562e+01 6.073990e+01 5.033169e+01 1.113774e+02 5.646524e+01 6.141600e+01 5.171236e+01 4.471385e+01 9.701550e+01 5.815390e+01 4.327013e+01 1.789701e+00 1.958596e+00 2.064584e+00 5.149391e+00 2.879919e+00 5.174993e+00 7.158198e+00 3.358661e+00 4.477992e+00 5.357610e+00 4.924971e+00 3.689415e+00 3.412362e+00 2.825396e-01 2.674924e-01 3.749670e-01 8.268833e-01 5.478530e-01 7.640718e-01 1.037154e+00 6.874010e-01 8.649526e-01 7.371408e-01 9.649088e-01 5.874978e-01 3.483879e-01
<GCONST> 1.314583e+02
<TRANSP> 5
 0.000000e+00 1.000000e+00 0.000000e+00 0.000000e+00 0.000000e+00
 0.000000e+00 6.327196e-01 3.672804e-01 0.000000e+00 0.000000e+00
 0.000000e+00 0.000000e+00 8.736451e-01 1.263549e-01 0.000000e+00
 0.000000e+00 0.000000e+00 0.000000e+00 8.232856e-01 1.767144e-01
 0.000000e+00 0.000000e+00 0.000000e+00 0.000000e+00 0.000000e+00
<ENDHMM>
~h "n"
<BEGINHMM>
<NUMSTATES> 5
<STATE> 2
<MEAN> 39
 -2.983410e+00 8.303973e-01 -6.233950e-01 -1.584698e+01 -1.455869e+01 -1.275465e+01 -1.951088e+01 -7.911586e+00 -9.921896e+00 -7.162988e+00 -6.574362e+00 -4.170680e+00 6.604012e+01 1.988595e-01 1.048466e+00 6.562451e-01 6.508785e-01 -2.561281e-01 5.012420e-01 -3.840620e-01 -1.434065e+00 -1.972216e-01 5.300975e-01 -3.133457e-01 2.499832e-01 -1.513321e+00 -1.508510e-01 -9.355810e-02 -9.950692e-02 2.605883e-01 1.975284e-01 4.751594e-02 2.738864e-01 -8.857168e-02 5.377970e-02 -4.455396e-01 1.344686e-02 -1.345565e-01 -1.132687e-01
<VARIANCE> 39
 2.030444e+01 1.749060e+01 9.021291e+01 6.294300e+01 9.294488e+01 8.588149e+01 4.436002e+01 8.773991e+01 4.430149e+01 5.323763e+01 6.963866e+01 4.601067e+01 3.817251e+01 1.550543e+00 1.609393e+00 2.218503e+00 3.252137e+00 3.547656e+00 3.261019e+00 3.876099e+00 4.094760e+00 2.432421e+00 4.372485e+00 3.564356e+00 3.699195e+00 1.600479e+00 2.440905e-01 2.219494e-01 3.481095e-01 3.926894e-01 6.271125e-01 6.283475e-01 6.184276e-01 7.071316e-01 4.432291e-01 6.059327e-01 6.726215e-01 5.348698e-01 1.728904e-01
<GCONST> 1.256870e+02
<STATE> 3
<MEAN> 39
 -4.052149e-01 5.331344e+00 -1.238848e-01 -5.176170e+00 -1.248601e+01 -1.637174e+01 -1.937318e+01 -1.195054e+01 -1.010772e+01 -1.290885e+01 -6.761237e+00 -5.134324e+00 5.654356e+01 -7.543855e-01 3.345071e-01 3.072552e-01 6.979797e-01 1.526718e-01 5.094767e-01 8.903683e-01 -8.141872e-01 -2.134303e-01 -3.101507e-01 -2.847093e-01 -4.346315e-01 -1.070423e+00 -4.555556e-01 -3.755253e-01 -2.779649e-01 -1.798493e-01 2.383328e-01 1.593319e-01 3.175744e-01 5.530295e-01 1.574955e-01 2.058411e-01 1.018371e-01 9.494462e-02 2.225870e-01
<VARIANCE> 39
 1.232695e+01 1.188136e+01 2.880343e+01 3.725839e+01 2.861609e+01 3.261090e+01 2.036636e+01 4.283515e+01 3.327182e+01 3.037475e+01 3.265617e+01 2.527698e+01 1.740761e+01 2.341512e+00 1.468618e+00 1.954264e+00 2.467250e+00 2.442950e+00 3.297889e+00 2.918486e+00 4.079446e+00 2.301263e+00 3.141364e+00 2.880066e+00 2.762893e+00 1.424013e+00 2.859200e-01 2.459908e-01 2.937255e-01 3.296204e-01 3.828289e-01 4.411963e-01 4.390481e-01 6.154775e-01 4.377394e-01 5.140742e-01 4.906157e-01 5.206819e-01 1.340016e-01
<GCONST> 1.125783e+02
<STATE> 4
<MEAN> 39
 -8.751354e+00 1.402829e+00 -2.516088e+00 -5.029630e+00 -8.926721e+00 -1.087313e+01 -1.168097e+01 -9.885413e+00 -9.188360e+00 -9.910948e+00 -6.108041e+00 -4.949577e+00 5.158220e+01 -1.540234e+00 -9.326427e-01 -7.698283e-01 2.370621e-01 4.594707e-01 5.383682e-01 1.284241e+00 9.552516e-01 6.848594e-01 5.697119e-01 3.929735e-01 9.594903e-02 -3.593360e-01 1.647152e-01 -1.510261e-01 -1.766023e-01 -3.213198e-01 -1.160013e-01 -2.785344e-01 -2.810394e-01 2.850236e-01 1.993017e-01 1.045748e-01 2.018709e-01 1.694973e-01 4.959555e-01
<VARIANCE> 39
 2.369400e+01 1.781471e+01 2.409207e+01 2.753119e+01 2.575137e+01 2.963674e+01 2.115392e+01 2.719718e+01 2.753283e+01 3.138394e+01 2.261564e+01 1.917481e+01 3.063618e+01 2.838077e+00 1.873463e+00 2.321198e+00 2.720008e+00 3.060670e+00 4.439358e+00 3.052405e+00 3.378008e+00 2.542100e+00 3.291704e+00 2.935471e+00 2.175636e+00 2.563878e+00 4.238825e-01 4.460460e-01 4.215490e-01 4.598146e-01 5.478525e-01 5.802894e-01 5.720638e-01 6.440656e-01 5.253171e-01 5.924742e-01 4.906311e-01 4.343157e-01 3.166278e-01
<GCONST> 1.175302e+02
<TRANSP> 5
 0.000000e+00 1.000000e+00 0.000000e+00 0.000000e+00 0.000000e+00
 0.000000e+00 6.973773e-01 3.026227e-01 0.000000e+00 0.000000e+00
 0.000000e+00 0.000000e+00 7.193069e-01 2.806931e-01 0.000000e+00
 0.000000e+00 0.000000e+00 0.000000e+00 6.805164e-01 3.194836e-01
 0.000000e+00 0.000000e+00 0.000000e+00 0.000000e+00 0.000000e+00
<ENDHMM>
~h "p"
<BEGINHMM>
<NUMSTATES> 5
<STATE> 2
<MEAN> 39
 -1.552120e+00 -1.471729e+00 -4.415936e+00 -4.473503e+00 -8.700921e+00 -1.604726e+01 -2.192731e+01 -9.858832e+00 -5.702864e+00 -1.148692e+01 -8.928507e+00 -7.564754e+00 5.830290e+01 -1.762121e+00 7.975802e-01 -6.345571e-01 1.821311e+00 8.622392e-01 3.080604e+00 2.321528e+00 -2.902938e-01 -1.885765e+00 2.661098e-01 1.768354e+00 2.199945e-01 -3.554990e+00 -2.073466e-01 -1.384026e-01 -7.360376e-01 -1.412175e+00 5.471416e-01 1.006083e+00 5.005080e-01 -4.363938e-01 2.603150e-01 7.952248e-01 1.238859e-02 2.044275e-01 -1.096837e-04
<VARIANCE> 39
 1.195897e+01 7.753691e+00 7.825653e+00 1.423808e+01 9.004245e+00 5.098703e+01 3.224608e+01 2.326638e+01 4.027354e+01 1.014301e+01 1.949354e+01 1.271387e+01 2.743513e+01 2.697366e-01 1.154528e+00 1.251387e+00 4.272082e+00 1.739531e+00 3.651091e+00 2.820729e+00 2.111532e+00 2.178548e+00 2.667672e+00 2.243681e+00 9.204785e-01 6.729878e-01 2.072190e-01 2.280890e-01 1.924723e-01 5.261938e-01 4.110500e-01 1.646800e+00 4.847490e-01 3.551116e-01 5.294682e-01 3.453098e-01 5.584907e-01 1.571653e-01 3.089339e-01
<GCONST> 1.019405e+02
<STATE> 3
<MEAN> 39
 -9.025610e+00 -2.585775e+00 -9.270351e+00 -7.311149e+00 -6.828618e+00 -6.178008e+00 -1.088678e+01 -1.067187e+01 -7.623590e+00 -4.331009e+00 -4.188331e+00 -5.562624e+00 4.820006e+01 -1.068667e+00 -7.591797e-01 -3.912924e-01 6.955266e-02 -2.709662e-01 5.182015e-01 1.432538e+00 7.571561e-01 3.940187e-01 7.689294e-01 5.833360e-01 1.427580e-01 -3.066556e-01 -6.026310e-02 -1.989698e-01 1.497357e-01 2.027805e-01 -3.449719e-01 -5.084590e-01 -1.568280e-01 2.104401e-01 1.687655e-01 -1.547728e-01 2.429809e-02 6.441654e-02 9.278628e-01
<VARIANCE> 39
 8.837614e+00 3.903010e+00 7.760052e+00 7.244256e+00 1.015038e+01 9.156287e+00 1.777955e+01 1.924504e+01 1.577646e+01 1.223106e+01 8.539557e+00 8.354483e+00 6.711106e+00 4.050552e-01 1.170235e+00 1.071526e+00 1.920720e+00 1.390565e+00 1.908610e+00 1.321556e+00 1.889387e+00 1.342706e+00 1.448311e+00 1.492694e+00 9.215077e-01 3.048397e+00 1.707934e-01 1.884958e-01 1.283396e-01 3.448138e-01 4.163075e-01 4.073571e-01 3.143015e-01 2.459661e-01 2.186665e-01 2.473882e-01 3.313951e-01 1.556637e-01 7.691587e-01
<GCONST> 8.798101e+01
<STATE> 4
<MEAN> 39
 -1.284986e+01 -4.285250e+00 -6.696278e+00 -5.480577e+00 -1.539238e+01 -1.335116e+01 -1.392054e+01 -8.772242e+00 -2.691473e+00 -5.693941e+00 -5.731012e+00 -4.696621e+00 6.830463e+01 1.460350e+00 6.241781e-01 3.088150e-02 -9.088849e-01 -1.535311e-01 -6.085070e-01 -2.106606e+00 -9.841027e-01 4.726084e-01 -1.666525e-01 -1.139108e+00 -2.080476e-01 2.170292e+00 3.149271e-01 2.503040e-01 -2.049375e-01 -4.212599e-01 4.722974e-01 3.781871e-01 -6.428497e-02 -1.615130e-01 -2.289836e-01 1.192397e-01 -1.424488e-01 -8.839486e-03 -5.245792e-01
<VARIANCE> 39
 9.289980e+01 4.054419e+01 2.865199e+01 2.379381e+01 3.370840e+01 4.104674e+01 1.008145e+02 3.464423e+01 2.259669e+01 2.006264e+01 4.527890e+01 1.593691e+01 6.350915e+01 1.413486e+01 4.703635e+00 5.004611e+00 3.321765e+00 7.450765e+00 6.513687e+00 6.330253e+00 2.669665e+00 2.237918e+00 3.591205e+00 3.916589e+00 1.868837e+00 1.170013e+01 2.675754e+00 1.236727e+00 9.725496e-01 4.171402e-01 7.488742e-01 8.126959e-01 1.686793e+00 5.897225e-01 5.824670e-01 6.612399e-01 8.492475e-01 4.493932e-01 1.494531e+00
<GCONST> 1.372046e+02
<TRANSP> 5
 0.000000e+00 1.000000e+00 0.000000e+00 0.000000e+00 0.000000e+00
 0.000000e+00 6.272841e-01 3.727159e-01 0.000000e+00 0.000000e+00
 0.000000e+00 0.000000e+00 8.726414e-01 1.273586e-01 0.000000e+00
 0.000000e+00 0.000000e+00 0.000000e+00 8.930515e-01 1.069485e-01
 0.000000e+00 0.000000e+00 0.000000e+00 0.000000e+00 0.000000e+00
<ENDHMM>
~h "r"
<BEGINHMM>
<NUMSTATES> 5
<STATE> 2
<MEAN> 39
 -4.399384e-03 -5.268133e+00 1.442819e+00 -1.882692e+00 -1.643191e+01 -2.362113e+01 -1.896269e+01 -9.094667e+00 -3.137924e+00 -1.000202e+01 -1.103432e+01 -5.125583e+00 6.833765e+01 1.955148e+00 -4.929654e-01 -2.258864e+00 1.110685e+00 1.468022e+00 6.523628e-01 -2.164598e+00 -1.825441e+00 1.791510e+00 1.673751e+00 -1.032131e+00 -1.842908e+00 -7.921857e-01 -1.135490e-03 5.208603e-01 -1.290442e-01 -9.263861e-01 -8.007824e-02 6.359630e-01 2.016902e-01 -5.516323e-01 -5.237858e-01 5.408655e-01 5.478968e-01 -1.879924e-01 -3.398300e-02
<VARIANCE> 39
 2.486792e+01 1.235216e+01 1.766230e+01 4.017188e+01 3.399087e+01 2.806173e+01 3.258602e+01 2.700547e+01 2.635823e+01 3.469236e+01 3.074749e+01 3.334905e+01 7.879286e+00 1.771152e+00 1.034144e+00 1.453361e+00 4.421504e+00 2.329834e+00 2.632981e+00 2.806404e+00 2.598138e+00 2.408403e+00 2.950040e+00 3.362164e+00 2.324478e+00 2.962148e-01 2.946595e-01 1.695179e-01 3.187220e-01 4.479471e-01 3.991936e-01 4.346009e-01 6.967373e-01 5.386438e-01 4.979944e-01 5.470249e-01 5.890485e-01 6.210118e-01 6.069944e-02
<GCONST> 1.097086e+02
<STATE> 3
<MEAN> 39
 6.876790e+00 -4.331791e+00 -5.591646e+00 -4.705200e+00 -1.336358e+01 -1.661834e+01 -2.265049e+01 -1.682621e+01 -2.679187e+00 -2.735161e+00 -9.481577e+00 -1.086666e+01 6.533136e+01 9.614929e-01 2.492611e-01 -1.266864e+00 -1.126751e+00 2.213353e-01 1.720886e+00 -1.131875e-01 -1.233451e+00 -4.583826e-01 1.393892e+00 2.286518e-01 -4.793435e-01 -2.626809e-01 -5.689820e-01 -3.577473e-02 4.722515e-01 -2.756926e-01 -3.190215e-01 -2.453232e-01 3.781383e-01 6.989347e-01 -1.341220e-01 -4.545356e-01 -8.337462e-02 6.650723e-01 3.509230e-01
<VARIANCE> 39
 5.426953e+00 9.254476e+00 1.776527e+01 1.764390e+01 1.863903e+01 2.673352e+01 2.034283e+01 2.705208e+01 1.795441e+01 2.917164e+01 2.485244e+01 1.888754e+01 5.679987e+00 1.166805e+00 7.875465e-01 1.545036e+00 1.927246e+00 1.840077e+00 1.885671e+00 1.569674e+00 2.377647e+00 1.922719e+00 2.104283e+00 2.892112e+00 2.332635e+00 3.847132e-01 1.404493e-01 1.374360e-01 1.732850e-01 3.512243e-01 3.178242e-01 4.909178e-01 3.938781e-01 3.481713e-01 5.732709e-01 4.548725e-01 4.227415e-01 2.773463e-01 2.898351e-02
<GCONST> 9.631172e+01
<STATE> 4
<MEAN> 39
 6.252310e+00 -4.456940e+00 -7.111995e+00 -1.112384e+01 -1.335124e+01 -1.338664e+01 -2.183089e+01 -1.586268e+01 -2.012664e+00 -1.207435e+00 -1.060186e+01 -7.720909e+00 6.742372e+01 -9.668556e-01 -1.866501e-01 7.656772e-01 -1.888659e+00 9.714491e-02 -2.254858e-02 5.362763e-01 1.337699e+00 3.226925e-02 -5.176374e-01 -3.024535e-02 1.478453e+00 9.218746e-01 -3.421359e-01 9.548973e-02 3.843254e-01 -1.768683e-01 8.363496e-02 -2.066391e-01 3.352692e-01 4.145228e-02 -2.747159e-01 -1.363741e-01 2.301359e-01 8.785479e-02 7.919683e-02
<VARIANCE> 39
 5.083338e+00 1.065605e+01 4.193568e+01 3.639832e+01 3.422952e+01 4.173825e+01 3.828064e+01 4.434044e+01 2.824249e+01 5.901820e+01 3.503480e+01 2.899770e+01 6.519238e+00 4.935510e-01 9.177232e-01 2.233094e+00 2.839991e+00 4.036673e+00 3.636743e+00 3.381110e+00 2.606475e+00 4.721951e+00 2.693637e+00 2.176275e+00 2.178125e+00 2.152633e-01 1.015760e-01 1.853823e-01 1.811478e-01 3.283924e-01 4.207879e-01 4.880569e-01 6.275660e-01 6.521363e-01 8.354333e-01 8.298030e-01 3.592569e-01 4.646086e-01 6.107744e-02
<GCONST> 1.081766e+02
<TRANSP> 5
 0.000000e+00 1.000000e+00 0.000000e+00 0.000000e+00 0.000000e+00
 0.000000e+00 6.801732e-01 3.198269e-01 0.000000e+00 0.000000e+00
 0.000000e+00 0.000000e+00 7.306790e-01 2.693211e-01 0.000000e+00
 0.000000e+00 0.000000e+00 0.000000e+00 7.411254e-01 2.588747e-01
 0.000000e+00 0.000000e+00 0.000000e+00 0.000000e+00 0.000000e+00
<ENDHMM>
~h "s"
<BEGINHMM>
<NUMSTATES> 5
<STATE> 2
<MEAN> 39
 -1.093280e+01 2.640197e+00 -5.996549e+00 -4.571535e+00 -1.225830e+01 -1.870785e+01 -1.322204e+01 -8.554858e+00 -6.732467e+00 -1.082258e+01 -3.854169e+00 -2.730713e+00 6.212499e+01 -2.545505e+00 7.613443e-01 -3.570787e-01 1.977720e+00 -1.187863e-01 8.175692e-01 1.731415e+00 1.709610e-01 -1.347787e-01 -4.209123e-02 3.330153e-01 -2.958772e-01 -2.423505e-01 -5.294220e-01 -2.695961e-01 -3.054286e-01 -1.646523e-01 3.816924e-01 1.004926e+00 4.697472e-01 1.411980e-01 2.085999e-01 4.642904e-01 1.588826e-01 -4.796956e-02 -3.932437e-02
<VARIANCE> 39
 6.720838e+01 3.077106e+01 2.735694e+01 4.898819e+01 6.625793e+01 6.365187e+01 1.154727e+02 5.251038e+01 4.884549e+01 4.806954e+01 4.475435e+01 3.822782e+01 3.830208e+01 8.871268e+00 2.382431e+00 3.266363e+00 3.828629e+00 4.895442e+00 1.049316e+01 1.218890e+01 4.576065e+00 4.558151e+00 5.815886e+00 4.415311e+00 3.229486e+00 2.844841e+00 8.821698e-01 5.299472e-01 4.645546e-01 7.006651e-01 7.337039e-01 1.398997e+00 2.004526e+00 1.100728e+00 8.842120e-01 9.353440e-01 8.346466e-01 7.533140e-01 3.712693e-01
<GCONST> 1.402286e+02
<STATE> 3
<MEAN> 39
 -2.523658e+01 1.510318e+00 -9.309237e+00 7.717439e-01 -1.000466e+01 -6.354777e+00 -5.185576e+00 -4.639230e+00 -5.400151e+00 -6.054230e+00 -1.237796e+00 -3.634463e+00 6.036757e+01 -8.165444e-01 -5.655741e-01 -1.530642e-01 1.268378e-01 4.903506e-01 1.015567e+00 3.393982e-01 7.006199e-01 5.093939e-01 7.570526e-01 2.875465e-01 3.327237e-01 -6.478490e-01 5.415612e-01 -1.037841e-01 2.009545e-01 -3.111745e-01 -1.513569e-01 -4.797241e-01 -1.585120e-01 -4.910257e-02 -6.527150e-02 -1.528654e-01 -1.293656e-02 5.404246e-02 1.223287e-01
<VARIANCE> 39
 1.587016e+01 2.381500e+01 1.349526e+01 1.568295e+01 2.064630e+01 2.441065e+01 2.625727e+01 2.326964e+01 2.391447e+01 2.069933e+01 2.168051e+01 1.726404e+01 2.788156e+01 2.382751e+00 1.710350e+00 1.491748e+00 1.530854e+00 2.333576e+00 3.461724e+00 2.548141e+00 2.237992e+00 2.170805e+00 2.339841e+00 1.997238e+00 1.799564e+00 1.447059e+00 4.671876e-01 3.372413e-01 2.770391e-01 3.605836e-01 5.202273e-01 6.144933e-01 7.123915e-01 4.614111e-01 4.462207e-01 4.334969e-01 4.099838e-01 3.731448e-01 3.943524e-01
<GCONST> 1.095416e+02
<STATE> 4
<MEAN> 39
 -1.975403e+01 -1.351123e+00 -7.973745e+00 -3.108529e+00 -1.173947e+01 -1.082412e+01 -5.287499e+00 -2.218848e+00 -3.994898e+00 -5.723175e+00 9.125583e-02 -1.208341e+00 6.091832e+01 2.806964e+00 -6.508752e-02 4.723548e-01 -1.477743e+00 -1.163959e+00 -2.325839e+00 -1.031600e+00 2.950964e-01 -1.960417e-01 -9.885173e-01 -1.349591e-01 2.845572e-01 1.553874e+00 4.917582e-01 8.685846e-02 1.538433e-02 -1.506129e-01 -5.147057e-02 -2.328394e-01 -4.160714e-01 2.907026e-02 -1.889417e-01 -3.405743e-01 -2.336912e-01 -5.679671e-02 3.085608e-01
<VARIANCE> 39
 7.080007e+01 1.852898e+01 2.105822e+01 3.213447e+01 4.865514e+01 7.038752e+01 4.195792e+01 2.174616e+01 2.265124e+01 3.215237e+01 2.175910e+01 1.601096e+01 6.313179e+01 7.140788e+00 2.870041e+00 1.956918e+00 2.978057e+00 4.210898e+00 6.681524e+00 6.072953e+00 2.530293e+00 2.964389e+00 3.900379e+00 2.642385e+00 1.853748e+00 4.124098e+00 1.384896e+00 5.614610e-01 4.395870e-01 5.302789e-01 9.964947e-01 1.564942e+00 1.106634e+00 5.209655e-01 5.044870e-01 7.273127e-01 5.298663e-01 3.629644e-01 5.753042e-01
<GCONST> 1.282049e+02
<TRANSP> 5
 0.000000e+00 1.000000e+00 0.000000e+00 0.000000e+00 0.000000e+00
 0.000000e+00 6.459396e-01 3.540604e-01 0.000000e+00 0.000000e+00
 0.000000e+00 0.000000e+00 8.350198e-01 1.649802e-01 0.000000e+00
 0.000000e+00 0.000000e+00 0.000000e+00 6.766521e-01 3.233478e-01
 0.000000e+00 0.000000e+00 0.000000e+00 0.000000e+00 0.000000e+00
<ENDHMM>
~h "t"
<BEGINHMM>
<NUMSTATES> 5
<STATE> 2
<MEAN> 39
 -1.163233e+01 -1.158690e+00 -4.279427e+00 -6.319261e+00 -8.145692e+00 -6.925140e+00 -7.564580e+00 -7.913903e+00 -7.010710e+00 -6.066456e+00 -5.116829e+00 -4.298521e+00 4.816685e+01 -1.014863e+00 -1.277330e+00 -4.979174e-01 -3.803942e-01 1.537418e-01 3.358793e-01 4.770501e-01 7.216092e-01 6.462990e-01 4.072905e-01 7.527504e-01 1.088270e-01 7.692432e-01 -2.195217e-01 -1.660560e-02 9.604181e-02 -3.299932e-01 -1.319674e-01 -3.900673e-01 -1.538798e-01 1.070112e-01 2.368044e-02 2.191501e-03 2.935274e-01 9.310865e-02 1.191078e+00
<VARIANCE> 39
 1.374406e+01 9.516146e+00 1.471163e+01 1.466237e+01 2.390316e+01 1.930493e+01 2.236428e+01 2.276307e+01 1.920363e+01 1.858966e+01 1.757397e+01 1.660276e+01 1.363615e+01 1.617401e+00 1.804784e+00 2.870646e+00 3.345618e+00 2.225154e+00 2.771200e+00 2.766641e+00 2.339108e+00 2.672777e+00 2.048002e+00 2.454974e+00 1.704250e+00 8.960053e+00 1.899821e-01 2.895995e-01 2.706926e-01 4.473973e-01 4.482836e-01 4.768564e-01 4.442005e-01 4.343912e-01 4.497089e-01 4.060719e-01 4.587646e-01 3.598774e-01 8.208329e-01
<GCONST> 1.089037e+02
<STATE> 3
<MEAN> 39
 -2.071551e+01 -6.528021e+00 -5.497114e+00 -1.320046e+01 -8.945659e+00 -1.073889e+01 -6.358571e+00 -3.430023e+00 -4.375676e+00 -4.592813e+00 2.737350e+00 -3.913949e+00 6.969865e+01 -1.388566e+00 1.508456e-01 -6.072950e-01 -1.287309e-01 -5.419660e-01 -1.595313e+00 1.122162e+00 1.140774e+00 -1.579084e-01 7.343529e-02 1.679138e+00 9.023153e-01 3.876398e+00 8.571836e-01 4.698467e-01 2.603747e-01 8.227011e-01 -2.183436e-01 -1.910208e-01 1.146940e-01 -9.317382e-02 -1.641652e-01 -2.806846e-01 -6.107313e-01 2.828535e-01 -1.365387e+00
<VARIANCE> 39
 1.667903e+01 3.396691e+01 3.352761e+01 3.259939e+01 3.822186e+01 3.394301e+01 2.978618e+01 3.314666e+01 2.490485e+01 1.861675e+01 2.093927e+01 1.794528e+01 3.134570e+01 2.898767e+00 2.954541e+00 2.918804e+00 4.958370e+00 3.377458e+00 3.682913e+00 4.005098e+00 3.447139e+00 2.715182e+00 2.423989e+00 3.619116e+00 2.160410e+00 9.696566e+00 4.226439e-01 7.725577e-01 1.043144e+00 7.998677e-01 5.916635e-01 7.464669e-01 8.944907e-01 6.218718e-01 7.336761e-01 5.170079e-01 6.357556e-01 4.300009e-01 1.096662e+00
<GCONST> 1.258899e+02
<STATE> 4
<MEAN> 39
 -1.714526e+01 -5.821520e+00 -5.263034e+00 -7.038023e+00 -1.100521e+01 -1.688737e+01 -3.093974e+00 -6.407368e-02 -3.480413e+00 -6.540633e+00 2.014468e+00 7.281596e-01 6.910751e+01 2.109752e+00 7.304857e-02 7.574561e-01 1.490811e+00 -2.311103e-01 -1.184598e+00 -1.577674e+00 -3.171549e-01 3.538298e-01 -9.419056e-01 -1.813146e+00 1.603704e-01 -1.110941e+00 4.219483e-01 3.061008e-01 8.948841e-02 -1.063939e-01 2.078724e-01 3.733416e-01 -9.662655e-01 -7.126056e-01 -2.018798e-01 1.680553e-02 -6.593859e-01 -5.188065e-01 -4.562684e-01
<VARIANCE> 39
 2.624694e+01 2.464556e+01 1.568667e+01 1.972143e+01 3.521995e+01 2.814157e+01 4.851836e+01 3.974246e+01 2.898838e+01 2.357789e+01 4.066705e+01 1.978799e+01 1.448028e+01 2.104083e+00 2.869745e+00 2.813251e+00 3.118226e+00 3.124759e+00 3.578741e+00 7.676441e+00 6.804018e+00 3.846611e+00 3.271639e+00 5.566260e+00 3.963777e+00 1.073218e+00 6.261783e-01 5.829526e-01 4.796458e-01 4.839093e-01 5.441875e-01 6.410458e-01 1.315842e+00 1.066992e+00 1.031343e+00 6.433752e-01 7.513088e-01 5.521306e-01 5.521140e-01
<GCONST> 1.252082e+02
<TRANSP> 5
 0.000000e+00 1.000000e+00 0.000000e+00 0.000000e+00 0.000000e+00
 0.000000e+00 8.260965e-01 1.739036e-01 0.000000e+00 0.000000e+00
 0.000000e+00 0.000000e+00 6.945412e-01 3.054588e-01 0.000000e+00
 0.000000e+00 0.000000e+00 0.000000e+00 7.427168e-01 2.572832e-01
 0.000000e+00 0.000000e+00 0.000000e+00 0.000000e+00 0.000000e+00
<ENDHMM>
~h "v"
<BEGINHMM>
<NUMSTATES> 5
<STATE> 2
<MEAN> 39
 -3.771200e+00 -4.281281e+00 1.495345e+00 -1.572240e+01 -2.203743e+01 -1.490052e+01 -1.256452e+01 -7.000758e+00 -1.094192e+01 -6.646679e+00 -7.874045e+00 -3.402907e+00 7.144830e+01 5.079558e-01 1.035200e+00 6.344183e-01 1.636156e+00 3.868099e-01 -7.265108e-01 -8.302253e-01 -6.301784e-01 3.307530e-01 3.605264e-01 -5.562273e-01 8.621517e-02 -2.117823e+00 -2.573240e-01 -3.722886e-02 -3.080497e-01 4.951424e-01 7.881455e-01 3.204744e-01 1.195053e-01 -9.629701e-02 7.823762e-05 -5.373249e-01 7.510883e-02 -1.662156e-01 -3.966880e-01
<VARIANCE> 39
 9.319571e+00 1.311205e+01 2.412846e+01 2.987849e+01 4.875879e+01 5.560218e+01 2.956737e+01 3.910070e+01 1.998908e+01 5.449927e+01 3.334903e+01 3.143099e+01 2.115098e+01 6.294117e-01 7.345985e-01 1.584449e+00 3.248614e+00 5.636397e+00 2.541746e+00 2.035621e+00 2.172376e+00 2.105208e+00 4.292405e+00 1.887119e+00 2.450774e+00 1.288417e+00 3.291089e-01 1.672180e-01 2.537730e-01 3.601395e-01 6.708184e-01 5.640536e-01 5.258106e-01 5.427021e-01 4.120000e-01 6.972085e-01 4.747925e-01 5.115482e-01 1.230705e-01
<GCONST> 1.117472e+02
<STATE> 3
<MEAN> 39
 -4.149182e+00 1.336563e-01 2.507230e-01 -5.747759e+00 -1.248799e+01 -1.617701e+01 -1.501632e+01 -9.274215e+00 -1.029262e+01 -1.180519e+01 -8.594168e+00 -4.601923e+00 6.039030e+01 -2.028180e+00 3.598398e-01 -1.008652e+00 1.780612e+00 1.488453e+00 1.591524e+00 1.055853e+00 -5.852658e-01 2.424176e-01 -6.797117e-01 5.567623e-01 -1.009070e+00 -2.306239e+00 -4.766502e-01 -3.348375e-01 -3.229847e-01 -7.124008e-01 -6.349683e-01 6.621064e-02 6.440345e-01 3.778506e-01 2.184843e-01 3.642378e-01 2.559351e-01 1.922960e-01 6.403309e-01
<VARIANCE> 39
 2.238453e+01 9.228785e+00 1.609596e+01 1.987571e+01 2.658797e+01 4.604563e+01 2.175833e+01 4.535466e+01 2.730044e+01 3.707242e+01 2.438909e+01 2.992188e+01 1.501048e+01 2.714979e+00 1.306505e+00 2.638895e+00 2.551089e+00 4.783351e+00 2.779303e+00 3.400841e+00 3.820095e+00 2.830923e+00 4.053741e+00 2.844270e+00 2.418088e+00 2.014845e+00 4.813737e-01 1.964898e-01 3.235755e-01 3.780719e-01 5.417277e-01 6.525965e-01 4.122303e-01 7.591403e-01 5.167056e-01 5.996423e-01 4.234272e-01 5.084447e-01 3.408539e-01
<GCONST> 1.159510e+02
<STATE> 4
<MEAN> 39
 -1.315430e+01 -1.860187e+00 -5.854703e+00 -5.223921e+00 -1.102928e+01 -1.195698e+01 -7.684688e+00 -5.800817e+00 -5.948807e+00 -8.902699e+00 -4.778727e+00 -4.337461e+00 5.542553e+01 -6.506381e-01 -1.357890e-01 -6.263294e-01 -6.509006e-02 2.107344e-01 2.709275e-02 6.118351e-01 4.731810e-01 6.616288e-01 5.596873e-01 5.560983e-01 3.004987e-01 -5.223091e-01 2.935872e-01 2.256534e-02 1.827119e-01 -1.470894e-01 -9.086777e-02 -1.153021e-01 -2.336706e-01 -1.105452e-01 -3.814043e-02 1.180767e-01 -6.182242e-02 7.494069e-02 2.098867e-01
<VARIANCE> 39
 4.697462e+01 1.825162e+01 1.640679e+01 1.904729e+01 3.240079e+01 4.267142e+01 3.231127e+01 2.424501e+01 2.732215e+01 2.865875e+01 2.066298e+01 2.144866e+01 4.345907e+01 3.069131e+00 1.556874e+00 1.992907e+00 2.225887e+00 3.079385e+00 3.705858e+00 3.286640e+00 3.566312e+00 2.583610e+00 2.452089e+00 2.606732e+00 2.597960e+00 2.987899e+00 5.559464e-01 3.176445e-01 3.268392e-01 5.482427e-01 6.328705e-01 7.141700e-01 5.704651e-01 5.180815e-01 4.685406e-01 5.560460e-01 5.107555e-01 4.250225e-01 5.422769e-01
<GCONST> 1.184526e+02
<TRANSP> 5
 0.000000e+00 1.000000e+00 0.000000e+00 0.000000e+00 0.000000e+00
 0.000000e+00 6.803131e-01 3.196870e-01 0.000000e+00 0.000000e+00
 0.000000e+00 0.000000e+00 5.648283e-01 4.351716e-01 0.000000e+00
 0.000000e+00 0.000000e+00 0.000000e+00 7.709345e-01 2.290655e-01
 0.000000e+00 0.000000e+00 0.000000e+00 0.000000e+00 0.000000e+00
<ENDHMM>
~h "w"
<BEGINHMM>
<NUMSTATES> 5
<STATE> 2
<MEAN> 39
 -3.731634e+00 2.918911e+00 -1.002748e+01 -1.561019e+01 -1.187186e+01 -7.003541e+00 -9.681443e+00 -7.187613e+00 -7.444064e+00 -7.233579e+00 -1.781771e+00 -1.535646e+00 5.234985e+01 2.419354e+00 1.760042e+00 -1.997734e-01 -2.205036e+00 -1.590000e+00 -1.984690e-01 -7.797495e-01 6.053032e-02 -7.302757e-01 -1.440324e+00 -1.128725e-01 -3.224630e-01 1.432253e+00 3.478595e-01 1.355555e-01 -1.412433e-01 -6.198821e-01 1.639026e-01 2.216457e-01 -4.303330e-01 -2.492529e-02 3.064347e-02 -3.322465e-01 3.052504e-01 -1.980316e-01 5.611596e-01
<VARIANCE> 39
 6.213833e+01 4.103259e+01 2.433717e+01 8.345846e+01 4.624110e+01 2.503978e+01 2.304822e+01 2.662127e+01 2.642303e+01 3.311298e+01 2.377806e+01 1.694180e+01 2.868693e+01 8.112524e+00 3.946877e+00 2.131782e+00 1.172899e+01 4.263650e+00 2.844493e+00 4.227353e+00 3.257178e+00 2.975513e+00 5.064293e+00 3.523200e+00 2.878789e+00 4.969450e+00 1.373320e+00 8.826642e-01 3.698655e-01 1.689592e+00 1.121288e+00 5.860506e-01 4.951971e-01 5.604849e-01 7.379870e-01 8.034325e-01 6.679335e-01 5.466409e-01 5.022974e-01
<GCONST> 1.309779e+02
<STATE> 3
<MEAN> 39
 7.422712e+00 9.172569e+00 -1.186693e+01 -2.961768e+01 -1.297302e+01 -2.482765e+00 -1.837391e+01 -7.055450e+00 -8.096483e+00 -1.561445e+01 2.711074e+00 -5.510564e+00 6.421623e+01 -1.869272e-01 -1.017434e+00 -5.505954e-01 -1.035891e+00 2.090793e+00 1.303301e+00 -1.641540e+00 -8.422435e-01 1.535007e+00 2.176736e-01 8.892832e-01 -4.067700e-01 1.785306e+00 -7.622699e-01 -6.888866e-01 -2.918876e-02 8.017669e-01 6.271649e-01 -3.062986e-01 1.744320e-01 -1.967014e-01 5.345048e-01 4.848530e-01 -6.049697e-01 5.728420e-03 -1.324667e-01
<VARIANCE> 39
 5.601108e+00 1.286889e+01 1.540999e+01 2.120156e+01 2.672265e+01 3.204919e+01 3.157433e+01 2.866285e+01 4.773654e+01 2.980787e+01 4.670406e+01 3.419831e+01 1.195269e+01 1.389672e+00 1.892401e+00 1.263270e+00 3.964942e+00 2.591864e+00 2.926150e+00 3.364192e+00 3.278011e+00 5.145227e+00 4.411638e+00 4.999718e+00 3.375099e+00 1.358938e+00 3.700235e-01 2.565466e-01 2.506122e-01 7.338725e-01 4.405226e-01 7.484359e-01 7.414341e-01 5.730714e-01 8.096914e-01 9.151097e-01 1.482655e+00 7.175425e-01 2.595421e-01
<GCONST> 1.180815e+02
<STATE> 4
<MEAN> 39
 2.316483e+00 -7.459966e-01 -1.514461e+01 -2.902537e+01 5.594299e-01 -1.488295e-01 -2.347805e+01 -1.371909e+01 3.022617e+00 -1.304975e+01 -5.874234e-01 -7.746350e+00 7.303366e+01 -1.962399e+00 -2.694179e+00 -7.815368e-02 2.353323e+00 2.267519e+00 -2.154555e+00 2.496904e-01 1.792624e-01 1.306721e+00 -9.013780e-01 -4.235961e+00 -1.502481e+00 1.845894e+00 1.741581e-02 2.355474e-01 5.326176e-01 5.734383e-01 -1.055169e+00 -7.908123e-01 6.373737e-01 1.069666e+00 -7.868342e-01 -7.664835e-01 -4.708079e-01 2.516122e-01 -3.475467e-01
<VARIANCE> 39
 6.850446e+00 1.839379e+01 8.929338e+00 2.466463e+01 2.193697e+01 2.856533e+01 2.459057e+01 3.105005e+01 3.454737e+01 4.575610e+01 4.573544e+01 3.050721e+01 1.192005e+01 3.217890e-01 1.018097e+00 1.539780e+00 1.501595e+00 3.166795e+00 2.286000e+00 3.791385e+00 3.548216e+00 3.731013e+00 4.223849e+00 2.465463e+00 2.732046e+00 3.829470e-01 1.086492e-01 2.038344e-01 1.606925e-01 5.077856e-01 3.916381e-01 5.639083e-01 5.339160e-01 5.129892e-01 4.817897e-01 7.834467e-01 1.155688e+00 7.995775e-01 4.903193e-02
<GCONST> 1.068874e+02
<TRANSP> 5
 0.000000e+00 1.000000e+00 0.000000e+00 0.000000e+00 0.000000e+00
 0.000000e+00 8.351867e-01 1.648133e-01 0.000000e+00 0.000000e+00
 0.000000e+00 0.000000e+00 8.139778e-01 1.860222e-01 0.000000e+00
 0.000000e+00 0.000000e+00 0.000000e+00 6.377988e-01 3.622011e-01
 0.000000e+00 0.000000e+00 0.000000e+00 0.000000e+00 0.000000e+00
<ENDHMM>
~h "y"
<BEGINHMM>
<NUMSTATES> 5
<STATE> 2
<MEAN> 39
 -6.986983e+00 9.031651e+00 7.461915e+00 -2.378349e+01 -2.179474e+01 -1.066579e+01 -1.089054e+01 -1.127661e+01 -8.633902e+00 -2.519547e+00 -1.301131e+01 -8.417119e+00 6.449463e+01 2.307196e-01 1.072357e-01 5.548112e-01 -9.850600e-01 -9.278300e-01 -1.720492e-01 3.339246e-01 -2.323979e-01 -4.878722e-02 -1.459142e-01 6.788949e-01 -7.262182e-01 1.630055e+00 -3.474857e-02 -5.467263e-01 -5.467780e-01 5.204182e-01 3.519698e-01 -7.669834e-02 1.800074e-01 2.173352e-01 1.079275e-01 -2.955356e-01 3.659956e-01 1.323519e-01 -3.582871e-02
<VARIANCE> 39
 9.437033e+00 4.902435e+01 3.610165e+01 5.840646e+01 5.659983e+01 2.513709e+01 3.021027e+01 2.849328e+01 3.358260e+01 2.638439e+01 6.805731e+01 4.132081e+01 4.043580e+01 9.975319e-01 9.615910e+00 6.607028e+00 8.648829e+00 6.627295e+00 3.488173e+00 4.442815e+00 4.817523e+00 4.354853e+00 3.111419e+00 9.782273e+00 2.784886e+00 3.202633e+00 1.909158e-01 7.295589e-01 8.253199e-01 9.088045e-01 1.599074e+00 5.815599e-01 7.344664e-01 8.752071e-01 7.747638e-01 7.615238e-01 1.328609e+00 4.885132e-01 4.721240e-01
<GCONST> 1.330163e+02
<STATE> 3
<MEAN> 39
 -4.736771e+00 -7.412802e+00 -3.531020e+00 -1.949418e+01 -1.392506e+01 -1.511570e+01 -5.716440e+00 -5.441684e+00 -2.825925e+00 -1.679291e+01 -4.463539e+00 -7.444832e+00 7.628207e+01 4.254491e-01 -1.968084e+00 -2.187309e+00 1.277745e-01 3.968669e+00 -2.343844e-01 -5.830739e-01 1.519454e-01 1.633693e+00 -3.419762e+00 -9.906028e-01 1.679351e-01 4.626896e-01 -3.837503e-02 5.704287e-01 3.737770e-01 -4.470686e-01 1.974347e-01 1.902577e-01 -4.702355e-01 -5.807987e-01 2.983218e-01 2.146985e-01 -1.339592e-01 -4.563732e-01 -2.713044e-01
<VARIANCE> 39
 2.576405e+00 1.850484e+01 2.533272e+01 9.183293e+00 8.137022e+01 1.489060e+01 2.279897e+01 1.744300e+01 2.569146e+01 8.698248e+01 2.271019e+01 1.470540e+01 3.427244e+00 1.941103e-01 1.907597e+00 1.364181e+00 2.114091e+00 1.499628e+00 1.026659e+00 2.757225e+00 4.825053e+00 3.091145e+00 3.838531e+00 2.078678e+00 3.194799e+00 3.269269e-01 3.190217e-02 1.005542e-01 1.318093e-01 2.211404e-01 7.530212e-01 1.661987e-01 4.187470e-01 5.667570e-01 4.901411e-01 1.421333e+00 8.681031e-01 3.831102e-01 1.698656e-02
<GCONST> 9.683358e+01
<STATE> 4
<MEAN> 39
 -5.260764e-01 -6.897394e+00 -1.102253e+01 -2.395179e+01 4.915761e+00 -1.130686e+01 -1.680836e+01 -1.199546e+01 8.882520e+00 -2.674346e+01 1.590493e+00 -1.580909e+01 7.285575e+01 6.002672e-01 8.559833e-01 -3.231206e-01 -3.972798e-02 2.365474e-01 7.267962e-01 -1.000553e+00 -3.066677e-01 -2.076834e-01 -9.270779e-02 1.586053e+00 -4.030379e-01 -8.057985e-01 2.463372e-02 9.972889e-02 6.546097e-02 1.656959e-01 -3.745128e-01 1.559809e-02 1.183390e-01 1.191925e-01 -4.287897e-01 1.605675e-01 -1.225520e-02 2.320343e-01 -8.140849e-02
<VARIANCE> 39
 8.962147e+00 1.641292e+01 1.096046e+01 1.203333e+01 1.677682e+01 2.231890e+01 4.074663e+01 1.573294e+01 1.922802e+01 1.449599e+01 6.944193e+01 1.455865e+01 1.266159e+01 1.549740e-01 3.533342e-01 3.423763e-01 9.726187e-01 2.276381e+00 1.025114e+00 1.132466e+00 1.178601e+00 3.256950e+00 1.022944e+00 1.441756e+00 1.513195e+00 2.139088e-01 2.299918e-02 5.389729e-02 7.484936e-02 1.165576e-01 2.338786e-01 1.998393e-01 2.078980e-01 1.909026e-01 2.851369e-01 2.675895e-01 3.739908e-01 1.511095e-01 1.339014e-02
<GCONST> 7.911523e+01
<TRANSP> 5
 0.000000e+00 1.000000e+00 0.000000e+00 0.000000e+00 0.000000e+00
 0.000000e+00 9.104657e-01 8.953431e-02 0.000000e+00 0.000000e+00
 0.000000e+00 0.000000e+00 8.438015e-01 1.561985e-01 0.000000e+00
 0.000000e+00 0.000000e+00 0.000000e+00 9.213091e-01 7.869092e-02
 0.000000e+00 0.000000e+00 0.000000e+00 0.000000e+00 0.000000e+00
<ENDHMM>
~h "z"
<BEGINHMM>
<NUMSTATES> 5
<STATE> 2
<MEAN> 39
 -5.089766e+00 4.381851e+00 -5.959023e+00 -4.621901e+00 -1.484371e+01 -1.665594e+01 -1.785907e+01 -4.516075e+00 -3.314958e+00 -9.102375e+00 -3.022725e+00 9.700197e-01 5.711656e+01 6.592906e-01 1.626722e+00 5.209740e-01 1.420652e+00 -1.183677e+00 -9.531696e-01 -3.611557e-01 4.907592e-02 -8.079021e-01 -1.656529e+00 -1.047118e+00 -5.420770e-01 3.308953e-01 -1.871080e-01 1.462338e-01 -2.515256e-02 -8.449758e-02 2.266359e-01 3.179572e-01 2.849889e-01 -4.221453e-01 -2.927658e-01 -1.009795e-01 -1.456049e-01 -4.657511e-01 1.217179e-01
<VARIANCE> 39
 2.761865e+01 2.244637e+01 2.562728e+01 4.229472e+01 7.186378e+01 5.720615e+01 9.413084e+01 4.955898e+01 5.241299e+01 5.689851e+01 4.676427e+01 3.485367e+01 4.416242e+01 3.492373e+00 3.303744e+00 1.492360e+00 2.187908e+00 4.731730e+00 6.050776e+00 8.024640e+00 6.057941e+00 4.330375e+00 4.119499e+00 4.066335e+00 5.321576e+00 5.079472e+00 7.141079e-01 4.258661e-01 2.633781e-01 3.791141e-01 1.022860e+00 1.235775e+00 1.477183e+00 8.653780e-01 8.664901e-01 8.876274e-01 8.973017e-01 9.656618e-01 6.868915e-01
<GCONST> 1.357014e+02
<STATE> 3
<MEAN> 39
 -7.300994e+00 1.374823e+01 -3.370134e+00 2.090980e+00 -1.555744e+01 -1.555637e+01 -1.449645e+01 -1.053503e+01 -1.161853e+01 -1.622229e+01 -9.599530e+00 -8.282698e+00 5.855474e+01 -1.663007e+00 2.927591e-01 7.754828e-01 9.997095e-02 8.830263e-02 2.646631e-01 1.436771e+00 -1.004943e+00 -8.799202e-01 1.746190e-01 2.542548e-01 -1.002775e+00 1.087676e+00 -3.361711e-02 -8.868350e-01 1.943175e-01 -6.855386e-01 -3.980829e-01 -3.428156e-01 1.950053e-01 3.164241e-01 3.747963e-01 5.983604e-01 7.254546e-01 7.477443e-01 4.224852e-01
<VARIANCE> 39
 4.880709e+01 1.658583e+01 2.383171e+01 2.725823e+01 3.415924e+01 2.719716e+01 2.679790e+01 3.032313e+01 2.880237e+01 1.854142e+01 2.161691e+01 2.154335e+01 1.297834e+01 2.574914e+00 3.360575e+00 2.631250e+00 2.556330e+00 4.750453e+00 4.206072e+00 3.477766e+00 4.225990e+00 4.237683e+00 2.744828e+00 4.097944e+00 4.119796e+00 2.936285e+00 8.619620e-01 4.593192e-01 4.855221e-01 5.405406e-01 1.133433e+00 7.264805e-01 7.369714e-01 7.393420e-01 6.513785e-01 5.058182e-01 5.314591e-01 5.217753e-01 3.914036e-01
<GCONST> 1.230786e+02
<STATE> 4
<MEAN> 39
 -1.201225e+01 8.101439e+00 6.684763e-01 -2.709812e+00 -1.965047e+01 -1.902350e+01 -8.071354e+00 -1.076498e+01 -1.213806e+01 -1.243469e+01 -2.554098e+00 -6.162387e+00 6.698658e+01 1.402505e+00 -2.101341e+00 1.273563e+00 -3.082754e+00 -3.294495e+00 -1.024876e+00 3.858990e-01 -3.270247e-01 3.442366e-01 1.853852e+00 1.912363e+00 1.695334e+00 2.849211e+00 7.409295e-01 1.385432e-01 -6.852697e-02 -5.733228e-01 -2.449159e-01 5.846147e-01 -6.196595e-01 -1.548942e-01 5.020405e-01 4.232959e-01 -6.203573e-01 1.770149e-01 -2.708933e-01
<VARIANCE> 39
 2.891567e+01 1.827073e+01 1.844321e+01 2.292658e+01 4.070994e+01 2.795931e+01 2.664471e+01 2.941341e+01 2.424174e+01 2.377423e+01 2.546069e+01 2.745455e+01 1.682436e+01 3.502700e+00 2.158240e+00 2.071973e+00 2.152998e+00 3.421167e+00 3.055231e+00 4.162924e+00 3.080899e+00 3.443147e+00 2.581966e+00 2.882783e+00 2.546656e+00 1.052367e+00 6.183796e-01 5.303002e-01 4.005415e-01 4.138019e-01 8.543771e-01 7.082365e-01 7.507616e-01 6.703419e-01 7.616397e-01 5.559523e-01 6.520435e-01 6.395432e-01 2.819719e-01
<GCONST> 1.189691e+02
<TRANSP> 5
 0.000000e+00 1.000000e+00 0.000000e+00 0.000000e+00 0.000000e+00
 0.000000e+00 8.186988e-01 1.813012e-01 0.000000e+00 0.000000e+00
 0.000000e+00 0.000000e+00 7.639743e-01 2.360257e-01 0.000000e+00
 0.000000e+00 0.000000e+00 0.000000e+00 6.028040e-01 3.971961e-01
 0.000000e+00 0.000000e+00 0.000000e+00 0.000000e+00 0.000000e+00
<ENDHMM>
~h "ae"
<BEGINHMM>
<NUMSTATES> 5
<STATE> 2
<MEAN> 39
 -7.494255e+00 -4.517172e-01 -5.051486e+00 -6.378796e+00 -5.941844e+00 -8.609343e+00 -1.304039e+01 -1.166632e+01 -8.794603e+00 -7.892654e+00 -6.298873e+00 -5.578980e+00 5.055328e+01 -1.460917e+00 -1.123481e+00 -5.765482e-01 4.812875e-01 -7.299767e-02 2.991403e-01 1.610731e+00 6.768622e-01 1.048991e+00 7.295639e-01 4.107785e-01 1.659954e-01 -1.839193e-01 -1.387637e-01 -1.605442e-01 -9.667527e-02 -2.689148e-01 -1.284062e-01 -5.238265e-01 1.460322e-01 9.906502e-02 2.646990e-01 1.292961e-01 -3.516601e-02 1.475522e-01 1.209376e+00
<VARIANCE> 39
 1.142680e+01 9.963003e+00 1.859356e+01 1.062397e+01 1.554514e+01 1.315909e+01 1.853242e+01 1.967540e+01 2.381200e+01 1.745254e+01 2.149512e+01 9.804409e+00 7.881513e+00 1.669456e+00 2.390284e+00 1.832904e+00 1.568497e+00 1.321276e+00 3.419758e+00 3.311904e+00 2.867959e+00 3.247503e+00 2.445817e+00 2.074716e+00 1.237951e+00 8.233428e+00 2.456909e-01 3.951917e-01 4.447996e-01 4.291519e-01 3.342033e-01 3.739356e-01 5.407556e-01 5.262333e-01 5.996560e-01 4.163804e-01 4.034321e-01 3.197284e-01 8.234589e-01
<GCONST> 1.067311e+02
<STATE> 3
<MEAN> 39
 -1.648709e+01 -5.331748e+00 -6.134937e+00 -4.987182e+00 -8.223533e+00 -1.329782e+01 -4.088956e+00 -7.453142e+00 -2.907549e+00 -4.237335e+00 -3.508225e+00 -3.359985e+00 6.112619e+01 3.456917e-01 3.105774e-01 4.122450e-01 -6.536850e-01 -1.462493e+00 -9.947500e-01 3.704822e-01 9.287605e-02 -5.200358e-02 1.444767e-01 5.533027e-01 3.968011e-01 1.935129e+00 6.169344e-01 4.975044e-02 1.134856e-01 -1.117012e-01 -1.516767e-01 5.429902e-02 -2.732702e-01 1.417856e-01 -3.223228e-01 -8.029778e-02 -5.889874e-02 -1.135055e-01 -3.180187e-01
<VARIANCE> 39
 2.460234e+01 2.676499e+01 2.088701e+01 2.999048e+01 4.311700e+01 3.391210e+01 3.715377e+01 3.356730e+01 2.540432e+01 2.112767e+01 2.678067e+01 1.597286e+01 1.389825e+02 7.819038e+00 3.124891e+00 3.049140e+00 2.720529e+00 4.537133e+00 5.045180e+00 3.865229e+00 4.728865e+00 3.911628e+00 2.433478e+00 2.922173e+00 1.544522e+00 1.834096e+01 9.943468e-01 9.586319e-01 6.297959e-01 3.855354e-01 7.180958e-01 9.350076e-01 8.348914e-01 1.198397e+00 7.728173e-01 5.335643e-01 6.663340e-01 3.530519e-01 2.995478e+00
<GCONST> 1.312223e+02
<STATE> 4
<MEAN> 39
 -4.684507e+00 -8.147827e+00 -4.313982e+00 -1.575923e+01 -1.902400e+01 -1.687974e+01 -1.877401e+00 -4.789702e+00 -1.047756e+01 -1.090383e+01 -4.030107e+00 -4.032261e+00 7.691206e+01 3.002611e-01 -1.114818e-01 4.821162e-02 -1.344430e-01 6.146595e-02 -2.245807e-01 -3.823296e-01 3.172214e-01 -5.222429e-01 -8.304393e-01 -2.869943e-01 -9.503691e-02 -2.499636e-01 -3.738043e-01 2.748201e-01 -8.130848e-02 2.772422e-01 1.594804e-01 5.237822e-02 -1.553766e-01 -1.960966e-01 1.049958e-01 -9.612760e-03 2.624839e-02 1.800291e-02 -2.091598e-01
<VARIANCE> 39
 2.419048e+00 1.300293e+01 8.509392e+00 1.412897e+01 1.708500e+01 2.775796e+01 1.850674e+01 1.650403e+01 2.224000e+01 4.598378e+01 2.602064e+01 1.286191e+01 7.209825e+00 1.461024e+00 2.855028e+00 1.073227e+00 1.402719e+00 1.768326e+00 3.690606e+00 2.839257e+00 2.898823e+00 1.556105e+00 4.114028e+00 2.558064e+00 1.544273e+00 9.017822e-01 4.057442e-01 2.516202e-01 3.246543e-01 2.356560e-01 5.729911e-01 8.007195e-01 4.515348e-01 4.887889e-01 2.528045e-01 8.152103e-01 5.386214e-01 3.057466e-01 3.932332e-02
<GCONST> 1.017039e+02
<TRANSP> 5
 0.000000e+00 1.000000e+00 0.000000e+00 0.000000e+00 0.000000e+00
 0.000000e+00 8.346353e-01 1.653647e-01 0.000000e+00 0.000000e+00
 0.000000e+00 0.000000e+00 9.001408e-01 9.985919e-02 0.000000e+00
 0.000000e+00 0.000000e+00 0.000000e+00 9.184089e-01 8.159108e-02
 0.000000e+00 0.000000e+00 0.000000e+00 0.000000e+00 0.000000e+00
<ENDHMM>
~h "ah"
<BEGINHMM>
<NUMSTATES> 5
<STATE> 2
<MEAN> 39
 -2.439300e+00 -6.921674e+00 -1.208583e+01 -1.982353e+01 -1.206599e+00 -9.431890e+00 -1.861415e+01 -5.999402e+00 1.624262e+00 -2.109225e+01 -1.030311e+01 -8.446454e+00 7.599685e+01 -6.476273e-01 -6.799848e-01 6.395773e-01 1.575061e+00 -1.189226e+00 -1.473870e+00 9.222817e-01 2.221405e+00 -1.054888e+00 -1.144686e+00 -1.142834e+00 8.207526e-01 2.784374e-01 2.286730e-01 4.291040e-01 2.330640e-02 -2.745065e-01 -2.876511e-01 2.466786e-01 -1.321576e-01 -5.660466e-02 -1.512694e-01 4.068542e-01 7.883829e-01 2.842369e-01 -3.065738e-01
<VARIANCE> 39
 6.020568e+00 9.351388e+00 1.041214e+01 2.273695e+01 2.614255e+01 2.604346e+01 2.385577e+01 3.649587e+01 2.122098e+01 2.086322e+01 5.853015e+01 2.871008e+01 1.657832e+01 4.904929e-01 8.450592e-01 6.547226e-01 1.171664e+00 1.402939e+00 1.845642e+00 1.482671e+00 1.744727e+00 2.123145e+00 2.688903e+00 2.789909e+00 1.637528e+00 3.879796e-01 1.039905e-01 1.046517e-01 1.628036e-01 1.847641e-01 2.995486e-01 2.183366e-01 3.029766e-01 3.429762e-01 3.373022e-01 3.622350e-01 5.501790e-01 3.846902e-01 3.836624e-02
<GCONST> 9.393427e+01
<STATE> 3
<MEAN> 39
 -3.800965e+00 -6.518202e+00 -9.289144e+00 -1.532152e+01 -7.063239e+00 -1.707908e+01 -1.722649e+01 1.611085e+00 -3.257397e+00 -2.209344e+01 -9.193202e+00 -3.979445e+00 7.507745e+01 1.315514e-01 5.665335e-01 3.695466e-01 4.495806e-01 -6.638174e-01 -1.309877e+00 -2.292791e-01 7.215036e-01 -7.345389e-01 5.342579e-01 7.422821e-01 5.282468e-01 -6.511752e-01 1.006282e-01 1.578101e-01 -5.538774e-02 -3.258485e-02 1.487360e-01 3.697514e-05 -1.795581e-01 -1.689154e-01 -2.507326e-02 2.903946e-01 4.749394e-02 -1.435618e-02 -1.520124e-01
<VARIANCE> 39
 5.923878e+00 9.253351e+00 9.281849e+00 1.440218e+01 1.762471e+01 3.292145e+01 2.339124e+01 2.733229e+01 2.726001e+01 2.051044e+01 3.315594e+01 2.521628e+01 1.356527e+01 2.642263e-01 4.359248e-01 5.626805e-01 8.780671e-01 1.268440e+00 1.185315e+00 1.294255e+00 1.302556e+00 1.487710e+00 1.815645e+00 1.253017e+00 1.238863e+00 1.648618e-01 3.582251e-02 5.230630e-02 9.510870e-02 1.533177e-01 1.841670e-01 1.586868e-01 1.967406e-01 2.338886e-01 2.423266e-01 2.483367e-01 2.338773e-01 2.233707e-01 2.178320e-02
<GCONST> 8.004935e+01
<STATE> 4
<MEAN> 39
 -1.012610e+00 -1.136655e+00 -8.375648e+00 -1.085877e+01 -8.014136e+00 -2.323083e+01 -2.177861e+01 5.162133e+00 -8.484586e+00 -1.560758e+01 -4.120547e+00 -1.111801e+00 6.837480e+01 5.301087e-01 9.600025e-01 3.081305e-01 1.147672e+00 2.102212e-01 -2.015114e-02 -8.676369e-01 -4.404627e-01 -1.231283e+00 9.318741e-01 -3.449844e-02 -4.626753e-03 -1.728137e+00 -8.143754e-02 6.460803e-02 2.018486e-01 2.248660e-01 -9.001639e-02 3.935269e-01 2.146061e-01 -7.168499e-01 1.475881e-01 -2.185634e-01 -2.402691e-01 -2.834256e-01 -2.229765e-01
<VARIANCE> 39
 8.105459e+00 8.098087e+00 1.378201e+01 2.879841e+01 2.799566e+01 4.020650e+01 3.329515e+01 4.364998e+01 5.768557e+01 2.648103e+01 3.784690e+01 4.121622e+01 1.343939e+01 3.181406e-01 5.673580e-01 1.002441e+00 1.365346e+00 1.606253e+00 1.938673e+00 1.989574e+00 3.622386e+00 2.432703e+00 2.596338e+00 2.411901e+00 2.170366e+00 5.232763e-01 8.817953e-02 1.116576e-01 2.179716e-01 2.252070e-01 2.676107e-01 3.440411e-01 3.966448e-01 5.231842e-01 5.320413e-01 3.895888e-01 3.931355e-01 3.711637e-01 7.970637e-02
<GCONST> 1.003779e+02
<TRANSP> 5
 0.000000e+00 1.000000e+00 0.000000e+00 0.000000e+00 0.000000e+00
 0.000000e+00 6.548800e-01 3.451200e-01 0.000000e+00 0.000000e+00
 0.000000e+00 0.000000e+00 8.173552e-01 1.826447e-01 0.000000e+00
 0.000000e+00 0.000000e+00 0.000000e+00 7.369571e-01 2.630429e-01
 0.000000e+00 0.000000e+00 0.000000e+00 0.000000e+00 0.000000e+00
<ENDHMM>
~h "ao"
<BEGINHMM>
<NUMSTATES> 5
<STATE> 2
<MEAN> 39
 -2.517635e+00 -9.744210e-01 -1.714517e+01 -2.235819e+01 -8.225637e-01 -1.100739e+01 -1.278912e+01 -1.505477e+01 1.483217e-01 -3.830139e+00 1.147792e-03 -4.514137e+00 7.148805e+01 1.603276e+00 1.258467e+00 3.776992e-01 -4.256621e+00 4.491875e-01 2.103693e+00 -9.352314e-01 -3.618034e-01 1.821411e+00 -1.137407e+00 7.733743e-01 -7.503710e-01 1.445054e+00 -1.359735e+00 -3.978826e-01 7.274614e-01 1.076023e+00 -8.326141e-02 8.600546e-01 4.460630e-01 6.159726e-01 1.717328e-01 -5.528259e-01 4.202237e-02 -5.908652e-02 -1.033587e+00
<VARIANCE> 39
 3.798812e+01 3.536518e+01 2.642056e+01 6.393548e+01 6.195359e+01 4.779861e+01 5.954082e+01 6.688349e+01 5.344606e+01 9.138339e+01 2.607068e+01 2.196809e+01 6.707354e+00 1.048555e+01 2.728396e+00 7.407826e+00 1.238522e+01 2.873836e+00 2.211641e+00 2.584187e+00 6.565347e+00 2.578735e+00 3.382826e+00 3.162534e+00 3.130634e+00 1.161088e+00 8.394601e-01 5.297227e-01 7.381151e-01 6.768443e-01 7.325520e-01 9.189335e-01 8.478475e-01 1.169466e+00 1.293302e+00 1.181755e+00 2.812901e-01 4.976316e-01 6.020603e-01
<GCONST> 1.325458e+02
<STATE> 3
<MEAN> 39
 -8.837729e+00 -5.597361e+00 -1.399932e+01 -1.643231e+01 4.808777e+00 -8.764524e+00 -1.243576e+01 -1.356092e+01 3.054160e+00 -7.507797e+00 -3.543416e+00 -9.722022e+00 7.278312e+01 1.005408e+00 6.514088e-01 8.961326e-01 -1.293131e+00 -2.268216e-01 1.602783e+00 -1.942976e+00 -2.475206e+00 -8.965672e-01 -4.439554e+00 3.973386e-01 -1.471794e+00 3.134191e-01 2.473918e-01 -9.004357e-02 -3.245106e-01 -1.188871e-01 -8.293122e-02 -3.312311e-01 2.665851e-01 -2.705861e-01 -1.410000e-01 -2.001813e-01 2.980476e-01 3.173634e-01 -1.485193e-01
<VARIANCE> 39
 3.746255e+01 2.765069e+01 1.002813e+01 6.309249e+01 2.942530e+01 3.513419e+01 5.840996e+01 7.011147e+01 3.959097e+01 1.232140e+02 4.042735e+01 3.488784e+01 3.307088e+00 2.445485e+00 1.233844e+00 1.832282e+00 3.283686e+00 2.150174e+00 2.593359e+00 4.837463e+00 5.789605e+00 5.675852e+00 7.041513e+00 2.369579e+00 3.078624e+00 3.053422e-01 8.250876e-01 3.892360e-01 4.069552e-01 1.092868e+00 3.060699e-01 4.961242e-01 1.315076e+00 1.732498e+00 1.300086e+00 2.440258e+00 5.296384e-01 5.211350e-01 1.775451e-01
<GCONST> 1.248390e+02
<STATE> 4
<MEAN> 39
 2.196380e+00 3.037304e+00 -1.379830e+01 -3.379321e+01 -7.853746e-01 -1.823754e+00 -1.717381e+01 -1.861725e+01 1.269275e+00 -1.809022e+01 7.209520e+00 -4.594823e+00 6.940850e+01 1.535079e-02 2.155869e-02 -2.281042e-02 3.044925e-01 -1.130804e-01 -1.015036e-01 -2.352341e-01 2.074277e-01 -3.127730e-01 1.776588e-01 3.734850e-02 -7.402692e-04 -5.501944e-01 -1.111049e-01 -4.851897e-02 3.644751e-02 3.312590e-01 -9.308308e-02 -1.515463e-01 5.206688e-02 8.608671e-02 -8.954798e-02 2.562174e-01 -1.586480e-01 1.445830e-02 -1.225885e-01
<VARIANCE> 39
 6.920940e+00 1.080242e+01 9.765594e+00 2.798424e+01 2.562425e+01 2.262507e+01 2.876283e+01 3.488011e+01 4.156907e+01 4.297427e+01 3.722874e+01 3.513107e+01 1.436537e+01 4.257943e-01 4.486803e-01 7.137933e-01 3.123316e+00 1.353366e+00 1.483298e+00 1.768982e+00 1.782717e+00 2.087428e+00 3.694115e+00 3.077333e+00 1.733699e+00 6.471879e-01 9.448117e-02 9.110353e-02 1.483016e-01 2.572834e-01 2.339510e-01 2.281534e-01 3.216990e-01 3.267117e-01 3.966110e-01 4.163889e-01 4.142714e-01 3.087739e-01 7.483459e-02
<GCONST> 9.682417e+01
<TRANSP> 5
 0.000000e+00 1.000000e+00 0.000000e+00 0.000000e+00 0.000000e+00
 0.000000e+00 4.616984e-01 5.383016e-01 0.000000e+00 0.000000e+00
 0.000000e+00 0.000000e+00 6.658923e-01 3.341077e-01 0.000000e+00
 0.000000e+00 0.000000e+00 0.000000e+00 9.040048e-01 9.599517e-02
 0.000000e+00 0.000000e+00 0.000000e+00 0.000000e+00 0.000000e+00
<ENDHMM>
~h "ax"
<BEGINHMM>
<NUMSTATES> 5
<STATE> 2
<MEAN> 39
 -3.854607e+00 -1.545503e+01 -9.497796e+00 -1.261890e+01 -6.524390e+00 -1.039190e+01 -1.605830e+01 -5.016238e+00 -2.701544e+00 -2.250623e+01 -6.897858e+00 -9.027672e+00 7.788552e+01 -2.872793e-01 -1.188540e-01 3.586664e-01 -3.244710e-01 -2.007816e-01 1.979055e-01 1.898860e-01 2.333141e-01 -1.094647e+00 -4.424480e-01 1.531383e-01 2.066303e-01 1.063446e-01 -2.279455e-02 9.691696e-02 1.088761e-01 -8.034587e-02 -7.549658e-02 -1.865812e-01 2.335081e-01 -6.330527e-02 -2.735098e-01 1.168791e-01 1.344150e-01 2.738677e-01 -3.929587e-02
<VARIANCE> 39
 2.934780e+00 1.844823e+01 8.058555e+00 1.211867e+01 1.855519e+01 1.705185e+01 3.111523e+01 3.025725e+01 3.231419e+01 2.429215e+01 1.331969e+01 3.267079e+01 6.967949e+00 2.808959e-01 9.008541e-01 7.238032e-01 7.730228e-01 9.451157e-01 1.891208e+00 3.011482e+00 1.685894e+00 2.968973e+00 1.934506e+00 1.301107e+00 2.265320e+00 2.888755e-01 5.195535e-02 1.081849e-01 1.455142e-01 1.229466e-01 2.133697e-01 2.996772e-01 4.909585e-01 2.928958e-01 3.790913e-01 4.013486e-01 2.372223e-01 3.198868e-01 4.997180e-02
<GCONST> 8.802369e+01
<STATE> 3
<MEAN> 39
 -6.069831e+00 -1.254568e+01 -4.926389e+00 -1.635960e+01 -1.159248e+01 -1.167073e+01 -7.460032e+00 -4.129333e+00 -1.282183e+01 -2.080251e+01 -5.304194e+00 -5.035406e+00 7.769611e+01 -1.569899e-01 8.145441e-01 1.002101e+00 -5.388966e-01 -1.170901e+00 -4.212317e-01 1.124972e+00 -4.740745e-01 -6.057992e-01 1.333484e+00 -3.148459e-01 -2.191700e-02 -3.682064e-01 1.172783e-01 2.407467e-01 -1.234551e-02 -8.234689e-04 -1.172123e-01 -1.696130e-01 -3.046401e-01 6.334113e-02 4.654037e-01 2.900617e-01 -1.709313e-01 -2.082049e-02 -1.491807e-01
<VARIANCE> 39
 2.316718e+00 1.023412e+01 1.346114e+01 1.390202e+01 2.098943e+01 1.557006e+01 2.827271e+01 2.227100e+01 2.868148e+01 2.520639e+01 1.394947e+01 1.306100e+01 5.953002e+00 1.682882e-01 7.675221e-01 5.305409e-01 1.004099e+00 1.647661e+00 1.310104e+00 2.418896e+00 1.719744e+00 2.934187e+00 2.149305e+00 1.527088e+00 1.069418e+00 1.336885e-01 2.482897e-02 8.609725e-02 8.505302e-02 1.028146e-01 1.695398e-01 2.465396e-01 2.580488e-01 3.061038e-01 3.767384e-01 3.838339e-01 2.789142e-01 2.547352e-01 2.020934e-02
<GCONST> 8.063974e+01
<STATE> 4
<MEAN> 39
 -5.515977e+00 -6.774485e+00 6.177406e-01 -2.124012e+01 -1.863210e+01 -1.629729e+01 -4.528170e+00 -6.089745e+00 -1.034156e+01 -1.265513e+01 -9.262194e+00 -4.858693e+00 7.481688e+01 3.006787e-01 4.300595e-01 -5.115314e-01 2.629067e-01 6.982078e-01 -1.175827e+00 -7.124352e-01 5.052102e-01 1.278219e+00 -2.003143e-01 -2.214586e-01 5.739270e-01 -3.623247e-01 3.050976e-02 -7.726979e-02 -3.871241e-01 1.454581e-01 6.113393e-01 3.515035e-02 -4.292755e-01 -7.952884e-03 2.246238e-01 -3.279640e-01 8.326848e-02 -1.213395e-01 -2.820155e-03
<VARIANCE> 39
 2.609936e+00 7.431400e+00 1.424206e+01 2.047748e+01 2.439614e+01 2.385031e+01 2.461551e+01 2.911052e+01 2.453391e+01 3.433002e+01 1.871014e+01 2.051658e+01 5.430152e+00 1.182915e-01 7.453332e-01 1.994582e+00 1.282485e+00 4.542375e+00 1.402898e+00 2.542883e+00 1.788304e+00 1.923196e+00 3.382068e+00 1.448671e+00 1.163419e+00 1.214710e-01 2.754572e-02 1.075158e-01 9.868045e-02 2.876518e-01 2.523226e-01 3.551023e-01 3.132575e-01 4.627305e-01 3.067742e-01 3.977664e-01 2.623427e-01 4.591678e-01 1.809360e-02
<GCONST> 8.784069e+01
<TRANSP> 5
 0.000000e+00 1.000000e+00 0.000000e+00 0.000000e+00 0.000000e+00
 0.000000e+00 8.380706e-01 1.619293e-01 0.000000e+00 0.000000e+00
 0.000000e+00 0.000000e+00 8.216695e-01 1.783305e-01 0.000000e+00
 0.000000e+00 0.000000e+00 0.000000e+00 8.264865e-01 1.735135e-01
 0.000000e+00 0.000000e+00 0.000000e+00 0.000000e+00 0.000000e+00
<ENDHMM>
~h "ay"
<BEGINHMM>
<NUMSTATES> 5
<STATE> 2
<MEAN> 39
 -2.259078e+00 -5.681409e+00 -9.150177e+00 -1.266585e+01 -1.025402e+01 -1.853862e+01 -1.367544e+01 -5.293725e+00 -5.774048e+00 -1.530663e+01 -8.129237e+00 -4.950178e+00 7.158706e+01 6.904410e-01 -2.899598e+00 -1.417548e+00 -1.903706e+00 2.023987e+00 6.090772e-01 -1.139494e+00 9.113494e-01 5.859848e-01 -2.657464e+00 -1.237998e+00 -4.429518e-01 3.967961e+00 -5.976020e-01 -1.825158e-01 1.519993e-01 4.047682e-01 5.053700e-01 1.064184e+00 2.244467e-01 -2.206965e-01 3.201233e-01 1.133833e-01 3.247256e-01 -1.018930e-01 -9.875844e-01
<VARIANCE> 39
 1.486222e+01 5.746733e+01 2.914573e+01 3.144976e+01 3.272423e+01 5.733234e+01 5.656721e+01 5.212078e+01 2.640916e+01 2.864901e+01 1.637943e+01 2.893017e+01 5.265641e+01 6.151506e+00 3.474983e+00 2.386858e+00 2.457071e+00 3.337957e+00 4.891364e+00 5.171746e+00 6.805066e+00 4.182297e+00 6.728382e+00 2.513037e+00 3.152543e+00 2.847455e+00 9.131681e-01 7.079028e-01 5.203655e-01 6.763304e-01 9.137968e-01 6.267202e-01 1.195037e+00 1.265051e+00 4.710335e-01 8.837112e-01 3.811695e-01 6.009788e-01 1.086749e+00
<GCONST> 1.312741e+02
<STATE> 3
<MEAN> 39
 -3.618102e+00 -1.530827e+01 -1.169114e+01 -1.426267e+01 -3.746524e+00 -1.013956e+01 -1.321565e+01 -7.350544e+00 -1.380642e+00 -2.139283e+01 -7.612458e+00 -7.307067e+00 7.823383e+01 1.173699e-01 -1.206858e+00 1.401159e-01 6.973194e-02 1.112064e+00 1.366252e+00 -8.029283e-01 -6.584373e-01 1.174812e+00 -1.259627e+00 5.883262e-02 -1.070405e+00 5.719520e-01 -1.928573e-01 6.039062e-01 2.917016e-01 3.384858e-01 -4.509951e-01 -3.553096e-01 1.647753e-02 7.020255e-02 2.425136e-02 7.460618e-01 1.871670e-01 -8.052026e-02 -7.027500e-01
<VARIANCE> 39
 4.199776e+00 1.701154e+01 1.016523e+01 1.575047e+01 1.886586e+01 3.667279e+01 4.230196e+01 3.092729e+01 3.473117e+01 2.062316e+01 2.082198e+01 2.755464e+01 9.624502e+00 4.880341e-01 1.296353e+00 7.354208e-01 1.216194e+00 1.819236e+00 2.363481e+00 3.358317e+00 2.727435e+00 2.426342e+00 2.901536e+00 1.509807e+00 2.643619e+00 7.570261e-01 2.976621e-01 2.001106e-01 1.860216e-01 3.215825e-01 2.842742e-01 3.518212e-01 6.219433e-01 5.754157e-01 4.958384e-01 5.558805e-01 3.477811e-01 4.699790e-01 2.735402e-01
<GCONST> 1.027264e+02
<STATE> 4
<MEAN> 39
 -4.071943e+00 -1.377794e+01 -7.346928e+00 -1.487360e+01 -7.320494e+00 -9.233958e+00 -1.672276e+01 -4.372326e+00 -3.655933e+00 -2.028705e+01 -7.725782e+00 -8.743482e+00 7.763580e+01 -2.216815e-01 5.915126e-01 9.165127e-01 -1.241340e-01 -1.418878e+00 -8.255611e-02 2.915282e-01 1.204350e-01 -9.978182e-01 9.685105e-01 1.483281e-01 1.038358e-01 -1.932744e-01 -9.631547e-03 1.931092e-01 1.226760e-01 -7.999399e-02 -2.227093e-01 -4.968256e-02 3.940236e-02 -9.160101e-02 -4.398112e-02 2.802512e-01 -5.740947e-02 8.347533e-02 -8.663992e-02
<VARIANCE> 39
 4.967022e+00 1.269424e+01 1.940812e+01 1.235635e+01 4.581593e+01 1.986330e+01 3.468649e+01 3.341766e+01 6.648688e+01 3.029034e+01 1.517622e+01 2.381808e+01 6.156154e+00 2.368490e-01 8.576652e-01 8.695920e-01 7.569012e-01 2.157710e+00 1.054150e+00 2.321735e+00 2.649480e+00 2.946898e+00 3.049141e+00 1.194298e+00 1.657896e+00 1.831935e-01 3.969229e-02 6.457551e-02 1.000486e-01 1.202570e-01 2.029506e-01 2.032961e-01 3.758252e-01 4.229966e-01 5.240921e-01 3.098508e-01 2.245728e-01 2.964248e-01 2.383518e-02
<GCONST> 8.861575e+01
<TRANSP> 5
 0.000000e+00 1.000000e+00 0.000000e+00 0.000000e+00 0.000000e+00
 0.000000e+00 5.633515e-01 4.366485e-01 0.000000e+00 0.000000e+00
 0.000000e+00 0.000000e+00 6.990308e-01 3.009692e-01 0.000000e+00
 0.000000e+00 0.000000e+00 0.000000e+00 8.859544e-01 1.140455e-01
 0.000000e+00 0.000000e+00 0.000000e+00 0.000000e+00 0.000000e+00
<ENDHMM>
~h "eh"
<BEGINHMM>
<NUMSTATES> 5
<STATE> 2
<MEAN> 39
 -4.073886e+00 -2.759126e+00 -6.915960e+00 -1.232174e+01 -1.703627e+01 -2.196643e+01 -1.205790e+01 1.640391e+00 -8.474908e+00 -1.320757e+01 -2.430947e+00 -3.623220e-02 7.443111e+01 1.176816e+00 -1.699734e+00 -5.171618e-01 -1.398509e+00 1.052360e+00 7.133194e-01 4.030238e-01 7.625304e-01 -6.506138e-01 -1.174454e+00 -1.006174e+00 -3.020877e-01 1.578075e+00 -1.105404e+00 -3.302354e-01 -1.476363e-01 3.732702e-01 6.606840e-01 1.051903e+00 7.984461e-01 -5.012126e-01 1.652066e-01 2.553972e-01 4.050892e-02 -2.393528e-01 -6.238222e-01
<VARIANCE> 39
 3.080494e+00 1.634084e+01 9.840219e+00 1.906839e+01 2.101079e+01 2.431911e+01 3.772002e+01 2.286802e+01 3.709716e+01 1.852398e+01 1.712834e+01 2.013449e+01 1.026722e+01 3.262204e+00 1.586225e+00 1.372614e+00 1.711411e+00 2.294451e+00 4.560371e+00 5.305925e+00 3.461982e+00 2.726923e+00 2.314484e+00 1.912224e+00 1.769447e+00 1.154406e+00 4.339609e-01 4.141837e-01 3.226555e-01 2.476904e-01 5.058734e-01 8.770328e-01 7.857974e-01 5.777171e-01 4.616734e-01 5.132539e-01 3.350464e-01 4.162463e-01 1.161545e-01
<GCONST> 1.080846e+02
<STATE> 3
<MEAN> 39
 -4.395168e+00 -9.727822e+00 -7.524472e+00 -1.550385e+01 -1.135557e+01 -1.596689e+01 -6.918869e+00 -3.428000e+00 -8.958548e+00 -1.877992e+01 -6.402604e+00 -2.032644e+00 7.625374e+01 3.693913e-01 -1.679702e-01 5.137884e-02 5.859733e-02 6.456634e-01 -1.901181e-01 -6.159207e-01 -7.642139e-01 8.669109e-01 -4.597722e-01 -4.155906e-01 -8.905910e-03 -4.121116e-01 1.114476e-01 3.024475e-01 7.882968e-02 1.916199e-01 -3.914101e-02 -2.170279e-01 -3.719751e-01 -5.296493e-02 1.915047e-01 2.765990e-01 7.971865e-02 -1.537832e-02 -2.792119e-01
<VARIANCE> 39
 4.417541e+00 8.598633e+00 8.986890e+00 1.044001e+01 1.654498e+01 2.297785e+01 2.152708e+01 2.292942e+01 3.144704e+01 2.017089e+01 1.946950e+01 1.245386e+01 5.725339e+00 2.579052e-01 6.602318e-01 4.218733e-01 5.742245e-01 9.600173e-01 1.529103e+00 2.040075e+00 1.391491e+00 1.757077e+00 1.735472e+00 1.155589e+00 9.837850e-01 3.542680e-01 3.175555e-02 1.001743e-01 1.010793e-01 1.314916e-01 2.069862e-01 2.803159e-01 2.795267e-01 2.797236e-01 2.757328e-01 2.186754e-01 2.101686e-01 1.990689e-01 6.351679e-02
<GCONST> 7.992548e+01
<STATE> 4
<MEAN> 39
 -1.239527e-01 -2.520690e+00 -5.163211e+00 -1.172857e+01 -9.324460e+00 -2.416271e+01 -1.516388e+01 -4.319757e+00 -4.708782e+00 -1.554204e+01 -7.107557e+00 7.334958e-01 6.806969e+01 9.002477e-02 4.266058e-01 9.250291e-02 1.620173e-01 3.571117e-02 -3.101898e-01 -3.209860e-01 3.782867e-01 -2.888126e-01 1.674072e-01 2.635660e-01 2.310379e-01 -4.364435e-01 -4.250820e-02 3.205198e-03 -5.373143e-03 2.841240e-02 -7.748058e-02 9.713744e-02 6.863195e-02 -1.142672e-02 -1.005906e-01 -3.093143e-02 -1.139968e-02 -5.007081e-02 -2.106580e-02
<VARIANCE> 39
 7.516135e+00 1.369064e+01 1.206396e+01 3.545578e+01 3.145618e+01 3.946997e+01 3.108340e+01 5.969807e+01 4.349062e+01 2.068489e+01 3.547704e+01 4.190093e+01 2.406931e+01 7.104407e-01 1.215992e+00 1.114257e+00 3.371202e+00 1.941437e+00 2.422658e+00 2.553033e+00 2.993954e+00 3.503209e+00 2.037385e+00 2.031226e+00 2.991087e+00 3.356346e+00 1.188960e-01 2.123524e-01 2.055319e-01 5.450271e-01 3.292752e-01 4.875448e-01 4.254997e-01 5.376934e-01 7.078099e-01 3.473149e-01 3.505841e-01 5.357047e-01 4.550977e-01
<GCONST> 1.110115e+02
<TRANSP> 5
 0.000000e+00 1.000000e+00 0.000000e+00 0.000000e+00 0.000000e+00
 0.000000e+00 7.110890e-01 2.889110e-01 0.000000e+00 0.000000e+00
 0.000000e+00 0.000000e+00 8.634880e-01 1.365120e-01 0.000000e+00
 0.000000e+00 0.000000e+00 0.000000e+00 9.249734e-01 7.502664e-02
 0.000000e+00 0.000000e+00 0.000000e+00 0.000000e+00 0.000000e+00
<ENDHMM>
~h "ey"
<BEGINHMM>
<NUMSTATES> 5
<STATE> 2
<MEAN> 39
 -1.113641e+01 -4.782645e+00 -4.036061e+00 -1.133075e+01 -1.303897e+01 -6.845750e+00 -7.681072e+00 -5.451273e+00 -3.480649e+00 -1.734713e-01 -2.387908e+00 -3.029496e+00 5.520377e+01 2.115762e-01 -2.124483e-01 1.526972e+00 -1.192783e+00 -1.760264e+00 -2.852311e-01 2.404840e-01 -3.970861e-01 -2.646599e-01 7.701258e-01 -6.183956e-01 2.260234e-02 2.462290e+00 1.753107e-01 1.804099e-01 1.058028e-01 -2.998041e-01 -1.294032e-01 -2.150482e-01 -2.628593e-01 -2.183775e-01 -3.415632e-02 -6.591448e-02 -1.206317e-01 3.799113e-02 5.707965e-01
<VARIANCE> 39
 1.542649e+01 1.203358e+01 4.790542e+01 4.388168e+01 8.698823e+01 2.835360e+01 3.698740e+01 3.053444e+01 2.395334e+01 3.433959e+01 2.576783e+01 1.643600e+01 1.174288e+02 1.851441e+00 1.225735e+00 3.265623e+00 6.455277e+00 7.694979e+00 3.629566e+00 4.209740e+00 2.974771e+00 3.190763e+00 3.975923e+00 2.610198e+00 1.862056e+00 1.665887e+01 2.191165e-01 2.840650e-01 6.341999e-01 9.176874e-01 1.467095e+00 6.226601e-01 6.144201e-01 5.531871e-01 6.122745e-01 8.753877e-01 5.129959e-01 3.453928e-01 2.201292e+00
<GCONST> 1.275255e+02
<STATE> 3
<MEAN> 39
 -7.357348e+00 9.425831e-01 7.632657e+00 -2.170525e+01 -2.517815e+01 -1.110616e+01 -1.183672e+01 -1.365193e+01 -5.774453e+00 1.985712e+00 -9.841779e+00 -1.919867e+00 7.471850e+01 1.450961e-01 6.780624e-01 2.804279e-01 2.892214e-01 -3.140837e-01 -1.149102e-01 -2.191550e-01 -4.928412e-01 -4.088351e-01 -4.642743e-01 -4.185413e-01 1.155883e-02 -2.655725e-01 -7.384355e-02 -2.272324e-02 -2.043263e-01 4.245645e-01 2.641004e-01 -7.044734e-03 1.628422e-01 2.186342e-01 -7.154270e-02 -2.379799e-01 2.129091e-01 -5.539126e-02 -5.230220e-01
<VARIANCE> 39
 2.846981e+00 1.889520e+01 1.680191e+01 1.479396e+01 1.420646e+01 1.524473e+01 2.945547e+01 2.488820e+01 1.908142e+01 3.196336e+01 3.194460e+01 2.159631e+01 1.013013e+01 2.604381e-01 1.093857e+00 1.021930e+00 1.865078e+00 1.289444e+00 1.590609e+00 1.811631e+00 2.100549e+00 1.659703e+00 2.194102e+00 2.300197e+00 1.561340e+00 1.150186e+00 7.771009e-02 1.741244e-01 1.720582e-01 2.418711e-01 4.299135e-01 3.247215e-01 2.970185e-01 3.160781e-01 2.938442e-01 3.714387e-01 3.553963e-01 2.736599e-01 5.433326e-01
<GCONST> 9.560137e+01
<STATE> 4
<MEAN> 39
 -6.896064e+00 5.813173e+00 5.514484e+00 -1.051252e+01 -2.146648e+01 -1.294428e+01 -9.976787e+00 -1.234964e+01 -1.125994e+01 -6.974889e+00 -7.620279e+00 -4.446062e+00 6.363820e+01 -4.407916e-01 -1.213747e-02 -1.434501e+00 1.866189e+00 2.977687e+00 2.286454e-01 9.529306e-01 7.037641e-01 -4.817273e-02 -1.628720e+00 6.487949e-01 -9.053727e-01 -3.231212e+00 -3.436316e-01 -5.586839e-01 -2.364935e-01 -6.170192e-01 1.416357e-01 3.731779e-01 4.363368e-02 -2.658403e-02 6.126767e-01 6.209437e-01 -1.670739e-01 1.535841e-01 1.386500e-01
<VARIANCE> 39
 8.840453e+00 2.061198e+01 1.355388e+01 3.422176e+01 5.879906e+01 2.732763e+01 2.304911e+01 2.022037e+01 2.065712e+01 4.087606e+01 2.398750e+01 2.707716e+01 4.791965e+01 1.163335e+00 3.012720e+00 1.216322e+00 4.189535e+00 2.868457e+00 3.203825e+00 2.707445e+00 2.249391e+00 3.211032e+00 3.984644e+00 2.906433e+00 2.025117e+00 1.610663e+00 1.926731e-01 4.617049e-01 2.336715e-01 7.188034e-01 1.215273e+00 5.495082e-01 5.207461e-01 4.264290e-01 4.374268e-01 6.126974e-01 6.041593e-01 4.434322e-01 9.841005e-01
<GCONST> 1.165762e+02
<TRANSP> 5
 0.000000e+00 1.000000e+00 0.000000e+00 0.000000e+00 0.000000e+00
 0.000000e+00 8.675556e-01 1.324445e-01 0.000000e+00 0.000000e+00
 0.000000e+00 0.000000e+00 9.098922e-01 9.010783e-02 0.000000e+00
 0.000000e+00 0.000000e+00 0.000000e+00 7.330423e-01 2.669578e-01
 0.000000e+00 0.000000e+00 0.000000e+00 0.000000e+00 0.000000e+00
<ENDHMM>
~h "ia"
<BEGINHMM>
<NUMSTATES> 5
<STATE> 2
<MEAN> 39
 -6.023170e+00 4.656024e+00 3.665686e+00 -1.200108e+01 -2.782340e+01 -1.775016e+01 -1.068060e+01 -1.292236e+01 -9.004780e+00 -6.391801e+00 -3.098060e+00 -1.993772e+00 7.179511e+01 5.814986e-01 -2.618332e-01 1.150294e+00 -3.001404e+00 -1.159019e+00 1.298118e+00 1.398284e-01 -9.350182e-01 1.171745e+00 2.621764e+00 -1.030768e+00 4.098976e-01 9.648428e-01 -3.825908e-01 3.335344e-01 4.777535e-03 2.985370e-01 9.861490e-01 2.440413e-01 -4.533034e-02 9.955968e-02 1.119977e-02 -2.692822e-01 -6.272888e-01 -4.507571e-01 -5.278043e-01
<VARIANCE> 39
 2.718753e+00 1.194465e+01 1.288600e+01 2.205493e+01 2.122330e+01 2.129810e+01 1.787879e+01 2.413644e+01 2.201892e+01 3.475412e+01 2.383528e+01 1.909321e+01 5.549598e+00 1.010974e+00 1.245193e+00 9.159018e-01 1.354951e+00 2.776783e+00 1.993897e+00 4.181917e+00 2.777331e+00 2.938776e+00 2.482011e+00 2.191586e+00 2.321625e+00 4.666426e-01 1.959864e-01 2.307370e-01 1.990137e-01 2.523992e-01 3.516669e-01 5.086192e-01 6.819924e-01 4.665895e-01 7.640864e-01 4.833506e-01 4.964047e-01 2.860551e-01 7.988328e-02
<GCONST> 1.004957e+02
<STATE> 3
<MEAN> 39
 -6.640845e+00 4.394030e+00 7.809351e+00 -1.952454e+01 -2.613824e+01 -1.487780e+01 -1.016501e+01 -1.407048e+01 -6.528647e+00 -1.398987e+00 -7.161651e+00 -3.310729e+00 7.305122e+01 3.155239e-01 -7.478523e-01 6.432045e-01 -6.927496e-01 4.323983e-01 -3.021352e-01 3.386845e-01 5.210882e-01 -3.318165e-01 1.006454e-01 -4.937915e-01 -1.726271e-02 -1.238149e-01 2.245842e-01 -3.744464e-01 -2.185424e-01 6.985016e-01 1.053920e-01 -4.595139e-01 -4.491003e-02 3.801071e-01 -2.903044e-01 -6.544193e-01 1.889645e-01 1.392722e-01 -2.139195e-01
<VARIANCE> 39
 2.231545e+00 8.462292e+00 1.159647e+01 1.329009e+01 1.404709e+01 1.860947e+01 1.411669e+01 2.202114e+01 1.799403e+01 2.602991e+01 2.207367e+01 2.370101e+01 4.031966e+00 2.962331e-01 7.859371e-01 8.779476e-01 1.237310e+00 7.663883e-01 1.216696e+00 1.064632e+00 1.377097e+00 1.484125e+00 1.790177e+00 2.062021e+00 7.430993e-01 2.134532e-01 6.388561e-02 9.981544e-02 9.907003e-02 1.956373e-01 1.881963e-01 1.907736e-01 2.717804e-01 2.228721e-01 2.891722e-01 2.744284e-01 2.513185e-01 1.985785e-01 3.496059e-02
<GCONST> 7.954535e+01
<STATE> 4
<MEAN> 39
 -2.628540e+00 -2.311360e+00 8.244318e+00 -1.707512e+01 -2.450335e+01 -1.944203e+01 -8.843431e+00 -8.521115e+00 -9.922956e+00 -6.249764e+00 -7.361386e+00 -1.031239e+00 7.104945e+01 1.559180e+00 -2.082726e+00 -8.905255e-01 2.157944e+00 1.165613e+00 -1.476842e+00 -1.116649e+00 1.329692e+00 5.946110e-01 -1.934587e+00 -7.230793e-01 9.314389e-01 -7.679664e-01 1.415979e-01 1.737840e-01 -6.686525e-01 5.136609e-01 4.083382e-01 1.571547e-01 -6.962340e-01 -3.480348e-01 8.104441e-01 1.249706e-01 -2.796572e-01 -3.202208e-01 -1.089662e-01
<VARIANCE> 39
 6.350514e+00 1.517668e+01 2.199157e+01 1.935135e+01 2.188613e+01 3.003630e+01 2.898024e+01 3.578009e+01 2.040979e+01 4.244157e+01 2.697298e+01 1.918978e+01 7.189416e+00 4.152055e-01 8.007362e-01 1.262179e+00 1.689164e+00 1.495406e+00 9.159343e-01 2.413345e+00 1.284642e+00 3.038056e+00 1.487671e+00 1.483875e+00 1.195724e+00 1.597526e-01 6.679162e-02 1.758032e-01 2.206997e-01 2.968716e-01 2.040115e-01 3.011047e-01 3.525022e-01 3.858179e-01 2.990333e-01 5.251334e-01 2.356368e-01 4.141238e-01 1.805497e-02
<GCONST> 9.191917e+01
<TRANSP> 5
 0.000000e+00 1.000000e+00 0.000000e+00 0.000000e+00 0.000000e+00
 0.000000e+00 6.372430e-01 3.627570e-01 0.000000e+00 0.000000e+00
 0.000000e+00 0.000000e+00 7.797269e-01 2.202731e-01 0.000000e+00
 0.000000e+00 0.000000e+00 0.000000e+00 6.982331e-01 3.017670e-01
 0.000000e+00 0.000000e+00 0.000000e+00 0.000000e+00 0.000000e+00
<ENDHMM>
~h "ih"
<BEGINHMM>
<NUMSTATES> 5
<STATE> 2
<MEAN> 39
 -2.593622e+01 -2.466827e+00 -7.575889e+00 -3.436677e+00 -1.133381e+01 -7.635668e+00 -2.442613e+00 -3.353288e+00 -3.387822e+00 -2.638169e+00 1.974273e+00 -3.127275e+00 6.440623e+01 3.705084e+00 6.234785e-01 1.655020e+00 -2.398861e+00 -2.787916e+00 -3.375651e+00 -1.352312e+00 -1.283183e+00 -1.549647e+00 -5.021674e-01 8.123506e-02 -1.872315e-01 2.550045e+00 1.432839e+00 6.047422e-01 6.041922e-01 -3.800242e-01 -7.923977e-01 -4.965134e-01 -8.609233e-01 -4.381587e-01 -5.809138e-01 -2.944444e-01 -3.690143e-01 -8.047209e-02 2.234995e-02
<VARIANCE> 39
 2.038004e+01 1.284629e+01 1.144661e+01 2.877099e+01 3.065919e+01 3.910580e+01 2.208311e+01 1.827140e+01 1.974640e+01 2.364110e+01 1.840789e+01 1.215666e+01 1.911347e+01 5.939887e+00 2.467710e+00 2.091915e+00 2.233906e+00 3.748535e+00 3.630249e+00 3.572201e+00 2.607859e+00 2.831327e+00 2.562183e+00 2.176216e+00 1.382706e+00 1.293728e+00 4.287100e-01 3.414707e-01 2.517049e-01 4.579514e-01 5.758970e-01 8.380530e-01 4.740756e-01 5.660267e-01 5.609980e-01 5.605392e-01 4.355077e-01 3.087156e-01 2.693063e-01
<GCONST> 1.124468e+02
<STATE> 3
<MEAN> 39
 -6.484858e+00 1.506360e+00 3.024317e+00 -1.431993e+01 -2.483825e+01 -1.611525e+01 -1.138904e+01 -9.044759e+00 -9.375905e+00 -3.114915e+00 -1.748707e+00 -4.496144e+00 7.278275e+01 1.687295e+00 -1.192779e-01 1.536752e+00 -1.752472e+00 -1.564979e+00 3.176187e-01 -8.653660e-01 -8.019881e-01 -9.951617e-02 6.565561e-01 -1.297842e+00 -2.380500e-01 7.245491e-01 -8.333859e-01 -1.609859e-01 -2.317713e-01 4.451058e-01 5.686965e-01 5.015894e-01 4.930131e-01 -3.095086e-02 3.528814e-01 1.793902e-02 -7.690090e-02 -2.545312e-03 -5.170591e-01
<VARIANCE> 39
 1.116069e+01 1.406130e+01 1.360001e+01 3.172163e+01 3.052547e+01 3.664925e+01 2.564130e+01 2.943367e+01 2.095614e+01 2.945304e+01 2.382025e+01 1.744299e+01 1.162774e+01 6.133657e+00 1.869383e+00 1.515290e+00 2.048539e+00 3.308506e+00 4.853479e+00 3.215132e+00 2.897469e+00 2.659342e+00 3.016603e+00 2.917740e+00 1.607702e+00 1.463746e+00 5.589474e-01 4.246030e-01 2.286461e-01 3.940513e-01 4.441901e-01 1.208313e+00 4.541478e-01 6.167161e-01 4.907624e-01 7.831032e-01 5.846756e-01 2.917259e-01 1.385453e-01
<GCONST> 1.135018e+02
<STATE> 4
<MEAN> 39
 -1.082872e+01 -3.538627e+00 1.926028e+00 -8.314856e+00 -2.093766e+01 -1.603946e+01 -4.068618e+00 -1.155869e+01 -6.209449e+00 -6.562584e+00 -2.703661e+00 -5.068689e+00 6.618387e+01 -1.352114e+00 -5.982410e-01 -1.199757e+00 1.867486e+00 9.175794e-01 -5.143355e-01 9.984123e-01 9.985173e-01 4.120005e-01 -9.714122e-01 9.218528e-01 3.067848e-01 -4.376048e-01 -1.792401e-01 5.873434e-02 -2.029631e-01 1.109492e-02 1.102563e-01 1.363761e-01 -2.131359e-01 3.674618e-01 2.243323e-02 3.141278e-02 9.955178e-02 9.260672e-02 1.153624e-01
<VARIANCE> 39
 3.280506e+01 4.708727e+01 5.171417e+01 7.051727e+01 4.212348e+01 3.892675e+01 4.894506e+01 4.200304e+01 2.699953e+01 4.293266e+01 4.749898e+01 2.788080e+01 4.076458e+01 1.855102e+00 5.477115e+00 4.030221e+00 3.203310e+00 4.299377e+00 3.452291e+00 4.499168e+00 5.542510e+00 2.859701e+00 3.711150e+00 3.625822e+00 2.668103e+00 6.488218e+00 2.758049e-01 1.207804e+00 9.147797e-01 8.407272e-01 9.855908e-01 8.738945e-01 7.390128e-01 7.687930e-01 5.843227e-01 8.444554e-01 9.656271e-01 4.955728e-01 1.259936e+00
<GCONST> 1.342071e+02
<TRANSP> 5
 0.000000e+00 1.000000e+00 0.000000e+00 0.000000e+00 0.000000e+00
 0.000000e+00 6.505431e-01 3.494569e-01 0.000000e+00 0.000000e+00
 0.000000e+00 0.000000e+00 8.470049e-01 1.529951e-01 0.000000e+00
 0.000000e+00 0.000000e+00 0.000000e+00 8.930274e-01 1.069726e-01
 0.000000e+00 0.000000e+00 0.000000e+00 0.000000e+00 0.000000e+00
<ENDHMM>
~h "iy"
<BEGINHMM>
<NUMSTATES> 5
<STATE> 2
<MEAN> 39
 -1.593717e+00 -4.048304e+00 8.039785e+00 -1.282048e+01 -2.384381e+01 -1.854656e+01 -1.257844e+01 -9.742867e+00 -1.333062e+01 -2.212790e+00 -1.244616e+01 -2.437376e+00 7.097871e+01 -1.655523e+00 1.169715e+00 1.853661e+00 -2.016811e+00 -1.279670e+00 1.247718e+00 1.794927e+00 -1.332044e+00 -1.907967e+00 2.257056e+00 -8.637032e-01 -2.840354e-01 5.011845e-01 1.178381e-01 2.319477e-01 -3.735927e-01 -7.365499e-02 3.893992e-01 5.705167e-01 -6.769636e-01 -5.605834e-01 8.106651e-01 -3.748803e-02 -4.311720e-01 -3.935053e-01 -2.515963e-01
<VARIANCE> 39
 9.243197e+00 1.472969e+01 1.655473e+01 2.192213e+01 2.242329e+01 2.786201e+01 3.321626e+01 2.518806e+01 2.480714e+01 4.557527e+01 2.553686e+01 2.383557e+01 8.023477e+00 7.271218e-01 8.237698e-01 1.146568e+00 1.254559e+00 1.421455e+00 2.358124e+00 3.920091e+00 2.645169e+00 5.003600e+00 2.072966e+00 2.636389e+00 1.896363e+00 2.391132e-01 9.047867e-02 2.471221e-01 1.589510e-01 2.486489e-01 3.220170e-01 4.532701e-01 4.936035e-01 6.716927e-01 5.936938e-01 8.981336e-01 3.390448e-01 4.806867e-01 2.083777e-02
<GCONST> 1.007194e+02
<STATE> 3
<MEAN> 39
 -7.109125e+00 2.541176e+00 1.239686e+01 -2.171045e+01 -2.540785e+01 -1.046798e+01 -1.238021e+01 -1.646471e+01 -1.187427e+01 5.236828e-01 -1.840272e+01 -3.540919e+00 6.977553e+01 -1.414602e-01 3.804809e-01 1.998100e-01 -4.132267e-01 -8.829275e-02 2.166607e-01 -8.604042e-02 -2.252937e-01 2.772118e-01 -9.503759e-02 1.292802e-03 2.267689e-01 -5.547816e-01 1.516195e-01 -1.509416e-01 -2.306382e-01 4.182642e-01 8.838689e-02 -3.061369e-01 1.800589e-02 2.089561e-01 -1.334757e-02 -1.473487e-01 3.979724e-01 7.281814e-02 -1.696543e-01
<VARIANCE> 39
 4.134989e+00 1.338191e+01 1.137673e+01 2.163318e+01 1.664941e+01 1.731106e+01 2.074834e+01 1.910296e+01 2.079828e+01 2.703370e+01 2.909268e+01 1.619007e+01 1.140849e+01 5.150981e-01 9.024885e-01 7.266707e-01 1.472210e+00 1.187553e+00 2.099631e+00 1.380728e+00 1.687068e+00 1.794481e+00 1.617228e+00 2.474363e+00 1.226941e+00 4.356335e-01 8.307514e-02 1.172780e-01 1.353312e-01 1.920322e-01 2.997774e-01 2.666897e-01 2.611323e-01 3.150226e-01 3.101011e-01 3.621606e-01 3.094639e-01 2.544009e-01 7.619013e-02
<GCONST> 8.956097e+01
<STATE> 4
<MEAN> 39
 -7.143229e+00 2.336120e+00 6.043611e+00 -1.314963e+01 -2.097066e+01 -1.249634e+01 -1.207726e+01 -1.459628e+01 -8.729833e+00 -2.359447e+00 -9.258504e+00 -2.140193e+00 5.921951e+01 -8.108299e-01 -2.041723e-01 -2.181193e+00 2.457338e+00 1.992775e+00 1.135469e-01 5.494705e-01 8.844836e-01 5.588723e-01 -1.252378e+00 1.786253e+00 -2.235743e-01 -1.766377e+00 -2.854940e-01 -3.503443e-02 -1.566473e-01 -9.830721e-02 2.176726e-01 2.355469e-01 1.196352e-01 1.979749e-01 8.450739e-02 -6.731582e-02 -1.766358e-01 -9.580888e-02 1.267392e-01
<VARIANCE> 39
 1.883301e+01 2.209762e+01 4.956711e+01 4.887385e+01 6.152639e+01 3.206382e+01 2.983759e+01 3.254139e+01 4.036253e+01 4.807639e+01 4.758055e+01 3.266159e+01 4.943725e+01 3.070579e+00 1.858619e+00 2.532178e+00 3.421231e+00 4.368212e+00 3.478965e+00 3.750934e+00 3.314861e+00 3.566405e+00 4.209466e+00 4.817310e+00 3.067866e+00 2.116714e+00 4.569977e-01 3.521200e-01 6.431841e-01 7.218342e-01 1.144037e+00 6.367723e-01 7.165019e-01 6.423884e-01 8.512040e-01 1.008513e+00 9.901819e-01 5.752929e-01 3.943645e-01
<GCONST> 1.287479e+02
<TRANSP> 5
 0.000000e+00 1.000000e+00 0.000000e+00 0.000000e+00 0.000000e+00
 0.000000e+00 7.435184e-01 2.564815e-01 0.000000e+00 0.000000e+00
 0.000000e+00 0.000000e+00 8.896866e-01 1.103133e-01 0.000000e+00
 0.000000e+00 0.000000e+00 0.000000e+00 8.151134e-01 1.848866e-01
 0.000000e+00 0.000000e+00 0.000000e+00 0.000000e+00 0.000000e+00
<ENDHMM>
~h "jh"
<BEGINHMM>
<NUMSTATES> 5
<STATE> 2
<MEAN> 39
 1.423986e+00 -3.410182e-01 -1.424301e+01 -3.064792e+01 1.547218e+00 -8.942017e+00 -1.701090e+01 -1.568951e+01 2.354172e+00 -2.108075e+01 9.144967e+00 -1.162029e+01 7.214400e+01 1.264571e-01 5.539672e-02 -2.201746e-01 3.358032e-01 -3.527458e-02 3.696415e-01 -3.204588e-01 5.152099e-01 -1.328965e+00 2.223738e-02 -2.194244e-01 -7.792503e-01 -5.053587e-01 -6.895193e-02 -3.581373e-02 8.187121e-02 3.799848e-01 -2.667763e-01 -1.043316e-01 1.902698e-02 1.236320e-01 -3.429180e-01 2.741570e-01 -2.910202e-01 -3.569208e-03 -6.128016e-02
<VARIANCE> 39
 4.482800e+00 4.970771e+00 1.097765e+01 4.015761e+01 2.343137e+01 2.681587e+01 2.364021e+01 2.046841e+01 2.992518e+01 5.038314e+01 7.545609e+01 4.161314e+01 4.836594e+00 1.317057e-01 6.754946e-01 6.891434e-01 2.598304e+00 1.716357e+00 1.981640e+00 1.451277e+00 1.606264e+00 1.991073e+00 3.282641e+00 3.464989e+00 3.217567e+00 9.260898e-02 4.754760e-02 8.266526e-02 1.231567e-01 2.313557e-01 1.739066e-01 3.026171e-01 2.167379e-01 2.101422e-01 3.348076e-01 3.522159e-01 4.168563e-01 3.970652e-01 1.180505e-02
<GCONST> 8.907771e+01
<STATE> 3
<MEAN> 39
 2.056789e+00 -1.513013e+00 -1.380000e+01 -2.108946e+01 -3.316610e+00 -9.467862e+00 -2.077258e+01 -1.118170e+01 -1.156753e+01 -1.263077e+01 4.034690e-01 -1.440922e+01 6.789647e+01 2.013967e-01 1.260700e-01 5.572711e-01 1.714193e+00 -6.059934e-01 -9.375777e-01 -6.458697e-01 1.319410e-01 -1.865780e+00 1.579478e+00 -1.346136e+00 1.055616e+00 -9.753497e-01 1.211260e-02 5.432392e-02 3.650936e-01 3.393999e-01 -1.137604e-01 -1.600370e-01 4.242507e-02 -3.041202e-01 2.975456e-01 -1.740764e-01 9.038639e-02 1.354114e-01 -2.533032e-01
<VARIANCE> 39
 7.580600e+00 1.585659e+01 1.115732e+01 4.346123e+01 3.018933e+01 4.590254e+01 2.403370e+01 1.938173e+01 8.380069e+01 7.815458e+01 8.344592e+01 6.893914e+01 7.817995e+00 2.833030e-01 1.126645e+00 1.195056e+00 2.857879e+00 1.876406e+00 3.019239e+00 2.667590e+00 2.777111e+00 3.185958e+00 2.916462e+00 2.756875e+00 2.143493e+00 3.115650e-01 6.277322e-02 2.119177e-01 2.174133e-01 5.197494e-01 3.177614e-01 5.634197e-01 3.392478e-01 3.899176e-01 3.960807e-01 5.077683e-01 4.096663e-01 5.163155e-01 1.133768e-01
<GCONST> 1.066143e+02
<STATE> 4
<MEAN> 39
 -6.055624e+00 -1.220807e-01 -4.419219e+00 -9.851446e+00 -8.897890e+00 -1.149885e+01 -1.699537e+01 -1.298810e+01 -1.044151e+01 -7.559232e+00 -4.536390e+00 -5.287568e+00 5.946655e+01 -8.856246e-01 2.000711e-01 1.053843e+00 8.668677e-01 -5.237616e-01 1.881318e-02 6.457183e-01 9.282064e-02 4.155650e-01 -3.649836e-01 -3.104165e-01 4.776079e-01 -6.609299e-01 1.657085e-02 -1.703016e-01 -1.522348e-01 -1.294399e-01 9.187409e-02 1.666303e-01 4.586519e-02 1.302408e-01 1.832718e-01 -5.176423e-02 8.620963e-02 -2.078445e-01 -4.725446e-02
<VARIANCE> 39
 1.052227e+02 3.234414e+01 3.006951e+01 3.522900e+01 3.426946e+01 4.422643e+01 7.712881e+01 4.524923e+01 6.521132e+01 2.907791e+01 3.025020e+01 3.374559e+01 6.676200e+01 5.731401e+00 3.798154e+00 2.337965e+00 4.180014e+00 2.487970e+00 4.680828e+00 6.834460e+00 3.774758e+00 3.786312e+00 4.797056e+00 3.091350e+00 3.101602e+00 7.720338e+00 1.061571e+00 8.527547e-01 4.952791e-01 6.385904e-01 4.655085e-01 9.486500e-01 9.997874e-01 7.928639e-01 7.788603e-01 8.953072e-01 5.062821e-01 5.320860e-01 8.622614e-01
<GCONST> 1.350819e+02
<TRANSP> 5
 0.000000e+00 1.000000e+00 0.000000e+00 0.000000e+00 0.000000e+00
 0.000000e+00 7.189748e-01 2.810252e-01 0.000000e+00 0.000000e+00
 0.000000e+00 0.000000e+00 7.662074e-01 2.337926e-01 0.000000e+00
 0.000000e+00 0.000000e+00 0.000000e+00 8.352072e-01 1.647928e-01
 0.000000e+00 0.000000e+00 0.000000e+00 0.000000e+00 0.000000e+00
<ENDHMM>
~h "ng"
<BEGINHMM>
<NUMSTATES> 5
<STATE> 2
<MEAN> 39
 3.144964e+00 7.108647e+00 -5.076892e+00 -9.521752e+00 -9.796276e+00 -8.967848e+00 -1.927502e+01 -1.260783e+01 -7.166732e+00 -1.003995e+01 9.809709e-01 -8.563380e+00 5.902837e+01 -5.581267e-01 2.722327e-01 1.021894e+00 1.112604e+00 -4.545443e-01 -5.253171e-01 8.727114e-02 -6.523418e-02 -1.927732e-01 7.939323e-01 -1.021464e+00 1.404381e-01 -7.148118e-01 -1.381422e-01 -1.639237e-01 1.701819e-02 -1.048478e-02 1.996977e-01 3.324454e-02 1.193068e-02 2.705985e-02 9.515169e-02 -2.399547e-01 4.337470e-02 -1.290416e-01 -2.047643e-02
<VARIANCE> 39
 1.006392e+01 9.712233e+00 3.689649e+01 3.568574e+01 2.192996e+01 2.953268e+01 1.799497e+01 1.758199e+01 2.410114e+01 2.954877e+01 3.537737e+01 1.626931e+01 1.313422e+01 1.204319e+00 1.339603e+00 1.131974e+00 1.277451e+00 1.935387e+00 1.727458e+00 1.636271e+00 1.356146e+00 2.516721e+00 2.625144e+00 2.578542e+00 1.825026e+00 5.326479e-01 2.573347e-01 2.219208e-01 1.950444e-01 1.912286e-01 2.980591e-01 3.573315e-01 3.236644e-01 2.730208e-01 5.036795e-01 3.118764e-01 4.460759e-01 3.916222e-01 9.609865e-02
<GCONST> 1.000743e+02
<STATE> 3
<MEAN> 39
 -7.654433e+00 1.506284e+00 1.272720e+00 -2.340258e-01 -5.649949e+00 -7.996877e+00 -1.334843e+01 -9.954487e+00 -8.907524e+00 -9.858459e+00 -7.249854e+00 -7.949767e+00 4.947360e+01 -1.574534e+00 -1.593508e+00 -1.071764e+00 -1.296783e-02 6.007917e-01 1.020805e+00 1.509229e+00 1.074439e+00 4.665388e-01 3.728560e-01 2.761822e-01 6.773337e-01 -8.623482e-01 1.272859e-01 3.317716e-02 -2.606708e-01 -2.667254e-01 -1.819944e-01 -4.612632e-02 -1.090487e-02 6.554538e-02 1.685961e-01 2.008337e-01 2.555299e-01 1.771796e-01 9.128086e-02
<VARIANCE> 39
 1.504345e+01 1.997029e+01 1.889472e+01 1.496671e+01 1.809594e+01 2.023671e+01 3.064910e+01 2.251955e+01 1.620224e+01 2.079185e+01 1.897800e+01 1.780648e+01 6.021361e+00 4.878363e-01 8.212267e-01 1.400846e+00 1.314557e+00 1.749485e+00 1.573000e+00 1.846897e+00 1.197421e+00 1.717289e+00 2.280175e+00 2.806594e+00 2.283038e+00 1.519403e-01 1.088684e-01 2.149845e-01 3.055585e-01 1.449564e-01 2.936981e-01 3.557061e-01 4.069256e-01 2.643569e-01 2.833870e-01 3.941394e-01 4.856587e-01 3.998994e-01 3.127303e-02
<GCONST> 9.308923e+01
<STATE> 4
<MEAN> 39
 -1.455576e+01 -4.697806e+00 -6.902609e+00 -4.231748e+00 -5.777470e+00 -3.716455e+00 -5.803788e+00 -4.141671e+00 -4.192574e+00 -3.713191e+00 -2.828003e+00 -2.014760e+00 4.443906e+01 -4.235791e-02 1.307683e-02 -8.766200e-02 -3.971309e-02 -2.792041e-03 5.338366e-02 6.767496e-02 4.504999e-02 7.317916e-03 9.769666e-02 2.739445e-02 3.544829e-02 -9.356473e-02 2.469437e-02 2.844572e-02 3.193778e-02 1.711585e-02 -1.775498e-03 -3.627336e-03 -2.051284e-02 -2.224328e-02 -2.519916e-02 -2.180655e-02 -1.786034e-02 -3.021095e-02 1.341909e-02
<VARIANCE> 39
 1.080020e+00 2.900221e+00 4.230966e+00 5.352367e+00 6.584506e+00 9.244492e+00 1.056691e+01 1.085467e+01 1.109137e+01 1.147902e+01 9.843581e+00 1.024055e+01 1.454561e+00 1.082991e-01 2.763629e-01 4.860873e-01 6.251254e-01 7.239325e-01 1.072899e+00 1.154973e+00 1.236946e+00 1.306589e+00 1.331660e+00 1.154809e+00 1.215184e+00 3.532624e-02 2.703973e-02 7.032865e-02 1.063684e-01 1.277201e-01 1.548534e-01 2.333478e-01 2.312665e-01 2.656097e-01 2.883751e-01 2.909376e-01 2.495034e-01 2.629072e-01 7.397489e-03
<GCONST> 6.079488e+01
<TRANSP> 5
 0.000000e+00 1.000000e+00 0.000000e+00 0.000000e+00 0.000000e+00
 0.000000e+00 9.279331e-01 7.206692e-02 0.000000e+00 0.000000e+00
 0.000000e+00 0.000000e+00 8.627233e-01 1.372767e-01 0.000000e+00
 0.000000e+00 0.000000e+00 0.000000e+00 9.697472e-01 3.025281e-02
 0.000000e+00 0.000000e+00 0.000000e+00 0.000000e+00 0.000000e+00
<ENDHMM>
~h "oh"
<BEGINHMM>
<NUMSTATES> 5
<STATE> 2
<MEAN> 39
 -1.691530e+00 -3.856014e+00 -9.149492e+00 -1.984896e+01 7.917407e-01 -2.891259e+01 -1.801641e+01 3.400925e+00 -6.461601e-01 -1.451689e+01 2.027314e+00 -2.814610e+00 6.883766e+01 -2.985581e-02 -2.176163e-02 -5.487563e-01 1.014860e-01 8.381779e-01 2.521856e-01 -9.239427e-01 3.471299e-01 1.248387e+00 1.152172e+00 8.884926e-01 -1.367813e+00 -1.042739e+00 -1.647405e-01 1.078576e-01 1.300560e-01 3.272572e-01 -4.148013e-01 5.917681e-01 2.973744e-01 -2.886925e-01 -1.718670e-02 2.927128e-01 -4.257637e-02 5.679858e-02 -3.495231e-01
<VARIANCE> 39
 1.333622e+01 1.151223e+01 1.248134e+01 1.718731e+01 3.207643e+01 5.596493e+01 4.963241e+01 5.123750e+01 4.448000e+01 1.426363e+01 4.293298e+01 5.629010e+01 3.833048e+01 5.302377e-01 9.448282e-01 8.947653e-01 1.565860e+00 3.000773e+00 3.212654e+00 1.143116e+00 1.475327e+00 2.806204e+00 2.058987e+00 2.245346e+00 2.883392e+00 1.686608e+00 1.079153e-01 2.035704e-01 1.792474e-01 3.516950e-01 5.035017e-01 3.365541e-01 3.868204e-01 4.201264e-01 7.006262e-01 2.700174e-01 7.616414e-01 6.450257e-01 4.136500e-01
<GCONST> 1.084491e+02
<STATE> 3
<MEAN> 39
 -3.337950e+00 2.764119e+00 -1.385173e+01 -1.972145e+01 -1.511198e-01 -1.016135e+01 -2.009576e+01 -1.209448e+01 2.589629e+00 -9.954949e+00 3.988138e+00 -9.401182e+00 6.058228e+01 2.405064e-01 6.264159e-01 5.741721e-02 1.742865e-01 2.445708e-02 7.785882e-02 -2.547752e-01 -6.014518e-01 9.725318e-02 7.067395e-02 -4.771748e-01 7.812023e-03 2.443505e-01 3.301275e-02 -4.288094e-02 1.373993e-01 1.018866e-01 -2.171816e-02 -8.281095e-02 1.545192e-01 8.193486e-02 -2.170323e-01 -8.550859e-02 -1.169029e-01 2.865284e-02 -5.563096e-02
<VARIANCE> 39
 2.914055e+01 2.877987e+01 2.276879e+01 9.067310e+01 3.306629e+01 4.305758e+01 6.185121e+01 7.096007e+01 8.004252e+01 5.743507e+01 6.243959e+01 3.093569e+01 8.143259e+01 2.789111e+00 1.408838e+00 3.518816e+00 1.185803e+01 3.825049e+00 5.260135e+00 5.162671e+00 5.488464e+00 9.509678e+00 6.045554e+00 9.505838e+00 3.508918e+00 8.081337e+00 4.340768e-01 2.585821e-01 5.290210e-01 1.752064e+00 6.407332e-01 8.336990e-01 1.098324e+00 8.213516e-01 1.980146e+00 1.060025e+00 1.612265e+00 7.554225e-01 1.295025e+00
<GCONST> 1.413866e+02
<STATE> 4
<MEAN> 39
 -2.693389e+00 4.984296e+00 -5.512014e+00 -7.466133e+00 -4.400154e+00 -1.135922e+01 -1.545420e+01 -1.207630e+01 -5.945116e+00 -4.833420e+00 -5.649089e+00 -8.917768e+00 5.336072e+01 -1.285704e+00 -1.385192e+00 3.597485e-01 1.195202e+00 -9.527631e-01 1.238545e+00 2.198939e+00 3.580575e-01 -1.036600e+00 5.890932e-01 4.862612e-01 6.832516e-01 -1.840669e+00 -2.722301e-01 -2.046079e-01 -4.769459e-01 -6.444063e-01 4.020029e-02 -3.163579e-01 -1.197829e-01 9.112673e-02 5.982773e-01 -2.200715e-01 5.551678e-01 2.843766e-01 1.034238e+00
<VARIANCE> 39
 9.471549e+00 1.392020e+01 8.380777e+00 1.645771e+01 1.027726e+01 2.773980e+01 1.844343e+01 1.345341e+01 2.197172e+01 2.184748e+01 1.604681e+01 1.254312e+01 2.062830e+01 6.621028e-01 9.228152e-01 2.566176e+00 3.130853e+00 6.869839e-01 3.365207e+00 3.009579e+00 1.905500e+00 4.455014e+00 1.936955e+00 2.386381e+00 2.418405e+00 4.537243e+00 8.967203e-02 2.628884e-01 4.278808e-01 2.704702e-01 1.149621e-01 1.045298e+00 6.208864e-01 4.542127e-01 5.935931e-01 7.598671e-01 3.747285e-01 3.029019e-01 8.571858e-01
<GCONST> 1.043386e+02
<TRANSP> 5
 0.000000e+00 1.000000e+00 0.000000e+00 0.000000e+00 0.000000e+00
 0.000000e+00 7.755256e-01 2.244744e-01 0.000000e+00 0.000000e+00
 0.000000e+00 0.000000e+00 9.426591e-01 5.734088e-02 0.000000e+00
 0.000000e+00 0.000000e+00 0.000000e+00 8.354793e-01 1.645207e-01
 0.000000e+00 0.000000e+00 0.000000e+00 0.000000e+00 0.000000e+00
<ENDHMM>
~h "ow"
<BEGINHMM>
<NUMSTATES> 5
<STATE> 2
<MEAN> 39
 -9.700435e+00 -3.790209e+00 -1.004832e+01 -1.073617e+01 -4.655641e+00 -6.790434e+00 -1.097609e+01 -7.709982e+00 -1.962004e+00 -2.776521e+00 -2.439940e+00 -3.741543e+00 5.326336e+01 5.375702e-01 1.182006e-01 -5.107559e-01 -1.372478e+00 7.023366e-01 4.636184e-01 -2.433581e-01 -4.519418e-01 8.304312e-01 -8.845630e-02 4.231965e-01 -1.911961e-01 6.517569e-01 3.094482e-01 1.127365e-01 -2.582986e-01 -6.611015e-01 1.447879e-01 -2.270404e-02 -2.705377e-01 -2.215635e-01 3.383148e-01 -2.637143e-01 3.010239e-01 -1.485857e-02 6.496615e-01
<VARIANCE> 39
 4.974918e+01 4.050944e+01 1.976462e+01 5.593239e+01 3.490663e+01 3.826624e+01 5.296362e+01 4.577061e+01 6.613114e+01 3.039458e+01 2.672995e+01 2.356523e+01 8.452010e+01 5.522717e+00 2.066880e+00 3.100670e+00 1.018469e+01 3.285837e+00 2.835554e+00 5.465126e+00 4.104507e+00 6.229638e+00 4.500373e+00 4.195431e+00 2.701937e+00 6.269216e+00 6.020043e-01 2.806776e-01 4.570565e-01 1.272042e+00 5.025973e-01 4.869423e-01 9.771096e-01 7.578796e-01 1.009850e+00 6.811672e-01 7.841370e-01 4.879940e-01 1.111022e+00
<GCONST> 1.333417e+02
<STATE> 3
<MEAN> 39
 -1.216247e+00 -1.271614e+00 -1.602590e+01 -2.740586e+01 -5.746216e-01 -7.065369e+00 -1.832697e+01 -1.552270e+01 6.511370e+00 -6.740020e+00 2.494661e+00 -6.206094e+00 7.003030e+01 1.428608e+00 7.574475e-01 -6.559684e-01 -2.890640e+00 1.324124e+00 5.841328e-02 -1.069194e+00 -1.386328e+00 8.848817e-01 -1.774021e+00 8.284668e-01 -1.494711e-01 2.877557e+00 -5.605880e-01 6.421275e-02 5.074595e-01 1.093849e+00 -3.464288e-01 -6.856203e-02 5.230591e-01 4.451332e-01 -7.041378e-01 -2.778177e-02 -2.877021e-01 1.221400e-01 -8.486592e-01
<VARIANCE> 39
 1.193388e+01 1.801964e+01 1.759993e+01 3.362361e+01 2.544621e+01 4.467682e+01 3.489920e+01 3.149272e+01 3.625642e+01 5.090712e+01 5.281142e+01 2.849341e+01 4.423475e+01 3.341792e+00 1.776132e+00 2.869769e+00 7.900442e+00 2.999581e+00 2.641498e+00 4.466052e+00 4.000927e+00 6.451019e+00 3.354411e+00 3.907741e+00 2.377992e+00 7.752992e+00 5.787787e-01 3.714998e-01 4.343475e-01 7.430665e-01 5.465705e-01 4.673732e-01 5.925689e-01 6.938547e-01 8.618969e-01 8.612701e-01 7.884218e-01 4.974443e-01 8.460757e-01
<GCONST> 1.269802e+02
<STATE> 4
<MEAN> 39
 1.859522e+00 4.299609e+00 -1.401419e+01 -2.887720e+01 -5.474849e-01 -7.482086e+00 -1.857412e+01 -1.569390e+01 -3.415794e+00 -1.187809e+01 3.243817e+00 -5.501057e+00 6.912278e+01 3.233585e-02 2.018133e-01 1.351939e-01 5.335104e-01 -2.151621e-01 -1.739019e-01 -9.864862e-02 2.164156e-01 -7.863098e-01 7.957873e-02 -1.489056e-01 -2.421273e-02 -7.303120e-01 -9.916920e-02 -9.853584e-02 7.341025e-02 2.803189e-01 -1.031509e-01 -8.522937e-02 1.914500e-02 6.145338e-02 1.805588e-02 1.519893e-01 -1.104342e-01 -5.117455e-03 -1.214954e-01
<VARIANCE> 39
 6.155952e+00 2.196017e+01 1.078794e+01 2.854644e+01 2.685292e+01 4.260782e+01 3.141100e+01 3.414058e+01 8.777599e+01 5.708198e+01 5.573900e+01 6.544932e+01 2.390910e+01 3.999559e-01 8.476418e-01 8.796745e-01 2.431526e+00 1.425118e+00 1.703272e+00 1.767087e+00 1.760523e+00 2.730730e+00 2.879646e+00 2.935625e+00 2.234273e+00 5.505307e-01 1.024191e-01 1.063453e-01 1.607988e-01 2.979185e-01 2.457913e-01 2.776739e-01 3.153956e-01 3.413239e-01 4.281905e-01 4.095818e-01 3.635194e-01 3.521686e-01 9.544539e-02
<GCONST> 1.026586e+02
<TRANSP> 5
 0.000000e+00 1.000000e+00 0.000000e+00 0.000000e+00 0.000000e+00
