~o
<STREAMINFO> 1 39
<VECSIZE> 39<NULLD><MFCC_D_A_0><DIAGC>
~h "d"
<BEGINHMM>
<NUMSTATES> 5
<STATE> 2
<MEAN> 39
 -1.900471e+000 -5.927392e-001 1.265561e+000 -1.594663e+000 9.583307e-001 2.035553e+000 3.631745e+000 -3.480391e+000 7.326341e-001 2.552936e+000 -2.226483e+000 1.248339e-001 4.955043e+001 -2.639129e-002 -3.255124e-002 -3.474977e-003 1.155377e-002 2.493633e-002 -1.799215e-002 1.288724e-002 2.446117e-002 2.333105e-002 -8.615040e-004 7.896495e-003 7.145159e-003 1.715253e-002 1.901465e-004 -1.033549e-004 -9.391953e-004 -2.575912e-004 4.993296e-004 1.600876e-005 -7.353253e-004 2.134305e-004 -5.132204e-004 -9.609160e-004 7.784201e-004 -6.943544e-004 9.066136e-006
<VARIANCE> 39
 2.219520e+001 1.464825e+001 1.097515e+001 4.730693e+001 2.001922e+001 2.688713e+001 2.627951e+001 2.895235e+001 3.628064e+001 2.477564e+001 2.998860e+001 1.794788e+001 3.850576e+001 6.199886e-001 5.224687e-001 6.145948e-001 1.401605e+000 1.075570e+000 1.358913e+000 1.670451e+000 1.777547e+000 1.717736e+000 1.636598e+000 1.680772e+000 1.213193e+000 7.614091e-001 1.000659e-001 9.619880e-002 1.151363e-001 2.265420e-001 2.044799e-001 2.568707e-001 3.322646e-001 3.384571e-001 3.274664e-001 3.201714e-001 3.240568e-001 2.412072e-001 1.263539e-001
<GCONST> 9.474746e+001
<STATE> 3
<MEAN> 39
 -2.026232e+000 -7.612995e-001 1.243186e+000 -1.524495e+000 1.102370e+000 1.962813e+000 3.681967e+000 -3.368445e+000 8.523780e-001 2.553922e+000 -2.175054e+000 1.550826e-001 4.962452e+001 -2.431433e-002 -3.335481e-002 -6.520469e-003 1.300596e-002 2.762413e-002 -1.748099e-002 9.513313e-003 2.174642e-002 2.214305e-002 -2.631910e-003 9.853627e-003 4.131897e-003 1.698415e-002 7.450243e-004 7.475101e-005 -6.142018e-004 4.926469e-005 7.047548e-004 2.865990e-004 -1.174868e-003 -5.536889e-004 -1.027931e-003 -5.559753e-004 5.184336e-004 -7.592666e-004 2.677692e-004
<VARIANCE> 39
 2.162372e+001 1.434023e+001 1.127047e+001 4.514377e+001 1.921304e+001 2.748443e+001 2.521869e+001 2.902384e+001 3.478695e+001 2.425786e+001 3.028027e+001 1.837380e+001 3.887840e+001 6.364536e-001 5.365087e-001 6.283072e-001 1.397937e+000 1.088056e+000 1.396435e+000 1.650825e+000 1.806825e+000 1.711353e+000 1.626774e+000 1.702834e+000 1.241686e+000 7.861288e-001 1.044013e-001 9.962670e-002 1.170585e-001 2.276475e-001 2.081377e-001 2.630250e-001 3.295622e-001 3.442895e-001 3.286681e-001 3.177837e-001 3.283638e-001 2.475878e-001 1.288224e-001
<GCONST> 9.497955e+001
<STATE> 4
<MEAN> 39
 -1.822253e+000 -9.827003e-001 1.113798e+000 -1.772831e+000 1.253925e+000 1.658783e+000 3.529543e+000 -3.050156e+000 8.718219e-001 2.487515e+000 -2.150554e+000 1.347026e-001 5.036616e+001 -1.438569e-002 -3.282393e-002 -4.003308e-003 1.393460e-002 2.471406e-002 -1.441506e-002 1.266483e-002 1.777152e-002 1.705283e-002 -3.503741e-003 -8.171902e-005 2.099186e-003 1.956309e-002 1.314050e-003 2.595230e-004 -4.980809e-005 -9.295468e-004 -3.375133e-004 2.416616e-005 -4.241464e-004 6.293963e-005 -1.399305e-003 -7.171386e-004 -7.651253e-004 -5.455663e-004 1.246757e-003
<VARIANCE> 39
 2.312963e+001 1.613128e+001 1.339442e+001 4.714096e+001 2.014424e+001 3.156611e+001 2.495647e+001 3.041154e+001 3.402928e+001 2.451456e+001 3.366091e+001 2.082340e+001 4.726814e+001 7.019226e-001 5.964092e-001 6.971453e-001 1.477247e+000 1.152262e+000 1.536715e+000 1.665276e+000 1.903224e+000 1.711499e+000 1.647773e+000 1.820902e+000 1.336529e+000 9.270666e-001 1.157086e-001 1.084856e-001 1.249864e-001 2.371452e-001 2.190308e-001 2.832526e-001 3.285062e-001 3.573752e-001 3.278004e-001 3.205383e-001 3.443395e-001 2.610621e-001 1.431111e-001
<GCONST> 9.757787e+001
<TRANSP> 5
 0.000000e+000 1.000000e+000 0.000000e+000 0.000000e+000 0.000000e+000
 0.000000e+000 7.952295e-001 2.047705e-001 0.000000e+000 0.000000e+000
 0.000000e+000 0.000000e+000 7.952289e-001 2.047711e-001 0.000000e+000
 0.000000e+000 0.000000e+000 0.000000e+000 9.307685e-001 6.923147e-002
 0.000000e+000 0.000000e+000 0.000000e+000 0.000000e+000 0.000000e+000
<ENDHMM>
~h "f"
<BEGINHMM>
<NUMSTATES> 5
<STATE> 2
<MEAN> 39
 -7.007813e-001 -1.657882e+000 -6.881510e-001 -4.200735e+000 9.650417e-001 1.333685e+000 2.812033e+000 -2.353455e+000 7.194008e-001 3.200948e-001 -2.682037e+000 -1.777211e+000 5.460531e+001 5.386018e-003 -4.446918e-004 -1.617675e-002 -2.138769e-002 8.141547e-003 4.262240e-003 -1.257819e-002 1.829765e-002 -4.119862e-003 -4.334136e-003 8.000769e-003 -5.862806e-003 2.616776e-002 3.340301e-004 2.171801e-004 2.215414e-004 -1.320405e-004 -1.565360e-004 4.012301e-004 -3.451963e-004 -3.454101e-004 -7.347825e-005 -2.490202e-004 -3.716199e-004 -6.536120e-004 3.828409e-004
<VARIANCE> 39
 4.025080e+001 2.686908e+001 3.137395e+001 8.926539e+001 3.145371e+001 4.643623e+001 2.367158e+001 3.190901e+001 3.138173e+001 3.366772e+001 2.781585e+001 3.482118e+001 7.180470e+001 1.386626e+000 9.166868e-001 1.107845e+000 2.204507e+000 1.399755e+000 1.767619e+000 1.534151e+000 1.940150e+000 1.760180e+000 1.675312e+000 1.554829e+000 1.534668e+000 8.084241e-001 1.899889e-001 1.362781e-001 1.639855e-001 2.880558e-001 2.298816e-001 2.912572e-001 2.900595e-001 3.418457e-001 3.119003e-001 2.952738e-001 2.843921e-001 2.701978e-001 9.785716e-002
<GCONST> 1.044987e+002
<STATE> 3
<MEAN> 39
 -6.691730e-001 -1.656962e+000 -7.569195e-001 -4.306124e+000 9.994342e-001 1.354956e+000 2.745081e+000 -2.275905e+000 7.040800e-001 2.987133e-001 -2.651618e+000 -1.811469e+000 5.474472e+001 6.960613e-003 5.413923e-004 -1.382922e-002 -2.197880e-002 6.435184e-003 5.186580e-003 -1.429873e-002 1.552593e-002 -2.485498e-003 -4.427834e-003 5.648248e-003 -7.584137e-003 2.837577e-002 3.556736e-004 1.114953e-004 5.454269e-004 -1.592515e-004 -4.383609e-004 9.795353e-005 -3.901860e-004 -6.715137e-004 4.263199e-004 5.565373e-005 -4.885673e-004 -2.516626e-004 4.468440e-004
<VARIANCE> 39
 4.085110e+001 2.704784e+001 3.145676e+001 9.088935e+001 3.164089e+001 4.633090e+001 2.379450e+001 3.194606e+001 3.175333e+001 3.377347e+001 2.782165e+001 3.495959e+001 7.137653e+001 1.424868e+000 9.274522e-001 1.115197e+000 2.258627e+000 1.409958e+000 1.770359e+000 1.549188e+000 1.947530e+000 1.766555e+000 1.686368e+000 1.558774e+000 1.541698e+000 8.161716e-001 1.956278e-001 1.385313e-001 1.652706e-001 2.940388e-001 2.318548e-001 2.911387e-001 2.927978e-001 3.430260e-001 3.124786e-001 2.974062e-001 2.846864e-001 2.709131e-001 9.903610e-002
<GCONST> 1.048026e+002
<STATE> 4
<MEAN> 39
 -6.691317e-001 -1.590909e+000 -7.436518e-001 -4.294962e+000 1.108409e+000 1.414982e+000 2.605146e+000 -2.232097e+000 6.809372e-001 3.783615e-001 -2.647494e+000 -1.753875e+000 5.484580e+001 1.032701e-002 4.549910e-003 -4.209233e-003 -2.435317e-002 1.652510e-003 -2.668526e-003 -1.767376e-002 1.004926e-002 -7.147170e-003 -1.688727e-003 -2.553529e-003 -8.967182e-003 3.948476e-002 3.047122e-004 2.652180e-004 7.027094e-004 -1.377478e-004 -4.307656e-004 -6.095947e-004 -3.248264e-004 -5.394671e-004 -2.927597e-004 2.897431e-004 -6.094822e-004 -6.736583e-005 5.867772e-004
<VARIANCE> 39
 4.114083e+001 2.671567e+001 3.110098e+001 9.133514e+001 3.151151e+001 4.507355e+001 2.435040e+001 3.255602e+001 3.282771e+001 3.353672e+001 2.874247e+001 3.387881e+001 7.001405e+001 1.459519e+000 9.344268e-001 1.096265e+000 2.295350e+000 1.422638e+000 1.742814e+000 1.597012e+000 1.970164e+000 1.764640e+000 1.696310e+000 1.583782e+000 1.526155e+000 8.173066e-001 2.009891e-001 1.419624e-001 1.634893e-001 2.983760e-001 2.364185e-001 2.861381e-001 3.020867e-001 3.484541e-001 3.131347e-001 3.002944e-001 2.859227e-001 2.682517e-001 9.883537e-002
<GCONST> 1.049956e+002
<TRANSP> 5
 0.000000e+000 1.000000e+000 0.000000e+000 0.000000e+000 0.000000e+000
 0.000000e+000 7.949505e-001 2.050495e-001 0.000000e+000 0.000000e+000
 0.000000e+000 0.000000e+000 7.949523e-001 2.050476e-001 0.000000e+000
 0.000000e+000 0.000000e+000 0.000000e+000 9.300469e-001 6.995313e-002
 0.000000e+000 0.000000e+000 0.000000e+000 0.000000e+000 0.000000e+000
<ENDHMM>
~h "k"
<BEGINHMM>
<NUMSTATES> 5
<STATE> 2
<MEAN> 39
 -2.319139e+000 -1.105597e+000 2.203590e-001 -2.254475e+000 7.677702e-001 -1.206406e+000 3.636099e+000 -2.005678e+000 1.461287e+000 1.553874e+000 -1.421838e+000 -5.399417e-001 5.434222e+001 -5.946221e-003 -8.168614e-003 -2.221575e-003 1.448146e-003 6.313462e-003 -1.914956e-002 -1.003378e-002 9.279680e-003 1.222672e-002 3.985478e-003 2.649153e-003 -6.847482e-003 6.875837e-003 9.066978e-005 -7.217180e-004 2.716396e-004 -5.078464e-005 4.672023e-004 1.724281e-004 -1.630683e-004 -8.252550e-004 -4.733020e-004 -5.610551e-004 -1.131676e-004 -3.099568e-004 6.809777e-005
<VARIANCE> 39
 4.771064e+001 2.309228e+001 2.902744e+001 4.296258e+001 4.106910e+001 6.373227e+001 2.487531e+001 3.006739e+001 3.395660e+001 3.127805e+001 2.717832e+001 2.983611e+001 6.692979e+001 1.564957e+000 8.943283e-001 1.294005e+000 1.507018e+000 1.676314e+000 1.958251e+000 1.546384e+000 1.882327e+000 1.974791e+000 1.570014e+000 1.561728e+000 1.482402e+000 8.092948e-001 1.955980e-001 1.257621e-001 1.971055e-001 2.246546e-001 2.530258e-001 3.224375e-001 2.924061e-001 3.411244e-001 3.455871e-001 2.887338e-001 2.814782e-001 2.757587e-001 1.046798e-001
<GCONST> 1.044370e+002
<STATE> 3
<MEAN> 39
 -2.340860e+000 -1.162615e+000 2.081520e-001 -2.256489e+000 8.144132e-001 -1.298034e+000 3.582962e+000 -1.977846e+000 1.503232e+000 1.560076e+000 -1.415568e+000 -5.767251e-001 5.439000e+001 -4.913920e-003 -1.201272e-002 -1.788343e-003 9.498488e-004 8.782930e-003 -1.818267e-002 -1.010097e-002 5.500295e-003 8.712175e-003 2.441473e-003 2.483528e-003 -6.938728e-003 8.051729e-003 1.654598e-004 -6.707144e-004 7.419494e-006 -1.609307e-004 5.730821e-004 4.544624e-004 -5.054575e-006 -8.415186e-004 -7.580948e-004 -3.384765e-004 -1.177369e-005 1.502262e-004 2.037997e-004
<VARIANCE> 39
 4.763760e+001 2.316507e+001 2.922981e+001 4.265181e+001 4.133987e+001 6.341284e+001 2.483192e+001 2.979681e+001 3.396264e+001 3.127803e+001 2.684280e+001 2.985721e+001 6.614264e+001 1.569515e+000 9.049894e-001 1.309706e+000 1.512957e+000 1.691313e+000 1.970765e+000 1.562943e+000 1.890999e+000 1.985606e+000 1.586908e+000 1.566861e+000 1.479007e+000 8.279201e-001 1.963375e-001 1.277540e-001 2.002735e-001 2.260876e-001 2.550524e-001 3.244805e-001 2.953673e-001 3.440213e-001 3.473523e-001 2.924106e-001 2.826047e-001 2.740594e-001 1.078357e-001
<GCONST> 1.046267e+002
<STATE> 4
<MEAN> 39
 -2.306750e+000 -1.359087e+000 5.594810e-002 -2.383766e+000 9.662895e-001 -1.162543e+000 3.553474e+000 -1.927379e+000 1.624999e+000 1.644494e+000 -1.289091e+000 -4.832016e-001 5.434941e+001 3.445976e-003 -1.113394e-002 -3.221785e-003 -8.501988e-003 1.314595e-002 -1.353074e-002 -1.215388e-002 1.167415e-003 -1.906036e-003 -3.499885e-003 7.596639e-004 -5.048290e-003 1.909853e-002 4.634059e-004 2.203247e-004 -1.482046e-004 -5.963672e-004 1.950495e-004 7.384170e-004 4.367894e-005 -3.394190e-004 -6.603098e-004 -3.230675e-004 -8.354278e-005 2.676663e-004 5.192107e-004
<VARIANCE> 39
 4.532509e+001 2.313065e+001 2.892325e+001 4.353737e+001 4.054587e+001 5.968998e+001 2.478363e+001 2.910753e+001 3.413160e+001 3.094787e+001 2.611595e+001 2.975385e+001 6.372286e+001 1.480780e+000 8.978385e-001 1.297593e+000 1.499611e+000 1.671336e+000 1.947335e+000 1.594369e+000 1.910425e+000 1.976389e+000 1.616577e+000 1.563486e+000 1.480627e+000 8.808563e-001 1.873057e-001 1.291696e-001 2.036424e-001 2.239954e-001 2.560025e-001 3.259200e-001 3.031370e-001 3.527549e-001 3.466558e-001 2.997535e-001 2.846678e-001 2.723618e-001 1.178411e-001
<GCONST> 1.045463e+002
<TRANSP> 5
 0.000000e+000 1.000000e+000 0.000000e+000 0.000000e+000 0.000000e+000
 0.000000e+000 7.903069e-001 2.096931e-001 0.000000e+000 0.000000e+000
 0.000000e+000 0.000000e+000 7.903063e-001 2.096938e-001 0.000000e+000
 0.000000e+000 0.000000e+000 0.000000e+000 9.249479e-001 7.505205e-002
 0.000000e+000 0.000000e+000 0.000000e+000 0.000000e+000 0.000000e+000
<ENDHMM>
~h "l"
<BEGINHMM>
<NUMSTATES> 5
<STATE> 2
<MEAN> 39
 -7.379873e-003 -2.022883e+000 1.479037e+000 -6.382324e+000 1.618395e+000 -1.291442e+000 1.508894e+000 -2.888858e+000 -9.847087e-001 1.983810e+000 -4.026880e+000 -1.214460e+000 5.718003e+001 4.490079e-002 6.308155e-003 1.298763e-002 -7.990319e-002 -1.192124e-002 -4.090860e-002 -2.665010e-002 -1.812285e-002 -4.111129e-002 -3.800873e-002 -2.614948e-002 -2.467207e-002 9.209699e-002 -8.568220e-004 7.816486e-004 -6.552023e-004 4.790653e-004 6.262555e-004 2.162391e-003 1.623042e-003 3.176071e-004 6.867188e-004 -2.367176e-004 1.299199e-003 5.230629e-004 -1.412184e-003
<VARIANCE> 39
 3.435110e+001 2.601020e+001 5.215607e+001 8.103358e+001 3.442375e+001 6.786726e+001 4.519334e+001 3.907513e+001 5.349746e+001 3.454194e+001 4.691499e+001 3.711992e+001 8.316496e+001 1.226465e+000 9.292938e-001 1.243387e+000 1.982586e+000 1.634864e+000 2.449816e+000 1.934981e+000 2.235708e+000 2.089410e+000 1.884708e+000 2.074163e+000 1.878307e+000 1.274600e+000 1.784476e-001 1.463622e-001 1.777980e-001 2.779180e-001 2.679984e-001 3.884592e-001 3.496163e-001 3.905505e-001 3.540845e-001 3.428616e-001 3.543248e-001 3.209300e-001 1.736315e-001
<GCONST> 1.113781e+002
<STATE> 3
<MEAN> 39
 1.938874e-001 -1.974118e+000 1.535999e+000 -6.768101e+000 1.566322e+000 -1.452938e+000 1.400651e+000 -2.975748e+000 -1.177027e+000 1.787556e+000 -4.127366e+000 -1.321315e+000 5.759557e+001 3.948520e-002 9.883057e-003 1.024459e-002 -7.590995e-002 -9.205534e-003 -2.899480e-002 -1.818602e-002 -1.538891e-002 -3.689934e-002 -3.899692e-002 -1.855254e-002 -2.126922e-002 8.306291e-002 -1.217914e-003 7.133679e-004 -8.481747e-004 1.051823e-003 6.052158e-004 2.653341e-003 1.717829e-003 6.396360e-004 1.125675e-003 -1.784234e-004 1.521218e-003 6.399751e-004 -1.913812e-003
<VARIANCE> 39
 3.423646e+001 2.690534e+001 5.729606e+001 8.368863e+001 3.596942e+001 7.065670e+001 4.621031e+001 3.905537e+001 5.459001e+001 3.581653e+001 4.598496e+001 3.792860e+001 8.258395e+001 1.224709e+000 9.511658e-001 1.270909e+000 2.016550e+000 1.666169e+000 2.487831e+000 1.943306e+000 2.255910e+000 2.113096e+000 1.896717e+000 2.055824e+000 1.897790e+000 1.299521e+000 1.780612e-001 1.480327e-001 1.783975e-001 2.804321e-001 2.703126e-001 3.920242e-001 3.494643e-001 3.936296e-001 3.563496e-001 3.424089e-001 3.523116e-001 3.230957e-001 1.744831e-001
<GCONST> 1.118962e+002
<STATE> 4
<MEAN> 39
 6.566908e-001 -1.544400e+000 1.502446e+000 -7.660840e+000 1.493396e+000 -1.329922e+000 1.328711e+000 -3.184939e+000 -1.464063e+000 1.473339e+000 -4.075720e+000 -1.346515e+000 5.826037e+001 2.232532e-002 1.627924e-002 5.243578e-003 -5.459432e-002 -6.521879e-003 -8.524606e-005 5.624919e-004 -5.622745e-003 -2.042775e-002 -3.921260e-002 5.315195e-004 -1.006673e-002 4.773649e-002 -1.583410e-003 3.397438e-004 -6.525436e-004 2.563414e-003 1.355334e-004 2.492077e-003 1.655201e-003 1.129224e-003 1.657189e-003 2.089139e-004 1.509422e-003 9.294187e-004 -3.010849e-003
<VARIANCE> 39
 3.364508e+001 2.846627e+001 6.758651e+001 9.200887e+001 3.837616e+001 7.316404e+001 4.842614e+001 3.865228e+001 5.634314e+001 3.911310e+001 4.406477e+001 3.751783e+001 7.971368e+001 1.161943e+000 9.641376e-001 1.306593e+000 2.067664e+000 1.679404e+000 2.403645e+000 1.910277e+000 2.230666e+000 2.101374e+000 1.885956e+000 1.973107e+000 1.856246e+000 1.277347e+000 1.662376e-001 1.472703e-001 1.776313e-001 2.776564e-001 2.677353e-001 3.762433e-001 3.384811e-001 3.881667e-001 3.526121e-001 3.334048e-001 3.400655e-001 3.159050e-001 1.673128e-001
<GCONST> 1.119073e+002
<TRANSP> 5
 0.000000e+000 1.000000e+000 0.000000e+000 0.000000e+000 0.000000e+000
 0.000000e+000 7.935703e-001 2.064297e-001 0.000000e+000 0.000000e+000
 0.000000e+000 0.000000e+000 7.935687e-001 2.064313e-001 0.000000e+000
 0.000000e+000 0.000000e+000 0.000000e+000 9.291620e-001 7.083800e-002
 0.000000e+000 0.000000e+000 0.000000e+000 0.000000e+000 0.000000e+000
<ENDHMM>
~h "n"
<BEGINHMM>
<NUMSTATES> 5
<STATE> 2
<MEAN> 39
 5.007170e-001 -1.376225e+000 8.906839e-001 -4.793987e+000 4.484634e-001 -1.237903e+000 2.088675e+000 -3.155456e+000 -8.027147e-001 3.951015e-001 -4.027890e+000 -2.446182e+000 5.659619e+001 4.202575e-003 4.847036e-003 5.108982e-003 -5.729797e-003 -2.832871e-003 -7.084940e-003 -8.675443e-004 -8.558063e-004 -1.401690e-002 3.030810e-003 -1.116380e-002 -7.732428e-003 1.279994e-002 -2.022570e-004 6.446849e-005 -2.735887e-004 -6.406820e-005 -1.183656e-004 5.467224e-004 -2.125243e-005 3.001947e-005 3.301722e-004 2.990795e-004 1.529399e-004 1.455560e-004 -4.465526e-004
<VARIANCE> 39
 4.552138e+001 3.083439e+001 4.108221e+001 7.325983e+001 3.541523e+001 5.902330e+001 3.037746e+001 4.086807e+001 4.028420e+001 3.798444e+001 4.346707e+001 3.643875e+001 6.857459e+001 1.461599e+000 1.158404e+000 1.441146e+000 2.149074e+000 1.636426e+000 2.063639e+000 1.759191e+000 2.457958e+000 1.923439e+000 1.973219e+000 1.957413e+000 1.656802e+000 1.036796e+000 1.942068e-001 1.575833e-001 1.891165e-001 2.968216e-001 2.585721e-001 3.220554e-001 3.207379e-001 4.127354e-001 3.213010e-001 3.367594e-001 3.226705e-001 2.745470e-001 1.224018e-001
<GCONST> 1.098938e+002
<STATE> 3
<MEAN> 39
 5.221174e-001 -1.346600e+000 9.143413e-001 -4.833376e+000 4.285615e-001 -1.269907e+000 2.079152e+000 -3.164636e+000 -8.729119e-001 4.136633e-001 -4.082219e+000 -2.482378e+000 5.666077e+001 3.413406e-003 5.182567e-003 4.105169e-003 -6.305107e-003 -3.735120e-003 -4.863433e-003 -1.004117e-003 -1.013676e-003 -1.221056e-002 4.058738e-003 -1.014725e-002 -6.775647e-003 1.044368e-002 -1.607963e-004 -2.083205e-005 -6.000581e-004 -2.144181e-004 -1.199121e-004 7.745369e-004 -4.441699e-005 -1.917625e-004 7.517874e-004 3.317123e-004 3.491016e-004 1.192966e-004 -4.997676e-004
<VARIANCE> 39
 4.558319e+001 3.096309e+001 4.144693e+001 7.381350e+001 3.556696e+001 5.915155e+001 3.054255e+001 4.108039e+001 4.058303e+001 3.836797e+001 4.417617e+001 3.643579e+001 6.830166e+001 1.461516e+000 1.155838e+000 1.449948e+000 2.152009e+000 1.639365e+000 2.063007e+000 1.758769e+000 2.459254e+000 1.932997e+000 1.979403e+000 1.978290e+000 1.657990e+000 1.036293e+000 1.939469e-001 1.569370e-001 1.895986e-001 2.957681e-001 2.583979e-001 3.211390e-001 3.203040e-001 4.124756e-001 3.225306e-001 3.372650e-001 3.248505e-001 2.743947e-001 1.219382e-001
<GCONST> 1.099839e+002
<STATE> 4
<MEAN> 39
 5.417619e-001 -1.165330e+000 9.375903e-001 -4.953973e+000 3.674233e-001 -1.183511e+000 2.019248e+000 -3.258312e+000 -1.039104e+000 5.020749e-001 -4.181291e+000 -2.454978e+000 5.667731e+001 3.251293e-003 7.102313e-003 3.049808e-003 -1.019243e-002 -6.262087e-003 -2.227200e-003 -1.298341e-003 -3.337010e-003 -9.334138e-003 3.344154e-003 -7.311412e-003 -3.839908e-003 6.821557e-003 -2.318179e-004 -2.091822e-005 -6.375939e-004 -9.183385e-005 2.151133e-005 7.880507e-004 2.069916e-004 -2.478204e-005 8.765576e-004 -3.211692e-005 6.782452e-004 2.517413e-004 -6.875122e-004
<VARIANCE> 39
 4.545736e+001 3.073235e+001 4.243085e+001 7.650156e+001 3.589775e+001 5.854765e+001 3.141050e+001 4.138689e+001 4.143008e+001 3.872578e+001 4.613433e+001 3.538361e+001 6.773933e+001 1.438298e+000 1.112154e+000 1.434287e+000 2.141391e+000 1.627497e+000 2.025763e+000 1.765208e+000 2.419432e+000 1.933932e+000 1.957685e+000 2.027235e+000 1.625315e+000 1.006428e+000 1.907584e-001 1.520257e-001 1.875060e-001 2.913790e-001 2.564302e-001 3.143958e-001 3.210767e-001 4.060672e-001 3.225967e-001 3.341449e-001 3.291988e-001 2.695104e-001 1.177222e-001
<GCONST> 1.097938e+002
<TRANSP> 5
 0.000000e+000 1.000000e+000 0.000000e+000 0.000000e+000 0.000000e+000
 0.000000e+000 7.905273e-001 2.094727e-001 0.000000e+000 0.000000e+000
 0.000000e+000 0.000000e+000 7.905269e-001 2.094731e-001 0.000000e+000
 0.000000e+000 0.000000e+000 0.000000e+000 9.254329e-001 7.456712e-002
 0.000000e+000 0.000000e+000 0.000000e+000 0.000000e+000 0.000000e+000
<ENDHMM>
~h "r"
<BEGINHMM>
<NUMSTATES> 5
<STATE> 2
<MEAN> 39
 -7.019726e-002 -1.282025e+000 1.096638e+000 -4.256691e+000 -6.521655e-001 -2.897663e+000 1.997406e+000 -2.638214e+000 -2.496459e-001 7.793713e-002 -2.378982e+000 -1.693561e+000 5.748098e+001 8.539877e-003 -1.815710e-003 3.736903e-003 -6.790179e-003 -1.092794e-002 1.610849e-003 1.498996e-003 -1.457568e-003 -1.884103e-003 2.331460e-004 -8.216890e-004 8.364446e-004 1.538337e-004 -2.823674e-004 1.927440e-004 1.198977e-004 -1.577951e-004 4.098355e-004 4.508038e-004 2.232044e-004 9.978801e-005 7.265034e-007 -1.520453e-004 -2.154370e-004 6.357975e-007 -4.799246e-004
<VARIANCE> 39
 6.089312e+001 3.345307e+001 5.008977e+001 6.060495e+001 5.374462e+001 7.229752e+001 3.110014e+001 3.999957e+001 3.872190e+001 3.283463e+001 3.313799e+001 3.543541e+001 6.407484e+001 1.895831e+000 1.233560e+000 1.580117e+000 2.107374e+000 1.965819e+000 2.250576e+000 1.773076e+000 2.438983e+000 2.037715e+000 1.873528e+000 1.785581e+000 1.790435e+000 9.171140e-001 2.227263e-001 1.590479e-001 2.028783e-001 2.952895e-001 2.857618e-001 3.409062e-001 3.249013e-001 4.075907e-001 3.303056e-001 3.208153e-001 3.082943e-001 2.949489e-001 1.061100e-001
<GCONST> 1.111100e+002
<STATE> 3
<MEAN> 39
 -3.085124e-002 -1.291087e+000 1.113670e+000 -4.290697e+000 -7.003821e-001 -2.890393e+000 2.005200e+000 -2.647135e+000 -2.603024e-001 7.699782e-002 -2.385305e+000 -1.692955e+000 5.748171e+001 7.173745e-003 -9.045029e-004 3.924291e-003 -7.402330e-003 -8.986771e-003 3.971390e-003 2.582898e-003 -1.069460e-003 -1.826120e-003 -5.753456e-004 -1.704721e-003 7.237308e-004 -2.051420e-003 -3.552912e-004 1.875988e-004 9.211447e-006 -5.577943e-005 5.223335e-004 4.218917e-004 1.940470e-004 1.106429e-004 5.567044e-005 -1.391840e-004 -1.796659e-004 -5.249302e-005 -4.181870e-004
<VARIANCE> 39
 6.062273e+001 3.335104e+001 5.057610e+001 6.076805e+001 5.366134e+001 7.259369e+001 3.095850e+001 3.996798e+001 3.868016e+001 3.285887e+001 3.316178e+001 3.548230e+001 6.385247e+001 1.888188e+000 1.230480e+000 1.573741e+000 2.103189e+000 1.958010e+000 2.235788e+000 1.762451e+000 2.437377e+000 2.033234e+000 1.871135e+000 1.781969e+000 1.784040e+000 9.127383e-001 2.218435e-001 1.585044e-001 2.017891e-001 2.945190e-001 2.846108e-001 3.378643e-001 3.230216e-001 4.070918e-001 3.291062e-001 3.196104e-001 3.070620e-001 2.936148e-001 1.055244e-001
<GCONST> 1.110097e+002
<STATE> 4
<MEAN> 39
 -3.327626e-003 -1.266313e+000 1.067675e+000 -4.369665e+000 -7.432455e-001 -2.800572e+000 2.049164e+000 -2.678006e+000 -2.916225e-001 2.868087e-002 -2.379174e+000 -1.686432e+000 5.739569e+001 5.228713e-003 -5.250718e-004 1.720749e-003 -7.538382e-003 -5.218956e-003 6.791925e-003 3.817919e-003 -1.356683e-003 -1.807141e-003 -2.048094e-003 -2.973112e-003 -1.085134e-003 -3.685972e-003 -3.061705e-004 1.119015e-004 -2.357369e-004 7.340949e-005 5.879459e-004 4.707984e-004 1.604760e-004 1.043350e-004 1.256987e-004 -1.003794e-004 -1.352255e-004 -1.704728e-004 -3.036346e-004
<VARIANCE> 39
 5.996338e+001 3.302478e+001 5.076149e+001 6.221878e+001 5.272408e+001 7.164101e+001 3.032309e+001 3.973565e+001 3.877436e+001 3.273511e+001 3.291888e+001 3.541564e+001 6.229200e+001 1.858737e+000 1.216730e+000 1.554221e+000 2.098722e+000 1.934436e+000 2.193964e+000 1.734451e+000 2.423316e+000 2.030363e+000 1.860793e+000 1.768929e+000 1.771000e+000 9.060625e-001 2.187645e-001 1.572020e-001 2.000138e-001 2.922100e-001 2.815697e-001 3.313179e-001 3.179904e-001 4.047179e-001 3.277546e-001 3.177880e-001 3.055839e-001 2.912233e-001 1.045770e-001
<GCONST> 1.106775e+002
<TRANSP> 5
 0.000000e+000 1.000000e+000 0.000000e+000 0.000000e+000 0.000000e+000
 0.000000e+000 7.870985e-001 2.129015e-001 0.000000e+000 0.000000e+000
 0.000000e+000 0.000000e+000 7.870988e-001 2.129012e-001 0.000000e+000
 0.000000e+000 0.000000e+000 0.000000e+000 9.199616e-001 8.003834e-002
 0.000000e+000 0.000000e+000 0.000000e+000 0.000000e+000 0.000000e+000
<ENDHMM>
~h "s"
<BEGINHMM>
<NUMSTATES> 5
<STATE> 2
<MEAN> 39
 -1.364834e+000 -1.102486e+000 1.294955e-001 -3.857314e+000 8.724393e-001 -2.522663e+000 2.376965e+000 -1.891925e+000 3.270628e-001 7.520296e-001 -2.647199e+000 -1.847298e+000 5.726056e+001 -6.147059e-005 5.778852e-003 -1.428896e-003 -1.359411e-002 2.302564e-003 -1.226828e-002 -8.425090e-003 2.532889e-003 -8.012835e-003 1.129091e-003 -9.717062e-004 -6.219904e-003 2.285129e-002 -3.662132e-005 7.800946e-005 3.993727e-005 -7.981662e-005 -9.280701e-005 4.138005e-004 -9.714952e-005 -1.899562e-004 -7.757144e-005 -4.544161e-004 1.217086e-004 1.890527e-004 -4.009811e-004
<VARIANCE> 39
 6.125601e+001 2.988762e+001 3.602422e+001 6.248069e+001 4.547110e+001 6.449812e+001 2.840296e+001 3.800760e+001 4.102681e+001 3.259797e+001 3.691891e+001 3.462294e+001 6.423773e+001 2.096500e+000 1.127405e+000 1.447395e+000 2.029266e+000 1.925340e+000 2.260374e+000 1.806236e+000 2.319975e+000 2.260155e+000 1.799761e+000 1.987192e+000 1.692891e+000 1.127295e+000 2.617197e-001 1.550135e-001 2.118239e-001 2.876187e-001 2.894226e-001 3.604174e-001 3.367058e-001 4.012693e-001 3.774915e-001 3.212744e-001 3.376945e-001 2.974150e-001 1.425476e-001
<GCONST> 1.113473e+002
<STATE> 3
<MEAN> 39
 -1.360156e+000 -1.073858e+000 1.293434e-001 -3.920622e+000 8.781838e-001 -2.576132e+000 2.334872e+000 -1.884791e+000 2.846370e-001 7.542028e-001 -2.652069e+000 -1.874061e+000 5.736203e+001 3.731718e-005 6.053635e-003 -9.554595e-004 -1.366313e-002 1.690798e-003 -1.050614e-002 -8.819779e-003 1.483684e-003 -8.303185e-003 -8.179997e-004 -7.316431e-004 -5.319214e-003 2.052048e-002 1.760596e-004 2.466176e-005 1.450593e-004 1.304699e-005 -1.554227e-004 3.374365e-004 -1.654201e-004 -3.095899e-004 -6.886079e-005 -4.198138e-004 2.614325e-006 1.835679e-004 -6.040167e-004
<VARIANCE> 39
 6.193815e+001 2.987663e+001 3.651736e+001 6.318979e+001 4.585800e+001 6.458391e+001 2.853006e+001 3.815508e+001 4.134024e+001 3.259576e+001 3.725548e+001 3.472932e+001 6.385888e+001 2.121462e+000 1.129595e+000 1.462193e+000 2.049842e+000 1.927276e+000 2.268577e+000 1.805621e+000 2.326373e+000 2.274262e+000 1.804333e+000 1.999106e+000 1.698614e+000 1.128822e+000 2.645732e-001 1.555121e-001 2.139781e-001 2.902989e-001 2.894576e-001 3.621532e-001 3.363596e-001 4.012948e-001 3.794630e-001 3.220708e-001 3.387193e-001 2.981797e-001 1.426481e-001
<GCONST> 1.115268e+002
<STATE> 4
<MEAN> 39
 -1.327286e+000 -9.963689e-001 1.319236e-001 -4.022599e+000 8.845926e-001 -2.536820e+000 2.251135e+000 -1.930323e+000 1.620146e-001 7.159864e-001 -2.671154e+000 -1.864553e+000 5.742407e+001 2.640339e-003 5.363192e-003 2.294826e-003 -1.219460e-002 -1.065400e-003 -8.175396e-003 -9.730993e-003 -1.306663e-003 -8.366728e-003 -2.514126e-003 -1.424086e-003 -3.155758e-003 1.436996e-002 3.283869e-004 -1.290694e-004 2.209710e-004 1.231293e-004 -2.103445e-004 2.038581e-004 -1.712469e-004 -3.853445e-004 2.955703e-005 -2.505531e-004 -8.334236e-005 1.374564e-004 -6.756530e-004
<VARIANCE> 39
 6.244919e+001 2.970950e+001 3.703716e+001 6.442111e+001 4.638152e+001 6.351409e+001 2.889164e+001 3.852366e+001 4.183926e+001 3.264762e+001 3.807766e+001 3.446792e+001 6.273303e+001 2.103056e+000 1.111267e+000 1.455883e+000 2.068695e+000 1.915841e+000 2.232804e+000 1.790558e+000 2.323626e+000 2.258746e+000 1.802871e+000 2.012536e+000 1.684246e+000 1.112707e+000 2.622049e-001 1.541035e-001 2.130534e-001 2.939860e-001 2.883355e-001 3.584500e-001 3.325128e-001 3.982503e-001 3.766539e-001 3.214553e-001 3.385630e-001 2.961921e-001 1.409762e-001
<GCONST> 1.114429e+002
<TRANSP> 5
 0.000000e+000 1.000000e+000 0.000000e+000 0.000000e+000 0.000000e+000
 0.000000e+000 7.873927e-001 2.126073e-001 0.000000e+000 0.000000e+000
 0.000000e+000 0.000000e+000 7.873916e-001 2.126084e-001 0.000000e+000
 0.000000e+000 0.000000e+000 0.000000e+000 9.212438e-001 7.875613e-002
 0.000000e+000 0.000000e+000 0.000000e+000 0.000000e+000 0.000000e+000
<ENDHMM>
~h "t"
<BEGINHMM>
<NUMSTATES> 5
<STATE> 2
<MEAN> 39
 -4.880016e-001 -1.766457e+000 5.504480e-001 -5.289421e+000 9.061323e-001 -1.108600e+000 2.183722e+000 -2.230649e+000 -4.437088e-001 -1.910727e-001 -3.149570e+000 -1.649641e+000 5.728634e+001 5.793901e-003 1.012739e-002 3.457883e-004 -1.503460e-002 4.288608e-003 1.043881e-003 -8.395351e-003 -1.875936e-003 -7.156997e-003 -7.250701e-004 -4.537337e-003 -3.104577e-003 1.753896e-002 -8.924700e-005 -1.135005e-004 5.649112e-004 9.841440e-004 -2.344598e-004 -4.337710e-004 8.468569e-005 -5.204569e-004 -5.897822e-005 -5.797005e-005 1.352783e-006 -7.667411e-006 -7.422945e-004
<VARIANCE> 39
 5.058487e+001 3.439548e+001 4.193985e+001 7.701759e+001 3.737826e+001 5.846054e+001 3.168415e+001 3.797817e+001 4.380974e+001 3.522485e+001 3.887542e+001 3.488717e+001 7.006992e+001 1.794267e+000 1.234016e+000 1.455936e+000 2.485925e+000 1.734438e+000 2.213982e+000 1.844659e+000 2.356749e+000 2.181146e+000 1.910975e+000 2.039185e+000 1.741186e+000 1.691697e+000 2.432026e-001 1.853824e-001 2.162708e-001 3.583054e-001 2.824451e-001 3.563946e-001 3.382955e-001 4.039485e-001 3.583424e-001 3.353956e-001 3.418825e-001 3.017192e-001 2.259113e-001
<GCONST> 1.131005e+002
<STATE> 3
<MEAN> 39
 -4.625305e-001 -1.719416e+000 5.641641e-001 -5.347284e+000 9.210650e-001 -1.111096e+000 2.140367e+000 -2.246021e+000 -4.812295e-001 -1.949992e-001 -3.169096e+000 -1.662098e+000 5.736032e+001 5.606267e-003 9.205994e-003 3.014116e-003 -1.061590e-002 3.088313e-003 -1.529489e-003 -8.071552e-003 -4.028317e-003 -7.381786e-003 -9.877526e-004 -4.449566e-003 -3.000583e-003 1.405312e-002 -5.575359e-005 -1.594423e-004 6.553073e-004 1.000248e-003 -3.717544e-004 -5.511708e-004 -9.648486e-006 -5.678311e-004 -5.358465e-005 -2.570112e-005 1.387854e-004 7.249182e-005 -8.555612e-004
<VARIANCE> 39
 5.115334e+001 3.465591e+001 4.186763e+001 7.726406e+001 3.761679e+001 5.817037e+001 3.197798e+001 3.834276e+001 4.424900e+001 3.525383e+001 3.930784e+001 3.493996e+001 6.953806e+001 1.807074e+000 1.237151e+000 1.463354e+000 2.498988e+000 1.740294e+000 2.209352e+000 1.846025e+000 2.356568e+000 2.186992e+000 1.922255e+000 2.050035e+000 1.744577e+000 1.699091e+000 2.438532e-001 1.863373e-001 2.177386e-001 3.602426e-001 2.831695e-001 3.554350e-001 3.375842e-001 4.022913e-001 3.582761e-001 3.371310e-001 3.420321e-001 3.024294e-001 2.283240e-001
<GCONST> 1.132307e+002
<STATE> 4
<MEAN> 39
 -4.168765e-001 -1.608907e+000 5.443952e-001 -5.331637e+000 9.880930e-001 -1.052507e+000 2.101866e+000 -2.384973e+000 -5.515836e-001 -2.082257e-001 -3.169377e+000 -1.667151e+000 5.737704e+001 5.364082e-003 6.758846e-003 6.972560e-003 -3.110850e-003 2.352819e-004 -5.851929e-003 -7.854857e-003 -7.340023e-003 -7.701315e-003 -7.715075e-004 -3.125270e-003 -2.010480e-003 6.797038e-003 2.698267e-005 -1.435121e-004 3.384325e-004 7.709335e-004 -3.771645e-004 -3.259866e-004 3.531397e-005 -5.152677e-004 1.095602e-004 7.430857e-005 2.018464e-004 7.106561e-005 -8.614069e-004
<VARIANCE> 39
 5.167930e+001 3.496515e+001 4.146505e+001 7.689079e+001 3.770906e+001 5.676379e+001 3.244745e+001 3.870398e+001 4.471872e+001 3.537119e+001 3.961909e+001 3.476456e+001 6.866908e+001 1.780974e+000 1.224638e+000 1.452370e+000 2.458557e+000 1.731647e+000 2.161602e+000 1.844643e+000 2.344229e+000 2.169674e+000 1.925384e+000 2.024630e+000 1.726473e+000 1.652002e+000 2.384709e-001 1.840482e-001 2.157784e-001 3.540381e-001 2.811702e-001 3.471600e-001 3.363553e-001 3.985838e-001 3.539311e-001 3.365324e-001 3.370869e-001 2.989323e-001 2.222994e-001
<GCONST> 1.129311e+002
<TRANSP> 5
 0.000000e+000 1.000000e+000 0.000000e+000 0.000000e+000 0.000000e+000
 0.000000e+000 7.909017e-001 2.090983e-001 0.000000e+000 0.000000e+000
 0.000000e+000 0.000000e+000 7.909020e-001 2.090980e-001 0.000000e+000
 0.000000e+000 0.000000e+000 0.000000e+000 9.247447e-001 7.525529e-002
 0.000000e+000 0.000000e+000 0.000000e+000 0.000000e+000 0.000000e+000
<ENDHMM>
~h "v"
<BEGINHMM>
<NUMSTATES> 5
<STATE> 2
<MEAN> 39
 2.042660e-002 -1.684300e+000 2.395664e-001 -4.977551e+000 7.108231e-001 -1.638589e+000 1.699157e+000 -2.529854e+000 -4.193673e-001 3.911328e-001 -3.836159e+000 -2.403522e+000 5.769496e+001 1.236453e-002 3.365454e-003 1.025940e-002 7.544411e-003 -1.111235e-002 -1.090308e-002 -3.579582e-003 -1.109593e-002 -3.973867e-003 -5.951813e-003 -6.049077e-003 8.047029e-004 -1.156060e-002 1.389179e-004 5.462155e-004 -1.508248e-004 2.657862e-004 9.788685e-005 5.323280e-004 4.220468e-004 -1.285250e-004 1.136871e-004 2.473766e-006 2.157652e-005 -2.126833e-004 -8.364546e-004
<VARIANCE> 39
 4.985422e+001 3.144544e+001 4.664739e+001 7.067162e+001 3.326722e+001 6.321796e+001 3.056502e+001 3.915812e+001 3.934212e+001 3.325687e+001 3.753531e+001 3.959835e+001 6.634930e+001 1.810044e+000 1.119213e+000 1.429153e+000 2.205877e+000 1.579233e+000 2.132274e+000 1.690825e+000 2.272899e+000 1.869042e+000 1.802971e+000 1.915725e+000 1.688954e+000 1.162750e+000 2.475836e-001 1.578281e-001 1.953751e-001 3.014807e-001 2.536848e-001 3.334284e-001 3.036200e-001 3.749160e-001 3.105133e-001 3.186336e-001 3.116306e-001 2.859136e-001 1.452782e-001
<GCONST> 1.101263e+002
<STATE> 3
<MEAN> 39
 7.712929e-002 -1.663723e+000 2.852048e-001 -4.934921e+000 6.604750e-001 -1.679205e+000 1.686283e+000 -2.582747e+000 -4.355367e-001 3.628004e-001 -3.861214e+000 -2.400999e+000 5.762943e+001 1.247017e-002 6.145684e-003 8.892298e-003 8.752293e-003 -1.032374e-002 -7.388050e-003 -1.340803e-003 -1.186752e-002 -3.489983e-003 -5.843701e-003 -5.524093e-003 -2.202928e-004 -1.569871e-002 -4.353495e-005 6.559830e-004 -1.522536e-004 4.140849e-004 1.850017e-004 6.633711e-004 5.099515e-004 -9.675104e-005 1.709038e-004 9.193315e-005 7.618025e-005 -9.366591e-005 -9.779430e-004
<VARIANCE> 39
 4.903879e+001 3.142671e+001 4.688742e+001 6.967816e+001 3.301032e+001 6.351592e+001 3.086817e+001 3.897078e+001 3.940117e+001 3.332500e+001 3.712201e+001 3.946264e+001 6.630695e+001 1.766828e+000 1.119445e+000 1.424981e+000 2.164923e+000 1.567764e+000 2.120224e+000 1.686060e+000 2.260260e+000 1.861038e+000 1.801057e+000 1.896939e+000 1.674507e+000 1.146956e+000 2.421313e-001 1.574665e-001 1.934720e-001 2.958497e-001 2.518525e-001 3.320985e-001 3.030499e-001 3.730858e-001 3.094060e-001 3.176906e-001 3.091779e-001 2.831907e-001 1.430259e-001
<GCONST> 1.098753e+002
<STATE> 4
<MEAN> 39
 1.540335e-001 -1.545901e+000 3.749836e-001 -4.753617e+000 5.374859e-001 -1.643973e+000 1.712510e+000 -2.737484e+000 -4.882436e-001 2.971255e-001 -3.901885e+000 -2.297328e+000 5.729773e+001 8.667639e-003 1.072002e-002 4.549077e-003 1.125649e-002 -7.112826e-003 4.001911e-003 3.708816e-003 -1.186291e-002 -1.932984e-003 -4.906500e-003 -1.242909e-003 -7.160307e-005 -2.442137e-002 -3.071174e-004 4.847674e-004 -3.351798e-004 1.808042e-004 3.522718e-004 9.195517e-004 5.773079e-004 -1.158356e-004 1.341363e-004 2.203047e-004 2.265910e-004 1.350440e-004 -8.390528e-004
<VARIANCE> 39
 4.716705e+001 3.147133e+001 4.532181e+001 6.776819e+001 3.284221e+001 6.298142e+001 3.142213e+001 3.867966e+001 3.952231e+001 3.327059e+001 3.688651e+001 3.784872e+001 6.628748e+001 1.629948e+000 1.102772e+000 1.375863e+000 2.047142e+000 1.541132e+000 2.075936e+000 1.689523e+000 2.230416e+000 1.846984e+000 1.804356e+000 1.862983e+000 1.636544e+000 1.100738e+000 2.227882e-001 1.539062e-001 1.860164e-001 2.811745e-001 2.476735e-001 3.253748e-001 3.040537e-001 3.687882e-001 3.076071e-001 3.192019e-001 3.046539e-001 2.776767e-001 1.359999e-001
<GCONST> 1.090742e+002
<TRANSP> 5
 0.000000e+000 1.000000e+000 0.000000e+000 0.000000e+000 0.000000e+000
 0.000000e+000 7.918266e-001 2.081734e-001 0.000000e+000 0.000000e+000
 0.000000e+000 0.000000e+000 7.918255e-001 2.081744e-001 0.000000e+000
 0.000000e+000 0.000000e+000 0.000000e+000 9.266469e-001 7.335309e-002
 0.000000e+000 0.000000e+000 0.000000e+000 0.000000e+000 0.000000e+000
<ENDHMM>
~h "w"
<BEGINHMM>
<NUMSTATES> 5
<STATE> 2
<MEAN> 39
 1.685856e+000 -9.812720e-001 3.748745e-001 -6.359372e+000 -7.309027e-001 -1.797150e+000 1.443859e+000 -3.363859e+000 -1.560558e+000 -4.469196e-001 -3.694636e+000 -2.509451e+000 5.766151e+001 2.115629e-002 2.105495e-002 1.880274e-003 -2.819568e-002 -2.312787e-002 -3.103741e-003 -1.648758e-002 -1.161275e-002 -2.506315e-002 -1.223288e-002 -7.325549e-003 -1.268330e-002 2.500392e-003 -1.089966e-003 1.542930e-004 3.703880e-004 1.915716e-003 5.048056e-004 1.929159e-004 8.850296e-004 -1.244477e-004 6.601450e-004 1.233186e-005 5.547192e-004 6.060971e-004 -1.824242e-003
<VARIANCE> 39
 4.841296e+001 3.589626e+001 3.845235e+001 8.496488e+001 4.241517e+001 6.259364e+001 3.298130e+001 3.724587e+001 4.280375e+001 3.673560e+001 4.201779e+001 3.499718e+001 6.495538e+001 1.447026e+000 1.226893e+000 1.451988e+000 2.314953e+000 1.700282e+000 2.333871e+000 1.914989e+000 2.308258e+000 2.054816e+000 2.162712e+000 2.148758e+000 1.769328e+000 1.283840e+000 1.969321e-001 1.587535e-001 1.985320e-001 3.144420e-001 2.653502e-001 3.600555e-001 3.418083e-001 3.839798e-001 3.343414e-001 3.786216e-001 3.534200e-001 2.922623e-001 1.488412e-001
<GCONST> 1.119223e+002
<STATE> 3
<MEAN> 39
 1.768297e+000 -8.717996e-001 3.857584e-001 -6.467516e+000 -8.362363e-001 -1.798472e+000 1.375046e+000 -3.418100e+000 -1.670317e+000 -5.064822e-001 -3.714782e+000 -2.559582e+000 5.763622e+001 1.533727e-002 2.090625e-002 3.187332e-003 -1.875019e-002 -1.976007e-002 -1.745218e-003 -1.193007e-002 -1.124577e-002 -2.099548e-002 -1.192183e-002 -3.889619e-003 -9.435299e-003 -5.627855e-003 -1.426416e-003 -2.537062e-004 3.764355e-004 2.302299e-003 8.305001e-004 2.210461e-004 1.043343e-003 2.225428e-004 1.021384e-003 1.732699e-004 9.480199e-004 8.148809e-004 -1.754871e-003
<VARIANCE> 39
 4.858005e+001 3.624554e+001 3.824185e+001 8.525577e+001 4.254238e+001 6.157595e+001 3.344836e+001 3.696650e+001 4.370137e+001 3.675780e+001 4.189092e+001 3.486020e+001 6.399020e+001 1.433850e+000 1.226532e+000 1.447182e+000 2.311138e+000 1.707558e+000 2.305903e+000 1.927121e+000 2.296273e+000 2.067673e+000 2.173861e+000 2.151505e+000 1.765952e+000 1.272609e+000 1.933262e-001 1.581434e-001 1.973656e-001 3.145482e-001 2.655288e-001 3.553953e-001 3.436370e-001 3.815764e-001 3.346932e-001 3.799353e-001 3.549550e-001 2.916036e-001 1.486370e-001
<GCONST> 1.118708e+002
<STATE> 4
<MEAN> 39
 1.683736e+000 -5.931140e-001 4.413364e-001 -6.320594e+000 -8.828133e-001 -1.651986e+000 1.308165e+000 -3.490384e+000 -1.763960e+000 -5.937363e-001 -3.617349e+000 -2.455104e+000 5.717458e+001 1.609948e-003 1.696168e-002 2.129046e-003 -1.555921e-003 -8.862692e-003 6.179711e-003 -2.402285e-003 -5.498578e-003 -8.607344e-003 -1.022303e-002 6.565830e-003 -2.302982e-003 -1.941362e-002 -1.558560e-003 -9.523795e-004 1.896261e-004 2.198762e-003 1.331044e-003 3.719217e-004 1.085170e-003 6.076348e-004 1.438348e-003 4.798087e-004 9.792721e-004 8.010045e-004 -1.116229e-003
<VARIANCE> 39
 4.816443e+001 3.621292e+001 3.654466e+001 8.498045e+001 4.183206e+001 5.867226e+001 3.415598e+001 3.628429e+001 4.462070e+001 3.630487e+001 4.031554e+001 3.360144e+001 6.251536e+001 1.380536e+000 1.188919e+000 1.391598e+000 2.266429e+000 1.685728e+000 2.202577e+000 1.936880e+000 2.250260e+000 2.056753e+000 2.169718e+000 2.097512e+000 1.719247e+000 1.247312e+000 1.838319e-001 1.546429e-001 1.910043e-001 3.110292e-001 2.628157e-001 3.425856e-001 3.468075e-001 3.755618e-001 3.318476e-001 3.807900e-001 3.479624e-001 2.864871e-001 1.502432e-001
<GCONST> 1.111751e+002
<TRANSP> 5
 0.000000e+000 1.000000e+000 0.000000e+000 0.000000e+000 0.000000e+000
 0.000000e+000 7.945916e-001 2.054084e-001 0.000000e+000 0.000000e+000
 0.000000e+000 0.000000e+000 7.945895e-001 2.054104e-001 0.000000e+000
 0.000000e+000 0.000000e+000 0.000000e+000 9.288722e-001 7.112792e-002
 0.000000e+000 0.000000e+000 0.000000e+000 0.000000e+000 0.000000e+000
<ENDHMM>
~h "y"
<BEGINHMM>
<NUMSTATES> 5
<STATE> 2
<MEAN> 39
 6.805762e-001 -1.043821e+000 5.246382e+000 -7.932083e+000 1.321677e+000 -5.440736e+000 -9.939560e-001 -3.309953e+000 -4.019854e+000 1.563107e-001 -5.445028e+000 -4.488086e-001 6.142635e+001 7.251061e-002 -2.023231e-002 -5.493546e-002 -4.211654e-002 7.277333e-003 2.777875e-002 2.057054e-002 -6.710529e-002 -1.670428e-002 -2.994425e-002 -5.948358e-002 -3.148252e-002 1.188690e-002 -2.273732e-003 2.379664e-004 -5.274186e-003 1.309348e-003 3.470915e-003 6.897729e-003 3.855346e-003 -1.554275e-004 8.893235e-004 9.131224e-004 -7.427357e-005 -1.750052e-003 -3.854349e-003
<VARIANCE> 39
 3.176674e+001 2.589748e+001 1.229181e+002 6.312629e+001 4.492538e+001 7.663999e+001 4.586855e+001 4.492936e+001 4.909053e+001 2.894780e+001 4.132223e+001 3.579021e+001 5.578992e+001 1.130301e+000 1.275060e+000 3.368406e+000 1.893020e+000 1.891233e+000 2.308560e+000 1.934228e+000 2.527361e+000 2.352405e+000 1.789793e+000 2.398886e+000 2.135826e+000 1.324140e+000 1.679872e-001 1.868483e-001 3.281515e-001 2.564886e-001 2.898508e-001 3.471856e-001 3.348231e-001 4.179349e-001 3.728392e-001 3.135779e-001 3.768052e-001 3.375313e-001 1.747019e-001
<GCONST> 1.141800e+002
<STATE> 3
<MEAN> 39
 9.954332e-001 -1.133522e+000 4.938898e+000 -8.112275e+000 1.390252e+000 -5.251362e+000 -8.477263e-001 -3.639511e+000 -4.089355e+000 2.563557e-002 -5.721920e+000 -6.059378e-001 6.143983e+001 6.127125e-002 -1.949860e-002 -7.680377e-002 -3.310721e-002 2.177122e-002 5.859825e-002 3.872124e-002 -6.693835e-002 -1.145009e-002 -2.446364e-002 -5.725135e-002 -3.818321e-002 -8.717039e-003 -2.440320e-003 -9.535797e-005 -4.633583e-003 2.280097e-003 2.700478e-003 6.582790e-003 3.822736e-003 5.180021e-004 1.346418e-003 1.587540e-003 5.619976e-004 -1.353991e-003 -4.569144e-003
<VARIANCE> 39
 2.834742e+001 2.640742e+001 1.242878e+002 6.378093e+001 4.336212e+001 7.716808e+001 4.702044e+001 4.487642e+001 4.845972e+001 2.886716e+001 4.129221e+001 3.741135e+001 5.708207e+001 9.904394e-001 1.254566e+000 3.312438e+000 1.801941e+000 1.884264e+000 2.218004e+000 1.901374e+000 2.550638e+000 2.342169e+000 1.766562e+000 2.403112e+000 2.176045e+000 1.181604e+000 1.459364e-001 1.783651e-001 3.092819e-001 2.388915e-001 2.867461e-001 3.316869e-001 3.274422e-001 4.209844e-001 3.691997e-001 3.063373e-001 3.739784e-001 3.392841e-001 1.524974e-001
<GCONST> 1.132155e+002
<STATE> 4
<MEAN> 39
 1.168119e+000 -1.042338e+000 3.805186e+000 -7.703046e+000 1.809683e+000 -3.664021e+000 1.099656e-001 -4.504328e+000 -3.996959e+000 1.008271e-001 -6.199782e+000 -8.362263e-001 6.037246e+001 2.816070e-002 -1.325202e-002 -8.383643e-002 9.684562e-003 3.375354e-002 8.801001e-002 6.833641e-002 -5.486392e-002 1.067620e-002 -9.466148e-003 -2.842973e-002 -2.939627e-002 -5.951728e-002 -1.926671e-003 6.561220e-005 -2.300117e-003 3.491843e-003 9.994435e-004 4.694161e-003 2.752291e-003 1.062518e-003 2.043502e-003 2.055146e-003 1.577650e-003 -4.466048e-004 -4.857617e-003
<VARIANCE> 39
 2.548822e+001 2.506047e+001 1.145608e+002 7.167823e+001 3.937661e+001 7.486504e+001 4.895493e+001 4.277914e+001 4.834491e+001 2.811021e+001 4.536017e+001 3.636084e+001 6.754149e+001 7.506323e-001 1.086027e+000 2.861916e+000 1.598205e+000 1.810276e+000 1.937633e+000 1.815836e+000 2.457806e+000 2.218396e+000 1.694318e+000 2.402839e+000 2.052206e+000 8.493413e-001 1.055105e-001 1.452806e-001 2.503106e-001 2.084353e-001 2.734854e-001 2.861095e-001 3.139415e-001 4.093623e-001 3.436251e-001 2.942721e-001 3.580386e-001 3.231767e-001 1.022569e-001
<GCONST> 1.099851e+002
<TRANSP> 5
 0.000000e+000 1.000000e+000 0.000000e+000 0.000000e+000 0.000000e+000
 0.000000e+000 7.955563e-001 2.044437e-001 0.000000e+000 0.000000e+000
 0.000000e+000 0.000000e+000 7.955565e-001 2.044434e-001 0.000000e+000
 0.000000e+000 0.000000e+000 0.000000e+000 9.349307e-001 6.506930e-002
 0.000000e+000 0.000000e+000 0.000000e+000 0.000000e+000 0.000000e+000
<ENDHMM>
~h "z"
<BEGINHMM>
<NUMSTATES> 5
<STATE> 2
<MEAN> 39
 6.407008e-001 -1.068831e+000 4.395201e-001 -4.445615e+000 -1.076764e+000 -2.309518e+000 2.094482e+000 -3.104568e+000 -2.404079e-001 2.614276e-002 -2.395072e+000 -2.168498e+000 5.754200e+001 -1.642754e-003 -3.666343e-004 -6.978703e-005 1.008360e-002 -5.215641e-004 4.995158e-004 4.724926e-003 9.590955e-004 5.658587e-003 7.613974e-003 7.326876e-003 3.401188e-003 -7.728018e-003 1.624427e-004 -5.210456e-004 -6.292558e-004 -3.264806e-004 -1.024994e-004 3.938361e-005 6.799201e-005 1.240162e-004 2.074542e-004 1.161071e-004 1.966788e-005 -3.706623e-004 6.390201e-004
<VARIANCE> 39
 5.324128e+001 3.449294e+001 4.552888e+001 6.229175e+001 5.463728e+001 7.225763e+001 3.024335e+001 3.823192e+001 3.965996e+001 3.317115e+001 3.445151e+001 3.675047e+001 6.765115e+001 1.537103e+000 1.247690e+000 1.559928e+000 2.035236e+000 1.904189e+000 2.340351e+000 1.707199e+000 2.233248e+000 2.045772e+000 1.805620e+000 1.791128e+000 1.808865e+000 8.895531e-001 1.878482e-001 1.538557e-001 1.943308e-001 2.669544e-001 2.682911e-001 3.474873e-001 3.126658e-001 3.710308e-001 3.267041e-001 3.044879e-001 3.095521e-001 2.940880e-001 9.990248e-002
<GCONST> 1.099838e+002
<STATE> 3
<MEAN> 39
 6.341854e-001 -1.074548e+000 4.370970e-001 -4.406182e+000 -1.072399e+000 -2.309879e+000 2.118419e+000 -3.097653e+000 -2.134772e-001 6.317405e-002 -2.364985e+000 -2.156888e+000 5.751329e+001 -7.312861e-004 -2.496643e-003 -2.735393e-003 8.317477e-003 -1.073540e-003 4.018630e-004 4.963773e-003 1.506748e-003 6.423500e-003 7.976653e-003 7.290307e-003 1.758840e-003 -4.603244e-003 2.546295e-004 -4.446001e-004 -6.831860e-004 -5.234017e-004 -1.765552e-004 1.789560e-004 8.171709e-005 9.882828e-005 1.251654e-004 2.342215e-005 -2.239578e-005 -3.823177e-004 6.498659e-004
<VARIANCE> 39
 5.329988e+001 3.451751e+001 4.559550e+001 6.165005e+001 5.503590e+001 7.248344e+001 3.017004e+001 3.845088e+001 3.932159e+001 3.322510e+001 3.446145e+001 3.669458e+001 6.798543e+001 1.531517e+000 1.249915e+000 1.566859e+000 2.032035e+000 1.909455e+000 2.338844e+000 1.706436e+000 2.241124e+000 2.043004e+000 1.800735e+000 1.788510e+000 1.808620e+000 8.896435e-001 1.864327e-001 1.540131e-001 1.952437e-001 2.668097e-001 2.685102e-001 3.473122e-001 3.124318e-001 3.722864e-001 3.268038e-001 3.035973e-001 3.084957e-001 2.938393e-001 9.980931e-002
<GCONST> 1.099805e+002
<STATE> 4
<MEAN> 39
 5.313352e-001 -1.083886e+000 3.124978e-001 -4.341608e+000 -1.016268e+000 -2.231188e+000 2.196063e+000 -3.029338e+000 -1.455449e-001 8.925706e-002 -2.267575e+000 -2.115949e+000 5.741694e+001 6.852687e-004 -3.999411e-003 -4.589478e-003 3.392294e-003 -3.938286e-004 -3.294189e-004 4.929815e-003 2.406605e-003 6.126900e-003 7.846113e-003 5.875872e-003 -3.264314e-004 -1.360056e-004 2.317381e-004 -2.090159e-004 -5.126403e-004 -5.400715e-004 -2.531467e-004 2.187020e-004 4.927641e-005 9.910665e-005 3.559560e-005 -1.242857e-004 -3.769495e-005 -2.593727e-004 4.787021e-004
<VARIANCE> 39
 5.405303e+001 3.439240e+001 4.488742e+001 6.143490e+001 5.608472e+001 7.123296e+001 2.936524e+001 3.880825e+001 3.899489e+001 3.304157e+001 3.382178e+001 3.645364e+001 6.671371e+001 1.538802e+000 1.237308e+000 1.540243e+000 2.037485e+000 1.922000e+000 2.288765e+000 1.698907e+000 2.262116e+000 2.041435e+000 1.779115e+000 1.776728e+000 1.797176e+000 8.801790e-001 1.851604e-001 1.535065e-001 1.936467e-001 2.665058e-001 2.681381e-001 3.403697e-001 3.103007e-001 3.759388e-001 3.260450e-001 3.012044e-001 3.067372e-001 2.914656e-001 9.859518e-002
<GCONST> 1.097564e+002
<TRANSP> 5
 0.000000e+000 1.000000e+000 0.000000e+000 0.000000e+000 0.000000e+000
 0.000000e+000 7.866596e-001 2.133404e-001 0.000000e+000 0.000000e+000
 0.000000e+000 0.000000e+000 7.866589e-001 2.133410e-001 0.000000e+000
 0.000000e+000 0.000000e+000 0.000000e+000 9.194624e-001 8.053764e-002
 0.000000e+000 0.000000e+000 0.000000e+000 0.000000e+000 0.000000e+000
<ENDHMM>
~h "ah"
<BEGINHMM>
<NUMSTATES> 5
<STATE> 2
<MEAN> 39
 1.463589e+000 -1.444002e+000 9.306670e-001 -6.305932e+000 4.833990e-002 -2.109615e+000 1.732963e+000 -3.689998e+000 -1.654191e+000 -8.536403e-001 -4.112175e+000 -2.512427e+000 5.833067e+001 1.180468e-003 -3.975646e-003 -2.133264e-002 1.795682e-002 7.611569e-003 2.737118e-002 2.129427e-002 -9.612017e-003 4.144483e-003 2.761065e-003 -7.291206e-003 -1.344003e-002 -2.679406e-002 -9.582154e-004 9.817746e-005 -3.523094e-005 2.357796e-003 1.975174e-004 1.070194e-003 7.269226e-004 4.649466e-004 1.094723e-003 1.083051e-003 6.619230e-004 4.607239e-004 -2.326074e-003
<VARIANCE> 39
 4.446822e+001 3.260332e+001 6.013797e+001 7.905997e+001 4.218781e+001 6.523457e+001 3.325694e+001 3.768324e+001 4.076812e+001 3.465692e+001 4.078265e+001 3.875987e+001 6.567588e+001 1.298238e+000 1.260898e+000 1.878631e+000 2.037138e+000 1.785161e+000 2.172890e+000 1.733714e+000 2.351908e+000 2.082236e+000 2.038350e+000 2.165882e+000 1.920223e+000 1.068559e+000 1.707902e-001 1.565194e-001 2.163274e-001 2.827618e-001 2.723882e-001 3.251825e-001 3.104496e-001 3.920024e-001 3.397888e-001 3.495301e-001 3.530619e-001 3.072570e-001 1.222892e-001
<GCONST> 1.114145e+002
<STATE> 3
<MEAN> 39
 1.452915e+000 -1.462865e+000 8.294151e-001 -6.196940e+000 8.908256e-002 -1.968210e+000 1.843507e+000 -3.727674e+000 -1.617011e+000 -8.311864e-001 -4.134189e+000 -2.567346e+000 5.817839e+001 -3.146311e-003 -3.511128e-003 -2.060970e-002 2.859329e-002 8.198538e-003 3.184697e-002 2.427440e-002 -7.020874e-003 9.447513e-003 7.628898e-003 -4.459852e-003 -1.100163e-002 -3.701513e-002 -9.392318e-004 4.588568e-004 4.275142e-004 2.428476e-003 6.745209e-005 9.275156e-004 5.792445e-004 4.202164e-004 1.086709e-003 1.135446e-003 7.520287e-004 7.159704e-004 -2.403324e-003
<VARIANCE> 39
 4.424694e+001 3.235699e+001 5.817369e+001 7.876869e+001 4.160633e+001 6.420046e+001 3.275190e+001 3.751665e+001 4.059957e+001 3.458558e+001 4.085458e+001 3.885429e+001 6.566512e+001 1.279241e+000 1.244540e+000 1.838283e+000 2.001107e+000 1.781110e+000 2.145067e+000 1.710714e+000 2.331175e+000 2.068788e+000 2.025177e+000 2.165608e+000 1.911334e+000 1.031961e+000 1.666605e-001 1.530742e-001 2.118120e-001 2.782268e-001 2.718997e-001 3.200589e-001 3.064054e-001 3.897876e-001 3.377086e-001 3.473193e-001 3.516856e-001 3.065002e-001 1.169084e-001
<GCONST> 1.109716e+002
<STATE> 4
<MEAN> 39
 1.135719e+000 -1.369709e+000 6.706849e-001 -5.592616e+000 3.504842e-001 -1.433277e+000 2.239591e+000 -3.842948e+000 -1.387367e+000 -7.217924e-001 -4.068804e+000 -2.404809e+000 5.739473e+001 -1.249219e-002 -1.525273e-003 -1.350682e-002 4.370064e-002 6.910095e-003 3.361621e-002 2.714558e-002 4.493254e-004 1.992108e-002 1.361757e-002 3.321553e-003 -2.385935e-003 -5.152154e-002 -9.131279e-004 6.702882e-004 1.145837e-003 1.949775e-003 -2.868630e-004 2.059435e-004 2.438159e-004 5.767715e-004 9.056121e-004 9.390938e-004 6.301958e-004 1.034114e-003 -1.905396e-003
<VARIANCE> 39
 4.360447e+001 3.058665e+001 5.245015e+001 7.827889e+001 3.980721e+001 6.013223e+001 3.138807e+001 3.664106e+001 3.891612e+001 3.375927e+001 4.065960e+001 3.758215e+001 6.667736e+001 1.212415e+000 1.157669e+000 1.684466e+000 1.891513e+000 1.702239e+000 2.016074e+000 1.648820e+000 2.253485e+000 1.985131e+000 1.949970e+000 2.086674e+000 1.825454e+000 9.437399e-001 1.566596e-001 1.428340e-001 1.976803e-001 2.644289e-001 2.626207e-001 3.039698e-001 2.982994e-001 3.825330e-001 3.266303e-001 3.363837e-001 3.366500e-001 2.979646e-001 1.060913e-001
<GCONST> 1.092091e+002
<TRANSP> 5
 0.000000e+000 1.000000e+000 0.000000e+000 0.000000e+000 0.000000e+000
 0.000000e+000 7.916123e-001 2.083877e-001 0.000000e+000 0.000000e+000
 0.000000e+000 0.000000e+000 7.916117e-001 2.083883e-001 0.000000e+000
 0.000000e+000 0.000000e+000 0.000000e+000 9.265899e-001 7.341012e-002
 0.000000e+000 0.000000e+000 0.000000e+000 0.000000e+000 0.000000e+000
<ENDHMM>
~h "ao"
<BEGINHMM>
<NUMSTATES> 5
<STATE> 2
<MEAN> 39
 2.026099e-001 -6.768704e-001 -1.242594e+000 -6.911373e+000 8.819850e-001 2.096936e+000 2.950650e+000 -2.446555e+000 3.201694e-001 3.688530e-001 -2.402086e+000 -1.514330e+000 5.491905e+001 -1.537837e-003 -1.000145e-003 -1.835033e-002 -1.873910e-002 1.241740e-002 9.930371e-003 8.623992e-003 1.474490e-002 1.250735e-002 -2.425388e-002 8.806961e-003 -2.066151e-003 6.176649e-003 9.001937e-006 6.267052e-004 9.742886e-004 1.891267e-003 -9.225240e-005 -5.436225e-004 -3.195659e-004 -3.239278e-004 -7.913663e-004 5.396237e-004 -1.092979e-004 2.803918e-004 -2.215904e-004
<VARIANCE> 39
 3.910876e+001 2.460911e+001 3.523238e+001 1.251740e+002 3.399544e+001 4.389746e+001 2.872729e+001 3.461171e+001 3.618492e+001 4.372610e+001 3.082343e+001 3.039985e+001 6.361457e+001 1.147648e+000 8.430333e-001 1.108276e+000 2.235994e+000 1.356484e+000 1.671444e+000 1.516170e+000 1.891122e+000 1.746521e+000 1.745093e+000 1.485321e+000 1.413131e+000 7.274196e-001 1.550452e-001 1.278224e-001 1.639386e-001 2.683433e-001 2.218847e-001 2.784232e-001 2.776967e-001 3.399685e-001 3.076028e-001 2.941422e-001 2.662019e-001 2.481695e-001 9.100359e-002
<GCONST> 1.040887e+002
<STATE> 3
<MEAN> 39
 1.979381e-001 -6.704075e-001 -1.327097e+000 -6.992713e+000 9.433676e-001 2.144540e+000 2.998942e+000 -2.378528e+000 3.704988e-001 2.467311e-001 -2.361263e+000 -1.525939e+000 5.495256e+001 -1.240916e-003 2.361557e-003 -1.323536e-002 -9.301426e-003 1.160744e-002 7.000644e-003 7.077051e-003 1.295432e-002 8.395964e-003 -2.035554e-002 7.495721e-003 -1.764359e-003 5.234629e-003 2.189496e-004 6.586456e-004 1.014974e-003 1.756757e-003 -1.353732e-004 -7.776152e-004 -3.440279e-004 -4.865029e-004 -1.088643e-003 9.387362e-004 -3.701913e-004 -2.200351e-005 -1.382694e-005
<VARIANCE> 39
 3.893591e+001 2.495683e+001 3.562057e+001 1.267847e+002 3.437806e+001 4.360615e+001 2.823220e+001 3.426232e+001 3.572594e+001 4.395893e+001 3.000397e+001 3.057324e+001 6.350691e+001 1.151495e+000 8.485501e-001 1.111211e+000 2.249982e+000 1.365701e+000 1.674226e+000 1.528849e+000 1.893823e+000 1.766981e+000 1.745347e+000 1.483655e+000 1.432799e+000 7.611960e-001 1.558787e-001 1.287817e-001 1.652419e-001 2.686514e-001 2.237912e-001 2.793995e-001 2.813204e-001 3.418777e-001 3.111461e-001 2.942330e-001 2.678179e-001 2.513988e-001 9.610767e-002
<GCONST> 1.043133e+002
<STATE> 4
<MEAN> 39
 3.635118e-001 -4.801690e-001 -1.500403e+000 -7.396489e+000 1.115925e+000 2.162574e+000 3.092311e+000 -2.414257e+000 3.017392e-001 1.620601e-001 -2.297227e+000 -1.462015e+000 5.527266e+001 -2.564955e-004 7.551352e-003 -1.108234e-003 3.680822e-003 9.048983e-003 8.302903e-004 5.335574e-003 6.336435e-003 -2.593106e-003 -1.073987e-002 2.940762e-003 -4.201652e-003 4.777337e-003 9.272787e-005 2.819127e-004 1.204686e-003 1.405709e-003 -1.024971e-004 -1.061206e-003 -5.083476e-004 -7.144755e-004 -1.203434e-003 1.684471e-003 -5.463773e-004 -1.654046e-004 1.312790e-004
<VARIANCE> 39
 3.823560e+001 2.535231e+001 3.806090e+001 1.297849e+002 3.470728e+001 4.332046e+001 2.928304e+001 3.390987e+001 3.686282e+001 4.474637e+001 2.932251e+001 3.102349e+001 6.441288e+001 1.126004e+000 8.611026e-001 1.139151e+000 2.243802e+000 1.390651e+000 1.671399e+000 1.562539e+000 1.900686e+000 1.834801e+000 1.755955e+000 1.494315e+000 1.483334e+000 8.352305e-001 1.518732e-001 1.319447e-001 1.701105e-001 2.649132e-001 2.283888e-001 2.795999e-001 2.880153e-001 3.438705e-001 3.206793e-001 2.966103e-001 2.734888e-001 2.587703e-001 1.075171e-001
<GCONST> 1.049831e+002
<TRANSP> 5
 0.000000e+000 1.000000e+000 0.000000e+000 0.000000e+000 0.000000e+000
 0.000000e+000 7.969759e-001 2.030241e-001 0.000000e+000 0.000000e+000
 0.000000e+000 0.000000e+000 7.969754e-001 2.030245e-001 0.000000e+000
 0.000000e+000 0.000000e+000 0.000000e+000 9.319750e-001 6.802502e-002
 0.000000e+000 0.000000e+000 0.000000e+000 0.000000e+000 0.000000e+000
<ENDHMM>
~h "ax"
<BEGINHMM>
<NUMSTATES> 5
<STATE> 2
<MEAN> 39
 -1.668370e+000 -3.108594e+000 5.360563e-001 -2.739794e+000 2.213814e+000 7.293646e-001 3.801545e+000 -2.421432e+000 1.541856e+000 1.789051e+000 -2.888011e+000 -1.368172e+000 5.273430e+001 2.329471e-002 -1.499706e-002 -1.122080e-002 -2.621347e-002 1.797618e-002 5.642329e-003 -6.966004e-003 1.514725e-002 -3.007196e-003 -2.109360e-002 -2.204870e-002 -2.451191e-002 6.643987e-002 -6.335790e-004 4.776972e-004 -3.747451e-005 5.516094e-006 -1.558043e-003 7.225699e-004 9.729061e-004 3.702280e-005 4.625629e-004 -2.595326e-003 -6.393438e-004 4.796541e-004 8.623776e-004
<VARIANCE> 39
 2.310588e+001 1.851173e+001 2.271947e+001 4.440704e+001 1.939308e+001 4.553855e+001 2.470599e+001 3.267840e+001 2.416140e+001 2.566710e+001 3.570562e+001 3.983347e+001 7.612106e+001 7.005061e-001 7.720328e-001 9.085833e-001 1.311147e+000 1.226118e+000 2.080347e+000 1.597563e+000 2.032146e+000 1.603728e+000 1.674861e+000 1.787523e+000 1.762601e+000 1.106714e+000 1.172734e-001 1.257182e-001 1.413878e-001 2.037104e-001 2.208145e-001 3.454740e-001 2.973310e-001 3.708876e-001 3.082584e-001 3.183432e-001 3.322236e-001 3.036208e-001 1.360672e-001
<GCONST> 1.009110e+002
<STATE> 3
<MEAN> 39
 -1.562269e+000 -3.172995e+000 5.051911e-001 -2.873325e+000 2.267585e+000 7.296402e-001 3.776359e+000 -2.352370e+000 1.511081e+000 1.676620e+000 -3.015036e+000 -1.463141e+000 5.306044e+001 2.042711e-002 -1.216397e-002 -1.063762e-002 -2.791724e-002 1.056064e-002 5.078811e-003 -4.070100e-003 1.504378e-002 -3.063331e-003 -3.105935e-002 -2.543950e-002 -2.160907e-002 7.100813e-002 -5.030019e-004 9.686641e-004 2.331108e-004 -9.434383e-004 -1.859568e-003 -3.320569e-004 6.373228e-004 -2.391059e-004 -5.794983e-004 -3.080780e-003 -3.117908e-004 5.787361e-004 1.348258e-003
<VARIANCE> 39
 2.366673e+001 1.959934e+001 2.343841e+001 4.654887e+001 2.017036e+001 4.643343e+001 2.529214e+001 3.292632e+001 2.416957e+001 2.625620e+001 3.620766e+001 4.056233e+001 7.975845e+001 7.418544e-001 8.073625e-001 9.474058e-001 1.382424e+000 1.250117e+000 2.200097e+000 1.617158e+000 2.092125e+000 1.591977e+000 1.675616e+000 1.810917e+000 1.808472e+000 1.176166e+000 1.233616e-001 1.272959e-001 1.442756e-001 2.111783e-001 2.218489e-001 3.603217e-001 2.998638e-001 3.796981e-001 3.041709e-001 3.144233e-001 3.343705e-001 3.086799e-001 1.409296e-001
<GCONST> 1.018984e+002
<STATE> 4
<MEAN> 39
 -1.223804e+000 -3.241652e+000 4.304668e-001 -3.309019e+000 2.222678e+000 6.285843e-001 3.735905e+000 -2.226720e+000 1.431799e+000 1.433680e+000 -3.277092e+000 -1.548458e+000 5.398749e+001 1.438832e-002 -2.507351e-003 -2.612959e-003 -3.438381e-002 -4.673315e-003 -1.246226e-002 -4.127164e-003 1.157511e-002 -1.337019e-002 -3.493324e-002 -2.677515e-002 -1.043007e-002 7.505157e-002 -2.535414e-004 1.293117e-003 4.449785e-004 -1.368548e-003 -1.415229e-003 -1.791614e-003 -3.405778e-004 -6.805117e-004 -1.452071e-003 -1.232367e-003 -2.647488e-005 4.781268e-004 1.444508e-003
<VARIANCE> 39
 2.577902e+001 2.248851e+001 2.587238e+001 5.228411e+001 2.293094e+001 4.968917e+001 2.711308e+001 3.367608e+001 2.535064e+001 2.821559e+001 3.779413e+001 4.047082e+001 8.781783e+001 8.214296e-001 8.827201e-001 1.021218e+000 1.526215e+000 1.302070e+000 2.349870e+000 1.637910e+000 2.176105e+000 1.591376e+000 1.644411e+000 1.848578e+000 1.822973e+000 1.285674e+000 1.318752e-001 1.301299e-001 1.472453e-001 2.254748e-001 2.206385e-001 3.794552e-001 2.998725e-001 3.889854e-001 2.995385e-001 3.035467e-001 3.352307e-001 3.077201e-001 1.489647e-001
<GCONST> 1.037527e+002
<TRANSP> 5
 0.000000e+000 1.000000e+000 0.000000e+000 0.000000e+000 0.000000e+000
 0.000000e+000 7.866195e-001 2.133805e-001 0.000000e+000 0.000000e+000
 0.000000e+000 0.000000e+000 7.866191e-001 2.133809e-001 0.000000e+000
 0.000000e+000 0.000000e+000 0.000000e+000 9.213758e-001 7.862432e-002
 0.000000e+000 0.000000e+000 0.000000e+000 0.000000e+000 0.000000e+000
<ENDHMM>
~h "ay"
<BEGINHMM>
<NUMSTATES> 5
<STATE> 2
<MEAN> 39
 -5.490084e-001 -2.307373e+000 3.383771e-001 -3.986138e+000 1.151174e+000 -2.680378e-001 2.858481e+000 -2.756650e+000 2.715167e-001 5.302330e-001 -3.478795e+000 -2.144891e+000 5.539756e+001 8.403919e-003 -1.461904e-002 -1.269934e-002 -1.357594e-002 9.115677e-003 -5.497319e-003 -4.025443e-003 1.717313e-003 -3.354402e-004 -1.244004e-002 -5.472540e-003 -1.731367e-002 2.522206e-002 3.811114e-004 1.033185e-004 1.246120e-004 -2.177710e-004 -2.119051e-004 3.552567e-004 2.330710e-004 3.470570e-004 -1.317687e-004 -2.654185e-004 2.615890e-005 -2.401373e-004 3.065657e-004
<VARIANCE> 39
 3.893033e+001 2.938312e+001 3.652145e+001 6.359167e+001 3.086134e+001 5.459306e+001 2.621438e+001 3.740321e+001 3.257120e+001 3.553517e+001 3.796570e+001 3.790638e+001 7.573768e+001 1.244962e+000 1.037760e+000 1.265305e+000 1.862734e+000 1.480140e+000 1.942235e+000 1.638564e+000 2.280170e+000 1.760193e+000 1.825262e+000 1.763170e+000 1.666805e+000 1.023075e+000 1.744605e-001 1.502270e-001 1.734508e-001 2.644429e-001 2.376882e-001 3.076692e-001 3.029520e-001 3.910663e-001 3.119026e-001 3.187128e-001 3.076489e-001 2.819045e-001 1.317611e-001
<GCONST> 1.069433e+002
<STATE> 3
<MEAN> 39
 -5.042691e-001 -2.372222e+000 2.829476e-001 -4.053117e+000 1.189180e+000 -2.981036e-001 2.842480e+000 -2.745246e+000 2.725043e-001 4.740908e-001 -3.510947e+000 -2.226955e+000 5.552164e+001 1.034785e-002 -1.389204e-002 -1.231006e-002 -1.467910e-002 7.669132e-003 -4.238853e-003 -2.691779e-003 2.760797e-003 -5.611267e-004 -1.338109e-002 -5.871265e-003 -1.875666e-002 2.675094e-002 3.772183e-004 1.861812e-004 2.270175e-004 -9.922567e-005 -3.445921e-004 1.732142e-004 2.378370e-004 4.315863e-004 -8.990384e-005 -1.222034e-004 -6.160586e-005 -2.296859e-004 2.365853e-004
<VARIANCE> 39
 3.897861e+001 2.972506e+001 3.685516e+001 6.355361e+001 3.109009e+001 5.467757e+001 2.619051e+001 3.743455e+001 3.236172e+001 3.565875e+001 3.808579e+001 3.860524e+001 7.596224e+001 1.247289e+000 1.047402e+000 1.277098e+000 1.865039e+000 1.492640e+000 1.963899e+000 1.644750e+000 2.296137e+000 1.757719e+000 1.836694e+000 1.762761e+000 1.689946e+000 1.036667e+000 1.755777e-001 1.514539e-001 1.743970e-001 2.640896e-001 2.396923e-001 3.097705e-001 3.030921e-001 3.940437e-001 3.111640e-001 3.204217e-001 3.078250e-001 2.843095e-001 1.328460e-001
<GCONST> 1.071405e+002
<STATE> 4
<MEAN> 39
 -3.683856e-001 -2.446023e+000 1.304464e-001 -4.220012e+000 1.230412e+000 -2.744743e-001 2.831802e+000 -2.687658e+000 2.986734e-001 3.618337e-001 -3.560982e+000 -2.351022e+000 5.579576e+001 1.221584e-002 -9.158106e-003 -9.696865e-003 -1.389881e-002 3.608504e-003 -4.675633e-003 -1.202153e-003 1.887896e-003 -3.958573e-004 -1.273275e-002 -8.458756e-003 -1.880021e-002 2.725130e-002 1.579857e-004 4.000725e-004 2.505088e-004 1.865149e-004 -3.611367e-004 1.730501e-004 1.063074e-004 1.427004e-004 -1.069850e-004 6.833371e-006 -9.777451e-006 8.384076e-007 -4.836379e-005
<VARIANCE> 39
 3.902106e+001 3.061589e+001 3.748770e+001 6.511694e+001 3.191629e+001 5.515881e+001 2.646931e+001 3.710086e+001 3.203959e+001 3.581586e+001 3.813836e+001 3.946641e+001 7.661554e+001 1.247841e+000 1.058795e+000 1.285857e+000 1.864432e+000 1.506369e+000 2.021923e+000 1.660801e+000 2.306339e+000 1.749830e+000 1.822300e+000 1.758748e+000 1.708094e+000 1.067665e+000 1.755211e-001 1.511692e-001 1.742270e-001 2.607240e-001 2.397276e-001 3.159564e-001 3.035879e-001 3.962592e-001 3.079860e-001 3.168620e-001 3.073686e-001 2.840137e-001 1.335763e-001
<GCONST> 1.073638e+002
<TRANSP> 5
 0.000000e+000 1.000000e+000 0.000000e+000 0.000000e+000 0.000000e+000
 0.000000e+000 7.883477e-001 2.116524e-001 0.000000e+000 0.000000e+000
 0.000000e+000 0.000000e+000 7.883472e-001 2.116528e-001 0.000000e+000
 0.000000e+000 0.000000e+000 0.000000e+000 9.227983e-001 7.720173e-002
 0.000000e+000 0.000000e+000 0.000000e+000 0.000000e+000 0.000000e+000
<ENDHMM>
~h "eh"
<BEGINHMM>
<NUMSTATES> 5
<STATE> 2
<MEAN> 39
 -4.393803e-001 -1.265804e+000 4.033243e-001 -4.046831e+000 6.059172e-001 -1.871862e+000 2.101813e+000 -2.464248e+000 -3.906108e-002 9.888650e-001 -3.941556e+000 -2.339782e+000 5.627405e+001 4.764780e-003 4.651741e-003 -5.047831e-003 5.318268e-004 -4.083327e-003 -4.437710e-003 -7.992253e-004 -1.634272e-003 5.524828e-004 3.935933e-003 -4.731997e-003 9.988899e-004 -2.393564e-003 5.502818e-004 2.936676e-004 -4.347360e-005 -4.610427e-004 -2.166202e-005 3.709494e-004 -1.317038e-004 -5.837657e-004 -1.818355e-004 3.225124e-004 -1.954618e-004 -4.447978e-005 -3.605552e-004
<VARIANCE> 39
 5.165315e+001 2.896425e+001 2.717373e+001 6.270838e+001 2.852988e+001 5.481159e+001 3.062944e+001 4.264370e+001 3.781870e+001 3.060528e+001 3.902709e+001 3.608200e+001 6.469106e+001 1.847230e+000 1.142587e+000 1.114159e+000 1.997175e+000 1.503823e+000 2.006752e+000 1.662601e+000 2.432117e+000 1.881436e+000 1.762742e+000 1.963780e+000 1.593274e+000 9.845696e-001 2.377052e-001 1.568478e-001 1.685949e-001 2.858745e-001 2.488348e-001 3.313861e-001 2.995797e-001 4.088840e-001 3.111146e-001 3.145525e-001 3.212554e-001 2.771219e-001 1.232010e-001
<GCONST> 1.080507e+002
<STATE> 3
<MEAN> 39
 -4.078421e-001 -1.247425e+000 3.848319e-001 -4.050532e+000 5.864422e-001 -1.890974e+000 2.095940e+000 -2.476674e+000 -4.056804e-002 1.006938e+000 -3.970470e+000 -2.336755e+000 5.626429e+001 7.154393e-003 5.557152e-003 -5.121269e-003 -1.312535e-003 -3.939490e-003 -2.749261e-003 -1.361064e-003 -4.241573e-003 -9.670198e-005 5.250315e-003 -5.798108e-003 4.521258e-004 -3.832626e-003 4.901955e-004 2.798999e-004 -7.024336e-006 -4.357469e-004 1.110206e-004 4.377454e-004 -1.034306e-004 -6.078285e-004 -2.102685e-004 3.193191e-004 -2.156987e-004 -1.881431e-004 -3.533813e-004
<VARIANCE> 39
 5.167873e+001 2.869156e+001 2.677915e+001 6.340786e+001 2.822892e+001 5.507704e+001 3.080561e+001 4.267103e+001 3.803180e+001 3.052236e+001 3.939021e+001 3.579005e+001 6.453602e+001 1.847627e+000 1.133991e+000 1.110099e+000 2.017931e+000 1.498565e+000 2.005409e+000 1.663899e+000 2.419080e+000 1.878577e+000 1.759269e+000 1.974153e+000 1.584376e+000 9.849250e-001 2.387215e-001 1.560566e-001 1.681355e-001 2.880463e-001 2.494089e-001 3.321977e-001 3.001550e-001 4.060053e-001 3.104654e-001 3.148383e-001 3.216338e-001 2.762339e-001 1.240914e-001
<GCONST> 1.080352e+002
<STATE> 4
<MEAN> 39
 -3.326358e-001 -1.165943e+000 3.491670e-001 -3.998430e+000 5.261366e-001 -1.831494e+000 2.121196e+000 -2.624135e+000 -6.370804e-002 9.988965e-001 -4.014987e+000 -2.326331e+000 5.608686e+001 9.354374e-003 4.381034e-003 -3.021960e-003 -2.130904e-003 -2.955247e-003 7.933427e-005 -1.328560e-003 -7.697360e-003 -1.059324e-003 5.412350e-003 -7.381237e-003 -9.295167e-004 -4.990683e-003 7.424527e-005 2.078603e-004 6.215673e-005 2.679230e-005 2.096451e-004 4.662673e-004 1.024627e-004 -4.903750e-004 -1.123426e-004 1.903556e-004 -3.033445e-005 -2.718799e-004 -4.347142e-004
<VARIANCE> 39
 5.067694e+001 2.804464e+001 2.611428e+001 6.375049e+001 2.798649e+001 5.477411e+001 3.113188e+001 4.279760e+001 3.838676e+001 3.055894e+001 3.975658e+001 3.510374e+001 6.423663e+001 1.774522e+000 1.098717e+000 1.088533e+000 2.005396e+000 1.491732e+000 1.973008e+000 1.656791e+000 2.399590e+000 1.891167e+000 1.752853e+000 1.963591e+000 1.570311e+000 9.682521e-001 2.313475e-001 1.515999e-001 1.650068e-001 2.869612e-001 2.506439e-001 3.285760e-001 3.000359e-001 4.020588e-001 3.130651e-001 3.149151e-001 3.192121e-001 2.752458e-001 1.232558e-001
<GCONST> 1.077003e+002
<TRANSP> 5
 0.000000e+000 1.000000e+000 0.000000e+000 0.000000e+000 0.000000e+000
 0.000000e+000 7.888403e-001 2.111597e-001 0.000000e+000 0.000000e+000
 0.000000e+000 0.000000e+000 7.888406e-001 2.111594e-001 0.000000e+000
 0.000000e+000 0.000000e+000 0.000000e+000 9.224109e-001 7.758914e-002
 0.000000e+000 0.000000e+000 0.000000e+000 0.000000e+000 0.000000e+000
<ENDHMM>
~h "ey"
<BEGINHMM>
<NUMSTATES> 5
<STATE> 2
<MEAN> 39
 -2.395286e-001 -2.400492e+000 1.001708e-001 -5.005600e+000 5.940472e-001 -1.523831e+000 2.582796e+000 -2.235501e+000 -1.312321e-001 -4.376666e-001 -3.630596e+000 -1.872933e+000 5.748813e+001 -2.018594e-003 4.510056e-004 2.165771e-003 -4.390407e-003 -8.168530e-003 -8.075065e-003 -7.731037e-004 2.535698e-003 -1.721681e-003 -1.201181e-002 -1.760357e-003 5.739416e-003 9.059665e-003 -5.377036e-004 3.409499e-004 2.002974e-004 8.311919e-004 1.740587e-004 5.982337e-004 -7.101020e-005 5.133217e-005 4.789309e-004 1.817192e-004 6.693351e-004 2.599390e-004 -9.735222e-004
<VARIANCE> 39
 4.844096e+001 3.621108e+001 3.866670e+001 6.978370e+001 3.574048e+001 5.803355e+001 3.076757e+001 3.834480e+001 3.661008e+001 3.799440e+001 4.310219e+001 3.552988e+001 7.232968e+001 1.688042e+000 1.241822e+000 1.402784e+000 2.141265e+000 1.683576e+000 2.244289e+000 1.789555e+000 2.222327e+000 1.965383e+000 1.947244e+000 2.017901e+000 1.660459e+000 1.608309e+000 2.321926e-001 1.754688e-001 2.094902e-001 2.988525e-001 2.759420e-001 3.586754e-001 3.259625e-001 3.832872e-001 3.357857e-001 3.381031e-001 3.272228e-001 2.848838e-001 1.977206e-001
<GCONST> 1.116533e+002
<STATE> 3
<MEAN> 39
 -2.521099e-001 -2.397221e+000 1.129513e-001 -5.017581e+000 5.547896e-001 -1.561170e+000 2.578505e+000 -2.221740e+000 -1.361377e-001 -4.965470e-001 -3.631554e+000 -1.843083e+000 5.752241e+001 -4.478934e-003 2.037136e-003 2.862453e-003 -5.109967e-004 -7.085882e-003 -4.968176e-003 -1.228814e-003 2.924876e-003 5.098488e-004 -1.123763e-002 1.435876e-003 6.630480e-003 4.617651e-003 -3.832141e-004 3.135934e-004 4.479237e-005 7.637593e-004 2.848376e-004 6.915777e-004 2.652631e-005 9.729802e-006 3.760324e-004 1.579490e-004 5.901661e-004 4.696413e-005 -8.643280e-004
<VARIANCE> 39
 4.873905e+001 3.647585e+001 3.855645e+001 6.954391e+001 3.582618e+001 5.870580e+001 3.101834e+001 3.847950e+001 3.664884e+001 3.804048e+001 4.299176e+001 3.544517e+001 7.228676e+001 1.693780e+000 1.247833e+000 1.408548e+000 2.141602e+000 1.684899e+000 2.268586e+000 1.798199e+000 2.219447e+000 1.967124e+000 1.954037e+000 2.017316e+000 1.655967e+000 1.622667e+000 2.336767e-001 1.762703e-001 2.108416e-001 2.992169e-001 2.753934e-001 3.620286e-001 3.267923e-001 3.827757e-001 3.361906e-001 3.392663e-001 3.268256e-001 2.846973e-001 1.994697e-001
<GCONST> 1.117592e+002
<STATE> 4
<MEAN> 39
 -1.962495e-001 -2.253907e+000 1.584351e-001 -5.008023e+000 4.894384e-001 -1.559501e+000 2.502105e+000 -2.339173e+000 -2.475864e-001 -5.281683e-001 -3.639184e+000 -1.742789e+000 5.747649e+001 -5.843564e-003 3.955102e-003 3.080816e-003 4.360919e-003 -5.082143e-003 8.210097e-005 -2.460631e-003 3.259846e-003 1.572907e-003 -1.025503e-002 6.712914e-003 5.760467e-003 -2.315495e-003 -1.390325e-004 3.582950e-004 -1.226290e-004 5.013666e-004 3.217851e-004 7.843871e-004 5.927227e-005 -9.665057e-005 9.884605e-005 1.858142e-004 4.268600e-004 -2.120237e-004 -7.141134e-004
<VARIANCE> 39
 4.835697e+001 3.685166e+001 3.808762e+001 7.023476e+001 3.605086e+001 5.972934e+001 3.133183e+001 3.863777e+001 3.672555e+001 3.767799e+001 4.286657e+001 3.450256e+001 7.232420e+001 1.652993e+000 1.232873e+000 1.389831e+000 2.133542e+000 1.655837e+000 2.285428e+000 1.805159e+000 2.196324e+000 1.942140e+000 1.956449e+000 2.023206e+000 1.629978e+000 1.604775e+000 2.294068e-001 1.743565e-001 2.085452e-001 2.980002e-001 2.699963e-001 3.633849e-001 3.261485e-001 3.781734e-001 3.320109e-001 3.412417e-001 3.268699e-001 2.826144e-001 1.958391e-001
<GCONST> 1.115476e+002
<TRANSP> 5
 0.000000e+000 1.000000e+000 0.000000e+000 0.000000e+000 0.000000e+000
 0.000000e+000 7.956573e-001 2.043428e-001 0.000000e+000 0.000000e+000
 0.000000e+000 0.000000e+000 7.956578e-001 2.043423e-001 0.000000e+000
 0.000000e+000 0.000000e+000 0.000000e+000 9.299417e-001 7.005838e-002
 0.000000e+000 0.000000e+000 0.000000e+000 0.000000e+000 0.000000e+000
<ENDHMM>
~h "ia"
<BEGINHMM>
<NUMSTATES> 5
<STATE> 2
<MEAN> 39
 7.459605e-001 -1.294906e+000 1.196436e+000 -4.684191e+000 -1.269063e+000 -2.858463e+000 1.768079e+000 -3.107933e+000 -6.509095e-001 4.189691e-001 -2.479553e+000 -1.879797e+000 5.798730e+001 2.239152e-003 -1.452582e-002 4.098522e-003 2.765737e-003 -1.058287e-002 -1.842430e-002 9.590555e-003 1.638030e-002 6.656955e-003 -4.618754e-003 1.022071e-002 7.956594e-003 7.190202e-003 3.140034e-004 -1.591835e-004 -1.531425e-003 -1.222394e-003 4.325077e-004 8.663344e-004 6.714188e-004 8.411333e-004 2.444051e-004 -1.412962e-004 -4.883432e-004 -3.777651e-004 6.858694e-005
<VARIANCE> 39
 5.393084e+001 3.299700e+001 5.442194e+001 6.072824e+001 5.426763e+001 7.784584e+001 3.333619e+001 3.948133e+001 4.292271e+001 3.325697e+001 3.657985e+001 3.751261e+001 6.770556e+001 1.748110e+000 1.243564e+000 1.604121e+000 2.190849e+000 1.917262e+000 2.502587e+000 1.827196e+000 2.303952e+000 2.168886e+000 1.825742e+000 1.879390e+000 1.852092e+000 9.941161e-001 2.176751e-001 1.614970e-001 2.013881e-001 3.022806e-001 2.721455e-001 3.740504e-001 3.343966e-001 3.824545e-001 3.421862e-001 3.130567e-001 3.201669e-001 3.014297e-001 1.207442e-001
<GCONST> 1.119809e+002
<STATE> 3
<MEAN> 39
 7.585620e-001 -1.356695e+000 1.199909e+000 -4.681987e+000 -1.306741e+000 -2.932883e+000 1.815878e+000 -3.033982e+000 -6.180789e-001 4.052323e-001 -2.444387e+000 -1.852379e+000 5.801866e+001 3.152550e-003 -1.456778e-002 -2.463792e-003 -1.737602e-003 -9.101988e-003 -1.416434e-002 1.251145e-002 1.898336e-002 7.967552e-003 -5.083266e-003 7.752054e-003 6.401658e-003 6.735251e-003 1.010830e-004 9.735632e-005 -1.462711e-003 -1.054985e-003 6.244822e-004 1.029264e-003 6.846873e-004 6.882689e-004 3.556815e-004 -1.124437e-005 -7.853415e-004 -2.972250e-004 -3.072370e-004
<VARIANCE> 39
 5.400702e+001 3.316395e+001 5.517744e+001 6.000545e+001 5.465725e+001 7.889709e+001 3.305172e+001 3.952929e+001 4.240389e+001 3.311530e+001 3.624348e+001 3.759405e+001 6.789410e+001 1.733930e+000 1.243208e+000 1.609857e+000 2.173965e+000 1.915738e+000 2.497133e+000 1.810540e+000 2.295334e+000 2.147551e+000 1.810176e+000 1.869251e+000 1.845539e+000 9.908593e-001 2.155313e-001 1.614915e-001 2.015317e-001 2.996645e-001 2.702757e-001 3.734218e-001 3.309141e-001 3.804469e-001 3.404073e-001 3.101349e-001 3.176195e-001 2.997645e-001 1.202450e-001
<GCONST> 1.118481e+002
<STATE> 4
<MEAN> 39
 6.747371e-001 -1.379143e+000 9.650736e-001 -4.639685e+000 -1.236223e+000 -2.835580e+000 2.015665e+000 -2.873454e+000 -4.408871e-001 3.588623e-001 -2.356185e+000 -1.809288e+000 5.788079e+001 1.423990e-003 -1.087901e-002 -1.034925e-002 -4.390059e-003 -5.015241e-003 -5.187875e-003 1.506316e-002 1.693527e-002 1.031187e-002 -2.643588e-003 2.791758e-003 3.339163e-003 2.025089e-003 -2.891626e-004 2.919837e-004 -1.018095e-003 -4.501326e-004 5.073231e-004 1.076275e-003 5.283871e-004 2.833790e-004 4.703175e-004 4.121732e-005 -6.335149e-004 -1.094777e-004 -6.534852e-004
<VARIANCE> 39
 5.420873e+001 3.321191e+001 5.346987e+001 6.029918e+001 5.500000e+001 7.803709e+001 3.137575e+001 3.930050e+001 4.092117e+001 3.274247e+001 3.520366e+001 3.755636e+001 6.682045e+001 1.670730e+000 1.222937e+000 1.575636e+000 2.118459e+000 1.904546e+000 2.387449e+000 1.757076e+000 2.274388e+000 2.095964e+000 1.768846e+000 1.836754e+000 1.823537e+000 9.590746e-001 2.048972e-001 1.580954e-001 1.985424e-001 2.865857e-001 2.654549e-001 3.567902e-001 3.202863e-001 3.762723e-001 3.348261e-001 3.021469e-001 3.133977e-001 2.954543e-001 1.147836e-001
<GCONST> 1.110151e+002
<TRANSP> 5
 0.000000e+000 1.000000e+000 0.000000e+000 0.000000e+000 0.000000e+000
 0.000000e+000 7.845620e-001 2.154380e-001 0.000000e+000 0.000000e+000
 0.000000e+000 0.000000e+000 7.845616e-001 2.154384e-001 0.000000e+000
 0.000000e+000 0.000000e+000 0.000000e+000 9.175849e-001 8.241506e-002
 0.000000e+000 0.000000e+000 0.000000e+000 0.000000e+000 0.000000e+000
<ENDHMM>
~h "ih"
<BEGINHMM>
<NUMSTATES> 5
<STATE> 2
<MEAN> 39
 -1.628904e+000 -1.071680e+000 -9.176876e-002 -4.161660e+000 8.120976e-001 -3.304377e+000 2.241863e+000 -1.527616e+000 2.156205e-001 3.621881e-001 -2.369671e+000 -1.773286e+000 5.844152e+001 -6.910586e-003 5.505271e-003 4.323365e-003 -8.980365e-004 -4.692221e-003 -3.482320e-002 -9.633170e-003 5.247927e-003 -4.092362e-003 -2.014245e-003 -5.219689e-004 -9.833305e-004 2.629934e-002 -1.648671e-004 5.782855e-005 9.904617e-004 1.454434e-003 -4.722427e-004 -5.473531e-004 -1.279920e-004 -2.990872e-004 3.327765e-004 6.595649e-004 3.502968e-004 6.290840e-004 -1.637295e-003
<VARIANCE> 39
 6.815063e+001 3.180229e+001 4.035104e+001 7.139729e+001 5.219735e+001 7.360004e+001 2.856381e+001 3.583065e+001 4.358512e+001 3.274721e+001 3.342160e+001 3.283631e+001 6.074469e+001 2.333749e+000 1.186678e+000 1.629633e+000 2.319021e+000 2.077622e+000 2.561296e+000 1.848304e+000 2.183626e+000 2.410434e+000 1.798811e+000 1.907872e+000 1.757328e+000 1.162537e+000 2.895305e-001 1.614992e-001 2.316130e-001 3.092729e-001 2.989198e-001 3.993390e-001 3.427224e-001 3.793007e-001 3.958150e-001 3.226613e-001 3.345172e-001 3.134472e-001 1.483552e-001
<GCONST> 1.130363e+002
<STATE> 3
<MEAN> 39
 -1.661463e+000 -1.044347e+000 -5.759384e-002 -4.147987e+000 7.858779e-001 -3.467709e+000 2.193035e+000 -1.509203e+000 2.009127e-001 3.609275e-001 -2.370307e+000 -1.769134e+000 5.854161e+001 -7.350637e-003 5.714785e-003 9.118012e-003 5.259513e-003 -6.630010e-003 -3.735154e-002 -1.055077e-002 3.586091e-003 -2.806612e-003 1.071606e-003 7.825163e-004 1.753739e-003 1.861254e-002 -2.812631e-005 7.115117e-005 1.051991e-003 1.271663e-003 -3.604757e-004 -3.747137e-004 -1.847796e-004 -4.267730e-004 1.374273e-004 7.466606e-004 2.853426e-004 5.458339e-004 -1.740461e-003
<VARIANCE> 39
 6.878387e+001 3.185172e+001 4.089518e+001 7.051053e+001 5.277306e+001 7.429777e+001 2.905628e+001 3.571021e+001 4.350729e+001 3.278745e+001 3.353170e+001 3.296589e+001 5.992388e+001 2.362156e+000 1.191016e+000 1.650440e+000 2.317921e+000 2.100542e+000 2.582535e+000 1.848260e+000 2.177759e+000 2.407174e+000 1.801934e+000 1.911536e+000 1.759100e+000 1.150653e+000 2.924759e-001 1.619751e-001 2.343177e-001 3.106800e-001 3.008726e-001 3.993226e-001 3.423932e-001 3.778626e-001 3.963335e-001 3.232166e-001 3.347984e-001 3.142898e-001 1.466057e-001
<GCONST> 1.131383e+002
<STATE> 4
<MEAN> 39
 -1.749591e+000 -1.007774e+000 1.345344e-002 -4.020013e+000 7.372666e-001 -3.644495e+000 2.123395e+000 -1.519687e+000 2.138574e-001 3.575704e-001 -2.343168e+000 -1.683296e+000 5.852420e+001 -5.204418e-003 5.874711e-003 1.780839e-002 1.114903e-002 -8.278000e-003 -3.599589e-002 -1.292685e-002 -1.158528e-003 -2.995444e-003 4.783100e-003 1.248182e-003 5.507251e-003 4.727137e-003 2.657016e-004 2.625519e-005 9.529853e-004 5.506513e-004 -2.199484e-004 1.293971e-004 -1.743220e-004 -5.149712e-004 -2.695848e-004 4.405084e-004 1.091248e-004 3.193393e-004 -1.468505e-003
<VARIANCE> 39
 6.845569e+001 3.174246e+001 4.166057e+001 6.710308e+001 5.404867e+001 7.406436e+001 3.022847e+001 3.552603e+001 4.296143e+001 3.292771e+001 3.341338e+001 3.276543e+001 5.817734e+001 2.315940e+000 1.174668e+000 1.647770e+000 2.253788e+000 2.132489e+000 2.543331e+000 1.825487e+000 2.155311e+000 2.363790e+000 1.797821e+000 1.901417e+000 1.740187e+000 1.122620e+000 2.858364e-001 1.606921e-001 2.352532e-001 3.068903e-001 3.043492e-001 3.897673e-001 3.374145e-001 3.731159e-001 3.917595e-001 3.220203e-001 3.336763e-001 3.113759e-001 1.428480e-001
<GCONST> 1.128260e+002
<TRANSP> 5
 0.000000e+000 1.000000e+000 0.000000e+000 0.000000e+000 0.000000e+000
 0.000000e+000 7.864806e-001 2.135195e-001 0.000000e+000 0.000000e+000
 0.000000e+000 0.000000e+000 7.864796e-001 2.135204e-001 0.000000e+000
 0.000000e+000 0.000000e+000 0.000000e+000 9.195974e-001 8.040259e-002
 0.000000e+000 0.000000e+000 0.000000e+000 0.000000e+000 0.000000e+000
<ENDHMM>
~h "iy"
<BEGINHMM>
<NUMSTATES> 5
<STATE> 2
<MEAN> 39
 -4.898292e-001 -7.071280e-001 3.860705e+000 -5.233536e+000 -3.448555e-001 -3.738513e+000 6.828818e-001 -2.768939e+000 -1.915130e+000 1.549381e-001 -3.006959e+000 -8.782220e-001 5.799951e+001 -1.750525e-003 -1.641942e-003 1.040903e-002 2.394914e-002 -5.407354e-003 2.736916e-002 2.256618e-002 -5.050167e-003 1.795514e-002 -1.107734e-002 6.695456e-003 -9.566296e-005 -3.235205e-002 2.243472e-004 -1.145570e-003 -2.969132e-003 1.015523e-003 1.029160e-003 1.662549e-003 9.315936e-004 7.785562e-004 1.981181e-003 1.051621e-003 -4.436790e-004 -8.477785e-004 -9.410591e-004
<VARIANCE> 39
 5.404251e+001 3.022958e+001 7.922972e+001 6.460424e+001 5.009506e+001 7.430981e+001 3.842991e+001 3.874156e+001 5.198368e+001 3.356887e+001 3.500734e+001 3.371976e+001 5.924824e+001 1.917448e+000 1.133418e+000 1.703964e+000 2.164237e+000 1.957326e+000 2.208283e+000 1.748953e+000 2.418243e+000 2.072345e+000 1.937330e+000 1.913929e+000 1.755067e+000 1.040486e+000 2.360473e-001 1.581009e-001 2.187767e-001 3.164801e-001 3.011812e-001 3.337888e-001 3.158404e-001 4.098620e-001 3.319634e-001 3.405098e-001 3.224377e-001 2.978608e-001 1.282953e-001
<GCONST> 1.125161e+002
<STATE> 3
<MEAN> 39
 -4.978528e-001 -7.265201e-001 3.869976e+000 -5.103282e+000 -3.558436e-001 -3.577256e+000 8.097593e-001 -2.786230e+000 -1.799479e+000 1.117393e-001 -2.974104e+000 -8.875583e-001 5.782288e+001 -1.798122e-004 -7.350907e-003 -4.755490e-003 2.801824e-002 -2.514708e-004 3.478330e-002 2.662189e-002 -1.319915e-003 2.667465e-002 -5.642193e-003 4.241543e-003 -4.514119e-003 -3.609562e-002 5.532167e-004 -1.298415e-003 -2.913363e-003 3.364905e-004 7.952568e-004 8.717654e-004 5.547815e-004 7.298292e-004 1.325451e-003 1.006182e-003 -6.455725e-004 -9.265852e-004 -3.513152e-004
<VARIANCE> 39
 5.321224e+001 3.032686e+001 7.888776e+001 6.353748e+001 4.881001e+001 7.371095e+001 3.723194e+001 3.877133e+001 5.041908e+001 3.351825e+001 3.433009e+001 3.347071e+001 5.963898e+001 1.882313e+000 1.138865e+000 1.732731e+000 2.144450e+000 1.913978e+000 2.207585e+000 1.728579e+000 2.418477e+000 2.059052e+000 1.924109e+000 1.888692e+000 1.733786e+000 1.044147e+000 2.328323e-001 1.584532e-001 2.210078e-001 3.145472e-001 2.951815e-001 3.329935e-001 3.123015e-001 4.109568e-001 3.302857e-001 3.376921e-001 3.191026e-001 2.941009e-001 1.284037e-001
<GCONST> 1.122155e+002
<STATE> 4
<MEAN> 39
 -4.533257e-001 -7.405754e-001 3.764126e+000 -4.902825e+000 -3.872200e-001 -3.098734e+000 1.042956e+000 -2.834466e+000 -1.563486e+000 1.167768e-001 -2.965631e+000 -9.172396e-001 5.736084e+001 2.945682e-003 -1.668289e-002 -3.354250e-002 3.255627e-002 8.518795e-003 4.471669e-002 3.408799e-002 3.289269e-003 3.759110e-002 2.562290e-003 8.858146e-004 -1.195980e-002 -4.218704e-002 5.796052e-004 -8.647048e-004 -2.151641e-003 -3.943035e-004 3.260933e-004 -3.336324e-004 1.681557e-004 3.275456e-004 7.523876e-005 5.059905e-004 -6.412995e-004 -6.764337e-004 2.969733e-004
<VARIANCE> 39
 5.042937e+001 3.031948e+001 7.685014e+001 6.269341e+001 4.555972e+001 7.262891e+001 3.610703e+001 3.843718e+001 4.793433e+001 3.422062e+001 3.360574e+001 3.229382e+001 6.056756e+001 1.740599e+000 1.127841e+000 1.731097e+000 2.065455e+000 1.815145e+000 2.157230e+000 1.694310e+000 2.359690e+000 2.008925e+000 1.892229e+000 1.844149e+000 1.674404e+000 1.015628e+000 2.177725e-001 1.558506e-001 2.178150e-001 3.015168e-001 2.810430e-001 3.252917e-001 3.062921e-001 4.019375e-001 3.253490e-001 3.317240e-001 3.149424e-001 2.837054e-001 1.238337e-001
<GCONST> 1.111799e+002
<TRANSP> 5
 0.000000e+000 1.000000e+000 0.000000e+000 0.000000e+000 0.000000e+000
 0.000000e+000 7.902504e-001 2.097497e-001 0.000000e+000 0.000000e+000
 0.000000e+000 0.000000e+000 7.902511e-001 2.097489e-001 0.000000e+000
 0.000000e+000 0.000000e+000 0.000000e+000 9.239982e-001 7.600182e-002
 0.000000e+000 0.000000e+000 0.000000e+000 0.000000e+000 0.000000e+000
<ENDHMM>
~h "jh"
<BEGINHMM>
<NUMSTATES> 5
<STATE> 2
<MEAN> 39
 -8.228155e-001 -1.791930e+000 -2.246004e-001 -5.389798e+000 2.322348e+000 2.099787e+000 2.034502e+000 -2.431524e+000 -3.146433e-001 4.319289e+000 -2.209483e+000 -1.497204e+000 5.665519e+001 1.296460e-001 5.247600e-002 1.439823e-003 -2.708291e-001 -6.954964e-002 -6.728493e-002 -9.674554e-002 -6.497913e-002 -1.870035e-001 4.811369e-002 -1.128115e-001 -1.094002e-001 2.679690e-001 3.795562e-003 6.479496e-004 6.758442e-003 -1.177205e-003 -6.641239e-003 -4.940858e-003 -5.307141e-003 -3.872290e-003 -3.756387e-003 1.625797e-003 -4.363005e-003 8.813947e-004 -4.277415e-003
<VARIANCE> 39
 4.502822e+001 1.219104e+001 2.464677e+001 9.869762e+001 2.836649e+001 2.699935e+001 3.335406e+001 3.490227e+001 5.010487e+001 2.389139e+001 4.696965e+001 3.899518e+001 7.475397e+001 1.926093e+000 6.316403e-001 1.097675e+000 3.001735e+000 1.385856e+000 1.808129e+000 1.906362e+000 2.002595e+000 2.573836e+000 1.962738e+000 2.206327e+000 1.837894e+000 1.393178e+000 2.814830e-001 1.141164e-001 1.834105e-001 3.881323e-001 2.505537e-001 2.980115e-001 3.525659e-001 3.439978e-001 4.352908e-001 3.779160e-001 3.440017e-001 3.096927e-001 1.963696e-001
<GCONST> 1.089385e+002
<STATE> 3
<MEAN> 39
 -2.542129e-001 -1.574919e+000 -1.295085e-001 -6.478449e+000 1.974200e+000 1.749405e+000 1.596258e+000 -2.785661e+000 -1.111770e+000 4.507035e+000 -2.734580e+000 -1.916399e+000 5.768688e+001 1.367824e-001 5.190917e-002 3.402577e-002 -2.560810e-001 -9.424538e-002 -8.927843e-002 -1.143544e-001 -8.220783e-002 -1.960078e-001 5.056482e-002 -1.291211e-001 -9.580451e-002 2.390921e-001 1.184949e-003 -3.149668e-005 9.093015e-003 5.302124e-003 -5.994703e-003 -5.614284e-003 -4.208246e-003 -4.403020e-003 -1.859611e-003 2.207333e-004 -3.717891e-003 3.805883e-003 -7.549484e-003
<VARIANCE> 39
 4.890883e+001 1.258029e+001 2.945073e+001 1.046056e+002 3.042311e+001 3.129230e+001 3.690879e+001 3.789230e+001 5.573949e+001 2.474421e+001 5.411061e+001 4.072953e+001 7.329079e+001 2.122958e+000 6.605113e-001 1.174986e+000 3.244481e+000 1.422772e+000 2.027404e+000 2.027304e+000 2.088993e+000 2.689034e+000 2.021949e+000 2.406646e+000 1.892933e+000 1.478930e+000 3.062976e-001 1.199084e-001 1.891204e-001 4.205849e-001 2.551995e-001 3.264890e-001 3.744045e-001 3.511237e-001 4.369249e-001 3.797367e-001 3.663473e-001 3.160880e-001 2.094246e-001
<GCONST> 1.113703e+002
<STATE> 4
<MEAN> 39
 7.361540e-001 -1.130206e+000 5.509567e-001 -7.615654e+000 9.400376e-001 8.848867e-001 1.147330e+000 -3.612470e+000 -2.198416e+000 4.809317e+000 -3.615875e+000 -2.025401e+000 5.888464e+001 1.041039e-001 3.235542e-002 9.453611e-002 -1.588962e-001 -1.075409e-001 -1.259215e-001 -1.156322e-001 -9.823874e-002 -1.634779e-001 2.324478e-002 -1.213096e-001 -3.868237e-002 1.641918e-001 -3.585816e-003 -1.771343e-003 9.214444e-003 1.172337e-002 -3.073594e-003 -5.281238e-003 -1.177726e-003 -1.711894e-003 2.430855e-003 -2.602776e-003 8.263669e-004 6.690891e-003 -8.084141e-003
<VARIANCE> 39
 5.253632e+001 1.384423e+001 4.152542e+001 1.024063e+002 3.413292e+001 4.170506e+001 4.291621e+001 4.190358e+001 6.062207e+001 2.653324e+001 6.595844e+001 4.126618e+001 6.771852e+001 2.407979e+000 7.503779e-001 1.281868e+000 3.382438e+000 1.524318e+000 2.476861e+000 2.253419e+000 2.218462e+000 2.802140e+000 2.137754e+000 2.787426e+000 1.938975e+000 1.683165e+000 3.393106e-001 1.360543e-001 1.961460e-001 4.452478e-001 2.689717e-001 3.940679e-001 4.189313e-001 3.635582e-001 4.286391e-001 3.858701e-001 4.134977e-001 3.280097e-001 2.432953e-001
<GCONST> 1.150287e+002
<TRANSP> 5
 0.000000e+000 1.000000e+000 0.000000e+000 0.000000e+000 0.000000e+000
 0.000000e+000 7.658439e-001 2.341561e-001 0.000000e+000 0.000000e+000
 0.000000e+000 0.000000e+000 7.658440e-001 2.341560e-001 0.000000e+000
 0.000000e+000 0.000000e+000 0.000000e+000 8.984022e-001 1.015978e-001
 0.000000e+000 0.000000e+000 0.000000e+000 0.000000e+000 0.000000e+000
<ENDHMM>
~h "ng"
<BEGINHMM>
<NUMSTATES> 5
<STATE> 2
<MEAN> 39
 1.359632e+000 -1.402565e+000 1.265936e+000 -5.404719e+000 2.596184e+000 2.536033e-001 3.085665e+000 -5.246518e+000 -2.337995e+000 8.287559e-001 -6.005836e+000 -1.626911e+000 5.612186e+001 -2.723760e-002 2.817727e-002 -4.616225e-002 1.639872e-001 -1.110451e-002 1.741685e-001 1.063280e-001 -6.233168e-003 9.060767e-002 7.723835e-002 2.567339e-002 1.269012e-003 -2.246442e-001 -4.874450e-003 3.649810e-003 8.785722e-003 6.528835e-003 -4.046600e-003 -4.440193e-003 3.651686e-004 2.786675e-003 2.898872e-003 8.740260e-004 2.941859e-003 5.031314e-003 -4.209523e-003
<VARIANCE> 39
 1.837011e+001 1.995038e+001 7.128952e+001 6.651321e+001 2.597106e+001 5.286359e+001 3.655652e+001 3.612971e+001 4.183964e+001 2.295462e+001 4.675856e+001 3.881383e+001 7.987933e+001 2.831782e-001 6.651478e-001 1.827976e+000 1.027667e+000 1.449157e+000 1.397516e+000 1.398170e+000 2.053929e+000 1.733434e+000 1.344943e+000 2.241170e+000 1.778866e+000 3.240015e-001 3.744034e-002 7.922684e-002 1.567451e-001 1.510482e-001 2.220816e-001 1.972995e-001 2.322672e-001 3.694530e-001 2.760061e-001 2.444318e-001 3.119334e-001 2.985580e-001 2.922698e-002
<GCONST> 9.728210e+001
<STATE> 3
<MEAN> 39
 1.184799e+000 -1.265871e+000 1.137407e+000 -4.587126e+000 2.503386e+000 1.008047e+000 3.570807e+000 -5.219659e+000 -1.876723e+000 1.204154e+000 -5.856144e+000 -1.564042e+000 5.502575e+001 -4.995711e-002 4.175055e-002 -8.194536e-003 1.897805e-001 -2.852895e-002 1.510199e-001 1.046744e-001 8.302300e-003 1.048199e-001 7.963463e-002 3.899235e-002 2.480544e-002 -2.396066e-001 -5.228285e-003 2.402396e-003 9.258975e-003 4.753415e-003 -3.681513e-003 -6.613496e-003 -1.094548e-003 4.988255e-003 3.754040e-003 -5.987048e-004 2.207171e-003 5.251101e-003 -1.946906e-003
<VARIANCE> 39
 1.824436e+001 1.809224e+001 5.960530e+001 6.331550e+001 2.354837e+001 4.460272e+001 3.249641e+001 3.475380e+001 4.152212e+001 2.217153e+001 4.650389e+001 3.667166e+001 7.604251e+001 2.554790e-001 5.906963e-001 1.584266e+000 9.535741e-001 1.320901e+000 1.301682e+000 1.378070e+000 1.889694e+000 1.623466e+000 1.310735e+000 2.135443e+000 1.656433e+000 2.801299e-001 3.323727e-002 7.078527e-002 1.441535e-001 1.438730e-001 2.067159e-001 1.889948e-001 2.316950e-001 3.444673e-001 2.627162e-001 2.444649e-001 2.978619e-001 2.867807e-001 2.488446e-002
<GCONST> 9.446567e+001
<STATE> 4
<MEAN> 39
 -5.058559e-002 -8.655850e-001 1.323462e+000 -2.360347e+000 2.364336e+000 1.939476e+000 4.617540e+000 -4.900510e+000 -7.888026e-001 1.700199e+000 -4.829732e+000 -5.748290e-001 5.233883e+001 -6.958397e-002 3.075562e-002 2.433006e-002 1.699075e-001 -3.958764e-002 8.648343e-002 6.950104e-002 3.770116e-002 1.064406e-001 6.151404e-002 5.642208e-002 5.081531e-002 -2.044150e-001 -2.930898e-003 9.087764e-005 3.322477e-003 2.119404e-004 -9.518655e-004 -5.018888e-003 -1.843955e-003 3.996206e-003 1.967322e-003 -2.444819e-003 2.464326e-003 3.061482e-003 1.640899e-003
<VARIANCE> 39
 1.902191e+001 1.284836e+001 3.827457e+001 5.356127e+001 1.838882e+001 2.985881e+001 2.483715e+001 2.920599e+001 3.569481e+001 1.954116e+001 4.328249e+001 3.076745e+001 6.239694e+001 2.045349e-001 4.459517e-001 1.118146e+000 8.373355e-001 1.085242e+000 1.123868e+000 1.317944e+000 1.630299e+000 1.447594e+000 1.262326e+000 1.789036e+000 1.392840e+000 2.046411e-001 2.782424e-002 5.973821e-002 1.210916e-001 1.349539e-001 1.822940e-001 1.797183e-001 2.340573e-001 3.084528e-001 2.501637e-001 2.437912e-001 2.672604e-001 2.583167e-001 1.875320e-002
<GCONST> 8.799708e+001
<TRANSP> 5
 0.000000e+000 1.000000e+000 0.000000e+000 0.000000e+000 0.000000e+000
 0.000000e+000 7.955248e-001 2.044752e-001 0.000000e+000 0.000000e+000
 0.000000e+000 0.000000e+000 7.955248e-001 2.044751e-001 0.000000e+000
 0.000000e+000 0.000000e+000 0.000000e+000 9.348335e-001 6.516643e-002
 0.000000e+000 0.000000e+000 0.000000e+000 0.000000e+000 0.000000e+000
<ENDHMM>
~h "ow"
<BEGINHMM>
<NUMSTATES> 5
<STATE> 2
<MEAN> 39
 -2.363122e-001 -1.046009e+000 2.003000e-001 -4.135156e+000 -1.040957e-001 1.387454e-002 2.643730e+000 -2.726313e+000 4.965129e-001 6.573216e-001 -2.328854e+000 -1.532997e+000 5.478897e+001 9.200757e-003 8.161565e-003 -1.850227e-003 -3.019059e-002 -4.738015e-004 1.196971e-003 -1.452758e-002 1.181575e-002 -7.331739e-003 4.674873e-004 -1.245490e-003 -7.993940e-003 3.270090e-002 3.775235e-004 4.817530e-004 2.068270e-004 -3.511718e-004 2.937289e-004 -8.397357e-005 -3.885035e-004 -8.715241e-004 -9.398613e-004 3.633202e-004 -4.686521e-004 -5.096355e-004 9.381698e-004
<VARIANCE> 39
 4.604148e+001 2.636389e+001 3.432323e+001 7.944233e+001 4.292788e+001 5.822833e+001 2.601958e+001 3.491877e+001 3.472291e+001 3.290915e+001 3.307948e+001 3.304890e+001 6.941416e+001 1.304427e+000 9.651070e-001 1.272314e+000 2.019347e+000 1.628609e+000 1.827006e+000 1.669564e+000 2.087981e+000 1.865915e+000 1.725888e+000 1.701470e+000 1.606894e+000 8.505234e-001 1.677246e-001 1.365677e-001 1.767324e-001 2.773982e-001 2.511296e-001 2.823311e-001 3.157126e-001 3.632902e-001 3.252209e-001 3.011422e-001 2.968193e-001 2.758525e-001 1.013197e-001
<GCONST> 1.064108e+002
<STATE> 3
<MEAN> 39
 -1.808565e-001 -9.972110e-001 1.978476e-001 -4.295584e+000 -1.087548e-001 1.044219e-002 2.564352e+000 -2.680243e+000 4.352919e-001 6.661083e-001 -2.349325e+000 -1.581751e+000 5.497896e+001 1.109663e-002 1.060211e-002 -8.116876e-004 -3.222026e-002 7.102008e-004 5.608766e-004 -1.653697e-002 7.540765e-003 -1.302150e-002 2.249603e-003 -3.952744e-003 -1.030763e-002 3.735023e-002 3.667487e-004 4.869692e-004 1.600973e-004 -2.439361e-004 3.225241e-004 1.021617e-005 -2.828012e-004 -9.552799e-004 -1.228051e-003 3.312227e-004 -5.841260e-004 -4.391405e-004 9.457506e-004
<VARIANCE> 39
 4.688582e+001 2.648855e+001 3.448007e+001 8.168944e+001 4.296232e+001 5.826623e+001 2.630360e+001 3.522606e+001 3.566945e+001 3.332941e+001 3.403217e+001 3.326694e+001 6.866201e+001 1.350632e+000 9.729252e-001 1.276622e+000 2.085291e+000 1.641702e+000 1.830039e+000 1.687378e+000 2.104954e+000 1.884619e+000 1.742813e+000 1.731207e+000 1.615167e+000 8.740926e-001 1.741533e-001 1.382020e-001 1.774762e-001 2.844851e-001 2.533731e-001 2.824975e-001 3.183600e-001 3.658494e-001 3.271432e-001 3.038681e-001 3.001970e-001 2.760486e-001 1.042279e-001
<GCONST> 1.068862e+002
<STATE> 4
<MEAN> 39
 -1.148329e-001 -8.104336e-001 3.292412e-001 -4.572118e+000 1.912317e-002 1.278386e-002 2.302746e+000 -2.714960e+000 6.636187e-002 8.727500e-001 -2.573401e+000 -1.591233e+000 5.534642e+001 1.917409e-002 1.576332e-002 4.250992e-003 -4.286060e-002 -4.197279e-003 -7.413864e-003 -2.380596e-002 -3.431453e-003 -3.000990e-002 5.972247e-003 -1.508029e-002 -1.460761e-002 5.097344e-002 3.374346e-004 3.477437e-004 2.821893e-004 -4.061120e-004 -1.034961e-004 -2.483993e-004 -3.331009e-004 -8.593344e-004 -9.991311e-004 1.387476e-004 -6.585534e-004 -1.618687e-004 4.446179e-004
<VARIANCE> 39
 4.785574e+001 2.598380e+001 3.514480e+001 8.645357e+001 4.165022e+001 5.652110e+001 2.782010e+001 3.680912e+001 3.942260e+001 3.420359e+001 3.840617e+001 3.253975e+001 6.734534e+001 1.435015e+000 9.536810e-001 1.259739e+000 2.227355e+000 1.643447e+000 1.810620e+000 1.739520e+000 2.130357e+000 1.923535e+000 1.785143e+000 1.849921e+000 1.593848e+000 9.053650e-001 1.869662e-001 1.383778e-001 1.762915e-001 2.994727e-001 2.573343e-001 2.832167e-001 3.261589e-001 3.706705e-001 3.309951e-001 3.124439e-001 3.140770e-001 2.725209e-001 1.078793e-001
<GCONST> 1.077444e+002
<TRANSP> 5
 0.000000e+000 1.000000e+000 0.000000e+000 0.000000e+000 0.000000e+000
 0.000000e+000 7.939079e-001 2.060921e-001 0.000000e+000 0.000000e+000
 0.000000e+000 0.000000e+000 7.939073e-001 2.060926e-001 0.000000e+000
 0.000000e+000 0.000000e+000 0.000000e+000 9.290180e-001 7.098199e-002
 0.000000e+000 0.000000e+000 0.000000e+000 0.000000e+000 0.000000e+000
<ENDHMM>
~h "th"
<BEGINHMM>
<NUMSTATES> 5
<STATE> 2
<MEAN> 39
 -9.775266e-001 -1.302179e+000 1.577472e+000 -4.067027e+000 1.227691e-001 -3.171385e+000 1.853875e+000 -2.226667e+000 -3.210742e-001 -1.217163e-001 -2.512062e+000 -1.363056e+000 5.728769e+001 5.769676e-003 2.708382e-003 1.556229e-002 3.410083e-003 -1.388356e-002 -1.767093e-002 -6.872855e-003 -2.491781e-003 -5.615718e-003 1.863904e-004 1.203103e-003 1.016886e-002 6.743490e-003 6.291121e-004 -2.633493e-004 2.311776e-004 -2.822876e-004 -3.253359e-004 2.853517e-004 -1.179836e-004 -3.835362e-004 -8.534830e-005 3.317973e-004 -2.338003e-004 -2.819861e-004 -2.980687e-004
<VARIANCE> 39
 6.481514e+001 3.313506e+001 4.838912e+001 6.287515e+001 4.909362e+001 6.825579e+001 3.189085e+001 3.932361e+001 3.996463e+001 3.219001e+001 3.158931e+001 3.367381e+001 6.166989e+001 2.187094e+000 1.227732e+000 1.576287e+000 2.201126e+000 2.002909e+000 2.308317e+000 1.860437e+000 2.563897e+000 2.073297e+000 1.947139e+000 1.803932e+000 1.828419e+000 1.000283e+000 2.572858e-001 1.653500e-001 2.112316e-001 3.214116e-001 3.042330e-001 3.621341e-001 3.438206e-001 4.342370e-001 3.409094e-001 3.431352e-001 3.208442e-001 3.094243e-001 1.187482e-001
<GCONST> 1.122454e+002
<STATE> 3
<MEAN> 39
 -9.454848e-001 -1.293562e+000 1.649912e+000 -4.053689e+000 5.635245e-002 -3.252256e+000 1.819862e+000 -2.242304e+000 -3.476285e-001 -1.167157e-001 -2.510198e+000 -1.320154e+000 5.731617e+001 8.923979e-003 1.108575e-003 1.648696e-002 1.569193e-003 -1.515250e-002 -1.626904e-002 -7.345898e-003 -4.326495e-003 -6.188828e-003 1.543849e-003 -1.408287e-004 8.485769e-003 5.687499e-003 6.147254e-004 -3.208292e-004 1.855719e-004 -4.129554e-004 -2.248895e-004 3.524167e-004 -4.554964e-005 -3.919246e-004 -1.245431e-004 2.692271e-004 -2.603628e-004 -3.701328e-004 -2.474742e-004
<VARIANCE> 39
 6.501350e+001 3.299962e+001 4.914415e+001 6.239874e+001 4.935046e+001 6.871301e+001 3.205241e+001 3.944982e+001 3.995573e+001 3.210710e+001 3.154715e+001 3.352834e+001 6.142350e+001 2.195520e+000 1.228952e+000 1.575655e+000 2.195475e+000 2.003285e+000 2.292043e+000 1.861101e+000 2.570874e+000 2.064407e+000 1.958359e+000 1.806615e+000 1.816958e+000 9.868618e-001 2.575497e-001 1.652762e-001 2.102531e-001 3.214206e-001 3.045508e-001 3.598496e-001 3.435320e-001 4.353522e-001 3.386024e-001 3.449239e-001 3.205269e-001 3.070726e-001 1.172761e-001
<GCONST> 1.122108e+002
<STATE> 4
<MEAN> 39
 -7.880771e-001 -1.239835e+000 1.708840e+000 -4.120702e+000 -1.428277e-001 -3.279252e+000 1.785874e+000 -2.341925e+000 -4.083197e-001 -1.406382e-001 -2.498290e+000 -1.275928e+000 5.728901e+001 1.234361e-002 -1.903691e-003 1.521345e-002 -2.515176e-003 -1.438208e-002 -1.252378e-002 -6.531335e-003 -6.936149e-003 -7.499986e-003 1.751983e-003 -3.001741e-003 4.119975e-003 4.448311e-003 3.756754e-004 -2.267571e-004 -1.503479e-005 -4.519067e-004 2.693229e-005 5.142328e-004 1.485686e-004 -3.078138e-004 -1.344542e-004 1.128061e-005 -2.056583e-004 -4.158477e-004 -1.833701e-004
<VARIANCE> 39
 6.471573e+001 3.271769e+001 5.043769e+001 6.266460e+001 4.935942e+001 6.880104e+001 3.212714e+001 3.973967e+001 4.014510e+001 3.200023e+001 3.151297e+001 3.322566e+001 6.022298e+001 2.159198e+000 1.221901e+000 1.565604e+000 2.182462e+000 1.981696e+000 2.244766e+000 1.846831e+000 2.559055e+000 2.048862e+000 1.962851e+000 1.801063e+000 1.790294e+000 9.714695e-001 2.523063e-001 1.642944e-001 2.073344e-001 3.191479e-001 3.015602e-001 3.526128e-001 3.404192e-001 4.321602e-001 3.339912e-001 3.447665e-001 3.184138e-001 3.012391e-001 1.151557e-001
<GCONST> 1.119404e+002
<TRANSP> 5
 0.000000e+000 1.000000e+000 0.000000e+000 0.000000e+000 0.000000e+000
 0.000000e+000 7.874959e-001 2.125041e-001 0.000000e+000 0.000000e+000
 0.000000e+000 0.000000e+000 7.874945e-001 2.125054e-001 0.000000e+000
 0.000000e+000 0.000000e+000 0.000000e+000 9.204237e-001 7.957627e-002
 0.000000e+000 0.000000e+000 0.000000e+000 0.000000e+000 0.000000e+000
<ENDHMM>
~h "uh"
<BEGINHMM>
<NUMSTATES> 5
<STATE> 2
<MEAN> 39
 3.002150e+000 2.545058e+000 8.678744e-001 -8.628950e+000 -2.654374e+000 -1.441595e+000 -1.126555e+000 -3.954246e+000 -4.480788e+000 4.489857e-001 -3.822296e+000 -1.650752e+000 5.536697e+001 -4.481169e-002 1.369842e-002 5.961069e-003 5.360874e-002 3.081043e-002 4.954335e-002 3.422575e-002 -7.182113e-004 3.742008e-002 -9.917215e-003 6.895850e-002 3.738076e-002 -9.898224e-002 -5.572311e-003 -5.770987e-003 7.857114e-004 7.266316e-003 5.816737e-003 2.238577e-003 3.887437e-003 2.757324e-003 6.484756e-003 2.700776e-003 2.844770e-003 2.154195e-003 -1.664062e-003
<VARIANCE> 39
 4.205815e+001 3.275790e+001 1.738735e+001 9.302023e+001 3.913345e+001 4.352671e+001 4.521919e+001 3.569126e+001 6.505547e+001 3.428468e+001 4.571443e+001 2.365469e+001 5.034460e+001 1.123973e+000 9.260746e-001 8.575252e-001 2.754066e+000 1.599480e+000 2.042941e+000 2.723365e+000 2.157596e+000 2.368621e+000 2.306409e+000 2.327230e+000 1.430331e+000 1.595697e+000 1.511860e-001 1.444231e-001 1.442402e-001 3.701214e-001 2.585094e-001 3.550040e-001 4.779117e-001 3.723767e-001 3.503085e-001 4.199063e-001 4.022245e-001 2.624084e-001 2.414603e-001
<GCONST> 1.105024e+002
<STATE> 3
<MEAN> 39
 2.728155e+000 2.569990e+000 8.950984e-001 -8.302768e+000 -2.443292e+000 -1.156232e+000 -9.103618e-001 -3.928366e+000 -4.231711e+000 4.179191e-001 -3.446507e+000 -1.448074e+000 5.485191e+001 -7.223962e-002 -1.567110e-002 1.004344e-002 9.051294e-002 5.868307e-002 6.015699e-002 5.381420e-002 1.226601e-002 7.068254e-002 5.164265e-003 7.946223e-002 4.731295e-002 -1.074428e-001 -4.980684e-003 -5.371425e-003 6.396535e-004 7.263551e-003 4.767847e-003 2.152586e-003 3.855427e-003 2.242260e-003 6.640506e-003 2.762664e-003 9.969164e-004 1.449497e-003 -1.870353e-003
<VARIANCE> 39
