~h "k"
<BEGINHMM> 
 	<NUMSTATES> 5 
 	<STATE> 2 
 	<MEAN> 39 
 		-9.216795e+00 -3.465033e+00 -6.423656e+00 -1.107353e+01 -8.423258e+00 -1.073858e+01 -1.108349e+01 -6.035468e+00 -3.409545e+00 -8.778076e+00 -3.299176e+00 -3.847632e+00 6.077811e+01 6.235573e-03 3.134236e-03 1.414692e-03 -1.294906e-03 -1.141914e-03 7.894422e-03 1.230384e-03 -1.131871e-02 -7.178210e-03 3.021877e-03 -3.145615e-03 1.560011e-03 -3.663981e-03 2.621886e-04 9.166773e-04 -9.825568e-04 3.241693e-04 -9.543909e-05 3.029770e-04 -2.851614e-04 -1.491298e-04 -1.783248e-04 3.785257e-05 -1.129361e-04 -7.989937e-05 -1.018534e-03 
 	<VARIANCE> 39 
 		7.976604e+01 6.152662e+01 5.051948e+01 1.004776e+02 7.295739e+01 6.231032e+01 6.819729e+01 8.804686e+01 6.706458e+01 6.915740e+01 4.922140e+01 3.300986e+01 1.361345e+02 2.828882e+00 2.092716e+00 2.188640e+00 3.775563e+00 3.180235e+00 3.489889e+00 3.719737e+00 3.584243e+00 3.369323e+00 3.542708e+00 2.975766e+00 2.330531e+00 3.532624e+00 4.004033e-01 3.152293e-01 3.553639e-01 5.475901e-01 5.268688e-01 6.105083e-01 6.450021e-01 6.068367e-01 5.813815e-01 6.023107e-01 5.249541e-01 4.289736e-01 4.651601e-01 
 	<GCONST> 1.320602e+02 
 	<STATE> 3 
 	<MEAN> 39 
 		-9.216795e+00 -3.465033e+00 -6.423656e+00 -1.107353e+01 -8.423258e+00 -1.073858e+01 -1.108349e+01 -6.035468e+00 -3.409545e+00 -8.778076e+00 -3.299176e+00 -3.847632e+00 6.077811e+01 6.235573e-03 3.134236e-03 1.414692e-03 -1.294906e-03 -1.141914e-03 7.894422e-03 1.230384e-03 -1.131871e-02 -7.178210e-03 3.021877e-03 -3.145615e-03 1.560011e-03 -3.663981e-03 2.621886e-04 9.166773e-04 -9.825568e-04 3.241693e-04 -9.543909e-05 3.029770e-04 -2.851614e-04 -1.491298e-04 -1.783248e-04 3.785257e-05 -1.129361e-04 -7.989937e-05 -1.018534e-03 
 	<VARIANCE> 39 
 		7.976604e+01 6.152662e+01 5.051948e+01 1.004776e+02 7.295739e+01 6.231032e+01 6.819729e+01 8.804686e+01 6.706458e+01 6.915740e+01 4.922140e+01 3.300986e+01 1.361345e+02 2.828882e+00 2.092716e+00 2.188640e+00 3.775563e+00 3.180235e+00 3.489889e+00 3.719737e+00 3.584243e+00 3.369323e+00 3.542708e+00 2.975766e+00 2.330531e+00 3.532624e+00 4.004033e-01 3.152293e-01 3.553639e-01 5.475901e-01 5.268688e-01 6.105083e-01 6.450021e-01 6.068367e-01 5.813815e-01 6.023107e-01 5.249541e-01 4.289736e-01 4.651601e-01 
 	<GCONST> 1.320602e+02 
 	<STATE> 4 
 	<MEAN> 39 
 		-9.216795e+00 -3.465033e+00 -6.423656e+00 -1.107353e+01 -8.423258e+00 -1.073858e+01 -1.108349e+01 -6.035468e+00 -3.409545e+00 -8.778076e+00 -3.299176e+00 -3.847632e+00 6.077811e+01 6.235573e-03 3.134236e-03 1.414692e-03 -1.294906e-03 -1.141914e-03 7.894422e-03 1.230384e-03 -1.131871e-02 -7.178210e-03 3.021877e-03 -3.145615e-03 1.560011e-03 -3.663981e-03 2.621886e-04 9.166773e-04 -9.825568e-04 3.241693e-04 -9.543909e-05 3.029770e-04 -2.851614e-04 -1.491298e-04 -1.783248e-04 3.785257e-05 -1.129361e-04 -7.989937e-05 -1.018534e-03 
 	<VARIANCE> 39 
 		7.976604e+01 6.152662e+01 5.051948e+01 1.004776e+02 7.295739e+01 6.231032e+01 6.819729e+01 8.804686e+01 6.706458e+01 6.915740e+01 4.922140e+01 3.300986e+01 1.361345e+02 2.828882e+00 2.092716e+00 2.188640e+00 3.775563e+00 3.180235e+00 3.489889e+00 3.719737e+00 3.584243e+00 3.369323e+00 3.542708e+00 2.975766e+00 2.330531e+00 3.532624e+00 4.004033e-01 3.152293e-01 3.553639e-01 5.475901e-01 5.268688e-01 6.105083e-01 6.450021e-01 6.068367e-01 5.813815e-01 6.023107e-01 5.249541e-01 4.289736e-01 4.651601e-01 
 	<GCONST> 1.320602e+02 
 	<TRANSP> 5 
 		0.000000e+00 1.000000e+00 0.000000e+00 0.000000e+00 0.000000e+00 
 	    0.000000e+00 6.000000e-01 4.000000e-01 0.000000e+00 0.000000e+00 
 		0.000000e+00 0.000000e+00 6.000000e-01 4.000000e-01 0.000000e+00 
 		0.000000e+00 0.000000e+00 0.000000e+00 7.000000e-01 3.000000e-01 
 		0.000000e+00 0.000000e+00 0.000000e+00 0.000000e+00 0.000000e+00 
 <ENDHMM> 
~h "ao"
<BEGINHMM> 
 	<NUMSTATES> 5 
 	<STATE> 2 
 	<MEAN> 39 
 		-9.216795e+00 -3.465033e+00 -6.423656e+00 -1.107353e+01 -8.423258e+00 -1.073858e+01 -1.108349e+01 -6.035468e+00 -3.409545e+00 -8.778076e+00 -3.299176e+00 -3.847632e+00 6.077811e+01 6.235573e-03 3.134236e-03 1.414692e-03 -1.294906e-03 -1.141914e-03 7.894422e-03 1.230384e-03 -1.131871e-02 -7.178210e-03 3.021877e-03 -3.145615e-03 1.560011e-03 -3.663981e-03 2.621886e-04 9.166773e-04 -9.825568e-04 3.241693e-04 -9.543909e-05 3.029770e-04 -2.851614e-04 -1.491298e-04 -1.783248e-04 3.785257e-05 -1.129361e-04 -7.989937e-05 -1.018534e-03 
 	<VARIANCE> 39 
 		7.976604e+01 6.152662e+01 5.051948e+01 1.004776e+02 7.295739e+01 6.231032e+01 6.819729e+01 8.804686e+01 6.706458e+01 6.915740e+01 4.922140e+01 3.300986e+01 1.361345e+02 2.828882e+00 2.092716e+00 2.188640e+00 3.775563e+00 3.180235e+00 3.489889e+00 3.719737e+00 3.584243e+00 3.369323e+00 3.542708e+00 2.975766e+00 2.330531e+00 3.532624e+00 4.004033e-01 3.152293e-01 3.553639e-01 5.475901e-01 5.268688e-01 6.105083e-01 6.450021e-01 6.068367e-01 5.813815e-01 6.023107e-01 5.249541e-01 4.289736e-01 4.651601e-01 
 	<GCONST> 1.320602e+02 
 	<STATE> 3 
 	<MEAN> 39 
 		-9.216795e+00 -3.465033e+00 -6.423656e+00 -1.107353e+01 -8.423258e+00 -1.073858e+01 -1.108349e+01 -6.035468e+00 -3.409545e+00 -8.778076e+00 -3.299176e+00 -3.847632e+00 6.077811e+01 6.235573e-03 3.134236e-03 1.414692e-03 -1.294906e-03 -1.141914e-03 7.894422e-03 1.230384e-03 -1.131871e-02 -7.178210e-03 3.021877e-03 -3.145615e-03 1.560011e-03 -3.663981e-03 2.621886e-04 9.166773e-04 -9.825568e-04 3.241693e-04 -9.543909e-05 3.029770e-04 -2.851614e-04 -1.491298e-04 -1.783248e-04 3.785257e-05 -1.129361e-04 -7.989937e-05 -1.018534e-03 
 	<VARIANCE> 39 
 		7.976604e+01 6.152662e+01 5.051948e+01 1.004776e+02 7.295739e+01 6.231032e+01 6.819729e+01 8.804686e+01 6.706458e+01 6.915740e+01 4.922140e+01 3.300986e+01 1.361345e+02 2.828882e+00 2.092716e+00 2.188640e+00 3.775563e+00 3.180235e+00 3.489889e+00 3.719737e+00 3.584243e+00 3.369323e+00 3.542708e+00 2.975766e+00 2.330531e+00 3.532624e+00 4.004033e-01 3.152293e-01 3.553639e-01 5.475901e-01 5.268688e-01 6.105083e-01 6.450021e-01 6.068367e-01 5.813815e-01 6.023107e-01 5.249541e-01 4.289736e-01 4.651601e-01 
 	<GCONST> 1.320602e+02 
 	<STATE> 4 
 	<MEAN> 39 
 		-9.216795e+00 -3.465033e+00 -6.423656e+00 -1.107353e+01 -8.423258e+00 -1.073858e+01 -1.108349e+01 -6.035468e+00 -3.409545e+00 -8.778076e+00 -3.299176e+00 -3.847632e+00 6.077811e+01 6.235573e-03 3.134236e-03 1.414692e-03 -1.294906e-03 -1.141914e-03 7.894422e-03 1.230384e-03 -1.131871e-02 -7.178210e-03 3.021877e-03 -3.145615e-03 1.560011e-03 -3.663981e-03 2.621886e-04 9.166773e-04 -9.825568e-04 3.241693e-04 -9.543909e-05 3.029770e-04 -2.851614e-04 -1.491298e-04 -1.783248e-04 3.785257e-05 -1.129361e-04 -7.989937e-05 -1.018534e-03 
 	<VARIANCE> 39 
 		7.976604e+01 6.152662e+01 5.051948e+01 1.004776e+02 7.295739e+01 6.231032e+01 6.819729e+01 8.804686e+01 6.706458e+01 6.915740e+01 4.922140e+01 3.300986e+01 1.361345e+02 2.828882e+00 2.092716e+00 2.188640e+00 3.775563e+00 3.180235e+00 3.489889e+00 3.719737e+00 3.584243e+00 3.369323e+00 3.542708e+00 2.975766e+00 2.330531e+00 3.532624e+00 4.004033e-01 3.152293e-01 3.553639e-01 5.475901e-01 5.268688e-01 6.105083e-01 6.450021e-01 6.068367e-01 5.813815e-01 6.023107e-01 5.249541e-01 4.289736e-01 4.651601e-01 
 	<GCONST> 1.320602e+02 
 	<TRANSP> 5 
 		0.000000e+00 1.000000e+00 0.000000e+00 0.000000e+00 0.000000e+00 
 	    0.000000e+00 6.000000e-01 4.000000e-01 0.000000e+00 0.000000e+00 
 		0.000000e+00 0.000000e+00 6.000000e-01 4.000000e-01 0.000000e+00 
 		0.000000e+00 0.000000e+00 0.000000e+00 7.000000e-01 3.000000e-01 
 		0.000000e+00 0.000000e+00 0.000000e+00 0.000000e+00 0.000000e+00 
 <ENDHMM> 
~h "l"
<BEGINHMM> 
 	<NUMSTATES> 5 
 	<STATE> 2 
 	<MEAN> 39 
 		-9.216795e+00 -3.465033e+00 -6.423656e+00 -1.107353e+01 -8.423258e+00 -1.073858e+01 -1.108349e+01 -6.035468e+00 -3.409545e+00 -8.778076e+00 -3.299176e+00 -3.847632e+00 6.077811e+01 6.235573e-03 3.134236e-03 1.414692e-03 -1.294906e-03 -1.141914e-03 7.894422e-03 1.230384e-03 -1.131871e-02 -7.178210e-03 3.021877e-03 -3.145615e-03 1.560011e-03 -3.663981e-03 2.621886e-04 9.166773e-04 -9.825568e-04 3.241693e-04 -9.543909e-05 3.029770e-04 -2.851614e-04 -1.491298e-04 -1.783248e-04 3.785257e-05 -1.129361e-04 -7.989937e-05 -1.018534e-03 
 	<VARIANCE> 39 
 		7.976604e+01 6.152662e+01 5.051948e+01 1.004776e+02 7.295739e+01 6.231032e+01 6.819729e+01 8.804686e+01 6.706458e+01 6.915740e+01 4.922140e+01 3.300986e+01 1.361345e+02 2.828882e+00 2.092716e+00 2.188640e+00 3.775563e+00 3.180235e+00 3.489889e+00 3.719737e+00 3.584243e+00 3.369323e+00 3.542708e+00 2.975766e+00 2.330531e+00 3.532624e+00 4.004033e-01 3.152293e-01 3.553639e-01 5.475901e-01 5.268688e-01 6.105083e-01 6.450021e-01 6.068367e-01 5.813815e-01 6.023107e-01 5.249541e-01 4.289736e-01 4.651601e-01 
 	<GCONST> 1.320602e+02 
 	<STATE> 3 
 	<MEAN> 39 
 		-9.216795e+00 -3.465033e+00 -6.423656e+00 -1.107353e+01 -8.423258e+00 -1.073858e+01 -1.108349e+01 -6.035468e+00 -3.409545e+00 -8.778076e+00 -3.299176e+00 -3.847632e+00 6.077811e+01 6.235573e-03 3.134236e-03 1.414692e-03 -1.294906e-03 -1.141914e-03 7.894422e-03 1.230384e-03 -1.131871e-02 -7.178210e-03 3.021877e-03 -3.145615e-03 1.560011e-03 -3.663981e-03 2.621886e-04 9.166773e-04 -9.825568e-04 3.241693e-04 -9.543909e-05 3.029770e-04 -2.851614e-04 -1.491298e-04 -1.783248e-04 3.785257e-05 -1.129361e-04 -7.989937e-05 -1.018534e-03 
 	<VARIANCE> 39 
 		7.976604e+01 6.152662e+01 5.051948e+01 1.004776e+02 7.295739e+01 6.231032e+01 6.819729e+01 8.804686e+01 6.706458e+01 6.915740e+01 4.922140e+01 3.300986e+01 1.361345e+02 2.828882e+00 2.092716e+00 2.188640e+00 3.775563e+00 3.180235e+00 3.489889e+00 3.719737e+00 3.584243e+00 3.369323e+00 3.542708e+00 2.975766e+00 2.330531e+00 3.532624e+00 4.004033e-01 3.152293e-01 3.553639e-01 5.475901e-01 5.268688e-01 6.105083e-01 6.450021e-01 6.068367e-01 5.813815e-01 6.023107e-01 5.249541e-01 4.289736e-01 4.651601e-01 
 	<GCONST> 1.320602e+02 
 	<STATE> 4 
 	<MEAN> 39 
 		-9.216795e+00 -3.465033e+00 -6.423656e+00 -1.107353e+01 -8.423258e+00 -1.073858e+01 -1.108349e+01 -6.035468e+00 -3.409545e+00 -8.778076e+00 -3.299176e+00 -3.847632e+00 6.077811e+01 6.235573e-03 3.134236e-03 1.414692e-03 -1.294906e-03 -1.141914e-03 7.894422e-03 1.230384e-03 -1.131871e-02 -7.178210e-03 3.021877e-03 -3.145615e-03 1.560011e-03 -3.663981e-03 2.621886e-04 9.166773e-04 -9.825568e-04 3.241693e-04 -9.543909e-05 3.029770e-04 -2.851614e-04 -1.491298e-04 -1.783248e-04 3.785257e-05 -1.129361e-04 -7.989937e-05 -1.018534e-03 
 	<VARIANCE> 39 
 		7.976604e+01 6.152662e+01 5.051948e+01 1.004776e+02 7.295739e+01 6.231032e+01 6.819729e+01 8.804686e+01 6.706458e+01 6.915740e+01 4.922140e+01 3.300986e+01 1.361345e+02 2.828882e+00 2.092716e+00 2.188640e+00 3.775563e+00 3.180235e+00 3.489889e+00 3.719737e+00 3.584243e+00 3.369323e+00 3.542708e+00 2.975766e+00 2.330531e+00 3.532624e+00 4.004033e-01 3.152293e-01 3.553639e-01 5.475901e-01 5.268688e-01 6.105083e-01 6.450021e-01 6.068367e-01 5.813815e-01 6.023107e-01 5.249541e-01 4.289736e-01 4.651601e-01 
 	<GCONST> 1.320602e+02 
 	<TRANSP> 5 
 		0.000000e+00 1.000000e+00 0.000000e+00 0.000000e+00 0.000000e+00 
 	    0.000000e+00 6.000000e-01 4.000000e-01 0.000000e+00 0.000000e+00 
 		0.000000e+00 0.000000e+00 6.000000e-01 4.000000e-01 0.000000e+00 
 		0.000000e+00 0.000000e+00 0.000000e+00 7.000000e-01 3.000000e-01 
 		0.000000e+00 0.000000e+00 0.000000e+00 0.000000e+00 0.000000e+00 
 <ENDHMM> 
~h "d"
<BEGINHMM> 
 	<NUMSTATES> 5 
 	<STATE> 2 
 	<MEAN> 39 
 		-9.216795e+00 -3.465033e+00 -6.423656e+00 -1.107353e+01 -8.423258e+00 -1.073858e+01 -1.108349e+01 -6.035468e+00 -3.409545e+00 -8.778076e+00 -3.299176e+00 -3.847632e+00 6.077811e+01 6.235573e-03 3.134236e-03 1.414692e-03 -1.294906e-03 -1.141914e-03 7.894422e-03 1.230384e-03 -1.131871e-02 -7.178210e-03 3.021877e-03 -3.145615e-03 1.560011e-03 -3.663981e-03 2.621886e-04 9.166773e-04 -9.825568e-04 3.241693e-04 -9.543909e-05 3.029770e-04 -2.851614e-04 -1.491298e-04 -1.783248e-04 3.785257e-05 -1.129361e-04 -7.989937e-05 -1.018534e-03 
 	<VARIANCE> 39 
 		7.976604e+01 6.152662e+01 5.051948e+01 1.004776e+02 7.295739e+01 6.231032e+01 6.819729e+01 8.804686e+01 6.706458e+01 6.915740e+01 4.922140e+01 3.300986e+01 1.361345e+02 2.828882e+00 2.092716e+00 2.188640e+00 3.775563e+00 3.180235e+00 3.489889e+00 3.719737e+00 3.584243e+00 3.369323e+00 3.542708e+00 2.975766e+00 2.330531e+00 3.532624e+00 4.004033e-01 3.152293e-01 3.553639e-01 5.475901e-01 5.268688e-01 6.105083e-01 6.450021e-01 6.068367e-01 5.813815e-01 6.023107e-01 5.249541e-01 4.289736e-01 4.651601e-01 
 	<GCONST> 1.320602e+02 
 	<STATE> 3 
 	<MEAN> 39 
 		-9.216795e+00 -3.465033e+00 -6.423656e+00 -1.107353e+01 -8.423258e+00 -1.073858e+01 -1.108349e+01 -6.035468e+00 -3.409545e+00 -8.778076e+00 -3.299176e+00 -3.847632e+00 6.077811e+01 6.235573e-03 3.134236e-03 1.414692e-03 -1.294906e-03 -1.141914e-03 7.894422e-03 1.230384e-03 -1.131871e-02 -7.178210e-03 3.021877e-03 -3.145615e-03 1.560011e-03 -3.663981e-03 2.621886e-04 9.166773e-04 -9.825568e-04 3.241693e-04 -9.543909e-05 3.029770e-04 -2.851614e-04 -1.491298e-04 -1.783248e-04 3.785257e-05 -1.129361e-04 -7.989937e-05 -1.018534e-03 
 	<VARIANCE> 39 
 		7.976604e+01 6.152662e+01 5.051948e+01 1.004776e+02 7.295739e+01 6.231032e+01 6.819729e+01 8.804686e+01 6.706458e+01 6.915740e+01 4.922140e+01 3.300986e+01 1.361345e+02 2.828882e+00 2.092716e+00 2.188640e+00 3.775563e+00 3.180235e+00 3.489889e+00 3.719737e+00 3.584243e+00 3.369323e+00 3.542708e+00 2.975766e+00 2.330531e+00 3.532624e+00 4.004033e-01 3.152293e-01 3.553639e-01 5.475901e-01 5.268688e-01 6.105083e-01 6.450021e-01 6.068367e-01 5.813815e-01 6.023107e-01 5.249541e-01 4.289736e-01 4.651601e-01 
 	<GCONST> 1.320602e+02 
 	<STATE> 4 
 	<MEAN> 39 
 		-9.216795e+00 -3.465033e+00 -6.423656e+00 -1.107353e+01 -8.423258e+00 -1.073858e+01 -1.108349e+01 -6.035468e+00 -3.409545e+00 -8.778076e+00 -3.299176e+00 -3.847632e+00 6.077811e+01 6.235573e-03 3.134236e-03 1.414692e-03 -1.294906e-03 -1.141914e-03 7.894422e-03 1.230384e-03 -1.131871e-02 -7.178210e-03 3.021877e-03 -3.145615e-03 1.560011e-03 -3.663981e-03 2.621886e-04 9.166773e-04 -9.825568e-04 3.241693e-04 -9.543909e-05 3.029770e-04 -2.851614e-04 -1.491298e-04 -1.783248e-04 3.785257e-05 -1.129361e-04 -7.989937e-05 -1.018534e-03 
 	<VARIANCE> 39 
 		7.976604e+01 6.152662e+01 5.051948e+01 1.004776e+02 7.295739e+01 6.231032e+01 6.819729e+01 8.804686e+01 6.706458e+01 6.915740e+01 4.922140e+01 3.300986e+01 1.361345e+02 2.828882e+00 2.092716e+00 2.188640e+00 3.775563e+00 3.180235e+00 3.489889e+00 3.719737e+00 3.584243e+00 3.369323e+00 3.542708e+00 2.975766e+00 2.330531e+00 3.532624e+00 4.004033e-01 3.152293e-01 3.553639e-01 5.475901e-01 5.268688e-01 6.105083e-01 6.450021e-01 6.068367e-01 5.813815e-01 6.023107e-01 5.249541e-01 4.289736e-01 4.651601e-01 
 	<GCONST> 1.320602e+02 
 	<TRANSP> 5 
 		0.000000e+00 1.000000e+00 0.000000e+00 0.000000e+00 0.000000e+00 
 	    0.000000e+00 6.000000e-01 4.000000e-01 0.000000e+00 0.000000e+00 
 		0.000000e+00 0.000000e+00 6.000000e-01 4.000000e-01 0.000000e+00 
 		0.000000e+00 0.000000e+00 0.000000e+00 7.000000e-01 3.000000e-01 
 		0.000000e+00 0.000000e+00 0.000000e+00 0.000000e+00 0.000000e+00 
 <ENDHMM> 
~h "ey"
<BEGINHMM> 
 	<NUMSTATES> 5 
 	<STATE> 2 
 	<MEAN> 39 
 		-9.216795e+00 -3.465033e+00 -6.423656e+00 -1.107353e+01 -8.423258e+00 -1.073858e+01 -1.108349e+01 -6.035468e+00 -3.409545e+00 -8.778076e+00 -3.299176e+00 -3.847632e+00 6.077811e+01 6.235573e-03 3.134236e-03 1.414692e-03 -1.294906e-03 -1.141914e-03 7.894422e-03 1.230384e-03 -1.131871e-02 -7.178210e-03 3.021877e-03 -3.145615e-03 1.560011e-03 -3.663981e-03 2.621886e-04 9.166773e-04 -9.825568e-04 3.241693e-04 -9.543909e-05 3.029770e-04 -2.851614e-04 -1.491298e-04 -1.783248e-04 3.785257e-05 -1.129361e-04 -7.989937e-05 -1.018534e-03 
 	<VARIANCE> 39 
 		7.976604e+01 6.152662e+01 5.051948e+01 1.004776e+02 7.295739e+01 6.231032e+01 6.819729e+01 8.804686e+01 6.706458e+01 6.915740e+01 4.922140e+01 3.300986e+01 1.361345e+02 2.828882e+00 2.092716e+00 2.188640e+00 3.775563e+00 3.180235e+00 3.489889e+00 3.719737e+00 3.584243e+00 3.369323e+00 3.542708e+00 2.975766e+00 2.330531e+00 3.532624e+00 4.004033e-01 3.152293e-01 3.553639e-01 5.475901e-01 5.268688e-01 6.105083e-01 6.450021e-01 6.068367e-01 5.813815e-01 6.023107e-01 5.249541e-01 4.289736e-01 4.651601e-01 
 	<GCONST> 1.320602e+02 
 	<STATE> 3 
 	<MEAN> 39 
 		-9.216795e+00 -3.465033e+00 -6.423656e+00 -1.107353e+01 -8.423258e+00 -1.073858e+01 -1.108349e+01 -6.035468e+00 -3.409545e+00 -8.778076e+00 -3.299176e+00 -3.847632e+00 6.077811e+01 6.235573e-03 3.134236e-03 1.414692e-03 -1.294906e-03 -1.141914e-03 7.894422e-03 1.230384e-03 -1.131871e-02 -7.178210e-03 3.021877e-03 -3.145615e-03 1.560011e-03 -3.663981e-03 2.621886e-04 9.166773e-04 -9.825568e-04 3.241693e-04 -9.543909e-05 3.029770e-04 -2.851614e-04 -1.491298e-04 -1.783248e-04 3.785257e-05 -1.129361e-04 -7.989937e-05 -1.018534e-03 
 	<VARIANCE> 39 
 		7.976604e+01 6.152662e+01 5.051948e+01 1.004776e+02 7.295739e+01 6.231032e+01 6.819729e+01 8.804686e+01 6.706458e+01 6.915740e+01 4.922140e+01 3.300986e+01 1.361345e+02 2.828882e+00 2.092716e+00 2.188640e+00 3.775563e+00 3.180235e+00 3.489889e+00 3.719737e+00 3.584243e+00 3.369323e+00 3.542708e+00 2.975766e+00 2.330531e+00 3.532624e+00 4.004033e-01 3.152293e-01 3.553639e-01 5.475901e-01 5.268688e-01 6.105083e-01 6.450021e-01 6.068367e-01 5.813815e-01 6.023107e-01 5.249541e-01 4.289736e-01 4.651601e-01 
 	<GCONST> 1.320602e+02 
 	<STATE> 4 
 	<MEAN> 39 
 		-9.216795e+00 -3.465033e+00 -6.423656e+00 -1.107353e+01 -8.423258e+00 -1.073858e+01 -1.108349e+01 -6.035468e+00 -3.409545e+00 -8.778076e+00 -3.299176e+00 -3.847632e+00 6.077811e+01 6.235573e-03 3.134236e-03 1.414692e-03 -1.294906e-03 -1.141914e-03 7.894422e-03 1.230384e-03 -1.131871e-02 -7.178210e-03 3.021877e-03 -3.145615e-03 1.560011e-03 -3.663981e-03 2.621886e-04 9.166773e-04 -9.825568e-04 3.241693e-04 -9.543909e-05 3.029770e-04 -2.851614e-04 -1.491298e-04 -1.783248e-04 3.785257e-05 -1.129361e-04 -7.989937e-05 -1.018534e-03 
 	<VARIANCE> 39 
 		7.976604e+01 6.152662e+01 5.051948e+01 1.004776e+02 7.295739e+01 6.231032e+01 6.819729e+01 8.804686e+01 6.706458e+01 6.915740e+01 4.922140e+01 3.300986e+01 1.361345e+02 2.828882e+00 2.092716e+00 2.188640e+00 3.775563e+00 3.180235e+00 3.489889e+00 3.719737e+00 3.584243e+00 3.369323e+00 3.542708e+00 2.975766e+00 2.330531e+00 3.532624e+00 4.004033e-01 3.152293e-01 3.553639e-01 5.475901e-01 5.268688e-01 6.105083e-01 6.450021e-01 6.068367e-01 5.813815e-01 6.023107e-01 5.249541e-01 4.289736e-01 4.651601e-01 
 	<GCONST> 1.320602e+02 
 	<TRANSP> 5 
 		0.000000e+00 1.000000e+00 0.000000e+00 0.000000e+00 0.000000e+00 
 	    0.000000e+00 6.000000e-01 4.000000e-01 0.000000e+00 0.000000e+00 
 		0.000000e+00 0.000000e+00 6.000000e-01 4.000000e-01 0.000000e+00 
 		0.000000e+00 0.000000e+00 0.000000e+00 7.000000e-01 3.000000e-01 
 		0.000000e+00 0.000000e+00 0.000000e+00 0.000000e+00 0.000000e+00 
 <ENDHMM> 
~h "v"
<BEGINHMM> 
 	<NUMSTATES> 5 
 	<STATE> 2 
 	<MEAN> 39 
 		-9.216795e+00 -3.465033e+00 -6.423656e+00 -1.107353e+01 -8.423258e+00 -1.073858e+01 -1.108349e+01 -6.035468e+00 -3.409545e+00 -8.778076e+00 -3.299176e+00 -3.847632e+00 6.077811e+01 6.235573e-03 3.134236e-03 1.414692e-03 -1.294906e-03 -1.141914e-03 7.894422e-03 1.230384e-03 -1.131871e-02 -7.178210e-03 3.021877e-03 -3.145615e-03 1.560011e-03 -3.663981e-03 2.621886e-04 9.166773e-04 -9.825568e-04 3.241693e-04 -9.543909e-05 3.029770e-04 -2.851614e-04 -1.491298e-04 -1.783248e-04 3.785257e-05 -1.129361e-04 -7.989937e-05 -1.018534e-03 
 	<VARIANCE> 39 
 		7.976604e+01 6.152662e+01 5.051948e+01 1.004776e+02 7.295739e+01 6.231032e+01 6.819729e+01 8.804686e+01 6.706458e+01 6.915740e+01 4.922140e+01 3.300986e+01 1.361345e+02 2.828882e+00 2.092716e+00 2.188640e+00 3.775563e+00 3.180235e+00 3.489889e+00 3.719737e+00 3.584243e+00 3.369323e+00 3.542708e+00 2.975766e+00 2.330531e+00 3.532624e+00 4.004033e-01 3.152293e-01 3.553639e-01 5.475901e-01 5.268688e-01 6.105083e-01 6.450021e-01 6.068367e-01 5.813815e-01 6.023107e-01 5.249541e-01 4.289736e-01 4.651601e-01 
 	<GCONST> 1.320602e+02 
 	<STATE> 3 
 	<MEAN> 39 
 		-9.216795e+00 -3.465033e+00 -6.423656e+00 -1.107353e+01 -8.423258e+00 -1.073858e+01 -1.108349e+01 -6.035468e+00 -3.409545e+00 -8.778076e+00 -3.299176e+00 -3.847632e+00 6.077811e+01 6.235573e-03 3.134236e-03 1.414692e-03 -1.294906e-03 -1.141914e-03 7.894422e-03 1.230384e-03 -1.131871e-02 -7.178210e-03 3.021877e-03 -3.145615e-03 1.560011e-03 -3.663981e-03 2.621886e-04 9.166773e-04 -9.825568e-04 3.241693e-04 -9.543909e-05 3.029770e-04 -2.851614e-04 -1.491298e-04 -1.783248e-04 3.785257e-05 -1.129361e-04 -7.989937e-05 -1.018534e-03 
 	<VARIANCE> 39 
 		7.976604e+01 6.152662e+01 5.051948e+01 1.004776e+02 7.295739e+01 6.231032e+01 6.819729e+01 8.804686e+01 6.706458e+01 6.915740e+01 4.922140e+01 3.300986e+01 1.361345e+02 2.828882e+00 2.092716e+00 2.188640e+00 3.775563e+00 3.180235e+00 3.489889e+00 3.719737e+00 3.584243e+00 3.369323e+00 3.542708e+00 2.975766e+00 2.330531e+00 3.532624e+00 4.004033e-01 3.152293e-01 3.553639e-01 5.475901e-01 5.268688e-01 6.105083e-01 6.450021e-01 6.068367e-01 5.813815e-01 6.023107e-01 5.249541e-01 4.289736e-01 4.651601e-01 
 	<GCONST> 1.320602e+02 
 	<STATE> 4 
 	<MEAN> 39 
 		-9.216795e+00 -3.465033e+00 -6.423656e+00 -1.107353e+01 -8.423258e+00 -1.073858e+01 -1.108349e+01 -6.035468e+00 -3.409545e+00 -8.778076e+00 -3.299176e+00 -3.847632e+00 6.077811e+01 6.235573e-03 3.134236e-03 1.414692e-03 -1.294906e-03 -1.141914e-03 7.894422e-03 1.230384e-03 -1.131871e-02 -7.178210e-03 3.021877e-03 -3.145615e-03 1.560011e-03 -3.663981e-03 2.621886e-04 9.166773e-04 -9.825568e-04 3.241693e-04 -9.543909e-05 3.029770e-04 -2.851614e-04 -1.491298e-04 -1.783248e-04 3.785257e-05 -1.129361e-04 -7.989937e-05 -1.018534e-03 
 	<VARIANCE> 39 
 		7.976604e+01 6.152662e+01 5.051948e+01 1.004776e+02 7.295739e+01 6.231032e+01 6.819729e+01 8.804686e+01 6.706458e+01 6.915740e+01 4.922140e+01 3.300986e+01 1.361345e+02 2.828882e+00 2.092716e+00 2.188640e+00 3.775563e+00 3.180235e+00 3.489889e+00 3.719737e+00 3.584243e+00 3.369323e+00 3.542708e+00 2.975766e+00 2.330531e+00 3.532624e+00 4.004033e-01 3.152293e-01 3.553639e-01 5.475901e-01 5.268688e-01 6.105083e-01 6.450021e-01 6.068367e-01 5.813815e-01 6.023107e-01 5.249541e-01 4.289736e-01 4.651601e-01 
 	<GCONST> 1.320602e+02 
 	<TRANSP> 5 
 		0.000000e+00 1.000000e+00 0.000000e+00 0.000000e+00 0.000000e+00 
 	    0.000000e+00 6.000000e-01 4.000000e-01 0.000000e+00 0.000000e+00 
 		0.000000e+00 0.000000e+00 6.000000e-01 4.000000e-01 0.000000e+00 
 		0.000000e+00 0.000000e+00 0.000000e+00 7.000000e-01 3.000000e-01 
 		0.000000e+00 0.000000e+00 0.000000e+00 0.000000e+00 0.000000e+00 
 <ENDHMM> 
~h "ay"
<BEGINHMM> 
 	<NUMSTATES> 5 
 	<STATE> 2 
 	<MEAN> 39 
 		-9.216795e+00 -3.465033e+00 -6.423656e+00 -1.107353e+01 -8.423258e+00 -1.073858e+01 -1.108349e+01 -6.035468e+00 -3.409545e+00 -8.778076e+00 -3.299176e+00 -3.847632e+00 6.077811e+01 6.235573e-03 3.134236e-03 1.414692e-03 -1.294906e-03 -1.141914e-03 7.894422e-03 1.230384e-03 -1.131871e-02 -7.178210e-03 3.021877e-03 -3.145615e-03 1.560011e-03 -3.663981e-03 2.621886e-04 9.166773e-04 -9.825568e-04 3.241693e-04 -9.543909e-05 3.029770e-04 -2.851614e-04 -1.491298e-04 -1.783248e-04 3.785257e-05 -1.129361e-04 -7.989937e-05 -1.018534e-03 
 	<VARIANCE> 39 
 		7.976604e+01 6.152662e+01 5.051948e+01 1.004776e+02 7.295739e+01 6.231032e+01 6.819729e+01 8.804686e+01 6.706458e+01 6.915740e+01 4.922140e+01 3.300986e+01 1.361345e+02 2.828882e+00 2.092716e+00 2.188640e+00 3.775563e+00 3.180235e+00 3.489889e+00 3.719737e+00 3.584243e+00 3.369323e+00 3.542708e+00 2.975766e+00 2.330531e+00 3.532624e+00 4.004033e-01 3.152293e-01 3.553639e-01 5.475901e-01 5.268688e-01 6.105083e-01 6.450021e-01 6.068367e-01 5.813815e-01 6.023107e-01 5.249541e-01 4.289736e-01 4.651601e-01 
 	<GCONST> 1.320602e+02 
 	<STATE> 3 
 	<MEAN> 39 
 		-9.216795e+00 -3.465033e+00 -6.423656e+00 -1.107353e+01 -8.423258e+00 -1.073858e+01 -1.108349e+01 -6.035468e+00 -3.409545e+00 -8.778076e+00 -3.299176e+00 -3.847632e+00 6.077811e+01 6.235573e-03 3.134236e-03 1.414692e-03 -1.294906e-03 -1.141914e-03 7.894422e-03 1.230384e-03 -1.131871e-02 -7.178210e-03 3.021877e-03 -3.145615e-03 1.560011e-03 -3.663981e-03 2.621886e-04 9.166773e-04 -9.825568e-04 3.241693e-04 -9.543909e-05 3.029770e-04 -2.851614e-04 -1.491298e-04 -1.783248e-04 3.785257e-05 -1.129361e-04 -7.989937e-05 -1.018534e-03 
 	<VARIANCE> 39 
 		7.976604e+01 6.152662e+01 5.051948e+01 1.004776e+02 7.295739e+01 6.231032e+01 6.819729e+01 8.804686e+01 6.706458e+01 6.915740e+01 4.922140e+01 3.300986e+01 1.361345e+02 2.828882e+00 2.092716e+00 2.188640e+00 3.775563e+00 3.180235e+00 3.489889e+00 3.719737e+00 3.584243e+00 3.369323e+00 3.542708e+00 2.975766e+00 2.330531e+00 3.532624e+00 4.004033e-01 3.152293e-01 3.553639e-01 5.475901e-01 5.268688e-01 6.105083e-01 6.450021e-01 6.068367e-01 5.813815e-01 6.023107e-01 5.249541e-01 4.289736e-01 4.651601e-01 
 	<GCONST> 1.320602e+02 
 	<STATE> 4 
 	<MEAN> 39 
 		-9.216795e+00 -3.465033e+00 -6.423656e+00 -1.107353e+01 -8.423258e+00 -1.073858e+01 -1.108349e+01 -6.035468e+00 -3.409545e+00 -8.778076e+00 -3.299176e+00 -3.847632e+00 6.077811e+01 6.235573e-03 3.134236e-03 1.414692e-03 -1.294906e-03 -1.141914e-03 7.894422e-03 1.230384e-03 -1.131871e-02 -7.178210e-03 3.021877e-03 -3.145615e-03 1.560011e-03 -3.663981e-03 2.621886e-04 9.166773e-04 -9.825568e-04 3.241693e-04 -9.543909e-05 3.029770e-04 -2.851614e-04 -1.491298e-04 -1.783248e-04 3.785257e-05 -1.129361e-04 -7.989937e-05 -1.018534e-03 
 	<VARIANCE> 39 
 		7.976604e+01 6.152662e+01 5.051948e+01 1.004776e+02 7.295739e+01 6.231032e+01 6.819729e+01 8.804686e+01 6.706458e+01 6.915740e+01 4.922140e+01 3.300986e+01 1.361345e+02 2.828882e+00 2.092716e+00 2.188640e+00 3.775563e+00 3.180235e+00 3.489889e+00 3.719737e+00 3.584243e+00 3.369323e+00 3.542708e+00 2.975766e+00 2.330531e+00 3.532624e+00 4.004033e-01 3.152293e-01 3.553639e-01 5.475901e-01 5.268688e-01 6.105083e-01 6.450021e-01 6.068367e-01 5.813815e-01 6.023107e-01 5.249541e-01 4.289736e-01 4.651601e-01 
 	<GCONST> 1.320602e+02 
 	<TRANSP> 5 
 		0.000000e+00 1.000000e+00 0.000000e+00 0.000000e+00 0.000000e+00 
 	    0.000000e+00 6.000000e-01 4.000000e-01 0.000000e+00 0.000000e+00 
 		0.000000e+00 0.000000e+00 6.000000e-01 4.000000e-01 0.000000e+00 
 		0.000000e+00 0.000000e+00 0.000000e+00 7.000000e-01 3.000000e-01 
 		0.000000e+00 0.000000e+00 0.000000e+00 0.000000e+00 0.000000e+00 
 <ENDHMM> 
~h "ax"
<BEGINHMM> 
 	<NUMSTATES> 5 
 	<STATE> 2 
 	<MEAN> 39 
 		-9.216795e+00 -3.465033e+00 -6.423656e+00 -1.107353e+01 -8.423258e+00 -1.073858e+01 -1.108349e+01 -6.035468e+00 -3.409545e+00 -8.778076e+00 -3.299176e+00 -3.847632e+00 6.077811e+01 6.235573e-03 3.134236e-03 1.414692e-03 -1.294906e-03 -1.141914e-03 7.894422e-03 1.230384e-03 -1.131871e-02 -7.178210e-03 3.021877e-03 -3.145615e-03 1.560011e-03 -3.663981e-03 2.621886e-04 9.166773e-04 -9.825568e-04 3.241693e-04 -9.543909e-05 3.029770e-04 -2.851614e-04 -1.491298e-04 -1.783248e-04 3.785257e-05 -1.129361e-04 -7.989937e-05 -1.018534e-03 
 	<VARIANCE> 39 
 		7.976604e+01 6.152662e+01 5.051948e+01 1.004776e+02 7.295739e+01 6.231032e+01 6.819729e+01 8.804686e+01 6.706458e+01 6.915740e+01 4.922140e+01 3.300986e+01 1.361345e+02 2.828882e+00 2.092716e+00 2.188640e+00 3.775563e+00 3.180235e+00 3.489889e+00 3.719737e+00 3.584243e+00 3.369323e+00 3.542708e+00 2.975766e+00 2.330531e+00 3.532624e+00 4.004033e-01 3.152293e-01 3.553639e-01 5.475901e-01 5.268688e-01 6.105083e-01 6.450021e-01 6.068367e-01 5.813815e-01 6.023107e-01 5.249541e-01 4.289736e-01 4.651601e-01 
 	<GCONST> 1.320602e+02 
 	<STATE> 3 
 	<MEAN> 39 
 		-9.216795e+00 -3.465033e+00 -6.423656e+00 -1.107353e+01 -8.423258e+00 -1.073858e+01 -1.108349e+01 -6.035468e+00 -3.409545e+00 -8.778076e+00 -3.299176e+00 -3.847632e+00 6.077811e+01 6.235573e-03 3.134236e-03 1.414692e-03 -1.294906e-03 -1.141914e-03 7.894422e-03 1.230384e-03 -1.131871e-02 -7.178210e-03 3.021877e-03 -3.145615e-03 1.560011e-03 -3.663981e-03 2.621886e-04 9.166773e-04 -9.825568e-04 3.241693e-04 -9.543909e-05 3.029770e-04 -2.851614e-04 -1.491298e-04 -1.783248e-04 3.785257e-05 -1.129361e-04 -7.989937e-05 -1.018534e-03 
 	<VARIANCE> 39 
 		7.976604e+01 6.152662e+01 5.051948e+01 1.004776e+02 7.295739e+01 6.231032e+01 6.819729e+01 8.804686e+01 6.706458e+01 6.915740e+01 4.922140e+01 3.300986e+01 1.361345e+02 2.828882e+00 2.092716e+00 2.188640e+00 3.775563e+00 3.180235e+00 3.489889e+00 3.719737e+00 3.584243e+00 3.369323e+00 3.542708e+00 2.975766e+00 2.330531e+00 3.532624e+00 4.004033e-01 3.152293e-01 3.553639e-01 5.475901e-01 5.268688e-01 6.105083e-01 6.450021e-01 6.068367e-01 5.813815e-01 6.023107e-01 5.249541e-01 4.289736e-01 4.651601e-01 
 	<GCONST> 1.320602e+02 
 	<STATE> 4 
 	<MEAN> 39 
 		-9.216795e+00 -3.465033e+00 -6.423656e+00 -1.107353e+01 -8.423258e+00 -1.073858e+01 -1.108349e+01 -6.035468e+00 -3.409545e+00 -8.778076e+00 -3.299176e+00 -3.847632e+00 6.077811e+01 6.235573e-03 3.134236e-03 1.414692e-03 -1.294906e-03 -1.141914e-03 7.894422e-03 1.230384e-03 -1.131871e-02 -7.178210e-03 3.021877e-03 -3.145615e-03 1.560011e-03 -3.663981e-03 2.621886e-04 9.166773e-04 -9.825568e-04 3.241693e-04 -9.543909e-05 3.029770e-04 -2.851614e-04 -1.491298e-04 -1.783248e-04 3.785257e-05 -1.129361e-04 -7.989937e-05 -1.018534e-03 
 	<VARIANCE> 39 
 		7.976604e+01 6.152662e+01 5.051948e+01 1.004776e+02 7.295739e+01 6.231032e+01 6.819729e+01 8.804686e+01 6.706458e+01 6.915740e+01 4.922140e+01 3.300986e+01 1.361345e+02 2.828882e+00 2.092716e+00 2.188640e+00 3.775563e+00 3.180235e+00 3.489889e+00 3.719737e+00 3.584243e+00 3.369323e+00 3.542708e+00 2.975766e+00 2.330531e+00 3.532624e+00 4.004033e-01 3.152293e-01 3.553639e-01 5.475901e-01 5.268688e-01 6.105083e-01 6.450021e-01 6.068367e-01 5.813815e-01 6.023107e-01 5.249541e-01 4.289736e-01 4.651601e-01 
 	<GCONST> 1.320602e+02 
 	<TRANSP> 5 
 		0.000000e+00 1.000000e+00 0.000000e+00 0.000000e+00 0.000000e+00 
 	    0.000000e+00 6.000000e-01 4.000000e-01 0.000000e+00 0.000000e+00 
 		0.000000e+00 0.000000e+00 6.000000e-01 4.000000e-01 0.000000e+00 
 		0.000000e+00 0.000000e+00 0.000000e+00 7.000000e-01 3.000000e-01 
 		0.000000e+00 0.000000e+00 0.000000e+00 0.000000e+00 0.000000e+00 
 <ENDHMM> 
~h "t"
<BEGINHMM> 
 	<NUMSTATES> 5 
 	<STATE> 2 
 	<MEAN> 39 
 		-9.216795e+00 -3.465033e+00 -6.423656e+00 -1.107353e+01 -8.423258e+00 -1.073858e+01 -1.108349e+01 -6.035468e+00 -3.409545e+00 -8.778076e+00 -3.299176e+00 -3.847632e+00 6.077811e+01 6.235573e-03 3.134236e-03 1.414692e-03 -1.294906e-03 -1.141914e-03 7.894422e-03 1.230384e-03 -1.131871e-02 -7.178210e-03 3.021877e-03 -3.145615e-03 1.560011e-03 -3.663981e-03 2.621886e-04 9.166773e-04 -9.825568e-04 3.241693e-04 -9.543909e-05 3.029770e-04 -2.851614e-04 -1.491298e-04 -1.783248e-04 3.785257e-05 -1.129361e-04 -7.989937e-05 -1.018534e-03 
 	<VARIANCE> 39 
 		7.976604e+01 6.152662e+01 5.051948e+01 1.004776e+02 7.295739e+01 6.231032e+01 6.819729e+01 8.804686e+01 6.706458e+01 6.915740e+01 4.922140e+01 3.300986e+01 1.361345e+02 2.828882e+00 2.092716e+00 2.188640e+00 3.775563e+00 3.180235e+00 3.489889e+00 3.719737e+00 3.584243e+00 3.369323e+00 3.542708e+00 2.975766e+00 2.330531e+00 3.532624e+00 4.004033e-01 3.152293e-01 3.553639e-01 5.475901e-01 5.268688e-01 6.105083e-01 6.450021e-01 6.068367e-01 5.813815e-01 6.023107e-01 5.249541e-01 4.289736e-01 4.651601e-01 
 	<GCONST> 1.320602e+02 
 	<STATE> 3 
 	<MEAN> 39 
 		-9.216795e+00 -3.465033e+00 -6.423656e+00 -1.107353e+01 -8.423258e+00 -1.073858e+01 -1.108349e+01 -6.035468e+00 -3.409545e+00 -8.778076e+00 -3.299176e+00 -3.847632e+00 6.077811e+01 6.235573e-03 3.134236e-03 1.414692e-03 -1.294906e-03 -1.141914e-03 7.894422e-03 1.230384e-03 -1.131871e-02 -7.178210e-03 3.021877e-03 -3.145615e-03 1.560011e-03 -3.663981e-03 2.621886e-04 9.166773e-04 -9.825568e-04 3.241693e-04 -9.543909e-05 3.029770e-04 -2.851614e-04 -1.491298e-04 -1.783248e-04 3.785257e-05 -1.129361e-04 -7.989937e-05 -1.018534e-03 
 	<VARIANCE> 39 
 		7.976604e+01 6.152662e+01 5.051948e+01 1.004776e+02 7.295739e+01 6.231032e+01 6.819729e+01 8.804686e+01 6.706458e+01 6.915740e+01 4.922140e+01 3.300986e+01 1.361345e+02 2.828882e+00 2.092716e+00 2.188640e+00 3.775563e+00 3.180235e+00 3.489889e+00 3.719737e+00 3.584243e+00 3.369323e+00 3.542708e+00 2.975766e+00 2.330531e+00 3.532624e+00 4.004033e-01 3.152293e-01 3.553639e-01 5.475901e-01 5.268688e-01 6.105083e-01 6.450021e-01 6.068367e-01 5.813815e-01 6.023107e-01 5.249541e-01 4.289736e-01 4.651601e-01 
 	<GCONST> 1.320602e+02 
 	<STATE> 4 
 	<MEAN> 39 
 		-9.216795e+00 -3.465033e+00 -6.423656e+00 -1.107353e+01 -8.423258e+00 -1.073858e+01 -1.108349e+01 -6.035468e+00 -3.409545e+00 -8.778076e+00 -3.299176e+00 -3.847632e+00 6.077811e+01 6.235573e-03 3.134236e-03 1.414692e-03 -1.294906e-03 -1.141914e-03 7.894422e-03 1.230384e-03 -1.131871e-02 -7.178210e-03 3.021877e-03 -3.145615e-03 1.560011e-03 -3.663981e-03 2.621886e-04 9.166773e-04 -9.825568e-04 3.241693e-04 -9.543909e-05 3.029770e-04 -2.851614e-04 -1.491298e-04 -1.783248e-04 3.785257e-05 -1.129361e-04 -7.989937e-05 -1.018534e-03 
 	<VARIANCE> 39 
 		7.976604e+01 6.152662e+01 5.051948e+01 1.004776e+02 7.295739e+01 6.231032e+01 6.819729e+01 8.804686e+01 6.706458e+01 6.915740e+01 4.922140e+01 3.300986e+01 1.361345e+02 2.828882e+00 2.092716e+00 2.188640e+00 3.775563e+00 3.180235e+00 3.489889e+00 3.719737e+00 3.584243e+00 3.369323e+00 3.542708e+00 2.975766e+00 2.330531e+00 3.532624e+00 4.004033e-01 3.152293e-01 3.553639e-01 5.475901e-01 5.268688e-01 6.105083e-01 6.450021e-01 6.068367e-01 5.813815e-01 6.023107e-01 5.249541e-01 4.289736e-01 4.651601e-01 
 	<GCONST> 1.320602e+02 
 	<TRANSP> 5 
 		0.000000e+00 1.000000e+00 0.000000e+00 0.000000e+00 0.000000e+00 
 	    0.000000e+00 6.000000e-01 4.000000e-01 0.000000e+00 0.000000e+00 
 		0.000000e+00 0.000000e+00 6.000000e-01 4.000000e-01 0.000000e+00 
 		0.000000e+00 0.000000e+00 0.000000e+00 7.000000e-01 3.000000e-01 
 		0.000000e+00 0.000000e+00 0.000000e+00 0.000000e+00 0.000000e+00 
 <ENDHMM> 
~h "f"
<BEGINHMM> 
 	<NUMSTATES> 5 
 	<STATE> 2 
 	<MEAN> 39 
 		-9.216795e+00 -3.465033e+00 -6.423656e+00 -1.107353e+01 -8.423258e+00 -1.073858e+01 -1.108349e+01 -6.035468e+00 -3.409545e+00 -8.778076e+00 -3.299176e+00 -3.847632e+00 6.077811e+01 6.235573e-03 3.134236e-03 1.414692e-03 -1.294906e-03 -1.141914e-03 7.894422e-03 1.230384e-03 -1.131871e-02 -7.178210e-03 3.021877e-03 -3.145615e-03 1.560011e-03 -3.663981e-03 2.621886e-04 9.166773e-04 -9.825568e-04 3.241693e-04 -9.543909e-05 3.029770e-04 -2.851614e-04 -1.491298e-04 -1.783248e-04 3.785257e-05 -1.129361e-04 -7.989937e-05 -1.018534e-03 
 	<VARIANCE> 39 
 		7.976604e+01 6.152662e+01 5.051948e+01 1.004776e+02 7.295739e+01 6.231032e+01 6.819729e+01 8.804686e+01 6.706458e+01 6.915740e+01 4.922140e+01 3.300986e+01 1.361345e+02 2.828882e+00 2.092716e+00 2.188640e+00 3.775563e+00 3.180235e+00 3.489889e+00 3.719737e+00 3.584243e+00 3.369323e+00 3.542708e+00 2.975766e+00 2.330531e+00 3.532624e+00 4.004033e-01 3.152293e-01 3.553639e-01 5.475901e-01 5.268688e-01 6.105083e-01 6.450021e-01 6.068367e-01 5.813815e-01 6.023107e-01 5.249541e-01 4.289736e-01 4.651601e-01 
 	<GCONST> 1.320602e+02 
 	<STATE> 3 
 	<MEAN> 39 
 		-9.216795e+00 -3.465033e+00 -6.423656e+00 -1.107353e+01 -8.423258e+00 -1.073858e+01 -1.108349e+01 -6.035468e+00 -3.409545e+00 -8.778076e+00 -3.299176e+00 -3.847632e+00 6.077811e+01 6.235573e-03 3.134236e-03 1.414692e-03 -1.294906e-03 -1.141914e-03 7.894422e-03 1.230384e-03 -1.131871e-02 -7.178210e-03 3.021877e-03 -3.145615e-03 1.560011e-03 -3.663981e-03 2.621886e-04 9.166773e-04 -9.825568e-04 3.241693e-04 -9.543909e-05 3.029770e-04 -2.851614e-04 -1.491298e-04 -1.783248e-04 3.785257e-05 -1.129361e-04 -7.989937e-05 -1.018534e-03 
 	<VARIANCE> 39 
 		7.976604e+01 6.152662e+01 5.051948e+01 1.004776e+02 7.295739e+01 6.231032e+01 6.819729e+01 8.804686e+01 6.706458e+01 6.915740e+01 4.922140e+01 3.300986e+01 1.361345e+02 2.828882e+00 2.092716e+00 2.188640e+00 3.775563e+00 3.180235e+00 3.489889e+00 3.719737e+00 3.584243e+00 3.369323e+00 3.542708e+00 2.975766e+00 2.330531e+00 3.532624e+00 4.004033e-01 3.152293e-01 3.553639e-01 5.475901e-01 5.268688e-01 6.105083e-01 6.450021e-01 6.068367e-01 5.813815e-01 6.023107e-01 5.249541e-01 4.289736e-01 4.651601e-01 
 	<GCONST> 1.320602e+02 
 	<STATE> 4 
 	<MEAN> 39 
 		-9.216795e+00 -3.465033e+00 -6.423656e+00 -1.107353e+01 -8.423258e+00 -1.073858e+01 -1.108349e+01 -6.035468e+00 -3.409545e+00 -8.778076e+00 -3.299176e+00 -3.847632e+00 6.077811e+01 6.235573e-03 3.134236e-03 1.414692e-03 -1.294906e-03 -1.141914e-03 7.894422e-03 1.230384e-03 -1.131871e-02 -7.178210e-03 3.021877e-03 -3.145615e-03 1.560011e-03 -3.663981e-03 2.621886e-04 9.166773e-04 -9.825568e-04 3.241693e-04 -9.543909e-05 3.029770e-04 -2.851614e-04 -1.491298e-04 -1.783248e-04 3.785257e-05 -1.129361e-04 -7.989937e-05 -1.018534e-03 
 	<VARIANCE> 39 
 		7.976604e+01 6.152662e+01 5.051948e+01 1.004776e+02 7.295739e+01 6.231032e+01 6.819729e+01 8.804686e+01 6.706458e+01 6.915740e+01 4.922140e+01 3.300986e+01 1.361345e+02 2.828882e+00 2.092716e+00 2.188640e+00 3.775563e+00 3.180235e+00 3.489889e+00 3.719737e+00 3.584243e+00 3.369323e+00 3.542708e+00 2.975766e+00 2.330531e+00 3.532624e+00 4.004033e-01 3.152293e-01 3.553639e-01 5.475901e-01 5.268688e-01 6.105083e-01 6.450021e-01 6.068367e-01 5.813815e-01 6.023107e-01 5.249541e-01 4.289736e-01 4.651601e-01 
 	<GCONST> 1.320602e+02 
 	<TRANSP> 5 
 		0.000000e+00 1.000000e+00 0.000000e+00 0.000000e+00 0.000000e+00 
 	    0.000000e+00 6.000000e-01 4.000000e-01 0.000000e+00 0.000000e+00 
 		0.000000e+00 0.000000e+00 6.000000e-01 4.000000e-01 0.000000e+00 
 		0.000000e+00 0.000000e+00 0.000000e+00 7.000000e-01 3.000000e-01 
 		0.000000e+00 0.000000e+00 0.000000e+00 0.000000e+00 0.000000e+00 
 <ENDHMM> 
~h "r"
<BEGINHMM> 
 	<NUMSTATES> 5 
 	<STATE> 2 
 	<MEAN> 39 
 		-9.216795e+00 -3.465033e+00 -6.423656e+00 -1.107353e+01 -8.423258e+00 -1.073858e+01 -1.108349e+01 -6.035468e+00 -3.409545e+00 -8.778076e+00 -3.299176e+00 -3.847632e+00 6.077811e+01 6.235573e-03 3.134236e-03 1.414692e-03 -1.294906e-03 -1.141914e-03 7.894422e-03 1.230384e-03 -1.131871e-02 -7.178210e-03 3.021877e-03 -3.145615e-03 1.560011e-03 -3.663981e-03 2.621886e-04 9.166773e-04 -9.825568e-04 3.241693e-04 -9.543909e-05 3.029770e-04 -2.851614e-04 -1.491298e-04 -1.783248e-04 3.785257e-05 -1.129361e-04 -7.989937e-05 -1.018534e-03 
 	<VARIANCE> 39 
 		7.976604e+01 6.152662e+01 5.051948e+01 1.004776e+02 7.295739e+01 6.231032e+01 6.819729e+01 8.804686e+01 6.706458e+01 6.915740e+01 4.922140e+01 3.300986e+01 1.361345e+02 2.828882e+00 2.092716e+00 2.188640e+00 3.775563e+00 3.180235e+00 3.489889e+00 3.719737e+00 3.584243e+00 3.369323e+00 3.542708e+00 2.975766e+00 2.330531e+00 3.532624e+00 4.004033e-01 3.152293e-01 3.553639e-01 5.475901e-01 5.268688e-01 6.105083e-01 6.450021e-01 6.068367e-01 5.813815e-01 6.023107e-01 5.249541e-01 4.289736e-01 4.651601e-01 
 	<GCONST> 1.320602e+02 
 	<STATE> 3 
 	<MEAN> 39 
 		-9.216795e+00 -3.465033e+00 -6.423656e+00 -1.107353e+01 -8.423258e+00 -1.073858e+01 -1.108349e+01 -6.035468e+00 -3.409545e+00 -8.778076e+00 -3.299176e+00 -3.847632e+00 6.077811e+01 6.235573e-03 3.134236e-03 1.414692e-03 -1.294906e-03 -1.141914e-03 7.894422e-03 1.230384e-03 -1.131871e-02 -7.178210e-03 3.021877e-03 -3.145615e-03 1.560011e-03 -3.663981e-03 2.621886e-04 9.166773e-04 -9.825568e-04 3.241693e-04 -9.543909e-05 3.029770e-04 -2.851614e-04 -1.491298e-04 -1.783248e-04 3.785257e-05 -1.129361e-04 -7.989937e-05 -1.018534e-03 
 	<VARIANCE> 39 
 		7.976604e+01 6.152662e+01 5.051948e+01 1.004776e+02 7.295739e+01 6.231032e+01 6.819729e+01 8.804686e+01 6.706458e+01 6.915740e+01 4.922140e+01 3.300986e+01 1.361345e+02 2.828882e+00 2.092716e+00 2.188640e+00 3.775563e+00 3.180235e+00 3.489889e+00 3.719737e+00 3.584243e+00 3.369323e+00 3.542708e+00 2.975766e+00 2.330531e+00 3.532624e+00 4.004033e-01 3.152293e-01 3.553639e-01 5.475901e-01 5.268688e-01 6.105083e-01 6.450021e-01 6.068367e-01 5.813815e-01 6.023107e-01 5.249541e-01 4.289736e-01 4.651601e-01 
 	<GCONST> 1.320602e+02 
 	<STATE> 4 
 	<MEAN> 39 
 		-9.216795e+00 -3.465033e+00 -6.423656e+00 -1.107353e+01 -8.423258e+00 -1.073858e+01 -1.108349e+01 -6.035468e+00 -3.409545e+00 -8.778076e+00 -3.299176e+00 -3.847632e+00 6.077811e+01 6.235573e-03 3.134236e-03 1.414692e-03 -1.294906e-03 -1.141914e-03 7.894422e-03 1.230384e-03 -1.131871e-02 -7.178210e-03 3.021877e-03 -3.145615e-03 1.560011e-03 -3.663981e-03 2.621886e-04 9.166773e-04 -9.825568e-04 3.241693e-04 -9.543909e-05 3.029770e-04 -2.851614e-04 -1.491298e-04 -1.783248e-04 3.785257e-05 -1.129361e-04 -7.989937e-05 -1.018534e-03 
 	<VARIANCE> 39 
 		7.976604e+01 6.152662e+01 5.051948e+01 1.004776e+02 7.295739e+01 6.231032e+01 6.819729e+01 8.804686e+01 6.706458e+01 6.915740e+01 4.922140e+01 3.300986e+01 1.361345e+02 2.828882e+00 2.092716e+00 2.188640e+00 3.775563e+00 3.180235e+00 3.489889e+00 3.719737e+00 3.584243e+00 3.369323e+00 3.542708e+00 2.975766e+00 2.330531e+00 3.532624e+00 4.004033e-01 3.152293e-01 3.553639e-01 5.475901e-01 5.268688e-01 6.105083e-01 6.450021e-01 6.068367e-01 5.813815e-01 6.023107e-01 5.249541e-01 4.289736e-01 4.651601e-01 
 	<GCONST> 1.320602e+02 
 	<TRANSP> 5 
 		0.000000e+00 1.000000e+00 0.000000e+00 0.000000e+00 0.000000e+00 
 	    0.000000e+00 6.000000e-01 4.000000e-01 0.000000e+00 0.000000e+00 
 		0.000000e+00 0.000000e+00 6.000000e-01 4.000000e-01 0.000000e+00 
 		0.000000e+00 0.000000e+00 0.000000e+00 7.000000e-01 3.000000e-01 
 		0.000000e+00 0.000000e+00 0.000000e+00 0.000000e+00 0.000000e+00 
 <ENDHMM> 
~h "jh"
<BEGINHMM> 
 	<NUMSTATES> 5 
 	<STATE> 2 
 	<MEAN> 39 
 		-9.216795e+00 -3.465033e+00 -6.423656e+00 -1.107353e+01 -8.423258e+00 -1.073858e+01 -1.108349e+01 -6.035468e+00 -3.409545e+00 -8.778076e+00 -3.299176e+00 -3.847632e+00 6.077811e+01 6.235573e-03 3.134236e-03 1.414692e-03 -1.294906e-03 -1.141914e-03 7.894422e-03 1.230384e-03 -1.131871e-02 -7.178210e-03 3.021877e-03 -3.145615e-03 1.560011e-03 -3.663981e-03 2.621886e-04 9.166773e-04 -9.825568e-04 3.241693e-04 -9.543909e-05 3.029770e-04 -2.851614e-04 -1.491298e-04 -1.783248e-04 3.785257e-05 -1.129361e-04 -7.989937e-05 -1.018534e-03 
 	<VARIANCE> 39 
 		7.976604e+01 6.152662e+01 5.051948e+01 1.004776e+02 7.295739e+01 6.231032e+01 6.819729e+01 8.804686e+01 6.706458e+01 6.915740e+01 4.922140e+01 3.300986e+01 1.361345e+02 2.828882e+00 2.092716e+00 2.188640e+00 3.775563e+00 3.180235e+00 3.489889e+00 3.719737e+00 3.584243e+00 3.369323e+00 3.542708e+00 2.975766e+00 2.330531e+00 3.532624e+00 4.004033e-01 3.152293e-01 3.553639e-01 5.475901e-01 5.268688e-01 6.105083e-01 6.450021e-01 6.068367e-01 5.813815e-01 6.023107e-01 5.249541e-01 4.289736e-01 4.651601e-01 
 	<GCONST> 1.320602e+02 
 	<STATE> 3 
 	<MEAN> 39 
 		-9.216795e+00 -3.465033e+00 -6.423656e+00 -1.107353e+01 -8.423258e+00 -1.073858e+01 -1.108349e+01 -6.035468e+00 -3.409545e+00 -8.778076e+00 -3.299176e+00 -3.847632e+00 6.077811e+01 6.235573e-03 3.134236e-03 1.414692e-03 -1.294906e-03 -1.141914e-03 7.894422e-03 1.230384e-03 -1.131871e-02 -7.178210e-03 3.021877e-03 -3.145615e-03 1.560011e-03 -3.663981e-03 2.621886e-04 9.166773e-04 -9.825568e-04 3.241693e-04 -9.543909e-05 3.029770e-04 -2.851614e-04 -1.491298e-04 -1.783248e-04 3.785257e-05 -1.129361e-04 -7.989937e-05 -1.018534e-03 
 	<VARIANCE> 39 
 		7.976604e+01 6.152662e+01 5.051948e+01 1.004776e+02 7.295739e+01 6.231032e+01 6.819729e+01 8.804686e+01 6.706458e+01 6.915740e+01 4.922140e+01 3.300986e+01 1.361345e+02 2.828882e+00 2.092716e+00 2.188640e+00 3.775563e+00 3.180235e+00 3.489889e+00 3.719737e+00 3.584243e+00 3.369323e+00 3.542708e+00 2.975766e+00 2.330531e+00 3.532624e+00 4.004033e-01 3.152293e-01 3.553639e-01 5.475901e-01 5.268688e-01 6.105083e-01 6.450021e-01 6.068367e-01 5.813815e-01 6.023107e-01 5.249541e-01 4.289736e-01 4.651601e-01 
 	<GCONST> 1.320602e+02 
 	<STATE> 4 
 	<MEAN> 39 
 		-9.216795e+00 -3.465033e+00 -6.423656e+00 -1.107353e+01 -8.423258e+00 -1.073858e+01 -1.108349e+01 -6.035468e+00 -3.409545e+00 -8.778076e+00 -3.299176e+00 -3.847632e+00 6.077811e+01 6.235573e-03 3.134236e-03 1.414692e-03 -1.294906e-03 -1.141914e-03 7.894422e-03 1.230384e-03 -1.131871e-02 -7.178210e-03 3.021877e-03 -3.145615e-03 1.560011e-03 -3.663981e-03 2.621886e-04 9.166773e-04 -9.825568e-04 3.241693e-04 -9.543909e-05 3.029770e-04 -2.851614e-04 -1.491298e-04 -1.783248e-04 3.785257e-05 -1.129361e-04 -7.989937e-05 -1.018534e-03 
 	<VARIANCE> 39 
 		7.976604e+01 6.152662e+01 5.051948e+01 1.004776e+02 7.295739e+01 6.231032e+01 6.819729e+01 8.804686e+01 6.706458e+01 6.915740e+01 4.922140e+01 3.300986e+01 1.361345e+02 2.828882e+00 2.092716e+00 2.188640e+00 3.775563e+00 3.180235e+00 3.489889e+00 3.719737e+00 3.584243e+00 3.369323e+00 3.542708e+00 2.975766e+00 2.330531e+00 3.532624e+00 4.004033e-01 3.152293e-01 3.553639e-01 5.475901e-01 5.268688e-01 6.105083e-01 6.450021e-01 6.068367e-01 5.813815e-01 6.023107e-01 5.249541e-01 4.289736e-01 4.651601e-01 
 	<GCONST> 1.320602e+02 
 	<TRANSP> 5 
 		0.000000e+00 1.000000e+00 0.000000e+00 0.000000e+00 0.000000e+00 
 	    0.000000e+00 6.000000e-01 4.000000e-01 0.000000e+00 0.000000e+00 
 		0.000000e+00 0.000000e+00 6.000000e-01 4.000000e-01 0.000000e+00 
 		0.000000e+00 0.000000e+00 0.000000e+00 7.000000e-01 3.000000e-01 
 		0.000000e+00 0.000000e+00 0.000000e+00 0.000000e+00 0.000000e+00 
 <ENDHMM> 
~h "ae"
<BEGINHMM> 
 	<NUMSTATES> 5 
 	<STATE> 2 
 	<MEAN> 39 
 		-9.216795e+00 -3.465033e+00 -6.423656e+00 -1.107353e+01 -8.423258e+00 -1.073858e+01 -1.108349e+01 -6.035468e+00 -3.409545e+00 -8.778076e+00 -3.299176e+00 -3.847632e+00 6.077811e+01 6.235573e-03 3.134236e-03 1.414692e-03 -1.294906e-03 -1.141914e-03 7.894422e-03 1.230384e-03 -1.131871e-02 -7.178210e-03 3.021877e-03 -3.145615e-03 1.560011e-03 -3.663981e-03 2.621886e-04 9.166773e-04 -9.825568e-04 3.241693e-04 -9.543909e-05 3.029770e-04 -2.851614e-04 -1.491298e-04 -1.783248e-04 3.785257e-05 -1.129361e-04 -7.989937e-05 -1.018534e-03 
 	<VARIANCE> 39 
 		7.976604e+01 6.152662e+01 5.051948e+01 1.004776e+02 7.295739e+01 6.231032e+01 6.819729e+01 8.804686e+01 6.706458e+01 6.915740e+01 4.922140e+01 3.300986e+01 1.361345e+02 2.828882e+00 2.092716e+00 2.188640e+00 3.775563e+00 3.180235e+00 3.489889e+00 3.719737e+00 3.584243e+00 3.369323e+00 3.542708e+00 2.975766e+00 2.330531e+00 3.532624e+00 4.004033e-01 3.152293e-01 3.553639e-01 5.475901e-01 5.268688e-01 6.105083e-01 6.450021e-01 6.068367e-01 5.813815e-01 6.023107e-01 5.249541e-01 4.289736e-01 4.651601e-01 
 	<GCONST> 1.320602e+02 
 	<STATE> 3 
 	<MEAN> 39 
 		-9.216795e+00 -3.465033e+00 -6.423656e+00 -1.107353e+01 -8.423258e+00 -1.073858e+01 -1.108349e+01 -6.035468e+00 -3.409545e+00 -8.778076e+00 -3.299176e+00 -3.847632e+00 6.077811e+01 6.235573e-03 3.134236e-03 1.414692e-03 -1.294906e-03 -1.141914e-03 7.894422e-03 1.230384e-03 -1.131871e-02 -7.178210e-03 3.021877e-03 -3.145615e-03 1.560011e-03 -3.663981e-03 2.621886e-04 9.166773e-04 -9.825568e-04 3.241693e-04 -9.543909e-05 3.029770e-04 -2.851614e-04 -1.491298e-04 -1.783248e-04 3.785257e-05 -1.129361e-04 -7.989937e-05 -1.018534e-03 
 	<VARIANCE> 39 
 		7.976604e+01 6.152662e+01 5.051948e+01 1.004776e+02 7.295739e+01 6.231032e+01 6.819729e+01 8.804686e+01 6.706458e+01 6.915740e+01 4.922140e+01 3.300986e+01 1.361345e+02 2.828882e+00 2.092716e+00 2.188640e+00 3.775563e+00 3.180235e+00 3.489889e+00 3.719737e+00 3.584243e+00 3.369323e+00 3.542708e+00 2.975766e+00 2.330531e+00 3.532624e+00 4.004033e-01 3.152293e-01 3.553639e-01 5.475901e-01 5.268688e-01 6.105083e-01 6.450021e-01 6.068367e-01 5.813815e-01 6.023107e-01 5.249541e-01 4.289736e-01 4.651601e-01 
 	<GCONST> 1.320602e+02 
 	<STATE> 4 
 	<MEAN> 39 
 		-9.216795e+00 -3.465033e+00 -6.423656e+00 -1.107353e+01 -8.423258e+00 -1.073858e+01 -1.108349e+01 -6.035468e+00 -3.409545e+00 -8.778076e+00 -3.299176e+00 -3.847632e+00 6.077811e+01 6.235573e-03 3.134236e-03 1.414692e-03 -1.294906e-03 -1.141914e-03 7.894422e-03 1.230384e-03 -1.131871e-02 -7.178210e-03 3.021877e-03 -3.145615e-03 1.560011e-03 -3.663981e-03 2.621886e-04 9.166773e-04 -9.825568e-04 3.241693e-04 -9.543909e-05 3.029770e-04 -2.851614e-04 -1.491298e-04 -1.783248e-04 3.785257e-05 -1.129361e-04 -7.989937e-05 -1.018534e-03 
 	<VARIANCE> 39 
 		7.976604e+01 6.152662e+01 5.051948e+01 1.004776e+02 7.295739e+01 6.231032e+01 6.819729e+01 8.804686e+01 6.706458e+01 6.915740e+01 4.922140e+01 3.300986e+01 1.361345e+02 2.828882e+00 2.092716e+00 2.188640e+00 3.775563e+00 3.180235e+00 3.489889e+00 3.719737e+00 3.584243e+00 3.369323e+00 3.542708e+00 2.975766e+00 2.330531e+00 3.532624e+00 4.004033e-01 3.152293e-01 3.553639e-01 5.475901e-01 5.268688e-01 6.105083e-01 6.450021e-01 6.068367e-01 5.813815e-01 6.023107e-01 5.249541e-01 4.289736e-01 4.651601e-01 
 	<GCONST> 1.320602e+02 
 	<TRANSP> 5 
 		0.000000e+00 1.000000e+00 0.000000e+00 0.000000e+00 0.000000e+00 
 	    0.000000e+00 6.000000e-01 4.000000e-01 0.000000e+00 0.000000e+00 
 		0.000000e+00 0.000000e+00 6.000000e-01 4.000000e-01 0.000000e+00 
 		0.000000e+00 0.000000e+00 0.000000e+00 7.000000e-01 3.000000e-01 
 		0.000000e+00 0.000000e+00 0.000000e+00 0.000000e+00 0.000000e+00 
 <ENDHMM> 
~h "n"
<BEGINHMM> 
 	<NUMSTATES> 5 
 	<STATE> 2 
 	<MEAN> 39 
 		-9.216795e+00 -3.465033e+00 -6.423656e+00 -1.107353e+01 -8.423258e+00 -1.073858e+01 -1.108349e+01 -6.035468e+00 -3.409545e+00 -8.778076e+00 -3.299176e+00 -3.847632e+00 6.077811e+01 6.235573e-03 3.134236e-03 1.414692e-03 -1.294906e-03 -1.141914e-03 7.894422e-03 1.230384e-03 -1.131871e-02 -7.178210e-03 3.021877e-03 -3.145615e-03 1.560011e-03 -3.663981e-03 2.621886e-04 9.166773e-04 -9.825568e-04 3.241693e-04 -9.543909e-05 3.029770e-04 -2.851614e-04 -1.491298e-04 -1.783248e-04 3.785257e-05 -1.129361e-04 -7.989937e-05 -1.018534e-03 
 	<VARIANCE> 39 
 		7.976604e+01 6.152662e+01 5.051948e+01 1.004776e+02 7.295739e+01 6.231032e+01 6.819729e+01 8.804686e+01 6.706458e+01 6.915740e+01 4.922140e+01 3.300986e+01 1.361345e+02 2.828882e+00 2.092716e+00 2.188640e+00 3.775563e+00 3.180235e+00 3.489889e+00 3.719737e+00 3.584243e+00 3.369323e+00 3.542708e+00 2.975766e+00 2.330531e+00 3.532624e+00 4.004033e-01 3.152293e-01 3.553639e-01 5.475901e-01 5.268688e-01 6.105083e-01 6.450021e-01 6.068367e-01 5.813815e-01 6.023107e-01 5.249541e-01 4.289736e-01 4.651601e-01 
 	<GCONST> 1.320602e+02 
 	<STATE> 3 
 	<MEAN> 39 
 		-9.216795e+00 -3.465033e+00 -6.423656e+00 -1.107353e+01 -8.423258e+00 -1.073858e+01 -1.108349e+01 -6.035468e+00 -3.409545e+00 -8.778076e+00 -3.299176e+00 -3.847632e+00 6.077811e+01 6.235573e-03 3.134236e-03 1.414692e-03 -1.294906e-03 -1.141914e-03 7.894422e-03 1.230384e-03 -1.131871e-02 -7.178210e-03 3.021877e-03 -3.145615e-03 1.560011e-03 -3.663981e-03 2.621886e-04 9.166773e-04 -9.825568e-04 3.241693e-04 -9.543909e-05 3.029770e-04 -2.851614e-04 -1.491298e-04 -1.783248e-04 3.785257e-05 -1.129361e-04 -7.989937e-05 -1.018534e-03 
 	<VARIANCE> 39 
 		7.976604e+01 6.152662e+01 5.051948e+01 1.004776e+02 7.295739e+01 6.231032e+01 6.819729e+01 8.804686e+01 6.706458e+01 6.915740e+01 4.922140e+01 3.300986e+01 1.361345e+02 2.828882e+00 2.092716e+00 2.188640e+00 3.775563e+00 3.180235e+00 3.489889e+00 3.719737e+00 3.584243e+00 3.369323e+00 3.542708e+00 2.975766e+00 2.330531e+00 3.532624e+00 4.004033e-01 3.152293e-01 3.553639e-01 5.475901e-01 5.268688e-01 6.105083e-01 6.450021e-01 6.068367e-01 5.813815e-01 6.023107e-01 5.249541e-01 4.289736e-01 4.651601e-01 
 	<GCONST> 1.320602e+02 
 	<STATE> 4 
 	<MEAN> 39 
 		-9.216795e+00 -3.465033e+00 -6.423656e+00 -1.107353e+01 -8.423258e+00 -1.073858e+01 -1.108349e+01 -6.035468e+00 -3.409545e+00 -8.778076e+00 -3.299176e+00 -3.847632e+00 6.077811e+01 6.235573e-03 3.134236e-03 1.414692e-03 -1.294906e-03 -1.141914e-03 7.894422e-03 1.230384e-03 -1.131871e-02 -7.178210e-03 3.021877e-03 -3.145615e-03 1.560011e-03 -3.663981e-03 2.621886e-04 9.166773e-04 -9.825568e-04 3.241693e-04 -9.543909e-05 3.029770e-04 -2.851614e-04 -1.491298e-04 -1.783248e-04 3.785257e-05 -1.129361e-04 -7.989937e-05 -1.018534e-03 
 	<VARIANCE> 39 
 		7.976604e+01 6.152662e+01 5.051948e+01 1.004776e+02 7.295739e+01 6.231032e+01 6.819729e+01 8.804686e+01 6.706458e+01 6.915740e+01 4.922140e+01 3.300986e+01 1.361345e+02 2.828882e+00 2.092716e+00 2.188640e+00 3.775563e+00 3.180235e+00 3.489889e+00 3.719737e+00 3.584243e+00 3.369323e+00 3.542708e+00 2.975766e+00 2.330531e+00 3.532624e+00 4.004033e-01 3.152293e-01 3.553639e-01 5.475901e-01 5.268688e-01 6.105083e-01 6.450021e-01 6.068367e-01 5.813815e-01 6.023107e-01 5.249541e-01 4.289736e-01 4.651601e-01 
 	<GCONST> 1.320602e+02 
 	<TRANSP> 5 
 		0.000000e+00 1.000000e+00 0.000000e+00 0.000000e+00 0.000000e+00 
 	    0.000000e+00 6.000000e-01 4.000000e-01 0.000000e+00 0.000000e+00 
 		0.000000e+00 0.000000e+00 6.000000e-01 4.000000e-01 0.000000e+00 
 		0.000000e+00 0.000000e+00 0.000000e+00 7.000000e-01 3.000000e-01 
 		0.000000e+00 0.000000e+00 0.000000e+00 0.000000e+00 0.000000e+00 
 <ENDHMM> 
~h "s"
<BEGINHMM> 
 	<NUMSTATES> 5 
 	<STATE> 2 
 	<MEAN> 39 
 		-9.216795e+00 -3.465033e+00 -6.423656e+00 -1.107353e+01 -8.423258e+00 -1.073858e+01 -1.108349e+01 -6.035468e+00 -3.409545e+00 -8.778076e+00 -3.299176e+00 -3.847632e+00 6.077811e+01 6.235573e-03 3.134236e-03 1.414692e-03 -1.294906e-03 -1.141914e-03 7.894422e-03 1.230384e-03 -1.131871e-02 -7.178210e-03 3.021877e-03 -3.145615e-03 1.560011e-03 -3.663981e-03 2.621886e-04 9.166773e-04 -9.825568e-04 3.241693e-04 -9.543909e-05 3.029770e-04 -2.851614e-04 -1.491298e-04 -1.783248e-04 3.785257e-05 -1.129361e-04 -7.989937e-05 -1.018534e-03 
 	<VARIANCE> 39 
 		7.976604e+01 6.152662e+01 5.051948e+01 1.004776e+02 7.295739e+01 6.231032e+01 6.819729e+01 8.804686e+01 6.706458e+01 6.915740e+01 4.922140e+01 3.300986e+01 1.361345e+02 2.828882e+00 2.092716e+00 2.188640e+00 3.775563e+00 3.180235e+00 3.489889e+00 3.719737e+00 3.584243e+00 3.369323e+00 3.542708e+00 2.975766e+00 2.330531e+00 3.532624e+00 4.004033e-01 3.152293e-01 3.553639e-01 5.475901e-01 5.268688e-01 6.105083e-01 6.450021e-01 6.068367e-01 5.813815e-01 6.023107e-01 5.249541e-01 4.289736e-01 4.651601e-01 
 	<GCONST> 1.320602e+02 
 	<STATE> 3 
 	<MEAN> 39 
 		-9.216795e+00 -3.465033e+00 -6.423656e+00 -1.107353e+01 -8.423258e+00 -1.073858e+01 -1.108349e+01 -6.035468e+00 -3.409545e+00 -8.778076e+00 -3.299176e+00 -3.847632e+00 6.077811e+01 6.235573e-03 3.134236e-03 1.414692e-03 -1.294906e-03 -1.141914e-03 7.894422e-03 1.230384e-03 -1.131871e-02 -7.178210e-03 3.021877e-03 -3.145615e-03 1.560011e-03 -3.663981e-03 2.621886e-04 9.166773e-04 -9.825568e-04 3.241693e-04 -9.543909e-05 3.029770e-04 -2.851614e-04 -1.491298e-04 -1.783248e-04 3.785257e-05 -1.129361e-04 -7.989937e-05 -1.018534e-03 
 	<VARIANCE> 39 
 		7.976604e+01 6.152662e+01 5.051948e+01 1.004776e+02 7.295739e+01 6.231032e+01 6.819729e+01 8.804686e+01 6.706458e+01 6.915740e+01 4.922140e+01 3.300986e+01 1.361345e+02 2.828882e+00 2.092716e+00 2.188640e+00 3.775563e+00 3.180235e+00 3.489889e+00 3.719737e+00 3.584243e+00 3.369323e+00 3.542708e+00 2.975766e+00 2.330531e+00 3.532624e+00 4.004033e-01 3.152293e-01 3.553639e-01 5.475901e-01 5.268688e-01 6.105083e-01 6.450021e-01 6.068367e-01 5.813815e-01 6.023107e-01 5.249541e-01 4.289736e-01 4.651601e-01 
 	<GCONST> 1.320602e+02 
 	<STATE> 4 
 	<MEAN> 39 
 		-9.216795e+00 -3.465033e+00 -6.423656e+00 -1.107353e+01 -8.423258e+00 -1.073858e+01 -1.108349e+01 -6.035468e+00 -3.409545e+00 -8.778076e+00 -3.299176e+00 -3.847632e+00 6.077811e+01 6.235573e-03 3.134236e-03 1.414692e-03 -1.294906e-03 -1.141914e-03 7.894422e-03 1.230384e-03 -1.131871e-02 -7.178210e-03 3.021877e-03 -3.145615e-03 1.560011e-03 -3.663981e-03 2.621886e-04 9.166773e-04 -9.825568e-04 3.241693e-04 -9.543909e-05 3.029770e-04 -2.851614e-04 -1.491298e-04 -1.783248e-04 3.785257e-05 -1.129361e-04 -7.989937e-05 -1.018534e-03 
 	<VARIANCE> 39 
 		7.976604e+01 6.152662e+01 5.051948e+01 1.004776e+02 7.295739e+01 6.231032e+01 6.819729e+01 8.804686e+01 6.706458e+01 6.915740e+01 4.922140e+01 3.300986e+01 1.361345e+02 2.828882e+00 2.092716e+00 2.188640e+00 3.775563e+00 3.180235e+00 3.489889e+00 3.719737e+00 3.584243e+00 3.369323e+00 3.542708e+00 2.975766e+00 2.330531e+00 3.532624e+00 4.004033e-01 3.152293e-01 3.553639e-01 5.475901e-01 5.268688e-01 6.105083e-01 6.450021e-01 6.068367e-01 5.813815e-01 6.023107e-01 5.249541e-01 4.289736e-01 4.651601e-01 
 	<GCONST> 1.320602e+02 
 	<TRANSP> 5 
 		0.000000e+00 1.000000e+00 0.000000e+00 0.000000e+00 0.000000e+00 
 	    0.000000e+00 6.000000e-01 4.000000e-01 0.000000e+00 0.000000e+00 
 		0.000000e+00 0.000000e+00 6.000000e-01 4.000000e-01 0.000000e+00 
 		0.000000e+00 0.000000e+00 0.000000e+00 7.000000e-01 3.000000e-01 
 		0.000000e+00 0.000000e+00 0.000000e+00 0.000000e+00 0.000000e+00 
 <ENDHMM> 
~h "eh"
<BEGINHMM> 
 	<NUMSTATES> 5 
 	<STATE> 2 
 	<MEAN> 39 
 		-9.216795e+00 -3.465033e+00 -6.423656e+00 -1.107353e+01 -8.423258e+00 -1.073858e+01 -1.108349e+01 -6.035468e+00 -3.409545e+00 -8.778076e+00 -3.299176e+00 -3.847632e+00 6.077811e+01 6.235573e-03 3.134236e-03 1.414692e-03 -1.294906e-03 -1.141914e-03 7.894422e-03 1.230384e-03 -1.131871e-02 -7.178210e-03 3.021877e-03 -3.145615e-03 1.560011e-03 -3.663981e-03 2.621886e-04 9.166773e-04 -9.825568e-04 3.241693e-04 -9.543909e-05 3.029770e-04 -2.851614e-04 -1.491298e-04 -1.783248e-04 3.785257e-05 -1.129361e-04 -7.989937e-05 -1.018534e-03 
 	<VARIANCE> 39 
 		7.976604e+01 6.152662e+01 5.051948e+01 1.004776e+02 7.295739e+01 6.231032e+01 6.819729e+01 8.804686e+01 6.706458e+01 6.915740e+01 4.922140e+01 3.300986e+01 1.361345e+02 2.828882e+00 2.092716e+00 2.188640e+00 3.775563e+00 3.180235e+00 3.489889e+00 3.719737e+00 3.584243e+00 3.369323e+00 3.542708e+00 2.975766e+00 2.330531e+00 3.532624e+00 4.004033e-01 3.152293e-01 3.553639e-01 5.475901e-01 5.268688e-01 6.105083e-01 6.450021e-01 6.068367e-01 5.813815e-01 6.023107e-01 5.249541e-01 4.289736e-01 4.651601e-01 
 	<GCONST> 1.320602e+02 
 	<STATE> 3 
 	<MEAN> 39 
 		-9.216795e+00 -3.465033e+00 -6.423656e+00 -1.107353e+01 -8.423258e+00 -1.073858e+01 -1.108349e+01 -6.035468e+00 -3.409545e+00 -8.778076e+00 -3.299176e+00 -3.847632e+00 6.077811e+01 6.235573e-03 3.134236e-03 1.414692e-03 -1.294906e-03 -1.141914e-03 7.894422e-03 1.230384e-03 -1.131871e-02 -7.178210e-03 3.021877e-03 -3.145615e-03 1.560011e-03 -3.663981e-03 2.621886e-04 9.166773e-04 -9.825568e-04 3.241693e-04 -9.543909e-05 3.029770e-04 -2.851614e-04 -1.491298e-04 -1.783248e-04 3.785257e-05 -1.129361e-04 -7.989937e-05 -1.018534e-03 
 	<VARIANCE> 39 
 		7.976604e+01 6.152662e+01 5.051948e+01 1.004776e+02 7.295739e+01 6.231032e+01 6.819729e+01 8.804686e+01 6.706458e+01 6.915740e+01 4.922140e+01 3.300986e+01 1.361345e+02 2.828882e+00 2.092716e+00 2.188640e+00 3.775563e+00 3.180235e+00 3.489889e+00 3.719737e+00 3.584243e+00 3.369323e+00 3.542708e+00 2.975766e+00 2.330531e+00 3.532624e+00 4.004033e-01 3.152293e-01 3.553639e-01 5.475901e-01 5.268688e-01 6.105083e-01 6.450021e-01 6.068367e-01 5.813815e-01 6.023107e-01 5.249541e-01 4.289736e-01 4.651601e-01 
 	<GCONST> 1.320602e+02 
 	<STATE> 4 
 	<MEAN> 39 
 		-9.216795e+00 -3.465033e+00 -6.423656e+00 -1.107353e+01 -8.423258e+00 -1.073858e+01 -1.108349e+01 -6.035468e+00 -3.409545e+00 -8.778076e+00 -3.299176e+00 -3.847632e+00 6.077811e+01 6.235573e-03 3.134236e-03 1.414692e-03 -1.294906e-03 -1.141914e-03 7.894422e-03 1.230384e-03 -1.131871e-02 -7.178210e-03 3.021877e-03 -3.145615e-03 1.560011e-03 -3.663981e-03 2.621886e-04 9.166773e-04 -9.825568e-04 3.241693e-04 -9.543909e-05 3.029770e-04 -2.851614e-04 -1.491298e-04 -1.783248e-04 3.785257e-05 -1.129361e-04 -7.989937e-05 -1.018534e-03 
 	<VARIANCE> 39 
 		7.976604e+01 6.152662e+01 5.051948e+01 1.004776e+02 7.295739e+01 6.231032e+01 6.819729e+01 8.804686e+01 6.706458e+01 6.915740e+01 4.922140e+01 3.300986e+01 1.361345e+02 2.828882e+00 2.092716e+00 2.188640e+00 3.775563e+00 3.180235e+00 3.489889e+00 3.719737e+00 3.584243e+00 3.369323e+00 3.542708e+00 2.975766e+00 2.330531e+00 3.532624e+00 4.004033e-01 3.152293e-01 3.553639e-01 5.475901e-01 5.268688e-01 6.105083e-01 6.450021e-01 6.068367e-01 5.813815e-01 6.023107e-01 5.249541e-01 4.289736e-01 4.651601e-01 
 	<GCONST> 1.320602e+02 
 	<TRANSP> 5 
 		0.000000e+00 1.000000e+00 0.000000e+00 0.000000e+00 0.000000e+00 
 	    0.000000e+00 6.000000e-01 4.000000e-01 0.000000e+00 0.000000e+00 
 		0.000000e+00 0.000000e+00 6.000000e-01 4.000000e-01 0.000000e+00 
 		0.000000e+00 0.000000e+00 0.000000e+00 7.000000e-01 3.000000e-01 
 		0.000000e+00 0.000000e+00 0.000000e+00 0.000000e+00 0.000000e+00 
 <ENDHMM> 
~h "uh"
<BEGINHMM> 
 	<NUMSTATES> 5 
 	<STATE> 2 
 	<MEAN> 39 
 		-9.216795e+00 -3.465033e+00 -6.423656e+00 -1.107353e+01 -8.423258e+00 -1.073858e+01 -1.108349e+01 -6.035468e+00 -3.409545e+00 -8.778076e+00 -3.299176e+00 -3.847632e+00 6.077811e+01 6.235573e-03 3.134236e-03 1.414692e-03 -1.294906e-03 -1.141914e-03 7.894422e-03 1.230384e-03 -1.131871e-02 -7.178210e-03 3.021877e-03 -3.145615e-03 1.560011e-03 -3.663981e-03 2.621886e-04 9.166773e-04 -9.825568e-04 3.241693e-04 -9.543909e-05 3.029770e-04 -2.851614e-04 -1.491298e-04 -1.783248e-04 3.785257e-05 -1.129361e-04 -7.989937e-05 -1.018534e-03 
 	<VARIANCE> 39 
 		7.976604e+01 6.152662e+01 5.051948e+01 1.004776e+02 7.295739e+01 6.231032e+01 6.819729e+01 8.804686e+01 6.706458e+01 6.915740e+01 4.922140e+01 3.300986e+01 1.361345e+02 2.828882e+00 2.092716e+00 2.188640e+00 3.775563e+00 3.180235e+00 3.489889e+00 3.719737e+00 3.584243e+00 3.369323e+00 3.542708e+00 2.975766e+00 2.330531e+00 3.532624e+00 4.004033e-01 3.152293e-01 3.553639e-01 5.475901e-01 5.268688e-01 6.105083e-01 6.450021e-01 6.068367e-01 5.813815e-01 6.023107e-01 5.249541e-01 4.289736e-01 4.651601e-01 
 	<GCONST> 1.320602e+02 
 	<STATE> 3 
 	<MEAN> 39 
 		-9.216795e+00 -3.465033e+00 -6.423656e+00 -1.107353e+01 -8.423258e+00 -1.073858e+01 -1.108349e+01 -6.035468e+00 -3.409545e+00 -8.778076e+00 -3.299176e+00 -3.847632e+00 6.077811e+01 6.235573e-03 3.134236e-03 1.414692e-03 -1.294906e-03 -1.141914e-03 7.894422e-03 1.230384e-03 -1.131871e-02 -7.178210e-03 3.021877e-03 -3.145615e-03 1.560011e-03 -3.663981e-03 2.621886e-04 9.166773e-04 -9.825568e-04 3.241693e-04 -9.543909e-05 3.029770e-04 -2.851614e-04 -1.491298e-04 -1.783248e-04 3.785257e-05 -1.129361e-04 -7.989937e-05 -1.018534e-03 
 	<VARIANCE> 39 
 		7.976604e+01 6.152662e+01 5.051948e+01 1.004776e+02 7.295739e+01 6.231032e+01 6.819729e+01 8.804686e+01 6.706458e+01 6.915740e+01 4.922140e+01 3.300986e+01 1.361345e+02 2.828882e+00 2.092716e+00 2.188640e+00 3.775563e+00 3.180235e+00 3.489889e+00 3.719737e+00 3.584243e+00 3.369323e+00 3.542708e+00 2.975766e+00 2.330531e+00 3.532624e+00 4.004033e-01 3.152293e-01 3.553639e-01 5.475901e-01 5.268688e-01 6.105083e-01 6.450021e-01 6.068367e-01 5.813815e-01 6.023107e-01 5.249541e-01 4.289736e-01 4.651601e-01 
 	<GCONST> 1.320602e+02 
 	<STATE> 4 
 	<MEAN> 39 
 		-9.216795e+00 -3.465033e+00 -6.423656e+00 -1.107353e+01 -8.423258e+00 -1.073858e+01 -1.108349e+01 -6.035468e+00 -3.409545e+00 -8.778076e+00 -3.299176e+00 -3.847632e+00 6.077811e+01 6.235573e-03 3.134236e-03 1.414692e-03 -1.294906e-03 -1.141914e-03 7.894422e-03 1.230384e-03 -1.131871e-02 -7.178210e-03 3.021877e-03 -3.145615e-03 1.560011e-03 -3.663981e-03 2.621886e-04 9.166773e-04 -9.825568e-04 3.241693e-04 -9.543909e-05 3.029770e-04 -2.851614e-04 -1.491298e-04 -1.783248e-04 3.785257e-05 -1.129361e-04 -7.989937e-05 -1.018534e-03 
 	<VARIANCE> 39 
 		7.976604e+01 6.152662e+01 5.051948e+01 1.004776e+02 7.295739e+01 6.231032e+01 6.819729e+01 8.804686e+01 6.706458e+01 6.915740e+01 4.922140e+01 3.300986e+01 1.361345e+02 2.828882e+00 2.092716e+00 2.188640e+00 3.775563e+00 3.180235e+00 3.489889e+00 3.719737e+00 3.584243e+00 3.369323e+00 3.542708e+00 2.975766e+00 2.330531e+00 3.532624e+00 4.004033e-01 3.152293e-01 3.553639e-01 5.475901e-01 5.268688e-01 6.105083e-01 6.450021e-01 6.068367e-01 5.813815e-01 6.023107e-01 5.249541e-01 4.289736e-01 4.651601e-01 
 	<GCONST> 1.320602e+02 
 	<TRANSP> 5 
 		0.000000e+00 1.000000e+00 0.000000e+00 0.000000e+00 0.000000e+00 
 	    0.000000e+00 6.000000e-01 4.000000e-01 0.000000e+00 0.000000e+00 
 		0.000000e+00 0.000000e+00 6.000000e-01 4.000000e-01 0.000000e+00 
 		0.000000e+00 0.000000e+00 0.000000e+00 7.000000e-01 3.000000e-01 
 		0.000000e+00 0.000000e+00 0.000000e+00 0.000000e+00 0.000000e+00 
 <ENDHMM> 
~h "p"
<BEGINHMM> 
 	<NUMSTATES> 5 
 	<STATE> 2 
 	<MEAN> 39 
 		-9.216795e+00 -3.465033e+00 -6.423656e+00 -1.107353e+01 -8.423258e+00 -1.073858e+01 -1.108349e+01 -6.035468e+00 -3.409545e+00 -8.778076e+00 -3.299176e+00 -3.847632e+00 6.077811e+01 6.235573e-03 3.134236e-03 1.414692e-03 -1.294906e-03 -1.141914e-03 7.894422e-03 1.230384e-03 -1.131871e-02 -7.178210e-03 3.021877e-03 -3.145615e-03 1.560011e-03 -3.663981e-03 2.621886e-04 9.166773e-04 -9.825568e-04 3.241693e-04 -9.543909e-05 3.029770e-04 -2.851614e-04 -1.491298e-04 -1.783248e-04 3.785257e-05 -1.129361e-04 -7.989937e-05 -1.018534e-03 
 	<VARIANCE> 39 
 		7.976604e+01 6.152662e+01 5.051948e+01 1.004776e+02 7.295739e+01 6.231032e+01 6.819729e+01 8.804686e+01 6.706458e+01 6.915740e+01 4.922140e+01 3.300986e+01 1.361345e+02 2.828882e+00 2.092716e+00 2.188640e+00 3.775563e+00 3.180235e+00 3.489889e+00 3.719737e+00 3.584243e+00 3.369323e+00 3.542708e+00 2.975766e+00 2.330531e+00 3.532624e+00 4.004033e-01 3.152293e-01 3.553639e-01 5.475901e-01 5.268688e-01 6.105083e-01 6.450021e-01 6.068367e-01 5.813815e-01 6.023107e-01 5.249541e-01 4.289736e-01 4.651601e-01 
 	<GCONST> 1.320602e+02 
 	<STATE> 3 
 	<MEAN> 39 
 		-9.216795e+00 -3.465033e+00 -6.423656e+00 -1.107353e+01 -8.423258e+00 -1.073858e+01 -1.108349e+01 -6.035468e+00 -3.409545e+00 -8.778076e+00 -3.299176e+00 -3.847632e+00 6.077811e+01 6.235573e-03 3.134236e-03 1.414692e-03 -1.294906e-03 -1.141914e-03 7.894422e-03 1.230384e-03 -1.131871e-02 -7.178210e-03 3.021877e-03 -3.145615e-03 1.560011e-03 -3.663981e-03 2.621886e-04 9.166773e-04 -9.825568e-04 3.241693e-04 -9.543909e-05 3.029770e-04 -2.851614e-04 -1.491298e-04 -1.783248e-04 3.785257e-05 -1.129361e-04 -7.989937e-05 -1.018534e-03 
 	<VARIANCE> 39 
 		7.976604e+01 6.152662e+01 5.051948e+01 1.004776e+02 7.295739e+01 6.231032e+01 6.819729e+01 8.804686e+01 6.706458e+01 6.915740e+01 4.922140e+01 3.300986e+01 1.361345e+02 2.828882e+00 2.092716e+00 2.188640e+00 3.775563e+00 3.180235e+00 3.489889e+00 3.719737e+00 3.584243e+00 3.369323e+00 3.542708e+00 2.975766e+00 2.330531e+00 3.532624e+00 4.004033e-01 3.152293e-01 3.553639e-01 5.475901e-01 5.268688e-01 6.105083e-01 6.450021e-01 6.068367e-01 5.813815e-01 6.023107e-01 5.249541e-01 4.289736e-01 4.651601e-01 
 	<GCONST> 1.320602e+02 
 	<STATE> 4 
 	<MEAN> 39 
 		-9.216795e+00 -3.465033e+00 -6.423656e+00 -1.107353e+01 -8.423258e+00 -1.073858e+01 -1.108349e+01 -6.035468e+00 -3.409545e+00 -8.778076e+00 -3.299176e+00 -3.847632e+00 6.077811e+01 6.235573e-03 3.134236e-03 1.414692e-03 -1.294906e-03 -1.141914e-03 7.894422e-03 1.230384e-03 -1.131871e-02 -7.178210e-03 3.021877e-03 -3.145615e-03 1.560011e-03 -3.663981e-03 2.621886e-04 9.166773e-04 -9.825568e-04 3.241693e-04 -9.543909e-05 3.029770e-04 -2.851614e-04 -1.491298e-04 -1.783248e-04 3.785257e-05 -1.129361e-04 -7.989937e-05 -1.018534e-03 
 	<VARIANCE> 39 
 		7.976604e+01 6.152662e+01 5.051948e+01 1.004776e+02 7.295739e+01 6.231032e+01 6.819729e+01 8.804686e+01 6.706458e+01 6.915740e+01 4.922140e+01 3.300986e+01 1.361345e+02 2.828882e+00 2.092716e+00 2.188640e+00 3.775563e+00 3.180235e+00 3.489889e+00 3.719737e+00 3.584243e+00 3.369323e+00 3.542708e+00 2.975766e+00 2.330531e+00 3.532624e+00 4.004033e-01 3.152293e-01 3.553639e-01 5.475901e-01 5.268688e-01 6.105083e-01 6.450021e-01 6.068367e-01 5.813815e-01 6.023107e-01 5.249541e-01 4.289736e-01 4.651601e-01 
 	<GCONST> 1.320602e+02 
 	<TRANSP> 5 
 		0.000000e+00 1.000000e+00 0.000000e+00 0.000000e+00 0.000000e+00 
 	    0.000000e+00 6.000000e-01 4.000000e-01 0.000000e+00 0.000000e+00 
 		0.000000e+00 0.000000e+00 6.000000e-01 4.000000e-01 0.000000e+00 
 		0.000000e+00 0.000000e+00 0.000000e+00 7.000000e-01 3.000000e-01 
 		0.000000e+00 0.000000e+00 0.000000e+00 0.000000e+00 0.000000e+00 
 <ENDHMM> 
~h "uw"
<BEGINHMM> 
 	<NUMSTATES> 5 
 	<STATE> 2 
 	<MEAN> 39 
 		-9.216795e+00 -3.465033e+00 -6.423656e+00 -1.107353e+01 -8.423258e+00 -1.073858e+01 -1.108349e+01 -6.035468e+00 -3.409545e+00 -8.778076e+00 -3.299176e+00 -3.847632e+00 6.077811e+01 6.235573e-03 3.134236e-03 1.414692e-03 -1.294906e-03 -1.141914e-03 7.894422e-03 1.230384e-03 -1.131871e-02 -7.178210e-03 3.021877e-03 -3.145615e-03 1.560011e-03 -3.663981e-03 2.621886e-04 9.166773e-04 -9.825568e-04 3.241693e-04 -9.543909e-05 3.029770e-04 -2.851614e-04 -1.491298e-04 -1.783248e-04 3.785257e-05 -1.129361e-04 -7.989937e-05 -1.018534e-03 
 	<VARIANCE> 39 
 		7.976604e+01 6.152662e+01 5.051948e+01 1.004776e+02 7.295739e+01 6.231032e+01 6.819729e+01 8.804686e+01 6.706458e+01 6.915740e+01 4.922140e+01 3.300986e+01 1.361345e+02 2.828882e+00 2.092716e+00 2.188640e+00 3.775563e+00 3.180235e+00 3.489889e+00 3.719737e+00 3.584243e+00 3.369323e+00 3.542708e+00 2.975766e+00 2.330531e+00 3.532624e+00 4.004033e-01 3.152293e-01 3.553639e-01 5.475901e-01 5.268688e-01 6.105083e-01 6.450021e-01 6.068367e-01 5.813815e-01 6.023107e-01 5.249541e-01 4.289736e-01 4.651601e-01 
 	<GCONST> 1.320602e+02 
 	<STATE> 3 
 	<MEAN> 39 
 		-9.216795e+00 -3.465033e+00 -6.423656e+00 -1.107353e+01 -8.423258e+00 -1.073858e+01 -1.108349e+01 -6.035468e+00 -3.409545e+00 -8.778076e+00 -3.299176e+00 -3.847632e+00 6.077811e+01 6.235573e-03 3.134236e-03 1.414692e-03 -1.294906e-03 -1.141914e-03 7.894422e-03 1.230384e-03 -1.131871e-02 -7.178210e-03 3.021877e-03 -3.145615e-03 1.560011e-03 -3.663981e-03 2.621886e-04 9.166773e-04 -9.825568e-04 3.241693e-04 -9.543909e-05 3.029770e-04 -2.851614e-04 -1.491298e-04 -1.783248e-04 3.785257e-05 -1.129361e-04 -7.989937e-05 -1.018534e-03 
 	<VARIANCE> 39 
 		7.976604e+01 6.152662e+01 5.051948e+01 1.004776e+02 7.295739e+01 6.231032e+01 6.819729e+01 8.804686e+01 6.706458e+01 6.915740e+01 4.922140e+01 3.300986e+01 1.361345e+02 2.828882e+00 2.092716e+00 2.188640e+00 3.775563e+00 3.180235e+00 3.489889e+00 3.719737e+00 3.584243e+00 3.369323e+00 3.542708e+00 2.975766e+00 2.330531e+00 3.532624e+00 4.004033e-01 3.152293e-01 3.553639e-01 5.475901e-01 5.268688e-01 6.105083e-01 6.450021e-01 6.068367e-01 5.813815e-01 6.023107e-01 5.249541e-01 4.289736e-01 4.651601e-01 
 	<GCONST> 1.320602e+02 
 	<STATE> 4 
 	<MEAN> 39 
 		-9.216795e+00 -3.465033e+00 -6.423656e+00 -1.107353e+01 -8.423258e+00 -1.073858e+01 -1.108349e+01 -6.035468e+00 -3.409545e+00 -8.778076e+00 -3.299176e+00 -3.847632e+00 6.077811e+01 6.235573e-03 3.134236e-03 1.414692e-03 -1.294906e-03 -1.141914e-03 7.894422e-03 1.230384e-03 -1.131871e-02 -7.178210e-03 3.021877e-03 -3.145615e-03 1.560011e-03 -3.663981e-03 2.621886e-04 9.166773e-04 -9.825568e-04 3.241693e-04 -9.543909e-05 3.029770e-04 -2.851614e-04 -1.491298e-04 -1.783248e-04 3.785257e-05 -1.129361e-04 -7.989937e-05 -1.018534e-03 
 	<VARIANCE> 39 
 		7.976604e+01 6.152662e+01 5.051948e+01 1.004776e+02 7.295739e+01 6.231032e+01 6.819729e+01 8.804686e+01 6.706458e+01 6.915740e+01 4.922140e+01 3.300986e+01 1.361345e+02 2.828882e+00 2.092716e+00 2.188640e+00 3.775563e+00 3.180235e+00 3.489889e+00 3.719737e+00 3.584243e+00 3.369323e+00 3.542708e+00 2.975766e+00 2.330531e+00 3.532624e+00 4.004033e-01 3.152293e-01 3.553639e-01 5.475901e-01 5.268688e-01 6.105083e-01 6.450021e-01 6.068367e-01 5.813815e-01 6.023107e-01 5.249541e-01 4.289736e-01 4.651601e-01 
 	<GCONST> 1.320602e+02 
 	<TRANSP> 5 
 		0.000000e+00 1.000000e+00 0.000000e+00 0.000000e+00 0.000000e+00 
 	    0.000000e+00 6.000000e-01 4.000000e-01 0.000000e+00 0.000000e+00 
 		0.000000e+00 0.000000e+00 6.000000e-01 4.000000e-01 0.000000e+00 
 		0.000000e+00 0.000000e+00 0.000000e+00 7.000000e-01 3.000000e-01 
 		0.000000e+00 0.000000e+00 0.000000e+00 0.000000e+00 0.000000e+00 
 <ENDHMM> 
~h "ia"
<BEGINHMM> 
 	<NUMSTATES> 5 
 	<STATE> 2 
 	<MEAN> 39 
 		-9.216795e+00 -3.465033e+00 -6.423656e+00 -1.107353e+01 -8.423258e+00 -1.073858e+01 -1.108349e+01 -6.035468e+00 -3.409545e+00 -8.778076e+00 -3.299176e+00 -3.847632e+00 6.077811e+01 6.235573e-03 3.134236e-03 1.414692e-03 -1.294906e-03 -1.141914e-03 7.894422e-03 1.230384e-03 -1.131871e-02 -7.178210e-03 3.021877e-03 -3.145615e-03 1.560011e-03 -3.663981e-03 2.621886e-04 9.166773e-04 -9.825568e-04 3.241693e-04 -9.543909e-05 3.029770e-04 -2.851614e-04 -1.491298e-04 -1.783248e-04 3.785257e-05 -1.129361e-04 -7.989937e-05 -1.018534e-03 
 	<VARIANCE> 39 
 		7.976604e+01 6.152662e+01 5.051948e+01 1.004776e+02 7.295739e+01 6.231032e+01 6.819729e+01 8.804686e+01 6.706458e+01 6.915740e+01 4.922140e+01 3.300986e+01 1.361345e+02 2.828882e+00 2.092716e+00 2.188640e+00 3.775563e+00 3.180235e+00 3.489889e+00 3.719737e+00 3.584243e+00 3.369323e+00 3.542708e+00 2.975766e+00 2.330531e+00 3.532624e+00 4.004033e-01 3.152293e-01 3.553639e-01 5.475901e-01 5.268688e-01 6.105083e-01 6.450021e-01 6.068367e-01 5.813815e-01 6.023107e-01 5.249541e-01 4.289736e-01 4.651601e-01 
 	<GCONST> 1.320602e+02 
 	<STATE> 3 
 	<MEAN> 39 
 		-9.216795e+00 -3.465033e+00 -6.423656e+00 -1.107353e+01 -8.423258e+00 -1.073858e+01 -1.108349e+01 -6.035468e+00 -3.409545e+00 -8.778076e+00 -3.299176e+00 -3.847632e+00 6.077811e+01 6.235573e-03 3.134236e-03 1.414692e-03 -1.294906e-03 -1.141914e-03 7.894422e-03 1.230384e-03 -1.131871e-02 -7.178210e-03 3.021877e-03 -3.145615e-03 1.560011e-03 -3.663981e-03 2.621886e-04 9.166773e-04 -9.825568e-04 3.241693e-04 -9.543909e-05 3.029770e-04 -2.851614e-04 -1.491298e-04 -1.783248e-04 3.785257e-05 -1.129361e-04 -7.989937e-05 -1.018534e-03 
 	<VARIANCE> 39 
 		7.976604e+01 6.152662e+01 5.051948e+01 1.004776e+02 7.295739e+01 6.231032e+01 6.819729e+01 8.804686e+01 6.706458e+01 6.915740e+01 4.922140e+01 3.300986e+01 1.361345e+02 2.828882e+00 2.092716e+00 2.188640e+00 3.775563e+00 3.180235e+00 3.489889e+00 3.719737e+00 3.584243e+00 3.369323e+00 3.542708e+00 2.975766e+00 2.330531e+00 3.532624e+00 4.004033e-01 3.152293e-01 3.553639e-01 5.475901e-01 5.268688e-01 6.105083e-01 6.450021e-01 6.068367e-01 5.813815e-01 6.023107e-01 5.249541e-01 4.289736e-01 4.651601e-01 
 	<GCONST> 1.320602e+02 
 	<STATE> 4 
 	<MEAN> 39 
 		-9.216795e+00 -3.465033e+00 -6.423656e+00 -1.107353e+01 -8.423258e+00 -1.073858e+01 -1.108349e+01 -6.035468e+00 -3.409545e+00 -8.778076e+00 -3.299176e+00 -3.847632e+00 6.077811e+01 6.235573e-03 3.134236e-03 1.414692e-03 -1.294906e-03 -1.141914e-03 7.894422e-03 1.230384e-03 -1.131871e-02 -7.178210e-03 3.021877e-03 -3.145615e-03 1.560011e-03 -3.663981e-03 2.621886e-04 9.166773e-04 -9.825568e-04 3.241693e-04 -9.543909e-05 3.029770e-04 -2.851614e-04 -1.491298e-04 -1.783248e-04 3.785257e-05 -1.129361e-04 -7.989937e-05 -1.018534e-03 
 	<VARIANCE> 39 
 		7.976604e+01 6.152662e+01 5.051948e+01 1.004776e+02 7.295739e+01 6.231032e+01 6.819729e+01 8.804686e+01 6.706458e+01 6.915740e+01 4.922140e+01 3.300986e+01 1.361345e+02 2.828882e+00 2.092716e+00 2.188640e+00 3.775563e+00 3.180235e+00 3.489889e+00 3.719737e+00 3.584243e+00 3.369323e+00 3.542708e+00 2.975766e+00 2.330531e+00 3.532624e+00 4.004033e-01 3.152293e-01 3.553639e-01 5.475901e-01 5.268688e-01 6.105083e-01 6.450021e-01 6.068367e-01 5.813815e-01 6.023107e-01 5.249541e-01 4.289736e-01 4.651601e-01 
 	<GCONST> 1.320602e+02 
 	<TRANSP> 5 
 		0.000000e+00 1.000000e+00 0.000000e+00 0.000000e+00 0.000000e+00 
 	    0.000000e+00 6.000000e-01 4.000000e-01 0.000000e+00 0.000000e+00 
 		0.000000e+00 0.000000e+00 6.000000e-01 4.000000e-01 0.000000e+00 
 		0.000000e+00 0.000000e+00 0.000000e+00 7.000000e-01 3.000000e-01 
 		0.000000e+00 0.000000e+00 0.000000e+00 0.000000e+00 0.000000e+00 
 <ENDHMM> 
~h "oh"
<BEGINHMM> 
 	<NUMSTATES> 5 
 	<STATE> 2 
 	<MEAN> 39 
 		-9.216795e+00 -3.465033e+00 -6.423656e+00 -1.107353e+01 -8.423258e+00 -1.073858e+01 -1.108349e+01 -6.035468e+00 -3.409545e+00 -8.778076e+00 -3.299176e+00 -3.847632e+00 6.077811e+01 6.235573e-03 3.134236e-03 1.414692e-03 -1.294906e-03 -1.141914e-03 7.894422e-03 1.230384e-03 -1.131871e-02 -7.178210e-03 3.021877e-03 -3.145615e-03 1.560011e-03 -3.663981e-03 2.621886e-04 9.166773e-04 -9.825568e-04 3.241693e-04 -9.543909e-05 3.029770e-04 -2.851614e-04 -1.491298e-04 -1.783248e-04 3.785257e-05 -1.129361e-04 -7.989937e-05 -1.018534e-03 
 	<VARIANCE> 39 
 		7.976604e+01 6.152662e+01 5.051948e+01 1.004776e+02 7.295739e+01 6.231032e+01 6.819729e+01 8.804686e+01 6.706458e+01 6.915740e+01 4.922140e+01 3.300986e+01 1.361345e+02 2.828882e+00 2.092716e+00 2.188640e+00 3.775563e+00 3.180235e+00 3.489889e+00 3.719737e+00 3.584243e+00 3.369323e+00 3.542708e+00 2.975766e+00 2.330531e+00 3.532624e+00 4.004033e-01 3.152293e-01 3.553639e-01 5.475901e-01 5.268688e-01 6.105083e-01 6.450021e-01 6.068367e-01 5.813815e-01 6.023107e-01 5.249541e-01 4.289736e-01 4.651601e-01 
 	<GCONST> 1.320602e+02 
 	<STATE> 3 
 	<MEAN> 39 
 		-9.216795e+00 -3.465033e+00 -6.423656e+00 -1.107353e+01 -8.423258e+00 -1.073858e+01 -1.108349e+01 -6.035468e+00 -3.409545e+00 -8.778076e+00 -3.299176e+00 -3.847632e+00 6.077811e+01 6.235573e-03 3.134236e-03 1.414692e-03 -1.294906e-03 -1.141914e-03 7.894422e-03 1.230384e-03 -1.131871e-02 -7.178210e-03 3.021877e-03 -3.145615e-03 1.560011e-03 -3.663981e-03 2.621886e-04 9.166773e-04 -9.825568e-04 3.241693e-04 -9.543909e-05 3.029770e-04 -2.851614e-04 -1.491298e-04 -1.783248e-04 3.785257e-05 -1.129361e-04 -7.989937e-05 -1.018534e-03 
 	<VARIANCE> 39 
 		7.976604e+01 6.152662e+01 5.051948e+01 1.004776e+02 7.295739e+01 6.231032e+01 6.819729e+01 8.804686e+01 6.706458e+01 6.915740e+01 4.922140e+01 3.300986e+01 1.361345e+02 2.828882e+00 2.092716e+00 2.188640e+00 3.775563e+00 3.180235e+00 3.489889e+00 3.719737e+00 3.584243e+00 3.369323e+00 3.542708e+00 2.975766e+00 2.330531e+00 3.532624e+00 4.004033e-01 3.152293e-01 3.553639e-01 5.475901e-01 5.268688e-01 6.105083e-01 6.450021e-01 6.068367e-01 5.813815e-01 6.023107e-01 5.249541e-01 4.289736e-01 4.651601e-01 
 	<GCONST> 1.320602e+02 
 	<STATE> 4 
 	<MEAN> 39 
 		-9.216795e+00 -3.465033e+00 -6.423656e+00 -1.107353e+01 -8.423258e+00 -1.073858e+01 -1.108349e+01 -6.035468e+00 -3.409545e+00 -8.778076e+00 -3.299176e+00 -3.847632e+00 6.077811e+01 6.235573e-03 3.134236e-03 1.414692e-03 -1.294906e-03 -1.141914e-03 7.894422e-03 1.230384e-03 -1.131871e-02 -7.178210e-03 3.021877e-03 -3.145615e-03 1.560011e-03 -3.663981e-03 2.621886e-04 9.166773e-04 -9.825568e-04 3.241693e-04 -9.543909e-05 3.029770e-04 -2.851614e-04 -1.491298e-04 -1.783248e-04 3.785257e-05 -1.129361e-04 -7.989937e-05 -1.018534e-03 
 	<VARIANCE> 39 
 		7.976604e+01 6.152662e+01 5.051948e+01 1.004776e+02 7.295739e+01 6.231032e+01 6.819729e+01 8.804686e+01 6.706458e+01 6.915740e+01 4.922140e+01 3.300986e+01 1.361345e+02 2.828882e+00 2.092716e+00 2.188640e+00 3.775563e+00 3.180235e+00 3.489889e+00 3.719737e+00 3.584243e+00 3.369323e+00 3.542708e+00 2.975766e+00 2.330531e+00 3.532624e+00 4.004033e-01 3.152293e-01 3.553639e-01 5.475901e-01 5.268688e-01 6.105083e-01 6.450021e-01 6.068367e-01 5.813815e-01 6.023107e-01 5.249541e-01 4.289736e-01 4.651601e-01 
 	<GCONST> 1.320602e+02 
 	<TRANSP> 5 
 		0.000000e+00 1.000000e+00 0.000000e+00 0.000000e+00 0.000000e+00 
 	    0.000000e+00 6.000000e-01 4.000000e-01 0.000000e+00 0.000000e+00 
 		0.000000e+00 0.000000e+00 6.000000e-01 4.000000e-01 0.000000e+00 
 		0.000000e+00 0.000000e+00 0.000000e+00 7.000000e-01 3.000000e-01 
 		0.000000e+00 0.000000e+00 0.000000e+00 0.000000e+00 0.000000e+00 
 <ENDHMM> 
~h "ow"
<BEGINHMM> 
 	<NUMSTATES> 5 
 	<STATE> 2 
 	<MEAN> 39 
 		-9.216795e+00 -3.465033e+00 -6.423656e+00 -1.107353e+01 -8.423258e+00 -1.073858e+01 -1.108349e+01 -6.035468e+00 -3.409545e+00 -8.778076e+00 -3.299176e+00 -3.847632e+00 6.077811e+01 6.235573e-03 3.134236e-03 1.414692e-03 -1.294906e-03 -1.141914e-03 7.894422e-03 1.230384e-03 -1.131871e-02 -7.178210e-03 3.021877e-03 -3.145615e-03 1.560011e-03 -3.663981e-03 2.621886e-04 9.166773e-04 -9.825568e-04 3.241693e-04 -9.543909e-05 3.029770e-04 -2.851614e-04 -1.491298e-04 -1.783248e-04 3.785257e-05 -1.129361e-04 -7.989937e-05 -1.018534e-03 
 	<VARIANCE> 39 
 		7.976604e+01 6.152662e+01 5.051948e+01 1.004776e+02 7.295739e+01 6.231032e+01 6.819729e+01 8.804686e+01 6.706458e+01 6.915740e+01 4.922140e+01 3.300986e+01 1.361345e+02 2.828882e+00 2.092716e+00 2.188640e+00 3.775563e+00 3.180235e+00 3.489889e+00 3.719737e+00 3.584243e+00 3.369323e+00 3.542708e+00 2.975766e+00 2.330531e+00 3.532624e+00 4.004033e-01 3.152293e-01 3.553639e-01 5.475901e-01 5.268688e-01 6.105083e-01 6.450021e-01 6.068367e-01 5.813815e-01 6.023107e-01 5.249541e-01 4.289736e-01 4.651601e-01 
 	<GCONST> 1.320602e+02 
 	<STATE> 3 
 	<MEAN> 39 
 		-9.216795e+00 -3.465033e+00 -6.423656e+00 -1.107353e+01 -8.423258e+00 -1.073858e+01 -1.108349e+01 -6.035468e+00 -3.409545e+00 -8.778076e+00 -3.299176e+00 -3.847632e+00 6.077811e+01 6.235573e-03 3.134236e-03 1.414692e-03 -1.294906e-03 -1.141914e-03 7.894422e-03 1.230384e-03 -1.131871e-02 -7.178210e-03 3.021877e-03 -3.145615e-03 1.560011e-03 -3.663981e-03 2.621886e-04 9.166773e-04 -9.825568e-04 3.241693e-04 -9.543909e-05 3.029770e-04 -2.851614e-04 -1.491298e-04 -1.783248e-04 3.785257e-05 -1.129361e-04 -7.989937e-05 -1.018534e-03 
 	<VARIANCE> 39 
 		7.976604e+01 6.152662e+01 5.051948e+01 1.004776e+02 7.295739e+01 6.231032e+01 6.819729e+01 8.804686e+01 6.706458e+01 6.915740e+01 4.922140e+01 3.300986e+01 1.361345e+02 2.828882e+00 2.092716e+00 2.188640e+00 3.775563e+00 3.180235e+00 3.489889e+00 3.719737e+00 3.584243e+00 3.369323e+00 3.542708e+00 2.975766e+00 2.330531e+00 3.532624e+00 4.004033e-01 3.152293e-01 3.553639e-01 5.475901e-01 5.268688e-01 6.105083e-01 6.450021e-01 6.068367e-01 5.813815e-01 6.023107e-01 5.249541e-01 4.289736e-01 4.651601e-01 
 	<GCONST> 1.320602e+02 
 	<STATE> 4 
 	<MEAN> 39 
 		-9.216795e+00 -3.465033e+00 -6.423656e+00 -1.107353e+01 -8.423258e+00 -1.073858e+01 -1.108349e+01 -6.035468e+00 -3.409545e+00 -8.778076e+00 -3.299176e+00 -3.847632e+00 6.077811e+01 6.235573e-03 3.134236e-03 1.414692e-03 -1.294906e-03 -1.141914e-03 7.894422e-03 1.230384e-03 -1.131871e-02 -7.178210e-03 3.021877e-03 -3.145615e-03 1.560011e-03 -3.663981e-03 2.621886e-04 9.166773e-04 -9.825568e-04 3.241693e-04 -9.543909e-05 3.029770e-04 -2.851614e-04 -1.491298e-04 -1.783248e-04 3.785257e-05 -1.129361e-04 -7.989937e-05 -1.018534e-03 
 	<VARIANCE> 39 
 		7.976604e+01 6.152662e+01 5.051948e+01 1.004776e+02 7.295739e+01 6.231032e+01 6.819729e+01 8.804686e+01 6.706458e+01 6.915740e+01 4.922140e+01 3.300986e+01 1.361345e+02 2.828882e+00 2.092716e+00 2.188640e+00 3.775563e+00 3.180235e+00 3.489889e+00 3.719737e+00 3.584243e+00 3.369323e+00 3.542708e+00 2.975766e+00 2.330531e+00 3.532624e+00 4.004033e-01 3.152293e-01 3.553639e-01 5.475901e-01 5.268688e-01 6.105083e-01 6.450021e-01 6.068367e-01 5.813815e-01 6.023107e-01 5.249541e-01 4.289736e-01 4.651601e-01 
 	<GCONST> 1.320602e+02 
 	<TRANSP> 5 
 		0.000000e+00 1.000000e+00 0.000000e+00 0.000000e+00 0.000000e+00 
 	    0.000000e+00 6.000000e-01 4.000000e-01 0.000000e+00 0.000000e+00 
 		0.000000e+00 0.000000e+00 6.000000e-01 4.000000e-01 0.000000e+00 
 		0.000000e+00 0.000000e+00 0.000000e+00 7.000000e-01 3.000000e-01 
 		0.000000e+00 0.000000e+00 0.000000e+00 0.000000e+00 0.000000e+00 
 <ENDHMM> 
~h "ah"
<BEGINHMM> 
 	<NUMSTATES> 5 
 	<STATE> 2 
 	<MEAN> 39 
 		-9.216795e+00 -3.465033e+00 -6.423656e+00 -1.107353e+01 -8.423258e+00 -1.073858e+01 -1.108349e+01 -6.035468e+00 -3.409545e+00 -8.778076e+00 -3.299176e+00 -3.847632e+00 6.077811e+01 6.235573e-03 3.134236e-03 1.414692e-03 -1.294906e-03 -1.141914e-03 7.894422e-03 1.230384e-03 -1.131871e-02 -7.178210e-03 3.021877e-03 -3.145615e-03 1.560011e-03 -3.663981e-03 2.621886e-04 9.166773e-04 -9.825568e-04 3.241693e-04 -9.543909e-05 3.029770e-04 -2.851614e-04 -1.491298e-04 -1.783248e-04 3.785257e-05 -1.129361e-04 -7.989937e-05 -1.018534e-03 
 	<VARIANCE> 39 
 		7.976604e+01 6.152662e+01 5.051948e+01 1.004776e+02 7.295739e+01 6.231032e+01 6.819729e+01 8.804686e+01 6.706458e+01 6.915740e+01 4.922140e+01 3.300986e+01 1.361345e+02 2.828882e+00 2.092716e+00 2.188640e+00 3.775563e+00 3.180235e+00 3.489889e+00 3.719737e+00 3.584243e+00 3.369323e+00 3.542708e+00 2.975766e+00 2.330531e+00 3.532624e+00 4.004033e-01 3.152293e-01 3.553639e-01 5.475901e-01 5.268688e-01 6.105083e-01 6.450021e-01 6.068367e-01 5.813815e-01 6.023107e-01 5.249541e-01 4.289736e-01 4.651601e-01 
 	<GCONST> 1.320602e+02 
 	<STATE> 3 
 	<MEAN> 39 
 		-9.216795e+00 -3.465033e+00 -6.423656e+00 -1.107353e+01 -8.423258e+00 -1.073858e+01 -1.108349e+01 -6.035468e+00 -3.409545e+00 -8.778076e+00 -3.299176e+00 -3.847632e+00 6.077811e+01 6.235573e-03 3.134236e-03 1.414692e-03 -1.294906e-03 -1.141914e-03 7.894422e-03 1.230384e-03 -1.131871e-02 -7.178210e-03 3.021877e-03 -3.145615e-03 1.560011e-03 -3.663981e-03 2.621886e-04 9.166773e-04 -9.825568e-04 3.241693e-04 -9.543909e-05 3.029770e-04 -2.851614e-04 -1.491298e-04 -1.783248e-04 3.785257e-05 -1.129361e-04 -7.989937e-05 -1.018534e-03 
 	<VARIANCE> 39 
 		7.976604e+01 6.152662e+01 5.051948e+01 1.004776e+02 7.295739e+01 6.231032e+01 6.819729e+01 8.804686e+01 6.706458e+01 6.915740e+01 4.922140e+01 3.300986e+01 1.361345e+02 2.828882e+00 2.092716e+00 2.188640e+00 3.775563e+00 3.180235e+00 3.489889e+00 3.719737e+00 3.584243e+00 3.369323e+00 3.542708e+00 2.975766e+00 2.330531e+00 3.532624e+00 4.004033e-01 3.152293e-01 3.553639e-01 5.475901e-01 5.268688e-01 6.105083e-01 6.450021e-01 6.068367e-01 5.813815e-01 6.023107e-01 5.249541e-01 4.289736e-01 4.651601e-01 
 	<GCONST> 1.320602e+02 
 	<STATE> 4 
 	<MEAN> 39 
 		-9.216795e+00 -3.465033e+00 -6.423656e+00 -1.107353e+01 -8.423258e+00 -1.073858e+01 -1.108349e+01 -6.035468e+00 -3.409545e+00 -8.778076e+00 -3.299176e+00 -3.847632e+00 6.077811e+01 6.235573e-03 3.134236e-03 1.414692e-03 -1.294906e-03 -1.141914e-03 7.894422e-03 1.230384e-03 -1.131871e-02 -7.178210e-03 3.021877e-03 -3.145615e-03 1.560011e-03 -3.663981e-03 2.621886e-04 9.166773e-04 -9.825568e-04 3.241693e-04 -9.543909e-05 3.029770e-04 -2.851614e-04 -1.491298e-04 -1.783248e-04 3.785257e-05 -1.129361e-04 -7.989937e-05 -1.018534e-03 
 	<VARIANCE> 39 
 		7.976604e+01 6.152662e+01 5.051948e+01 1.004776e+02 7.295739e+01 6.231032e+01 6.819729e+01 8.804686e+01 6.706458e+01 6.915740e+01 4.922140e+01 3.300986e+01 1.361345e+02 2.828882e+00 2.092716e+00 2.188640e+00 3.775563e+00 3.180235e+00 3.489889e+00 3.719737e+00 3.584243e+00 3.369323e+00 3.542708e+00 2.975766e+00 2.330531e+00 3.532624e+00 4.004033e-01 3.152293e-01 3.553639e-01 5.475901e-01 5.268688e-01 6.105083e-01 6.450021e-01 6.068367e-01 5.813815e-01 6.023107e-01 5.249541e-01 4.289736e-01 4.651601e-01 
 	<GCONST> 1.320602e+02 
 	<TRANSP> 5 
 		0.000000e+00 1.000000e+00 0.000000e+00 0.000000e+00 0.000000e+00 
 	    0.000000e+00 6.000000e-01 4.000000e-01 0.000000e+00 0.000000e+00 
 		0.000000e+00 0.000000e+00 6.000000e-01 4.000000e-01 0.000000e+00 
 		0.000000e+00 0.000000e+00 0.000000e+00 7.000000e-01 3.000000e-01 
 		0.000000e+00 0.000000e+00 0.000000e+00 0.000000e+00 0.000000e+00 
 <ENDHMM> 
~h "w"
<BEGINHMM> 
 	<NUMSTATES> 5 
 	<STATE> 2 
 	<MEAN> 39 
 		-9.216795e+00 -3.465033e+00 -6.423656e+00 -1.107353e+01 -8.423258e+00 -1.073858e+01 -1.108349e+01 -6.035468e+00 -3.409545e+00 -8.778076e+00 -3.299176e+00 -3.847632e+00 6.077811e+01 6.235573e-03 3.134236e-03 1.414692e-03 -1.294906e-03 -1.141914e-03 7.894422e-03 1.230384e-03 -1.131871e-02 -7.178210e-03 3.021877e-03 -3.145615e-03 1.560011e-03 -3.663981e-03 2.621886e-04 9.166773e-04 -9.825568e-04 3.241693e-04 -9.543909e-05 3.029770e-04 -2.851614e-04 -1.491298e-04 -1.783248e-04 3.785257e-05 -1.129361e-04 -7.989937e-05 -1.018534e-03 
 	<VARIANCE> 39 
 		7.976604e+01 6.152662e+01 5.051948e+01 1.004776e+02 7.295739e+01 6.231032e+01 6.819729e+01 8.804686e+01 6.706458e+01 6.915740e+01 4.922140e+01 3.300986e+01 1.361345e+02 2.828882e+00 2.092716e+00 2.188640e+00 3.775563e+00 3.180235e+00 3.489889e+00 3.719737e+00 3.584243e+00 3.369323e+00 3.542708e+00 2.975766e+00 2.330531e+00 3.532624e+00 4.004033e-01 3.152293e-01 3.553639e-01 5.475901e-01 5.268688e-01 6.105083e-01 6.450021e-01 6.068367e-01 5.813815e-01 6.023107e-01 5.249541e-01 4.289736e-01 4.651601e-01 
 	<GCONST> 1.320602e+02 
 	<STATE> 3 
 	<MEAN> 39 
 		-9.216795e+00 -3.465033e+00 -6.423656e+00 -1.107353e+01 -8.423258e+00 -1.073858e+01 -1.108349e+01 -6.035468e+00 -3.409545e+00 -8.778076e+00 -3.299176e+00 -3.847632e+00 6.077811e+01 6.235573e-03 3.134236e-03 1.414692e-03 -1.294906e-03 -1.141914e-03 7.894422e-03 1.230384e-03 -1.131871e-02 -7.178210e-03 3.021877e-03 -3.145615e-03 1.560011e-03 -3.663981e-03 2.621886e-04 9.166773e-04 -9.825568e-04 3.241693e-04 -9.543909e-05 3.029770e-04 -2.851614e-04 -1.491298e-04 -1.783248e-04 3.785257e-05 -1.129361e-04 -7.989937e-05 -1.018534e-03 
 	<VARIANCE> 39 
 		7.976604e+01 6.152662e+01 5.051948e+01 1.004776e+02 7.295739e+01 6.231032e+01 6.819729e+01 8.804686e+01 6.706458e+01 6.915740e+01 4.922140e+01 3.300986e+01 1.361345e+02 2.828882e+00 2.092716e+00 2.188640e+00 3.775563e+00 3.180235e+00 3.489889e+00 3.719737e+00 3.584243e+00 3.369323e+00 3.542708e+00 2.975766e+00 2.330531e+00 3.532624e+00 4.004033e-01 3.152293e-01 3.553639e-01 5.475901e-01 5.268688e-01 6.105083e-01 6.450021e-01 6.068367e-01 5.813815e-01 6.023107e-01 5.249541e-01 4.289736e-01 4.651601e-01 
 	<GCONST> 1.320602e+02 
 	<STATE> 4 
 	<MEAN> 39 
 		-9.216795e+00 -3.465033e+00 -6.423656e+00 -1.107353e+01 -8.423258e+00 -1.073858e+01 -1.108349e+01 -6.035468e+00 -3.409545e+00 -8.778076e+00 -3.299176e+00 -3.847632e+00 6.077811e+01 6.235573e-03 3.134236e-03 1.414692e-03 -1.294906e-03 -1.141914e-03 7.894422e-03 1.230384e-03 -1.131871e-02 -7.178210e-03 3.021877e-03 -3.145615e-03 1.560011e-03 -3.663981e-03 2.621886e-04 9.166773e-04 -9.825568e-04 3.241693e-04 -9.543909e-05 3.029770e-04 -2.851614e-04 -1.491298e-04 -1.783248e-04 3.785257e-05 -1.129361e-04 -7.989937e-05 -1.018534e-03 
 	<VARIANCE> 39 
 		7.976604e+01 6.152662e+01 5.051948e+01 1.004776e+02 7.295739e+01 6.231032e+01 6.819729e+01 8.804686e+01 6.706458e+01 6.915740e+01 4.922140e+01 3.300986e+01 1.361345e+02 2.828882e+00 2.092716e+00 2.188640e+00 3.775563e+00 3.180235e+00 3.489889e+00 3.719737e+00 3.584243e+00 3.369323e+00 3.542708e+00 2.975766e+00 2.330531e+00 3.532624e+00 4.004033e-01 3.152293e-01 3.553639e-01 5.475901e-01 5.268688e-01 6.105083e-01 6.450021e-01 6.068367e-01 5.813815e-01 6.023107e-01 5.249541e-01 4.289736e-01 4.651601e-01 
 	<GCONST> 1.320602e+02 
 	<TRANSP> 5 
 		0.000000e+00 1.000000e+00 0.000000e+00 0.000000e+00 0.000000e+00 
 	    0.000000e+00 6.000000e-01 4.000000e-01 0.000000e+00 0.000000e+00 
 		0.000000e+00 0.000000e+00 6.000000e-01 4.000000e-01 0.000000e+00 
 		0.000000e+00 0.000000e+00 0.000000e+00 7.000000e-01 3.000000e-01 
 		0.000000e+00 0.000000e+00 0.000000e+00 0.000000e+00 0.000000e+00 
 <ENDHMM> 
~h "ih"
<BEGINHMM> 
 	<NUMSTATES> 5 
 	<STATE> 2 
 	<MEAN> 39 
 		-9.216795e+00 -3.465033e+00 -6.423656e+00 -1.107353e+01 -8.423258e+00 -1.073858e+01 -1.108349e+01 -6.035468e+00 -3.409545e+00 -8.778076e+00 -3.299176e+00 -3.847632e+00 6.077811e+01 6.235573e-03 3.134236e-03 1.414692e-03 -1.294906e-03 -1.141914e-03 7.894422e-03 1.230384e-03 -1.131871e-02 -7.178210e-03 3.021877e-03 -3.145615e-03 1.560011e-03 -3.663981e-03 2.621886e-04 9.166773e-04 -9.825568e-04 3.241693e-04 -9.543909e-05 3.029770e-04 -2.851614e-04 -1.491298e-04 -1.783248e-04 3.785257e-05 -1.129361e-04 -7.989937e-05 -1.018534e-03 
 	<VARIANCE> 39 
 		7.976604e+01 6.152662e+01 5.051948e+01 1.004776e+02 7.295739e+01 6.231032e+01 6.819729e+01 8.804686e+01 6.706458e+01 6.915740e+01 4.922140e+01 3.300986e+01 1.361345e+02 2.828882e+00 2.092716e+00 2.188640e+00 3.775563e+00 3.180235e+00 3.489889e+00 3.719737e+00 3.584243e+00 3.369323e+00 3.542708e+00 2.975766e+00 2.330531e+00 3.532624e+00 4.004033e-01 3.152293e-01 3.553639e-01 5.475901e-01 5.268688e-01 6.105083e-01 6.450021e-01 6.068367e-01 5.813815e-01 6.023107e-01 5.249541e-01 4.289736e-01 4.651601e-01 
 	<GCONST> 1.320602e+02 
 	<STATE> 3 
 	<MEAN> 39 
 		-9.216795e+00 -3.465033e+00 -6.423656e+00 -1.107353e+01 -8.423258e+00 -1.073858e+01 -1.108349e+01 -6.035468e+00 -3.409545e+00 -8.778076e+00 -3.299176e+00 -3.847632e+00 6.077811e+01 6.235573e-03 3.134236e-03 1.414692e-03 -1.294906e-03 -1.141914e-03 7.894422e-03 1.230384e-03 -1.131871e-02 -7.178210e-03 3.021877e-03 -3.145615e-03 1.560011e-03 -3.663981e-03 2.621886e-04 9.166773e-04 -9.825568e-04 3.241693e-04 -9.543909e-05 3.029770e-04 -2.851614e-04 -1.491298e-04 -1.783248e-04 3.785257e-05 -1.129361e-04 -7.989937e-05 -1.018534e-03 
 	<VARIANCE> 39 
 		7.976604e+01 6.152662e+01 5.051948e+01 1.004776e+02 7.295739e+01 6.231032e+01 6.819729e+01 8.804686e+01 6.706458e+01 6.915740e+01 4.922140e+01 3.300986e+01 1.361345e+02 2.828882e+00 2.092716e+00 2.188640e+00 3.775563e+00 3.180235e+00 3.489889e+00 3.719737e+00 3.584243e+00 3.369323e+00 3.542708e+00 2.975766e+00 2.330531e+00 3.532624e+00 4.004033e-01 3.152293e-01 3.553639e-01 5.475901e-01 5.268688e-01 6.105083e-01 6.450021e-01 6.068367e-01 5.813815e-01 6.023107e-01 5.249541e-01 4.289736e-01 4.651601e-01 
 	<GCONST> 1.320602e+02 
 	<STATE> 4 
 	<MEAN> 39 
 		-9.216795e+00 -3.465033e+00 -6.423656e+00 -1.107353e+01 -8.423258e+00 -1.073858e+01 -1.108349e+01 -6.035468e+00 -3.409545e+00 -8.778076e+00 -3.299176e+00 -3.847632e+00 6.077811e+01 6.235573e-03 3.134236e-03 1.414692e-03 -1.294906e-03 -1.141914e-03 7.894422e-03 1.230384e-03 -1.131871e-02 -7.178210e-03 3.021877e-03 -3.145615e-03 1.560011e-03 -3.663981e-03 2.621886e-04 9.166773e-04 -9.825568e-04 3.241693e-04 -9.543909e-05 3.029770e-04 -2.851614e-04 -1.491298e-04 -1.783248e-04 3.785257e-05 -1.129361e-04 -7.989937e-05 -1.018534e-03 
 	<VARIANCE> 39 
 		7.976604e+01 6.152662e+01 5.051948e+01 1.004776e+02 7.295739e+01 6.231032e+01 6.819729e+01 8.804686e+01 6.706458e+01 6.915740e+01 4.922140e+01 3.300986e+01 1.361345e+02 2.828882e+00 2.092716e+00 2.188640e+00 3.775563e+00 3.180235e+00 3.489889e+00 3.719737e+00 3.584243e+00 3.369323e+00 3.542708e+00 2.975766e+00 2.330531e+00 3.532624e+00 4.004033e-01 3.152293e-01 3.553639e-01 5.475901e-01 5.268688e-01 6.105083e-01 6.450021e-01 6.068367e-01 5.813815e-01 6.023107e-01 5.249541e-01 4.289736e-01 4.651601e-01 
 	<GCONST> 1.320602e+02 
 	<TRANSP> 5 
 		0.000000e+00 1.000000e+00 0.000000e+00 0.000000e+00 0.000000e+00 
 	    0.000000e+00 6.000000e-01 4.000000e-01 0.000000e+00 0.000000e+00 
 		0.000000e+00 0.000000e+00 6.000000e-01 4.000000e-01 0.000000e+00 
 		0.000000e+00 0.000000e+00 0.000000e+00 7.000000e-01 3.000000e-01 
 		0.000000e+00 0.000000e+00 0.000000e+00 0.000000e+00 0.000000e+00 
 <ENDHMM> 
~h "sil"
<BEGINHMM> 
 	<NUMSTATES> 5 
 	<STATE> 2 
 	<MEAN> 39 
 		-9.216795e+00 -3.465033e+00 -6.423656e+00 -1.107353e+01 -8.423258e+00 -1.073858e+01 -1.108349e+01 -6.035468e+00 -3.409545e+00 -8.778076e+00 -3.299176e+00 -3.847632e+00 6.077811e+01 6.235573e-03 3.134236e-03 1.414692e-03 -1.294906e-03 -1.141914e-03 7.894422e-03 1.230384e-03 -1.131871e-02 -7.178210e-03 3.021877e-03 -3.145615e-03 1.560011e-03 -3.663981e-03 2.621886e-04 9.166773e-04 -9.825568e-04 3.241693e-04 -9.543909e-05 3.029770e-04 -2.851614e-04 -1.491298e-04 -1.783248e-04 3.785257e-05 -1.129361e-04 -7.989937e-05 -1.018534e-03 
 	<VARIANCE> 39 
 		7.976604e+01 6.152662e+01 5.051948e+01 1.004776e+02 7.295739e+01 6.231032e+01 6.819729e+01 8.804686e+01 6.706458e+01 6.915740e+01 4.922140e+01 3.300986e+01 1.361345e+02 2.828882e+00 2.092716e+00 2.188640e+00 3.775563e+00 3.180235e+00 3.489889e+00 3.719737e+00 3.584243e+00 3.369323e+00 3.542708e+00 2.975766e+00 2.330531e+00 3.532624e+00 4.004033e-01 3.152293e-01 3.553639e-01 5.475901e-01 5.268688e-01 6.105083e-01 6.450021e-01 6.068367e-01 5.813815e-01 6.023107e-01 5.249541e-01 4.289736e-01 4.651601e-01 
 	<GCONST> 1.320602e+02 
 	<STATE> 3 
 	<MEAN> 39 
 		-9.216795e+00 -3.465033e+00 -6.423656e+00 -1.107353e+01 -8.423258e+00 -1.073858e+01 -1.108349e+01 -6.035468e+00 -3.409545e+00 -8.778076e+00 -3.299176e+00 -3.847632e+00 6.077811e+01 6.235573e-03 3.134236e-03 1.414692e-03 -1.294906e-03 -1.141914e-03 7.894422e-03 1.230384e-03 -1.131871e-02 -7.178210e-03 3.021877e-03 -3.145615e-03 1.560011e-03 -3.663981e-03 2.621886e-04 9.166773e-04 -9.825568e-04 3.241693e-04 -9.543909e-05 3.029770e-04 -2.851614e-04 -1.491298e-04 -1.783248e-04 3.785257e-05 -1.129361e-04 -7.989937e-05 -1.018534e-03 
 	<VARIANCE> 39 
 		7.976604e+01 6.152662e+01 5.051948e+01 1.004776e+02 7.295739e+01 6.231032e+01 6.819729e+01 8.804686e+01 6.706458e+01 6.915740e+01 4.922140e+01 3.300986e+01 1.361345e+02 2.828882e+00 2.092716e+00 2.188640e+00 3.775563e+00 3.180235e+00 3.489889e+00 3.719737e+00 3.584243e+00 3.369323e+00 3.542708e+00 2.975766e+00 2.330531e+00 3.532624e+00 4.004033e-01 3.152293e-01 3.553639e-01 5.475901e-01 5.268688e-01 6.105083e-01 6.450021e-01 6.068367e-01 5.813815e-01 6.023107e-01 5.249541e-01 4.289736e-01 4.651601e-01 
 	<GCONST> 1.320602e+02 
 	<STATE> 4 
 	<MEAN> 39 
 		-9.216795e+00 -3.465033e+00 -6.423656e+00 -1.107353e+01 -8.423258e+00 -1.073858e+01 -1.108349e+01 -6.035468e+00 -3.409545e+00 -8.778076e+00 -3.299176e+00 -3.847632e+00 6.077811e+01 6.235573e-03 3.134236e-03 1.414692e-03 -1.294906e-03 -1.141914e-03 7.894422e-03 1.230384e-03 -1.131871e-02 -7.178210e-03 3.021877e-03 -3.145615e-03 1.560011e-03 -3.663981e-03 2.621886e-04 9.166773e-04 -9.825568e-04 3.241693e-04 -9.543909e-05 3.029770e-04 -2.851614e-04 -1.491298e-04 -1.783248e-04 3.785257e-05 -1.129361e-04 -7.989937e-05 -1.018534e-03 
 	<VARIANCE> 39 
 		7.976604e+01 6.152662e+01 5.051948e+01 1.004776e+02 7.295739e+01 6.231032e+01 6.819729e+01 8.804686e+01 6.706458e+01 6.915740e+01 4.922140e+01 3.300986e+01 1.361345e+02 2.828882e+00 2.092716e+00 2.188640e+00 3.775563e+00 3.180235e+00 3.489889e+00 3.719737e+00 3.584243e+00 3.369323e+00 3.542708e+00 2.975766e+00 2.330531e+00 3.532624e+00 4.004033e-01 3.152293e-01 3.553639e-01 5.475901e-01 5.268688e-01 6.105083e-01 6.450021e-01 6.068367e-01 5.813815e-01 6.023107e-01 5.249541e-01 4.289736e-01 4.651601e-01 
 	<GCONST> 1.320602e+02 
 	<TRANSP> 5 
 		0.000000e+00 1.000000e+00 0.000000e+00 0.000000e+00 0.000000e+00 
 	    0.000000e+00 6.000000e-01 4.000000e-01 0.000000e+00 0.000000e+00 
 		0.000000e+00 0.000000e+00 6.000000e-01 4.000000e-01 0.000000e+00 
 		0.000000e+00 0.000000e+00 0.000000e+00 7.000000e-01 3.000000e-01 
 		0.000000e+00 0.000000e+00 0.000000e+00 0.000000e+00 0.000000e+00 
 <ENDHMM> 
~h "iy"
<BEGINHMM> 
 	<NUMSTATES> 5 
 	<STATE> 2 
 	<MEAN> 39 
 		-9.216795e+00 -3.465033e+00 -6.423656e+00 -1.107353e+01 -8.423258e+00 -1.073858e+01 -1.108349e+01 -6.035468e+00 -3.409545e+00 -8.778076e+00 -3.299176e+00 -3.847632e+00 6.077811e+01 6.235573e-03 3.134236e-03 1.414692e-03 -1.294906e-03 -1.141914e-03 7.894422e-03 1.230384e-03 -1.131871e-02 -7.178210e-03 3.021877e-03 -3.145615e-03 1.560011e-03 -3.663981e-03 2.621886e-04 9.166773e-04 -9.825568e-04 3.241693e-04 -9.543909e-05 3.029770e-04 -2.851614e-04 -1.491298e-04 -1.783248e-04 3.785257e-05 -1.129361e-04 -7.989937e-05 -1.018534e-03 
 	<VARIANCE> 39 
 		7.976604e+01 6.152662e+01 5.051948e+01 1.004776e+02 7.295739e+01 6.231032e+01 6.819729e+01 8.804686e+01 6.706458e+01 6.915740e+01 4.922140e+01 3.300986e+01 1.361345e+02 2.828882e+00 2.092716e+00 2.188640e+00 3.775563e+00 3.180235e+00 3.489889e+00 3.719737e+00 3.584243e+00 3.369323e+00 3.542708e+00 2.975766e+00 2.330531e+00 3.532624e+00 4.004033e-01 3.152293e-01 3.553639e-01 5.475901e-01 5.268688e-01 6.105083e-01 6.450021e-01 6.068367e-01 5.813815e-01 6.023107e-01 5.249541e-01 4.289736e-01 4.651601e-01 
 	<GCONST> 1.320602e+02 
 	<STATE> 3 
 	<MEAN> 39 
 		-9.216795e+00 -3.465033e+00 -6.423656e+00 -1.107353e+01 -8.423258e+00 -1.073858e+01 -1.108349e+01 -6.035468e+00 -3.409545e+00 -8.778076e+00 -3.299176e+00 -3.847632e+00 6.077811e+01 6.235573e-03 3.134236e-03 1.414692e-03 -1.294906e-03 -1.141914e-03 7.894422e-03 1.230384e-03 -1.131871e-02 -7.178210e-03 3.021877e-03 -3.145615e-03 1.560011e-03 -3.663981e-03 2.621886e-04 9.166773e-04 -9.825568e-04 3.241693e-04 -9.543909e-05 3.029770e-04 -2.851614e-04 -1.491298e-04 -1.783248e-04 3.785257e-05 -1.129361e-04 -7.989937e-05 -1.018534e-03 
 	<VARIANCE> 39 
 		7.976604e+01 6.152662e+01 5.051948e+01 1.004776e+02 7.295739e+01 6.231032e+01 6.819729e+01 8.804686e+01 6.706458e+01 6.915740e+01 4.922140e+01 3.300986e+01 1.361345e+02 2.828882e+00 2.092716e+00 2.188640e+00 3.775563e+00 3.180235e+00 3.489889e+00 3.719737e+00 3.584243e+00 3.369323e+00 3.542708e+00 2.975766e+00 2.330531e+00 3.532624e+00 4.004033e-01 3.152293e-01 3.553639e-01 5.475901e-01 5.268688e-01 6.105083e-01 6.450021e-01 6.068367e-01 5.813815e-01 6.023107e-01 5.249541e-01 4.289736e-01 4.651601e-01 
 	<GCONST> 1.320602e+02 
 	<STATE> 4 
 	<MEAN> 39 
