~o
<STREAMINFO> 1 39
<VECSIZE> 39<NULLD><MFCC_D_A_0><DIAGC>
~h "d"
<BEGINHMM>
<NUMSTATES> 5
<STATE> 2
<MEAN> 39
 -3.112871e+000 -8.234109e-001 1.523562e+000 1.294197e-002 1.170507e+000 2.558334e+000 4.699375e+000 -3.392275e+000 2.123423e+000 2.541002e+000 -1.431124e+000 1.350259e+000 4.780265e+001 -2.579586e-002 -7.010824e-002 -1.496997e-001 4.022633e-002 5.212747e-002 3.191845e-002 1.527258e-001 5.273454e-002 2.704057e-002 1.835311e-002 7.242736e-002 4.049868e-002 -8.728752e-002 -7.342371e-004 -1.023960e-003 1.676852e-002 -9.124276e-002 3.680759e-002 -6.946220e-002 -1.375846e-001 3.434386e-002 -3.132633e-002 -2.837783e-002 -1.876217e-002 -3.968543e-002 1.603444e-001
<VARIANCE> 39
 8.504478e+000 5.559396e+000 7.850747e+000 1.178330e+001 1.185634e+001 1.655339e+001 1.789896e+001 2.347815e+001 2.445924e+001 2.179213e+001 1.895770e+001 1.425666e+001 6.328724e+000 5.939100e-001 4.732662e-001 6.671022e-001 8.311622e-001 1.122687e+000 1.243286e+000 1.645957e+000 1.977557e+000 1.573738e+000 1.656619e+000 1.409163e+000 1.321262e+000 4.082502e-001 1.324197e-001 1.129875e-001 1.353284e-001 1.989045e-001 2.230284e-001 2.663309e-001 3.417469e-001 3.726195e-001 2.997657e-001 3.353399e-001 2.732334e-001 2.742548e-001 1.310942e-001
<GCONST> 8.582076e+001
<STATE> 3
<MEAN> 39
 -3.379963e+000 -9.963684e-001 1.542571e+000 4.078269e-001 1.615382e+000 2.479853e+000 4.943702e+000 -2.914581e+000 1.685099e+000 2.079214e+000 -1.641091e+000 9.764691e-001 4.737074e+001 1.789885e-002 -4.105933e-002 -7.413284e-002 -5.947311e-002 8.824898e-002 8.668818e-002 -2.889795e-002 -3.108886e-002 -2.457648e-003 5.012792e-002 -1.293384e-002 -8.119300e-003 2.427790e-002 -2.028563e-003 -2.404863e-002 -3.592203e-003 -9.178917e-002 -3.054348e-003 -8.091212e-002 -8.223031e-002 4.998183e-002 -1.966636e-002 -3.305694e-002 -1.873536e-002 -2.543351e-003 1.423061e-001
<VARIANCE> 39
 7.507777e+000 7.455053e+000 7.281325e+000 9.037954e+000 1.252768e+001 1.560790e+001 1.497002e+001 2.477196e+001 2.299135e+001 2.304890e+001 1.981697e+001 1.419509e+001 4.999733e+000 5.053822e-001 6.089765e-001 6.029027e-001 9.155710e-001 1.084009e+000 1.436501e+000 1.493618e+000 2.001639e+000 1.576637e+000 1.670714e+000 1.458703e+000 1.401135e+000 4.358660e-001 1.119267e-001 1.320949e-001 1.335724e-001 2.047390e-001 2.100163e-001 3.303425e-001 3.167208e-001 4.493508e-001 3.517273e-001 3.572118e-001 3.263416e-001 2.979643e-001 1.753853e-001
<GCONST> 8.664335e+001
<STATE> 4
<MEAN> 39
 -8.331898e-001 -2.522570e+000 3.127066e-001 -4.321628e+000 1.681289e+000 -1.391899e+000 2.481615e+000 -1.593500e+000 2.347730e-001 6.700785e-002 -3.121232e+000 -1.845870e+000 5.708603e+001 4.497091e-003 -7.466532e-003 -8.335979e-003 -2.069030e-002 2.662823e-003 -1.621359e-002 -1.186432e-002 1.656501e-002 -3.179430e-003 -7.368862e-003 -5.698328e-003 7.607121e-003 2.743141e-002 3.110931e-003 -2.251964e-003 1.532966e-003 -7.152058e-003 1.796366e-003 -1.492061e-002 -3.464012e-003 9.294655e-003 1.494457e-004 -4.878033e-003 -9.085970e-003 -5.656966e-003 1.793718e-002
<VARIANCE> 39
 4.381428e+001 3.287177e+001 3.102638e+001 7.110495e+001 3.068529e+001 5.299537e+001 2.850895e+001 3.603326e+001 4.239651e+001 3.108314e+001 3.674079e+001 3.301111e+001 7.217804e+001 1.482629e+000 1.206243e+000 1.218718e+000 2.337628e+000 1.640544e+000 2.143089e+000 1.821972e+000 2.283610e+000 1.955669e+000 1.773296e+000 1.811711e+000 1.723747e+000 1.404615e+000 2.160996e-001 1.803514e-001 1.786976e-001 3.259466e-001 2.602167e-001 3.453642e-001 3.313145e-001 3.930106e-001 3.244180e-001 3.100662e-001 3.187988e-001 3.128209e-001 1.855149e-001
<GCONST> 1.097518e+002
<TRANSP> 5
 0.000000e+000 1.000000e+000 0.000000e+000 0.000000e+000 0.000000e+000
 0.000000e+000 6.710981e-001 3.289020e-001 0.000000e+000 0.000000e+000
 0.000000e+000 0.000000e+000 7.670113e-001 2.329886e-001 0.000000e+000
 0.000000e+000 0.000000e+000 0.000000e+000 9.761518e-001 2.384825e-002
 0.000000e+000 0.000000e+000 0.000000e+000 0.000000e+000 0.000000e+000
<ENDHMM>
~h "f"
<BEGINHMM>
<NUMSTATES> 5
<STATE> 2
<MEAN> 39
 -2.395439e+000 -1.749519e+000 1.377152e-001 -6.991917e-001 2.296615e+000 2.989379e+000 4.197555e+000 -2.736612e+000 1.640361e+000 1.510637e+000 -1.818114e+000 -9.284145e-001 5.123358e+001 -2.211448e-001 -1.828103e-001 -9.979445e-002 1.484798e-001 1.534758e-001 5.312040e-002 4.090143e-002 1.266592e-001 8.252786e-002 4.183271e-002 1.271025e-001 9.863558e-002 6.428739e-002 1.366609e-002 6.861348e-003 2.391500e-002 -1.728533e-002 -2.211997e-002 -4.112485e-002 -1.733919e-002 7.385053e-003 -2.787541e-002 -1.790891e-002 -1.617342e-002 -1.270277e-002 4.297887e-002
<VARIANCE> 39
 2.324444e+001 1.449892e+001 2.280179e+001 3.823674e+001 1.408128e+001 1.748210e+001 1.799339e+001 2.450175e+001 2.071368e+001 2.101183e+001 2.115262e+001 3.275176e+001 4.571750e+001 7.906491e-001 5.905511e-001 7.098097e-001 1.258519e+000 1.130996e+000 1.248322e+000 1.339150e+000 1.556778e+000 1.524655e+000 1.497151e+000 1.356631e+000 1.271097e+000 5.477642e-001 1.194162e-001 9.937634e-002 1.230968e-001 2.049619e-001 2.051316e-001 2.353269e-001 2.539426e-001 2.721823e-001 2.959685e-001 2.819134e-001 2.579610e-001 2.493782e-001 6.694040e-002
<GCONST> 9.152742e+001
<STATE> 3
<MEAN> 39
 -2.804897e+000 -2.881135e+000 -1.189229e+000 -1.380828e+000 2.982117e+000 3.004934e+000 3.084927e+000 -1.537728e+000 1.860144e+000 8.696125e-001 -1.391400e+000 -1.702667e+000 5.480760e+001 -2.611624e-001 -1.718260e-001 -3.938708e-002 1.128092e-001 1.153111e-001 2.106870e-002 -2.351145e-002 1.742032e-001 5.626001e-002 -7.296270e-003 9.379297e-002 4.549410e-002 2.958671e-001 3.901377e-002 1.786948e-002 5.432692e-003 -5.282326e-002 -5.342401e-002 -2.678498e-002 -1.664841e-002 -2.633643e-002 -1.639134e-002 4.687348e-004 -2.357783e-002 -7.382174e-003 -3.976895e-003
<VARIANCE> 39
 3.637824e+001 1.965123e+001 2.648563e+001 6.032207e+001 1.686675e+001 2.030830e+001 1.828362e+001 2.759802e+001 2.145078e+001 2.454598e+001 2.122666e+001 3.639881e+001 5.881976e+001 1.447835e+000 8.697361e-001 9.261373e-001 1.655288e+000 1.408846e+000 1.377639e+000 1.472647e+000 1.705614e+000 1.732939e+000 1.541058e+000 1.419275e+000 1.398518e+000 1.079900e+000 2.365921e-001 1.489490e-001 1.591779e-001 2.774763e-001 2.481076e-001 2.586290e-001 2.711665e-001 3.020262e-001 3.351092e-001 2.917509e-001 2.674408e-001 2.603204e-001 1.104426e-001
<GCONST> 9.975596e+001
<STATE> 4
<MEAN> 39
 -3.268433e+000 -2.768700e+000 -1.303943e+000 -1.583312e+000 2.905260e+000 3.317093e+000 2.491335e+000 -9.718035e-001 1.889221e+000 1.683653e+000 -9.764924e-001 -9.544094e-001 5.528942e+001 3.418426e-001 1.407172e-001 -2.452390e-001 -6.619967e-001 -1.684131e-001 1.612280e-001 -1.358206e-001 -7.118972e-002 -1.739238e-001 -3.155990e-002 1.333658e-002 -1.597478e-001 2.874273e-001 2.244591e-002 1.936870e-002 -2.384842e-002 -7.128086e-002 -2.492769e-002 2.334110e-002 1.842278e-003 1.247822e-003 -1.272872e-002 -3.302284e-002 -2.799327e-003 -1.650555e-002 4.425163e-004
<VARIANCE> 39
 3.824405e+001 1.697123e+001 2.044073e+001 6.706232e+001 1.648355e+001 1.845769e+001 2.000577e+001 2.731604e+001 2.330650e+001 2.116293e+001 1.933420e+001 2.454412e+001 5.670298e+001 3.066811e+000 1.358392e+000 1.213218e+000 4.562265e+000 1.528330e+000 1.512111e+000 1.653797e+000 2.057605e+000 1.996318e+000 1.682475e+000 1.473089e+000 1.544729e+000 8.670499e-001 4.426176e-001 2.295156e-001 1.934649e-001 5.177648e-001 2.830226e-001 2.697689e-001 3.191911e-001 3.790367e-001 3.845920e-001 3.155912e-001 2.829461e-001 2.690322e-001 1.064796e-001
<GCONST> 1.046935e+002
<TRANSP> 5
 0.000000e+000 1.000000e+000 0.000000e+000 0.000000e+000 0.000000e+000
 0.000000e+000 8.426031e-001 1.573969e-001 0.000000e+000 0.000000e+000
 0.000000e+000 0.000000e+000 7.273555e-001 2.726445e-001 0.000000e+000
 0.000000e+000 0.000000e+000 0.000000e+000 9.107654e-001 8.923459e-002
 0.000000e+000 0.000000e+000 0.000000e+000 0.000000e+000 0.000000e+000
<ENDHMM>
~h "k"
<BEGINHMM>
<NUMSTATES> 5
<STATE> 2
<MEAN> 39
 -8.599214e+000 1.126031e+000 -3.474454e-001 1.397157e+000 4.356248e+000 -3.508329e-001 3.539074e+000 -1.351672e+000 3.438100e+000 2.486840e+000 -3.996757e-001 -8.796706e-001 5.426660e+001 -6.071425e-003 2.234090e-002 -2.506836e-002 6.267234e-002 -8.156897e-002 1.107958e-001 1.268913e-001 7.299522e-002 5.422188e-003 2.727291e-002 3.730081e-002 1.026809e-001 -1.709981e-001 9.053020e-002 -1.036903e-002 -9.093193e-003 -6.083031e-002 3.796807e-003 -4.891733e-002 -1.840523e-002 -4.572360e-002 -4.101749e-002 -3.418675e-002 -3.700143e-002 -2.225566e-002 -3.027245e-003
<VARIANCE> 39
 4.950503e+001 1.510562e+001 2.716696e+001 1.954800e+001 4.586494e+001 3.047550e+001 1.885531e+001 2.387960e+001 2.680351e+001 2.006604e+001 2.031795e+001 2.557544e+001 3.706414e+001 6.302956e-001 6.400269e-001 7.458607e-001 8.294429e-001 1.142533e+000 1.461716e+000 1.439822e+000 1.621598e+000 1.570179e+000 1.656121e+000 1.418758e+000 1.371638e+000 4.683089e-001 9.960423e-002 9.840116e-002 1.330822e-001 1.553772e-001 2.182627e-001 2.842431e-001 2.842621e-001 3.231267e-001 3.107556e-001 3.263741e-001 2.687765e-001 2.945563e-001 7.148874e-002
<GCONST> 9.377628e+001
<STATE> 3
<MEAN> 39
 -8.401708e+000 1.112077e+000 -7.349160e-001 1.433911e+000 4.768380e+000 1.094902e-001 3.962529e+000 -1.197059e+000 3.441439e+000 2.401250e+000 -3.087639e-001 -4.278985e-001 5.322756e+001 1.476192e-001 -5.852893e-002 -8.619331e-003 -6.910480e-002 -5.229766e-002 7.176784e-002 1.228370e-001 4.433887e-002 -2.736740e-002 1.642035e-002 -3.147427e-002 5.865544e-002 -1.696296e-001 2.450639e-002 -1.333065e-002 -1.429426e-003 -3.722176e-002 1.577486e-002 -1.832641e-002 -1.985618e-002 -2.404681e-002 -2.156425e-002 5.306436e-003 -1.508387e-002 -8.218784e-003 1.102316e-002
<VARIANCE> 39
 4.439422e+001 1.753655e+001 2.259390e+001 1.626285e+001 3.678828e+001 2.924575e+001 1.947280e+001 2.399635e+001 2.301471e+001 2.061893e+001 1.988548e+001 1.977941e+001 3.677103e+001 5.035127e-001 6.068794e-001 7.870001e-001 8.685005e-001 1.146707e+000 1.506497e+000 1.433190e+000 1.591825e+000 1.570726e+000 1.649822e+000 1.352311e+000 1.367068e+000 5.901343e-001 7.065598e-002 1.029641e-001 1.451036e-001 1.603352e-001 2.218892e-001 2.831881e-001 3.033184e-001 3.059121e-001 3.171641e-001 3.460827e-001 2.570249e-001 2.729850e-001 9.768646e-002
<GCONST> 9.293427e+001
<STATE> 4
<MEAN> 39
 -5.050902e+000 -1.614864e+000 -3.536144e-001 3.679106e-001 3.261948e+000 1.307032e+000 4.961926e+000 -9.567010e-001 3.320197e+000 2.653406e+000 -1.661168e-001 1.071976e+000 5.035548e+001 1.093348e-002 5.562142e-003 -2.169260e-002 -6.431875e-002 3.012180e-002 -2.176879e-003 3.872852e-002 2.047086e-002 -2.879065e-002 -5.163638e-002 1.886330e-003 -2.655366e-002 6.308390e-002 2.085043e-002 1.211693e-002 8.424419e-003 -1.614648e-002 -3.372994e-003 -1.322759e-002 -6.362001e-003 -5.631012e-003 -1.284772e-002 -1.039808e-002 -5.152621e-003 -1.179495e-002 6.035319e-003
<VARIANCE> 39
 2.324710e+001 1.716430e+001 1.186753e+001 1.157150e+001 2.131994e+001 2.354485e+001 1.867312e+001 2.518948e+001 2.239339e+001 2.083240e+001 1.968527e+001 1.734032e+001 2.627151e+001 5.045009e-001 5.326230e-001 7.242953e-001 7.765612e-001 1.003888e+000 1.454520e+000 1.479201e+000 1.568842e+000 1.593291e+000 1.643570e+000 1.265565e+000 1.302432e+000 5.995895e-001 7.766331e-002 8.369517e-002 1.310326e-001 1.417446e-001 1.919471e-001 2.745349e-001 3.061479e-001 3.022681e-001 3.143266e-001 3.363355e-001 2.435611e-001 2.505517e-001 7.405218e-002
<GCONST> 8.849728e+001
<TRANSP> 5
 0.000000e+000 1.000000e+000 0.000000e+000 0.000000e+000 0.000000e+000
 0.000000e+000 7.567355e-001 2.432644e-001 0.000000e+000 0.000000e+000
 0.000000e+000 0.000000e+000 7.152686e-001 2.847315e-001 0.000000e+000
 0.000000e+000 0.000000e+000 0.000000e+000 9.504584e-001 4.954163e-002
 0.000000e+000 0.000000e+000 0.000000e+000 0.000000e+000 0.000000e+000
<ENDHMM>
~h "l"
<BEGINHMM>
<NUMSTATES> 5
<STATE> 2
<MEAN> 39
 6.327104e-001 -3.941162e+000 1.077311e+000 -7.183025e+000 2.108582e+000 -5.395447e+000 3.478875e-001 -1.166094e+000 3.657111e-001 3.570303e+000 -6.371536e+000 -1.334634e+000 6.077812e+001 7.580315e-002 -2.919771e-001 -2.035114e-001 -6.638733e-001 3.047334e-001 -8.656974e-001 -5.963042e-001 1.517882e-001 9.627004e-002 -3.541032e-004 -5.582630e-001 -2.555835e-001 1.283538e+000 6.218558e-002 3.009416e-002 -2.900265e-002 -4.658350e-002 7.796124e-002 1.400262e-001 3.743232e-002 -2.661387e-002 -4.751416e-002 -1.079834e-001 1.723903e-002 -1.421583e-001 4.857602e-002
<VARIANCE> 39
 3.612001e+001 2.981624e+001 3.603776e+001 5.348465e+001 2.596803e+001 6.764771e+001 4.790419e+001 5.358183e+001 5.194990e+001 3.555642e+001 5.691655e+001 3.938313e+001 6.660339e+001 1.793575e+000 1.640351e+000 2.140697e+000 2.678958e+000 2.213592e+000 4.772293e+000 3.729599e+000 3.676509e+000 3.645034e+000 3.020913e+000 3.617169e+000 3.537213e+000 4.835065e+000 3.322961e-001 2.740030e-001 3.107704e-001 4.428564e-001 3.590595e-001 8.316710e-001 6.774058e-001 6.676072e-001 6.967295e-001 5.396472e-001 6.641648e-001 5.917619e-001 7.160307e-001
<GCONST> 1.266772e+002
<STATE> 3
<MEAN> 39
 1.821290e+000 -4.996540e+000 -1.912487e-002 -9.543488e+000 3.943954e+000 -6.004051e+000 -3.219359e-001 -1.002610e+000 2.937784e-001 2.636477e+000 -7.684022e+000 -4.089744e+000 6.481406e+001 4.838052e-001 -8.448248e-003 -2.150860e-001 -7.981502e-001 3.750860e-001 1.277124e-001 -5.539092e-002 -3.776519e-001 -3.932516e-001 -1.570340e-001 -2.353553e-001 -6.540080e-001 7.095501e-001 1.992122e-002 8.727259e-002 -1.794496e-002 -1.947988e-002 -6.205654e-002 1.957019e-001 7.967675e-002 -1.287560e-001 -8.379445e-002 -6.848289e-003 1.295019e-001 7.955327e-002 -1.556543e-001
<VARIANCE> 39
 3.164906e+001 2.887375e+001 5.180101e+001 5.169214e+001 3.576262e+001 6.660538e+001 4.784012e+001 5.165771e+001 5.974345e+001 3.767690e+001 5.438645e+001 4.874694e+001 2.796014e+001 2.213084e+000 1.965716e+000 2.216046e+000 3.067641e+000 2.410912e+000 4.663620e+000 3.395906e+000 4.539575e+000 4.835804e+000 2.865545e+000 3.485931e+000 4.519919e+000 3.007440e+000 3.557120e-001 3.097559e-001 3.250124e-001 4.433817e-001 3.841544e-001 7.383499e-001 6.202056e-001 7.553630e-001 7.838195e-001 5.328094e-001 6.247325e-001 7.051607e-001 4.142051e-001
<GCONST> 1.272021e+002
<STATE> 4
<MEAN> 39
 5.230834e+000 -2.537994e+000 -8.458900e-002 -1.533220e+001 2.512113e+000 -4.787433e+000 -1.563885e+000 -5.503879e+000 -4.590704e+000 2.196878e+000 -8.743637e+000 -4.121475e+000 6.588277e+001 -1.380311e-002 2.326052e-001 2.007543e-002 -3.926802e-002 -7.687066e-002 1.045602e-001 -7.015477e-003 -2.320503e-001 -2.744979e-002 -1.351352e-001 1.310157e-001 1.969960e-001 -1.665245e-001 -5.554871e-002 -7.077469e-003 2.917963e-003 1.160448e-001 5.008004e-003 2.081840e-002 3.562495e-002 6.944649e-002 5.774508e-002 -4.921246e-003 4.473695e-002 1.218613e-002 -4.396505e-002
<VARIANCE> 39
 9.295722e+000 3.446386e+001 9.132458e+001 6.424416e+001 4.676124e+001 8.640299e+001 4.623685e+001 4.129276e+001 5.391289e+001 4.604548e+001 4.636865e+001 4.236423e+001 2.282602e+001 4.739425e-001 9.952946e-001 1.580380e+000 2.091874e+000 1.573576e+000 2.511024e+000 2.069226e+000 2.267708e+000 2.103742e+000 2.089254e+000 1.881336e+000 1.834013e+000 6.065584e-001 8.513095e-002 1.304663e-001 1.695535e-001 2.388498e-001 2.340308e-001 3.103489e-001 3.122334e-001 3.782482e-001 3.208417e-001 3.428330e-001 2.928704e-001 2.955789e-001 6.788471e-002
<GCONST> 1.062841e+002
<TRANSP> 5
 0.000000e+000 1.000000e+000 0.000000e+000 0.000000e+000 0.000000e+000
 0.000000e+000 6.189846e-001 3.810153e-001 0.000000e+000 0.000000e+000
 0.000000e+000 0.000000e+000 7.196863e-001 2.803138e-001 0.000000e+000
 0.000000e+000 0.000000e+000 0.000000e+000 9.174598e-001 8.254015e-002
 0.000000e+000 0.000000e+000 0.000000e+000 0.000000e+000 0.000000e+000
<ENDHMM>
~h "n"
<BEGINHMM>
<NUMSTATES> 5
<STATE> 2
<MEAN> 39
 3.723448e+000 -1.232049e+000 1.647481e+000 -5.034100e+000 -6.629682e-001 -3.756920e+000 1.307728e+000 -4.738586e+000 -2.773030e+000 8.486185e-001 -6.042614e+000 -5.575548e+000 5.907413e+001 2.056345e-001 2.411841e-001 2.386030e-001 5.020390e-002 -1.032007e-001 -1.306150e-001 3.782845e-002 -2.477209e-001 -2.751370e-001 2.966297e-001 -3.319039e-001 -7.446984e-002 -9.284009e-002 -4.810477e-002 -1.178820e-002 -2.125915e-003 -5.804888e-002 2.571676e-002 2.955316e-002 -2.466105e-002 7.212022e-003 2.678096e-002 -1.810604e-002 -1.598331e-002 6.375933e-002 1.554808e-002
<VARIANCE> 39
 3.595132e+001 3.510759e+001 3.684283e+001 5.903513e+001 3.023231e+001 5.369189e+001 3.042987e+001 5.632130e+001 3.211582e+001 5.545779e+001 4.024723e+001 3.745191e+001 4.765128e+001 1.595549e+000 1.559559e+000 2.233384e+000 2.976464e+000 1.839942e+000 2.576003e+000 2.145057e+000 3.612667e+000 2.067497e+000 2.594183e+000 2.350686e+000 1.963191e+000 1.411090e+000 2.114737e-001 2.153473e-001 2.765242e-001 3.622485e-001 2.717478e-001 3.973397e-001 3.655569e-001 5.793987e-001 3.174889e-001 4.091522e-001 3.655151e-001 2.960750e-001 1.356684e-001
<GCONST> 1.145408e+002
<STATE> 3
<MEAN> 39
 4.314935e+000 -9.050069e-001 2.035247e+000 -5.574286e+000 -7.313519e-001 -4.127450e+000 1.131585e+000 -5.353132e+000 -3.563673e+000 1.318462e+000 -7.201113e+000 -5.819422e+000 5.941020e+001 -7.563544e-003 1.126087e-001 6.800706e-002 -5.227340e-003 6.799011e-002 1.024748e-001 2.754089e-002 -1.493691e-001 -9.827937e-002 1.122712e-001 -3.129261e-001 7.295293e-002 -8.137096e-002 -7.911593e-002 -3.212962e-002 -3.280523e-002 -7.090395e-003 3.315084e-002 7.154707e-002 -5.275735e-003 3.342943e-002 7.315522e-002 -5.442146e-002 4.397389e-002 4.989684e-002 2.098977e-003
<VARIANCE> 39
 2.905000e+001 3.369822e+001 4.141556e+001 6.208516e+001 3.138406e+001 5.467919e+001 2.812581e+001 5.718690e+001 3.288319e+001 6.136020e+001 4.796463e+001 3.790960e+001 4.410756e+001 1.394487e+000 1.748523e+000 2.334426e+000 2.895073e+000 1.858260e+000 2.537772e+000 2.020915e+000 4.082997e+000 2.054843e+000 2.914168e+000 2.766381e+000 1.941095e+000 1.252358e+000 1.780078e-001 2.019242e-001 2.719918e-001 3.435075e-001 2.726412e-001 3.731619e-001 3.512090e-001 6.507311e-001 3.112231e-001 4.201298e-001 4.126383e-001 3.126376e-001 1.158935e-001
<GCONST> 1.146125e+002
<STATE> 4
<MEAN> 39
 4.521781e+000 5.227322e-001 3.105841e+000 -5.927261e+000 -1.151109e+000 -3.593948e+000 8.907094e-001 -7.197504e+000 -4.415508e+000 2.708946e+000 -1.007675e+001 -4.794158e+000 5.837181e+001 -2.516627e-001 -1.646920e-002 -3.633710e-002 2.312571e-001 1.790785e-001 2.184317e-001 1.049016e-001 5.119410e-002 2.297221e-001 -7.874949e-002 2.024961e-002 1.494487e-001 -2.040486e-001 -5.765394e-002 -3.475011e-002 -6.158727e-002 -1.488311e-002 4.167575e-002 5.130994e-002 2.211565e-003 7.504116e-002 4.901349e-002 -4.073625e-002 1.304036e-001 1.279313e-002 7.525231e-003
<VARIANCE> 39
 2.340088e+001 3.026482e+001 4.191320e+001 6.684411e+001 3.212127e+001 5.278099e+001 2.797616e+001 5.656559e+001 3.652659e+001 5.830034e+001 7.363806e+001 3.217393e+001 4.420096e+001 8.862283e-001 1.129305e+000 1.728436e+000 1.766591e+000 1.655977e+000 2.355921e+000 1.825319e+000 3.102173e+000 1.765249e+000 2.511244e+000 3.183556e+000 1.615253e+000 7.660125e-001 1.357084e-001 1.432641e-001 2.057266e-001 2.326682e-001 2.563643e-001 2.993615e-001 3.251157e-001 4.924934e-001 2.864065e-001 3.827274e-001 4.364898e-001 2.671251e-001 7.988749e-002
<GCONST> 1.090096e+002
<TRANSP> 5
 0.000000e+000 1.000000e+000 0.000000e+000 0.000000e+000 0.000000e+000
 0.000000e+000 6.062936e-001 3.937064e-001 0.000000e+000 0.000000e+000
 0.000000e+000 0.000000e+000 6.287259e-001 3.712741e-001 0.000000e+000
 0.000000e+000 0.000000e+000 0.000000e+000 8.599116e-001 1.400884e-001
 0.000000e+000 0.000000e+000 0.000000e+000 0.000000e+000 0.000000e+000
<ENDHMM>
~h "r"
<BEGINHMM>
<NUMSTATES> 5
<STATE> 2
<MEAN> 39
 6.289773e+000 -3.221809e+000 -7.120884e-001 -3.029323e+000 -5.442094e+000 -5.813121e+000 -4.464155e-001 -5.761471e+000 -4.263597e-001 2.740670e+000 -1.545234e+000 -4.459075e+000 6.136905e+001 1.156962e-001 -1.428444e-001 -7.606702e-003 3.957833e-002 -2.251678e-001 -3.079096e-002 1.532025e-001 4.060654e-002 -2.173992e-001 -1.033019e-001 1.335865e-001 1.499629e-001 -1.199944e-001 -2.047255e-001 8.237375e-002 1.266548e-001 -1.904181e-001 1.625201e-001 8.904853e-003 -2.855653e-002 2.368575e-001 5.498488e-002 -1.746932e-001 -7.342322e-003 1.257005e-001 2.514968e-002
<VARIANCE> 39
 6.749957e+001 3.479490e+001 4.086737e+001 4.701912e+001 8.092590e+001 6.080056e+001 2.897900e+001 5.187077e+001 3.264283e+001 2.726632e+001 2.858087e+001 2.500671e+001 2.008383e+001 2.413042e+000 1.277897e+000 1.725403e+000 3.274469e+000 3.071301e+000 2.255486e+000 1.737746e+000 3.074503e+000 2.665477e+000 1.707624e+000 1.832857e+000 1.999636e+000 4.167385e-001 2.526254e-001 1.407529e-001 2.438132e-001 4.010902e-001 4.100901e-001 2.968900e-001 3.636768e-001 4.796124e-001 3.800326e-001 3.024299e-001 3.529653e-001 3.094717e-001 4.739042e-002
<GCONST> 1.106466e+002
<STATE> 3
<MEAN> 39
 7.120140e+000 -3.989652e+000 -2.172141e-001 -3.509094e+000 -6.990686e+000 -6.226331e+000 -5.272046e-001 -5.622915e+000 -6.892775e-001 1.860090e+000 -1.517630e+000 -3.798247e+000 6.134361e+001 -1.823007e-001 -1.233917e-003 4.688943e-001 -5.256994e-001 -1.029607e-001 -5.063642e-002 2.082320e-002 4.318580e-001 -1.580333e-001 -4.551546e-001 2.617305e-002 5.027475e-001 -2.990126e-002 -1.557443e-001 5.938509e-002 1.791414e-001 -1.484168e-001 9.750463e-002 -5.811328e-002 -2.877165e-002 1.662602e-001 1.814983e-003 -1.014914e-001 -2.148880e-002 1.047595e-001 3.337677e-002
<VARIANCE> 39
 5.587644e+001 3.460717e+001 4.559512e+001 4.552999e+001 6.019694e+001 7.843784e+001 2.917987e+001 4.828386e+001 2.707695e+001 2.868184e+001 2.720078e+001 2.623289e+001 2.190947e+001 1.703283e+000 1.100513e+000 1.754249e+000 2.789285e+000 2.104194e+000 2.104777e+000 1.633373e+000 3.073918e+000 2.197968e+000 1.759195e+000 1.730502e+000 1.904295e+000 4.866149e-001 1.683947e-001 1.171941e-001 2.132636e-001 3.244103e-001 2.936384e-001 2.817246e-001 3.236286e-001 4.645373e-001 3.752550e-001 3.115064e-001 3.195702e-001 3.120279e-001 4.409878e-002
<GCONST> 1.074911e+002
<STATE> 4
<MEAN> 39
 6.337339e+000 -3.436935e+000 2.295124e+000 -5.648630e+000 -7.417478e+000 -6.469876e+000 -3.413814e-001 -4.625308e+000 -1.445464e+000 4.053058e-002 -1.771229e+000 -1.854075e+000 6.112874e+001 -4.952414e-001 1.974983e-001 7.792472e-001 -7.182887e-001 1.213968e-001 -1.204867e-001 9.751826e-002 6.253667e-001 -3.098594e-001 -4.945741e-001 6.827917e-003 6.398743e-001 -6.885473e-002 -6.424411e-002 4.301280e-002 6.544202e-002 -1.851543e-002 7.121703e-002 -7.921422e-002 1.889522e-002 -2.451474e-003 -1.026696e-001 5.816225e-002 9.971052e-003 2.787210e-002 -5.604553e-003
<VARIANCE> 39
 4.613406e+001 3.786462e+001 7.088045e+001 4.656757e+001 4.797093e+001 1.060328e+002 2.758445e+001 4.404260e+001 2.723981e+001 2.710180e+001 2.402989e+001 3.333841e+001 2.630489e+001 1.087706e+000 1.053844e+000 1.765912e+000 2.488710e+000 1.493034e+000 2.356519e+000 1.700717e+000 2.949567e+000 2.256428e+000 1.984586e+000 1.582967e+000 2.023952e+000 5.559613e-001 1.205556e-001 1.116351e-001 1.735290e-001 2.608773e-001 2.051587e-001 2.879476e-001 3.001672e-001 4.778936e-001 3.410467e-001 3.184192e-001 2.746199e-001 3.067492e-001 4.284720e-002
<GCONST> 1.059873e+002
<TRANSP> 5
 0.000000e+000 1.000000e+000 0.000000e+000 0.000000e+000 0.000000e+000
 0.000000e+000 5.645944e-001 4.354057e-001 0.000000e+000 0.000000e+000
 0.000000e+000 0.000000e+000 5.523657e-001 4.476343e-001 0.000000e+000
 0.000000e+000 0.000000e+000 0.000000e+000 6.533179e-001 3.466821e-001
 0.000000e+000 0.000000e+000 0.000000e+000 0.000000e+000 0.000000e+000
<ENDHMM>
~h "s"
<BEGINHMM>
<NUMSTATES> 5
<STATE> 2
<MEAN> 39
 -5.187799e+000 1.596207e+000 -6.696216e-001 -2.501221e+000 3.805646e+000 -3.079504e+000 3.002011e+000 -9.436943e-002 8.230374e-001 -7.391977e-002 -2.154086e+000 -1.490954e+000 5.880027e+001 -1.047464e+000 8.911505e-002 -1.934309e-001 3.622940e-001 5.193907e-001 -1.379028e-001 -5.365070e-002 7.366874e-001 3.614267e-001 -1.260965e-001 6.127071e-001 7.353564e-002 1.684679e-001 1.848818e-002 -4.340619e-002 -6.047178e-003 -9.750601e-002 -1.399276e-001 -1.096103e-001 -8.198466e-002 -6.155512e-002 -5.659301e-002 2.886242e-002 -4.757081e-002 -1.721675e-002 7.086892e-002
<VARIANCE> 39
 7.578801e+001 2.404355e+001 2.214553e+001 4.186256e+001 4.994932e+001 3.953828e+001 2.512688e+001 3.864050e+001 3.178028e+001 2.774394e+001 3.653141e+001 2.313109e+001 2.964560e+001 5.823717e+000 1.436104e+000 1.902715e+000 3.482472e+000 3.324685e+000 3.112675e+000 2.365797e+000 3.483429e+000 2.470851e+000 2.498524e+000 3.899073e+000 2.249089e+000 1.307927e+000 6.890487e-001 2.045969e-001 2.612217e-001 3.912484e-001 4.506954e-001 5.270869e-001 4.136122e-001 5.640862e-001 4.270434e-001 4.247132e-001 4.625167e-001 3.852296e-001 1.610790e-001
<GCONST> 1.177242e+002
<STATE> 3
<MEAN> 39
 -7.860180e+000 1.692627e+000 -1.372023e+000 -2.065630e+000 4.314183e+000 -3.993674e+000 2.540206e+000 1.299782e+000 1.596336e+000 9.358187e-002 -8.280929e-001 -1.346012e+000 5.964831e+001 -3.618428e-001 -7.065050e-002 -1.244911e-001 -5.031855e-002 -9.976186e-002 -3.519722e-001 -1.754820e-001 2.823905e-001 1.880281e-001 4.902816e-002 1.649898e-001 -2.364393e-002 2.692246e-001 2.051795e-001 -6.544834e-002 2.467745e-002 -1.174095e-001 -1.671318e-001 -1.618258e-002 -1.236575e-002 -9.714488e-002 -4.651130e-002 1.849872e-002 -1.329909e-001 -2.494809e-002 3.916473e-002
<VARIANCE> 39
 7.509626e+001 2.240609e+001 2.285424e+001 3.361309e+001 5.566382e+001 4.166636e+001 2.562957e+001 3.011893e+001 2.808144e+001 2.591783e+001 2.947290e+001 2.434381e+001 2.518909e+001 6.885818e+000 1.474967e+000 1.859121e+000 3.228661e+000 3.062857e+000 3.061267e+000 2.454683e+000 3.136419e+000 2.664178e+000 2.267111e+000 3.360202e+000 2.382266e+000 1.267064e+000 6.289526e-001 2.071272e-001 2.660178e-001 4.148602e-001 4.528040e-001 5.373734e-001 4.308532e-001 5.103760e-001 4.517936e-001 4.238869e-001 4.821826e-001 4.007768e-001 1.619824e-001
<GCONST> 1.167572e+002
<STATE> 4
<MEAN> 39
 -7.415782e+000 1.171193e+000 -1.618217e+000 -2.654225e+000 3.077050e+000 -5.130467e+000 1.915739e+000 1.202042e+000 2.042524e+000 2.595094e-001 -1.128024e+000 -1.536033e+000 6.049113e+001 5.313065e-001 -2.630954e-001 8.204743e-002 -3.624497e-001 -3.575864e-001 -3.044156e-001 -1.777275e-001 4.200509e-002 2.083155e-002 1.149136e-002 -3.291453e-001 -1.343362e-001 2.611886e-001 8.084514e-002 -6.485996e-002 3.120641e-002 -3.908166e-002 -1.269355e-002 3.923520e-002 2.859902e-002 -3.338137e-003 -2.812584e-002 -3.572440e-002 -4.832229e-002 -8.214140e-003 3.355326e-004
<VARIANCE> 39
 9.349211e+001 2.690286e+001 3.168188e+001 4.058295e+001 5.669560e+001 4.840306e+001 2.626976e+001 3.130886e+001 2.744592e+001 2.509718e+001 3.340767e+001 2.754737e+001 2.607559e+001 4.834864e+000 1.604578e+000 1.729406e+000 2.510408e+000 2.459021e+000 2.948695e+000 2.118120e+000 2.502912e+000 2.309327e+000 2.019430e+000 2.644699e+000 1.900390e+000 1.221125e+000 6.475220e-001 2.048347e-001 2.571627e-001 3.764010e-001 4.007596e-001 4.990973e-001 4.076220e-001 4.831634e-001 4.274830e-001 3.939986e-001 4.287178e-001 3.215724e-001 1.512277e-001
<GCONST> 1.151957e+002
<TRANSP> 5
 0.000000e+000 1.000000e+000 0.000000e+000 0.000000e+000 0.000000e+000
 0.000000e+000 6.505579e-001 3.494421e-001 0.000000e+000 0.000000e+000
 0.000000e+000 0.000000e+000 6.795182e-001 3.204818e-001 0.000000e+000
 0.000000e+000 0.000000e+000 0.000000e+000 8.261620e-001 1.738381e-001
 0.000000e+000 0.000000e+000 0.000000e+000 0.000000e+000 0.000000e+000
<ENDHMM>
~h "t"
<BEGINHMM>
<NUMSTATES> 5
<STATE> 2
<MEAN> 39
 -3.183363e+000 -1.036374e+000 2.617651e+000 -3.317959e+000 1.385828e+000 -1.834205e+000 2.484656e+000 -8.186803e-001 5.968989e-001 -1.440988e-001 -3.218729e+000 4.596526e-001 5.607665e+001 -8.067995e-001 -3.024644e-002 5.231585e-002 2.505665e-001 9.499215e-002 7.298654e-001 -7.659052e-002 2.655157e-001 4.679877e-001 1.401276e-001 8.230060e-001 3.038349e-001 -4.195604e-001 -3.183567e-002 -1.164099e-001 -8.377977e-002 -1.525578e-001 -3.667116e-002 -4.464512e-002 -3.388004e-002 5.198044e-002 1.073232e-002 -5.119901e-002 3.581439e-002 -3.477141e-002 2.310528e-001
<VARIANCE> 39
 4.566611e+001 2.783296e+001 2.568692e+001 3.955162e+001 2.597004e+001 6.110782e+001 2.953698e+001 3.802307e+001 3.066932e+001 2.865626e+001 4.133105e+001 2.345334e+001 6.358698e+001 3.023632e+000 2.905884e+000 2.336343e+000 4.835431e+000 2.383020e+000 4.680728e+000 3.366539e+000 3.574683e+000 2.608714e+000 2.691645e+000 3.065991e+000 2.299203e+000 6.636430e+000 4.758063e-001 4.699174e-001 4.009357e-001 7.992740e-001 4.460101e-001 8.451576e-001 6.461293e-001 6.537291e-001 4.681295e-001 4.592247e-001 5.295814e-001 4.331280e-001 9.595991e-001
<GCONST> 1.257170e+002
<STATE> 3
<MEAN> 39
 -6.405933e+000 -2.116844e+000 2.429158e+000 -3.991213e+000 1.314500e+000 -2.611995e-001 1.496973e+000 1.219270e+000 2.278850e+000 -3.081284e-001 -6.133782e-001 1.465747e+000 5.763057e+001 -3.549327e-001 -8.063922e-002 3.807128e-002 -1.309793e-001 4.336421e-002 2.984589e-002 -3.157002e-001 4.572835e-001 3.223808e-001 -1.396613e-001 3.039214e-001 4.054069e-002 6.481819e-001 1.851479e-001 5.071300e-002 8.248196e-003 4.266983e-002 3.339825e-002 -9.712996e-002 -1.934206e-002 -5.398107e-002 -3.677830e-002 -1.325101e-002 -1.386653e-001 -1.017452e-001 7.081360e-002
<VARIANCE> 39
 4.803857e+001 2.804759e+001 2.662838e+001 4.448590e+001 2.777124e+001 3.919106e+001 3.073583e+001 3.849917e+001 2.999285e+001 2.680754e+001 3.347063e+001 2.671486e+001 5.888568e+001 4.722168e+000 3.035486e+000 2.351868e+000 5.813879e+000 2.781178e+000 3.952005e+000 3.194944e+000 3.928119e+000 2.633896e+000 2.784250e+000 3.157115e+000 2.483114e+000 6.557094e+000 7.025606e-001 5.783880e-001 4.423362e-001 1.071082e+000 5.549839e-001 6.732711e-001 6.089365e-001 7.170974e-001 4.572280e-001 5.156568e-001 5.048830e-001 4.466031e-001 1.056837e+000
<GCONST> 1.273873e+002
<STATE> 4
<MEAN> 39
 -5.850746e+000 -2.197176e+000 1.821592e+000 -4.310289e+000 1.814713e+000 6.725796e-002 3.858558e-001 1.935779e+000 2.918575e+000 -1.175583e+000 -7.840896e-001 1.849447e-001 5.994738e+001 7.355329e-001 1.115799e-001 -6.984354e-002 -3.744417e-002 2.184063e-002 -1.111923e-001 -1.970178e-001 -2.185141e-001 -1.142221e-002 -6.894675e-002 -1.882429e-001 -4.622307e-001 2.065894e-001 1.445171e-001 -4.086714e-003 -2.522158e-002 -8.952151e-003 -4.031456e-002 -1.569943e-002 1.372950e-002 -1.375852e-001 -7.576596e-002 6.174134e-002 -2.216152e-002 -4.414972e-002 -1.076246e-001
<VARIANCE> 39
 6.698392e+001 2.835804e+001 3.955744e+001 6.724720e+001 2.859727e+001 4.273809e+001 2.931412e+001 4.006546e+001 3.498873e+001 2.898935e+001 3.385648e+001 3.888161e+001 4.340319e+001 4.040980e+000 2.039765e+000 2.199070e+000 5.070574e+000 2.636555e+000 2.934461e+000 2.584153e+000 3.515366e+000 2.728901e+000 2.494638e+000 2.403672e+000 2.464153e+000 2.952224e+000 6.361301e-001 3.707632e-001 3.482133e-001 7.589386e-001 4.654348e-001 4.586160e-001 4.692023e-001 6.032730e-001 4.881957e-001 4.667588e-001 4.216068e-001 4.286208e-001 4.302984e-001
<GCONST> 1.231027e+002
<TRANSP> 5
 0.000000e+000 1.000000e+000 0.000000e+000 0.000000e+000 0.000000e+000
 0.000000e+000 7.351421e-001 2.648579e-001 0.000000e+000 0.000000e+000
 0.000000e+000 0.000000e+000 7.737041e-001 2.262960e-001 0.000000e+000
 0.000000e+000 0.000000e+000 0.000000e+000 7.754467e-001 2.245533e-001
 0.000000e+000 0.000000e+000 0.000000e+000 0.000000e+000 0.000000e+000
<ENDHMM>
~h "v"
<BEGINHMM>
<NUMSTATES> 5
<STATE> 2
<MEAN> 39
 1.742869e+000 -5.430807e+000 -1.627655e+000 -6.826699e+000 -4.441657e-002 -3.982226e+000 3.781581e-001 -4.134920e-001 9.914140e-001 -2.628205e-001 -5.116455e+000 -5.666068e+000 6.295536e+001 6.707780e-001 1.667634e-001 -2.374560e-001 -4.489358e-001 -5.346996e-003 8.158601e-002 -2.998160e-001 -5.090407e-001 -1.915103e-001 1.000792e-001 -2.799169e-002 -6.599044e-001 1.325116e-001 -6.165531e-002 1.308774e-002 -1.894273e-002 2.945667e-002 6.198847e-002 7.048741e-002 -4.195530e-003 -6.682596e-002 -2.940689e-002 3.224559e-003 1.603772e-002 -2.152092e-002 3.857773e-002
<VARIANCE> 39
 4.956013e+001 2.385678e+001 4.197433e+001 5.491644e+001 2.709230e+001 7.751621e+001 2.403144e+001 3.635735e+001 1.959396e+001 2.384151e+001 3.089873e+001 4.958502e+001 3.978653e+001 4.215677e+000 1.658724e+000 1.801122e+000 3.881868e+000 1.647039e+000 2.152392e+000 1.841776e+000 2.831506e+000 1.576979e+000 1.853183e+000 2.020427e+000 2.917345e+000 1.738230e+000 6.459767e-001 2.492398e-001 2.374576e-001 4.981525e-001 2.663009e-001 3.779846e-001 3.498966e-001 4.462344e-001 2.859977e-001 3.227288e-001 2.880654e-001 4.459896e-001 2.316046e-001
<GCONST> 1.142769e+002
<STATE> 3
<MEAN> 39
 3.692903e+000 -5.561368e+000 -2.174474e+000 -8.077524e+000 4.056665e-001 -4.644214e+000 -3.444458e-001 -2.355459e+000 4.190511e-001 -5.973054e-001 -5.912686e+000 -7.715500e+000 6.342638e+001 5.114223e-002 1.318409e-001 5.557176e-002 1.571900e-001 1.790949e-001 1.067327e-001 -1.438583e-001 -3.670188e-001 -1.075059e-001 3.401487e-002 7.363607e-002 -2.114827e-001 -5.783483e-002 -8.836161e-002 1.791460e-002 5.010704e-002 5.254219e-002 1.571921e-002 -2.113664e-003 3.816528e-002 3.822358e-002 -2.514294e-002 1.513359e-002 2.775949e-004 6.892361e-002 -1.199931e-002
<VARIANCE> 39
 2.646727e+001 2.538085e+001 5.145175e+001 4.718975e+001 2.831824e+001 7.258523e+001 2.624479e+001 3.606267e+001 2.309949e+001 2.546338e+001 2.648324e+001 5.087671e+001 4.228906e+001 1.597315e+000 1.479128e+000 1.257617e+000 2.076209e+000 1.280605e+000 1.984409e+000 1.666012e+000 2.467446e+000 1.473416e+000 1.735282e+000 1.585643e+000 1.701355e+000 1.376076e+000 2.811793e-001 1.957121e-001 1.841831e-001 3.409288e-001 2.010983e-001 3.265903e-001 2.714940e-001 4.049406e-001 2.746613e-001 2.801514e-001 2.379160e-001 2.636896e-001 2.122995e-001
<GCONST> 1.067248e+002
<STATE> 4
<MEAN> 39
 3.602434e+000 -4.915634e+000 -1.541273e+000 -6.335544e+000 6.692918e-001 -4.260183e+000 -5.517634e-001 -3.382911e+000 1.675725e-001 -8.230447e-001 -5.947753e+000 -7.343795e+000 6.213585e+001 -1.031246e-002 3.439633e-001 2.145317e-001 2.733023e-001 -3.233100e-002 5.641757e-002 -4.949461e-002 -1.746162e-001 -1.251847e-001 1.525496e-001 1.150540e-001 2.788942e-002 -3.150179e-001 -1.823250e-002 4.215927e-002 2.343200e-002 -3.469572e-003 -2.743712e-002 -1.017745e-002 2.058579e-002 4.687435e-003 -3.883558e-002 3.716521e-002 -1.900693e-002 2.848772e-002 -1.120091e-002
<VARIANCE> 39
 2.608571e+001 3.008008e+001 3.919556e+001 4.175141e+001 2.422574e+001 4.955679e+001 2.617072e+001 2.866652e+001 2.323051e+001 2.988794e+001 2.495992e+001 4.129406e+001 4.312136e+001 8.799935e-001 1.129086e+000 8.848440e-001 1.260926e+000 1.133378e+000 1.767241e+000 1.463145e+000 2.084129e+000 1.695553e+000 1.774880e+000 1.408328e+000 1.243336e+000 8.764856e-001 1.312280e-001 1.597035e-001 1.278920e-001 1.875214e-001 1.770827e-001 2.673390e-001 2.367508e-001 3.456730e-001 2.735413e-001 2.782375e-001 2.280848e-001 2.034999e-001 1.221252e-001
<GCONST> 9.924384e+001
<TRANSP> 5
 0.000000e+000 1.000000e+000 0.000000e+000 0.000000e+000 0.000000e+000
 0.000000e+000 7.063637e-001 2.936363e-001 0.000000e+000 0.000000e+000
 0.000000e+000 0.000000e+000 6.519635e-001 3.480365e-001 0.000000e+000
 0.000000e+000 0.000000e+000 0.000000e+000 8.162417e-001 1.837583e-001
 0.000000e+000 0.000000e+000 0.000000e+000 0.000000e+000 0.000000e+000
<ENDHMM>
~h "w"
<BEGINHMM>
<NUMSTATES> 5
<STATE> 2
<MEAN> 39
 6.081195e+000 -5.944773e-001 6.010309e-001 -9.183175e+000 -3.151803e+000 -3.408722e+000 -6.854853e-002 -4.014900e+000 -2.683065e+000 -4.485783e-001 -4.693557e+000 -3.380275e+000 6.006426e+001 6.380867e-001 5.099469e-001 -3.802992e-001 -1.080684e+000 -3.496409e-001 3.967811e-001 -3.082099e-001 -2.104795e-001 -3.830197e-001 -1.877551e-001 3.282131e-001 -3.076479e-001 2.044725e-001 -8.331727e-002 -2.650811e-002 -3.932180e-002 -4.388355e-002 1.468508e-002 6.734036e-002 2.020000e-002 3.950765e-002 1.654297e-002 -3.560380e-002 9.446196e-002 -5.735224e-002 3.731451e-002
<VARIANCE> 39
 2.942884e+001 4.690453e+001 2.809497e+001 7.591972e+001 4.129197e+001 7.419981e+001 2.654370e+001 3.607166e+001 4.169176e+001 4.005571e+001 4.234036e+001 2.903708e+001 4.002576e+001 1.773555e+000 1.748109e+000 1.988176e+000 4.617791e+000 2.650679e+000 3.334035e+000 2.348469e+000 3.049184e+000 2.227767e+000 3.011201e+000 2.571094e+000 1.946546e+000 1.933572e+000 2.750910e-001 2.228560e-001 2.514167e-001 5.711610e-001 3.958313e-001 4.899438e-001 3.900821e-001 4.658770e-001 3.892791e-001 5.014215e-001 4.623642e-001 3.153500e-001 1.683702e-001
<GCONST> 1.179392e+002
<STATE> 3
<MEAN> 39
 8.106462e+000 7.380157e-001 -4.708562e-001 -1.261193e+001 -5.128158e+000 -1.573125e+000 -9.203344e-001 -4.762203e+000 -4.209352e+000 -8.714528e-001 -3.118486e+000 -4.636207e+000 6.056716e+001 2.940967e-001 3.177084e-001 -3.312376e-001 -7.914326e-001 -2.491760e-001 4.702189e-001 -1.792435e-001 -1.201306e-001 -2.244495e-001 -2.104972e-001 3.631228e-001 -3.592994e-001 1.592145e-001 -1.346996e-001 -9.596281e-002 1.253769e-002 1.360148e-001 9.386514e-002 -9.559500e-003 2.599429e-002 2.027590e-002 7.033398e-002 2.231861e-003 -2.542799e-002 -1.882079e-002 1.972370e-002
<VARIANCE> 39
 1.880972e+001 4.240816e+001 2.651529e+001 7.798766e+001 3.758872e+001 6.225808e+001 2.270081e+001 3.268303e+001 3.884828e+001 4.251540e+001 3.911391e+001 3.130702e+001 2.475393e+001 1.119808e+000 1.980150e+000 1.588266e+000 3.369243e+000 2.198596e+000 2.812780e+000 2.187701e+000 2.710425e+000 2.261120e+000 3.130000e+000 2.870732e+000 2.207514e+000 1.565358e+000 1.751026e-001 1.957045e-001 2.091124e-001 4.455705e-001 3.430220e-001 4.252425e-001 3.610328e-001 4.456121e-001 3.670382e-001 4.750692e-001 5.172827e-001 3.538887e-001 1.173937e-001
<GCONST> 1.133306e+002
<STATE> 4
<MEAN> 39
 9.144194e+000 4.269425e+000 -1.046614e+000 -1.601546e+001 -7.256555e+000 9.380781e-001 -1.344734e+000 -4.356657e+000 -4.751427e+000 -3.640909e+000 -1.884911e+000 -4.798236e+000 5.890990e+001 -2.129150e-002 -1.757553e-001 -3.259044e-001 -3.118784e-001 1.398286e-001 3.266051e-001 -6.808154e-002 -4.877144e-002 1.287261e-001 -2.634188e-002 1.889443e-001 -2.785994e-001 2.596987e-001 -6.562977e-002 -1.157422e-001 -3.375726e-002 8.205891e-002 9.894011e-002 -1.292495e-002 2.666494e-003 -3.514098e-002 4.894334e-002 5.422540e-002 -4.530657e-002 -4.442317e-002 5.887954e-002
<VARIANCE> 39
 1.111439e+001 2.493311e+001 1.751248e+001 7.290388e+001 2.971998e+001 3.418705e+001 2.312305e+001 2.798391e+001 3.396553e+001 3.952349e+001 3.176746e+001 2.217660e+001 2.571288e+001 5.119095e-001 1.166392e+000 1.023048e+000 1.978723e+000 1.408482e+000 1.694628e+000 1.486222e+000 1.615400e+000 1.653779e+000 2.048606e+000 2.335060e+000 1.648094e+000 8.596175e-001 7.251444e-002 9.484933e-002 1.283004e-001 2.382631e-001 1.998843e-001 2.495124e-001 2.681690e-001 2.718163e-001 2.534090e-001 3.430521e-001 3.927577e-001 2.656002e-001 6.574096e-002
<GCONST> 9.769929e+001
<TRANSP> 5
 0.000000e+000 1.000000e+000 0.000000e+000 0.000000e+000 0.000000e+000
 0.000000e+000 6.470273e-001 3.529726e-001 0.000000e+000 0.000000e+000
 0.000000e+000 0.000000e+000 6.640340e-001 3.359660e-001 0.000000e+000
 0.000000e+000 0.000000e+000 0.000000e+000 8.506772e-001 1.493228e-001
 0.000000e+000 0.000000e+000 0.000000e+000 0.000000e+000 0.000000e+000
<ENDHMM>
~h "y"
<BEGINHMM>
<NUMSTATES> 5
<STATE> 2
<MEAN> 39
 -2.497262e-001 -2.739863e-001 1.614488e+001 -8.476481e+000 -2.909927e+000 -1.179580e+001 -5.826656e+000 -2.560689e+000 -9.187839e+000 -2.177190e+000 -4.031966e+000 1.961011e+000 6.337579e+001 1.710455e-001 9.288052e-002 1.075581e+000 -1.645222e-001 -4.286714e-001 -7.546911e-001 -3.228329e-001 -3.551540e-002 -4.946389e-001 -3.871621e-001 -2.434135e-001 4.103861e-001 4.477983e-001 1.392622e-002 -2.497772e-002 -9.317018e-002 2.407767e-002 2.582700e-002 7.076423e-002 9.761056e-002 3.202048e-002 1.145751e-001 1.614603e-002 -4.788882e-002 5.566584e-002 -8.970118e-002
<VARIANCE> 39
 2.067219e+001 2.213128e+001 9.205632e+001 4.180212e+001 2.574257e+001 4.447926e+001 2.141742e+001 1.867536e+001 3.727402e+001 3.423846e+001 1.586225e+001 2.521609e+001 1.594520e+001 1.349022e+000 1.844423e+000 7.517940e+000 2.904357e+000 2.278940e+000 3.802346e+000 2.125937e+000 1.985596e+000 3.496161e+000 2.357361e+000 1.673256e+000 2.401517e+000 1.772551e+000 2.259177e-001 3.501369e-001 8.667336e-001 3.782462e-001 3.963306e-001 6.102384e-001 3.717306e-001 3.385371e-001 4.956854e-001 4.179019e-001 3.179796e-001 3.893506e-001 1.790972e-001
<GCONST> 1.141446e+002
<STATE> 3
<MEAN> 39
 1.732279e+000 1.875485e-001 1.536001e+001 -9.778751e+000 -2.940693e+000 -1.270127e+001 -7.251238e+000 -2.625858e+000 -6.993599e+000 -2.256531e+000 -4.818905e+000 3.753984e+000 6.396011e+001 1.518138e-001 -3.816369e-001 -8.204222e-001 -2.662216e-001 4.518005e-002 8.974454e-003 1.726630e-001 3.516666e-001 4.513078e-001 8.064482e-002 -3.663342e-001 -2.556576e-001 2.392341e-001 1.672469e-004 -3.724528e-002 -1.509898e-001 1.471555e-002 1.086377e-001 9.595892e-002 6.404408e-002 -6.065754e-002 1.638855e-002 3.566484e-003 -4.854665e-002 -1.285329e-001 6.924640e-003
<VARIANCE> 39
 1.052054e+001 3.151507e+001 7.901638e+001 2.952606e+001 2.026590e+001 3.505684e+001 1.407563e+001 3.150071e+001 2.976245e+001 2.906020e+001 2.180012e+001 3.252970e+001 1.411313e+001 5.766054e-001 1.869291e+000 4.989275e+000 1.182686e+000 2.230856e+000 2.309780e+000 1.487893e+000 2.380283e+000 2.339394e+000 1.821655e+000 2.018343e+000 3.002028e+000 5.254573e-001 7.655973e-002 2.075059e-001 3.973290e-001 1.578993e-001 3.756422e-001 3.703099e-001 2.444581e-001 4.751740e-001 3.883900e-001 2.668076e-001 3.296247e-001 4.007749e-001 6.334162e-002
<GCONST> 1.031452e+002
<STATE> 4
<MEAN> 39
 3.991057e+000 -2.077233e+000 3.379780e+000 -1.394013e+001 -1.040517e+000 -7.284000e+000 -3.702336e+000 -5.590039e+000 -7.587275e+000 2.071455e+000 -1.140920e+001 -2.649772e+000 6.631258e+001 9.721713e-003 -9.645341e-002 -5.873494e-001 1.352415e-001 5.810642e-001 4.646480e-001 3.272930e-001 -6.415201e-001 7.316899e-002 -1.715170e-001 -1.398047e-001 -3.770289e-001 -7.841562e-002 -4.019362e-004 5.533289e-002 9.689887e-002 5.964042e-002 -1.493437e-002 4.264089e-002 -3.235128e-002 -6.639897e-002 -1.983655e-002 -3.295854e-002 1.407114e-001 3.097834e-002 -5.407038e-002
<VARIANCE> 39
 7.985323e+000 4.476667e+001 1.369672e+002 2.940836e+001 5.573383e+001 4.763459e+001 2.741643e+001 6.954414e+001 6.213497e+001 3.777594e+001 6.172899e+001 3.916901e+001 1.681871e+001 3.737034e-001 1.050267e+000 3.783941e+000 9.830815e-001 3.246686e+000 2.578126e+000 1.412800e+000 3.941456e+000 2.818656e+000 1.821350e+000 5.019407e+000 2.794499e+000 5.149466e-001 4.475630e-002 9.654864e-002 2.516640e-001 1.268562e-001 4.008125e-001 2.286475e-001 2.294084e-001 5.700774e-001 3.663990e-001 2.947076e-001 6.878198e-001 3.982183e-001 3.524046e-002
<GCONST> 1.073230e+002
<TRANSP> 5
 0.000000e+000 1.000000e+000 0.000000e+000 0.000000e+000 0.000000e+000
 0.000000e+000 9.176452e-001 8.235485e-002 0.000000e+000 0.000000e+000
 0.000000e+000 0.000000e+000 9.411954e-001 5.880463e-002 0.000000e+000
 0.000000e+000 0.000000e+000 0.000000e+000 8.890493e-001 1.109507e-001
 0.000000e+000 0.000000e+000 0.000000e+000 0.000000e+000 0.000000e+000
<ENDHMM>
~h "z"
<BEGINHMM>
<NUMSTATES> 5
<STATE> 2
<MEAN> 39
 2.318229e+000 1.447419e+000 3.589167e+000 -3.496160e+000 -1.022028e+000 -9.027924e+000 4.132786e-002 -3.559956e+000 -1.464404e+000 -9.096163e-001 -3.737011e+000 -2.954802e+000 6.020222e+001 -1.500515e-001 1.159349e-001 -4.037963e-003 3.526087e-001 -1.866719e-001 -1.159387e-001 4.196348e-002 5.119954e-002 1.008130e-001 -4.711402e-002 1.917814e-001 1.126226e-001 1.363694e-001 -7.206719e-002 -2.311744e-002 -5.180635e-002 -2.236515e-002 -1.379591e-002 1.465197e-001 8.762052e-002 4.296140e-002 2.651495e-002 -1.458191e-002 4.424253e-002 1.552125e-002 -2.467434e-002
<VARIANCE> 39
 3.070973e+001 4.131071e+001 3.720741e+001 4.974092e+001 5.360620e+001 6.112772e+001 2.443726e+001 2.993798e+001 3.129206e+001 3.009495e+001 2.281760e+001 2.469280e+001 3.121461e+001 1.842537e+000 1.843244e+000 1.709321e+000 2.220561e+000 2.333273e+000 3.224887e+000 1.641855e+000 2.094985e+000 1.755211e+000 1.847298e+000 1.500184e+000 1.707062e+000 8.484705e-001 2.189940e-001 1.737411e-001 1.824741e-001 2.036477e-001 2.686359e-001 4.092419e-001 2.873813e-001 3.233986e-001 2.772413e-001 2.636260e-001 2.848041e-001 2.720258e-001 6.124633e-002
<GCONST> 1.063094e+002
<STATE> 3
<MEAN> 39
 2.026793e+000 8.769127e-001 2.913518e+000 -2.897782e+000 -1.875534e+000 -8.411944e+000 3.304253e-001 -3.056464e+000 -5.965614e-001 -9.518452e-001 -3.312423e+000 -3.220059e+000 6.075312e+001 -1.714726e-001 -1.663611e-002 -2.080698e-001 2.500185e-001 -2.288336e-001 2.075367e-001 1.310464e-001 7.590632e-002 1.693813e-001 -3.155902e-002 2.178621e-001 -1.838540e-002 5.326910e-002 2.127900e-002 -4.652892e-002 -5.847949e-003 -5.901104e-002 -3.650642e-002 1.703449e-002 2.551302e-002 8.397395e-003 -2.478820e-002 6.496679e-005 1.515310e-002 6.733568e-003 3.488269e-003
<VARIANCE> 39
 3.654859e+001 5.425403e+001 3.783260e+001 3.714078e+001 6.541043e+001 5.920429e+001 2.201311e+001 3.158038e+001 3.168477e+001 2.713564e+001 2.213504e+001 2.907160e+001 3.331179e+001 1.475667e+000 1.482362e+000 1.601719e+000 1.942505e+000 1.923631e+000 2.658145e+000 1.382857e+000 2.005662e+000 1.820208e+000 1.604725e+000 1.398927e+000 1.925015e+000 6.064482e-001 1.643004e-001 1.580509e-001 1.742124e-001 1.986022e-001 2.660290e-001 3.878050e-001 2.543970e-001 2.902315e-001 2.567904e-001 2.657021e-001 2.516433e-001 2.894162e-001 5.373926e-002
<GCONST> 1.040647e+002
<STATE> 4
<MEAN> 39
 2.717410e+000 -3.366823e-001 1.090650e-001 -2.434854e+000 -3.918588e+000 -5.873244e+000 7.376086e-001 -3.801898e+000 7.060927e-001 -5.638917e-001 -2.217825e+000 -4.682473e+000 6.131054e+001 7.903535e-002 -1.886724e-002 -2.048464e-001 -2.763775e-002 -3.358597e-001 9.448444e-002 1.091488e-001 -1.760159e-001 -1.451904e-001 4.215030e-002 2.479995e-001 8.908845e-002 5.182173e-002 8.417766e-002 -3.268228e-002 8.017600e-002 -1.138079e-001 -2.763795e-002 -8.974865e-002 -3.027054e-002 -1.476565e-002 -8.316372e-002 -1.172922e-003 -2.016206e-002 3.661215e-002 2.808254e-002
<VARIANCE> 39
 5.493572e+001 6.426774e+001 4.397417e+001 3.256527e+001 8.084016e+001 5.846496e+001 1.994875e+001 3.570921e+001 3.797256e+001 2.692965e+001 2.257810e+001 4.192767e+001 3.465538e+001 1.228819e+000 1.226276e+000 1.488481e+000 1.762093e+000 1.591084e+000 2.675633e+000 1.417384e+000 2.047015e+000 1.928497e+000 1.548739e+000 1.299473e+000 2.111952e+000 4.534359e-001 1.458366e-001 1.399392e-001 1.485440e-001 2.097209e-001 2.451464e-001 3.481166e-001 2.636936e-001 3.144149e-001 2.374269e-001 2.717371e-001 2.199064e-001 2.897520e-001 4.569472e-002
<GCONST> 1.037805e+002
<TRANSP> 5
 0.000000e+000 1.000000e+000 0.000000e+000 0.000000e+000 0.000000e+000
 0.000000e+000 6.745788e-001 3.254212e-001 0.000000e+000 0.000000e+000
 0.000000e+000 0.000000e+000 6.748157e-001 3.251844e-001 0.000000e+000
 0.000000e+000 0.000000e+000 0.000000e+000 8.092626e-001 1.907374e-001
 0.000000e+000 0.000000e+000 0.000000e+000 0.000000e+000 0.000000e+000
<ENDHMM>
~h "ah"
<BEGINHMM>
<NUMSTATES> 5
<STATE> 2
<MEAN> 39
 5.688847e+000 -4.535894e+000 -2.165743e+000 -1.331810e+001 -1.189479e+000 -2.315080e+000 -5.221254e-001 -5.282474e+000 -3.029773e+000 -2.195458e+000 -5.122301e+000 -7.413683e+000 6.537671e+001 -2.640410e-001 -3.582217e-001 2.337646e-002 4.807526e-001 4.145097e-001 -3.145121e-001 7.121965e-002 -6.709898e-002 7.489540e-002 4.904253e-003 -3.911436e-001 -2.224719e-001 1.194436e-001 2.161329e-002 9.178684e-002 1.062547e-001 8.121330e-002 -5.005766e-002 -7.656347e-002 8.021736e-003 1.779444e-003 -4.895582e-002 -1.438259e-002 -6.021938e-002 9.190284e-002 -1.012664e-001
<VARIANCE> 39
 1.092434e+001 3.639501e+001 8.115445e+001 4.537149e+001 4.109482e+001 8.480573e+001 2.514679e+001 3.682550e+001 3.228859e+001 3.482596e+001 5.186710e+001 5.081430e+001 2.604273e+001 5.472891e-001 2.105507e+000 2.739551e+000 1.439414e+000 2.479664e+000 2.834853e+000 2.132999e+000 3.031045e+000 2.071662e+000 2.447350e+000 2.801010e+000 3.168636e+000 1.040055e+000 6.230471e-002 1.780504e-001 2.430682e-001 1.848194e-001 2.968334e-001 3.269754e-001 3.449605e-001 4.684855e-001 3.080066e-001 3.605181e-001 4.386459e-001 4.273334e-001 7.119378e-002
<GCONST> 1.099253e+002
<STATE> 3
<MEAN> 39
 5.059697e+000 -5.033351e+000 -2.005817e+000 -1.091788e+001 3.916509e-002 -3.348858e+000 6.855853e-001 -4.838195e+000 -2.567518e+000 -3.203031e+000 -6.381317e+000 -8.175666e+000 6.426563e+001 -9.318770e-002 1.508259e-001 5.090243e-001 7.640265e-001 1.267054e-001 -5.063756e-001 7.980061e-002 -1.713468e-001 -1.838831e-001 -1.153667e-002 -3.282738e-001 1.768794e-001 -3.284959e-001 3.518195e-002 1.046726e-001 3.046509e-002 3.959433e-002 -5.245211e-002 9.818288e-003 3.294359e-003 -4.665894e-002 -2.235842e-002 3.780643e-002 5.040045e-002 6.011990e-002 -8.324078e-002
<VARIANCE> 39
 8.906477e+000 3.314404e+001 7.654522e+001 4.440186e+001 2.922204e+001 7.383194e+001 2.522207e+001 3.322279e+001 2.933322e+001 2.986744e+001 3.551341e+001 4.694685e+001 2.836184e+001 4.847510e-001 1.843710e+000 2.289731e+000 1.296294e+000 2.015658e+000 2.461710e+000 2.017948e+000 2.659452e+000 1.704618e+000 2.278549e+000 2.311312e+000 3.042997e+000 7.891803e-001 5.624448e-002 1.500525e-001 2.601900e-001 1.720346e-001 2.491455e-001 2.890098e-001 3.454421e-001 3.501013e-001 2.497229e-001 3.187080e-001 3.206994e-001 4.481497e-001 5.733709e-002
<GCONST> 1.048173e+002
<STATE> 4
<MEAN> 39
 3.121511e+000 -2.597321e+000 -2.939562e-001 -4.951552e+000 8.955154e-001 -2.239523e+000 2.376100e+000 -5.138468e+000 -2.518709e+000 -3.370452e+000 -6.065257e+000 -6.042034e+000 5.935420e+001 -7.266937e-002 1.644266e-001 3.168596e-001 4.919154e-001 -3.558709e-002 -1.189898e-001 1.491469e-001 -6.366374e-004 -8.386879e-002 6.045670e-002 -7.429252e-003 2.219097e-001 -3.587573e-001 2.686250e-003 3.194759e-002 6.489215e-003 -1.001410e-002 -2.136161e-002 2.913950e-002 -1.190227e-002 7.841575e-003 5.920428e-003 4.268793e-002 4.594696e-002 1.502146e-002 -2.678761e-002
<VARIANCE> 39
 1.871391e+001 3.137870e+001 5.192908e+001 5.964213e+001 3.211909e+001 5.388933e+001 2.008887e+001 3.320835e+001 2.323510e+001 3.174952e+001 2.613573e+001 3.521502e+001 5.421915e+001 3.974665e-001 9.840726e-001 1.464209e+000 1.161451e+000 1.551961e+000 1.856399e+000 1.310956e+000 1.996380e+000 1.303900e+000 1.971867e+000 1.496656e+000 1.820821e+000 4.930905e-001 5.513134e-002 1.046389e-001 1.616828e-001 1.735689e-001 2.230540e-001 2.158540e-001 2.284481e-001 3.047049e-001 2.284599e-001 2.977950e-001 2.259413e-001 3.003749e-001 5.108099e-002
<GCONST> 9.754466e+001
<TRANSP> 5
 0.000000e+000 1.000000e+000 0.000000e+000 0.000000e+000 0.000000e+000
 0.000000e+000 8.340760e-001 1.659241e-001 0.000000e+000 0.000000e+000
 0.000000e+000 0.000000e+000 7.929538e-001 2.070461e-001 0.000000e+000
 0.000000e+000 0.000000e+000 0.000000e+000 8.723654e-001 1.276346e-001
 0.000000e+000 0.000000e+000 0.000000e+000 0.000000e+000 0.000000e+000
<ENDHMM>
~h "ao"
<BEGINHMM>
<NUMSTATES> 5
<STATE> 2
<MEAN> 39
 3.068929e+000 1.423854e+000 -4.953436e+000 -1.463589e+001 -1.212749e+000 5.878134e+000 3.044359e+000 -2.707385e+000 -2.812484e-001 -2.197238e+000 -2.626418e+000 -4.301283e+000 5.635214e+001 -1.028272e-001 7.453239e-002 -4.784697e-002 -1.950999e-001 6.882607e-003 1.255460e-001 1.491691e-001 8.482454e-002 -2.168628e-002 -3.569908e-001 2.633156e-002 9.086533e-002 -5.130913e-002 -5.459924e-002 -1.984120e-002 7.501945e-002 1.666278e-001 2.428458e-002 -1.000963e-001 -1.053388e-002 3.564601e-002 4.574338e-002 2.919635e-002 -1.524251e-002 6.086947e-002 -4.704649e-002
<VARIANCE> 39
 2.886463e+001 1.864323e+001 3.484390e+001 1.650275e+002 4.641600e+001 2.501608e+001 2.109959e+001 3.216985e+001 2.285036e+001 3.945715e+001 2.107922e+001 2.903078e+001 6.525485e+001 3.663571e-001 4.186616e-001 7.068684e-001 1.541306e+000 9.175932e-001 1.053651e+000 9.936853e-001 1.249782e+000 1.217480e+000 1.596829e+000 1.138204e+000 1.007311e+000 2.554129e-001 9.351425e-002 8.646052e-002 1.224009e-001 2.530123e-001 1.533280e-001 1.874155e-001 1.912508e-001 2.055118e-001 2.313296e-001 2.376201e-001 2.140424e-001 1.930037e-001 3.782560e-002
<GCONST> 9.098841e+001
<STATE> 3
<MEAN> 39
 3.512494e+000 1.040871e+000 -6.141502e+000 -1.721056e+001 -2.330440e-001 6.561469e+000 2.500392e+000 -2.428177e+000 -1.025990e+000 -3.715682e+000 -2.184355e+000 -3.838828e+000 5.836292e+001 -3.354399e-002 1.739534e-001 2.351869e-002 -1.288918e-001 -9.865199e-002 -6.097085e-002 1.168667e-001 1.445499e-001 -3.171670e-002 -3.066773e-001 4.520965e-002 1.904777e-001 -1.174750e-001 6.164332e-004 -2.222685e-002 3.942644e-002 8.706360e-002 -3.501257e-003 -9.649983e-002 -4.870360e-002 1.279388e-002 1.586389e-002 8.059984e-002 -1.633595e-002 2.235129e-002 -7.589586e-003
<VARIANCE> 39
 2.783533e+001 1.821675e+001 3.502724e+001 1.824441e+002 4.611099e+001 2.676514e+001 1.904887e+001 3.460868e+001 2.302018e+001 4.223830e+001 1.867875e+001 2.955667e+001 7.058440e+001 2.647637e-001 3.753118e-001 6.209741e-001 1.031178e+000 8.234195e-001 9.298060e-001 9.216279e-001 1.091281e+000 1.030105e+000 1.325380e+000 9.769933e-001 9.301401e-001 2.723072e-001 4.841538e-002 6.859396e-002 1.001209e-001 1.425098e-001 1.446154e-001 1.511077e-001 1.836927e-001 1.864667e-001 1.810618e-001 2.249977e-001 1.736784e-001 1.689358e-001 5.665835e-002
<GCONST> 8.687199e+001
<STATE> 4
<MEAN> 39
 5.059993e+000 3.547252e+000 -5.725206e+000 -1.958840e+001 -1.633445e+000 6.104963e+000 3.199430e+000 -7.774717e-001 -1.825519e+000 -5.825515e+000 -1.961688e+000 -3.717993e+000 5.831659e+001 -4.848646e-002 6.338131e-002 3.325096e-001 5.180596e-001 -2.729733e-002 -2.508992e-001 3.877532e-002 3.966273e-002 -2.624034e-002 1.906618e-001 -6.318483e-002 7.090925e-002 -3.133570e-001 -2.500312e-002 -3.006513e-002 9.954148e-003 7.252235e-002 4.102240e-002 -2.686984e-002 -1.789709e-002 -3.009523e-002 1.940051e-002 6.317072e-002 -9.505931e-003 -1.106894e-003 1.159362e-002
<VARIANCE> 39
 2.287577e+001 1.904605e+001 3.392229e+001 1.546676e+002 4.476729e+001 2.572713e+001 2.363136e+001 3.003617e+001 2.823730e+001 4.464006e+001 1.626481e+001 2.670059e+001 4.717986e+001 5.269497e-001 5.631698e-001 7.757196e-001 2.643954e+000 1.259128e+000 1.120249e+000 1.109706e+000 1.339107e+000 1.242345e+000 1.510425e+000 1.162152e+000 1.151505e+000 5.765446e-001 7.349454e-002 8.266226e-002 1.228170e-001 2.854412e-001 1.916306e-001 1.857536e-001 2.055759e-001 2.234211e-001 2.023711e-001 2.091281e-001 2.192202e-001 1.895866e-001 7.772335e-002
<GCONST> 9.384589e+001
<TRANSP> 5
 0.000000e+000 1.000000e+000 0.000000e+000 0.000000e+000 0.000000e+000
 0.000000e+000 8.441299e-001 1.558701e-001 0.000000e+000 0.000000e+000
 0.000000e+000 0.000000e+000 7.407343e-001 2.592657e-001 0.000000e+000
 0.000000e+000 0.000000e+000 0.000000e+000 9.394149e-001 6.058514e-002
 0.000000e+000 0.000000e+000 0.000000e+000 0.000000e+000 0.000000e+000
<ENDHMM>
~h "ax"
<BEGINHMM>
<NUMSTATES> 5
<STATE> 2
<MEAN> 39
 -2.319557e+000 -3.896445e+000 3.984879e-001 -1.514289e+000 2.697618e+000 6.118367e-001 3.855191e+000 -1.827373e-001 3.984989e+000 2.354902e+000 -1.198254e+000 -7.231739e-002 5.164643e+001 -1.785855e-002 8.429027e-002 -9.215180e-002 6.659938e-002 -9.355525e-002 1.329206e-001 6.323736e-002 -2.097781e-002 7.976466e-002 7.674238e-002 1.233128e-001 8.186706e-002 -1.736421e-001 1.706366e-002 9.577924e-003 1.242103e-002 -2.199966e-002 3.327949e-003 -4.160220e-002 -3.274728e-002 -2.575055e-003 -2.136653e-002 2.612367e-003 -3.831150e-002 1.500785e-002 1.980972e-002
<VARIANCE> 39
 1.484188e+001 1.655191e+001 1.741538e+001 2.137204e+001 1.905448e+001 2.875864e+001 2.152946e+001 3.167673e+001 1.834136e+001 2.240022e+001 2.666439e+001 4.309146e+001 4.280934e+001 3.069246e-001 5.100986e-001 6.253996e-001 7.430736e-001 1.171217e+000 1.617135e+000 1.284367e+000 1.651997e+000 1.485972e+000 1.623488e+000 1.471584e+000 1.307137e+000 3.864809e-001 6.244494e-002 7.809917e-002 1.193214e-001 1.464951e-001 2.140825e-001 2.931233e-001 2.096686e-001 3.169475e-001 2.876731e-001 3.185939e-001 2.862830e-001 2.531216e-001 5.770727e-002
<GCONST> 8.939141e+001
<STATE> 3
<MEAN> 39
 -3.719510e-001 -3.716909e+000 -1.844605e+000 -3.194173e+000 2.961641e+000 2.385434e+000 4.307459e+000 -1.989319e+000 3.213035e+000 1.099769e+000 -3.089332e+000 -3.683739e+000 5.466252e+001 -8.204240e-002 1.169386e-001 6.776928e-002 9.281494e-002 -1.091643e-001 -7.687357e-002 2.310278e-002 6.156095e-002 4.128594e-002 1.418234e-001 3.997662e-002 2.512239e-001 -7.247922e-002 2.327932e-002 -3.102687e-002 2.586475e-002 -1.168300e-001 1.086721e-003 -1.789422e-001 -4.946795e-002 3.832845e-002 -8.147596e-002 -1.021542e-002 -1.004770e-001 4.000886e-003 1.254550e-001
<VARIANCE> 39
 2.133185e+001 2.295148e+001 2.099528e+001 4.096817e+001 1.963545e+001 3.806401e+001 2.105993e+001 3.200483e+001 1.919473e+001 2.461814e+001 3.744872e+001 6.391666e+001 9.455502e+001 4.630767e-001 6.777889e-001 6.085272e-001 7.948087e-001 1.201862e+000 1.866584e+000 1.281231e+000 1.790743e+000 1.440143e+000 1.564996e+000 1.460268e+000 1.274449e+000 7.588009e-001 1.094712e-001 1.018232e-001 1.148610e-001 1.445287e-001 2.227163e-001 3.265815e-001 2.214800e-001 3.345713e-001 3.042746e-001 2.774265e-001 2.983863e-001 2.730068e-001 1.530394e-001
<GCONST> 9.648174e+001
<STATE> 4
<MEAN> 39
 1.596963e+000 -4.656130e+000 -2.999686e+000 -6.661088e+000 3.683023e+000 -2.047797e-001 4.012697e+000 -2.754701e+000 3.438367e+000 -1.530473e+000 -4.978716e+000 -6.438561e+000 5.995939e+001 -1.146925e-003 -2.304671e-003 2.267511e-001 -6.631646e-002 -2.879295e-002 -4.184576e-001 5.548961e-002 2.024150e-001 -1.032182e-001 9.136365e-003 -1.672952e-001 2.632876e-001 1.200549e-001 4.228861e-002 -9.159459e-003 2.922916e-002 -1.017339e-001 -8.319664e-003 -1.144878e-001 -1.981008e-002 2.199176e-002 -4.992027e-002 -8.017207e-003 -5.736867e-002 -3.692611e-002 1.219147e-001
<VARIANCE> 39
 2.204166e+001 3.042340e+001 2.662313e+001 4.193415e+001 1.868681e+001 6.351847e+001 2.225918e+001 3.688748e+001 2.429503e+001 2.664963e+001 4.816674e+001 7.356209e+001 7.538224e+001 6.027566e-001 8.272676e-001 1.227660e+000 1.576420e+000 1.142405e+000 2.338493e+000 1.587707e+000 1.737275e+000 1.564498e+000 1.549603e+000 1.709221e+000 1.501882e+000 1.834812e+000 1.145381e-001 1.204058e-001 1.879382e-001 2.487078e-001 2.029236e-001 3.323838e-001 2.533835e-001 2.965144e-001 3.194576e-001 2.433251e-001 3.189792e-001 2.564006e-001 2.796455e-001
<GCONST> 1.033942e+002
<TRANSP> 5
 0.000000e+000 1.000000e+000 0.000000e+000 0.000000e+000 0.000000e+000
 0.000000e+000 8.430333e-001 1.569667e-001 0.000000e+000 0.000000e+000
 0.000000e+000 0.000000e+000 5.257040e-001 4.742960e-001 0.000000e+000
 0.000000e+000 0.000000e+000 0.000000e+000 7.030487e-001 2.969513e-001
 0.000000e+000 0.000000e+000 0.000000e+000 0.000000e+000 0.000000e+000
<ENDHMM>
~h "ay"
<BEGINHMM>
<NUMSTATES> 5
<STATE> 2
<MEAN> 39
 -1.707142e+000 -2.801223e+000 6.521004e-002 -1.990362e+000 2.491820e+000 2.308430e+000 3.842290e+000 -3.564898e+000 9.327422e-001 9.162286e-001 -3.830594e+000 -1.876916e+000 5.285990e+001 -7.366619e-002 -2.269125e-001 -1.430516e-001 -1.494963e-001 1.108666e-001 -1.736110e-001 -1.030559e-001 1.778857e-001 5.025569e-002 -1.237674e-001 -1.275939e-002 -1.436985e-001 3.814252e-001 3.758382e-002 1.750646e-002 5.757216e-002 6.764357e-003 -6.955147e-003 -5.044666e-002 6.421341e-003 6.533136e-003 -2.005164e-002 2.059975e-002 -4.839688e-002 -3.414540e-002 1.217925e-002
<VARIANCE> 39
 2.328055e+001 2.237687e+001 2.859250e+001 4.315149e+001 1.943539e+001 3.264771e+001 2.229234e+001 3.250384e+001 1.906335e+001 2.538177e+001 3.157594e+001 3.719785e+001 8.154916e+001 7.928195e-001 6.326170e-001 8.985046e-001 1.382163e+000 1.152519e+000 2.187367e+000 1.620721e+000 1.999951e+000 1.320254e+000 1.604636e+000 1.811670e+000 1.561580e+000 1.601753e+000 1.273052e-001 1.113253e-001 1.522115e-001 1.696980e-001 2.157388e-001 3.175150e-001 3.002824e-001 3.415242e-001 2.565469e-001 2.902310e-001 3.339689e-001 2.887465e-001 1.152377e-001
<GCONST> 9.966166e+001
<STATE> 3
<MEAN> 39
 -9.687275e-001 -4.685846e+000 -1.615905e+000 -4.264330e+000 3.338312e+000 5.789018e-001 2.599673e+000 -2.275952e+000 8.274592e-001 -4.896776e-001 -4.592889e+000 -3.762412e+000 5.747269e+001 7.396734e-002 -2.639992e-001 -5.685516e-002 -1.729987e-001 9.722919e-002 -2.104626e-001 -1.923786e-002 1.795825e-001 3.188026e-002 -1.346795e-001 -1.833978e-001 -2.787957e-001 4.474433e-001 2.257742e-002 2.700590e-002 2.233293e-002 4.770525e-002 -3.504455e-002 3.479536e-002 7.170451e-002 -6.596703e-002 5.547949e-003 3.236268e-002 -1.062731e-002 3.316523e-002 -9.984425e-002
<VARIANCE> 39
 3.355197e+001 2.777921e+001 3.482772e+001 5.200938e+001 2.369016e+001 3.937759e+001 2.500081e+001 3.942907e+001 1.817458e+001 2.561371e+001 3.752798e+001 5.053532e+001 8.990958e+001 1.153134e+000 9.104754e-001 1.080547e+000 1.451962e+000 1.289835e+000 2.327521e+000 1.611415e+000 2.228398e+000 1.223611e+000 1.489304e+000 2.169394e+000 2.218028e+000 1.847286e+000 1.705355e-001 1.450974e-001 1.830568e-001 1.848630e-001 2.228717e-001 4.518136e-001 3.287950e-001 4.166430e-001 2.426294e-001 2.697449e-001 3.590374e-001 3.180454e-001 1.577324e-001
<GCONST> 1.054875e+002
<STATE> 4
<MEAN> 39
 1.019622e+000 -5.783002e+000 -2.032861e+000 -6.325380e+000 3.255215e+000 -8.931749e-001 2.113514e+000 -2.762733e+000 1.494943e-001 -2.146843e+000 -6.200591e+000 -5.647420e+000 6.118550e+001 2.525394e-002 -5.010138e-002 1.368763e-001 1.091985e-001 -1.673129e-001 -2.116270e-001 1.853210e-001 9.142396e-002 -6.430568e-003 -1.297077e-001 -7.229600e-002 7.771339e-002 8.735378e-003 4.444117e-003 6.382382e-002 5.326369e-002 2.369839e-002 -6.724387e-002 -3.193518e-002 5.782128e-003 -1.826159e-003 -1.691994e-002 2.657867e-002 3.044583e-002 6.183122e-002 -6.781885e-002
<VARIANCE> 39
 2.987828e+001 3.640084e+001 4.899913e+001 5.308266e+001 3.429715e+001 4.721903e+001 2.798741e+001 3.602732e+001 2.484188e+001 3.323428e+001 3.552675e+001 5.234875e+001 7.828725e+001 8.988536e-001 1.023768e+000 1.333804e+000 1.362163e+000 1.673415e+000 2.280079e+000 1.677155e+000 2.256150e+000 1.485597e+000 1.560268e+000 1.578682e+000 1.778284e+000 1.053470e+000 1.517363e-001 1.525121e-001 1.596855e-001 2.143035e-001 2.431191e-001 3.310189e-001 2.866350e-001 3.918140e-001 2.503143e-001 2.572574e-001 2.966235e-001 2.875073e-001 1.399805e-001
<GCONST> 1.055339e+002
<TRANSP> 5
 0.000000e+000 1.000000e+000 0.000000e+000 0.000000e+000 0.000000e+000
 0.000000e+000 7.266043e-001 2.733957e-001 0.000000e+000 0.000000e+000
 0.000000e+000 0.000000e+000 6.331281e-001 3.668719e-001 0.000000e+000
 0.000000e+000 0.000000e+000 0.000000e+000 8.691097e-001 1.308902e-001
 0.000000e+000 0.000000e+000 0.000000e+000 0.000000e+000 0.000000e+000
<ENDHMM>
~h "eh"
<BEGINHMM>
<NUMSTATES> 5
<STATE> 2
<MEAN> 39
 3.659730e+000 -6.941649e+000 -1.017889e-001 -1.007846e+001 -2.965536e+000 -1.197876e+001 4.794804e-001 3.876143e+000 1.997224e+000 -5.340234e-001 -1.024126e+001 -3.364293e+000 6.555431e+001 2.207708e-001 -7.138528e-001 1.599808e-002 -3.577681e-001 1.061959e-002 1.286781e-001 1.995950e-001 4.505119e-001 -2.117705e-001 -4.312277e-001 -1.979163e-001 -2.184474e-001 3.050792e-001 -2.402058e-001 2.939833e-001 -1.805112e-002 2.308511e-001 1.839299e-001 1.295936e-001 4.387214e-002 -1.505173e-001 -4.259632e-003 -7.756007e-002 2.479506e-001 -3.863943e-003 -2.410490e-001
<VARIANCE> 39
 1.760103e+001 2.031640e+001 1.222424e+001 3.155636e+001 1.341582e+001 3.919102e+001 2.096337e+001 3.238099e+001 1.242525e+001 1.859671e+001 2.800736e+001 1.924172e+001 2.917584e+001 1.168695e+000 1.510217e+000 5.956104e-001 1.616579e+000 1.079226e+000 1.698196e+000 1.636256e+000 2.565922e+000 9.423384e-001 1.476808e+000 1.260383e+000 9.267495e-001 9.291909e-001 3.768195e-001 1.617807e-001 1.118037e-001 2.584242e-001 2.111722e-001 3.308234e-001 3.102019e-001 4.094778e-001 1.834793e-001 2.902262e-001 2.179216e-001 1.582927e-001 1.289080e-001
<GCONST> 9.497118e+001
<STATE> 3
<MEAN> 39
 4.131032e+000 -7.009602e+000 3.641342e-002 -9.722197e+000 -2.384192e+000 -1.123436e+001 6.467444e-002 3.077703e+000 1.669713e+000 -1.068075e+000 -9.716754e+000 -4.146637e+000 6.493515e+001 1.730038e-001 -3.071066e-002 4.352138e-002 7.987115e-002 1.413017e-001 2.466315e-001 -1.297607e-001 -2.561794e-001 -1.529088e-001 -1.959812e-001 2.271650e-001 -2.946204e-001 -1.709839e-001 -1.618634e-002 1.908945e-001 4.303445e-003 1.012810e-001 3.888455e-002 3.373796e-002 -8.854989e-002 -1.968349e-001 1.981810e-002 8.469443e-002 1.433830e-001 -2.468729e-002 -1.232191e-001
<VARIANCE> 39
 1.789255e+001 2.098997e+001 1.172620e+001 3.166121e+001 1.345538e+001 3.927268e+001 2.682522e+001 4.414795e+001 1.466104e+001 1.872969e+001 3.059039e+001 2.160505e+001 3.052145e+001 6.402727e-001 1.313304e+000 5.349447e-001 1.302435e+000 7.796054e-001 1.760343e+000 1.812720e+000 2.567620e+000 9.842084e-001 1.422795e+000 1.253024e+000 8.314164e-001 8.047355e-001 1.541152e-001 1.792416e-001 8.704935e-002 2.505093e-001 1.426883e-001 2.699148e-001 2.830211e-001 3.982525e-001 2.022605e-001 2.384024e-001 2.043530e-001 1.514553e-001 1.225102e-001
<GCONST> 9.241559e+001
<STATE> 4
<MEAN> 39
 1.646379e+000 -2.897428e+000 1.674157e+000 -3.391651e+000 -5.025822e-002 -4.596684e+000 3.456160e-001 -2.356657e+000 5.422444e-001 -7.189883e-002 -7.885092e+000 -3.798183e+000 5.634271e+001 -1.373576e-002 9.937243e-002 1.370600e-002 1.515170e-001 7.663220e-002 2.133050e-001 -7.998089e-002 -2.047270e-001 -2.575670e-002 5.793884e-002 2.230623e-001 -1.243534e-001 -2.331834e-001 1.565385e-002 1.707171e-002 -5.903098e-003 -7.033181e-003 -6.668190e-003 -1.073748e-002 -2.489702e-002 -2.352743e-002 1.868303e-002 4.234825e-002 8.954619e-003 -2.089060e-002 1.953337e-003
<VARIANCE> 39
 2.900212e+001 2.461272e+001 1.367569e+001 4.415544e+001 1.530583e+001 5.393883e+001 2.950121e+001 4.794018e+001 1.782614e+001 1.844160e+001 3.753043e+001 2.714944e+001 7.234531e+001 6.023707e-001 9.023772e-001 5.611998e-001 1.047754e+000 1.001711e+000 1.503257e+000 1.650110e+000 2.526517e+000 1.387604e+000 1.426383e+000 1.895722e+000 1.209645e+000 6.151447e-001 8.999090e-002 1.500442e-001 8.547509e-002 1.969754e-001 2.040369e-001 2.586454e-001 3.086070e-001 4.155940e-001 2.639041e-001 2.636008e-001 3.206927e-001 2.134975e-001 9.998155e-002
<GCONST> 9.631380e+001
<TRANSP> 5
 0.000000e+000 1.000000e+000 0.000000e+000 0.000000e+000 0.000000e+000
 0.000000e+000 6.155463e-001 3.844537e-001 0.000000e+000 0.000000e+000
 0.000000e+000 0.000000e+000 6.282484e-001 3.717516e-001 0.000000e+000
 0.000000e+000 0.000000e+000 0.000000e+000 8.707570e-001 1.292430e-001
 0.000000e+000 0.000000e+000 0.000000e+000 0.000000e+000 0.000000e+000
<ENDHMM>
~h "ey"
<BEGINHMM>
<NUMSTATES> 5
<STATE> 2
<MEAN> 39
 -2.500553e-001 -4.669372e+000 -2.299517e+000 -4.416759e+000 6.024057e-001 -5.011458e-001 4.133150e+000 -2.377289e+000 2.140082e+000 -7.913030e-001 -4.660698e+000 -3.535131e+000 5.575123e+001 -4.890753e-003 -7.068531e-001 -2.084164e-001 -1.267112e-001 3.171313e-001 -4.556008e-001 2.905455e-001 4.475589e-001 -9.142355e-002 -5.635411e-001 -5.036713e-001 -2.560935e-001 8.391148e-001 8.882945e-002 -1.164713e-002 7.034214e-002 -4.936053e-002 -2.659234e-002 -1.165939e-001 -4.190410e-002 2.296685e-003 -1.288857e-001 -6.580798e-002 -3.073729e-002 9.033569e-003 1.248164e-001
<VARIANCE> 39
 2.364894e+001 3.711240e+001 3.052044e+001 4.037534e+001 2.867111e+001 3.986346e+001 2.532384e+001 2.875141e+001 2.719843e+001 4.883910e+001 4.446668e+001 4.156031e+001 8.300284e+001 1.515417e+000 1.760311e+000 2.281682e+000 2.490859e+000 2.059843e+000 3.024168e+000 2.185322e+000 2.435493e+000 2.895281e+000 3.911567e+000 2.359328e+000 2.626140e+000 4.562106e+000 2.322519e-001 2.836547e-001 3.979315e-001 3.339978e-001 3.290443e-001 4.460039e-001 3.849145e-001 4.449021e-001 5.132069e-001 6.291535e-001 4.254588e-001 4.733725e-001 5.715497e-001
<GCONST> 1.186099e+002
<STATE> 3
<MEAN> 39
 6.077124e-001 -8.130422e+000 -2.805841e+000 -5.992228e+000 1.844398e+000 -3.326743e+000 5.170699e+000 -9.809512e-001 8.255837e-001 -4.106737e+000 -6.997861e+000 -4.550903e+000 6.100372e+001 2.479410e-001 -5.482169e-001 2.625711e-002 -3.479973e-001 5.992345e-002 -6.723413e-001 1.340093e-001 2.861544e-001 -2.911659e-001 -5.950582e-001 -4.651472e-001 -1.368316e-001 1.005625e+000 2.122669e-002 7.760846e-002 5.663538e-002 1.157708e-002 -5.563817e-002 2.346695e-002 -1.364399e-002 -2.883683e-002 2.975241e-003 6.527312e-002 4.138021e-002 4.887855e-002 -9.002026e-002
<VARIANCE> 39
 2.012819e+001 4.127913e+001 2.484482e+001 3.186541e+001 2.454135e+001 4.370152e+001 2.187504e+001 2.210087e+001 2.563767e+001 4.584828e+001 3.529714e+001 3.495873e+001 8.509123e+001 1.300840e+000 1.978141e+000 1.927576e+000 2.083624e+000 1.705715e+000 2.967357e+000 1.767184e+000 2.019480e+000 1.804097e+000 2.540130e+000 2.079278e+000 2.211032e+000 4.200946e+000 2.267840e-001 2.698601e-001 3.211722e-001 3.035792e-001 2.774073e-001 4.268492e-001 3.290104e-001 3.673967e-001 3.242600e-001 4.432564e-001 3.637879e-001 3.861940e-001 5.079370e-001
<GCONST> 1.126283e+002
<STATE> 4
<MEAN> 39
 2.177135e+000 -9.173125e+000 -1.951979e+000 -7.133403e+000 1.042571e+000 -5.996643e+000 6.136836e+000 -6.600716e-001 -6.061467e-001 -6.489499e+000 -9.107450e+000 -3.994576e+000 6.366135e+001 4.701673e-002 3.401874e-001 3.396615e-001 5.102466e-002 -2.026215e-001 -3.240091e-001 -5.821418e-002 1.394977e-001 -2.804239e-002 1.112887e-001 -9.795806e-002 2.293156e-001 -1.262887e-001 -7.241395e-002 1.074987e-001 3.364924e-002 8.297966e-002 3.129090e-002 1.147459e-001 -4.901466e-002 -3.198708e-002 2.682583e-002 8.712796e-002 8.986618e-002 1.615125e-002 -1.598619e-001
<VARIANCE> 39
 1.610705e+001 3.267278e+001 2.065736e+001 3.071555e+001 2.081731e+001 4.377406e+001 2.077606e+001 1.881009e+001 1.937224e+001 4.110805e+001 2.233427e+001 2.352244e+001 6.694653e+001 8.616567e-001 1.486455e+000 1.086098e+000 1.376670e+000 1.175503e+000 1.983433e+000 1.475908e+000 1.317503e+000 1.117458e+000 1.740797e+000 1.447873e+000 1.152943e+000 1.792516e+000 1.642403e-001 1.548963e-001 1.590759e-001 2.184051e-001 1.967970e-001 4.005986e-001 2.621094e-001 2.463082e-001 1.908369e-001 2.607897e-001 2.602816e-001 1.968158e-001 1.823474e-001
<GCONST> 9.826417e+001
<TRANSP> 5
 0.000000e+000 1.000000e+000 0.000000e+000 0.000000e+000 0.000000e+000
 0.000000e+000 7.705128e-001 2.294872e-001 0.000000e+000 0.000000e+000
 0.000000e+000 0.000000e+000 7.888362e-001 2.111638e-001 0.000000e+000
 0.000000e+000 0.000000e+000 0.000000e+000 8.942671e-001 1.057329e-001
 0.000000e+000 0.000000e+000 0.000000e+000 0.000000e+000 0.000000e+000
<ENDHMM>
~h "ia"
<BEGINHMM>
<NUMSTATES> 5
<STATE> 2
<MEAN> 39
 1.747379e+000 8.956597e-001 5.122166e+000 -4.849081e+000 -3.058930e+000 -1.060912e+001 -5.446495e-001 -3.432621e+000 -3.385169e+000 6.321767e-002 -2.066497e+000 -5.700128e-001 6.212999e+001 3.770306e-001 -4.855748e-001 3.570382e-001 -4.795800e-001 -4.857175e-001 -6.472278e-001 -1.696465e-001 1.914830e-001 -1.926869e-001 -4.577795e-003 -3.581044e-002 1.599662e-001 3.943187e-001 4.045340e-002 -7.320374e-002 -2.947140e-002 -4.790880e-002 -2.520927e-002 3.110815e-002 -7.504213e-003 2.856863e-002 5.767195e-002 7.933828e-003 -5.739117e-002 -3.462021e-002 2.224443e-002
<VARIANCE> 39
 4.982935e+001 4.619358e+001 6.488638e+001 5.054722e+001 6.737997e+001 8.476323e+001 2.924060e+001 3.605477e+001 4.201319e+001 2.638543e+001 2.162342e+001 2.995469e+001 2.826973e+001 2.757057e+000 2.466773e+000 2.607421e+000 2.720349e+000 2.975828e+000 4.426920e+000 2.541566e+000 2.175256e+000 2.606980e+000 2.069858e+000 1.452738e+000 2.143320e+000 8.776197e-001 3.242815e-001 2.663703e-001 3.182795e-001 3.652607e-001 3.355373e-001 6.254181e-001 4.433971e-001 3.691058e-001 3.895396e-001 3.435704e-001 2.707703e-001 3.489681e-001 9.063302e-002
<GCONST> 1.160627e+002
<STATE> 3
<MEAN> 39
 4.240421e+000 -3.138003e+000 6.045400e+000 -6.940312e+000 -6.741654e+000 -1.301305e+001 -1.168616e+000 -2.246487e+000 -3.134567e+000 9.139232e-002 -2.751368e+000 -8.539255e-001 6.473751e+001 4.566247e-001 -5.750381e-001 -3.443814e-001 -3.776477e-001 -4.886115e-001 1.868821e-001 1.474370e-002 6.021514e-002 2.379579e-001 6.687769e-002 -8.658477e-002 -1.323062e-001 2.743092e-001 -5.481900e-002 6.123123e-002 -1.688392e-001 7.621026e-002 9.804103e-002 1.920477e-001 1.634835e-002 -2.914993e-002 1.004249e-001 -8.322381e-003 -1.813580e-002 -8.060255e-002 -5.602324e-002
<VARIANCE> 39
 2.732389e+001 3.921794e+001 7.987198e+001 3.690380e+001 4.399207e+001 8.162906e+001 2.561132e+001 4.223907e+001 4.183411e+001 2.405596e+001 2.146887e+001 4.028477e+001 2.401544e+001 1.418978e+000 1.814874e+000 3.203701e+000 2.275235e+000 2.350396e+000 3.685012e+000 1.795807e+000 2.259829e+000 2.567341e+000 1.426066e+000 1.578056e+000 2.512321e+000 6.509531e-001 1.953890e-001 1.853541e-001 2.824034e-001 2.910940e-001 2.886090e-001 4.620195e-001 3.393539e-001 3.451364e-001 3.550140e-001 2.380961e-001 2.602780e-001 3.662637e-001 4.834641e-002
<GCONST> 1.095820e+002
<STATE> 4
<MEAN> 39
 7.452140e+000 -5.786470e+000 -1.826418e+000 -5.998786e+000 -9.969381e+000 -7.311603e+000 5.060142e-001 -4.820309e+000 3.679366e-001 -2.658732e-001 -1.504041e+000 -4.735152e+000 6.527290e+001 2.408835e-001 8.728734e-002 -8.286008e-001 -6.666311e-002 -8.407412e-002 8.809814e-001 1.966886e-001 -4.270623e-001 1.294543e-001 6.999980e-002 1.237583e-001 -2.726621e-001 -1.502238e-001 -4.096237e-002 8.246822e-002 4.184977e-002 -2.087757e-002 7.709235e-002 2.577720e-002 8.010171e-003 -1.371956e-002 -3.294851e-002 -2.063947e-002 -2.017488e-002 3.069822e-002 -5.042157e-002
<VARIANCE> 39
 1.802062e+001 2.753098e+001 8.941071e+001 3.846745e+001 3.184992e+001 8.370450e+001 2.315735e+001 5.304568e+001 5.019430e+001 2.275423e+001 3.242610e+001 5.091074e+001 1.752855e+001 6.100284e-001 1.011314e+000 2.268661e+000 2.155957e+000 1.866595e+000 1.957304e+000 1.619322e+000 2.196532e+000 2.488787e+000 1.249175e+000 1.999045e+000 2.663202e+000 3.509964e-001 7.731197e-002 8.598503e-002 1.841057e-001 2.623075e-001 2.615328e-001 2.691722e-001 2.879095e-001 3.221512e-001 2.831703e-001 2.169636e-001 2.745875e-001 3.248088e-001 2.539621e-002
<GCONST> 1.018156e+002
<TRANSP> 5
 0.000000e+000 1.000000e+000 0.000000e+000 0.000000e+000 0.000000e+000
 0.000000e+000 7.682117e-001 2.317883e-001 0.000000e+000 0.000000e+000
 0.000000e+000 0.000000e+000 7.837285e-001 2.162714e-001 0.000000e+000
 0.000000e+000 0.000000e+000 0.000000e+000 8.821216e-001 1.178784e-001
 0.000000e+000 0.000000e+000 0.000000e+000 0.000000e+000 0.000000e+000
<ENDHMM>
~h "ih"
<BEGINHMM>
<NUMSTATES> 5
<STATE> 2
<MEAN> 39
 -7.372597e+000 1.409235e+000 -6.006211e-001 -2.887735e+000 2.562158e+000 -4.693231e+000 3.425926e+000 1.603977e+000 9.582643e-001 -5.249413e-001 -9.907959e-001 -2.223391e-001 6.068432e+001 2.871282e-002 -2.743979e-001 2.956305e-001 2.507752e-001 -1.731208e-001 -4.836881e-001 -1.316010e-001 1.747971e-001 2.034820e-001 -3.435118e-003 -7.486801e-002 -2.409923e-002 1.843602e-001 1.493778e-001 -8.312356e-002 1.093185e-002 -7.159742e-002 -8.847422e-002 -1.194127e-001 -7.353406e-002 -4.513748e-002 -3.969266e-002 2.341500e-002 -6.861445e-002 -1.598948e-002 5.812592e-002
<VARIANCE> 39
 8.272240e+001 2.389504e+001 3.036621e+001 4.273859e+001 5.373301e+001 6.717255e+001 2.489360e+001 2.430531e+001 3.113193e+001 2.495394e+001 2.628912e+001 2.099140e+001 2.526502e+001 6.735173e+000 1.544530e+000 2.249001e+000 4.616462e+000 2.848975e+000 4.204348e+000 2.617808e+000 2.419926e+000 2.775328e+000 2.233993e+000 2.999388e+000 1.993993e+000 1.497478e+000 7.755749e-001 2.084872e-001 3.377170e-001 5.342914e-001 4.113309e-001 6.138358e-001 4.658564e-001 4.312404e-001 4.328042e-001 4.681065e-001 4.930774e-001 3.894825e-001 2.254424e-001
<GCONST> 1.190056e+002
<STATE> 3
<MEAN> 39
 -4.946271e+000 -4.693338e-001 7.755054e-001 -3.202594e+000 7.925944e-001 -8.982732e+000 2.124304e+000 1.437912e+000 3.595521e-001 -1.941579e-001 -2.087777e+000 -6.091937e-001 6.183926e+001 3.549503e-001 -3.442285e-001 1.671934e-001 -4.055270e-002 -3.029080e-001 -4.850833e-001 -1.751951e-001 3.081906e-003 4.455625e-002 7.660759e-002 -1.330216e-001 -2.506181e-002 1.899485e-001 -1.688843e-002 -9.479543e-003 -3.187431e-002 -3.023559e-002 -3.350673e-002 4.866081e-002 3.605516e-002 -3.656385e-003 -1.403531e-002 8.818818e-003 4.045708e-002 2.798742e-002 -5.069556e-003
<VARIANCE> 39
 7.494878e+001 2.901789e+001 3.721211e+001 4.168411e+001 6.163816e+001 8.974397e+001 2.600364e+001 2.355043e+001 3.830400e+001 2.317503e+001 2.879959e+001 2.061336e+001 2.645461e+001 6.062674e+000 2.006437e+000 3.126485e+000 3.583507e+000 3.841233e+000 5.364974e+000 2.580194e+000 2.334254e+000 3.669786e+000 2.045413e+000 2.821598e+000 2.033581e+000 1.871972e+000 7.424381e-001 2.808906e-001 4.532247e-001 5.204558e-001 4.835584e-001 7.730116e-001 4.847079e-001 4.087366e-001 6.064271e-001 4.228138e-001 5.207213e-001 4.001321e-001 2.545053e-001
<GCONST> 1.224076e+002
<STATE> 4
<MEAN> 39
 -2.445621e+000 -1.522979e+000 1.176799e+000 -3.361160e+000 -9.550403e-001 -1.027068e+001 1.353808e+000 3.305669e-002 -5.562231e-001 2.095081e-001 -1.533759e+000 -8.934274e-001 6.198029e+001 -2.112170e-001 5.826373e-002 -8.251449e-002 1.673998e-001 2.171807e-001 2.008338e-001 7.320660e-003 -5.435839e-002 1.240317e-001 1.063451e-001 8.411393e-002 -1.217705e-002 -1.111575e-001 -2.095973e-002 1.733541e-002 -1.056846e-003 3.801978e-003 4.256284e-003 2.162642e-002 1.077615e-002 9.059959e-003 3.768278e-003 7.508089e-003 1.259079e-003 7.577164e-003 -9.730314e-003
<VARIANCE> 39
 7.215962e+001 2.751001e+001 5.559275e+001 4.436241e+001 8.725774e+001 7.445699e+001 2.409050e+001 3.114982e+001 4.894557e+001 2.572868e+001 2.733927e+001 2.436656e+001 2.876847e+001 3.235318e+000 1.390849e+000 2.971519e+000 2.256851e+000 3.766618e+000 3.582116e+000 1.992616e+000 2.280523e+000 3.984390e+000 1.796883e+000 2.145952e+000 1.668802e+000 1.363412e+000 3.751223e-001 1.956705e-001 4.704450e-001 3.456268e-001 4.756567e-001 5.324515e-001 3.758388e-001 3.991815e-001 6.289648e-001 3.311665e-001 3.993002e-001 3.073584e-001 1.822297e-001
<GCONST> 1.174895e+002
<TRANSP> 5
 0.000000e+000 1.000000e+000 0.000000e+000 0.000000e+000 0.000000e+000
 0.000000e+000 7.557746e-001 2.442255e-001 0.000000e+000 0.000000e+000
 0.000000e+000 0.000000e+000 8.115149e-001 1.884851e-001 0.000000e+000
 0.000000e+000 0.000000e+000 0.000000e+000 9.524658e-001 4.753423e-002
 0.000000e+000 0.000000e+000 0.000000e+000 0.000000e+000 0.000000e+000
<ENDHMM>
~h "iy"
<BEGINHMM>
<NUMSTATES> 5
<STATE> 2
<MEAN> 39
 1.936247e+000 -2.823769e+000 1.465387e+001 -9.513536e+000 -6.370628e+000 -1.539564e+001 -4.318460e+000 -3.192608e+000 -9.958967e+000 -6.201080e-001 -3.900488e+000 2.576379e+000 6.375883e+001 -3.128333e-001 3.066720e-001 6.311166e-001 -3.472909e-001 -1.734729e-001 1.566946e-003 1.774500e-001 -2.646637e-001 -5.231603e-001 -2.264566e-001 1.857476e-001 4.025105e-001 -8.670081e-002 3.436043e-002 3.817983e-002 -1.788059e-001 1.099764e-001 7.667355e-002 1.560659e-001 -2.454113e-003 -1.187751e-001 1.129482e-001 7.228599e-002 -2.822428e-002 -1.279169e-001 -7.733511e-002
<VARIANCE> 39
 2.101901e+001 2.952267e+001 5.108432e+001 3.276212e+001 4.295613e+001 4.678940e+001 3.314231e+001 3.629847e+001 5.692849e+001 2.265399e+001 1.942765e+001 2.875402e+001 1.908224e+001 1.113943e+000 1.246568e+000 2.171577e+000 1.803638e+000 2.599103e+000 2.116044e+000 1.696766e+000 2.414802e+000 2.682544e+000 1.689197e+000 1.594128e+000 2.140097e+000 6.860990e-001 1.186712e-001 1.576300e-001 2.013459e-001 2.274375e-001 3.238179e-001 2.861655e-001 3.063576e-001 4.033633e-001 3.908725e-001 3.236873e-001 2.699780e-001 3.247316e-001 6.885440e-002
<GCONST> 1.051259e+002
<STATE> 3
<MEAN> 39
 1.110375e+000 -8.483449e-001 1.462916e+001 -8.553903e+000 -6.207647e+000 -1.332334e+001 -2.350469e+000 -4.818508e+000 -8.653883e+000 -1.812288e+000 -2.696844e+000 3.018677e+000 6.148706e+001 -1.708456e-001 3.728799e-001 -4.491931e-001 3.425882e-001 3.487662e-001 7.298859e-001 1.645793e-001 -2.782802e-001 4.012284e-001 -2.499474e-002 1.404485e-002 -2.956978e-001 -4.158435e-001 1.587039e-003 -8.160234e-003 -1.978689e-001 8.749682e-002 6.017201e-002 1.422630e-001 3.173020e-003 3.359086e-002 1.461666e-001 3.121622e-002 -2.119092e-002 -8.828031e-002 -3.143113e-002
<VARIANCE> 39
 1.684108e+001 2.612441e+001 5.360398e+001 3.552748e+001 3.193863e+001 5.348244e+001 2.210350e+001 3.427664e+001 5.272033e+001 2.303898e+001 1.733190e+001 2.593893e+001 2.582175e+001 1.214213e+000 1.222678e+000 2.237115e+000 2.307548e+000 1.788044e+000 2.509226e+000 1.439134e+000 2.304060e+000 2.803549e+000 1.571051e+000 1.224882e+000 1.861145e+000 7.672513e-001 1.728534e-001 1.614207e-001 2.424910e-001 3.300307e-001 2.503985e-001 3.948152e-001 2.716297e-001 3.560029e-001 3.711430e-001 2.732098e-001 2.258891e-001 3.077327e-001 1.005779e-001
<GCONST> 1.046226e+002
<STATE> 4
<MEAN> 39
 9.948871e-002 2.617886e+000 1.328637e+001 -5.687009e+000 -4.433854e+000 -6.225121e+000 -1.471414e+000 -6.600933e+000 -5.714622e+000 -2.529049e+000 -2.693428e+000 1.608093e+000 5.691048e+001 -1.036689e-001 4.658610e-002 -6.484372e-001 4.447209e-001 4.161840e-001 8.698118e-001 2.238174e-001 4.083531e-002 5.111212e-001 1.864383e-001 -9.475683e-002 -3.233187e-001 -4.613660e-001 -9.946446e-003 -4.954147e-002 -5.311139e-002 -2.262286e-002 -3.475295e-003 2.461064e-002 1.530208e-002 3.657931e-002 8.399292e-003 3.220759e-002 -1.005957e-003 1.865212e-002 3.529465e-003
<VARIANCE> 39
 1.414471e+001 2.418398e+001 5.051648e+001 3.528274e+001 2.951862e+001 6.377121e+001 2.457228e+001 2.747913e+001 3.404195e+001 2.451041e+001 1.684449e+001 2.071777e+001 3.586284e+001 8.282777e-001 1.009308e+000 1.425883e+000 1.557609e+000 1.362184e+000 2.012201e+000 1.153836e+000 1.680204e+000 1.690044e+000 1.463882e+000 1.185577e+000 1.282871e+000 5.540566e-001 1.143508e-001 1.286215e-001 1.843394e-001 2.420869e-001 2.358740e-001 3.432118e-001 2.122191e-001 2.696544e-001 2.814882e-001 2.537073e-001 2.247009e-001 2.368588e-001 7.777911e-002
<GCONST> 9.740871e+001
<TRANSP> 5
 0.000000e+000 1.000000e+000 0.000000e+000 0.000000e+000 0.000000e+000
 0.000000e+000 8.579760e-001 1.420240e-001 0.000000e+000 0.000000e+000
 0.000000e+000 0.000000e+000 7.602363e-001 2.397637e-001 0.000000e+000
 0.000000e+000 0.000000e+000 0.000000e+000 8.795070e-001 1.204929e-001
 0.000000e+000 0.000000e+000 0.000000e+000 0.000000e+000 0.000000e+000
<ENDHMM>
~h "jh"
<BEGINHMM>
<NUMSTATES> 5
<STATE> 2
<MEAN> 39
 -6.240038e+000 -3.159058e+000 -5.749789e-001 1.002536e+000 4.664663e+000 5.085882e+000 3.384488e+000 2.325355e+000 3.470518e+000 2.781810e+000 -6.527269e-001 5.928043e-001 5.786244e+001 1.634303e-001 -3.256913e-002 -8.831120e-002 -2.128383e-001 4.193860e-002 1.080462e-001 -3.785833e-001 1.233243e-001 2.400263e-002 1.559464e-001 1.811362e-001 -1.509290e-001 8.231654e-001 2.072843e-001 3.979778e-002 2.284008e-002 -2.022825e-001 -1.917587e-002 -1.378755e-001 -1.619069e-001 -9.297899e-002 -1.123865e-001 4.824921e-002 -1.100231e-002 -1.757375e-002 1.648772e-002
<VARIANCE> 39
 2.997910e+001 8.315137e+000 1.490223e+001 5.838008e+001 1.722389e+001 1.168074e+001 1.232873e+001 2.090809e+001 3.885920e+001 1.699747e+001 1.835977e+001 1.785060e+001 6.301703e+001 2.657571e+000 8.331710e-001 1.179698e+000 2.184665e+000 1.820176e+000 1.393920e+000 1.708095e+000 1.390481e+000 2.614056e+000 2.210940e+000 1.778980e+000 1.756866e+000 1.782921e+000 3.909958e-001 1.423090e-001 2.034362e-001 4.690617e-001 3.758692e-001 1.829198e-001 3.574976e-001 2.799651e-001 5.821302e-001 5.007755e-001 2.942494e-001 2.392461e-001 2.720125e-001
<GCONST> 1.028537e+002
<STATE> 3
<MEAN> 39
 5.592056e+000 1.339762e-001 -3.621839e+000 -1.780426e+001 2.329139e+000 4.144806e+000 -3.492417e+000 -1.175787e+000 -3.442385e+000 5.324844e+000 2.843899e-001 -5.871478e+000 6.636395e+001 1.177006e+000 2.879405e-001 -1.081278e-001 -1.591621e+000 -2.597756e-001 -1.234771e-001 -5.181555e-001 -2.969750e-001 -8.740171e-001 1.231564e-001 1.014237e-002 -6.029673e-001 7.599714e-002 -1.792001e-001 1.688443e-004 6.441320e-002 2.338221e-001 -1.477871e-002 -7.000042e-002 1.036706e-001 5.226786e-002 -6.657560e-002 -1.100466e-001 -1.001813e-001 3.906210e-002 -7.723725e-002
<VARIANCE> 39
 3.786289e+001 9.118052e+000 9.875137e+000 1.105504e+002 1.162819e+001 7.791455e+000 1.634772e+001 2.051827e+001 3.896734e+001 2.839334e+001 3.338354e+001 4.050443e+001 6.068377e+000 3.813114e+000 5.965460e-001 9.545549e-001 7.872246e+000 9.011864e-001 8.423023e-001 2.215808e+000 1.438631e+000 2.413336e+000 2.485626e+000 1.388960e+000 1.540666e+000 6.097502e-001 5.505825e-001 9.929004e-002 1.440932e-001 1.051203e+000 1.653014e-001 1.369712e-001 3.568328e-001 2.570463e-001 4.307472e-001 3.820150e-001 1.867145e-001 2.093016e-001 7.385402e-002
<GCONST> 9.801701e+001
<STATE> 4
<MEAN> 39
 1.538295e+000 -2.583084e-001 4.724475e+000 -7.604762e+000 -2.752190e+000 -2.237435e+000 -1.919549e+000 -6.776417e+000 -5.355515e+000 4.848417e+000 -6.157795e+000 -1.384734e+000 6.073538e+001 1.146913e-002 -2.491818e-002 3.877738e-001 2.959825e-001 -1.610986e-001 -3.190960e-001 -7.434550e-002 -1.333449e-001 -1.823359e-001 -4.867666e-002 1.520585e-001 1.558964e-001 -5.259537e-002 5.422292e-003 -9.856838e-003 -1.334144e-002 -3.716548e-002 2.943427e-002 -1.455775e-005 -5.354141e-003 2.264675e-002 2.990745e-003 -7.689041e-003 9.160200e-003 1.733296e-003 -3.260974e-004
<VARIANCE> 39
 8.031515e+001 1.438935e+001 3.870811e+001 7.999245e+001 3.203881e+001 5.504543e+001 4.613079e+001 4.386053e+001 7.110670e+001 2.644602e+001 9.282127e+001 3.683405e+001 3.321181e+001 5.472611e+000 1.228621e+000 1.833606e+000 4.819804e+000 2.279410e+000 4.810309e+000 3.955063e+000 3.466023e+000 4.233578e+000 2.693669e+000 4.524063e+000 2.251732e+000 2.544503e+000 7.438794e-001 2.403583e-001 2.866296e-001 7.501992e-001 4.076324e-001 6.853674e-001 7.769146e-001 5.600485e-001 5.122258e-001 4.954807e-001 6.930457e-001 4.261398e-001 4.030231e-001
<GCONST> 1.269554e+002
<TRANSP> 5
 0.000000e+000 1.000000e+000 0.000000e+000 0.000000e+000 0.000000e+000
 0.000000e+000 8.190468e-001 1.809531e-001 0.000000e+000 0.000000e+000
 0.000000e+000 0.000000e+000 8.531106e-001 1.468894e-001 0.000000e+000
 0.000000e+000 0.000000e+000 0.000000e+000 9.718687e-001 2.813132e-002
 0.000000e+000 0.000000e+000 0.000000e+000 0.000000e+000 0.000000e+000
<ENDHMM>
~h "ng"
<BEGINHMM>
<NUMSTATES> 5
<STATE> 2
<MEAN> 39
 5.738503e+000 -3.954522e+000 -9.012547e+000 -1.259248e+001 8.202714e+000 1.554941e+000 2.112406e+000 -1.090644e+001 -6.159832e+000 -1.659426e+000 -5.255932e+000 -7.849804e+000 6.492607e+001 3.578266e-002 5.084936e-001 2.797023e-002 2.523387e-001 -7.238400e-002 4.959477e-001 4.174649e-001 -2.704095e-001 -5.311407e-001 2.667411e-001 3.785178e-001 7.542360e-002 -5.176408e-001 -3.961760e-002 -5.353769e-003 1.288550e-001 -2.160374e-002 -1.173459e-001 -9.581276e-002 6.341727e-003 1.493125e-001 5.396704e-002 1.426214e-002 -1.221484e-001 6.504367e-002 2.100180e-003
<VARIANCE> 39
 4.927760e+000 1.853396e+001 3.668560e+001 2.362176e+001 1.590482e+001 2.200165e+001 2.251606e+001 1.185814e+001 2.990344e+001 2.164584e+001 4.389391e+001 1.906568e+001 1.727958e+001 2.911079e-001 3.216073e-001 1.357506e+000 4.726163e-001 1.015310e+000 9.379289e-001 1.230144e+000 1.488286e+000 1.426746e+000 9.842237e-001 2.528348e+000 1.434251e+000 1.872988e-001 3.500035e-002 4.466411e-002 1.064058e-001 8.360270e-002 1.455875e-001 1.050046e-001 1.874990e-001 1.899905e-001 1.845102e-001 1.698589e-001 2.059015e-001 2.198491e-001 2.318971e-002
<GCONST> 7.912872e+001
<STATE> 3
<MEAN> 39
 4.829550e+000 1.093303e+000 -8.725762e-001 -8.939003e+000 3.151671e+000 2.181569e+000 4.504711e+000 -1.026518e+001 -6.813244e+000 7.916632e-001 -1.138746e+001 -4.512369e+000 5.941221e+001 -2.060480e-001 2.888097e-001 8.750960e-001 6.105225e-001 -1.566021e-001 -4.227149e-004 -4.861131e-002 3.174987e-001 4.207630e-001 -1.493736e-002 -5.303200e-001 2.672064e-001 -4.917592e-001 -1.684255e-002 -4.084697e-002 -2.763080e-002 4.447651e-002 3.469124e-002 1.044753e-002 -5.797802e-003 2.285664e-002 4.587411e-002 -6.016356e-003 8.122188e-002 -3.120833e-003 -1.486508e-002
<VARIANCE> 39
 5.053810e+000 9.733556e+000 5.426585e+001 2.743880e+001 1.472533e+001 1.764377e+001 1.847153e+001 1.234204e+001 2.078415e+001 1.403818e+001 4.321954e+001 2.000926e+001 1.196061e+001 2.388807e-001 3.088759e-001 9.292844e-001 9.798800e-001 1.014775e+000 1.164730e+000 1.324651e+000 1.003757e+000 1.004820e+000 8.612949e-001 1.718673e+000 1.216026e+000 2.553342e-001 3.634040e-002 5.216280e-002 1.257995e-001 1.371088e-001 1.456199e-001 1.679326e-001 1.996519e-001 1.926996e-001 1.699380e-001 1.651098e-001 1.568106e-001 2.366513e-001 3.080839e-002
<GCONST> 7.812296e+001
<STATE> 4
<MEAN> 39
 1.853354e+000 2.619653e+000 6.130594e+000 -1.130911e+000 3.560490e+000 2.758379e+000 4.484324e+000 -5.637862e+000 -2.237627e+000 7.145105e-001 -1.286016e+001 -3.172348e+000 5.342191e+001 -2.912126e-001 -1.939407e-001 -7.647655e-003 4.909118e-001 3.167001e-003 1.521646e-001 2.705179e-001 3.893978e-001 4.323742e-001 1.132291e-001 5.205231e-001 3.139001e-001 -5.488341e-001 -1.112826e-002 -5.971377e-002 -1.112213e-001 -1.049333e-001 -2.944548e-002 8.677662e-003 3.541351e-002 -2.331295e-002 -1.904291e-003 5.406692e-002 5.011103e-002 2.734319e-002 2.673472e-002
<VARIANCE> 39
 5.845174e+000 4.344940e+000 1.005514e+001 2.645965e+001 1.164082e+001 1.132536e+001 1.659198e+001 1.580602e+001 1.872854e+001 1.525056e+001 1.896502e+001 2.171377e+001 1.003347e+001 2.331926e-001 3.852533e-001 7.286160e-001 1.233104e+000 8.239495e-001 8.906754e-001 1.689620e+000 1.460789e+000 1.494588e+000 1.634368e+000 1.360628e+000 1.449170e+000 1.149469e-001 2.461189e-002 4.840263e-002 9.533243e-002 2.397170e-001 1.503950e-001 1.860807e-001 3.389531e-001 2.866388e-001 2.801561e-001 3.472639e-001 2.365212e-001 2.934473e-001 1.925753e-002
<GCONST> 7.704694e+001
<TRANSP> 5
 0.000000e+000 1.000000e+000 0.000000e+000 0.000000e+000 0.000000e+000
 0.000000e+000 9.065772e-001 9.342276e-002 0.000000e+000 0.000000e+000
 0.000000e+000 0.000000e+000 9.197930e-001 8.020703e-002 0.000000e+000
 0.000000e+000 0.000000e+000 0.000000e+000 8.386709e-001 1.613291e-001
 0.000000e+000 0.000000e+000 0.000000e+000 0.000000e+000 0.000000e+000
<ENDHMM>
~h "ow"
<BEGINHMM>
<NUMSTATES> 5
<STATE> 2
<MEAN> 39
 -2.002544e-001 -2.457853e-001 -3.690310e-001 -4.225533e+000 -4.538314e-002 3.865534e+000 3.827652e+000 -3.215024e+000 1.119767e+000 1.946432e-001 -1.750983e+000 -1.052731e+000 5.067117e+001 -1.303925e-001 -2.523070e-002 5.276673e-002 1.418738e-001 9.855000e-002 -8.422295e-003 2.896984e-002 6.804496e-002 7.377021e-003 1.656721e-002 -1.420983e-002 1.066961e-001 -1.259413e-001 1.403843e-002 -5.418075e-004 7.434761e-003 2.257850e-002 -4.026928e-003 -1.926014e-002 3.502997e-003 -1.578997e-002 -1.354681e-002 1.281137e-002 -1.421727e-002 -1.265255e-002 1.503299e-003
<VARIANCE> 39
 3.272285e+001 1.980366e+001 2.027481e+001 9.984501e+001 3.807679e+001 2.402817e+001 1.994029e+001 2.779987e+001 2.371964e+001 3.256047e+001 2.950920e+001 2.603584e+001 4.272705e+001 3.698996e-001 5.615760e-001 6.443602e-001 1.379677e+000 1.085177e+000 1.217443e+000 1.309844e+000 1.747070e+000 1.541534e+000 1.603799e+000 1.401573e+000 1.220918e+000 2.995896e-001 5.348489e-002 7.796583e-002 1.069074e-001 1.945241e-001 1.824390e-001 2.136074e-001 2.594875e-001 3.185813e-001 2.955088e-001 2.861981e-001 2.692974e-001 2.273637e-001 3.274239e-002
<GCONST> 9.183027e+001
<STATE> 3
<MEAN> 39
 3.451594e-001 -9.466205e-002 -1.231375e+000 -5.912338e+000 -7.876108e-001 3.809043e+000 3.085536e+000 -2.984255e+000 6.232035e-001 -3.167040e-001 -9.777817e-001 -1.421712e+000 5.381163e+001 -8.321150e-002 1.163661e-001 1.041638e-001 8.814517e-002 9.953347e-002 -5.500787e-002 4.575029e-002 7.669572e-002 -1.061203e-001 4.379074e-002 -9.123852e-002 3.769843e-002 -8.276688e-002 4.540674e-002 -9.478751e-003 1.007012e-002 2.502460e-002 9.795422e-003 -6.165583e-002 8.106878e-003 -2.099638e-002 -1.105154e-002 3.496570e-002 -3.363695e-002 -4.811666e-002 1.437322e-002
<VARIANCE> 39
 5.157367e+001 2.128747e+001 2.325507e+001 1.170576e+002 4.347793e+001 3.033008e+001 2.308680e+001 3.268177e+001 2.791456e+001 3.759250e+001 3.387282e+001 2.857537e+001 6.085315e+001 6.092778e-001 6.329080e-001 7.501255e-001 1.498247e+000 1.349075e+000 1.349259e+000 1.525862e+000 1.862950e+000 1.456198e+000 1.599752e+000 1.510421e+000 1.284283e+000 4.839829e-001 1.154137e-001 9.972285e-002 1.186626e-001 2.400727e-001 2.087313e-001 2.186216e-001 3.087148e-001 3.394282e-001 2.860176e-001 2.768253e-001 2.829430e-001 2.165189e-001 6.515224e-002
<GCONST> 9.850218e+001
<STATE> 4
<MEAN> 39
 2.052415e+000 1.500456e+000 -1.593345e+000 -8.548131e+000 -9.047503e-001 3.668397e+000 2.138165e+000 -2.765952e+000 -6.713295e-001 -3.865359e-001 -9.179202e-001 -2.503581e+000 5.563890e+001 5.323825e-002 8.750536e-002 7.192718e-002 4.794155e-002 1.320270e-001 -1.309682e-001 -1.177860e-002 4.842277e-002 -1.213029e-001 1.221364e-001 -8.899719e-002 -1.183794e-001 5.305068e-003 1.305664e-002 -3.504929e-003 4.859876e-003 -8.085844e-003 7.982074e-003 -2.942157e-002 -3.304623e-003 5.631394e-005 8.229787e-003 7.520584e-004 -3.120579e-002 -3.392500e-002 2.995318e-002
<VARIANCE> 39
 5.373885e+001 2.206406e+001 2.572739e+001 1.416590e+002 4.111700e+001 2.530480e+001 2.895798e+001 2.880753e+001 3.507627e+001 4.555096e+001 3.566609e+001 2.914441e+001 6.557839e+001 1.684934e+000 8.174804e-001 9.490979e-001 3.586067e+000 1.697752e+000 1.433766e+000 1.972543e+000 1.857891e+000 1.725590e+000 1.906421e+000 1.846491e+000 1.450711e+000 8.424278e-001 2.311912e-001 1.263619e-001 1.435998e-001 4.575796e-001 2.567726e-001 2.414333e-001 3.640634e-001 3.581884e-001 3.167943e-001 3.169310e-001 3.303420e-001 2.298115e-001 9.501556e-002
<GCONST> 1.065704e+002
<TRANSP> 5
 0.000000e+000 1.000000e+000 0.000000e+000 0.000000e+000 0.000000e+000
 0.000000e+000 8.934089e-001 1.065911e-001 0.000000e+000 0.000000e+000
 0.000000e+000 0.000000e+000 6.747971e-001 3.252029e-001 0.000000e+000
 0.000000e+000 0.000000e+000 0.000000e+000 8.087512e-001 1.912488e-001
 0.000000e+000 0.000000e+000 0.000000e+000 0.000000e+000 0.000000e+000
<ENDHMM>
~h "th"
<BEGINHMM>
<NUMSTATES> 5
<STATE> 2
<MEAN> 39
 -7.908143e+000 1.589431e+000 -2.090039e-001 -1.923980e+000 5.410594e+000 -4.041830e+000 3.409023e+000 1.625805e+000 2.045102e+000 -2.872575e-001 -1.185629e+000 -5.928670e-001 5.911642e+001 -7.896503e-001 2.285275e-001 -1.515855e-001 3.630018e-001 3.555575e-001 -8.002894e-002 -1.413947e-001 5.977621e-001 3.742467e-001 9.967213e-002 3.538138e-001 9.215272e-002 2.463431e-001 7.898326e-002 -6.393495e-002 -6.546976e-003 -4.004293e-002 -8.469789e-002 -1.829588e-002 -2.777320e-002 -8.014343e-002 -3.225908e-002 2.668315e-002 -3.370164e-002 -1.270659e-002 -3.798202e-003
<VARIANCE> 39
 6.864786e+001 2.268044e+001 2.522629e+001 3.514381e+001 4.760014e+001 3.681647e+001 2.942310e+001 3.952253e+001 3.359871e+001 2.445928e+001 2.690638e+001 2.587213e+001 3.579609e+001 4.761413e+000 1.484184e+000 1.980364e+000 3.039312e+000 2.948583e+000 3.213404e+000 2.627262e+000 3.185076e+000 2.391526e+000 2.053874e+000 2.740064e+000 2.526502e+000 1.132598e+000 4.725679e-001 2.118868e-001 2.727228e-001 4.285651e-001 4.242834e-001 5.299898e-001 4.549068e-001 5.075033e-001 3.958118e-001 3.950521e-001 4.557960e-001 4.551325e-001 1.032420e-001
<GCONST> 1.158465e+002
<STATE> 3
<MEAN> 39
 -9.814077e+000 2.014376e+000 -5.974767e-001 -1.257421e+000 6.214527e+000 -4.920083e+000 2.636857e+000 3.171296e+000 3.440588e+000 -3.957309e-002 -6.297618e-001 -5.057098e-001 6.022792e+001 4.411073e-001 -1.514484e-001 1.699211e-001 4.098308e-002 -3.434044e-001 -2.129641e-001 -3.737233e-001 -1.549197e-001 8.438963e-002 1.508029e-001 -8.420313e-002 -1.618136e-001 1.010377e-001 2.050113e-001 -8.367900e-002 2.695234e-002 8.756408e-003 -1.473963e-001 -3.680469e-002 -1.538711e-002 -1.408785e-001 -7.332821e-002 3.092705e-002 -5.087223e-002 -4.284575e-002 -1.144637e-002
<VARIANCE> 39
 7.038884e+001 2.084511e+001 2.419685e+001 2.604399e+001 4.640208e+001 2.747794e+001 3.221232e+001 3.614650e+001 2.561483e+001 2.256971e+001 2.333686e+001 2.355377e+001 2.071817e+001 5.365791e+000 1.538524e+000 1.966517e+000 2.248018e+000 3.355596e+000 2.468493e+000 2.886663e+000 3.820913e+000 2.124920e+000 2.150760e+000 2.191356e+000 2.067623e+000 7.047924e-001 4.748742e-001 2.054310e-001 3.223085e-001 4.105915e-001 4.348495e-001 4.382466e-001 5.303390e-001 6.173437e-001 3.835088e-001 4.224914e-001 3.919330e-001 3.836088e-001 8.336274e-002
<GCONST> 1.127944e+002
<STATE> 4
<MEAN> 39
 -5.586738e+000 7.948836e-001 4.422650e-001 -1.371784e+000 3.489946e+000 -6.142828e+000 5.215361e-001 1.206034e+000 3.380800e+000 5.617868e-001 -1.649191e+000 -1.882251e+000 6.056179e+001 1.483725e+000 -5.911400e-001 3.059919e-001 1.638940e-001 -1.042842e+000 -4.236039e-001 -4.955660e-001 -7.708186e-001 -3.195052e-001 4.089365e-001 -2.144417e-001 -3.903443e-001 9.269713e-002 1.067116e-002 -6.529000e-002 -4.946522e-002 6.089570e-002 -6.261728e-002 -3.916975e-002 7.231101e-002 -3.745328e-003 -8.475587e-002 5.840717e-003 5.278877e-002 1.825054e-002 -3.312650e-003
<VARIANCE> 39
 1.096711e+002 2.539191e+001 2.496059e+001 2.343045e+001 5.495962e+001 2.741980e+001 3.679895e+001 4.839003e+001 2.220293e+001 2.530302e+001 2.302689e+001 2.294424e+001 1.752084e+001 5.055809e+000 1.811265e+000 1.954685e+000 2.431229e+000 3.778175e+000 2.134873e+000 2.939653e+000 4.233407e+000 2.094210e+000 2.409722e+000 2.037278e+000 1.651972e+000 5.804955e-001 6.345783e-001 2.395463e-001 3.575541e-001 4.514337e-001 5.370071e-001 3.941287e-001 5.907520e-001 7.342156e-001 3.669135e-001 4.701299e-001 3.909487e-001 3.120265e-001 8.703999e-002
<GCONST> 1.145195e+002
<TRANSP> 5
 0.000000e+000 1.000000e+000 0.000000e+000 0.000000e+000 0.000000e+000
 0.000000e+000 8.152956e-001 1.847043e-001 0.000000e+000 0.000000e+000
 0.000000e+000 0.000000e+000 8.012742e-001 1.987258e-001 0.000000e+000
 0.000000e+000 0.000000e+000 0.000000e+000 8.502330e-001 1.497670e-001
 0.000000e+000 0.000000e+000 0.000000e+000 0.000000e+000 0.000000e+000
<ENDHMM>
~h "uh"
<BEGINHMM>
<NUMSTATES> 5
<STATE> 2
<MEAN> 39
 7.531229e+000 7.011291e+000 -3.010537e-002 -1.454886e+001 -7.052525e+000 -3.079476e+000 -4.490147e+000 -5.760252e+000 -9.267434e+000 -1.155641e+000 -6.637287e+000 -3.822058e+000 5.812134e+001 2.979885e-002 1.206304e-001 1.523511e-002 -8.368870e-002 -4.010463e-002 -7.056942e-002 8.120965e-002 -1.161332e-001 -2.071700e-001 -1.635162e-002 -1.038527e-002 5.299714e-002 -1.055174e-001 -2.973107e-002 -4.873584e-002 6.788708e-003 5.759433e-002 5.448122e-002 -2.150641e-002 1.748004e-002 7.705103e-003 4.249476e-002 3.320082e-002 3.100281e-002 1.199557e-002 -3.881705e-003
<VARIANCE> 39
 1.196922e+001 1.711270e+001 1.588947e+001 4.844529e+001 2.646174e+001 2.206102e+001 3.817719e+001 2.551660e+001 3.716505e+001 4.031543e+001 5.192014e+001 2.165511e+001 2.244631e+001 4.490513e-001 5.863808e-001 7.139745e-001 1.765705e+000 1.514043e+000 1.166412e+000 2.151036e+000 1.614793e+000 1.917584e+000 2.092585e+000 2.570238e+000 1.331214e+000 6.074614e-001 6.297036e-002 7.715556e-002 1.134472e-001 2.168960e-001 2.285513e-001 1.697092e-001 3.259089e-001 2.630877e-001 2.823963e-001 3.471594e-001 3.702078e-001 2.495794e-001 4.927337e-002
<GCONST> 9.472461e+001
<STATE> 3
<MEAN> 39
 6.423811e+000 5.012511e+000 1.100747e-001 -1.423038e+001 -3.213722e+000 -2.387574e+000 -3.329238e+000 -7.337596e+000 -9.845660e+000 6.115227e-001 -1.934862e+000 -2.119775e+000 5.706000e+001 -3.020055e-001 -3.815180e-001 2.449092e-001 8.307313e-001 6.664840e-001 -9.941909e-003 -1.552600e-001 -1.847760e-001 5.986713e-001 3.861703e-001 4.128273e-001 -3.982354e-002 -1.731747e-001 -8.869350e-002 2.526108e-002 8.517252e-002 1.964185e-001 -6.914628e-002 1.301263e-001 9.775835e-002 1.415019e-001 2.183033e-001 -1.219174e-001 -1.639475e-001 1.726965e-002 -1.718191e-001
<VARIANCE> 39
