~o
<STREAMINFO> 1 39
<VECSIZE> 39<NULLD><MFCC_D_A_0><DIAGC>
~s "silst"
<MEAN> 39
 -1.534842e+01 -1.145861e+01 -5.693386e+00 -8.528491e+00 -4.751730e+00 -1.169130e+01 -6.225437e+00 3.433400e+00 2.440400e+00 -6.891931e+00 -8.676791e-01 -2.121372e+00 5.438304e+01 -1.830368e-01 -2.389673e-01 9.367707e-02 2.017178e-01 8.350991e-02 -2.359365e-02 1.512325e-01 2.798221e-01 1.729264e-01 5.032864e-02 -7.350453e-02 -2.512420e-03 -1.491184e-01 3.504281e-02 8.111776e-02 -9.977546e-03 -4.018259e-02 -3.105304e-02 6.006004e-02 -1.332546e-02 -7.879583e-02 -3.706629e-02 -2.827924e-02 -6.602671e-03 -1.231409e-02 2.429685e-02
<VARIANCE> 39
 3.341376e+01 7.365305e+01 3.982567e+01 4.396825e+01 5.297269e+01 5.359822e+01 6.221817e+01 1.025391e+02 7.748093e+01 4.654485e+01 2.917975e+01 2.400521e+01 3.969649e+01 2.242549e+00 3.082397e+00 2.878980e+00 4.172707e+00 3.670140e+00 3.693749e+00 3.690588e+00 4.941754e+00 4.383909e+00 3.677021e+00 2.687214e+00 2.075583e+00 2.765714e+00 3.928472e-01 4.033399e-01 5.499977e-01 6.906884e-01 7.040861e-01 6.486239e-01 7.363871e-01 7.804856e-01 7.124615e-01 7.200266e-01 5.250212e-01 4.149519e-01 3.439017e-01
<GCONST> 1.301283e+02
~h "d"
<BEGINHMM>
<NUMSTATES> 5
<STATE> 2
<MEAN> 39
 -1.083889e+01 -1.652186e+00 -6.496884e+00 -5.134668e+00 -5.408679e+00 -7.654735e+00 -8.496979e+00 -7.641794e+00 -6.491090e+00 -6.057471e+00 -4.450570e+00 -4.400665e+00 4.924342e+01 -9.149938e-01 -9.563237e-01 -6.210432e-01 -4.025673e-01 -2.950145e-01 -3.024220e-02 1.231446e+00 6.228117e-01 4.715511e-01 3.148110e-01 5.556655e-01 7.426724e-01 7.788380e-01 2.237580e-01 -1.676830e-01 -2.592949e-01 -4.887588e-01 -3.614324e-01 -5.837173e-01 -3.595795e-02 1.737869e-01 2.869022e-01 -1.229369e-01 1.649060e-01 1.472610e-01 1.214160e+00
<VARIANCE> 39
 1.834274e+01 1.437787e+01 1.505441e+01 1.685669e+01 1.638563e+01 4.646931e+01 2.077275e+01 1.917897e+01 2.067673e+01 2.787670e+01 1.627140e+01 1.447669e+01 4.757672e+01 1.487069e+00 2.115191e+00 2.332666e+00 2.095682e+00 2.671834e+00 3.002025e+00 2.696475e+00 2.521439e+00 2.609558e+00 2.313066e+00 1.824462e+00 2.468589e+00 5.394652e+00 1.503159e-01 1.846331e-01 2.521951e-01 5.587227e-01 4.413133e-01 5.514284e-01 7.750327e-01 5.819907e-01 4.164466e-01 4.879753e-01 4.590615e-01 3.975897e-01 6.269658e-01
<GCONST> 1.112973e+02
<STATE> 3
<MEAN> 39
 -1.361811e+01 -4.006698e+00 -7.399247e+00 -5.884562e+00 -5.682758e+00 -7.014398e+00 -5.106328e+00 -4.956390e+00 -4.735503e+00 -3.863672e+00 -2.262979e+00 -2.195421e+00 4.965335e+01 2.480775e-01 -1.295239e+00 -1.215024e+00 -1.444176e+00 -1.563218e+00 -2.393808e+00 1.202296e+00 -5.498654e-02 8.377415e-01 -2.966621e-01 9.896469e-01 4.877935e-01 5.178293e+00 7.039583e-01 -2.420554e-01 -1.127573e-01 -4.363923e-01 -6.334600e-01 -7.762966e-01 -3.163241e-01 1.515565e-02 -4.077642e-02 -7.197110e-01 -2.191759e-01 -2.153161e-02 1.779703e+00
<VARIANCE> 39
 1.166885e+01 7.978605e+00 1.071705e+01 1.459105e+01 1.426114e+01 5.323847e+01 2.085939e+01 1.409474e+01 1.602841e+01 2.202882e+01 1.235212e+01 1.142402e+01 8.743954e+01 1.539997e+00 1.538811e+00 1.873619e+00 1.934583e+00 2.915205e+00 3.913590e+00 2.549840e+00 4.999450e+00 2.733192e+00 2.616388e+00 1.888557e+00 3.140237e+00 9.417292e+00 2.065977e-01 3.733598e-01 2.946952e-01 3.490322e-01 5.587965e-01 6.074006e-01 9.273388e-01 5.484130e-01 4.524373e-01 5.964451e-01 4.445430e-01 3.586088e-01 1.290327e+00
<GCONST> 1.125020e+02
<STATE> 4
<MEAN> 39
 -8.956709e+00 -6.712535e+00 -1.058474e+01 -1.159438e+01 -1.321900e+01 -1.864338e+01 -6.897038e+00 -4.272928e+00 -1.593562e+00 -9.485930e+00 -2.456290e+00 -1.446316e+00 7.182446e+01 1.649869e+00 -1.081709e+00 -3.738144e-01 -1.166774e+00 -1.422870e+00 -1.235639e+00 -7.571346e-01 9.233896e-01 3.501780e-01 -1.898341e+00 -4.538585e-01 2.122396e-01 3.938920e+00 1.520635e-01 1.563500e-01 3.874302e-01 3.183692e-01 7.839412e-01 9.104472e-01 -4.639548e-01 -1.409329e-01 -3.262946e-01 -1.993552e-01 -3.557408e-01 -2.263534e-01 -1.341090e+00
<VARIANCE> 39
 2.201598e+01 1.915810e+01 1.509908e+01 1.675866e+01 3.265040e+01 3.029062e+01 6.065106e+01 5.079638e+01 2.269010e+01 3.725776e+01 3.796842e+01 2.711779e+01 2.319863e+01 1.931434e+00 2.434210e+00 2.353891e+00 2.825404e+00 4.916008e+00 6.676315e+00 3.013373e+00 4.035625e+00 3.539072e+00 5.344700e+00 2.555003e+00 3.180565e+00 1.852145e+01 5.054013e-01 3.827243e-01 3.234242e-01 4.896381e-01 8.315735e-01 8.699604e-01 8.878103e-01 9.518480e-01 4.874729e-01 1.094150e+00 5.912122e-01 7.902594e-01 6.622128e-01
<GCONST> 1.266121e+02
<TRANSP> 5
 0.000000e+00 1.000000e+00 0.000000e+00 0.000000e+00 0.000000e+00
 0.000000e+00 4.108614e-01 5.891386e-01 0.000000e+00 0.000000e+00
 0.000000e+00 0.000000e+00 4.764319e-01 5.235682e-01 0.000000e+00
 0.000000e+00 0.000000e+00 0.000000e+00 6.533414e-01 3.466586e-01
 0.000000e+00 0.000000e+00 0.000000e+00 0.000000e+00 0.000000e+00
<ENDHMM>
~h "f"
<BEGINHMM>
<NUMSTATES> 5
<STATE> 2
<MEAN> 39
 -1.581601e+01 -1.667310e+01 -5.752314e+00 -9.371075e+00 -1.006179e+00 -1.357968e+01 -9.018310e+00 8.260631e+00 1.147205e+01 -1.076443e+01 -2.354222e+00 -3.607816e+00 5.699264e+01 -7.831620e-02 4.084358e-01 -1.715514e-01 4.739695e-01 -1.380445e-01 1.343002e-01 9.809810e-02 -2.438334e-01 -2.824338e-01 3.315076e-01 -1.167976e-01 6.321282e-02 -4.260826e-01 3.592501e-02 1.348950e-01 -1.753385e-02 1.849481e-02 -4.157016e-02 8.434661e-02 7.290438e-03 -1.490616e-01 -1.885694e-01 3.732707e-02 2.724640e-02 3.014447e-02 -9.324384e-02
<VARIANCE> 39
 7.076969e+00 3.430923e+01 1.744687e+01 3.534487e+01 2.575796e+01 2.361487e+01 3.486158e+01 5.783882e+01 6.167417e+01 2.664981e+01 1.974543e+01 2.026944e+01 2.520523e+01 1.243456e+00 1.097785e+00 1.026761e+00 2.202152e+00 1.627954e+00 1.734788e+00 2.561188e+00 3.549107e+00 3.192251e+00 2.124648e+00 1.775387e+00 1.607598e+00 9.784576e-01 7.968180e-02 1.072670e-01 1.874890e-01 3.937970e-01 2.750313e-01 3.411714e-01 4.326258e-01 4.935588e-01 4.249973e-01 3.888510e-01 3.558143e-01 3.040174e-01 5.200937e-02
<GCONST> 1.032920e+02
<STATE> 3
<MEAN> 39
 -2.057895e+01 -3.575432e+00 -8.699698e+00 -1.851241e+00 -7.433907e+00 -7.557535e+00 -5.980549e+00 -3.354974e+00 -1.801831e+00 -4.849285e+00 -2.339108e+00 -3.735675e+00 5.386127e+01 -6.700534e-01 7.011501e-02 -1.365611e-01 -4.712104e-02 -1.310792e-01 1.724660e-01 4.066418e-01 -1.799034e-02 3.697946e-02 2.185038e-01 2.707325e-01 2.735627e-02 4.478594e-01 3.148954e-01 -1.662265e-01 -2.224196e-02 -2.218622e-01 -4.379840e-03 -1.946546e-01 -1.961661e-01 -4.406876e-02 7.320479e-02 -9.661366e-02 -5.787726e-03 -3.634760e-02 3.639345e-01
<VARIANCE> 39
 2.899498e+01 2.224312e+01 1.290570e+01 1.471334e+01 1.988647e+01 2.326326e+01 1.917958e+01 2.467849e+01 2.193374e+01 1.618221e+01 1.549338e+01 1.534109e+01 4.100379e+01 1.862664e+00 2.319939e+00 1.455637e+00 1.798793e+00 2.278790e+00 3.024551e+00 2.171016e+00 2.559720e+00 2.835058e+00 1.855291e+00 1.656781e+00 1.666656e+00 3.972962e+00 5.766532e-01 4.342411e-01 2.868722e-01 4.520141e-01 4.685560e-01 5.776021e-01 4.977198e-01 5.645578e-01 5.866911e-01 4.015101e-01 3.545383e-01 3.570929e-01 7.992193e-01
<GCONST> 1.111325e+02
<STATE> 4
<MEAN> 39
 -1.964897e+01 -6.782177e+00 -1.018862e+01 -5.403561e+00 -8.636811e+00 -1.090108e+01 -6.994564e+00 -4.661204e+00 -2.938867e-01 -3.333357e+00 -6.986493e-01 -3.827238e+00 6.426183e+01 4.702399e+00 -3.183524e-01 -4.543365e-01 -3.062541e+00 -4.935395e-02 -9.171404e-01 -2.719674e+00 -2.450224e+00 -2.776986e-01 -1.460323e+00 -3.105164e-01 -8.583531e-01 3.548126e+00 1.182850e+00 6.101930e-01 -1.566207e-01 -1.023391e+00 3.426115e-01 4.325372e-01 -6.933151e-01 -7.782131e-01 -1.292401e-01 -8.956395e-01 -1.456514e-01 -3.239510e-01 4.670130e-02
<VARIANCE> 39
 4.158784e+01 2.410668e+01 2.101642e+01 2.815116e+01 3.592074e+01 3.016731e+01 2.584738e+01 2.356339e+01 1.921076e+01 1.887151e+01 1.565495e+01 1.208035e+01 2.836783e+01 5.647349e+00 4.324913e+00 1.687738e+00 5.686846e+00 3.414041e+00 3.642459e+00 3.936030e+00 4.828885e+00 2.971114e+00 4.324384e+00 2.661431e+00 2.057728e+00 3.059114e+00 1.009506e+00 7.802387e-01 4.649571e-01 9.869336e-01 7.717739e-01 6.883806e-01 7.070523e-01 6.445512e-01 6.739816e-01 6.192422e-01 6.528339e-01 4.161403e-01 6.896682e-01
<GCONST> 1.241609e+02
<TRANSP> 5
 0.000000e+00 1.000000e+00 0.000000e+00 0.000000e+00 0.000000e+00
 0.000000e+00 8.650224e-01 1.349777e-01 0.000000e+00 0.000000e+00
 0.000000e+00 0.000000e+00 9.001070e-01 9.989300e-02 0.000000e+00
 0.000000e+00 0.000000e+00 0.000000e+00 6.235308e-01 3.764692e-01
 0.000000e+00 0.000000e+00 0.000000e+00 0.000000e+00 0.000000e+00
<ENDHMM>
~h "k"
<BEGINHMM>
<NUMSTATES> 5
<STATE> 2
<MEAN> 39
 -1.652001e+01 -1.592031e+01 -5.778696e+00 -8.025050e+00 -3.020948e+00 -1.614381e+01 -7.799430e+00 1.032467e+01 1.132757e+01 -1.112388e+01 -1.993340e+00 -3.222239e+00 5.663837e+01 -9.604200e-02 3.580792e-01 -2.172672e-01 3.191815e-01 1.595953e-01 2.331544e-01 -5.278049e-02 -2.047040e-01 -2.013213e-01 1.731346e-01 -1.728230e-01 1.356406e-01 -2.783921e-01 2.316152e-02 9.816219e-02 1.472070e-03 -1.160741e-02 1.168092e-03 1.276378e-01 4.691273e-02 -2.321616e-01 -1.183407e-01 1.035049e-01 -1.122789e-02 -2.669412e-03 -1.164674e-01
<VARIANCE> 39
 8.814098e+00 2.386251e+01 1.069215e+01 3.855991e+01 4.000682e+01 2.224299e+01 3.412556e+01 4.694176e+01 5.406367e+01 2.229350e+01 2.625041e+01 2.190958e+01 3.583016e+01 7.772538e-01 1.056489e+00 1.012734e+00 1.631916e+00 1.700753e+00 2.447905e+00 2.198853e+00 3.462428e+00 2.616021e+00 2.043569e+00 2.154217e+00 1.762483e+00 8.507485e-01 7.742795e-02 1.016555e-01 1.852424e-01 2.781171e-01 3.260859e-01 3.811966e-01 3.902137e-01 5.661969e-01 4.295645e-01 3.472866e-01 4.081104e-01 3.120253e-01 1.109209e-01
<GCONST> 1.032882e+02
<STATE> 3
<MEAN> 39
 -2.174610e+01 -3.164749e+00 -7.648926e+00 -4.965137e-01 -8.014637e+00 -6.535025e+00 -4.471892e+00 -1.415071e+00 -2.645654e+00 -5.637498e+00 -1.118489e+00 -1.052201e+00 5.399071e+01 -1.652545e-01 3.613963e-01 -1.478350e-01 -1.434152e-01 4.176127e-01 7.972542e-01 1.169270e-01 -5.129640e-01 -2.469089e-01 2.838605e-01 4.300243e-02 -5.159743e-02 -7.491176e-01 2.187321e-01 -1.478007e-01 -6.695257e-02 -7.603423e-02 -4.415500e-02 -3.696272e-01 3.564016e-02 -2.452570e-02 5.853652e-02 -2.554668e-03 2.239244e-02 4.124327e-03 1.960381e-01
<VARIANCE> 39
 4.565268e+01 1.090252e+01 1.001384e+01 1.836146e+01 2.811482e+01 2.729962e+01 1.649575e+01 2.046570e+01 1.697866e+01 1.998412e+01 2.092472e+01 1.379867e+01 7.265933e+01 1.183323e+00 1.104305e+00 1.165700e+00 1.295279e+00 2.183794e+00 3.459150e+00 1.991792e+00 2.368704e+00 2.096120e+00 1.859063e+00 1.840261e+00 1.473040e+00 1.224702e+00 1.938879e-01 1.826687e-01 3.563473e-01 2.976973e-01 4.776447e-01 6.006489e-01 4.232651e-01 5.095469e-01 3.827286e-01 4.154026e-01 3.999084e-01 3.201424e-01 3.829230e-01
<GCONST> 1.049368e+02
<STATE> 4
<MEAN> 39
 -1.608158e+01 -5.331457e+00 -1.410980e+01 -5.215793e+00 -3.129166e+00 -1.112078e+01 -2.938029e+00 -6.127479e+00 -1.348173e+00 -1.340055e+00 -1.077547e+00 -4.286998e-01 5.730443e+01 1.413749e+00 -6.753499e-01 -1.967806e+00 -1.556538e+00 1.415614e+00 -2.945561e+00 -3.996728e-01 -6.600571e-01 9.851972e-01 1.086814e+00 -2.624766e-01 2.755803e-01 3.420828e+00 -3.618247e-02 1.063597e-01 4.721618e-01 2.186484e-02 -6.320564e-02 1.919407e-01 -3.035228e-01 2.600543e-01 1.319158e-01 -7.660121e-02 -1.542812e-01 -2.727752e-01 8.373753e-02
<VARIANCE> 39
 6.298075e+01 2.631518e+01 8.847016e+01 4.717602e+01 1.030697e+02 8.373786e+01 3.194753e+01 3.376876e+01 3.007869e+01 3.774398e+01 1.816330e+01 1.861110e+01 1.086673e+02 3.113401e+00 2.236690e+00 8.814405e+00 3.544041e+00 8.053382e+00 6.881250e+00 4.924162e+00 3.110533e+00 3.840780e+00 3.063117e+00 1.944505e+00 2.595667e+00 1.274675e+01 8.349378e-01 4.312468e-01 2.214257e+00 8.368649e-01 1.397442e+00 2.347249e+00 8.177105e-01 7.039542e-01 6.381239e-01 6.493129e-01 3.976374e-01 5.846598e-01 2.381497e+00
<GCONST> 1.385337e+02
<TRANSP> 5
 0.000000e+00 1.000000e+00 0.000000e+00 0.000000e+00 0.000000e+00
 0.000000e+00 8.645288e-01 1.354712e-01 0.000000e+00 0.000000e+00
 0.000000e+00 0.000000e+00 8.728903e-01 1.271098e-01 0.000000e+00
 0.000000e+00 0.000000e+00 0.000000e+00 6.706129e-01 3.293871e-01
 0.000000e+00 0.000000e+00 0.000000e+00 0.000000e+00 0.000000e+00
<ENDHMM>
~h "l"
<BEGINHMM>
<NUMSTATES> 5
<STATE> 2
<MEAN> 39
 -3.038115e+00 -5.172118e+00 -1.047096e+01 -2.068188e+01 -2.411118e+00 -1.677706e+01 -1.660461e+01 -9.075044e+00 2.790968e+00 -1.830713e+01 -6.904516e+00 -7.724576e+00 7.366441e+01 4.831493e-01 4.495789e-01 -1.204811e+00 -1.195099e+00 2.258040e+00 1.095570e+00 -1.442597e+00 -1.680143e+00 1.697996e+00 -4.078398e-01 1.389486e+00 -1.818391e+00 -4.486348e-01 -4.044313e-02 1.038290e-01 2.575317e-01 -1.031229e-01 -3.999379e-01 2.795405e-01 3.767922e-01 -1.869732e-01 -3.978141e-01 1.612517e-01 5.874488e-01 -6.540281e-02 -1.051846e-01
<VARIANCE> 39
 4.702785e+00 1.746257e+01 1.546379e+01 2.313737e+01 3.664233e+01 5.112091e+01 3.293908e+01 6.352832e+01 3.466772e+01 2.654318e+01 4.237550e+01 4.433588e+01 8.199368e+00 2.507229e-01 6.860877e-01 1.984979e+00 1.672432e+00 4.003134e+00 2.788860e+00 3.767542e+00 3.043896e+00 2.828151e+00 1.809257e+00 5.242527e+00 3.794322e+00 3.359578e-01 5.200132e-02 9.528542e-02 1.181554e-01 3.752082e-01 3.959550e-01 4.464030e-01 3.884320e-01 7.895963e-01 4.552149e-01 3.317428e-01 5.482092e-01 7.918901e-01 3.640736e-02
<GCONST> 1.040620e+02
<STATE> 3
<MEAN> 39
 -1.089766e+00 -2.752410e+00 -1.471690e+01 -2.934069e+01 3.553604e+00 -7.401198e+00 -1.559447e+01 -1.874690e+01 5.669166e+00 -2.312040e+01 5.558299e+00 -1.204067e+01 7.242782e+01 1.436452e-01 3.291040e-01 -1.995476e-01 -2.487007e-01 -2.847020e-02 1.556739e-01 -4.570994e-01 3.996589e-01 3.752272e-02 1.782925e-01 5.415642e-01 1.748436e-01 -4.407852e-01 -5.754057e-02 -1.999792e-02 6.409318e-02 2.676902e-01 -1.589796e-01 -1.536570e-01 -1.135568e-01 2.408620e-01 -1.501211e-01 2.203225e-01 -2.936158e-01 1.649622e-01 -8.416409e-02
<VARIANCE> 39
 4.089943e+00 1.298492e+01 1.158767e+01 2.833366e+01 2.150068e+01 3.645900e+01 3.643856e+01 4.047887e+01 3.029136e+01 3.225755e+01 3.605124e+01 2.717039e+01 1.356615e+01 2.397244e-01 5.854036e-01 7.519473e-01 1.570278e+00 1.272132e+00 2.010539e+00 1.846616e+00 1.911205e+00 1.746831e+00 2.130735e+00 2.932532e+00 1.574409e+00 4.010639e-01 4.377949e-02 9.422277e-02 1.159433e-01 2.028666e-01 2.333775e-01 2.731319e-01 2.517140e-01 3.300862e-01 3.233160e-01 3.155871e-01 3.776779e-01 3.753556e-01 6.730428e-02
<GCONST> 9.270059e+01
<STATE> 4
<MEAN> 39
 -1.595832e+00 -4.547957e-01 -1.118493e+01 -1.831034e+01 -3.909993e+00 -1.343601e+01 -2.229821e+01 -7.569706e+00 1.339416e+00 -1.375636e+01 -8.865454e-01 -4.898779e+00 6.613741e+01 -7.871320e-01 -4.786816e-01 6.279047e-01 1.946429e+00 -1.133781e+00 -1.895309e-02 1.028575e+00 9.027100e-01 -1.313487e+00 9.475883e-01 -9.852542e-01 8.985902e-01 -9.928710e-01 -2.896732e-01 -1.562708e-01 2.158993e-02 1.236034e-01 -5.703606e-02 2.395408e-01 6.126763e-01 -1.774400e-01 -1.407300e-01 -5.525044e-02 -6.401043e-02 -1.360903e-01 3.706797e-02
<VARIANCE> 39
 1.010143e+01 1.937575e+01 4.244377e+01 6.109240e+01 5.178033e+01 1.097315e+02 5.887199e+01 6.319492e+01 5.198550e+01 4.493257e+01 9.641093e+01 5.786883e+01 4.323741e+01 1.803138e+00 2.024770e+00 2.072546e+00 5.230879e+00 2.861799e+00 5.339337e+00 7.350516e+00 3.348656e+00 4.480276e+00 5.584999e+00 4.880080e+00 3.838281e+00 3.520534e+00 2.833061e-01 2.717561e-01 3.733216e-01 8.186442e-01 5.476856e-01 7.779324e-01 1.074678e+00 6.818549e-01 8.649324e-01 7.384878e-01 9.566514e-01 5.882067e-01 3.450348e-01
<GCONST> 1.318466e+02
<TRANSP> 5
 0.000000e+00 1.000000e+00 0.000000e+00 0.000000e+00 0.000000e+00
 0.000000e+00 6.517178e-01 3.482822e-01 0.000000e+00 0.000000e+00
 0.000000e+00 0.000000e+00 8.714331e-01 1.285668e-01 0.000000e+00
 0.000000e+00 0.000000e+00 0.000000e+00 8.239186e-01 1.760814e-01
 0.000000e+00 0.000000e+00 0.000000e+00 0.000000e+00 0.000000e+00
<ENDHMM>
~h "n"
<BEGINHMM>
<NUMSTATES> 5
<STATE> 2
<MEAN> 39
 -3.073549e+00 6.910174e-01 -2.924602e-01 -1.592222e+01 -1.498008e+01 -1.269676e+01 -1.916821e+01 -8.077142e+00 -1.020413e+01 -7.358954e+00 -6.578869e+00 -4.141708e+00 6.629690e+01 1.837052e-01 1.050268e+00 6.517429e-01 6.534512e-01 -2.989579e-01 4.181577e-01 -3.400678e-01 -1.340646e+00 -2.045148e-01 5.628373e-01 -2.763852e-01 2.910810e-01 -1.508150e+00 -1.465863e-01 -8.362023e-02 -1.005790e-01 2.505469e-01 2.080670e-01 5.839765e-02 2.322823e-01 -6.762139e-02 7.583320e-02 -4.137638e-01 -1.742649e-03 -1.248455e-01 -1.205520e-01
<VARIANCE> 39
 2.016715e+01 2.028752e+01 8.706335e+01 5.711223e+01 8.843823e+01 8.649229e+01 4.507014e+01 9.007122e+01 4.165734e+01 5.308344e+01 6.765936e+01 4.747334e+01 3.832381e+01 1.386062e+00 1.584189e+00 2.260715e+00 3.261011e+00 3.657495e+00 3.270872e+00 3.709675e+00 4.017887e+00 2.379102e+00 4.861919e+00 3.443158e+00 3.441221e+00 1.426260e+00 2.432661e-01 2.214131e-01 3.333596e-01 3.746440e-01 6.062238e-01 6.188877e-01 6.428674e-01 7.017618e-01 4.301462e-01 5.972736e-01 6.465530e-01 5.217137e-01 1.656807e-01
<GCONST> 1.250980e+02
<STATE> 3
<MEAN> 39
 -3.314489e-01 5.292999e+00 -3.744069e-01 -4.802731e+00 -1.243982e+01 -1.688747e+01 -1.925644e+01 -1.141080e+01 -1.014929e+01 -1.325103e+01 -6.568859e+00 -5.021442e+00 5.649092e+01 -8.199797e-01 3.258235e-01 3.519380e-01 6.715364e-01 1.336079e-01 6.362265e-01 8.987088e-01 -8.750913e-01 -1.989703e-01 -2.505999e-01 -3.134639e-01 -4.995277e-01 -1.075420e+00 -4.570681e-01 -3.796863e-01 -2.813908e-01 -1.996800e-01 2.456446e-01 1.692429e-01 3.184403e-01 5.374972e-01 1.714435e-01 2.142340e-01 9.498326e-02 1.093123e-01 2.285479e-01
<VARIANCE> 39
 1.186745e+01 1.167668e+01 2.623576e+01 3.428144e+01 2.809777e+01 3.005721e+01 2.104642e+01 4.378965e+01 3.437713e+01 2.983028e+01 3.324433e+01 2.648344e+01 1.694815e+01 2.294554e+00 1.507638e+00 1.932996e+00 2.405588e+00 2.382232e+00 3.124227e+00 2.910776e+00 4.263534e+00 2.366720e+00 3.096263e+00 2.842618e+00 2.930438e+00 1.441677e+00 2.792555e-01 2.376705e-01 2.964402e-01 3.201027e-01 3.755495e-01 4.255791e-01 4.425448e-01 6.230481e-01 4.451494e-01 5.293689e-01 5.137000e-01 5.339432e-01 1.337608e-01
<GCONST> 1.123596e+02
<STATE> 4
<MEAN> 39
 -9.139667e+00 1.068204e+00 -2.728152e+00 -5.024638e+00 -8.808775e+00 -1.056009e+01 -1.143333e+01 -9.552734e+00 -8.849473e+00 -9.670169e+00 -5.912718e+00 -4.801990e+00 5.132231e+01 -1.485852e+00 -8.589036e-01 -7.345364e-01 2.580041e-01 4.208206e-01 5.844555e-01 1.238766e+00 8.903350e-01 6.452197e-01 6.000947e-01 3.823174e-01 8.540397e-02 -4.367502e-01 2.036036e-01 -1.075966e-01 -1.274398e-01 -2.962885e-01 -1.290075e-01 -2.994697e-01 -3.032656e-01 2.442064e-01 1.499568e-01 6.922622e-02 1.820886e-01 1.480291e-01 4.726281e-01
<VARIANCE> 39
 2.241235e+01 1.765860e+01 2.347254e+01 2.794371e+01 2.448742e+01 2.848924e+01 2.156087e+01 2.765206e+01 2.744799e+01 3.121627e+01 2.238445e+01 1.909226e+01 3.032780e+01 2.966377e+00 1.862357e+00 2.201901e+00 2.527375e+00 3.058692e+00 4.323735e+00 3.126477e+00 3.391844e+00 2.554448e+00 3.290030e+00 2.956174e+00 2.087651e+00 2.165511e+00 3.845416e-01 4.280253e-01 4.067160e-01 4.506851e-01 5.119603e-01 5.617925e-01 5.343395e-01 6.316830e-01 5.173870e-01 5.905423e-01 4.843329e-01 4.239654e-01 2.795534e-01
<GCONST> 1.165192e+02
<TRANSP> 5
 0.000000e+00 1.000000e+00 0.000000e+00 0.000000e+00 0.000000e+00
 0.000000e+00 7.168799e-01 2.831201e-01 0.000000e+00 0.000000e+00
 0.000000e+00 0.000000e+00 7.243449e-01 2.756551e-01 0.000000e+00
 0.000000e+00 0.000000e+00 0.000000e+00 6.853525e-01 3.146476e-01
 0.000000e+00 0.000000e+00 0.000000e+00 0.000000e+00 0.000000e+00
<ENDHMM>
~h "p"
<BEGINHMM>
<NUMSTATES> 5
<STATE> 2
<MEAN> 39
 -1.889408e+00 -1.487978e+00 -4.274888e+00 -4.249763e+00 -8.118513e+00 -1.525097e+01 -2.115730e+01 -1.002917e+01 -5.920041e+00 -1.155027e+01 -8.628227e+00 -7.090254e+00 5.800669e+01 -1.789251e+00 8.373936e-01 -7.839131e-01 1.584639e+00 9.532584e-01 3.179930e+00 2.437607e+00 -2.372559e-01 -1.724526e+00 4.507989e-01 1.899596e+00 2.477264e-01 -3.621515e+00 -1.646452e-01 -1.621280e-01 -7.379934e-01 -1.416451e+00 4.553223e-01 8.500795e-01 3.973195e-01 -3.795267e-01 3.070451e-01 7.837430e-01 -7.433406e-02 1.589289e-01 4.278759e-02
<VARIANCE> 39
 1.134533e+01 7.586967e+00 7.470331e+00 1.341840e+01 7.892576e+00 4.898223e+01 2.575826e+01 2.363875e+01 3.982443e+01 9.979860e+00 2.016691e+01 1.051610e+01 2.836923e+01 2.485475e-01 1.144144e+00 1.319452e+00 4.001932e+00 1.816970e+00 3.437660e+00 2.844265e+00 2.084650e+00 1.762934e+00 2.988899e+00 2.140486e+00 9.128557e-01 5.804274e-01 2.017545e-01 2.315172e-01 1.940248e-01 5.357764e-01 4.320461e-01 1.634810e+00 4.092228e-01 3.600683e-01 5.111945e-01 3.749559e-01 4.801762e-01 1.504680e-01 3.212125e-01
<GCONST> 1.005970e+02
<STATE> 3
<MEAN> 39
 -9.453463e+00 -2.766853e+00 -9.157454e+00 -7.120486e+00 -6.621775e+00 -5.760398e+00 -1.033091e+01 -1.024169e+01 -7.447232e+00 -4.236248e+00 -4.090767e+00 -5.405607e+00 4.795100e+01 -1.169605e+00 -8.965662e-01 -3.830220e-01 2.191151e-01 -5.716531e-01 2.274857e-01 1.366659e+00 7.758608e-01 4.041870e-01 6.815686e-01 6.623797e-01 1.994190e-01 2.776293e-01 -1.085134e-01 -1.116430e-01 1.515891e-01 1.515344e-01 -4.014489e-01 -5.244873e-01 -1.968416e-01 1.426175e-01 1.326829e-01 -1.798028e-01 -1.375370e-02 5.120207e-02 1.015545e+00
<VARIANCE> 39
 9.906084e+00 4.097643e+00 7.543464e+00 8.143251e+00 1.084902e+01 1.141633e+01 1.950852e+01 2.086044e+01 1.638609e+01 1.186738e+01 8.600843e+00 8.440202e+00 6.504739e+00 6.980675e-01 1.398853e+00 1.001512e+00 2.048446e+00 2.152438e+00 2.802183e+00 1.318053e+00 1.833987e+00 1.244775e+00 1.486084e+00 1.580693e+00 9.467043e-01 6.275744e+00 1.870294e-01 2.631354e-01 1.193671e-01 3.607731e-01 4.541582e-01 4.162027e-01 3.198378e-01 2.938436e-01 2.319452e-01 2.462328e-01 3.465955e-01 1.596477e-01 7.963691e-01
<GCONST> 9.181145e+01
<STATE> 4
<MEAN> 39
 -1.275747e+01 -4.254365e+00 -6.647084e+00 -5.554242e+00 -1.632224e+01 -1.432146e+01 -1.467413e+01 -9.044161e+00 -2.529635e+00 -5.874462e+00 -5.960268e+00 -4.804070e+00 7.012823e+01 1.765249e+00 8.580053e-01 7.711665e-02 -1.132437e+00 1.296450e-01 -4.165106e-01 -2.343508e+00 -1.131134e+00 4.826526e-01 -1.828142e-01 -1.373915e+00 -2.884421e-01 1.819602e+00 3.875472e-01 2.039905e-01 -2.300689e-01 -4.085847e-01 5.965877e-01 4.685702e-01 -1.440760e-02 -1.262507e-01 -2.295311e-01 1.666372e-01 -1.129191e-01 2.736688e-03 -7.245426e-01
<VARIANCE> 39
 1.001710e+02 4.356705e+01 3.065797e+01 2.478579e+01 2.367785e+01 3.044500e+01 1.011164e+02 3.549639e+01 2.251790e+01 2.073525e+01 4.768743e+01 1.671022e+01 2.406143e+01 1.379344e+01 4.185514e+00 5.305296e+00 2.901759e+00 6.903937e+00 6.437392e+00 5.942611e+00 2.494865e+00 2.386328e+00 3.672509e+00 3.347502e+00 1.869072e+00 1.094418e+01 2.808136e+00 1.295438e+00 1.039530e+00 4.383434e-01 5.691965e-01 7.295215e-01 1.778988e+00 6.030753e-01 6.138046e-01 6.750079e-01 8.846676e-01 4.702150e-01 1.069755e+00
<GCONST> 1.351487e+02
<TRANSP> 5
 0.000000e+00 1.000000e+00 0.000000e+00 0.000000e+00 0.000000e+00
 0.000000e+00 6.165292e-01 3.834708e-01 0.000000e+00 0.000000e+00
 0.000000e+00 0.000000e+00 8.819811e-01 1.180189e-01 0.000000e+00
 0.000000e+00 0.000000e+00 0.000000e+00 8.846199e-01 1.153801e-01
 0.000000e+00 0.000000e+00 0.000000e+00 0.000000e+00 0.000000e+00
<ENDHMM>
~h "r"
<BEGINHMM>
<NUMSTATES> 5
<STATE> 2
<MEAN> 39
 4.724907e-02 -5.206054e+00 1.268083e+00 -1.718534e+00 -1.621685e+01 -2.356094e+01 -1.914095e+01 -9.197989e+00 -3.020292e+00 -9.903866e+00 -1.097923e+01 -5.353608e+00 6.827551e+01 1.961220e+00 -4.631806e-01 -2.252215e+00 1.029102e+00 1.433619e+00 7.241735e-01 -2.095143e+00 -1.872327e+00 1.703420e+00 1.709629e+00 -9.881208e-01 -1.856463e+00 -7.904403e-01 -1.056246e-02 5.091121e-01 -1.164092e-01 -9.288241e-01 -9.843854e-02 6.270387e-01 2.227448e-01 -5.269985e-01 -5.400113e-01 5.144527e-01 5.532517e-01 -1.509849e-01 -2.937175e-02
<VARIANCE> 39
 2.603558e+01 1.226981e+01 1.753063e+01 3.874177e+01 3.195174e+01 2.803401e+01 3.190080e+01 2.711115e+01 2.650303e+01 3.595894e+01 3.099655e+01 3.315569e+01 7.969719e+00 1.786611e+00 1.049528e+00 1.458896e+00 4.473938e+00 2.344553e+00 2.754241e+00 2.829715e+00 2.562640e+00 2.522294e+00 2.886342e+00 3.489153e+00 2.339746e+00 3.011205e-01 3.020795e-01 1.710701e-01 3.276925e-01 4.365119e-01 3.861992e-01 4.371139e-01 7.021712e-01 5.503579e-01 5.052692e-01 5.721328e-01 5.935623e-01 6.126037e-01 6.099074e-02
<GCONST> 1.099441e+02
<STATE> 3
<MEAN> 39
 7.043874e+00 -4.199391e+00 -6.159901e+00 -5.053204e+00 -1.322374e+01 -1.623838e+01 -2.249632e+01 -1.720526e+01 -3.114745e+00 -2.317777e+00 -9.224867e+00 -1.090109e+01 6.524915e+01 8.401767e-01 2.536096e-01 -1.217117e+00 -1.170229e+00 1.919099e-01 1.646792e+00 -5.607770e-02 -1.083404e+00 -3.954813e-01 1.348937e+00 2.027237e-01 -3.860431e-01 -1.688938e-01 -5.608275e-01 -6.381755e-02 4.861609e-01 -2.703550e-01 -2.871353e-01 -2.551382e-01 3.291529e-01 7.060412e-01 -3.774912e-02 -4.582591e-01 -1.212660e-01 6.429381e-01 3.583919e-01
<VARIANCE> 39
 5.254370e+00 9.401628e+00 1.973986e+01 1.806606e+01 1.854167e+01 2.683816e+01 2.110554e+01 2.675208e+01 2.015226e+01 3.036632e+01 2.527513e+01 1.893278e+01 5.501055e+00 1.150747e+00 7.912074e-01 1.511861e+00 1.888405e+00 1.811006e+00 1.905840e+00 1.520187e+00 2.473127e+00 1.947354e+00 2.079382e+00 2.809186e+00 2.220292e+00 4.253831e-01 1.360042e-01 1.376144e-01 1.700085e-01 3.510443e-01 3.383791e-01 4.759193e-01 4.077568e-01 3.342285e-01 6.008857e-01 4.542992e-01 4.029455e-01 2.913438e-01 2.778745e-02
<GCONST> 9.654490e+01
<STATE> 4
<MEAN> 39
 6.124086e+00 -4.540590e+00 -6.826641e+00 -1.133661e+01 -1.338754e+01 -1.332114e+01 -2.194663e+01 -1.563462e+01 -1.564690e+00 -1.405484e+00 -1.087546e+01 -7.559542e+00 6.761720e+01 -1.013111e+00 -2.346378e-01 8.839768e-01 -1.905344e+00 1.057606e-01 -8.953752e-02 5.364121e-01 1.418197e+00 2.020365e-02 -6.385869e-01 -3.603165e-02 1.562654e+00 9.357326e-01 -3.395795e-01 1.181696e-01 3.699973e-01 -1.605164e-01 8.207563e-02 -2.272359e-01 3.759966e-01 1.655917e-02 -3.626522e-01 -1.272884e-01 2.768343e-01 8.389034e-02 5.968244e-02
<VARIANCE> 39
 4.793256e+00 1.051044e+01 4.186530e+01 3.713798e+01 3.548366e+01 4.312657e+01 3.914559e+01 4.427994e+01 2.532730e+01 6.045281e+01 3.483133e+01 2.851899e+01 6.081899e+00 4.557381e-01 9.156486e-01 2.055348e+00 2.904374e+00 4.189837e+00 3.710146e+00 3.495017e+00 2.561008e+00 4.811566e+00 2.591058e+00 2.209363e+00 2.105227e+00 2.154607e-01 1.049492e-01 1.751370e-01 1.849301e-01 3.171436e-01 4.247580e-01 4.924205e-01 6.311997e-01 6.521146e-01 7.737788e-01 8.459493e-01 3.385500e-01 4.665509e-01 5.679227e-02
<GCONST> 1.077279e+02
<TRANSP> 5
 0.000000e+00 1.000000e+00 0.000000e+00 0.000000e+00 0.000000e+00
 0.000000e+00 6.905389e-01 3.094611e-01 0.000000e+00 0.000000e+00
 0.000000e+00 0.000000e+00 7.419330e-01 2.580670e-01 0.000000e+00
 0.000000e+00 0.000000e+00 0.000000e+00 7.182149e-01 2.817852e-01
 0.000000e+00 0.000000e+00 0.000000e+00 0.000000e+00 0.000000e+00
<ENDHMM>
~h "s"
<BEGINHMM>
<NUMSTATES> 5
<STATE> 2
<MEAN> 39
 -1.174274e+01 2.902326e+00 -6.072789e+00 -4.046260e+00 -1.200790e+01 -1.830989e+01 -1.268227e+01 -8.856713e+00 -7.138889e+00 -1.117216e+01 -3.933892e+00 -3.097595e+00 6.257071e+01 -2.785358e+00 7.445049e-01 -4.705373e-01 2.059134e+00 -5.881410e-02 1.050927e+00 1.813737e+00 2.517372e-01 -2.683650e-02 6.734017e-02 3.675933e-01 -3.169805e-01 -1.642068e-01 -4.200212e-01 -2.986236e-01 -2.690631e-01 -2.289732e-01 3.289061e-01 9.316334e-01 3.780347e-01 1.896985e-01 2.360242e-01 4.812263e-01 1.446156e-01 -6.702293e-03 -5.733949e-02
<VARIANCE> 39
 7.520259e+01 3.037618e+01 2.800426e+01 4.958060e+01 6.298766e+01 6.569881e+01 1.167907e+02 4.931532e+01 4.502217e+01 4.427672e+01 4.372625e+01 3.774269e+01 3.483586e+01 7.973936e+00 2.517289e+00 3.259963e+00 3.580937e+00 4.850532e+00 1.070654e+01 1.168351e+01 4.563680e+00 4.534276e+00 5.847377e+00 4.557350e+00 3.241477e+00 2.567009e+00 1.014290e+00 5.182078e-01 4.837961e-01 6.834358e-01 6.869391e-01 1.402445e+00 2.104224e+00 1.080192e+00 8.544736e-01 8.961108e-01 8.466341e-01 7.551393e-01 3.262269e-01
<GCONST> 1.396862e+02
<STATE> 3
<MEAN> 39
 -2.530321e+01 1.265709e+00 -9.352997e+00 8.824261e-01 -9.780309e+00 -5.923002e+00 -5.116802e+00 -4.310955e+00 -5.080853e+00 -5.776977e+00 -1.090674e+00 -3.518927e+00 5.981156e+01 -6.473054e-01 -5.625631e-01 -9.978184e-02 3.409321e-02 4.370345e-01 8.139051e-01 3.045512e-01 6.462990e-01 4.647172e-01 6.719138e-01 2.705836e-01 3.197681e-01 -5.572672e-01 5.077536e-01 -7.159436e-02 1.991092e-01 -3.123657e-01 -1.952661e-01 -5.227998e-01 -1.258586e-01 -7.824533e-02 -9.739342e-02 -1.637143e-01 3.711305e-03 4.537311e-02 1.969220e-01
<VARIANCE> 39
 1.665945e+01 2.285926e+01 1.358402e+01 1.576014e+01 2.050456e+01 2.307034e+01 2.514254e+01 2.254651e+01 2.381379e+01 2.017486e+01 2.133014e+01 1.678067e+01 2.993926e+01 2.121148e+00 1.664097e+00 1.410413e+00 1.527557e+00 2.237051e+00 3.202861e+00 2.457936e+00 2.142373e+00 2.163996e+00 2.246469e+00 1.943254e+00 1.759205e+00 1.670558e+00 4.792550e-01 3.340203e-01 2.748475e-01 3.515158e-01 5.202166e-01 6.070753e-01 6.614962e-01 4.388369e-01 4.522187e-01 4.233435e-01 4.002913e-01 3.702964e-01 4.090346e-01
<GCONST> 1.089077e+02
<STATE> 4
<MEAN> 39
 -2.005181e+01 -1.439082e+00 -7.852161e+00 -3.375217e+00 -1.226108e+01 -1.144332e+01 -5.003464e+00 -1.887227e+00 -3.952944e+00 -5.901895e+00 4.214178e-01 -9.487526e-01 6.212384e+01 3.154377e+00 3.017876e-03 5.413248e-01 -1.699179e+00 -1.476159e+00 -2.740529e+00 -1.170577e+00 2.352479e-01 -2.853429e-01 -1.038396e+00 -6.329160e-02 3.441173e-01 1.793542e+00 6.209895e-01 1.255064e-01 2.702060e-02 -1.358637e-01 -3.927101e-02 -2.017417e-01 -5.183846e-01 1.457874e-02 -2.016401e-01 -3.571807e-01 -2.762442e-01 -7.254131e-02 1.749911e-01
<VARIANCE> 39
 7.482592e+01 1.790345e+01 2.140462e+01 3.414738e+01 5.013356e+01 7.225809e+01 4.710091e+01 2.266879e+01 2.318691e+01 3.305788e+01 2.198477e+01 1.563103e+01 5.214465e+01 6.417295e+00 2.909639e+00 2.012744e+00 2.968161e+00 4.242979e+00 6.131183e+00 6.306302e+00 2.659616e+00 2.915538e+00 3.971757e+00 2.769217e+00 1.980774e+00 3.834437e+00 1.488657e+00 5.606433e-01 4.566639e-01 5.707641e-01 1.109377e+00 1.694675e+00 1.172589e+00 5.420060e-01 5.279649e-01 7.533791e-01 5.143128e-01 3.603758e-01 5.694135e-01
<GCONST> 1.288456e+02
<TRANSP> 5
 0.000000e+00 1.000000e+00 0.000000e+00 0.000000e+00 0.000000e+00
 0.000000e+00 6.474371e-01 3.525629e-01 0.000000e+00 0.000000e+00
 0.000000e+00 0.000000e+00 8.473516e-01 1.526484e-01 0.000000e+00
 0.000000e+00 0.000000e+00 0.000000e+00 6.423677e-01 3.576322e-01
 0.000000e+00 0.000000e+00 0.000000e+00 0.000000e+00 0.000000e+00
<ENDHMM>
~h "t"
<BEGINHMM>
<NUMSTATES> 5
<STATE> 2
<MEAN> 39
 -1.164263e+01 -1.133660e+00 -4.217602e+00 -6.447845e+00 -8.269795e+00 -6.932559e+00 -7.480271e+00 -7.932599e+00 -7.005765e+00 -6.032984e+00 -5.125074e+00 -4.271039e+00 4.825647e+01 -1.009549e+00 -1.285165e+00 -5.176110e-01 -4.021848e-01 1.669556e-01 3.166683e-01 4.563918e-01 7.275077e-01 6.680595e-01 3.977399e-01 7.311562e-01 1.020612e-01 7.753655e-01 -2.265724e-01 -1.461407e-02 9.756250e-02 -3.170069e-01 -1.419978e-01 -3.871376e-01 -1.541069e-01 1.108266e-01 2.512055e-02 6.805929e-03 2.988788e-01 9.101074e-02 1.202031e+00
<VARIANCE> 39
 1.390890e+01 9.816603e+00 1.527682e+01 1.570650e+01 2.490281e+01 1.941616e+01 2.183207e+01 2.302850e+01 1.928287e+01 1.841524e+01 1.770703e+01 1.642683e+01 1.411285e+01 1.665866e+00 1.816805e+00 2.908386e+00 3.408693e+00 2.231111e+00 2.764560e+00 2.702556e+00 2.368779e+00 2.678660e+00 2.052309e+00 2.474369e+00 1.712232e+00 9.054065e+00 1.894841e-01 2.939164e-01 2.704730e-01 4.720739e-01 4.559528e-01 4.836586e-01 4.469311e-01 4.291521e-01 4.516662e-01 3.987998e-01 4.608864e-01 3.609175e-01 8.130991e-01
<GCONST> 1.092725e+02
<STATE> 3
<MEAN> 39
 -2.084394e+01 -6.459189e+00 -5.553434e+00 -1.310623e+01 -8.969431e+00 -1.085215e+01 -6.145121e+00 -3.302493e+00 -4.407968e+00 -4.591722e+00 2.859021e+00 -3.818656e+00 6.988420e+01 -1.291044e+00 1.431379e-01 -5.750997e-01 -5.801955e-02 -5.352200e-01 -1.598805e+00 1.146750e+00 1.136396e+00 -1.603033e-01 4.811665e-02 1.622685e+00 9.239321e-01 3.700223e+00 8.725547e-01 4.405249e-01 2.646447e-01 8.061271e-01 -2.101162e-01 -1.854844e-01 7.686890e-02 -1.012682e-01 -1.464366e-01 -2.881810e-01 -6.318684e-01 2.692713e-01 -1.376384e+00
<VARIANCE> 39
 1.612171e+01 3.332182e+01 3.268190e+01 3.177325e+01 3.764560e+01 3.358905e+01 3.059938e+01 3.353355e+01 2.477273e+01 1.841955e+01 2.092156e+01 1.828542e+01 2.931713e+01 2.990233e+00 2.917598e+00 2.898747e+00 4.950935e+00 3.370897e+00 3.647516e+00 3.959458e+00 3.393038e+00 2.691628e+00 2.419823e+00 3.679255e+00 2.180084e+00 1.007502e+01 4.072375e-01 7.754813e-01 1.019976e+00 7.866369e-01 5.848444e-01 7.359161e-01 9.204118e-01 6.229644e-01 7.353416e-01 5.109000e-01 6.312588e-01 4.365476e-01 1.051570e+00
<GCONST> 1.256465e+02
<STATE> 4
<MEAN> 39
 -1.705816e+01 -5.852149e+00 -5.194770e+00 -6.861348e+00 -1.094828e+01 -1.716249e+01 -3.309290e+00 -2.028100e-01 -3.500307e+00 -6.714175e+00 1.619214e+00 6.558124e-01 6.933960e+01 2.292482e+00 1.393380e-01 8.498625e-01 1.536855e+00 -3.113680e-01 -1.283757e+00 -1.820570e+00 -4.912259e-01 3.187605e-01 -9.817589e-01 -1.931687e+00 1.131983e-01 -1.036534e+00 4.413724e-01 3.357526e-01 8.641962e-02 -1.590848e-01 2.065336e-01 3.970323e-01 -1.020002e+00 -7.253790e-01 -2.124081e-01 5.364031e-02 -6.501188e-01 -5.266731e-01 -4.308757e-01
<VARIANCE> 39
 2.496489e+01 2.444543e+01 1.594510e+01 1.977564e+01 3.554832e+01 2.784760e+01 4.746936e+01 4.087084e+01 3.017343e+01 2.375659e+01 4.119596e+01 1.997851e+01 1.162810e+01 1.808955e+00 2.950215e+00 2.781510e+00 3.135281e+00 3.065528e+00 3.391300e+00 7.589575e+00 7.082395e+00 3.947108e+00 3.336933e+00 5.651716e+00 4.121214e+00 8.475339e-01 5.897934e-01 5.843129e-01 4.907372e-01 4.792388e-01 5.446134e-01 6.458898e-01 1.258432e+00 1.103709e+00 1.068415e+00 6.795374e-01 7.587579e-01 5.596618e-01 5.406527e-01
<GCONST> 1.247604e+02
<TRANSP> 5
 0.000000e+00 1.000000e+00 0.000000e+00 0.000000e+00 0.000000e+00
 0.000000e+00 8.275473e-01 1.724527e-01 0.000000e+00 0.000000e+00
 0.000000e+00 0.000000e+00 7.042195e-01 2.957805e-01 0.000000e+00
 0.000000e+00 0.000000e+00 0.000000e+00 7.237040e-01 2.762960e-01
 0.000000e+00 0.000000e+00 0.000000e+00 0.000000e+00 0.000000e+00
<ENDHMM>
~h "v"
<BEGINHMM>
<NUMSTATES> 5
<STATE> 2
<MEAN> 39
 -4.206120e+00 -4.981665e+00 1.011409e+00 -1.622780e+01 -2.183474e+01 -1.408656e+01 -1.201358e+01 -6.994524e+00 -1.126061e+01 -7.110955e+00 -7.621173e+00 -3.768295e+00 7.241403e+01 5.190336e-01 1.096097e+00 7.758183e-01 1.321798e+00 -2.826676e-02 -7.585198e-01 -7.651336e-01 -6.351848e-01 3.741295e-01 7.473592e-01 -5.396218e-01 1.129893e-01 -1.925879e+00 -1.650412e-01 -3.092417e-02 -2.720266e-01 4.976915e-01 7.542722e-01 2.459589e-01 7.978022e-03 -5.842669e-02 4.037065e-02 -5.026006e-01 2.665528e-02 -1.021149e-01 -3.998158e-01
<VARIANCE> 39
 9.048170e+00 1.263704e+01 2.449244e+01 2.531989e+01 4.757706e+01 5.753510e+01 2.831795e+01 3.683062e+01 2.125037e+01 5.173311e+01 3.117005e+01 3.196605e+01 1.895695e+01 5.098162e-01 7.291028e-01 1.520574e+00 3.505563e+00 5.725909e+00 2.150704e+00 1.980592e+00 1.988148e+00 2.014205e+00 4.688386e+00 1.809632e+00 2.259879e+00 1.281412e+00 2.953242e-01 1.528587e-01 2.327586e-01 3.189083e-01 6.343517e-01 5.543093e-01 5.185125e-01 5.044924e-01 4.339131e-01 6.520877e-01 4.513548e-01 5.121763e-01 1.063079e-01
<GCONST> 1.099734e+02
<STATE> 3
<MEAN> 39
 -3.348030e+00 3.712890e-02 2.592389e-01 -6.258141e+00 -1.253557e+01 -1.672683e+01 -1.529787e+01 -9.038010e+00 -1.004066e+01 -1.146736e+01 -8.981086e+00 -4.394249e+00 6.105814e+01 -1.828896e+00 5.201734e-01 -9.145783e-01 1.973787e+00 1.649304e+00 1.551606e+00 8.165526e-01 -6.584262e-01 1.090024e-01 -7.891452e-01 5.094931e-01 -1.093821e+00 -2.479299e+00 -5.550257e-01 -3.467356e-01 -3.240346e-01 -6.653017e-01 -6.020418e-01 1.620986e-01 6.947479e-01 3.324666e-01 1.778026e-01 2.923026e-01 2.951919e-01 1.399039e-01 5.858296e-01
<VARIANCE> 39
 2.047808e+01 8.111062e+00 1.715276e+01 2.160781e+01 3.254458e+01 4.564345e+01 2.117957e+01 4.628597e+01 2.630569e+01 3.845982e+01 2.524370e+01 3.220702e+01 1.538391e+01 2.777874e+00 1.272456e+00 2.518536e+00 2.418925e+00 4.870808e+00 2.721632e+00 3.572507e+00 3.545270e+00 2.948578e+00 3.925555e+00 2.735389e+00 2.209363e+00 1.800810e+00 4.342188e-01 1.992057e-01 3.316146e-01 3.962580e-01 5.568436e-01 6.538185e-01 3.992958e-01 8.033608e-01 5.349185e-01 6.381378e-01 4.239185e-01 5.296777e-01 3.445438e-01
<GCONST> 1.160203e+02
<STATE> 4
<MEAN> 39
 -1.259299e+01 -1.717834e+00 -5.549412e+00 -5.238162e+00 -1.136616e+01 -1.248356e+01 -7.947593e+00 -6.109951e+00 -6.195536e+00 -9.334027e+00 -5.164817e+00 -4.441489e+00 5.619882e+01 -7.261216e-01 -1.661130e-01 -6.953408e-01 -1.187883e-01 1.416397e-01 -5.999179e-03 6.849763e-01 5.684933e-01 7.153046e-01 5.887433e-01 6.529790e-01 3.780950e-01 -4.289345e-01 2.892808e-01 2.810920e-02 1.899913e-01 -1.808719e-01 -1.254498e-01 -1.231221e-01 -2.241515e-01 -9.119360e-02 -3.641571e-02 1.468827e-01 -4.932563e-02 8.893070e-02 2.298365e-01
<VARIANCE> 39
 5.216833e+01 1.586593e+01 1.607745e+01 1.976754e+01 3.172784e+01 4.538462e+01 3.368024e+01 2.446360e+01 2.521800e+01 2.814800e+01 2.147675e+01 2.226848e+01 4.406939e+01 3.349478e+00 1.581537e+00 2.051228e+00 2.458194e+00 3.328977e+00 3.980258e+00 3.269949e+00 3.454120e+00 2.521239e+00 2.364226e+00 2.697487e+00 2.662780e+00 3.275599e+00 5.659540e-01 3.145976e-01 3.482714e-01 5.796515e-01 6.947218e-01 7.697752e-01 5.719281e-01 5.405204e-01 4.780326e-01 5.627164e-01 5.194447e-01 4.496844e-01 6.053985e-01
<GCONST> 1.195068e+02
<TRANSP> 5
 0.000000e+00 1.000000e+00 0.000000e+00 0.000000e+00 0.000000e+00
 0.000000e+00 7.062314e-01 2.937686e-01 0.000000e+00 0.000000e+00
 0.000000e+00 0.000000e+00 5.686952e-01 4.313047e-01 0.000000e+00
 0.000000e+00 0.000000e+00 0.000000e+00 7.785751e-01 2.214248e-01
 0.000000e+00 0.000000e+00 0.000000e+00 0.000000e+00 0.000000e+00
<ENDHMM>
~h "w"
<BEGINHMM>
<NUMSTATES> 5
<STATE> 2
<MEAN> 39
 -4.883001e+00 2.084683e+00 -9.789207e+00 -1.450922e+01 -1.116886e+01 -6.865261e+00 -9.363499e+00 -7.036237e+00 -7.040100e+00 -6.477664e+00 -1.651920e+00 -1.513129e+00 5.161228e+01 2.267560e+00 1.691597e+00 -1.236532e-01 -1.974795e+00 -1.623075e+00 -2.945661e-01 -6.366720e-01 9.837409e-02 -7.147790e-01 -1.291534e+00 -2.714614e-01 -2.676826e-01 1.235453e+00 5.039223e-01 2.529842e-01 -1.726412e-01 -7.391405e-01 4.812038e-02 1.771790e-01 -4.611865e-01 -5.159959e-02 -4.323072e-02 -4.242166e-01 2.827720e-01 -1.946154e-01 6.373650e-01
<VARIANCE> 39
 5.665924e+01 3.766988e+01 2.436325e+01 7.982985e+01 4.542092e+01 2.606143e+01 2.226159e+01 2.549301e+01 2.434226e+01 2.834632e+01 2.380487e+01 1.612605e+01 2.595282e+01 8.565749e+00 4.087177e+00 2.069009e+00 1.176956e+01 4.201484e+00 2.642071e+00 4.203767e+00 3.240119e+00 2.945139e+00 5.086041e+00 3.164375e+00 2.787905e+00 5.050713e+00 1.199115e+00 7.758549e-01 3.666337e-01 1.585138e+00 1.055121e+00 5.762435e-01 4.804908e-01 5.506231e-01 6.487484e-01 6.821964e-01 6.559640e-01 5.400725e-01 4.499409e-01
<GCONST> 1.292537e+02
<STATE> 3
<MEAN> 39
 7.435976e+00 9.489603e+00 -1.175919e+01 -2.923337e+01 -1.359389e+01 -3.056484e+00 -1.778878e+01 -6.906162e+00 -8.707869e+00 -1.570075e+01 2.162882e+00 -5.355770e+00 6.368402e+01 8.617292e-02 -7.777514e-01 -5.462934e-01 -1.297111e+00 1.841388e+00 1.336175e+00 -1.696428e+00 -7.593791e-01 1.348475e+00 -1.764198e-02 1.045527e+00 -4.062212e-01 1.852882e+00 -8.152288e-01 -7.355137e-01 -3.065464e-02 7.852285e-01 6.997620e-01 -2.109352e-01 1.454799e-01 -2.052242e-01 6.033658e-01 5.562742e-01 -4.777973e-01 2.238310e-02 -1.508263e-01
<VARIANCE> 39
 5.972594e+00 1.245314e+01 1.554871e+01 2.179443e+01 2.704184e+01 3.187884e+01 3.101865e+01 2.788927e+01 4.366031e+01 2.870062e+01 4.603197e+01 3.388780e+01 1.255712e+01 2.009019e+00 2.292347e+00 1.309777e+00 4.691137e+00 2.947480e+00 2.921832e+00 3.291711e+00 3.217243e+00 5.289035e+00 4.938799e+00 4.742469e+00 3.290558e+00 1.536093e+00 4.109261e-01 2.767092e-01 2.442560e-01 7.577969e-01 4.775851e-01 7.748817e-01 7.174311e-01 5.503952e-01 7.912827e-01 8.656999e-01 1.454016e+00 6.911198e-01 2.671038e-01
<GCONST> 1.191678e+02
<STATE> 4
<MEAN> 39
 2.869679e+00 -5.776075e-02 -1.517256e+01 -2.973569e+01 -1.073955e-01 4.550771e-01 -2.372299e+01 -1.374965e+01 2.901083e+00 -1.289467e+01 4.800370e-01 -7.126390e+00 7.253683e+01 -1.948521e+00 -2.749362e+00 -2.254159e-01 2.183841e+00 2.551615e+00 -1.946306e+00 1.215145e-01 -1.275456e-01 1.511517e+00 -7.090279e-01 -4.120143e+00 -1.585588e+00 1.918599e+00 -4.096655e-02 1.576889e-01 5.281289e-01 6.694295e-01 -9.715213e-01 -8.741609e-01 6.766982e-01 1.050897e+00 -7.923600e-01 -7.890459e-01 -6.607385e-01 1.203950e-01 -3.152109e-01
<VARIANCE> 39
 7.378228e+00 1.853332e+01 8.980668e+00 2.406195e+01 2.434797e+01 2.731802e+01 2.394192e+01 3.031222e+01 3.556193e+01 4.700408e+01 4.968274e+01 3.090879e+01 1.183622e+01 3.326662e-01 9.673185e-01 1.655571e+00 1.712407e+00 2.889806e+00 2.662549e+00 3.930978e+00 3.567092e+00 3.554104e+00 4.346250e+00 2.724274e+00 2.736042e+00 3.514775e-01 1.154599e-01 2.163526e-01 1.701191e-01 4.653237e-01 4.657516e-01 5.141246e-01 5.167318e-01 5.304859e-01 4.896455e-01 8.059944e-01 1.208987e+00 8.202093e-01 5.915338e-02
<GCONST> 1.078621e+02
<TRANSP> 5
 0.000000e+00 1.000000e+00 0.000000e+00 0.000000e+00 0.000000e+00
 0.000000e+00 8.305343e-01 1.694658e-01 0.000000e+00 0.000000e+00
 0.000000e+00 0.000000e+00 8.210787e-01 1.789213e-01 0.000000e+00
 0.000000e+00 0.000000e+00 0.000000e+00 6.375481e-01 3.624519e-01
 0.000000e+00 0.000000e+00 0.000000e+00 0.000000e+00 0.000000e+00
<ENDHMM>
~h "y"
<BEGINHMM>
<NUMSTATES> 5
<STATE> 2
<MEAN> 39
 -6.820713e+00 1.009473e+01 8.269224e+00 -2.524219e+01 -2.268275e+01 -1.066216e+01 -1.120224e+01 -1.122878e+01 -9.136673e+00 -2.707523e+00 -1.326766e+01 -8.864771e+00 6.546539e+01 2.437155e-01 7.600524e-02 5.370718e-01 -9.228766e-01 -1.100876e+00 -2.485110e-01 4.075035e-01 -2.248998e-01 -1.479213e-02 -2.256885e-01 7.893285e-01 -7.821056e-01 1.793866e+00 -1.795061e-02 -6.437928e-01 -6.287395e-01 6.047324e-01 4.107990e-01 -6.210270e-02 2.277952e-01 2.437037e-01 1.512828e-01 -2.979434e-01 3.679522e-01 1.767471e-01 -1.046253e-01
<VARIANCE> 39
 9.110365e+00 3.854117e+01 2.648494e+01 3.540368e+01 4.128147e+01 2.393095e+01 3.047874e+01 2.860631e+01 3.267719e+01 2.533537e+01 6.926950e+01 4.188123e+01 2.983917e+01 8.311196e-01 1.005837e+01 5.925809e+00 8.492253e+00 5.736286e+00 3.158184e+00 4.558720e+00 4.981311e+00 4.626939e+00 2.868692e+00 9.372810e+00 2.781337e+00 2.475771e+00 1.502266e-01 6.396040e-01 5.821089e-01 7.468948e-01 1.393674e+00 5.197530e-01 7.392480e-01 8.850560e-01 7.970993e-01 7.315907e-01 1.269612e+00 4.738763e-01 3.385058e-01
<GCONST> 1.288973e+02
<STATE> 3
<MEAN> 39
 -4.745642e+00 -7.371513e+00 -3.467401e+00 -1.947367e+01 -1.415090e+01 -1.511574e+01 -5.627074e+00 -5.415781e+00 -2.952744e+00 -1.668644e+01 -4.452528e+00 -7.444376e+00 7.624981e+01 4.245729e-01 -1.993935e+00 -2.215643e+00 1.484769e-01 3.982771e+00 -2.329610e-01 -5.841194e-01 1.837350e-01 1.611661e+00 -3.475145e+00 -1.026255e+00 2.116680e-01 4.719027e-01 -3.928233e-02 5.755082e-01 3.746673e-01 -4.533211e-01 2.113007e-01 1.888843e-01 -4.764318e-01 -5.929524e-01 3.140356e-01 2.107846e-01 -1.420428e-01 -4.590860e-01 -2.727647e-01
<VARIANCE> 39
 2.575728e+00 1.822545e+01 2.491888e+01 9.114797e+00 7.830400e+01 1.493195e+01 2.242105e+01 1.744708e+01 2.507109e+01 8.672600e+01 2.262416e+01 1.483637e+01 3.309167e+00 1.952729e-01 1.876443e+00 1.309640e+00 2.104890e+00 1.501999e+00 1.039343e+00 2.789246e+00 4.815578e+00 3.099906e+00 3.734081e+00 2.031253e+00 3.124667e+00 3.212568e-01 3.224935e-02 1.003476e-01 1.319721e-01 2.209484e-01 7.451519e-01 1.679071e-01 4.207307e-01 5.656994e-01 4.853781e-01 1.435314e+00 8.662233e-01 3.872801e-01 1.709966e-02
<GCONST> 9.659192e+01
<STATE> 4
<MEAN> 39
 -7.432622e-01 -7.185334e+00 -1.088707e+01 -2.399649e+01 4.994109e+00 -1.150784e+01 -1.655392e+01 -1.196294e+01 9.102955e+00 -2.668253e+01 1.133618e+00 -1.572528e+01 7.314905e+01 5.900517e-01 8.340999e-01 -3.361428e-01 -1.002507e-01 3.492079e-01 7.428520e-01 -1.058281e+00 -3.217053e-01 -6.482860e-02 -1.413732e-01 1.644441e+00 -4.825638e-01 -7.762625e-01 2.757352e-02 1.118344e-01 6.029907e-02 1.610960e-01 -3.868012e-01 2.096080e-02 1.094497e-01 1.203709e-01 -4.405115e-01 1.415799e-01 2.949657e-02 2.165896e-01 -8.756763e-02
<VARIANCE> 39
 8.284236e+00 1.534247e+01 1.073085e+01 1.229049e+01 1.696166e+01 2.211131e+01 4.033750e+01 1.572205e+01 1.769287e+01 1.444607e+01 6.692995e+01 1.489222e+01 1.160302e+01 1.573992e-01 3.645035e-01 3.366533e-01 9.238418e-01 2.175825e+00 1.037822e+00 1.057070e+00 1.224767e+00 3.035376e+00 9.692008e-01 1.327572e+00 1.473473e+00 2.007913e-01 2.267290e-02 5.271795e-02 7.416458e-02 1.180473e-01 2.351795e-01 2.016453e-01 2.108681e-01 1.823831e-01 2.800385e-01 2.605971e-01 3.465319e-01 1.472853e-01 1.283029e-02
<GCONST> 7.815101e+01
<TRANSP> 5
 0.000000e+00 1.000000e+00 0.000000e+00 0.000000e+00 0.000000e+00
 0.000000e+00 9.024295e-01 9.757055e-02 0.000000e+00 0.000000e+00
 0.000000e+00 0.000000e+00 8.408986e-01 1.591015e-01 0.000000e+00
 0.000000e+00 0.000000e+00 0.000000e+00 9.189486e-01 8.105134e-02
 0.000000e+00 0.000000e+00 0.000000e+00 0.000000e+00 0.000000e+00
<ENDHMM>
~h "z"
<BEGINHMM>
<NUMSTATES> 5
<STATE> 2
<MEAN> 39
 -5.069653e+00 4.404349e+00 -6.013831e+00 -4.605426e+00 -1.477760e+01 -1.644156e+01 -1.773129e+01 -4.513626e+00 -3.489930e+00 -9.088926e+00 -2.934850e+00 7.313179e-01 5.704616e+01 6.680285e-01 1.644132e+00 5.190908e-01 1.423083e+00 -1.157636e+00 -9.677077e-01 -3.861667e-01 3.832424e-02 -7.970933e-01 -1.636204e+00 -1.114999e+00 -5.504967e-01 3.662696e-01 -1.908183e-01 1.505871e-01 -9.588018e-03 -8.840206e-02 2.104106e-01 2.967345e-01 2.794999e-01 -4.182170e-01 -2.827193e-01 -1.142936e-01 -1.368164e-01 -4.415165e-01 1.281448e-01
<VARIANCE> 39
 2.855441e+01 2.316863e+01 2.643510e+01 4.378862e+01 7.214626e+01 5.832177e+01 9.439254e+01 4.912493e+01 5.237881e+01 5.760946e+01 4.647068e+01 3.341528e+01 4.434753e+01 3.480701e+00 3.296299e+00 1.505511e+00 2.188940e+00 4.721549e+00 6.013794e+00 7.929129e+00 6.102580e+00 4.382845e+00 4.184507e+00 3.803840e+00 5.124690e+00 4.969596e+00 7.280813e-01 4.397660e-01 2.723953e-01 3.830288e-01 1.032799e+00 1.231067e+00 1.498287e+00 8.739681e-01 8.622842e-01 8.956869e-01 8.592944e-01 9.382009e-01 6.786529e-01
<GCONST> 1.357543e+02
<STATE> 3
<MEAN> 39
 -7.191837e+00 1.387840e+01 -3.376003e+00 2.113429e+00 -1.556371e+01 -1.561270e+01 -1.455004e+01 -1.050525e+01 -1.166517e+01 -1.628994e+01 -9.693406e+00 -8.395822e+00 5.851414e+01 -1.727306e+00 3.020396e-01 7.641589e-01 1.418929e-01 1.123297e-01 2.882138e-01 1.448675e+00 -1.022482e+00 -8.977142e-01 1.762415e-01 2.549087e-01 -1.004194e+00 1.066221e+00 -4.194503e-02 -9.067640e-01 1.932467e-01 -6.982591e-01 -4.068639e-01 -3.513503e-01 1.960105e-01 3.227316e-01 3.794342e-01 6.063139e-01 7.413667e-01 7.649330e-01 4.341300e-01
<VARIANCE> 39
 4.633517e+01 1.634133e+01 2.370679e+01 2.759790e+01 3.419482e+01 2.648270e+01 2.590151e+01 2.921355e+01 2.746104e+01 1.835662e+01 2.101652e+01 2.046711e+01 1.281454e+01 2.443291e+00 3.275736e+00 2.624868e+00 2.445614e+00 4.706641e+00 4.156363e+00 3.461212e+00 4.269349e+00 4.290006e+00 2.725598e+00 4.098881e+00 4.139801e+00 2.882808e+00 8.415861e-01 4.549384e-01 4.801991e-01 5.409137e-01 1.135126e+00 7.193696e-01 7.287312e-01 7.263426e-01 6.161885e-01 4.926068e-01 5.147997e-01 4.899542e-01 3.838478e-01
<GCONST> 1.223462e+02
<STATE> 4
<MEAN> 39
 -1.223279e+01 8.175200e+00 5.216655e-01 -2.573821e+00 -1.941641e+01 -1.879332e+01 -8.090806e+00 -1.090273e+01 -1.210535e+01 -1.250154e+01 -2.652638e+00 -6.178848e+00 6.679212e+01 1.367200e+00 -2.072515e+00 1.301214e+00 -3.068439e+00 -3.233158e+00 -1.059620e+00 4.260001e-01 -3.167692e-01 3.342089e-01 1.821804e+00 1.875516e+00 1.642107e+00 2.860006e+00 7.573000e-01 1.238248e-01 -4.994531e-02 -5.736172e-01 -2.654998e-01 5.514422e-01 -6.098749e-01 -1.382657e-01 5.005271e-01 4.284804e-01 -5.955714e-01 1.873614e-01 -2.497371e-01
<VARIANCE> 39
 3.060536e+01 1.837011e+01 1.942063e+01 2.380481e+01 4.159132e+01 3.078182e+01 2.709618e+01 3.025511e+01 2.667680e+01 2.380616e+01 2.595681e+01 2.837049e+01 1.772844e+01 3.524848e+00 2.262977e+00 2.070405e+00 2.127997e+00 3.533849e+00 3.066933e+00 4.128632e+00 3.033154e+00 3.406225e+00 2.610536e+00 3.012222e+00 2.565688e+00 1.052446e+00 6.112512e-01 5.293053e-01 4.228038e-01 4.123659e-01 8.465510e-01 7.410203e-01 7.592906e-01 6.937719e-01 8.182973e-01 5.669051e-01 6.838697e-01 6.792368e-01 3.015057e-01
<GCONST> 1.199749e+02
<TRANSP> 5
 0.000000e+00 1.000000e+00 0.000000e+00 0.000000e+00 0.000000e+00
 0.000000e+00 8.208692e-01 1.791308e-01 0.000000e+00 0.000000e+00
 0.000000e+00 0.000000e+00 7.551994e-01 2.448006e-01 0.000000e+00
 0.000000e+00 0.000000e+00 0.000000e+00 6.148302e-01 3.851698e-01
 0.000000e+00 0.000000e+00 0.000000e+00 0.000000e+00 0.000000e+00
<ENDHMM>
~h "ae"
<BEGINHMM>
<NUMSTATES> 5
<STATE> 2
<MEAN> 39
 -7.873255e+00 -7.211574e-01 -5.360302e+00 -6.205090e+00 -5.987971e+00 -8.322695e+00 -1.268343e+01 -1.138596e+01 -8.503728e+00 -7.692983e+00 -6.142276e+00 -5.400033e+00 5.015101e+01 -1.409354e+00 -1.122042e+00 -6.558644e-01 4.474154e-01 -1.251025e-01 1.116581e-01 1.562316e+00 6.781561e-01 1.102736e+00 7.982749e-01 3.890349e-01 2.011350e-01 4.290888e-02 -1.400430e-01 -1.389839e-01 -3.775326e-02 -2.781894e-01 -1.363942e-01 -5.553576e-01 1.681829e-01 8.298713e-02 2.303026e-01 1.251875e-01 -2.165251e-02 1.386596e-01 1.274585e+00
<VARIANCE> 39
 1.018751e+01 9.027861e+00 1.753728e+01 1.027991e+01 1.489431e+01 1.167685e+01 1.771637e+01 1.870334e+01 2.239096e+01 1.758104e+01 2.059237e+01 9.669675e+00 6.324110e+00 1.689452e+00 2.539564e+00 1.841828e+00 1.516751e+00 1.303967e+00 2.817786e+00 3.291494e+00 2.738441e+00 3.181845e+00 2.326752e+00 2.105906e+00 1.174301e+00 8.118258e+00 2.516741e-01 4.021741e-01 4.061970e-01 4.035093e-01 3.332743e-01 3.614405e-01 5.499458e-01 5.408962e-01 5.778402e-01 4.132510e-01 4.115323e-01 3.080557e-01 7.981169e-01
<GCONST> 1.053032e+02
<STATE> 3
<MEAN> 39
 -1.568170e+01 -5.166715e+00 -5.804774e+00 -5.382792e+00 -9.171000e+00 -1.391805e+01 -4.179802e+00 -7.429976e+00 -3.102589e+00 -4.154519e+00 -3.193089e+00 -3.240063e+00 6.202364e+01 5.929905e-01 1.614401e-01 4.191304e-01 -6.975827e-01 -1.471947e+00 -9.921129e-01 3.496362e-01 3.164774e-01 -1.125212e-01 1.888563e-01 4.909962e-01 2.974125e-01 1.884083e+00 5.068423e-01 -1.926349e-02 2.774582e-02 -1.063818e-01 -4.821083e-02 1.414897e-01 -2.068136e-01 1.510635e-01 -3.055572e-01 -1.080920e-01 -1.055084e-01 -1.328964e-01 -3.243249e-01
<VARIANCE> 39
 3.374413e+01 2.634263e+01 2.155503e+01 3.123493e+01 5.532475e+01 3.820232e+01 3.561280e+01 3.235466e+01 2.582641e+01 2.111180e+01 2.816456e+01 1.571184e+01 1.411769e+02 8.272604e+00 3.379419e+00 2.904372e+00 2.667063e+00 4.402122e+00 4.838490e+00 3.845969e+00 5.333364e+00 3.810341e+00 2.391464e+00 2.961784e+00 1.669345e+00 1.732472e+01 1.145829e+00 9.912374e-01 7.142313e-01 3.730038e-01 8.461950e-01 1.021595e+00 8.709248e-01 1.146893e+00 7.564550e-01 5.410191e-01 6.844365e-01 3.458784e-01 2.814661e+00
<GCONST> 1.325046e+02
<STATE> 4
<MEAN> 39
 -4.783577e+00 -8.445457e+00 -4.511744e+00 -1.597953e+01 -1.874719e+01 -1.654821e+01 -1.703660e+00 -4.685853e+00 -1.070452e+01 -1.133237e+01 -4.344176e+00 -4.164729e+00 7.699641e+01 7.856072e-02 1.198237e-02 3.753557e-02 -5.628609e-02 1.462701e-01 -1.902803e-01 -4.152600e-01 1.292440e-01 -5.011017e-01 -9.184755e-01 -2.720588e-01 -3.084824e-02 -3.350151e-01 -3.278210e-01 3.477679e-01 -1.422419e-02 2.989872e-01 8.608033e-02 -2.148497e-02 -2.061657e-01 -2.197977e-01 1.118641e-01 2.114764e-02 7.087226e-02 3.880415e-02 -2.050111e-01
<VARIANCE> 39
 2.289102e+00 1.132762e+01 8.024687e+00 1.351924e+01 1.601213e+01 2.628646e+01 1.866294e+01 1.643159e+01 2.124798e+01 4.345732e+01 2.417487e+01 1.283276e+01 7.180452e+00 5.720764e-01 2.699329e+00 1.068882e+00 1.336223e+00 1.601844e+00 3.785337e+00 2.779629e+00 2.264399e+00 1.535846e+00 4.100394e+00 2.561772e+00 1.490707e+00 8.076327e-01 3.764529e-01 1.473881e-01 2.478725e-01 2.372830e-01 4.861574e-01 7.086272e-01 4.129401e-01 4.850575e-01 2.454383e-01 8.155268e-01 5.036043e-01 3.045739e-01 3.237375e-02
<GCONST> 9.801105e+01
<TRANSP> 5
 0.000000e+00 1.000000e+00 0.000000e+00 0.000000e+00 0.000000e+00
 0.000000e+00 8.250812e-01 1.749187e-01 0.000000e+00 0.000000e+00
 0.000000e+00 0.000000e+00 9.056855e-01 9.431449e-02 0.000000e+00
 0.000000e+00 0.000000e+00 0.000000e+00 9.143353e-01 8.566467e-02
 0.000000e+00 0.000000e+00 0.000000e+00 0.000000e+00 0.000000e+00
<ENDHMM>
~h "ah"
<BEGINHMM>
<NUMSTATES> 5
<STATE> 2
<MEAN> 39
 -2.347474e+00 -6.839451e+00 -1.218886e+01 -2.009807e+01 -9.290872e-01 -9.150887e+00 -1.872900e+01 -6.429187e+00 1.893406e+00 -2.082582e+01 -1.002749e+01 -8.716589e+00 7.601945e+01 -7.040777e-01 -7.361348e-01 6.348999e-01 1.654861e+00 -1.134237e+00 -1.534865e+00 9.339120e-01 2.222735e+00 -1.041671e+00 -1.209230e+00 -1.271438e+00 7.356164e-01 3.226523e-01 2.415195e-01 4.462608e-01 3.899552e-02 -2.728053e-01 -3.464887e-01 2.420009e-01 -1.198928e-01 -9.672809e-04 -1.868540e-01 3.669236e-01 7.869940e-01 3.371157e-01 -3.177019e-01
<VARIANCE> 39
 5.633418e+00 8.840952e+00 1.034711e+01 2.269168e+01 2.631374e+01 2.633492e+01 2.350077e+01 3.827485e+01 2.126271e+01 2.225203e+01 5.697335e+01 2.932178e+01 1.529121e+01 5.417179e-01 8.987319e-01 6.466034e-01 1.249430e+00 1.446357e+00 1.861172e+00 1.479527e+00 1.767842e+00 2.121519e+00 2.691457e+00 3.104434e+00 1.696337e+00 4.279434e-01 9.479988e-02 1.051340e-01 1.681463e-01 1.895525e-01 3.275843e-01 2.180834e-01 3.002048e-01 3.914514e-01 3.378501e-01 3.825576e-01 5.454680e-01 4.052425e-01 3.605703e-02
<GCONST> 9.455515e+01
<STATE> 3
<MEAN> 39
 -3.815345e+00 -6.545452e+00 -9.318265e+00 -1.535847e+01 -6.987788e+00 -1.703138e+01 -1.722139e+01 1.552220e+00 -3.213815e+00 -2.210655e+01 -9.157089e+00 -4.001374e+00 7.512628e+01 1.251757e-01 5.571805e-01 3.650537e-01 4.579523e-01 -6.782525e-01 -1.312910e+00 -2.318392e-01 7.320775e-01 -7.555564e-01 5.076649e-01 7.426723e-01 5.300753e-01 -6.472284e-01 1.036521e-01 1.565316e-01 -5.451327e-02 -3.177106e-02 1.434854e-01 -1.525288e-03 -1.812449e-01 -1.672218e-01 -2.752979e-02 2.900076e-01 4.356030e-02 -1.046630e-02 -1.532552e-01
<VARIANCE> 39
 5.669598e+00 8.999090e+00 9.558640e+00 1.473902e+01 1.828684e+01 3.326954e+01 2.352842e+01 2.832582e+01 2.730892e+01 2.121686e+01 3.549823e+01 2.603491e+01 1.310960e+01 2.660030e-01 4.388447e-01 5.623708e-01 8.753073e-01 1.264743e+00 1.159702e+00 1.292608e+00 1.319510e+00 1.521600e+00 1.760456e+00 1.198397e+00 1.190882e+00 1.725642e-01 3.380569e-02 5.270797e-02 9.543408e-02 1.537798e-01 1.832592e-01 1.591309e-01 1.994227e-01 2.378117e-01 2.389501e-01 2.524266e-01 2.419825e-01 2.282700e-01 2.036385e-02
<GCONST> 8.014542e+01
<STATE> 4
<MEAN> 39
 -1.006488e+00 -1.147450e+00 -8.530026e+00 -1.104524e+01 -7.835184e+00 -2.319019e+01 -2.183240e+01 5.099881e+00 -8.161512e+00 -1.561791e+01 -4.050522e+00 -1.231211e+00 6.845796e+01 5.431568e-01 9.742217e-01 2.911212e-01 1.147087e+00 2.230375e-01 -1.796517e-02 -8.684046e-01 -4.496762e-01 -1.255898e+00 9.369244e-01 -9.272406e-04 6.430581e-04 -1.741389e+00 -7.879688e-02 6.521854e-02 2.125290e-01 2.319989e-01 -1.004843e-01 4.030536e-01 2.173027e-01 -7.192398e-01 1.376936e-01 -2.140508e-01 -2.461943e-01 -2.847435e-01 -2.321282e-01
<VARIANCE> 39
 8.097159e+00 8.079112e+00 1.410358e+01 2.984363e+01 2.965217e+01 4.002541e+01 3.332230e+01 4.661260e+01 6.130460e+01 2.794285e+01 3.920078e+01 4.281974e+01 1.225046e+01 3.144350e-01 5.609114e-01 1.013109e+00 1.360300e+00 1.637172e+00 1.928344e+00 2.007816e+00 3.603491e+00 2.415637e+00 2.565654e+00 2.421040e+00 2.159049e+00 5.113249e-01 8.571564e-02 1.145547e-01 2.138927e-01 2.280088e-01 2.790701e-01 3.396278e-01 3.943605e-01 5.283095e-01 5.375472e-01 4.061722e-01 3.957862e-01 3.761346e-01 7.765364e-02
<GCONST> 1.006755e+02
<TRANSP> 5
 0.000000e+00 1.000000e+00 0.000000e+00 0.000000e+00 0.000000e+00
 0.000000e+00 6.656320e-01 3.343680e-01 0.000000e+00 0.000000e+00
 0.000000e+00 0.000000e+00 8.197653e-01 1.802347e-01 0.000000e+00
 0.000000e+00 0.000000e+00 0.000000e+00 7.354226e-01 2.645774e-01
 0.000000e+00 0.000000e+00 0.000000e+00 0.000000e+00 0.000000e+00
<ENDHMM>
~h "ao"
<BEGINHMM>
<NUMSTATES> 5
<STATE> 2
<MEAN> 39
 -2.510167e+00 -8.198488e-01 -1.631817e+01 -2.162346e+01 -1.616199e+00 -1.100986e+01 -1.305629e+01 -1.525417e+01 -5.877703e-01 -4.231110e+00 -1.121486e-01 -4.696759e+00 7.120898e+01 2.096894e+00 1.439445e+00 1.974141e-01 -4.543223e+00 4.635068e-01 2.060637e+00 -1.050364e+00 -7.197542e-01 1.632894e+00 -1.252198e+00 8.310381e-01 -7.214991e-01 1.448291e+00 -1.339095e+00 -3.711309e-01 6.121169e-01 9.323890e-01 -1.749937e-02 8.509322e-01 4.713230e-01 6.382829e-01 2.527441e-01 -5.100895e-01 8.283823e-02 -2.131843e-02 -9.657182e-01
<VARIANCE> 39
 3.645465e+01 3.314283e+01 2.869817e+01 6.920073e+01 6.238943e+01 4.529023e+01 5.587860e+01 6.391664e+01 5.657254e+01 8.585931e+01 2.491264e+01 2.156206e+01 7.734879e+00 1.222273e+01 2.951164e+00 7.183763e+00 1.244513e+01 2.756783e+00 2.221550e+00 2.626882e+00 7.496567e+00 3.083750e+00 3.435025e+00 3.113612e+00 3.029370e+00 1.137054e+00 8.133426e-01 5.222406e-01 7.381585e-01 8.896742e-01 7.223762e-01 8.727024e-01 8.035316e-01 1.114135e+00 1.320341e+00 1.134765e+00 2.898288e-01 4.764466e-01 6.073914e-01
<GCONST> 1.329965e+02
<STATE> 3
<MEAN> 39
 -8.453745e+00 -5.501086e+00 -1.395254e+01 -1.682304e+01 4.666802e+00 -8.631504e+00 -1.284993e+01 -1.434154e+01 2.714853e+00 -8.731991e+00 -3.374138e+00 -1.012033e+01 7.285874e+01 1.065352e+00 5.979093e-01 7.753831e-01 -1.451634e+00 -2.714661e-01 1.500634e+00 -1.714335e+00 -2.360850e+00 -7.270583e-01 -4.243300e+00 5.634967e-01 -1.338071e+00 3.377976e-01 1.811748e-01 -1.131594e-01 -3.196950e-01 -9.666634e-02 -5.192637e-02 -3.111026e-01 3.474815e-01 -1.627213e-01 -4.714047e-02 -5.035879e-02 2.906011e-01 3.496700e-01 -1.342069e-01
<VARIANCE> 39
 3.616599e+01 2.587847e+01 9.959964e+00 6.018670e+01 2.860416e+01 3.330592e+01 5.706822e+01 7.227879e+01 3.884624e+01 1.314480e+02 3.926057e+01 3.534920e+01 3.253193e+00 2.312529e+00 1.190421e+00 1.860742e+00 3.361043e+00 2.118185e+00 2.568536e+00 5.181437e+00 5.597336e+00 5.672480e+00 7.048337e+00 2.602617e+00 3.158051e+00 3.024856e-01 8.120625e-01 3.667062e-01 3.836271e-01 1.020279e+00 3.154382e-01 4.760364e-01 1.303616e+00 1.752813e+00 1.309635e+00 2.517147e+00 5.147005e-01 5.126199e-01 1.652142e-01
<GCONST> 1.243994e+02
<STATE> 4
<MEAN> 39
 2.230168e+00 3.015310e+00 -1.377477e+01 -3.408217e+01 -7.249143e-01 -1.747301e+00 -1.695080e+01 -1.867709e+01 1.454105e+00 -1.839657e+01 7.310764e+00 -4.562384e+00 6.959427e+01 2.378950e-02 3.863149e-02 -4.151108e-02 2.303068e-01 -8.235848e-02 -7.567143e-02 -2.174266e-01 2.143968e-01 -2.980787e-01 1.512236e-01 8.642675e-02 1.401803e-02 -5.116917e-01 -1.016485e-01 -3.829170e-02 3.299844e-02 3.397690e-01 -9.834326e-02 -1.484930e-01 1.447139e-02 7.330645e-02 -1.101559e-01 2.619820e-01 -1.721999e-01 8.414271e-03 -1.247078e-01
<VARIANCE> 39
 6.551771e+00 1.076006e+01 9.331868e+00 2.418769e+01 2.564152e+01 2.218031e+01 2.712600e+01 3.475456e+01 3.984670e+01 3.918496e+01 3.553568e+01 3.441692e+01 1.339424e+01 3.329272e-01 4.253136e-01 6.965081e-01 2.684711e+00 1.313051e+00 1.406325e+00 1.791957e+00 1.744077e+00 2.040770e+00 3.447452e+00 2.845390e+00 1.728247e+00 5.604178e-01 8.556924e-02 8.536611e-02 1.325385e-01 2.508863e-01 2.242526e-01 2.240284e-01 2.654922e-01 2.979715e-01 3.485992e-01 3.371932e-01 3.898466e-01 2.891415e-01 7.056537e-02
<GCONST> 9.416447e+01
<TRANSP> 5
 0.000000e+00 1.000000e+00 0.000000e+00 0.000000e+00 0.000000e+00
 0.000000e+00 4.939116e-01 5.060884e-01 0.000000e+00 0.000000e+00
 0.000000e+00 0.000000e+00 6.926991e-01 3.073010e-01 0.000000e+00
 0.000000e+00 0.000000e+00 0.000000e+00 9.018627e-01 9.813725e-02
 0.000000e+00 0.000000e+00 0.000000e+00 0.000000e+00 0.000000e+00
<ENDHMM>
~h "ax"
<BEGINHMM>
<NUMSTATES> 5
<STATE> 2
<MEAN> 39
 -3.902863e+00 -1.564490e+01 -9.431314e+00 -1.261343e+01 -6.421869e+00 -1.032348e+01 -1.620801e+01 -5.182487e+00 -2.823145e+00 -2.264617e+01 -6.879103e+00 -9.164357e+00 7.792139e+01 -2.579261e-01 -5.255768e-02 3.968585e-01 -3.293767e-01 -1.876613e-01 8.443101e-02 1.136548e-01 2.325767e-01 -1.053759e+00 -3.729254e-01 1.830307e-01 2.992625e-01 6.338175e-02 -2.403294e-02 9.037850e-02 1.034527e-01 -8.021159e-02 -8.809939e-02 -1.711481e-01 2.606705e-01 -4.643399e-02 -2.685260e-01 1.153237e-01 1.291959e-01 2.678826e-01 -3.183226e-02
<VARIANCE> 39
 2.948621e+00 1.668333e+01 8.005285e+00 1.212452e+01 1.760294e+01 1.713768e+01 3.013596e+01 2.881310e+01 3.306386e+01 2.467525e+01 1.349847e+01 3.172634e+01 6.774731e+00 2.293433e-01 7.204360e-01 6.884005e-01 7.524061e-01 9.410065e-01 1.547983e+00 2.578741e+00 1.681274e+00 2.893563e+00 1.772919e+00 1.269475e+00 2.103105e+00 2.081702e-01 5.036628e-02 1.070113e-01 1.415271e-01 1.216549e-01 2.083838e-01 2.910153e-01 4.549840e-01 2.925493e-01 3.845816e-01 4.101910e-01 2.348196e-01 3.220026e-01 4.660755e-02
<GCONST> 8.613450e+01
<STATE> 3
<MEAN> 39
 -6.080239e+00 -1.265795e+01 -5.037306e+00 -1.627745e+01 -1.149319e+01 -1.169656e+01 -7.413164e+00 -4.088742e+00 -1.285960e+01 -2.096320e+01 -5.193722e+00 -5.027329e+00 7.773295e+01 -1.623237e-01 8.247152e-01 1.018447e+00 -5.342296e-01 -1.187185e+00 -4.025487e-01 1.171822e+00 -4.928640e-01 -6.473708e-01 1.355436e+00 -3.178636e-01 -3.323098e-02 -3.730543e-01 1.177080e-01 2.548584e-01 -7.686845e-03 -9.056470e-03 -1.287625e-01 -1.670248e-01 -3.101248e-01 5.902344e-02 4.755380e-01 3.091452e-01 -1.882051e-01 -2.922159e-02 -1.534529e-01
<VARIANCE> 39
 2.355625e+00 9.913080e+00 1.298733e+01 1.314527e+01 2.046700e+01 1.558395e+01 2.791085e+01 2.196663e+01 2.884477e+01 2.339582e+01 1.393680e+01 1.262433e+01 6.130403e+00 1.704290e-01 7.641774e-01 5.279508e-01 9.825733e-01 1.645735e+00 1.317743e+00 2.446767e+00 1.709640e+00 2.927157e+00 2.142898e+00 1.518317e+00 1.070940e+00 1.316861e-01 2.459242e-02 8.159728e-02 8.469392e-02 1.011932e-01 1.668345e-01 2.476650e-01 2.553938e-01 3.051872e-01 3.800753e-01 3.720710e-01 2.795986e-01 2.575055e-01 1.951708e-02
<GCONST> 8.022227e+01
<STATE> 4
<MEAN> 39
 -5.580545e+00 -6.847135e+00 7.493114e-01 -2.132103e+01 -1.880247e+01 -1.594819e+01 -4.385576e+00 -6.244468e+00 -1.062641e+01 -1.255684e+01 -9.174173e+00 -5.081738e+00 7.488873e+01 2.868684e-01 4.636181e-01 -4.146043e-01 2.209344e-01 5.241927e-01 -1.171388e+00 -6.132826e-01 4.838403e-01 1.215556e+00 -1.114545e-01 -2.269112e-01 5.891659e-01 -3.677573e-01 3.219197e-02 -8.914748e-02 -3.913282e-01 1.689825e-01 6.108066e-01 7.386133e-04 -4.314061e-01 2.971668e-02 2.251879e-01 -3.533803e-01 7.744519e-02 -7.422502e-02 9.413083e-04
<VARIANCE> 39
 2.522604e+00 7.634957e+00 1.334275e+01 2.029122e+01 2.248788e+01 2.306584e+01 2.382004e+01 2.838829e+01 2.432942e+01 3.359721e+01 1.857793e+01 1.955353e+01 5.501651e+00 1.171769e-01 7.465643e-01 1.911074e+00 1.341447e+00 4.213773e+00 1.399333e+00 2.388528e+00 1.802492e+00 1.869832e+00 3.406883e+00 1.458546e+00 1.113929e+00 1.190586e-01 2.708676e-02 1.041563e-01 9.527760e-02 2.651812e-01 2.488555e-01 3.322978e-01 3.143660e-01 4.242851e-01 3.027885e-01 3.723104e-01 2.585620e-01 4.024842e-01 1.729926e-02
<GCONST> 8.670006e+01
<TRANSP> 5
 0.000000e+00 1.000000e+00 0.000000e+00 0.000000e+00 0.000000e+00
 0.000000e+00 8.344848e-01 1.655152e-01 0.000000e+00 0.000000e+00
 0.000000e+00 0.000000e+00 8.109742e-01 1.890258e-01 0.000000e+00
 0.000000e+00 0.000000e+00 0.000000e+00 8.271585e-01 1.728416e-01
 0.000000e+00 0.000000e+00 0.000000e+00 0.000000e+00 0.000000e+00
<ENDHMM>
~h "ay"
<BEGINHMM>
<NUMSTATES> 5
<STATE> 2
<MEAN> 39
 -2.008743e+00 -5.441561e+00 -8.948651e+00 -1.263503e+01 -9.905093e+00 -1.808500e+01 -1.419731e+01 -5.632288e+00 -5.659752e+00 -1.552497e+01 -8.187246e+00 -5.235380e+00 7.115517e+01 7.296590e-01 -2.778376e+00 -1.348659e+00 -1.858119e+00 1.959643e+00 5.800849e-01 -1.157756e+00 7.864086e-01 6.057833e-01 -2.611773e+00 -1.271750e+00 -5.250428e-01 3.861883e+00 -6.585485e-01 -2.130782e-01 1.097105e-01 3.915683e-01 4.564052e-01 9.807177e-01 3.076385e-01 -1.615584e-01 3.321468e-01 1.826887e-01 3.341693e-01 -6.521907e-02 -8.913665e-01
<VARIANCE> 39
 1.444620e+01 6.202783e+01 3.119203e+01 3.287431e+01 3.195728e+01 6.083280e+01 5.398144e+01 5.200449e+01 2.861458e+01 3.058433e+01 1.657912e+01 2.903888e+01 5.740529e+01 6.385067e+00 3.697008e+00 2.460107e+00 2.622591e+00 3.587135e+00 5.310215e+00 5.179379e+00 6.823504e+00 4.003048e+00 6.429471e+00 2.514448e+00 3.063951e+00 2.727114e+00 9.346082e-01 7.700309e-01 5.663344e-01 7.155831e-01 8.600705e-01 6.624318e-01 1.207566e+00 1.291601e+00 4.896428e-01 9.254148e-01 3.945304e-01 6.131037e-01 1.057871e+00
<GCONST> 1.322479e+02
<STATE> 3
<MEAN> 39
 -3.717813e+00 -1.537017e+01 -1.167536e+01 -1.418896e+01 -3.675119e+00 -1.034360e+01 -1.296927e+01 -7.311947e+00 -1.446339e+00 -2.142256e+01 -7.505089e+00 -7.182686e+00 7.827694e+01 9.335063e-02 -1.185154e+00 1.616008e-01 1.011179e-01 1.133383e+00 1.386972e+00 -8.111261e-01 -6.776094e-01 1.253801e+00 -1.223292e+00 9.260689e-02 -1.104947e+00 5.237236e-01 -1.605922e-01 6.246585e-01 3.020190e-01 3.339060e-01 -4.716638e-01 -3.640704e-01 -1.325208e-02 5.856995e-02 2.869347e-02 7.471052e-01 1.811188e-01 -1.025294e-01 -7.039947e-01
<VARIANCE> 39
 4.101871e+00 1.729526e+01 1.031918e+01 1.532822e+01 1.860937e+01 3.390889e+01 4.098627e+01 3.109459e+01 3.519713e+01 2.017468e+01 2.079204e+01 2.751035e+01 9.848292e+00 4.545366e-01 1.293054e+00 7.394366e-01 1.169162e+00 1.797413e+00 2.387792e+00 3.473080e+00 2.791105e+00 2.363270e+00 2.801470e+00 1.507533e+00 2.703598e+00 6.503768e-01 2.689588e-01 1.966270e-01 1.881313e-01 2.946801e-01 2.824569e-01 3.392401e-01 5.726548e-01 5.810118e-01 5.021471e-01 5.413045e-01 3.396931e-01 4.579902e-01 2.563095e-01
<GCONST> 1.019159e+02
<STATE> 4
<MEAN> 39
 -3.902159e+00 -1.416518e+01 -7.847785e+00 -1.474088e+01 -6.447597e+00 -9.165838e+00 -1.711485e+01 -4.322926e+00 -3.005135e+00 -2.092455e+01 -7.843697e+00 -8.815087e+00 7.773496e+01 -2.268884e-01 4.899929e-01 8.382617e-01 -7.022733e-02 -1.307813e+00 -9.027562e-02 2.939088e-01 2.179343e-01 -1.057014e+00 7.804914e-01 1.844317e-01 1.014408e-01 -1.489591e-01 -2.205862e-02 2.056362e-01 1.296396e-01 -8.353346e-02 -2.645334e-01 -6.147502e-02 8.577980e-02 -9.845749e-02 -8.197563e-02 3.081071e-01 -3.850125e-02 6.595397e-02 -8.125674e-02
<VARIANCE> 39
 4.751271e+00 1.103720e+01 1.664725e+01 1.226297e+01 3.606167e+01 2.114026e+01 3.286876e+01 3.437579e+01 6.317947e+01 2.407213e+01 1.489280e+01 2.435528e+01 6.127425e+00 2.373427e-01 7.781264e-01 8.094952e-01 7.093930e-01 2.096400e+00 1.035553e+00 2.364567e+00 2.509869e+00 2.911287e+00 2.660718e+00 1.152850e+00 1.665168e+00 1.614796e-01 3.770843e-02 6.110660e-02 1.006735e-01 1.179522e-01 1.726210e-01 1.996123e-01 3.474326e-01 4.321165e-01 5.151784e-01 2.953549e-01 2.144775e-01 2.930547e-01 2.374788e-02
<GCONST> 8.668293e+01
<TRANSP> 5
 0.000000e+00 1.000000e+00 0.000000e+00 0.000000e+00 0.000000e+00
 0.000000e+00 5.839854e-01 4.160146e-01 0.000000e+00 0.000000e+00
 0.000000e+00 0.000000e+00 6.784354e-01 3.215646e-01 0.000000e+00
 0.000000e+00 0.000000e+00 0.000000e+00 8.809364e-01 1.190636e-01
 0.000000e+00 0.000000e+00 0.000000e+00 0.000000e+00 0.000000e+00
<ENDHMM>
~h "eh"
<BEGINHMM>
<NUMSTATES> 5
<STATE> 2
<MEAN> 39
 -4.050525e+00 -2.093215e+00 -6.747237e+00 -1.180200e+01 -1.741815e+01 -2.252265e+01 -1.257351e+01 1.477378e+00 -8.142703e+00 -1.308884e+01 -2.199932e+00 1.507364e-01 7.399207e+01 1.462703e+00 -1.593029e+00 -5.303174e-01 -1.509235e+00 8.975773e-01 4.448645e-01 1.746958e-01 9.875587e-01 -6.979645e-01 -1.185120e+00 -9.910477e-01 -2.820668e-01 1.729609e+00 -1.210997e+00 -4.522254e-01 -2.135598e-01 3.477903e-01 7.645907e-01 1.210626e+00 9.059206e-01 -4.549038e-01 1.341244e-01 3.004782e-01 1.449064e-02 -2.797279e-01 -6.126680e-01
<VARIANCE> 39
 3.340084e+00 1.613881e+01 1.034325e+01 2.049018e+01 1.900032e+01 2.133951e+01 3.490919e+01 2.398279e+01 3.590896e+01 1.972680e+01 1.691961e+01 2.038161e+01 1.134070e+01 3.925310e+00 1.953834e+00 1.404057e+00 1.862532e+00 2.446302e+00 5.303333e+00 5.959884e+00 3.049114e+00 2.969054e+00 2.449464e+00 1.940915e+00 1.781144e+00 1.112897e+00 3.563767e-01 3.659143e-01 3.330441e-01 2.588513e-01 4.822186e-01 7.158403e-01 6.644782e-01 6.358434e-01 4.671114e-01 5.189331e-01 3.437845e-01 4.040840e-01 1.257209e-01
<GCONST> 1.085051e+02
<STATE> 3
<MEAN> 39
 -4.542340e+00 -9.659996e+00 -7.508374e+00 -1.548967e+01 -1.151534e+01 -1.581144e+01 -6.677574e+00 -3.187288e+00 -9.342704e+00 -1.853492e+01 -6.232706e+00 -2.057518e+00 7.638480e+01 3.152437e-01 -2.724618e-01 3.822555e-02 2.486520e-03 6.650437e-01 -7.373339e-02 -4.549299e-01 -7.715905e-01 7.683454e-01 -5.728702e-01 -4.599151e-01 -8.067030e-03 -3.221126e-01 1.028305e-01 3.076271e-01 7.938802e-02 1.921072e-01 -5.066287e-02 -2.541831e-01 -3.842238e-01 -6.096438e-02 2.301466e-01 2.542251e-01 9.064978e-02 9.684638e-03 -2.780692e-01
<VARIANCE> 39
 4.053686e+00 8.702400e+00 9.021070e+00 1.049679e+01 1.659622e+01 2.188199e+01 2.051519e+01 2.270887e+01 3.009002e+01 2.078773e+01 1.904373e+01 1.225014e+01 5.532484e+00 2.367624e-01 7.267754e-01 4.309671e-01 5.428315e-01 1.013374e+00 1.712632e+00 2.023746e+00 1.434599e+00 1.776754e+00 1.727252e+00 1.191385e+00 1.019452e+00 2.884393e-01 3.430823e-02 1.030117e-01 1.005795e-01 1.278924e-01 2.046660e-01 2.608081e-01 2.841703e-01 2.851707e-01 2.567995e-01 2.297502e-01 2.112419e-01 1.917890e-01 6.310592e-02
<GCONST> 7.966725e+01
<STATE> 4
<MEAN> 39
 -2.230647e-01 -2.783428e+00 -5.281681e+00 -1.198319e+01 -9.092666e+00 -2.405648e+01 -1.517113e+01 -4.464190e+00 -4.383187e+00 -1.566305e+01 -7.242162e+00 5.933605e-01 6.837719e+01 1.182722e-01 4.133127e-01 8.845954e-02 1.460603e-01 9.831648e-02 -3.403777e-01 -3.736769e-01 3.439855e-01 -2.264524e-01 2.000428e-01 2.411917e-01 2.326953e-01 -4.436703e-01 -3.731595e-02 1.467893e-02 -4.117167e-03 4.209621e-02 -6.633852e-02 9.807534e-02 6.118754e-02 -1.371947e-02 -1.144836e-01 -2.247906e-02 -1.408805e-02 -4.979667e-02 -3.470391e-02
<VARIANCE> 39
 7.248579e+00 1.401057e+01 1.245140e+01 3.586162e+01 2.967530e+01 3.851624e+01 3.115573e+01 6.014884e+01 4.238939e+01 2.036451e+01 3.452017e+01 4.020726e+01 2.364501e+01 7.141650e-01 1.195151e+00 1.121073e+00 3.361335e+00 1.922595e+00 2.283266e+00 2.675942e+00 3.069159e+00 3.545069e+00 1.977600e+00 1.996025e+00 2.860887e+00 3.246149e+00 1.127747e-01 2.170266e-01 2.091967e-01 5.579863e-01 3.193061e-01 4.657222e-01 4.163874e-01 5.380849e-01 7.154061e-01 3.369237e-01 3.459675e-01 5.203912e-01 4.455263e-01
<GCONST> 1.105509e+02
<TRANSP> 5
 0.000000e+00 1.000000e+00 0.000000e+00 0.000000e+00 0.000000e+00
 0.000000e+00 6.953759e-01 3.046241e-01 0.000000e+00 0.000000e+00
 0.000000e+00 0.000000e+00 8.630749e-01 1.369251e-01 0.000000e+00
 0.000000e+00 0.000000e+00 0.000000e+00 9.218706e-01 7.812943e-02
 0.000000e+00 0.000000e+00 0.000000e+00 0.000000e+00 0.000000e+00
<ENDHMM>
~h "ey"
<BEGINHMM>
<NUMSTATES> 5
<STATE> 2
<MEAN> 39
 -1.096395e+01 -4.778187e+00 -3.644238e+00 -1.189258e+01 -1.375885e+01 -7.076900e+00 -7.754603e+00 -5.485548e+00 -3.480430e+00 1.532138e-01 -2.446622e+00 -2.935856e+00 5.628811e+01 2.415176e-01 -1.837692e-01 1.512249e+00 -1.252403e+00 -1.758690e+00 -3.417014e-01 1.548291e-01 -4.670826e-01 -2.499032e-01 7.866409e-01 -6.755806e-01 1.829343e-02 2.554410e+00 1.504785e-01 1.977570e-01 9.130506e-02 -2.419971e-01 -8.005112e-02 -2.043988e-01 -2.480400e-01 -2.279127e-01 -3.832323e-02 -1.053246e-01 -1.347133e-01 3.441818e-02 4.721497e-01
<VARIANCE> 39
 1.555193e+01 1.237684e+01 5.020885e+01 4.665554e+01 8.918184e+01 2.810403e+01 3.749653e+01 3.104547e+01 2.368027e+01 3.387351e+01 2.805574e+01 1.664777e+01 1.302744e+02 1.795072e+00 1.315744e+00 3.240603e+00 6.356724e+00 7.766827e+00 3.722075e+00 4.281435e+00 3.127671e+00 3.107196e+00 3.990430e+00 2.630648e+00 1.864770e+00 1.655136e+01 2.321988e-01 2.861776e-01 6.413897e-01 9.781728e-01 1.520947e+00 6.182225e-01 6.240071e-01 5.536277e-01 6.152865e-01 8.809215e-01 5.049039e-01 3.519256e-01 2.449109e+00
<GCONST> 1.282974e+02
<STATE> 3
<MEAN> 39
 -7.373867e+00 1.084732e+00 7.765728e+00 -2.184038e+01 -2.519128e+01 -1.112270e+01 -1.188638e+01 -1.382514e+01 -5.705445e+00 2.029641e+00 -9.954557e+00 -1.917256e+00 7.471265e+01 1.261357e-01 6.625059e-01 2.987831e-01 2.958923e-01 -3.161110e-01 -6.085038e-02 -2.033696e-01 -4.770962e-01 -3.792185e-01 -4.342408e-01 -4.168739e-01 2.041877e-02 -3.309808e-01 -6.157707e-02 -3.575439e-02 -1.975772e-01 4.144166e-01 2.261076e-01 -1.950884e-02 1.629683e-01 2.335238e-01 -8.563258e-02 -2.278390e-01 2.193635e-01 -5.553390e-02 -4.742376e-01
<VARIANCE> 39
 2.823544e+00 1.798296e+01 1.630275e+01 1.448376e+01 1.403413e+01 1.516446e+01 2.959182e+01 2.382832e+01 1.892871e+01 3.121643e+01 3.142762e+01 2.178940e+01 9.751266e+00 2.353848e-01 1.079080e+00 1.007425e+00 1.621087e+00 1.224707e+00 1.458282e+00 1.663490e+00 1.987416e+00 1.640596e+00 2.110108e+00 2.226675e+00 1.543501e+00 7.334587e-01 7.335581e-02 1.667463e-01 1.672422e-01 2.327620e-01 3.961677e-01 3.211959e-01 2.919131e-01 3.073253e-01 2.906106e-01 3.585818e-01 3.555682e-01 2.654639e-01 4.786056e-01
<GCONST> 9.375701e+01
<STATE> 4
<MEAN> 39
 -6.803159e+00 5.801810e+00 5.750193e+00 -1.071913e+01 -2.198525e+01 -1.305453e+01 -1.024761e+01 -1.248275e+01 -1.129103e+01 -6.569530e+00 -7.756144e+00 -4.213003e+00 6.430492e+01 -3.939469e-01 9.698197e-02 -1.405583e+00 2.061908e+00 2.966249e+00 1.502564e-01 9.572791e-01 7.113723e-01 -1.999305e-01 -1.772219e+00 7.335390e-01 -9.222689e-01 -3.238318e+00 -3.365117e-01 -5.462582e-01 -2.376373e-01 -6.088962e-01 2.266412e-01 3.899513e-01 6.849051e-02 -2.410932e-02 6.203728e-01 5.785975e-01 -1.753232e-01 1.337496e-01 4.537858e-02
<VARIANCE> 39
 8.558456e+00 2.080820e+01 1.335498e+01 3.514208e+01 5.879798e+01 2.675868e+01 2.362264e+01 2.020146e+01 2.024437e+01 4.531758e+01 2.467674e+01 2.780388e+01 4.661460e+01 1.166219e+00 2.906174e+00 1.194914e+00 3.756129e+00 2.872254e+00 3.268543e+00 2.790598e+00 2.154085e+00 3.132324e+00 3.742715e+00 2.887980e+00 1.983268e+00 1.526100e+00 1.863831e-01 4.630312e-01 2.314958e-01 6.928248e-01 1.221370e+00 5.299692e-01 5.055307e-01 4.266970e-01 4.094990e-01 6.895645e-01 5.811940e-01 4.499138e-01 9.420046e-01
<GCONST> 1.162044e+02
<TRANSP> 5
 0.000000e+00 1.000000e+00 0.000000e+00 0.000000e+00 0.000000e+00
 0.000000e+00 8.685519e-01 1.314481e-01 0.000000e+00 0.000000e+00
 0.000000e+00 0.000000e+00 9.056312e-01 9.436876e-02 0.000000e+00
 0.000000e+00 0.000000e+00 0.000000e+00 7.346916e-01 2.653085e-01
 0.000000e+00 0.000000e+00 0.000000e+00 0.000000e+00 0.000000e+00
<ENDHMM>
~h "ia"
<BEGINHMM>
<NUMSTATES> 5
<STATE> 2
<MEAN> 39
 -6.037377e+00 4.704189e+00 3.738069e+00 -1.212731e+01 -2.786451e+01 -1.763661e+01 -1.067727e+01 -1.300669e+01 -8.932854e+00 -6.161550e+00 -3.185077e+00 -1.969202e+00 7.184447e+01 5.649875e-01 -2.752810e-01 1.143720e+00 -2.989014e+00 -1.107091e+00 1.331531e+00 8.566008e-02 -9.314212e-01 1.208314e+00 2.599721e+00 -1.054667e+00 4.204949e-01 9.481516e-01 -3.810267e-01 3.225860e-01 1.943514e-04 3.132114e-01 9.848164e-01 2.204235e-01 -3.693074e-02 1.097893e-01 -1.170526e-02 -2.889158e-01 -5.992140e-01 -4.481180e-01 -5.239683e-01
<VARIANCE> 39
 2.647686e+00 1.158304e+01 1.296063e+01 2.249152e+01 2.059436e+01 2.119895e+01 1.764361e+01 2.387753e+01 2.161804e+01 3.376056e+01 2.392451e+01 1.883796e+01 5.530659e+00 9.992275e-01 1.193990e+00 9.028623e-01 1.351666e+00 2.818057e+00 1.834765e+00 3.814742e+00 2.770579e+00 2.711934e+00 2.385061e+00 2.145293e+00 2.319453e+00 4.739538e-01 1.927740e-01 2.311026e-01 1.957930e-01 2.536783e-01 3.385830e-01 5.137762e-01 6.719872e-01 4.631285e-01 7.483809e-01 4.752683e-01 5.032838e-01 2.770585e-01 7.914414e-02
<GCONST> 9.984304e+01
<STATE> 3
<MEAN> 39
 -6.619514e+00 4.308969e+00 7.810088e+00 -1.959288e+01 -2.612286e+01 -1.493089e+01 -1.006543e+01 -1.392501e+01 -6.508493e+00 -1.474779e+00 -7.089584e+00 -3.364666e+00 7.306354e+01 3.348173e-01 -7.761713e-01 6.181652e-01 -6.328698e-01 4.409899e-01 -3.460606e-01 3.359355e-01 5.738740e-01 -3.713179e-01 3.089524e-02 -4.542842e-01 7.050935e-03 -1.374907e-01 2.310358e-01 -3.751802e-01 -2.212099e-01 6.905156e-01 1.002819e-01 -4.529413e-01 -6.246346e-02 3.782139e-01 -2.793054e-01 -6.482855e-01 1.796267e-01 1.532888e-01 -2.106434e-01
<VARIANCE> 39
 2.264112e+00 8.884147e+00 1.185226e+01 1.333955e+01 1.402732e+01 1.881739e+01 1.431059e+01 2.290702e+01 1.802045e+01 2.630704e+01 2.244151e+01 2.376711e+01 4.075724e+00 2.981200e-01 7.846505e-01 8.953955e-01 1.212301e+00 7.666994e-01 1.187565e+00 1.062064e+00 1.343675e+00 1.449229e+00 1.791648e+00 2.036187e+00 7.769887e-01 2.068741e-01 6.116060e-02 1.000215e-01 9.905791e-02 1.981527e-01 1.864075e-01 1.922898e-01 2.722753e-01 2.190686e-01 2.891693e-01 2.759238e-01 2.517783e-01 1.954947e-01 3.359338e-02
<GCONST> 7.957567e+01
<STATE> 4
<MEAN> 39
 -2.308276e+00 -2.431427e+00 8.602619e+00 -1.666602e+01 -2.477280e+01 -1.956465e+01 -9.079179e+00 -8.679592e+00 -9.924500e+00 -6.213412e+00 -7.899266e+00 -9.270384e-01 7.075367e+01 1.633083e+00 -2.140929e+00 -9.296984e-01 2.278232e+00 1.147161e+00 -1.452526e+00 -1.222464e+00 1.273583e+00 7.447819e-01 -1.871728e+00 -8.178893e-01 8.523769e-01 -8.054798e-01 1.334347e-01 1.938737e-01 -7.126468e-01 5.165557e-01 4.294661e-01 1.899025e-01 -7.066053e-01 -3.853128e-01 8.198706e-01 1.547795e-01 -2.651335e-01 -3.701373e-01 -1.031273e-01
<VARIANCE> 39
 6.512561e+00 1.567769e+01 1.816588e+01 2.027035e+01 2.050325e+01 3.084041e+01 2.912741e+01 3.536821e+01 2.056677e+01 4.226511e+01 2.518026e+01 1.869761e+01 6.381513e+00 3.625140e-01 7.114697e-01 1.333684e+00 1.686771e+00 1.492712e+00 9.332508e-01 2.478953e+00 1.306745e+00 3.081764e+00 1.442838e+00 1.460055e+00 1.275382e+00 1.422733e-01 6.953574e-02 1.841473e-01 1.945987e-01 3.094285e-01 2.097881e-01 3.119339e-01 3.603759e-01 3.927355e-01 2.952702e-01 5.445888e-01 2.497875e-01 4.169502e-01 1.818695e-02
<GCONST> 9.155447e+01
<TRANSP> 5
 0.000000e+00 1.000000e+00 0.000000e+00 0.000000e+00 0.000000e+00
 0.000000e+00 6.452933e-01 3.547067e-01 0.000000e+00 0.000000e+00
 0.000000e+00 0.000000e+00 7.804367e-01 2.195634e-01 0.000000e+00
 0.000000e+00 0.000000e+00 0.000000e+00 6.878700e-01 3.121300e-01
 0.000000e+00 0.000000e+00 0.000000e+00 0.000000e+00 0.000000e+00
<ENDHMM>
~h "ih"
<BEGINHMM>
<NUMSTATES> 5
<STATE> 2
<MEAN> 39
 -2.358340e+01 -2.011512e+00 -6.605701e+00 -4.878110e+00 -1.287039e+01 -9.502883e+00 -2.814516e+00 -4.202318e+00 -4.342155e+00 -2.827018e+00 2.093042e+00 -3.325567e+00 6.601955e+01 4.801262e+00 1.198859e+00 2.175883e+00 -2.469754e+00 -3.319263e+00 -3.646758e+00 -1.937275e+00 -1.517745e+00 -1.940117e+00 -8.736288e-01 -2.717490e-01 -2.872989e-01 2.411762e+00 1.111995e+00 4.715915e-01 5.314921e-01 -2.534829e-01 -6.051750e-01 -1.106395e-01 -7.534509e-01 -2.778375e-01 -3.819467e-01 -1.930901e-01 -4.149487e-01 -6.254075e-02 -1.390273e-01
<VARIANCE> 39
 3.151360e+01 1.635744e+01 1.694966e+01 2.575995e+01 3.081235e+01 3.420045e+01 2.333324e+01 1.982545e+01 2.211332e+01 2.611641e+01 2.039335e+01 1.174739e+01 1.749319e+01 3.669439e+00 1.902737e+00 1.994397e+00 2.304292e+00 3.065060e+00 3.151977e+00 3.131608e+00 2.436610e+00 2.536326e+00 2.505323e+00 1.962299e+00 1.444135e+00 1.253185e+00 8.282341e-01 4.621754e-01 3.012240e-01 4.776445e-01 6.314938e-01 8.871284e-01 5.584693e-01 6.422320e-01 6.168280e-01 6.282932e-01 5.064858e-01 3.285966e-01 2.471565e-01
<GCONST> 1.140402e+02
<STATE> 3
<MEAN> 39
 -5.859977e+00 1.087423e+00 3.922657e+00 -1.558715e+01 -2.580762e+01 -1.563125e+01 -1.177431e+01 -9.784573e+00 -9.252279e+00 -2.596703e+00 -3.106439e+00 -4.524142e+00 7.300925e+01 1.132773e+00 -1.553324e-01 1.328758e+00 -1.313819e+00 -1.114683e+00 3.522174e-01 -4.379876e-01 -9.178242e-01 1.174227e-01 4.889954e-01 -1.205962e+00 -2.015784e-01 3.453699e-01 -7.670233e-01 -1.101696e-01 -3.080723e-01 5.853537e-01 6.591361e-01 2.868026e-01 5.196969e-01 1.015847e-02 2.846071e-01 -1.264928e-01 1.242809e-01 -2.522910e-02 -5.451558e-01
<VARIANCE> 39
 5.349412e+00 1.437008e+01 1.392609e+01 2.849828e+01 2.425917e+01 3.801056e+01 2.303427e+01 3.027669e+01 2.056859e+01 3.038789e+01 3.181690e+01 1.837103e+01 9.932275e+00 4.655929e+00 1.608169e+00 1.362116e+00 2.758471e+00 3.141775e+00 4.020267e+00 3.295457e+00 3.303345e+00 2.273023e+00 3.057333e+00 2.902929e+00 1.621418e+00 1.969138e+00 5.439875e-01 4.185465e-01 2.409863e-01 4.502843e-01 4.118238e-01 1.304335e+00 4.459402e-01 6.031934e-01 4.872734e-01 8.270753e-01 7.820859e-01 2.940268e-01 1.524072e-01
<GCONST> 1.130121e+02
<STATE> 4
<MEAN> 39
 -1.170880e+01 -3.999969e+00 1.094087e+00 -6.609388e+00 -2.003679e+01 -1.665497e+01 -3.047621e+00 -1.123675e+01 -5.939879e+00 -7.522543e+00 -1.665616e+00 -5.194874e+00 6.524152e+01 -1.521577e+00 -7.355817e-01 -1.492975e+00 2.002643e+00 1.009727e+00 -4.709030e-01 9.625641e-01 1.391428e+00 4.065440e-01 -9.276224e-01 1.136702e+00 3.910027e-01 -3.328409e-01 -1.608760e-01 5.443709e-02 -1.351810e-01 -1.577552e-01 -3.282066e-03 2.619303e-01 -2.989807e-01 3.578075e-01 3.247755e-02 1.531300e-01 -5.487195e-02 1.247336e-01 2.107808e-01
<VARIANCE> 39
 3.396642e+01 5.110894e+01 5.420325e+01 5.929531e+01 3.791688e+01 3.760233e+01 4.323967e+01 4.681145e+01 2.816573e+01 3.825328e+01 4.284853e+01 2.805832e+01 3.728525e+01 1.853202e+00 5.896305e+00 3.788686e+00 3.281019e+00 4.656214e+00 3.795836e+00 4.882233e+00 4.490478e+00 2.945944e+00 3.965471e+00 3.415097e+00 2.700416e+00 7.062911e+00 3.022860e-01 1.338522e+00 9.947850e-01 6.772779e-01 9.684977e-01 8.198394e-01 6.916932e-01 8.714883e-01 6.271381e-01 7.741086e-01 8.357241e-01 5.073618e-01 1.317703e+00
<GCONST> 1.339444e+02
<TRANSP> 5
 0.000000e+00 1.000000e+00 0.000000e+00 0.000000e+00 0.000000e+00
 0.000000e+00 6.217523e-01 3.782478e-01 0.000000e+00 0.000000e+00
 0.000000e+00 0.000000e+00 8.629890e-01 1.370110e-01 0.000000e+00
 0.000000e+00 0.000000e+00 0.000000e+00 8.774223e-01 1.225777e-01
 0.000000e+00 0.000000e+00 0.000000e+00 0.000000e+00 0.000000e+00
<ENDHMM>
~h "iy"
<BEGINHMM>
<NUMSTATES> 5
<STATE> 2
<MEAN> 39
 -1.361368e+00 -4.288888e+00 7.753015e+00 -1.248711e+01 -2.366076e+01 -1.879429e+01 -1.288312e+01 -9.477457e+00 -1.314980e+01 -2.620387e+00 -1.226866e+01 -2.317400e+00 7.095769e+01 -1.689436e+00 1.135651e+00 1.909582e+00 -2.016937e+00 -1.352901e+00 1.172930e+00 1.946262e+00 -1.268569e+00 -2.092371e+00 2.320159e+00 -7.685542e-01 -2.509164e-01 5.432251e-01 1.016731e-01 2.596228e-01 -3.629837e-01 -1.009779e-01 3.804731e-01 6.183725e-01 -6.681904e-01 -6.207802e-01 7.984861e-01 3.191396e-02 -4.573901e-01 -4.350350e-01 -2.512465e-01
<VARIANCE> 39
 9.363258e+00 1.412865e+01 1.599494e+01 2.066920e+01 2.295783e+01 2.750127e+01 3.468680e+01 2.470892e+01 2.561722e+01 4.564752e+01 2.497559e+01 2.411130e+01 8.056668e+00 7.234245e-01 8.332018e-01 1.128318e+00 1.290857e+00 1.385901e+00 2.489305e+00 3.764492e+00 2.812957e+00 4.773253e+00 2.014935e+00 2.618376e+00 2.003409e+00 2.273173e-01 9.275205e-02 2.457286e-01 1.657145e-01 2.414330e-01 3.341783e-01 4.321731e-01 5.220977e-01 6.480474e-01 6.268534e-01 8.975986e-01 3.262679e-01 4.802308e-01 2.145823e-02
<GCONST> 1.007345e+02
<STATE> 3
<MEAN> 39
 -7.052334e+00 2.455373e+00 1.233836e+01 -2.155397e+01 -2.539712e+01 -1.053390e+01 -1.228042e+01 -1.635418e+01 -1.200529e+01 5.262498e-01 -1.841429e+01 -3.619232e+00 6.992821e+01 -2.035155e-01 4.255775e-01 2.618448e-01 -5.249491e-01 -7.514003e-02 3.165950e-01 -8.919892e-02 -2.761698e-01 2.996625e-01 -8.814640e-02 -1.358458e-01 2.095285e-01 -5.083966e-01 1.651323e-01 -1.586164e-01 -2.182609e-01 3.972785e-01 7.291001e-02 -3.204331e-01 -1.047548e-03 2.039991e-01 -7.123211e-04 -1.498179e-01 3.832147e-01 8.282761e-02 -1.567665e-01
<VARIANCE> 39
 4.192992e+00 1.346361e+01 1.134723e+01 2.184402e+01 1.636868e+01 1.777625e+01 2.058895e+01 1.918100e+01 2.027063e+01 2.674419e+01 2.866845e+01 1.580955e+01 1.044410e+01 5.041823e-01 9.045815e-01 6.882970e-01 1.345327e+00 1.101057e+00 2.066390e+00 1.365955e+00 1.713054e+00 1.746952e+00 1.544602e+00 2.316565e+00 1.205639e+00 3.813339e-01 7.522275e-02 1.111093e-01 1.236551e-01 1.739768e-01 2.768744e-01 2.511367e-01 2.545346e-01 3.094653e-01 3.162331e-01 3.637467e-01 3.020757e-01 2.435250e-01 6.380929e-02
<GCONST> 8.814436e+01
<STATE> 4
<MEAN> 39
 -6.865374e+00 2.401392e+00 6.723068e+00 -1.414136e+01 -2.154195e+01 -1.247072e+01 -1.228293e+01 -1.494718e+01 -8.907191e+00 -1.874572e+00 -9.870391e+00 -1.980910e+00 6.001676e+01 -6.767112e-01 -1.749749e-01 -2.100259e+00 2.451833e+00 1.845454e+00 1.413957e-02 4.936681e-01 8.342071e-01 5.207972e-01 -1.191478e+00 1.870525e+00 -1.731026e-01 -1.792854e+00 -3.026037e-01 -2.979782e-02 -1.956205e-01 -6.991886e-03 2.671843e-01 2.335645e-01 1.315755e-01 2.156759e-01 8.652306e-02 -1.313661e-01 -1.323751e-01 -1.165861e-01 6.700389e-02
<VARIANCE> 39
 1.726908e+01 2.169836e+01 5.148785e+01 5.210588e+01 6.010063e+01 3.136268e+01 3.007965e+01 3.215245e+01 4.040995e+01 4.771634e+01 5.056851e+01 3.260693e+01 4.965245e+01 3.017096e+00 1.861126e+00 2.516388e+00 3.317329e+00 4.780557e+00 3.532670e+00 3.664330e+00 3.328710e+00 3.554076e+00 4.313306e+00 4.774491e+00 3.049025e+00 2.004974e+00 4.199579e-01 3.404805e-01 6.406094e-01 7.575799e-01 1.124367e+00 6.357817e-01 7.123075e-01 6.355693e-01 8.340132e-01 9.869738e-01 1.021007e+00 5.673069e-01 4.032573e-01
<GCONST> 1.286251e+02
<TRANSP> 5
 0.000000e+00 1.000000e+00 0.000000e+00 0.000000e+00 0.000000e+00
 0.000000e+00 7.323055e-01 2.676945e-01 0.000000e+00 0.000000e+00
 0.000000e+00 0.000000e+00 8.879284e-01 1.120715e-01 0.000000e+00
 0.000000e+00 0.000000e+00 0.000000e+00 8.194202e-01 1.805799e-01
 0.000000e+00 0.000000e+00 0.000000e+00 0.000000e+00 0.000000e+00
<ENDHMM>
~h "jh"
<BEGINHMM>
<NUMSTATES> 5
<STATE> 2
<MEAN> 39
 1.584001e+00 -4.834067e-01 -1.443133e+01 -3.039128e+01 1.252987e+00 -8.308306e+00 -1.727961e+01 -1.526946e+01 1.311871e+00 -2.124936e+01 9.196884e+00 -1.274283e+01 7.175624e+01 1.076810e-01 2.474331e-02 -2.109220e-01 5.822122e-01 -1.667855e-01 3.533859e-01 -4.174163e-01 6.291223e-01 -1.531651e+00 3.038868e-01 -4.783300e-01 -8.127680e-01 -5.367668e-01 -6.027247e-02 -3.821613e-02 1.038403e-01 3.815975e-01 -2.361825e-01 -1.515319e-01 2.660114e-02 1.140062e-01 -3.262502e-01 2.864591e-01 -2.826993e-01 8.067700e-02 -5.575696e-02
<VARIANCE> 39
 4.580130e+00 5.682966e+00 1.064698e+01 3.877617e+01 2.376537e+01 2.865144e+01 2.459759e+01 2.121594e+01 3.651424e+01 4.910663e+01 7.278519e+01 4.841144e+01 4.918382e+00 1.498735e-01 7.303845e-01 6.268635e-01 2.632245e+00 1.758886e+00 1.904014e+00 1.649478e+00 1.518224e+00 2.047758e+00 3.208699e+00 3.491683e+00 3.187357e+00 9.915417e-02 4.603425e-02 9.645113e-02 1.278927e-01 2.505132e-01 1.747820e-01 2.920558e-01 2.143834e-01 2.195479e-01 3.333753e-01 3.331954e-01 4.139644e-01 4.524918e-01 1.314796e-02
<GCONST> 9.029560e+01
<STATE> 3
<MEAN> 39
 1.981482e+00 -1.356520e+00 -1.364003e+01 -2.023321e+01 -3.518120e+00 -1.001948e+01 -2.144498e+01 -1.106506e+01 -1.193576e+01 -1.132526e+01 -8.139557e-01 -1.342125e+01 6.765255e+01 2.212262e-01 1.795116e-01 6.843007e-01 1.768304e+00 -6.375011e-01 -1.084441e+00 -6.054354e-01 -1.495357e-02 -1.705461e+00 1.556808e+00 -1.325033e+00 1.236686e+00 -1.030274e+00 3.750181e-03 5.453597e-02 3.925048e-01 3.379295e-01 -1.232466e-01 -1.358866e-01 1.007508e-01 -3.353371e-01 3.276338e-01 -2.677453e-01 1.233826e-01 2.544261e-02 -2.826003e-01
<VARIANCE> 39
 7.829840e+00 1.678517e+01 1.189510e+01 3.894867e+01 3.044438e+01 4.801391e+01 2.514780e+01 1.969842e+01 8.986011e+01 7.265990e+01 8.010206e+01 6.919154e+01 8.207245e+00 3.007984e-01 1.133260e+00 1.286869e+00 3.050110e+00 1.967273e+00 3.062262e+00 2.630531e+00 3.030548e+00 3.378261e+00 3.186422e+00 2.969821e+00 1.823124e+00 3.438477e-01 6.945531e-02 2.150930e-01 2.288376e-01 5.328280e-01 3.414924e-01 6.604465e-01 3.981106e-01 3.933012e-01 4.000053e-01 5.262364e-01 4.132709e-01 5.242835e-01 1.177426e-01
<GCONST> 1.079782e+02
<STATE> 4
<MEAN> 39
 -6.090113e+00 -6.838944e-03 -4.115835e+00 -9.642472e+00 -8.946097e+00 -1.140899e+01 -1.684908e+01 -1.311963e+01 -1.044106e+01 -7.705129e+00 -4.686595e+00 -5.308886e+00 5.919129e+01 -9.560868e-01 1.394194e-01 1.028098e+00 8.306591e-01 -4.626908e-01 1.319892e-01 7.421453e-01 1.478781e-01 4.138015e-01 -3.794802e-01 -2.516398e-01 4.339203e-01 -7.272657e-01 1.670913e-02 -1.820308e-01 -1.941415e-01 -1.318038e-01 9.705339e-02 1.436965e-01 2.244166e-02 1.509659e-01 1.977924e-01 -3.291939e-02 8.003175e-02 -1.848106e-01 -2.501976e-02
<VARIANCE> 39
 1.032729e+02 3.213429e+01 2.849815e+01 3.173861e+01 3.318082e+01 4.193201e+01 7.341733e+01 4.512086e+01 6.396208e+01 2.866052e+01 3.035670e+01 3.242339e+01 6.494965e+01 5.685801e+00 3.780685e+00 2.317817e+00 4.121474e+00 2.431967e+00 5.078120e+00 6.798380e+00 3.756965e+00 3.818864e+00 4.655228e+00 3.022071e+00 3.061731e+00 7.887649e+00 1.050277e+00 8.465191e-01 5.044626e-01 6.466030e-01 4.605936e-01 9.047319e-01 9.635633e-01 7.752665e-01 7.931062e-01 8.874083e-01 4.974444e-01 5.298576e-01 8.607882e-01
<GCONST> 1.345221e+02
<TRANSP> 5
 0.000000e+00 1.000000e+00 0.000000e+00 0.000000e+00 0.000000e+00
 0.000000e+00 7.407898e-01 2.592102e-01 0.000000e+00 0.000000e+00
 0.000000e+00 0.000000e+00 7.528083e-01 2.471918e-01 0.000000e+00
 0.000000e+00 0.000000e+00 0.000000e+00 8.372309e-01 1.627691e-01
 0.000000e+00 0.000000e+00 0.000000e+00 0.000000e+00 0.000000e+00
<ENDHMM>
~h "ng"
<BEGINHMM>
<NUMSTATES> 5
<STATE> 2
<MEAN> 39
 3.238303e+00 6.956492e+00 -5.282941e+00 -9.760549e+00 -9.622676e+00 -8.879822e+00 -1.929401e+01 -1.255223e+01 -7.140514e+00 -1.037669e+01 1.174391e+00 -8.621744e+00 5.913557e+01 -5.304847e-01 2.796105e-01 1.018108e+00 1.122260e+00 -4.873463e-01 -4.931251e-01 1.156081e-01 -5.599132e-02 -2.444234e-01 8.675528e-01 -1.059279e+00 2.058951e-01 -7.224385e-01 -1.462015e-01 -1.575683e-01 1.248292e-02 -1.166139e-02 2.027156e-01 3.235627e-02 1.256674e-02 2.683315e-02 1.099399e-01 -2.264270e-01 3.862398e-02 -1.296933e-01 -1.114939e-02
<VARIANCE> 39
 1.013885e+01 1.010484e+01 3.800803e+01 3.685954e+01 2.287560e+01 2.959643e+01 1.828249e+01 1.742049e+01 2.381748e+01 3.241660e+01 3.645182e+01 1.645867e+01 1.328047e+01 1.207007e+00 1.320915e+00 1.106910e+00 1.249645e+00 1.946100e+00 1.724099e+00 1.621044e+00 1.335273e+00 2.558858e+00 2.724677e+00 2.592945e+00 1.923215e+00 5.193669e-01 2.542336e-01 2.203361e-01 1.962866e-01 1.916859e-01 2.970605e-01 3.525230e-01 3.191814e-01 2.716706e-01 5.025866e-01 3.117030e-01 4.441256e-01 3.863216e-01 9.634423e-02
<GCONST> 1.003122e+02
<STATE> 3
<MEAN> 39
 -7.789119e+00 1.350488e+00 1.170105e+00 -2.351294e-01 -5.600959e+00 -7.881521e+00 -1.319631e+01 -9.900423e+00 -8.829168e+00 -9.794433e+00 -7.197965e+00 -7.838660e+00 4.942194e+01 -1.555622e+00 -1.583686e+00 -1.082825e+00 -2.891531e-02 5.880124e-01 1.000166e+00 1.488290e+00 1.063300e+00 4.641026e-01 3.670053e-01 2.842164e-01 6.936005e-01 -8.527398e-01 1.357649e-01 4.612819e-02 -2.508738e-01 -2.648873e-01 -1.824477e-01 -5.442855e-02 -2.125693e-02 6.102735e-02 1.627430e-01 1.972812e-01 2.493343e-01 1.671204e-01 9.358142e-02
<VARIANCE> 39
 1.522636e+01 2.060910e+01 1.904449e+01 1.482170e+01 1.749764e+01 1.957384e+01 3.051918e+01 2.239680e+01 1.722493e+01 2.080787e+01 1.909442e+01 1.820646e+01 5.827719e+00 4.887440e-01 8.162499e-01 1.375335e+00 1.305643e+00 1.762594e+00 1.582244e+00 1.885634e+00 1.207870e+00 1.695361e+00 2.284092e+00 2.801313e+00 2.282104e+00 1.531171e-01 1.090301e-01 2.179572e-01 3.039610e-01 1.444358e-01 2.899639e-01 3.479539e-01 4.117580e-01 2.673874e-01 2.981010e-01 3.948048e-01 4.861041e-01 4.040239e-01 3.069165e-02
<GCONST> 9.315907e+01
<STATE> 4
<MEAN> 39
 -1.453128e+01 -4.751144e+00 -6.914853e+00 -4.318936e+00 -5.767399e+00 -3.811124e+00 -5.803609e+00 -4.165747e+00 -4.153349e+00 -3.691390e+00 -2.829790e+00 -2.058431e+00 4.456481e+01 -4.602242e-02 1.542733e-02 -9.446901e-02 -3.946521e-02 -8.041602e-03 5.394613e-02 5.865708e-02 3.901752e-02 2.484832e-02 9.389792e-02 1.931698e-02 3.389532e-02 -9.650457e-02 2.347689e-02 2.758680e-02 3.716435e-02 1.911776e-02 1.660662e-04 1.112455e-03 -2.125234e-02 -2.120677e-02 -2.578775e-02 -2.842665e-02 -2.024214e-02 -3.277771e-02 1.343717e-02
<VARIANCE> 39
 1.039416e+00 2.825395e+00 4.298225e+00 5.154408e+00 6.643306e+00 9.045886e+00 1.050186e+01 1.058589e+01 1.094304e+01 1.159716e+01 9.850175e+00 1.040848e+01 1.361345e+00 1.055101e-01 2.825090e-01 4.954808e-01 6.273037e-01 7.058532e-01 1.046690e+00 1.141575e+00 1.241096e+00 1.300154e+00 1.351015e+00 1.180114e+00 1.230511e+00 3.532624e-02 2.572933e-02 7.092790e-02 1.095268e-01 1.283673e-01 1.519196e-01 2.272217e-01 2.223855e-01 2.654603e-01 2.815583e-01 2.957943e-01 2.560387e-01 2.679251e-01 7.370338e-03
<GCONST> 6.055718e+01
<TRANSP> 5
 0.000000e+00 1.000000e+00 0.000000e+00 0.000000e+00 0.000000e+00
 0.000000e+00 9.305260e-01 6.947398e-02 0.000000e+00 0.000000e+00
 0.000000e+00 0.000000e+00 8.639105e-01 1.360895e-01 0.000000e+00
 0.000000e+00 0.000000e+00 0.000000e+00 9.673280e-01 3.267204e-02
 0.000000e+00 0.000000e+00 0.000000e+00 0.000000e+00 0.000000e+00
<ENDHMM>
~h "oh"
<BEGINHMM>
<NUMSTATES> 5
<STATE> 2
<MEAN> 39
 -2.175460e+00 -4.397931e+00 -8.508942e+00 -1.963843e+01 -3.541187e-01 -2.876549e+01 -1.678083e+01 3.181845e+00 -1.401563e+00 -1.498630e+01 1.656036e+00 -1.415478e+00 6.976577e+01 7.099679e-02 -6.980330e-02 -6.081375e-01 5.395175e-02 1.162877e+00 -6.403707e-03 -1.012505e+00 4.029173e-01 1.300269e+00 8.790335e-01 7.190318e-01 -1.220356e+00 -8.789801e-01 -1.307874e-01 1.173262e-01 1.392834e-01 2.518397e-01 -4.099283e-01 5.317365e-01 2.721612e-01 -2.559486e-01 3.600409e-02 3.365272e-01 -1.962422e-02 -7.786640e-02 -3.112872e-01
<VARIANCE> 39
 1.255394e+01 9.261106e+00 1.250922e+01 1.624854e+01 3.829168e+01 5.254331e+01 6.043541e+01 5.044799e+01 4.260673e+01 1.437740e+01 4.329710e+01 4.657664e+01 3.850555e+01 5.112523e-01 8.889207e-01 8.687775e-01 1.268801e+00 2.785374e+00 3.147151e+00 1.092453e+00 1.377917e+00 2.270952e+00 2.431487e+00 1.961659e+00 2.998332e+00 1.302523e+00 9.744906e-02 1.806688e-01 1.595870e-01 3.437464e-01 4.732417e-01 3.234743e-01 3.516822e-01 3.833240e-01 6.020672e-01 2.586217e-01 7.141273e-01 5.439401e-01 3.711816e-01
<GCONST> 1.060684e+02
<STATE> 3
<MEAN> 39
 -3.222606e+00 2.887031e+00 -1.374509e+01 -1.971675e+01 -1.859712e-01 -1.046201e+01 -2.014750e+01 -1.193874e+01 2.579701e+00 -9.890981e+00 3.875951e+00 -9.405053e+00 6.068652e+01 2.281949e-01 6.094291e-01 1.100035e-01 2.561784e-01 -2.785324e-03 1.083910e-01 -1.749745e-01 -5.780073e-01 1.244590e-02 1.161113e-01 -5.156363e-01 -6.955452e-04 1.348398e-01 2.164048e-02 -5.497486e-02 1.310544e-01 1.071000e-01 -2.295808e-02 -3.773026e-02 1.680667e-01 5.361456e-02 -2.329367e-01 -9.323933e-02 -1.077915e-01 2.832949e-02 -7.666721e-02
<VARIANCE> 39
 2.912566e+01 2.963732e+01 2.323243e+01 8.938439e+01 3.261913e+01 4.590193e+01 6.065701e+01 7.068610e+01 7.816039e+01 5.661007e+01 6.368623e+01 3.054981e+01 7.975642e+01 2.722568e+00 1.405134e+00 3.544283e+00 1.177217e+01 3.760412e+00 5.211287e+00 5.337905e+00 5.379798e+00 9.622584e+00 5.984482e+00 9.388490e+00 3.448400e+00 8.255441e+00 4.292621e-01 2.676070e-01 5.242510e-01 1.705686e+00 6.263462e-01 9.029835e-01 1.079693e+00 8.286834e-01 1.944474e+00 1.043180e+00 1.604240e+00 7.503549e-01 1.273176e+00
<GCONST> 1.413230e+02
<STATE> 4
<MEAN> 39
 -2.578502e+00 5.023438e+00 -5.187105e+00 -6.982637e+00 -4.288661e+00 -1.089740e+01 -1.515783e+01 -1.229003e+01 -6.320153e+00 -5.050074e+00 -5.941095e+00 -9.344186e+00 5.305104e+01 -1.275012e+00 -1.380374e+00 3.245278e-01 1.240559e+00 -1.054492e+00 1.414558e+00 2.013465e+00 2.439151e-01 -9.979705e-01 6.369389e-01 5.598012e-01 5.722767e-01 -2.114560e+00 -2.967566e-01 -1.839830e-01 -5.443754e-01 -7.148846e-01 5.108868e-02 -3.891003e-01 -1.998500e-01 1.301791e-01 7.166714e-01 -1.351294e-01 5.753409e-01 3.435978e-01 1.019440e+00
<VARIANCE> 39
 8.071977e+00 1.238669e+01 8.013016e+00 1.248016e+01 1.076093e+01 2.179650e+01 1.366029e+01 1.343992e+01 2.036050e+01 2.164779e+01 1.604367e+01 1.037584e+01 1.487172e+01 5.084814e-01 9.510134e-01 2.312417e+00 2.786325e+00 5.956452e-01 3.353703e+00 3.068530e+00 1.803549e+00 3.996245e+00 1.908304e+00 1.819424e+00 2.374536e+00 3.243946e+00 8.259819e-02 2.565704e-01 4.209191e-01 2.523893e-01 1.090320e-01 7.622672e-01 6.195992e-01 4.198344e-01 5.289595e-01 7.212084e-01 3.769029e-01 2.848713e-01 6.095397e-01
<GCONST> 1.000511e+02
<TRANSP> 5
 0.000000e+00 1.000000e+00 0.000000e+00 0.000000e+00 0.000000e+00
 0.000000e+00 7.921440e-01 2.078560e-01 0.000000e+00 0.000000e+00
 0.000000e+00 0.000000e+00 9.444253e-01 5.557465e-02 0.000000e+00
 0.000000e+00 0.000000e+00 0.000000e+00 8.100299e-01 1.899702e-01
 0.000000e+00 0.000000e+00 0.000000e+00 0.000000e+00 0.000000e+00
<ENDHMM>
~h "ow"
<BEGINHMM>
<NUMSTATES> 5
<STATE> 2
<MEAN> 39
 -8.642179e+00 -2.123154e+00 -1.039922e+01 -1.180395e+01 -6.040018e+00 -7.577663e+00 -1.166107e+01 -8.723259e+00 -2.532711e+00 -2.509633e+00 -1.927358e+00 -3.741911e+00 5.451523e+01 9.627885e-01 1.321505e-01 -8.174645e-01 -2.095021e+00 9.958032e-01 4.534892e-01 -6.599823e-01 -6.709858e-01 1.309290e+00 -2.515693e-01 5.836594e-01 -3.443451e-01 1.258818e+00 3.668931e-01 1.446295e-01 -2.832225e-01 -7.801854e-01 2.274643e-01 1.748612e-02 -3.229050e-01 -3.146442e-01 3.968179e-01 -3.832631e-01 3.173248e-01 -5.399004e-02 8.001510e-01
<VARIANCE> 39
 5.641547e+01 2.632328e+01 2.504539e+01 6.196127e+01 2.770952e+01 4.152296e+01 5.403551e+01 4.199824e+01 5.899014e+01 3.416816e+01 3.313961e+01 2.736376e+01 8.686308e+01 7.053724e+00 2.180292e+00 3.653538e+00 1.186309e+01 3.484274e+00 3.125319e+00 6.042604e+00 4.608839e+00 6.421884e+00 5.489188e+00 4.928860e+00 3.098183e+00 8.019196e+00 7.049402e-01 3.244840e-01 5.137829e-01 1.434435e+00 5.412562e-01 5.701416e-01 1.049103e+00 7.454346e-01 1.109187e+00 8.198345e-01 9.198159e-01 5.450599e-01 1.263676e+00
<GCONST> 1.368194e+02
<STATE> 3
<MEAN> 39
 -8.409739e-01 -1.178015e+00 -1.583216e+01 -2.797840e+01 -2.779825e-01 -7.275239e+00 -1.884157e+01 -1.633740e+01 6.463892e+00 -7.807024e+00 2.376860e+00 -6.529990e+00 7.137897e+01 1.258100e+00 7.624981e-01 -4.949459e-01 -2.603819e+00 1.270171e+00 5.367124e-02 -8.794199e-01 -1.225274e+00 7.204179e-01 -1.792888e+00 8.033133e-01 -5.798540e-02 2.498084e+00 -5.842755e-01 4.640462e-02 4.696761e-01 1.127456e+00 -3.953590e-01 -5.815972e-02 5.505915e-01 5.215407e-01 -6.869009e-01 9.671783e-02 -2.581822e-01 1.282265e-01 -9.442725e-01
<VARIANCE> 39
 9.187384e+00 1.661221e+01 1.540402e+01 2.806502e+01 2.330952e+01 4.398656e+01 3.015835e+01 2.742310e+01 3.426348e+01 4.437315e+01 5.209741e+01 2.651061e+01 2.689366e+01 3.340117e+00 1.698920e+00 2.394623e+00 7.620613e+00 2.965266e+00 2.560972e+00 4.083488e+00 4.107649e+00 5.837319e+00 3.040860e+00 3.846243e+00 2.192995e+00 7.804689e+00 5.664583e-01 3.481121e-01 4.043489e-01 6.679690e-01 4.821999e-01 4.252830e-01 5.461214e-01 6.404921e-01 8.541871e-01 7.383600e-01 7.906668e-01 4.604527e-01 6.562351e-01
<GCONST> 1.233649e+02
<STATE> 4
<MEAN> 39
 1.894075e+00 4.435775e+00 -1.401059e+01 -2.900418e+01 -5.010672e-01 -7.499845e+00 -1.852402e+01 -1.564502e+01 -3.470927e+00 -1.198286e+01 3.381053e+00 -5.519764e+00 6.922284e+01 6.393888e-02 2.068468e-01 1.194190e-01 5.011098e-01 -2.150139e-01 -1.807587e-01 -1.130602e-01 2.201379e-01 -8.207436e-01 7.483370e-02 -1.774269e-01 -2.366413e-02 -7.181594e-01 -8.530976e-02 -1.007409e-01 6.751438e-02 2.678645e-01 -1.001852e-01 -9.115671e-02 1.796494e-03 4.858898e-02 2.391259e-02 1.501044e-01 -1.125976e-01 -5.262961e-03 -1.101922e-01
<VARIANCE> 39
 6.108271e+00 2.152212e+01 1.052386e+01 2.767736e+01 2.644747e+01 4.230782e+01 3.075825e+01 3.414015e+01 8.679306e+01 5.712831e+01 5.520480e+01 6.663253e+01 2.248667e+01 3.304475e-01 8.126479e-01 8.560926e-01 2.203367e+00 1.386431e+00 1.665024e+00 1.736794e+00 1.725959e+00 2.617534e+00 2.765508e+00 2.872399e+00 2.231565e+00 4.798675e-01 8.645627e-02 1.012903e-01 1.556824e-01 2.843134e-01 2.377159e-01 2.676952e-01 2.964725e-01 3.304276e-01 4.125613e-01 3.987693e-01 3.474320e-01 3.476876e-01 8.173358e-02
<GCONST> 1.010403e+02
<TRANSP> 5
 0.000000e+00 1.000000e+00 0.000000e+00 0.000000e+00 0.000000e+00
