~o
<STREAMINFO> 1 39
<VECSIZE> 39<NULLD><MFCC_D_A_0><DIAGC>
~s "silst"
<MEAN> 39
 -2.793497e+000 -8.221334e-001 2.000173e+000 1.632758e+000 2.231010e+000 3.890833e+000 5.275809e+000 -4.228970e+000 1.516272e+000 2.209182e+000 -3.174784e+000 1.551370e-001 4.678779e+001 -8.063527e-002 -6.307880e-002 -6.127895e-002 2.725565e-002 1.426031e-002 1.097127e-002 4.545052e-002 7.568055e-004 5.137813e-002 6.641218e-002 6.428267e-002 8.475272e-002 -7.878417e-002 1.493347e-002 1.388089e-002 -1.079914e-003 -2.602590e-002 -1.040371e-002 -3.620982e-002 -2.263101e-002 1.333150e-002 -1.313918e-002 -1.918247e-002 2.754846e-003 -7.979870e-003 2.649473e-002
<VARIANCE> 39
 5.350573e+000 7.518274e+000 8.399729e+000 9.338660e+000 1.192966e+001 1.637520e+001 1.554127e+001 2.155937e+001 1.848882e+001 1.949604e+001 2.119967e+001 1.446108e+001 6.015526e+000 1.984842e-001 3.620909e-001 5.554285e-001 6.914930e-001 9.078658e-001 1.112435e+000 1.316270e+000 1.561003e+000 1.536909e+000 1.559714e+000 1.420357e+000 1.218042e+000 1.205057e-001 3.384545e-002 6.352326e-002 1.056102e-001 1.396086e-001 1.843824e-001 2.246885e-001 2.691676e-001 3.091407e-001 3.146693e-001 3.159348e-001 2.835602e-001 2.430864e-001 1.856868e-002
<GCONST> 7.567818e+001
~h "d"
<BEGINHMM>
<NUMSTATES> 5
<STATE> 2
<MEAN> 39
 -2.812783e+000 -1.002347e+000 4.215509e-001 -4.643134e-001 5.154955e-001 2.341440e+000 5.653582e+000 -2.569285e+000 3.859339e+000 3.710345e+000 -8.911323e-004 1.955345e+000 4.825855e+001 -1.755614e-001 -9.699389e-002 -1.672903e-001 7.355664e-002 1.012103e-001 1.595581e-001 2.754629e-001 1.805626e-001 3.109298e-002 -6.291667e-002 1.594810e-001 6.830288e-002 -2.013962e-001 1.974158e-002 3.290321e-002 6.560874e-002 -6.943713e-002 6.399249e-002 -6.124026e-002 -1.681677e-001 -6.861680e-002 -1.780239e-001 -6.405023e-002 -1.120890e-001 -5.913347e-002 1.456141e-001
<VARIANCE> 39
 8.968010e+000 4.313942e+000 6.063492e+000 8.383739e+000 9.431644e+000 1.611884e+001 1.628785e+001 2.264895e+001 1.851394e+001 2.049078e+001 1.741541e+001 1.465532e+001 6.583311e+000 7.778299e-001 5.260278e-001 7.384216e-001 9.248835e-001 1.170501e+000 1.233664e+000 1.962997e+000 1.908877e+000 1.752940e+000 1.548718e+000 1.506979e+000 1.310087e+000 7.289692e-001 1.607862e-001 9.183774e-002 1.566327e-001 2.037675e-001 2.343597e-001 2.209358e-001 3.490612e-001 3.577586e-001 3.423248e-001 2.838252e-001 3.191747e-001 2.377461e-001 1.258693e-001
<GCONST> 8.565363e+001
<STATE> 3
<MEAN> 39
 -4.628184e+000 -6.413913e-001 2.369878e+000 1.153006e+000 2.512151e+000 1.312687e+000 4.615776e+000 -4.501734e+000 -4.551181e-001 3.317658e-001 -2.531625e+000 1.183398e-001 4.727362e+001 -8.430071e-002 -3.691586e-002 3.853794e-002 -1.054968e-002 1.140795e-001 1.812797e-002 -1.291836e-001 4.318774e-002 -8.613157e-002 -2.865555e-002 1.022177e-002 2.977437e-002 5.674766e-002 -2.630281e-002 -4.986179e-002 -7.340711e-003 -6.224558e-002 -8.769307e-004 -5.357889e-002 -5.615845e-002 6.632147e-002 3.696628e-002 -7.165485e-003 2.378153e-002 1.052065e-002 9.600715e-002
<VARIANCE> 39
 5.102667e+000 6.469770e+000 5.662081e+000 9.136597e+000 9.900779e+000 1.236645e+001 1.358772e+001 1.891126e+001 1.738725e+001 1.814449e+001 1.689642e+001 1.321808e+001 2.669599e+000 3.718068e-001 5.927546e-001 6.630806e-001 8.390074e-001 1.181577e+000 1.378874e+000 1.507958e+000 1.847133e+000 1.783597e+000 1.844732e+000 1.555191e+000 1.655167e+000 2.216298e-001 7.481015e-002 1.296877e-001 1.331853e-001 1.681790e-001 2.439592e-001 3.103887e-001 3.363879e-001 4.053624e-001 3.930417e-001 4.273033e-001 3.493826e-001 3.573240e-001 9.476715e-002
<GCONST> 8.243646e+001
<STATE> 4
<MEAN> 39
 -5.764995e+000 -2.923481e+000 2.835203e+000 -2.091568e+000 2.778127e+000 3.306961e-001 1.874717e+000 9.037078e-001 1.557578e+000 1.435060e+000 5.509028e-001 1.790563e+000 5.234216e+001 -1.227250e-001 -2.984738e-001 2.788137e-001 -2.005648e-001 1.049057e-001 -4.355679e-001 -2.590288e-001 4.164845e-001 -8.398514e-002 -2.558067e-001 9.725081e-002 9.012630e-002 5.118210e-001 1.324069e-001 6.269673e-002 -3.794273e-002 7.165316e-002 -1.200459e-001 1.902590e-002 1.956064e-001 -1.617799e-001 2.482001e-002 5.798866e-002 -5.007873e-002 -2.224770e-002 -8.543880e-002
<VARIANCE> 39
 2.414570e+001 2.288585e+001 1.882503e+001 2.824428e+001 2.996864e+001 4.561718e+001 3.326712e+001 3.486458e+001 2.526674e+001 2.368922e+001 2.299267e+001 1.610248e+001 3.751151e+001 2.719196e+000 2.548989e+000 1.858774e+000 2.539268e+000 2.629520e+000 2.897112e+000 3.824583e+000 3.498061e+000 1.700419e+000 2.235678e+000 1.889127e+000 1.530390e+000 3.102038e+000 4.790079e-001 5.382644e-001 4.097041e-001 4.658271e-001 5.328675e-001 5.975832e-001 7.168561e-001 6.105634e-001 3.358517e-001 4.235338e-001 3.782364e-001 3.324942e-001 6.032616e-001
<GCONST> 1.166075e+002
<TRANSP> 5
 0.000000e+000 1.000000e+000 0.000000e+000 0.000000e+000 0.000000e+000
 0.000000e+000 7.093421e-001 2.906579e-001 0.000000e+000 0.000000e+000
 0.000000e+000 0.000000e+000 8.495068e-001 1.504932e-001 0.000000e+000
 0.000000e+000 0.000000e+000 0.000000e+000 7.104388e-001 2.895611e-001
 0.000000e+000 0.000000e+000 0.000000e+000 0.000000e+000 0.000000e+000
<ENDHMM>
~h "f"
<BEGINHMM>
<NUMSTATES> 5
<STATE> 2
<MEAN> 39
 -2.536885e+000 -2.894735e+000 -3.931778e-001 2.348311e-002 3.026001e+000 2.354060e+000 3.588916e+000 -2.065231e+000 2.411777e+000 2.078156e+000 -8.412733e-001 5.606679e-001 4.962801e+001 -1.209816e-001 -3.560623e-002 -5.827844e-002 1.427188e-001 1.330430e-001 1.351118e-001 5.488190e-002 1.042246e-001 1.078114e-001 4.202767e-002 6.063417e-002 2.809505e-002 -2.718336e-002 -1.202667e-002 -1.521569e-002 7.047052e-003 -5.433634e-003 1.682485e-002 -1.150567e-002 -1.866542e-002 3.186141e-002 -1.299468e-003 -5.271066e-003 5.211587e-003 -1.625350e-003 5.350235e-002
<VARIANCE> 39
 9.448508e+000 1.039009e+001 1.093474e+001 1.029391e+001 1.207324e+001 1.609764e+001 1.917945e+001 2.038741e+001 1.949165e+001 1.940775e+001 1.906985e+001 1.602837e+001 1.466247e+001 5.732507e-001 5.450168e-001 6.399089e-001 1.035832e+000 1.069607e+000 1.277001e+000 1.386240e+000 1.630955e+000 1.633198e+000 1.470172e+000 1.356503e+000 1.143232e+000 2.593065e-001 6.465957e-002 8.240804e-002 1.062408e-001 1.709660e-001 1.840040e-001 2.309346e-001 2.546451e-001 2.982543e-001 3.067478e-001 2.794334e-001 2.567832e-001 2.292430e-001 4.938385e-002
<GCONST> 8.281068e+001
<STATE> 3
<MEAN> 39
 -7.065412e+000 -3.054249e+000 2.928591e-001 2.642306e+000 3.777015e+000 3.120003e+000 2.534611e+000 1.883091e+000 2.779062e+000 1.563625e+000 1.212281e-001 2.597353e-001 5.813083e+001 -7.396055e-001 -3.938815e-001 -2.466832e-001 2.232377e-001 1.195288e-001 9.599014e-002 -9.575091e-002 4.825156e-001 1.629101e-001 1.068134e-001 2.282864e-001 1.264804e-001 6.261996e-001 1.333570e-001 1.829441e-002 2.446338e-003 -1.356399e-001 -8.662961e-002 -6.904305e-002 1.226133e-002 -9.144484e-002 -6.526804e-002 -1.100619e-002 -5.670633e-002 -2.672963e-002 -2.431826e-002
<VARIANCE> 39
 2.601538e+001 1.435021e+001 1.485024e+001 1.585186e+001 1.483986e+001 1.566345e+001 1.779770e+001 2.075346e+001 1.942526e+001 1.726313e+001 1.552890e+001 1.527704e+001 3.250434e+001 1.742429e+000 1.020185e+000 1.178791e+000 1.422095e+000 1.766260e+000 1.648020e+000 1.730332e+000 2.168144e+000 2.002806e+000 1.814109e+000 1.735994e+000 1.556976e+000 1.448601e+000 3.145660e-001 1.859783e-001 2.016830e-001 2.730414e-001 3.487300e-001 3.232342e-001 3.446441e-001 4.141288e-001 3.897510e-001 3.595350e-001 3.104020e-001 3.053636e-001 1.763944e-001
<GCONST> 9.940064e+001
<STATE> 4
<MEAN> 39
 -2.134835e+000 -2.298156e+000 -2.752726e+000 -4.905733e+000 2.125414e+000 3.685225e+000 1.975563e-001 5.367292e-001 5.220925e-001 2.736236e+000 -1.851572e-001 -2.146508e+000 6.177827e+001 2.209029e+000 7.042168e-001 -8.326137e-001 -3.005739e+000 -7.467640e-001 3.918179e-001 -7.657301e-001 -8.524981e-001 -9.066869e-001 1.168469e-001 -2.314689e-002 -8.992784e-001 5.048800e-001 -9.113689e-003 5.024483e-002 -1.247595e-001 -2.768520e-001 -7.598086e-002 1.560040e-001 2.232116e-003 1.010671e-002 -6.842980e-002 -1.301517e-001 1.181999e-002 -6.757088e-002 5.947894e-002
<VARIANCE> 39
 7.815612e+001 2.062637e+001 1.840267e+001 1.073352e+002 1.934278e+001 1.799069e+001 2.427070e+001 2.450657e+001 2.577202e+001 2.159487e+001 1.684526e+001 2.338840e+001 2.165559e+001 6.456696e+000 2.286064e+000 2.075566e+000 9.266447e+000 2.230945e+000 2.555484e+000 2.446031e+000 2.360210e+000 2.434728e+000 2.608292e+000 1.971676e+000 2.312683e+000 9.574665e-001 1.474144e+000 4.691049e-001 3.158222e-001 1.619941e+000 4.742288e-001 4.379706e-001 5.698419e-001 5.560987e-001 4.956504e-001 4.907057e-001 3.648888e-001 3.858386e-001 1.444202e-001
<GCONST> 1.176602e+002
<TRANSP> 5
 0.000000e+000 1.000000e+000 0.000000e+000 0.000000e+000 0.000000e+000
 0.000000e+000 8.921435e-001 1.078565e-001 0.000000e+000 0.000000e+000
 0.000000e+000 0.000000e+000 9.044030e-001 9.559706e-002 0.000000e+000
 0.000000e+000 0.000000e+000 0.000000e+000 8.136885e-001 1.863116e-001
 0.000000e+000 0.000000e+000 0.000000e+000 0.000000e+000 0.000000e+000
<ENDHMM>
~h "k"
<BEGINHMM>
<NUMSTATES> 5
<STATE> 2
<MEAN> 39
 -1.455680e+001 2.831145e+000 -4.214755e+000 3.574682e+000 9.020373e+000 -3.213548e+000 2.647498e+000 5.233036e-002 6.058873e+000 3.336000e+000 1.474413e+000 -1.279746e+000 5.800169e+001 -2.817341e-001 3.962130e-001 6.006514e-002 2.631639e-002 -6.811714e-002 1.954844e-001 1.162764e-001 3.075970e-001 2.742646e-002 -8.100436e-002 7.511232e-002 -1.122556e-002 -6.058262e-003 2.576843e-001 -2.289853e-002 -3.868726e-002 -8.532932e-002 -5.366333e-002 -7.452855e-002 2.362979e-002 -1.185454e-001 -1.199510e-001 -8.729289e-002 -9.449113e-002 -4.122815e-002 -8.076266e-002
<VARIANCE> 39
 1.868294e+001 1.010256e+001 1.129088e+001 1.870554e+001 2.319876e+001 2.248090e+001 1.728078e+001 1.845193e+001 2.294300e+001 1.809714e+001 1.673255e+001 1.674844e+001 2.071639e+001 8.042924e-001 5.185286e-001 8.087574e-001 9.837486e-001 1.175752e+000 1.718294e+000 1.476394e+000 1.824464e+000 1.981791e+000 1.681642e+000 1.366490e+000 1.462654e+000 3.730376e-001 1.452020e-001 9.761220e-002 1.598396e-001 2.097813e-001 2.534946e-001 3.478733e-001 3.258895e-001 3.415851e-001 4.091003e-001 3.590211e-001 2.944714e-001 3.157696e-001 5.746627e-002
<GCONST> 9.106304e+001
<STATE> 3
<MEAN> 39
 -1.129156e+001 3.544019e+000 -2.634353e+000 8.634821e-001 7.698702e+000 -1.321558e+000 4.504549e+000 -1.673321e+000 3.819173e+000 2.769561e+000 1.243383e-001 -8.414096e-001 5.349971e+001 4.313059e-001 -2.042337e-001 2.302566e-001 -2.211823e-001 -3.642941e-001 2.091125e-001 1.644538e-001 -2.041910e-001 -1.630940e-001 -2.336886e-003 -1.104594e-001 5.299470e-002 -3.589958e-001 7.942638e-002 -7.485271e-002 2.207757e-002 4.070793e-002 -2.806221e-002 1.254978e-003 6.005101e-003 -5.344085e-003 -2.112884e-002 2.883593e-002 2.218815e-002 3.751724e-002 -1.378208e-002
<VARIANCE> 39
 2.332824e+001 1.143347e+001 1.439778e+001 1.449816e+001 2.048658e+001 2.071053e+001 1.504556e+001 1.904384e+001 2.049023e+001 1.734564e+001 1.819891e+001 1.511825e+001 1.801929e+001 7.394713e-001 5.635968e-001 7.385037e-001 7.941914e-001 1.182073e+000 1.669919e+000 1.341911e+000 1.559896e+000 1.593432e+000 1.609991e+000 1.489136e+000 1.382740e+000 3.985029e-001 7.811181e-002 8.752589e-002 1.410212e-001 1.520953e-001 2.277814e-001 3.184692e-001 2.647788e-001 2.977255e-001 3.282224e-001 3.548286e-001 3.148515e-001 2.617610e-001 5.289643e-002
<GCONST> 8.787190e+001
<STATE> 4
<MEAN> 39
 -3.281255e+000 -2.917738e+000 -2.988783e-001 1.329108e-001 2.684856e+000 1.825515e+000 5.080787e+000 -8.913094e-001 3.264417e+000 3.457958e+000 4.431683e-001 1.831440e+000 4.919482e+001 3.757085e-002 8.473272e-003 -2.568459e-002 5.709451e-003 7.851243e-003 4.292032e-002 2.919580e-002 2.031772e-002 -1.707334e-002 1.244378e-003 -5.441225e-003 2.487417e-002 -3.746501e-002 -1.196338e-002 1.702812e-002 1.389480e-002 -9.906790e-004 3.576456e-002 -2.130089e-002 -1.519886e-002 1.820819e-002 -2.220806e-004 -6.803266e-003 3.095758e-003 -9.049223e-003 2.000376e-002
<VARIANCE> 39
 9.053270e+000 1.050026e+001 8.400785e+000 9.555824e+000 1.395880e+001 1.696597e+001 1.684666e+001 2.170452e+001 1.933638e+001 2.052794e+001 1.588400e+001 1.390680e+001 8.982885e+000 2.152552e-001 3.482820e-001 4.479485e-001 6.180509e-001 8.311269e-001 1.130251e+000 1.358975e+000 1.364607e+000 1.335080e+000 1.429568e+000 1.187564e+000 1.174397e+000 1.760483e-001 3.723602e-002 5.772347e-002 8.945593e-002 1.187451e-001 1.808880e-001 2.362741e-001 2.785556e-001 2.755787e-001 2.629847e-001 2.887539e-001 2.294041e-001 2.429994e-001 3.062086e-002
<GCONST> 7.612724e+001
<TRANSP> 5
 0.000000e+000 1.000000e+000 0.000000e+000 0.000000e+000 0.000000e+000
 0.000000e+000 7.854046e-001 2.145954e-001 0.000000e+000 0.000000e+000
 0.000000e+000 0.000000e+000 6.998066e-001 3.001934e-001 0.000000e+000
 0.000000e+000 0.000000e+000 0.000000e+000 9.107193e-001 8.928067e-002
 0.000000e+000 0.000000e+000 0.000000e+000 0.000000e+000 0.000000e+000
<ENDHMM>
~h "l"
<BEGINHMM>
<NUMSTATES> 5
<STATE> 2
<MEAN> 39
 -2.019228e+000 -2.389174e+000 6.778148e-001 -4.074923e+000 1.971782e+000 -3.346677e+000 6.644874e-001 -2.348071e+000 1.342080e+000 3.646708e+000 -3.444625e+000 1.480593e+000 5.673414e+001 2.522859e-001 -6.546212e-001 -4.775551e-001 -1.244603e+000 3.931973e-001 -1.757581e+000 -1.192442e+000 1.156175e+000 5.604375e-001 -3.045641e-001 -9.345345e-001 -5.288737e-001 2.613645e+000 2.362796e-001 -1.344610e-001 -1.556027e-003 -1.421660e-001 1.463984e-001 1.645200e-001 8.754813e-002 1.568664e-001 7.464996e-002 -7.829180e-002 -2.173537e-001 -4.538887e-001 1.603593e-001
<VARIANCE> 39
 2.758381e+001 1.753115e+001 3.708461e+001 3.505164e+001 2.363215e+001 5.161435e+001 4.882010e+001 4.960190e+001 4.613225e+001 3.352623e+001 3.376653e+001 1.878795e+001 6.269060e+001 2.822335e+000 1.445625e+000 2.657011e+000 3.713104e+000 2.157945e+000 4.534861e+000 3.288851e+000 3.809300e+000 4.079542e+000 3.242239e+000 4.699920e+000 3.506377e+000 5.261878e+000 3.967155e-001 3.075813e-001 5.322745e-001 5.248806e-001 4.751546e-001 1.124825e+000 7.997729e-001 6.912016e-001 7.211064e-001 6.129359e-001 8.343065e-001 6.520182e-001 1.039814e+000
<GCONST> 1.274265e+002
<STATE> 3
<MEAN> 39
 2.234630e+000 -6.282948e+000 -1.952893e+000 -1.051687e+001 6.747746e+000 -4.496659e+000 1.499756e-001 1.139569e+000 2.094044e+000 1.107035e+000 -7.974741e+000 -7.651216e+000 6.624212e+001 1.232949e+000 -5.103143e-001 -7.326525e-001 -1.608919e+000 7.122169e-001 1.149065e+000 4.499370e-001 -8.865092e-001 -7.518091e-001 -2.320524e-001 -5.783586e-001 -1.911101e+000 1.020797e+000 -2.387470e-001 1.725589e-001 -1.047706e-001 5.816550e-002 -1.864309e-001 3.685136e-001 9.304600e-002 -4.669547e-001 -2.006966e-001 6.082954e-002 3.812011e-001 4.566179e-001 -3.130451e-001
<VARIANCE> 39
 2.684547e+001 2.139824e+001 3.647136e+001 3.662102e+001 2.682597e+001 5.060193e+001 4.739395e+001 4.398281e+001 4.987472e+001 2.717977e+001 5.139706e+001 4.538280e+001 1.117879e+001 2.418787e+000 2.837033e+000 1.921119e+000 2.385082e+000 2.584108e+000 3.850150e+000 3.092440e+000 4.562393e+000 5.052858e+000 3.030384e+000 3.820515e+000 4.462388e+000 1.350831e+000 5.491462e-001 4.088531e-001 2.968032e-001 4.686196e-001 3.868482e-001 8.987705e-001 6.343352e-001 9.334343e-001 8.860183e-001 5.285735e-001 7.672930e-001 7.419150e-001 3.380423e-001
<GCONST> 1.242685e+002
<STATE> 4
<MEAN> 39
 5.264436e+000 -5.263488e+000 -1.865430e+000 -1.635876e+001 4.161908e+000 -3.980760e+000 1.798855e-001 -3.536733e+000 -2.783427e+000 9.244928e-002 -8.936411e+000 -5.898874e+000 6.756487e+001 -1.345407e-002 3.183249e-001 2.386866e-001 4.356342e-002 -2.745165e-001 -9.318493e-002 -4.457475e-002 -1.883241e-001 -1.673637e-001 -9.144344e-002 1.998295e-001 3.822640e-001 -2.473713e-001 -4.066961e-002 4.233638e-002 5.182292e-002 1.436774e-001 -1.865805e-002 -3.164266e-002 1.008992e-002 6.649304e-002 3.203272e-002 -2.270170e-003 3.215348e-002 2.845605e-002 -6.612418e-002
<VARIANCE> 39
 5.755981e+000 3.948784e+001 6.053959e+001 4.178975e+001 3.715476e+001 8.510670e+001 3.848333e+001 3.751595e+001 3.857071e+001 3.979712e+001 3.269450e+001 4.097009e+001 1.445740e+001 2.235411e-001 8.559493e-001 1.342381e+000 1.420546e+000 1.404155e+000 2.600965e+000 1.738172e+000 1.939481e+000 1.524846e+000 1.657554e+000 1.470479e+000 1.449962e+000 3.424384e-001 5.392764e-002 1.128174e-001 1.323102e-001 1.946021e-001 1.846693e-001 2.996201e-001 2.578993e-001 3.121097e-001 2.462082e-001 2.472528e-001 2.203326e-001 2.227772e-001 4.242975e-002
<GCONST> 9.644743e+001
<TRANSP> 5
 0.000000e+000 1.000000e+000 0.000000e+000 0.000000e+000 0.000000e+000
 0.000000e+000 7.453138e-001 2.546862e-001 0.000000e+000 0.000000e+000
 0.000000e+000 0.000000e+000 7.295399e-001 2.704601e-001 0.000000e+000
 0.000000e+000 0.000000e+000 0.000000e+000 9.359837e-001 6.401630e-002
 0.000000e+000 0.000000e+000 0.000000e+000 0.000000e+000 0.000000e+000
<ENDHMM>
~h "n"
<BEGINHMM>
<NUMSTATES> 5
<STATE> 2
<MEAN> 39
 3.997365e+000 -2.812682e+000 5.333427e+000 -7.263366e+000 -4.155621e+000 -7.570878e+000 3.451424e+000 -1.781578e+000 -5.537194e+000 -3.040695e+000 -5.758366e+000 -2.561665e+000 6.053868e+001 1.374214e-001 1.216396e+000 1.175986e+000 4.854125e-001 -4.684062e-001 -2.588618e-001 -5.609341e-001 -7.775993e-001 -6.742687e-001 1.046357e+000 -1.547239e-001 3.090653e-001 -8.148139e-001 -1.108484e-002 1.138304e-001 -1.600089e-001 9.129532e-002 2.733539e-001 1.426331e-001 -2.751723e-001 -3.680940e-001 1.708973e-001 1.918443e-001 -1.991687e-001 -1.823583e-001 -2.836582e-002
<VARIANCE> 39
 1.661658e+001 3.070659e+001 3.212572e+001 4.129737e+001 2.753378e+001 5.110771e+001 3.932048e+001 3.949684e+001 2.979405e+001 4.836649e+001 2.514917e+001 3.881814e+001 4.015187e+001 9.422916e-001 1.639818e+000 2.739451e+000 2.120471e+000 2.368468e+000 2.441264e+000 2.872668e+000 2.667388e+000 2.717849e+000 2.124758e+000 4.278222e+000 2.914298e+000 1.503294e+000 1.231431e-001 2.422771e-001 3.459781e-001 3.147157e-001 4.208594e-001 4.463333e-001 4.906994e-001 4.677308e-001 3.564938e-001 4.212832e-001 4.063761e-001 4.335312e-001 1.785122e-001
<GCONST> 1.139906e+002
<STATE> 3
<MEAN> 39
 5.480535e+000 5.827146e-001 7.576621e+000 -7.165433e+000 -3.882160e+000 -9.007043e+000 -1.468575e-001 -5.481230e+000 -7.813622e+000 5.243834e-001 -7.464525e+000 -2.982928e+000 5.965579e+001 4.554952e-002 9.088883e-001 -9.271395e-002 9.587662e-001 4.705309e-001 2.129204e-001 -4.893652e-001 -1.470584e+000 2.431797e-001 9.033166e-001 -8.170519e-001 -4.106353e-001 -7.199622e-001 -9.719176e-002 -2.046945e-001 -2.733696e-001 9.807650e-002 1.024427e-001 1.896162e-001 2.098352e-001 -8.022089e-003 3.880166e-001 -1.214198e-001 -4.946835e-002 -9.749955e-002 7.166183e-002
<VARIANCE> 39
 8.980309e+000 2.029246e+001 4.273110e+001 3.842339e+001 2.646871e+001 4.627062e+001 2.852543e+001 4.748273e+001 2.873675e+001 4.463063e+001 3.220992e+001 4.777692e+001 2.124150e+001 5.381259e-001 2.611518e+000 2.999149e+000 3.076978e+000 2.011639e+000 3.148344e+000 3.341346e+000 6.036504e+000 2.603510e+000 3.074901e+000 3.806663e+000 2.723272e+000 1.547737e+000 1.128177e-001 2.364514e-001 3.965174e-001 3.689197e-001 3.668499e-001 4.197795e-001 4.780857e-001 8.521450e-001 4.296355e-001 3.835411e-001 4.498774e-001 4.829592e-001 1.004816e-001
<GCONST> 1.144847e+002
<STATE> 4
<MEAN> 39
 5.989615e+000 3.772513e+000 6.845025e+000 -3.522824e+000 -3.125258e+000 -6.727401e+000 -1.069331e+000 -1.236436e+001 -6.702757e+000 6.500654e+000 -1.429016e+001 -5.743380e+000 5.710207e+001 -3.339622e-001 3.253484e-002 1.205358e-003 5.455006e-001 3.074729e-001 3.976510e-001 1.800053e-001 -5.395443e-002 5.325646e-001 4.407110e-002 3.090028e-002 1.426482e-001 -3.626787e-001 -1.066837e-001 -1.521756e-001 -1.478259e-001 -1.330073e-001 1.021567e-001 1.342780e-001 2.904492e-002 3.466229e-001 4.004243e-002 -1.929588e-001 3.180179e-001 6.774846e-002 5.521370e-002
<VARIANCE> 39
 7.352819e+000 8.572965e+000 1.468838e+001 3.851028e+001 2.020266e+001 3.246461e+001 3.380736e+001 3.676051e+001 2.499473e+001 4.266924e+001 5.070086e+001 2.312872e+001 1.769527e+001 4.838645e-001 7.261344e-001 1.244530e+000 1.349933e+000 1.373460e+000 2.319730e+000 1.946977e+000 2.780270e+000 1.419018e+000 2.196440e+000 3.045913e+000 1.530328e+000 4.741265e-001 9.610493e-002 1.165566e-001 1.789942e-001 2.130334e-001 2.464865e-001 2.867436e-001 3.457047e-001 4.003153e-001 2.707701e-001 3.768913e-001 3.994369e-001 2.692357e-001 5.834749e-002
<GCONST> 9.719349e+001
<TRANSP> 5
 0.000000e+000 1.000000e+000 0.000000e+000 0.000000e+000 0.000000e+000
 0.000000e+000 5.692244e-001 4.307756e-001 0.000000e+000 0.000000e+000
 0.000000e+000 0.000000e+000 5.670598e-001 4.329402e-001 0.000000e+000
 0.000000e+000 0.000000e+000 0.000000e+000 8.596117e-001 1.403883e-001
 0.000000e+000 0.000000e+000 0.000000e+000 0.000000e+000 0.000000e+000
<ENDHMM>
~h "r"
<BEGINHMM>
<NUMSTATES> 5
<STATE> 2
<MEAN> 39
 1.039332e+001 -5.665382e+000 -9.986626e-001 -1.426515e-001 -1.013478e+001 -6.360414e+000 -1.286697e+000 -9.501891e+000 -1.112439e+000 5.622652e+000 -1.143725e+000 -6.749043e+000 6.192248e+001 9.459342e-001 -5.168105e-001 -4.465135e-001 4.978580e-001 -1.077479e+000 -5.359634e-001 9.067373e-001 -6.637228e-001 -1.507201e+000 2.328546e-001 5.500016e-001 4.525718e-001 -3.223871e-001 -4.645716e-001 3.259247e-001 9.413261e-002 -5.371761e-001 7.058780e-001 5.545786e-002 -1.767446e-001 6.627085e-001 2.775083e-001 -4.204500e-001 -1.121408e-001 2.818163e-001 4.425516e-002
<VARIANCE> 39
 9.860637e+000 8.381678e+000 4.494089e+001 2.336370e+001 2.358396e+001 4.636592e+001 2.548073e+001 2.498211e+001 1.852447e+001 1.304833e+001 2.766738e+001 1.168341e+001 8.128165e+000 8.193203e-001 1.387249e+000 1.659663e+000 4.318304e+000 1.769523e+000 3.128476e+000 1.285428e+000 1.578408e+000 1.490989e+000 1.211826e+000 1.700421e+000 1.552565e+000 2.242896e-001 1.919007e-001 1.240008e-001 2.464772e-001 2.985302e-001 3.237852e-001 2.874168e-001 3.125318e-001 3.700334e-001 2.846769e-001 2.476244e-001 3.474563e-001 2.184709e-001 4.114535e-002
<GCONST> 9.514645e+001
<STATE> 3
<MEAN> 39
 1.188266e+001 -6.889870e+000 -1.182686e+000 -1.585560e+000 -1.058447e+001 -7.835916e+000 -1.933885e+000 -9.211082e+000 -2.460781e+000 5.616303e+000 -6.435114e-001 -4.819496e+000 6.207991e+001 -2.275287e-001 -1.220168e-001 9.466901e-001 -1.459747e+000 -2.446428e-001 -6.981798e-003 -2.918849e-001 6.351828e-001 1.948528e-001 -6.338083e-001 -5.305342e-001 9.814308e-001 2.364168e-001 -3.253416e-001 1.062085e-001 4.151941e-001 -3.847254e-001 2.065854e-001 -1.510196e-001 -1.881966e-001 5.184388e-001 1.849603e-001 -3.760919e-001 -1.559541e-001 1.611356e-001 1.120554e-001
<VARIANCE> 39
 5.328979e+000 1.027947e+001 2.833705e+001 2.663818e+001 1.640920e+001 5.872337e+001 3.135731e+001 2.646983e+001 1.755008e+001 1.265602e+001 2.204100e+001 1.197574e+001 5.445556e+000 3.257371e-001 9.085078e-001 9.878749e-001 1.201990e+000 7.938310e-001 1.513073e+000 9.521868e-001 1.579762e+000 1.480768e+000 1.126229e+000 1.321404e+000 1.191551e+000 3.259535e-001 3.958302e-002 6.611037e-002 1.324933e-001 1.714818e-001 1.732777e-001 2.245626e-001 2.967733e-001 2.260873e-001 3.449883e-001 1.730499e-001 2.769480e-001 2.331616e-001 2.214522e-002
<GCONST> 8.291616e+001
<STATE> 4
<MEAN> 39
 9.858504e+000 -4.380722e+000 2.586426e-001 -9.948792e+000 -1.196105e+001 -3.542776e+000 -5.873389e-001 -6.759459e+000 -1.632419e+000 -5.070017e-001 -1.711830e+000 -1.342622e+000 6.226645e+001 -7.575626e-001 7.032067e-001 1.378140e+000 -1.797165e+000 6.226573e-001 -7.575656e-001 -3.237310e-001 1.986987e+000 -7.056648e-001 -1.532556e+000 -3.756656e-002 1.070801e+000 5.613117e-003 -9.229974e-002 8.859014e-002 -5.412428e-002 2.867825e-001 1.817052e-001 -2.832867e-001 9.995106e-002 -9.338221e-003 -3.222149e-001 1.865098e-001 2.596003e-001 -2.097555e-001 -3.196133e-002
<VARIANCE> 39
 5.931760e+000 3.576297e+001 6.058613e+001 4.367673e+001 1.955150e+001 1.395892e+002 3.838874e+001 5.624979e+001 2.930770e+001 2.728695e+001 2.489384e+001 1.535863e+001 1.098615e+001 3.451436e-001 7.982716e-001 8.245239e-001 1.347346e+000 1.656146e+000 2.117276e+000 2.140131e+000 1.647152e+000 1.972805e+000 1.490213e+000 1.712909e+000 1.651122e+000 5.519363e-001 2.646242e-002 1.184790e-001 8.101299e-002 1.696466e-001 2.011992e-001 2.300882e-001 3.757374e-001 4.844192e-001 3.061035e-001 2.427665e-001 2.123022e-001 2.816153e-001 3.019568e-002
<GCONST> 9.464101e+001
<TRANSP> 5
 0.000000e+000 1.000000e+000 0.000000e+000 0.000000e+000 0.000000e+000
 0.000000e+000 5.171928e-001 4.828072e-001 0.000000e+000 0.000000e+000
 0.000000e+000 0.000000e+000 6.551625e-001 3.448375e-001 0.000000e+000
 0.000000e+000 0.000000e+000 0.000000e+000 5.942489e-001 4.057510e-001
 0.000000e+000 0.000000e+000 0.000000e+000 0.000000e+000 0.000000e+000
<ENDHMM>
~h "s"
<BEGINHMM>
<NUMSTATES> 5
<STATE> 2
<MEAN> 39
 -2.317466e+000 1.897628e+000 3.221642e-001 -2.661520e+000 4.736096e+000 -1.676352e+000 2.444275e+000 -2.455194e+000 -6.747229e-001 1.037401e+000 -2.802365e+000 -2.182121e+000 5.691115e+001 -2.264705e+000 2.078416e-001 -4.682643e-001 1.044340e+000 1.358407e+000 1.257397e-001 4.546257e-002 1.656714e+000 9.297745e-001 -3.290384e-001 1.346394e+000 5.543834e-002 3.196307e-001 -3.368838e-001 -6.526470e-002 -1.191598e-001 -9.715106e-002 -1.748331e-001 -1.817411e-001 -4.560104e-002 1.252473e-001 7.022185e-002 4.010440e-002 6.732649e-002 1.535296e-001 1.682835e-001
<VARIANCE> 39
 4.412626e+001 1.522237e+001 2.255503e+001 4.837781e+001 3.913008e+001 3.368628e+001 3.016936e+001 3.287501e+001 3.154891e+001 3.364006e+001 3.161829e+001 2.249458e+001 3.770000e+001 4.252119e+000 1.494006e+000 2.180658e+000 4.365794e+000 3.007638e+000 3.714918e+000 2.565257e+000 3.295780e+000 2.785197e+000 2.810416e+000 3.752620e+000 2.392509e+000 1.377210e+000 4.830286e-001 2.489184e-001 2.875864e-001 5.501749e-001 4.563617e-001 5.537146e-001 4.604559e-001 6.079001e-001 4.554510e-001 5.015125e-001 4.657612e-001 4.379640e-001 1.323316e-001
<GCONST> 1.179528e+002
<STATE> 3
<MEAN> 39
 -1.445225e+001 3.362698e+000 -3.432697e+000 4.546091e-001 6.940785e+000 -2.461875e+000 3.978209e+000 3.824727e+000 3.659614e+000 6.899533e-001 2.151119e+000 6.011209e-001 5.948933e+001 -5.004432e-001 1.031339e-001 -2.242431e-001 3.398776e-004 -1.780731e-001 -1.850534e-001 1.132758e-001 1.838676e-001 2.223125e-001 -3.262763e-002 5.176935e-002 2.327910e-001 8.691110e-002 4.697602e-001 -3.221076e-002 1.301845e-001 -1.536280e-001 -1.894507e-001 -7.007008e-002 -8.576941e-002 -2.433755e-001 -1.601444e-001 -3.190561e-002 -2.610829e-001 -1.200392e-001 -5.678850e-002
<VARIANCE> 39
 9.683857e+000 1.002706e+001 1.275574e+001 1.679086e+001 3.522396e+001 1.718993e+001 2.268570e+001 1.909033e+001 1.823554e+001 1.942453e+001 1.547286e+001 1.900454e+001 1.583383e+001 2.368361e+000 8.195841e-001 1.297147e+000 1.465988e+000 1.537977e+000 1.793991e+000 1.774954e+000 2.107347e+000 1.912570e+000 1.873577e+000 1.926324e+000 1.970838e+000 6.174517e-001 2.586746e-001 1.437685e-001 1.949101e-001 3.063420e-001 3.490667e-001 3.597537e-001 3.505208e-001 4.168127e-001 3.654426e-001 3.826551e-001 3.885373e-001 3.701942e-001 9.732875e-002
<GCONST> 9.783652e+001
<STATE> 4
<MEAN> 39
 -1.146081e+001 3.308620e+000 -2.904628e+000 -1.204695e+000 3.860087e+000 -4.802249e+000 1.890298e+000 2.026972e+000 2.445750e+000 -7.082430e-001 -4.557789e-001 -8.096541e-001 6.002576e+001 1.567215e+000 -3.478847e-001 4.406303e-001 -7.128245e-001 -6.041214e-001 -6.777403e-001 -3.949848e-001 -2.758545e-001 -1.777928e-001 -2.235493e-002 -9.166330e-001 -3.334770e-001 1.603732e-001 2.245391e-001 -1.951542e-001 7.364194e-002 -8.174119e-002 -3.033970e-002 3.953106e-003 3.172477e-002 7.663112e-002 4.747102e-002 1.031220e-001 -4.841520e-002 2.946545e-002 7.337436e-002
<VARIANCE> 39
 4.717720e+001 1.417283e+001 1.757269e+001 2.176307e+001 2.964370e+001 2.607549e+001 2.432562e+001 2.381478e+001 1.829605e+001 1.862854e+001 2.532698e+001 2.066569e+001 2.070203e+001 4.999000e+000 1.174369e+000 1.287063e+000 1.942729e+000 2.182997e+000 3.783124e+000 2.211729e+000 2.064921e+000 1.842121e+000 1.869402e+000 2.870770e+000 1.658273e+000 1.624068e+000 5.583227e-001 1.576943e-001 2.386138e-001 2.963473e-001 3.152316e-001 4.725609e-001 3.691067e-001 4.649205e-001 3.374102e-001 3.234607e-001 3.880036e-001 3.001391e-001 1.684619e-001
<GCONST> 1.069693e+002
<TRANSP> 5
 0.000000e+000 1.000000e+000 0.000000e+000 0.000000e+000 0.000000e+000
 0.000000e+000 6.838424e-001 3.161576e-001 0.000000e+000 0.000000e+000
 0.000000e+000 0.000000e+000 8.464904e-001 1.535096e-001 0.000000e+000
 0.000000e+000 0.000000e+000 0.000000e+000 7.145594e-001 2.854406e-001
 0.000000e+000 0.000000e+000 0.000000e+000 0.000000e+000 0.000000e+000
<ENDHMM>
~h "t"
<BEGINHMM>
<NUMSTATES> 5
<STATE> 2
<MEAN> 39
 -1.139064e+000 3.118688e-001 2.740631e+000 -1.611413e+000 1.608152e+000 -1.771255e+000 2.987221e+000 -2.387940e+000 -2.232887e-001 1.505171e-001 -4.127030e+000 8.035104e-002 5.297781e+001 -9.660665e-001 -1.310345e-001 5.308665e-002 5.938323e-001 1.205301e-001 1.237126e+000 3.372699e-002 4.805899e-002 6.017761e-001 3.335331e-001 1.082573e+000 3.816237e-001 -1.134110e+000 -2.265597e-001 -3.036064e-001 -1.278551e-001 -4.638731e-001 -7.747647e-002 -6.251904e-002 -8.648263e-002 1.887270e-001 -1.680415e-002 -1.468227e-001 1.431694e-001 2.905815e-002 5.727250e-001
<VARIANCE> 39
 2.273979e+001 1.341313e+001 1.591190e+001 2.939843e+001 1.841397e+001 5.780267e+001 3.205416e+001 3.467316e+001 2.694819e+001 2.856546e+001 3.706133e+001 1.784606e+001 5.125466e+001 2.255988e+000 3.123917e+000 1.967417e+000 4.671171e+000 2.295184e+000 3.897231e+000 3.689946e+000 3.156968e+000 2.759735e+000 2.486432e+000 2.830848e+000 1.917006e+000 4.984576e+000 4.063171e-001 2.988450e-001 3.273059e-001 6.004494e-001 4.132545e-001 9.683223e-001 7.678010e-001 6.327715e-001 4.904796e-001 4.440287e-001 5.179858e-001 3.930158e-001 9.481149e-001
<GCONST> 1.201048e+002
<STATE> 3
<MEAN> 39
 -8.817931e+000 -4.325226e+000 1.856529e+000 -7.782882e+000 7.630367e-002 7.479332e-001 8.859307e-002 1.716671e+000 2.421075e+000 -3.005987e-001 2.414805e+000 3.091525e+000 5.879265e+001 -1.922573e+000 3.192466e-001 4.190095e-001 -1.062561e+000 -1.690389e-001 -7.501331e-001 -1.030122e+000 1.683807e+000 5.233967e-001 -8.363616e-001 6.601744e-001 5.925364e-001 2.848063e+000 3.093346e-001 5.599891e-001 3.954174e-001 8.466173e-001 2.793324e-001 -9.683404e-002 2.383716e-001 -9.199036e-003 8.057672e-002 -5.510521e-002 -4.732852e-001 -1.290060e-001 -3.270913e-001
<VARIANCE> 39
 2.364947e+001 2.692188e+001 1.746890e+001 2.555611e+001 2.844113e+001 2.937115e+001 2.482609e+001 2.134811e+001 1.964513e+001 2.107806e+001 1.536633e+001 1.510086e+001 3.810699e+001 2.779364e+000 3.663365e+000 2.622343e+000 5.064440e+000 3.247155e+000 3.186145e+000 2.981951e+000 3.141515e+000 2.969332e+000 2.338028e+000 2.430198e+000 1.744813e+000 3.946138e+000 8.120679e-001 6.977476e-001 4.529612e-001 9.142211e-001 7.502432e-001 5.737908e-001 5.193518e-001 5.661476e-001 3.872140e-001 5.092670e-001 3.553320e-001 3.967780e-001 9.878531e-001
<GCONST> 1.194732e+002
<STATE> 4
<MEAN> 39
 -1.140474e+001 -9.112144e-001 5.260051e+000 -4.024611e+000 2.066451e+000 1.163505e+000 -4.933619e-001 5.209328e+000 5.208633e+000 -1.905289e+000 1.347243e+000 3.625174e+000 5.995145e+001 1.109523e+000 1.289835e-001 5.128508e-001 1.181823e+000 2.688935e-001 -7.469975e-002 -1.444126e-002 -2.463869e-001 2.451767e-001 9.831783e-002 -6.047012e-001 -3.460397e-001 -3.925178e-001 4.309243e-001 -1.295064e-001 -2.165170e-001 2.653674e-003 -1.573731e-002 2.564832e-002 2.090247e-002 -3.908997e-001 -1.703430e-001 1.564006e-001 -9.187958e-002 -2.089444e-001 -3.135003e-001
<VARIANCE> 39
 3.635271e+001 1.169954e+001 2.616401e+001 3.533743e+001 2.278034e+001 3.573288e+001 2.476988e+001 3.136989e+001 3.893361e+001 2.257097e+001 2.225340e+001 2.421656e+001 3.176599e+001 2.853069e+000 1.739115e+000 2.759632e+000 3.751736e+000 2.731122e+000 2.676368e+000 2.196440e+000 2.695738e+000 2.752312e+000 2.123012e+000 1.870373e+000 2.222488e+000 1.314666e+000 5.773610e-001 2.586065e-001 3.207052e-001 4.541560e-001 3.534254e-001 4.497304e-001 4.586597e-001 6.526950e-001 5.419670e-001 4.140278e-001 3.300567e-001 4.277862e-001 2.351202e-001
<GCONST> 1.138404e+002
<TRANSP> 5
 0.000000e+000 1.000000e+000 0.000000e+000 0.000000e+000 0.000000e+000
 0.000000e+000 8.419273e-001 1.580726e-001 0.000000e+000 0.000000e+000
 0.000000e+000 0.000000e+000 7.163548e-001 2.836452e-001 0.000000e+000
 0.000000e+000 0.000000e+000 0.000000e+000 7.878712e-001 2.121287e-001
 0.000000e+000 0.000000e+000 0.000000e+000 0.000000e+000 0.000000e+000
<ENDHMM>
~h "v"
<BEGINHMM>
<NUMSTATES> 5
<STATE> 2
<MEAN> 39
 4.489722e-001 -3.202526e+000 -1.546070e+000 -3.402582e+000 7.063717e-001 -2.331705e+000 -1.302245e+000 -1.256613e+000 1.064199e+000 1.223138e+000 -2.500402e+000 -4.766729e+000 6.060471e+001 1.181268e+000 5.080178e-001 -6.795490e-001 -1.018745e+000 -8.261134e-002 6.549492e-001 -4.720126e-001 -9.004321e-001 -3.526810e-001 3.347049e-001 -1.036500e-001 -1.203867e+000 1.103818e-001 -8.844440e-002 -1.614911e-001 -1.285621e-001 -1.582819e-001 5.086341e-002 6.673086e-002 9.874754e-002 1.374586e-002 -9.449551e-003 -7.509912e-002 -1.053982e-001 -1.120645e-001 2.403533e-001
<VARIANCE> 39
 6.981799e+001 1.876530e+001 2.782800e+001 5.125296e+001 2.832798e+001 5.892484e+001 2.242361e+001 3.029401e+001 2.034362e+001 1.971965e+001 2.210479e+001 3.823200e+001 1.781779e+001 5.836387e+000 2.012698e+000 2.447004e+000 5.435686e+000 2.385593e+000 2.547629e+000 2.075372e+000 2.745416e+000 2.005836e+000 1.933396e+000 1.985183e+000 4.077565e+000 2.111989e+000 9.854943e-001 4.033197e-001 3.267328e-001 6.734771e-001 4.154950e-001 5.090824e-001 3.968928e-001 5.456937e-001 3.870840e-001 3.582378e-001 3.446817e-001 6.844782e-001 2.109175e-001
<GCONST> 1.179675e+002
<STATE> 3
<MEAN> 39
 6.069120e+000 -3.717463e+000 -8.038695e-001 -9.687241e+000 -1.767171e+000 -5.402266e+000 -4.242546e+000 -3.928648e+000 -4.781952e-001 1.865919e+000 -4.582053e+000 -7.774754e+000 6.398562e+001 -3.797120e-001 -2.839384e-001 -2.381147e-001 -8.598719e-002 3.887680e-001 3.076989e-001 2.425763e-001 3.610943e-002 -4.988154e-002 -1.970543e-001 -3.566486e-001 -3.246020e-001 3.220490e-001 -1.564869e-001 -1.583748e-002 1.974962e-001 2.445223e-001 9.322112e-002 -1.450675e-001 1.518395e-001 1.272050e-001 -7.163909e-002 -1.235038e-001 -8.438138e-002 2.611820e-001 -1.121463e-001
<VARIANCE> 39
 1.223372e+001 1.804965e+001 6.928654e+001 3.079692e+001 1.698522e+001 8.121745e+001 1.876420e+001 2.719147e+001 3.275600e+001 2.126641e+001 1.918913e+001 5.976631e+001 1.581262e+001 6.022586e-001 1.488855e+000 8.083366e-001 1.282208e+000 1.000489e+000 1.862938e+000 1.207928e+000 2.539061e+000 1.620129e+000 1.637175e+000 1.981049e+000 1.434026e+000 9.249806e-001 1.563287e-001 1.960542e-001 1.673530e-001 3.063194e-001 1.727908e-001 3.048109e-001 2.088369e-001 3.601170e-001 2.882171e-001 2.654766e-001 3.007806e-001 2.967211e-001 1.508854e-001
<GCONST> 9.930299e+001
<STATE> 4
<MEAN> 39
 4.507889e+000 -6.865355e+000 -5.469227e+000 -7.807901e+000 2.571693e+000 -1.310577e+000 3.757709e-001 -4.379484e+000 3.656503e-002 -2.591896e+000 -7.221551e+000 -1.047785e+001 6.422056e+001 -1.335044e-002 1.655009e-001 4.349582e-001 4.444350e-001 -5.220105e-002 -2.685393e-001 9.060056e-002 -1.969782e-002 -1.505693e-001 -4.055236e-003 -5.280825e-002 2.604978e-001 -3.647185e-001 1.055024e-002 1.017888e-001 5.498408e-002 3.537520e-002 -5.119381e-002 -3.514995e-003 -1.675016e-002 -4.499543e-002 -2.822099e-002 9.840018e-002 2.226735e-002 4.567327e-002 -7.529248e-002
<VARIANCE> 39
 1.192012e+001 2.285673e+001 3.271105e+001 3.067632e+001 2.298303e+001 3.878404e+001 1.922429e+001 1.908666e+001 1.858016e+001 2.992895e+001 1.928865e+001 2.882106e+001 2.258961e+001 4.950373e-001 8.539108e-001 4.694276e-001 6.592182e-001 1.084399e+000 1.114105e+000 1.061078e+000 1.176997e+000 1.302678e+000 1.645321e+000 9.971712e-001 8.910803e-001 4.530855e-001 8.684375e-002 9.566440e-002 7.955293e-002 1.094348e-001 1.399870e-001 1.630469e-001 1.626774e-001 2.292473e-001 1.745564e-001 2.297575e-001 1.512907e-001 1.617678e-001 5.785199e-002
<GCONST> 8.450329e+001
<TRANSP> 5
 0.000000e+000 1.000000e+000 0.000000e+000 0.000000e+000 0.000000e+000
 0.000000e+000 7.541395e-001 2.458604e-001 0.000000e+000 0.000000e+000
 0.000000e+000 0.000000e+000 7.170461e-001 2.829539e-001 0.000000e+000
 0.000000e+000 0.000000e+000 0.000000e+000 8.942846e-001 1.057154e-001
 0.000000e+000 0.000000e+000 0.000000e+000 0.000000e+000 0.000000e+000
<ENDHMM>
~h "w"
<BEGINHMM>
<NUMSTATES> 5
<STATE> 2
<MEAN> 39
 3.847397e+000 5.050033e-001 1.673875e+000 -4.851012e+000 -2.374685e+000 -1.389291e+000 3.161085e-002 -3.095923e+000 -7.671008e-001 1.081568e+000 -2.972848e+000 -1.958985e+000 5.544915e+001 1.333660e+000 8.033080e-001 -8.391522e-001 -1.660442e+000 -7.873897e-001 5.782823e-001 -5.074322e-001 -8.369505e-001 -8.702675e-001 -2.884449e-001 1.832965e-001 -4.665082e-001 3.434317e-001 6.245592e-002 9.586304e-002 -8.640172e-002 -4.431741e-001 -2.108645e-001 8.852576e-002 4.258480e-002 -2.477102e-003 -2.068279e-001 -1.631778e-001 1.822021e-001 -7.704866e-003 1.899406e-001
<VARIANCE> 39
 2.774614e+001 2.766556e+001 2.704523e+001 5.535393e+001 4.477716e+001 7.756698e+001 3.046825e+001 3.157829e+001 5.176555e+001 3.245262e+001 2.919579e+001 2.176802e+001 5.293084e+001 2.510331e+000 1.781757e+000 2.293686e+000 5.276548e+000 4.607974e+000 3.580037e+000 3.084335e+000 3.507281e+000 3.446667e+000 4.177020e+000 2.845312e+000 1.999855e+000 2.381555e+000 3.516383e-001 2.819042e-001 3.210961e-001 7.051736e-001 6.610941e-001 4.347360e-001 6.053977e-001 5.122370e-001 5.931299e-001 7.183288e-001 5.008590e-001 3.620420e-001 2.140034e-001
<GCONST> 1.226363e+002
<STATE> 3
<MEAN> 39
 9.433848e+000 3.472967e+000 -1.329941e+000 -1.293117e+001 -6.762647e+000 -2.885813e-001 -2.057446e+000 -7.593211e+000 -5.594173e+000 -1.779282e-001 -1.770990e+000 -4.455576e+000 5.896840e+001 4.627659e-001 4.309879e-001 -5.611256e-001 -1.527603e+000 -5.290325e-001 9.487485e-001 2.207812e-001 3.875423e-002 -7.906979e-001 -8.650630e-001 6.051937e-001 -1.075650e-001 2.789009e-001 -2.653062e-001 -3.008918e-001 1.435250e-001 2.467950e-001 2.183503e-001 -1.394858e-001 5.222273e-002 3.561324e-001 2.602183e-001 -3.828672e-005 -1.207856e-001 -8.145990e-002 6.835034e-002
<VARIANCE> 39
 5.122457e+000 2.714960e+001 1.744799e+001 4.862215e+001 2.413695e+001 2.345461e+001 1.984766e+001 2.664683e+001 2.923854e+001 3.268636e+001 2.840988e+001 3.678202e+001 1.958655e+001 6.239439e-001 1.808018e+000 1.382976e+000 2.587318e+000 1.827450e+000 2.533109e+000 2.513859e+000 2.668033e+000 2.441326e+000 3.103521e+000 3.080286e+000 2.382860e+000 1.510223e+000 1.751056e-001 1.861053e-001 2.489736e-001 3.762316e-001 4.330716e-001 4.104320e-001 4.199910e-001 4.899125e-001 4.162013e-001 5.843576e-001 5.552673e-001 4.821582e-001 1.198230e-001
<GCONST> 1.080621e+002
<STATE> 4
<MEAN> 39
 1.023609e+001 5.552344e+000 -3.002867e+000 -1.865313e+001 -8.455732e+000 3.027369e+000 -3.350237e-001 -4.118185e+000 -4.328025e+000 -6.107453e+000 -5.369152e-002 -5.160970e+000 5.922719e+001 -4.913465e-002 -3.759016e-001 -4.861809e-001 -5.339855e-001 1.507444e-001 4.834535e-001 -1.240053e-001 5.039780e-002 3.515262e-001 -1.729128e-003 4.715782e-001 -4.833461e-001 4.606929e-001 -1.308960e-001 -1.690716e-001 -5.430656e-002 1.451961e-001 2.083821e-001 1.641822e-002 -5.169585e-002 -1.049585e-001 1.237625e-001 1.767550e-001 -8.264581e-002 -1.428253e-001 8.877910e-002
<VARIANCE> 39
 4.630353e+000 8.314224e+000 1.742021e+001 4.986588e+001 1.594053e+001 1.958463e+001 2.053240e+001 2.085298e+001 2.292237e+001 2.131441e+001 2.699745e+001 1.721731e+001 1.606181e+001 2.999983e-001 9.311461e-001 9.746900e-001 1.230091e+000 1.063153e+000 1.259631e+000 1.042371e+000 1.208079e+000 1.019456e+000 1.500302e+000 1.804457e+000 1.580119e+000 7.633269e-001 5.143641e-002 5.915595e-002 8.221634e-002 2.062148e-001 1.358029e-001 1.743422e-001 1.683307e-001 1.875063e-001 1.794544e-001 2.043759e-001 3.788844e-001 2.562893e-001 4.318222e-002
<GCONST> 8.378763e+001
<TRANSP> 5
 0.000000e+000 1.000000e+000 0.000000e+000 0.000000e+000 0.000000e+000
 0.000000e+000 7.226524e-001 2.773476e-001 0.000000e+000 0.000000e+000
 0.000000e+000 0.000000e+000 6.782962e-001 3.217038e-001 0.000000e+000
 0.000000e+000 0.000000e+000 0.000000e+000 8.470685e-001 1.529315e-001
 0.000000e+000 0.000000e+000 0.000000e+000 0.000000e+000 0.000000e+000
<ENDHMM>
~h "y"
<BEGINHMM>
<NUMSTATES> 5
<STATE> 2
<MEAN> 39
 3.447769e-001 2.069345e+000 1.366563e+001 -4.554657e+000 -1.373810e+000 -9.357249e+000 -6.042331e+000 -6.127916e+000 -8.014297e+000 -1.500117e-002 -3.468529e+000 1.777032e-001 6.192999e+001 -3.164786e-001 4.185114e-001 2.228275e+000 -6.282695e-001 -3.228554e-001 -5.654904e-001 -2.509695e-002 2.590159e-001 -1.107793e+000 -8.954073e-001 -2.419056e-001 9.040598e-001 1.004704e-001 3.310978e-003 9.993324e-002 -4.228001e-003 -2.186832e-001 6.333154e-002 9.012911e-002 -4.804395e-002 6.371783e-002 1.248543e-002 -1.403537e-001 -5.631344e-002 1.017637e-001 -3.272521e-002
<VARIANCE> 39
 1.874944e+001 2.226270e+001 5.809115e+001 3.181557e+001 2.594728e+001 3.288877e+001 2.187511e+001 1.818146e+001 4.938480e+001 4.488606e+001 2.282520e+001 1.692923e+001 1.563759e+001 1.039694e+000 1.551735e+000 2.728961e+000 2.546290e+000 2.283659e+000 2.673410e+000 2.114347e+000 2.164927e+000 2.630728e+000 2.373759e+000 2.329204e+000 1.947138e+000 4.585844e-001 1.583516e-001 3.394233e-001 6.659533e-001 3.505785e-001 5.396743e-001 5.728374e-001 4.837682e-001 3.917184e-001 6.324611e-001 4.392179e-001 3.810610e-001 3.042724e-001 9.054171e-002
<GCONST> 1.096368e+002
<STATE> 3
<MEAN> 39
 -7.909705e-002 2.240568e+000 2.019677e+001 -1.078191e+001 -3.699876e+000 -1.369657e+001 -8.480949e+000 -2.314640e+000 -8.992634e+000 -4.967404e+000 -4.980917e+000 6.792503e+000 6.428452e+001 3.316455e-001 -9.406580e-001 -1.249362e+000 -5.860478e-001 -4.871455e-001 -7.070213e-001 1.387096e-002 9.728416e-001 1.112121e+000 2.447728e-001 -2.962309e-001 7.769459e-002 6.191314e-001 9.867460e-002 -2.197514e-001 -4.676742e-001 2.366971e-002 7.427038e-002 7.459673e-002 1.930622e-001 1.124471e-001 1.647595e-001 1.816043e-001 -1.901069e-001 -3.364498e-001 5.790168e-002
<VARIANCE> 39
 3.972575e+000 2.217804e+001 2.145385e+001 1.141056e+001 2.097663e+001 2.180439e+001 1.173857e+001 1.540245e+001 3.344092e+001 1.880409e+001 1.256455e+001 1.460497e+001 1.357514e+001 4.055644e-001 1.736414e+000 2.819747e+000 6.511310e-001 1.759006e+000 1.208085e+000 1.321059e+000 1.822928e+000 2.066229e+000 1.844835e+000 1.319826e+000 1.984386e+000 5.399100e-001 4.171937e-002 1.342097e-001 1.473354e-001 1.417962e-001 4.247539e-001 2.794860e-001 1.971064e-001 3.162836e-001 3.615554e-001 2.614114e-001 2.823918e-001 3.849657e-001 6.663425e-002
<GCONST> 8.957129e+001
<STATE> 4
<MEAN> 39
 4.003121e+000 -8.768148e+000 1.352736e+000 -1.630722e+001 -2.134680e+000 -1.409006e+001 -3.595487e+000 5.613045e+000 -4.275036e-001 -8.101311e-001 -1.445065e+001 -1.601154e+000 6.959553e+001 3.447217e-001 -9.293018e-001 -2.894154e+000 -4.756871e-001 2.508582e+000 1.928927e+000 1.138475e+000 -1.157435e+000 3.721187e-001 -1.056228e-001 -1.549199e+000 -2.387554e+000 2.682344e-001 -1.358731e-001 3.281356e-001 3.663629e-001 1.627769e-001 3.054734e-001 2.985446e-001 -1.292522e-001 -1.051499e+000 -3.116349e-001 -1.970192e-001 5.985318e-001 2.725595e-001 -1.133681e-001
<VARIANCE> 39
 1.840601e+000 7.229684e+000 2.253487e+001 1.590477e+001 2.545152e+001 1.848128e+001 1.332448e+001 1.575377e+001 1.611040e+001 1.417461e+001 2.824435e+001 2.797649e+001 3.723837e+000 1.723058e-001 4.493600e-001 9.383923e-001 7.165024e-001 8.695545e-001 1.248570e+000 1.005842e+000 4.793725e+000 1.591010e+000 1.340716e+000 3.072083e+000 2.056279e+000 1.187774e-001 1.657639e-002 4.154922e-002 8.425726e-002 1.010807e-001 2.898913e-001 2.598135e-001 1.436500e-001 3.518119e-001 2.709543e-001 2.202867e-001 4.874037e-001 3.736305e-001 1.240273e-002
<GCONST> 7.770657e+001
<TRANSP> 5
 0.000000e+000 1.000000e+000 0.000000e+000 0.000000e+000 0.000000e+000
 0.000000e+000 8.703722e-001 1.296278e-001 0.000000e+000 0.000000e+000
 0.000000e+000 0.000000e+000 9.006300e-001 9.937005e-002 0.000000e+000
 0.000000e+000 0.000000e+000 0.000000e+000 7.883948e-001 2.116052e-001
 0.000000e+000 0.000000e+000 0.000000e+000 0.000000e+000 0.000000e+000
<ENDHMM>
~h "z"
<BEGINHMM>
<NUMSTATES> 5
<STATE> 2
<MEAN> 39
 2.208621e+000 3.943677e+000 4.223863e+000 -2.899288e+000 2.482888e+000 -8.027461e+000 -1.617923e+000 -6.007401e+000 -3.329104e+000 1.949122e+000 -4.010411e+000 -2.574793e+000 5.706383e+001 -8.627051e-001 1.207540e+000 3.080253e-002 1.124041e+000 7.313042e-001 -3.688642e-001 -3.897629e-001 -2.031912e-001 3.617004e-001 -3.969977e-001 2.597485e-001 -2.435313e-001 8.766061e-002 -3.446925e-001 3.801423e-002 -1.416815e-001 -1.862246e-002 -3.610851e-002 3.268412e-001 2.673544e-001 2.036303e-001 9.217877e-002 -1.942688e-001 9.824343e-002 1.205268e-001 -2.163082e-002
<VARIANCE> 39
 1.814358e+001 1.307463e+001 2.636294e+001 5.628177e+001 2.616388e+001 4.057086e+001 3.519850e+001 2.252131e+001 3.540543e+001 3.470819e+001 2.642168e+001 1.939186e+001 2.644016e+001 2.727216e+000 1.381334e+000 1.914988e+000 2.651197e+000 1.925685e+000 3.974227e+000 2.277021e+000 2.293323e+000 2.211874e+000 2.513382e+000 1.809569e+000 1.432450e+000 1.647490e+000 2.396779e-001 2.421626e-001 2.448712e-001 2.568891e-001 2.534914e-001 4.336099e-001 3.403692e-001 3.652093e-001 3.332989e-001 3.923741e-001 3.120626e-001 2.825056e-001 1.140139e-001
<GCONST> 1.079853e+002
<STATE> 3
<MEAN> 39
 -3.632273e+000 7.650128e+000 2.954715e+000 1.683485e+000 3.878765e+000 -7.021204e+000 3.006653e-001 -4.941549e+000 -1.410204e+000 -1.573416e+000 -2.819069e+000 -1.567519e+000 5.715038e+001 -1.259049e+000 3.950146e-001 -3.009079e-001 4.698773e-001 3.546310e-001 5.794239e-001 6.916915e-001 4.988215e-001 5.531343e-001 -4.633640e-001 1.645352e-001 2.327469e-001 -5.974779e-002 2.928568e-001 -2.679535e-001 1.070101e-001 -2.951892e-001 -2.057097e-001 -2.740371e-001 1.945178e-002 8.292395e-002 -6.900686e-002 1.026274e-001 -3.589988e-002 -2.665228e-003 1.354854e-001
<VARIANCE> 39
 1.791456e+001 1.329113e+001 1.273462e+001 1.690505e+001 2.785734e+001 3.620593e+001 2.116123e+001 1.504266e+001 2.071453e+001 1.912586e+001 1.674001e+001 1.344930e+001 1.422777e+001 1.404148e+000 7.898382e-001 1.327897e+000 1.450313e+000 1.133705e+000 2.473236e+000 1.816969e+000 1.890853e+000 1.623446e+000 1.737541e+000 1.344882e+000 9.821752e-001 5.021093e-001 1.604476e-001 1.336555e-001 1.572764e-001 2.011498e-001 2.229861e-001 4.006805e-001 3.083300e-001 2.597356e-001 2.641395e-001 2.950223e-001 2.522821e-001 1.846474e-001 7.635706e-002
<GCONST> 9.247906e+001
<STATE> 4
<MEAN> 39
 -5.677582e+000 4.974631e+000 6.287883e-001 8.761774e-001 4.378883e+000 -3.213630e+000 3.607340e+000 -8.255374e-001 1.792656e+000 2.258511e-001 -9.962248e-001 -8.579977e-001 5.561805e+001 -3.706550e-002 -1.271008e-001 1.257279e-001 -2.810815e-001 -2.740696e-001 -7.593010e-001 8.383008e-002 3.597823e-001 2.723377e-002 -1.345253e-001 9.283212e-002 8.003640e-002 3.239195e-001 4.360993e-001 -1.365304e-001 2.681953e-001 -6.718518e-002 -2.258997e-001 -4.298182e-001 -2.962652e-001 -1.649957e-001 -2.733504e-001 1.740510e-002 -1.448539e-001 -5.409867e-002 1.323918e-001
<VARIANCE> 39
 2.765380e+001 4.406853e+001 1.469725e+001 1.500251e+001 2.556601e+001 6.037960e+001 3.069626e+001 2.471691e+001 2.145031e+001 2.767066e+001 2.080319e+001 2.126882e+001 2.224310e+001 9.143934e-001 7.999776e-001 9.134257e-001 7.241784e-001 1.155487e+000 2.064073e+000 1.882174e+000 1.870479e+000 1.840030e+000 1.243460e+000 1.315696e+000 1.456608e+000 3.135926e-001 2.008510e-001 1.748606e-001 1.713518e-001 2.073123e-001 2.960727e-001 4.888344e-001 3.989542e-001 3.914095e-001 3.285446e-001 3.621088e-001 2.454852e-001 2.827049e-001 5.990547e-002
<GCONST> 9.736494e+001
<TRANSP> 5
 0.000000e+000 1.000000e+000 0.000000e+000 0.000000e+000 0.000000e+000
 0.000000e+000 7.463640e-001 2.536360e-001 0.000000e+000 0.000000e+000
 0.000000e+000 0.000000e+000 7.147030e-001 2.852971e-001 0.000000e+000
 0.000000e+000 0.000000e+000 0.000000e+000 6.397725e-001 3.602276e-001
 0.000000e+000 0.000000e+000 0.000000e+000 0.000000e+000 0.000000e+000
<ENDHMM>
~h "ah"
<BEGINHMM>
<NUMSTATES> 5
<STATE> 2
<MEAN> 39
 6.365255e+000 -4.444016e+000 -9.465697e+000 -1.871543e+001 5.852459e-001 6.983599e+000 -1.833685e+000 -6.719819e+000 3.219119e-002 -8.529891e-001 -1.524407e+000 -1.349449e+001 6.671813e+001 -7.664853e-001 -1.280208e+000 -3.305084e-001 9.290687e-001 1.563428e+000 -5.337234e-001 2.933957e-002 5.418342e-003 6.674786e-001 2.080967e-001 -1.705123e+000 -9.819922e-001 6.942849e-001 6.040326e-002 1.488012e-001 3.002199e-001 2.521041e-001 -1.786533e-001 -4.378358e-001 1.772522e-001 1.529086e-001 -1.216390e-001 -3.022911e-001 -2.269481e-001 4.274965e-001 -2.110700e-001
<VARIANCE> 39
 5.582043e+000 1.437227e+001 1.197212e+001 1.749520e+001 2.339068e+001 2.722639e+001 9.240383e+000 1.595266e+001 1.514797e+001 2.601342e+001 4.618032e+001 2.155016e+001 8.933785e+000 2.717819e-001 5.853608e-001 7.336880e-001 6.953198e-001 6.996441e-001 2.008705e+000 6.863391e-001 1.425131e+000 1.030735e+000 1.763970e+000 1.890812e+000 1.856061e+000 3.975649e-001 4.471377e-002 5.441078e-002 8.220403e-002 1.240518e-001 1.345951e-001 1.798224e-001 1.270169e-001 1.444709e-001 1.518613e-001 3.140508e-001 4.621176e-001 2.325931e-001 3.029023e-002
<GCONST> 7.956934e+001
<STATE> 3
<MEAN> 39
 3.957451e+000 -9.554760e+000 -4.613835e+000 -1.075372e+001 3.482204e+000 -3.920018e+000 2.247720e+000 -2.812500e+000 -9.343794e-002 -6.150544e+000 -1.032575e+001 -9.422755e+000 6.727585e+001 -3.605776e-002 -4.073182e-002 1.368189e+000 7.463688e-001 -7.390584e-001 -1.441996e+000 8.074582e-001 6.152237e-001 -6.422978e-001 -8.642566e-001 1.067644e-001 1.315759e+000 -3.322770e-001 6.270710e-002 2.568831e-001 1.848549e-001 -1.070077e-001 -2.563283e-001 1.309525e-001 -7.966340e-002 -1.073364e-002 -1.883923e-001 1.875141e-001 3.326175e-001 9.154514e-002 -1.387420e-001
<VARIANCE> 39
 3.504770e+000 8.755061e+000 3.211612e+001 1.585505e+001 1.795900e+001 3.195012e+001 1.357661e+001 1.954369e+001 1.774576e+001 1.814756e+001 1.592287e+001 2.804781e+001 1.012737e+001 2.391850e-001 6.926151e-001 1.165663e+000 4.938883e-001 1.387163e+000 1.409930e+000 9.668459e-001 1.124657e+000 1.057768e+000 1.591205e+000 1.477270e+000 1.362757e+000 2.215430e-001 4.462571e-002 8.597839e-002 9.356272e-002 6.815363e-002 1.377888e-001 1.495126e-001 1.861703e-001 1.588302e-001 1.712336e-001 2.704563e-001 1.742413e-001 2.374487e-001 2.767541e-002
<GCONST> 7.771016e+001
<STATE> 4
<MEAN> 39
 2.982135e+000 -5.357667e+000 3.018126e+000 -5.152844e+000 -1.643541e+000 -5.438790e+000 4.175009e+000 -6.953816e-001 -3.163685e+000 -6.337391e+000 -6.226973e+000 -4.618317e+000 6.108761e+001 -5.193393e-002 8.812391e-001 8.985324e-001 3.329493e-001 -5.601141e-001 4.748885e-002 -2.133238e-003 -2.639409e-001 -6.101090e-001 5.843914e-001 7.278489e-001 5.707206e-001 -7.500899e-001 3.170083e-002 1.751928e-001 -1.374815e-001 2.621822e-002 1.560089e-001 1.376179e-001 -2.947258e-001 -1.909981e-001 1.888335e-002 2.420043e-001 -5.989095e-002 -2.230912e-001 -9.216007e-002
<VARIANCE> 39
 6.316285e+000 1.906792e+001 3.170772e+001 4.215604e+001 3.263694e+001 3.923956e+001 1.602655e+001 2.526276e+001 2.743283e+001 3.398893e+001 1.664887e+001 2.988305e+001 4.409935e+001 2.981789e-001 1.134856e+000 2.210347e+000 6.379380e-001 2.074118e+000 1.379274e+000 1.065942e+000 1.633563e+000 2.031571e+000 1.518486e+000 1.321223e+000 2.034232e+000 3.290136e-001 5.564448e-002 1.283079e-001 1.381865e-001 1.036738e-001 3.097375e-001 2.772270e-001 3.007525e-001 3.410937e-001 2.772963e-001 3.490473e-001 1.469899e-001 3.631125e-001 5.618109e-002
<GCONST> 9.346359e+001
<TRANSP> 5
 0.000000e+000 1.000000e+000 0.000000e+000 0.000000e+000 0.000000e+000
 0.000000e+000 8.073273e-001 1.926727e-001 0.000000e+000 0.000000e+000
 0.000000e+000 0.000000e+000 8.500674e-001 1.499325e-001 0.000000e+000
 0.000000e+000 0.000000e+000 0.000000e+000 4.922475e-001 5.077525e-001
 0.000000e+000 0.000000e+000 0.000000e+000 0.000000e+000 0.000000e+000
<ENDHMM>
~h "ao"
<BEGINHMM>
<NUMSTATES> 5
<STATE> 2
<MEAN> 39
 5.886652e+000 1.567566e+000 -9.125419e+000 -2.059937e+001 -2.046938e+000 8.275341e+000 3.429582e-001 -3.566825e+000 -2.072397e+000 -1.492674e+000 -8.159116e-001 -4.798019e+000 6.198074e+001 -4.089531e-001 5.594047e-002 -4.131679e-001 -1.328052e+000 1.007658e-002 7.598331e-001 5.441270e-001 3.544185e-001 3.003861e-002 -1.327774e+000 1.100074e-001 -1.212242e-001 4.105820e-001 -3.445108e-001 -1.192345e-001 4.063822e-001 7.747492e-001 3.128368e-001 -3.429247e-001 1.754841e-001 1.887862e-001 1.387920e-001 -1.120295e-001 -1.192082e-001 1.736747e-001 -2.226654e-001
<VARIANCE> 39
 1.904241e+001 1.200572e+001 2.802805e+001 1.002322e+002 3.352961e+001 1.760982e+001 1.857635e+001 1.975161e+001 2.267968e+001 3.523321e+001 1.884921e+001 2.614423e+001 5.014807e+001 3.590967e-001 4.525081e-001 6.769894e-001 1.386754e+000 9.556169e-001 8.993244e-001 1.003171e+000 1.143503e+000 1.098451e+000 1.419265e+000 1.120026e+000 9.441702e-001 2.999282e-001 2.679758e-001 1.884516e-001 1.693718e-001 4.588504e-001 2.308084e-001 1.625240e-001 2.185178e-001 2.416706e-001 2.385881e-001 2.769018e-001 2.408307e-001 2.450906e-001 6.294497e-002
<GCONST> 9.145872e+001
<STATE> 3
<MEAN> 39
 6.065371e+000 3.492445e+000 -1.060928e+001 -2.698695e+001 -1.743947e+000 9.068785e+000 2.812725e+000 -1.230143e+000 -2.138034e+000 -8.616148e+000 -1.029430e+000 -5.051776e+000 6.314005e+001 5.110409e-002 2.832882e-001 1.862761e-001 -1.521588e-001 -2.649759e-001 -5.390355e-002 8.528548e-002 3.832970e-001 -1.983169e-002 -4.348664e-001 6.009839e-002 1.431404e-002 -2.439494e-001 3.996450e-002 -1.310547e-003 6.441548e-002 8.494393e-002 -2.453982e-002 -8.868273e-002 -4.864682e-002 -1.284428e-002 -2.721934e-002 1.307836e-001 -3.325720e-002 -1.660440e-003 -3.564903e-002
<VARIANCE> 39
 6.383081e+000 1.301380e+001 1.445784e+001 4.099593e+001 4.795937e+001 1.674877e+001 1.592412e+001 3.297340e+001 1.689482e+001 3.123930e+001 1.226572e+001 2.097225e+001 1.820581e+001 1.588567e-001 2.492766e-001 3.912556e-001 4.941787e-001 5.053682e-001 5.934602e-001 5.733972e-001 6.295294e-001 5.977334e-001 8.031450e-001 5.726138e-001 6.584025e-001 1.210681e-001 2.864141e-002 4.244895e-002 5.563064e-002 7.304028e-002 8.146579e-002 9.511277e-002 9.671945e-002 1.066987e-001 1.014001e-001 1.229342e-001 9.428725e-002 9.197112e-002 2.438926e-002
<GCONST> 6.473994e+001
<STATE> 4
<MEAN> 39
 7.837422e+000 6.157154e+000 -4.148516e+000 -2.133972e+001 -5.699989e+000 4.693679e+000 2.583237e+000 1.770589e+000 -3.777933e+000 -6.563224e+000 -2.819236e+000 -5.322802e+000 5.746355e+001 -9.448212e-002 -6.082933e-002 6.796794e-001 1.538507e+000 4.015158e-001 -5.219001e-001 2.104412e-001 -2.978222e-001 -6.076952e-002 8.196508e-001 -3.176666e-001 1.026011e-001 -5.981563e-001 -1.304055e-001 -1.005885e-001 -2.348458e-002 1.799032e-001 1.487095e-001 3.096574e-002 -7.301598e-003 -8.906925e-002 1.262204e-001 9.916002e-002 2.009280e-002 5.205435e-002 2.615745e-002
<VARIANCE> 39
 1.100838e+001 7.617273e+000 1.588450e+001 8.783161e+001 3.039003e+001 2.480247e+001 2.671369e+001 2.021296e+001 2.905220e+001 2.375694e+001 1.860008e+001 2.664986e+001 2.247073e+001 5.626636e-001 4.402351e-001 7.189729e-001 2.940208e+000 1.574523e+000 1.331484e+000 1.324993e+000 1.568459e+000 1.582402e+000 1.392883e+000 1.385891e+000 1.383450e+000 4.923819e-001 6.868552e-002 6.476319e-002 1.267812e-001 3.611894e-001 1.828401e-001 2.243181e-001 2.688751e-001 2.481257e-001 2.206127e-001 2.132571e-001 2.753283e-001 2.377885e-001 9.066088e-002
<GCONST> 9.109282e+001
<TRANSP> 5
 0.000000e+000 1.000000e+000 0.000000e+000 0.000000e+000 0.000000e+000
 0.000000e+000 4.817661e-001 5.182339e-001 0.000000e+000 0.000000e+000
 0.000000e+000 0.000000e+000 9.032016e-001 9.679836e-002 0.000000e+000
 0.000000e+000 0.000000e+000 0.000000e+000 8.689703e-001 1.310297e-001
 0.000000e+000 0.000000e+000 0.000000e+000 0.000000e+000 0.000000e+000
<ENDHMM>
~h "ax"
<BEGINHMM>
<NUMSTATES> 5
<STATE> 2
<MEAN> 39
 -3.573312e+000 -3.779335e+000 9.582906e-001 6.820888e-002 2.417749e+000 7.694016e-001 4.466890e+000 3.465299e-002 3.454751e+000 2.570110e+000 -1.341772e-001 1.678170e+000 4.931977e+001 7.881267e-002 1.482014e-001 -7.295866e-002 1.148865e-001 -2.658948e-002 2.495659e-001 1.179539e-001 -1.683351e-001 6.697104e-002 7.316056e-002 -2.146032e-002 -4.960443e-002 -1.955002e-001 -3.954489e-003 -6.406614e-003 4.451235e-003 -2.270271e-002 2.733731e-002 -5.924710e-003 -2.927338e-002 -5.802309e-003 -1.537482e-002 -1.568507e-002 -1.507025e-002 7.292436e-003 1.625797e-002
<VARIANCE> 39
 7.547186e+000 1.165208e+001 8.076698e+000 1.099271e+001 1.375289e+001 2.526101e+001 1.769587e+001 2.864375e+001 2.037887e+001 2.068815e+001 1.975150e+001 1.929721e+001 1.483266e+001 2.107911e-001 4.054595e-001 4.592558e-001 6.326768e-001 9.211098e-001 1.210015e+000 1.119375e+000 1.534915e+000 1.435213e+000 1.489680e+000 1.207301e+000 1.225713e+000 1.871062e-001 3.501146e-002 6.565502e-002 9.316116e-002 1.254872e-001 1.650491e-001 2.266526e-001 2.011246e-001 3.056310e-001 2.817115e-001 3.064607e-001 2.295231e-001 2.558365e-001 2.255377e-002
<GCONST> 7.815697e+001
<STATE> 3
<MEAN> 39
 -1.061489e+000 -1.468184e+000 -1.002596e+000 -2.560469e-001 3.052953e+000 4.378304e+000 5.638079e+000 -4.852617e+000 2.794924e+000 1.930598e+000 -2.366600e+000 -1.777774e+000 5.014315e+001 -3.290698e-001 -6.854151e-003 -9.301697e-002 3.029101e-002 1.204918e-001 2.428842e-001 8.437536e-002 -1.394387e-001 2.538170e-001 1.331887e-001 6.172147e-001 4.234306e-001 -2.749341e-001 1.312592e-002 -1.416761e-001 -5.671709e-002 -4.255084e-001 -8.701359e-002 -4.404740e-001 -2.263004e-001 2.157194e-001 -1.452002e-001 -4.822837e-002 -1.872070e-002 8.461979e-002 4.557615e-001
<VARIANCE> 39
 1.769344e+001 9.171245e+000 3.225448e+001 2.347968e+001 2.018376e+001 3.692382e+001 1.789450e+001 2.073474e+001 2.445541e+001 2.174166e+001 2.024063e+001 4.064473e+001 3.663395e+001 5.938416e-001 3.608209e-001 4.216695e-001 7.475349e-001 8.899514e-001 1.402511e+000 1.205184e+000 1.282582e+000 1.917689e+000 2.319686e+000 1.997542e+000 1.730395e+000 3.229063e-001 1.562184e-001 8.785442e-002 1.412962e-001 1.991284e-001 1.921868e-001 2.880986e-001 2.198945e-001 3.246373e-001 3.248226e-001 3.935381e-001 3.004335e-001 2.037990e-001 1.311904e-001
<GCONST> 9.180653e+001
<STATE> 4
<MEAN> 39
 2.507874e+000 -1.416160e+000 -6.280264e+000 -5.968330e+000 2.022895e+000 4.788442e+000 4.283289e+000 -7.743727e+000 3.875854e+000 -1.313908e+000 -5.781750e-001 -9.848978e+000 5.645170e+001 -7.561185e-002 4.483952e-002 2.787575e-001 1.142515e-001 1.626636e-001 3.491619e-002 4.996691e-002 1.180554e-001 -2.829839e-001 -1.045493e-001 -3.537862e-002 4.129839e-001 -1.215819e-001 3.578978e-003 -9.187818e-002 -3.241255e-002 -1.814486e-001 1.907943e-002 -2.800172e-001 -1.291607e-001 2.334415e-001 -3.542348e-002 -3.082654e-003 -1.381187e-001 1.266119e-003 3.303117e-001
<VARIANCE> 39
 1.741573e+001 9.154330e+000 4.070885e+001 3.988434e+001 1.464957e+001 1.696943e+001 1.400354e+001 2.019610e+001 2.212011e+001 2.573649e+001 2.374691e+001 7.752297e+001 4.830212e+001 3.432805e-001 4.447533e-001 6.648887e-001 1.185949e+000 6.987439e-001 1.029240e+000 8.559882e-001 1.081224e+000 6.436436e-001 1.090717e+000 1.230041e+000 7.399221e-001 6.188396e-001 7.888988e-002 7.792991e-002 1.018658e-001 2.658093e-001 1.546839e-001 3.103576e-001 1.664318e-001 2.896703e-001 2.537786e-001 2.452873e-001 2.553052e-001 1.770913e-001 3.447386e-001
<GCONST> 8.788255e+001
<TRANSP> 5
 0.000000e+000 1.000000e+000 0.000000e+000 0.000000e+000 0.000000e+000
 0.000000e+000 9.260125e-001 7.398749e-002 0.000000e+000 0.000000e+000
 0.000000e+000 0.000000e+000 2.447319e-001 7.552681e-001 0.000000e+000
 0.000000e+000 0.000000e+000 0.000000e+000 6.408458e-001 3.591541e-001
 0.000000e+000 0.000000e+000 0.000000e+000 0.000000e+000 0.000000e+000
<ENDHMM>
~h "ay"
<BEGINHMM>
<NUMSTATES> 5
<STATE> 2
<MEAN> 39
 -3.060482e+000 -2.101293e+000 1.985114e+000 -2.538554e-001 2.230410e+000 6.475212e-001 2.724827e+000 -3.294820e+000 3.376683e-001 1.444801e+000 -3.175508e+000 -7.878642e-001 5.275218e+001 -1.099032e-001 -3.780943e-001 -2.816052e-001 -2.030324e-001 2.162811e-001 2.952387e-002 2.893919e-003 1.814872e-001 3.016266e-002 -4.071187e-001 -1.629843e-001 -7.903286e-002 2.316246e-001 4.942980e-002 -3.364056e-002 -3.387794e-002 -6.576211e-002 5.086949e-002 -1.023664e-001 -2.293582e-002 6.643782e-002 1.104943e-003 -3.879951e-002 -7.625230e-002 -5.210611e-002 5.834731e-002
<VARIANCE> 39
 3.058787e+001 1.934822e+001 2.331654e+001 3.029351e+001 1.677107e+001 2.995665e+001 2.049674e+001 4.076982e+001 2.159141e+001 2.264874e+001 3.706228e+001 2.712634e+001 4.801932e+001 4.759663e-001 1.225114e+000 1.296159e+000 1.339290e+000 1.438172e+000 1.870329e+000 1.728089e+000 3.746103e+000 1.377637e+000 2.368171e+000 1.683117e+000 1.275697e+000 8.171914e-001 9.298011e-002 1.511642e-001 2.107545e-001 2.830906e-001 2.475933e-001 3.072448e-001 3.400627e-001 4.443302e-001 2.612843e-001 3.698269e-001 3.261182e-001 3.250208e-001 9.042693e-002
<GCONST> 1.006252e+002
<STATE> 3
<MEAN> 39
 1.602727e+000 -4.185615e+000 3.212312e-001 -5.012841e+000 3.097826e+000 -4.734761e+000 7.200998e-001 -2.458723e+000 -8.975874e-001 1.013561e+000 -8.567652e+000 -4.639518e+000 6.068798e+001 2.009834e-001 -1.323180e+000 -1.289144e+000 -1.147664e+000 7.985858e-001 4.398318e-001 3.151965e-002 7.179852e-001 2.564928e-001 -1.240950e+000 -2.613708e-001 -5.743662e-001 1.211324e+000 7.209212e-003 1.636979e-001 1.964440e-002 1.106236e-001 -1.100169e-001 2.965985e-001 -1.396992e-002 -4.444602e-001 4.661111e-002 7.096484e-002 2.265105e-001 -9.731770e-002 -1.634013e-001
<VARIANCE> 39
 4.340002e+001 2.954447e+001 3.749596e+001 4.317878e+001 2.175180e+001 4.788372e+001 2.294110e+001 5.034572e+001 2.131229e+001 3.235277e+001 5.390617e+001 3.998187e+001 4.711614e+001 1.271451e+000 2.259768e+000 2.547965e+000 1.872531e+000 2.108088e+000 4.143212e+000 2.265786e+000 6.180360e+000 1.486057e+000 3.374187e+000 2.355193e+000 2.139102e+000 1.671432e+000 2.193649e-001 3.940094e-001 4.217073e-001 3.574114e-001 3.221256e-001 5.721549e-001 5.065917e-001 1.112486e+000 2.746192e-001 5.543717e-001 4.287171e-001 3.780891e-001 2.512170e-001
<GCONST> 1.177666e+002
<STATE> 4
<MEAN> 39
 3.082377e+000 -9.739391e+000 -6.285491e+000 -1.007085e+001 5.236327e+000 -6.994070e-001 1.735407e+000 -4.099679e+000 -3.595676e-001 -5.217395e+000 -8.734632e+000 -9.020083e+000 6.702876e+001 -3.719294e-002 -7.736199e-002 4.062813e-001 1.840749e-001 -5.127416e-001 -5.307766e-001 4.203601e-001 3.087166e-001 -6.089596e-002 -2.701860e-001 1.121604e-001 3.761550e-001 -8.861596e-002 5.662302e-002 1.098708e-001 1.604516e-001 3.393517e-002 -1.248305e-001 -1.645299e-001 6.293666e-003 6.304783e-002 -6.071774e-002 1.132326e-001 3.825617e-003 1.052917e-001 -8.231480e-002
<VARIANCE> 39
 1.244124e+001 1.276232e+001 2.703645e+001 2.743358e+001 2.724778e+001 4.525325e+001 2.508270e+001 2.642540e+001 1.653385e+001 2.211831e+001 2.195217e+001 2.953057e+001 2.328027e+001 3.160916e-001 4.626866e-001 1.191352e+000 5.294138e-001 1.290633e+000 2.024358e+000 1.222916e+000 1.305460e+000 9.060503e-001 1.201423e+000 1.147049e+000 1.113564e+000 2.432316e-001 6.284721e-002 8.370793e-002 7.479756e-002 8.202288e-002 1.181575e-001 1.718191e-001 1.979198e-001 1.794426e-001 1.449248e-001 2.272386e-001 1.776725e-001 1.282022e-001 3.346388e-002
<GCONST> 8.228327e+001
<TRANSP> 5
 0.000000e+000 1.000000e+000 0.000000e+000 0.000000e+000 0.000000e+000
 0.000000e+000 5.588997e-001 4.411003e-001 0.000000e+000 0.000000e+000
 0.000000e+000 0.000000e+000 5.899054e-001 4.100946e-001 0.000000e+000
 0.000000e+000 0.000000e+000 0.000000e+000 8.794294e-001 1.205706e-001
 0.000000e+000 0.000000e+000 0.000000e+000 0.000000e+000 0.000000e+000
<ENDHMM>
~h "eh"
<BEGINHMM>
<NUMSTATES> 5
<STATE> 2
<MEAN> 39
 4.705819e+000 -6.119232e+000 -2.207577e-001 -1.073393e+001 -3.901087e+000 -1.435365e+001 -8.576063e-001 3.765275e+000 2.541219e+000 9.465191e-001 -1.165360e+001 -3.464552e+000 6.690583e+001 6.976309e-001 -1.960692e+000 6.990359e-002 -1.433331e+000 -6.899154e-001 -1.552278e-001 2.831514e-001 1.243694e+000 -1.904162e-001 -4.991286e-001 -6.562146e-001 -1.501283e-001 1.332359e+000 -9.442359e-001 3.245464e-001 -1.386926e-001 4.590219e-001 5.162514e-001 6.222485e-001 4.904334e-001 1.331264e-001 -8.880214e-003 -4.057820e-001 5.887689e-001 5.340436e-002 -4.390263e-001
<VARIANCE> 39
 4.537332e+000 1.252081e+001 1.457635e+001 1.514421e+001 9.376082e+000 2.044441e+001 1.245820e+001 1.931709e+001 8.483157e+000 1.440434e+001 1.056383e+001 1.326906e+001 5.166577e+000 2.199685e+000 8.621230e-001 8.997660e-001 1.591555e+000 1.906814e+000 2.106863e+000 1.634849e+000 1.677827e+000 1.084274e+000 1.938941e+000 1.417601e+000 1.226681e+000 9.906904e-001 4.845506e-001 1.479990e-001 1.809850e-001 1.708058e-001 1.888617e-001 4.717230e-001 2.581649e-001 4.909735e-001 2.091157e-001 3.044165e-001 2.660321e-001 1.521993e-001 7.770449e-002
<GCONST> 8.881855e+001
<STATE> 3
<MEAN> 39
 4.776180e+000 -8.954660e+000 -5.398707e-002 -1.136705e+001 -2.625522e+000 -1.280094e+001 1.615124e+000 4.626030e+000 2.669742e+000 -3.262222e+000 -1.048211e+001 -5.302396e+000 6.756962e+001 3.242921e-001 3.292961e-001 2.332143e-002 4.009024e-001 1.463888e-001 3.109297e-001 -5.946419e-001 -8.833269e-001 5.198601e-002 2.443914e-001 6.197823e-001 -3.467981e-001 -5.113481e-001 5.417063e-002 2.562379e-001 -7.798562e-003 1.785921e-001 -6.559331e-003 1.426190e-001 -2.297139e-001 -3.162025e-001 -4.999400e-002 2.179895e-001 1.443463e-001 -3.702353e-002 -1.989532e-001
<VARIANCE> 39
 5.287439e+000 6.380218e+000 1.400474e+001 1.394955e+001 1.386006e+001 2.775595e+001 2.247496e+001 2.057485e+001 1.339315e+001 1.731380e+001 1.695942e+001 2.260579e+001 5.866034e+000 2.980484e-001 7.023805e-001 3.607687e-001 7.735114e-001 4.486172e-001 1.213578e+000 1.974282e+000 1.867275e+000 7.720545e-001 1.505379e+000 9.009039e-001 6.402514e-001 5.809037e-001 5.322726e-002 5.592997e-002 6.353380e-002 9.383436e-002 8.969911e-002 1.764914e-001 2.107953e-001 1.663113e-001 1.950613e-001 1.692318e-001 1.173865e-001 1.156861e-001 4.232349e-002
<GCONST> 7.332917e+001
<STATE> 4
<MEAN> 39
 7.488189e+000 -2.726887e+000 1.465564e-001 -5.833565e+000 -1.461886e+000 -7.491135e+000 -6.356824e+000 -6.251457e+000 6.543317e-001 1.809375e+000 -3.341769e+000 -7.594276e+000 6.053209e+001 2.802256e-002 1.152986e+000 6.675733e-002 7.953955e-001 1.779649e-001 1.316146e+000 -5.583971e-001 -1.538904e+000 -9.147326e-001 5.583131e-001 1.144748e+000 -3.340237e-001 -9.695651e-001 -1.025832e-001 -4.341409e-001 1.009944e-002 -4.777670e-001 -9.175521e-002 -3.629181e-001 4.353510e-001 6.889875e-001 1.109259e-001 -1.949592e-001 -4.277662e-001 3.265387e-002 4.894678e-001
<VARIANCE> 39
 4.668898e+000 6.557090e+000 6.218444e+000 9.185333e+000 9.399234e+000 1.235674e+001 9.530126e+000 1.646283e+001 1.483420e+001 1.358020e+001 1.474098e+001 1.318997e+001 6.409054e+000 3.765794e-001 1.021893e+000 3.529412e-001 1.184812e+000 6.861152e-001 1.202430e+000 1.031368e+000 1.840396e+000 1.239758e+000 1.146253e+000 1.008822e+000 9.277231e-001 8.052915e-001 6.794658e-002 1.113649e-001 5.997943e-002 1.323569e-001 1.235185e-001 1.720933e-001 1.856412e-001 1.848364e-001 2.272510e-001 2.178224e-001 1.745473e-001 1.362638e-001 7.228493e-002
<GCONST> 7.376290e+001
<TRANSP> 5
 0.000000e+000 1.000000e+000 0.000000e+000 0.000000e+000 0.000000e+000
 0.000000e+000 7.447257e-001 2.552743e-001 0.000000e+000 0.000000e+000
 0.000000e+000 0.000000e+000 8.954987e-001 1.045013e-001 0.000000e+000
 0.000000e+000 0.000000e+000 0.000000e+000 5.375695e-001 4.624306e-001
 0.000000e+000 0.000000e+000 0.000000e+000 0.000000e+000 0.000000e+000
<ENDHMM>
~h "ey"
<BEGINHMM>
<NUMSTATES> 5
<STATE> 2
<MEAN> 39
 -1.562146e+000 -1.628773e+000 -4.895777e-001 -2.367251e+000 -8.821056e-001 5.252868e-001 3.884476e+000 -2.853071e+000 3.132511e+000 3.208061e+000 -7.648963e-001 -6.996576e-001 5.016183e+001 -2.778909e-001 -8.452269e-001 -5.396362e-001 1.747828e-001 6.916430e-001 8.572266e-002 6.482431e-001 6.590955e-001 5.250157e-001 -4.874558e-001 -7.181281e-001 -4.955866e-001 4.097293e-001 1.927421e-001 -1.731654e-001 -6.620893e-002 -2.402520e-001 9.853143e-002 -2.342903e-001 -6.653053e-002 -5.661998e-003 -2.652527e-001 -3.378694e-001 -3.301820e-001 -1.971221e-001 4.934485e-001
<VARIANCE> 39
 1.893094e+001 1.301772e+001 2.646902e+001 3.401539e+001 2.624586e+001 3.465157e+001 2.983467e+001 4.059267e+001 3.173351e+001 3.129589e+001 3.172208e+001 3.426254e+001 2.376393e+001 1.807412e+000 1.813772e+000 2.625792e+000 3.593128e+000 2.358442e+000 3.490777e+000 2.567400e+000 4.080802e+000 4.335936e+000 4.211282e+000 2.729759e+000 3.351730e+000 4.549207e+000 3.098843e-001 3.537932e-001 4.827892e-001 4.139381e-001 4.411556e-001 4.989332e-001 4.452544e-001 7.802919e-001 7.265270e-001 6.803423e-001 4.260116e-001 6.002592e-001 4.820737e-001
<GCONST> 1.202920e+002
<STATE> 3
<MEAN> 39
 1.452549e+000 -9.947773e+000 -5.148825e+000 -7.339985e+000 3.839012e+000 -4.962741e+000 5.175706e+000 5.978829e-001 1.097592e+000 -4.212096e+000 -1.012015e+001 -6.333730e+000 6.260308e+001 8.735602e-001 -1.491382e+000 -2.993867e-001 -1.147760e+000 3.225528e-001 -1.195794e+000 -2.112923e-002 3.067800e-001 -8.299957e-001 -1.094333e+000 -1.192441e+000 -8.088280e-001 2.676835e+000 -1.676349e-001 2.682514e-001 3.269732e-001 2.180699e-001 -2.169044e-001 2.775134e-001 5.863253e-002 -2.117957e-001 5.159830e-002 2.416510e-001 4.567195e-001 3.522032e-001 -4.366351e-001
<VARIANCE> 39
 1.289409e+001 1.992662e+001 2.594152e+001 1.721869e+001 3.149934e+001 4.817078e+001 2.479562e+001 2.476494e+001 2.787746e+001 2.073128e+001 2.017712e+001 3.042786e+001 2.844493e+001 1.224071e+000 1.822672e+000 2.659043e+000 1.876650e+000 2.253803e+000 3.320855e+000 2.199524e+000 2.656416e+000 1.757992e+000 2.618653e+000 2.591374e+000 2.089834e+000 2.587512e+000 2.141524e-001 2.893746e-001 3.584290e-001 3.453873e-001 3.863506e-001 4.976623e-001 4.085121e-001 4.394275e-001 3.190775e-001 4.871766e-001 3.509419e-001 3.285537e-001 3.881319e-001
<GCONST> 1.103502e+002
<STATE> 4
<MEAN> 39
 2.834473e+000 -1.204011e+001 -4.103429e+000 -8.751914e+000 1.790178e+000 -7.161113e+000 7.424515e+000 -4.050619e-001 -1.131428e+000 -9.407973e+000 -1.051137e+001 -5.432714e+000 6.820394e+001 1.119378e-001 4.112780e-001 3.630531e-001 6.689472e-002 -4.083925e-001 -4.601368e-001 2.009372e-002 1.040637e-001 4.198622e-003 5.974752e-002 -9.920546e-002 4.186742e-001 -1.295473e-001 -2.784819e-002 1.914504e-001 7.365787e-002 1.100248e-001 6.342733e-003 1.503423e-002 -1.089937e-001 1.059854e-002 3.671590e-002 1.561349e-001 4.055867e-002 2.974039e-002 -2.215942e-001
<VARIANCE> 39
 4.572467e+000 1.255755e+001 1.334452e+001 1.522000e+001 1.502653e+001 2.160829e+001 1.190096e+001 1.551120e+001 1.600389e+001 1.534153e+001 1.074917e+001 1.554241e+001 8.865204e+000 2.485858e-001 7.355443e-001 5.436444e-001 5.354977e-001 6.068534e-001 7.970659e-001 9.865546e-001 7.586602e-001 6.685736e-001 1.245710e+000 7.153538e-001 6.068269e-001 5.014921e-001 6.892812e-002 7.334004e-002 8.823621e-002 1.283100e-001 1.163199e-001 1.677417e-001 1.622876e-001 1.466835e-001 1.218998e-001 1.490762e-001 1.673520e-001 1.192869e-001 8.602176e-002
<GCONST> 7.137171e+001
<TRANSP> 5
 0.000000e+000 1.000000e+000 0.000000e+000 0.000000e+000 0.000000e+000
 0.000000e+000 8.576068e-001 1.423932e-001 0.000000e+000 0.000000e+000
 0.000000e+000 0.000000e+000 7.688478e-001 2.311521e-001 0.000000e+000
 0.000000e+000 0.000000e+000 0.000000e+000 9.275070e-001 7.249292e-002
 0.000000e+000 0.000000e+000 0.000000e+000 0.000000e+000 0.000000e+000
<ENDHMM>
~h "ia"
<BEGINHMM>
<NUMSTATES> 5
<STATE> 2
<MEAN> 39
 -2.513857e+000 5.027559e+000 5.138662e+000 -2.462568e-001 1.355070e+000 -1.215891e+001 -4.338203e-001 -2.431273e+000 -1.666803e+000 -1.699093e+000 -2.527380e+000 -1.266235e+000 5.999198e+001 1.624998e+000 -1.348206e+000 1.459980e+000 -9.172933e-001 -1.563243e+000 -2.369619e+000 -6.666460e-001 4.131911e-001 -9.771449e-001 -8.898082e-003 -3.713377e-001 2.381802e-001 1.009028e+000 1.572687e-001 -4.080968e-001 2.074879e-001 -3.364037e-001 -2.098071e-001 2.055701e-002 1.132131e-001 1.274808e-001 -1.018734e-001 1.332815e-001 3.454516e-003 2.358479e-001 1.345623e-001
<VARIANCE> 39
 3.106823e+001 2.221461e+001 2.528196e+001 1.655828e+001 2.878216e+001 5.165135e+001 3.061356e+001 1.918901e+001 2.378703e+001 1.950431e+001 1.706656e+001 1.595923e+001 1.597409e+001 2.881552e+000 2.632297e+000 1.894283e+000 1.863637e+000 2.140588e+000 3.135839e+000 2.368895e+000 2.494723e+000 2.128837e+000 2.061124e+000 1.617715e+000 2.222585e+000 6.040447e-001 5.012646e-001 2.891847e-001 3.145164e-001 2.350444e-001 3.601290e-001 9.266648e-001 4.703482e-001 4.310011e-001 4.806801e-001 3.618152e-001 3.175146e-001 4.127809e-001 1.167827e-001
<GCONST> 1.085135e+002
<STATE> 3
<MEAN> 39
 3.835877e+000 -5.133967e+000 1.230512e+001 -8.518001e+000 -8.128022e+000 -1.884271e+001 -6.202961e-001 8.784814e-001 -4.482168e+000 -1.075376e+000 -3.892545e+000 2.776038e+000 6.612930e+001 2.966088e-001 -9.483241e-001 -6.079753e-001 -5.942124e-001 -5.726073e-001 5.101135e-001 1.818213e-001 4.171914e-001 8.711008e-001 -1.648944e-003 -2.825480e-001 -1.903989e-001 5.277118e-001 -7.732029e-002 1.700024e-001 -4.405768e-001 2.114988e-001 2.578805e-001 3.805723e-001 -1.207653e-001 -1.242477e-001 2.547430e-001 2.284323e-005 -6.849555e-002 -3.758576e-001 -1.171461e-001
<VARIANCE> 39
 3.957052e+000 9.791255e+000 2.784658e+001 1.311680e+001 1.620908e+001 1.253496e+001 1.393727e+001 1.324859e+001 2.874145e+001 1.241727e+001 1.190699e+001 1.640042e+001 8.411287e+000 3.052535e-001 6.909067e-001 2.345383e+000 9.771461e-001 1.636779e+000 1.528876e+000 1.201445e+000 1.025829e+000 1.508336e+000 8.710904e-001 1.089961e+000 2.246018e+000 2.270480e-001 9.567361e-002 9.178255e-002 1.351089e-001 1.298931e-001 1.878013e-001 2.367599e-001 2.041664e-001 2.467704e-001 1.953288e-001 1.571958e-001 1.813733e-001 1.832729e-001 2.691805e-002
<GCONST> 7.975242e+001
<STATE> 4
<MEAN> 39
 8.777581e+000 -8.726148e+000 -5.991066e+000 -4.183801e+000 -1.017002e+001 -5.069902e+000 -6.611919e-001 -4.673926e+000 4.551600e+000 3.708420e-001 -2.549789e+000 -9.328252e+000 6.639667e+001 4.796305e-001 1.920432e-001 -1.207711e+000 3.294154e-001 -3.512244e-001 1.197925e+000 3.044836e-001 -1.239149e+000 -3.693106e-001 3.918782e-001 6.755330e-001 -4.176190e-001 -2.821339e-001 -3.245905e-002 1.364564e-001 2.349680e-001 -1.325341e-001 -9.108147e-002 -8.935927e-002 1.577833e-001 -8.792589e-002 -2.438454e-001 -2.967567e-003 8.722779e-002 2.888558e-001 -5.336578e-002
<VARIANCE> 39
 7.527901e+000 8.414394e+000 3.695174e+001 2.771126e+001 2.092602e+001 3.184018e+001 2.322381e+001 4.288609e+001 2.881974e+001 2.371980e+001 4.246100e+001 3.136609e+001 8.920473e+000 2.716383e-001 5.670775e-001 1.340305e+000 1.665618e+000 1.217857e+000 1.559817e+000 1.434895e+000 1.445334e+000 2.076189e+000 1.021596e+000 1.444909e+000 2.773067e+000 9.836305e-002 3.873128e-002 5.171534e-002 9.106460e-002 2.439956e-001 2.016013e-001 2.245119e-001 2.343494e-001 2.908882e-001 2.197593e-001 1.668160e-001 2.514343e-001 2.350862e-001 1.495895e-002
<GCONST> 8.605930e+001
<TRANSP> 5
 0.000000e+000 1.000000e+000 0.000000e+000 0.000000e+000 0.000000e+000
 0.000000e+000 7.725322e-001 2.274678e-001 0.000000e+000 0.000000e+000
 0.000000e+000 0.000000e+000 8.874612e-001 1.125387e-001 0.000000e+000
 0.000000e+000 0.000000e+000 0.000000e+000 9.103553e-001 8.964473e-002
 0.000000e+000 0.000000e+000 0.000000e+000 0.000000e+000 0.000000e+000
<ENDHMM>
~h "ih"
<BEGINHMM>
<NUMSTATES> 5
<STATE> 2
<MEAN> 39
 -1.352787e+001 2.737082e+000 -2.753864e+000 -1.326895e+000 4.744738e+000 -3.072467e+000 5.700433e+000 3.538900e+000 4.238795e+000 -7.601317e-001 5.397962e-002 1.944936e+000 5.879797e+001 2.985766e+000 -4.073622e-001 1.414892e+000 -9.014218e-001 -7.274535e-001 -2.040294e+000 -1.136371e+000 -2.786306e-001 -2.088332e-001 -3.892139e-002 -1.472882e+000 -8.843030e-001 3.245466e-001 1.017798e+000 -2.664862e-001 3.103370e-001 -2.527595e-001 -5.230947e-001 -7.732689e-001 -5.901987e-001 -2.636196e-001 -3.327256e-001 1.742153e-001 -3.385224e-001 -1.977434e-001 4.340142e-001
<VARIANCE> 39
 1.192639e+001 1.179289e+001 1.043958e+001 1.772040e+001 1.619734e+001 2.213125e+001 1.686384e+001 1.667261e+001 1.458547e+001 2.005620e+001 1.284081e+001 1.380042e+001 9.955170e+000 4.991004e+000 8.094852e-001 1.566983e+000 1.462763e+000 1.668299e+000 2.768171e+000 2.586630e+000 1.775303e+000 1.896295e+000 1.719827e+000 2.379205e+000 1.754250e+000 7.062384e-001 3.638623e-001 1.695674e-001 2.797572e-001 3.140284e-001 2.793609e-001 3.342598e-001 3.521271e-001 3.231364e-001 3.296763e-001 3.718490e-001 3.330973e-001 3.489103e-001 1.284987e-001
<GCONST> 9.799662e+001
<STATE> 3
<MEAN> 39
 2.839451e+000 -1.167388e+000 2.934498e+000 -7.121409e+000 -2.458302e+000 -1.569783e+001 -2.029212e+000 4.354517e-001 9.015641e-001 7.601468e-001 -7.009725e+000 -1.553558e+000 6.383852e+001 2.337888e+000 -1.975786e+000 9.923197e-001 -1.600227e+000 -2.442673e+000 -2.215416e+000 -9.429402e-001 7.575417e-002 -6.292564e-001 2.690490e-001 -4.317471e-001 1.615057e-001 1.869146e+000 -1.212554e+000 -1.130388e-002 -2.816338e-001 2.562811e-001 3.403661e-002 7.897094e-001 6.747591e-001 3.455459e-001 1.504277e-001 -2.729523e-001 7.325367e-001 3.274642e-001 -1.253682e-001
<VARIANCE> 39
 1.302748e+001 1.957717e+001 1.622811e+001 1.800404e+001 2.039059e+001 2.483833e+001 1.333727e+001 1.202707e+001 1.295630e+001 2.056029e+001 1.311881e+001 1.501809e+001 1.731130e+001 5.658870e+000 9.226319e-001 1.688130e+000 1.867287e+000 1.302344e+000 4.465791e+000 3.020653e+000 2.191290e+000 1.750728e+000 2.408385e+000 3.059093e+000 2.115513e+000 6.830407e-001 3.259529e-001 3.227683e-001 1.989535e-001 3.440995e-001 3.225765e-001 3.653857e-001 3.100962e-001 2.910142e-001 2.703764e-001 3.893872e-001 2.985086e-001 3.546108e-001 2.532687e-001
<GCONST> 1.019504e+002
<STATE> 4
<MEAN> 39
 5.645753e-001 -3.315732e+000 2.697586e+000 -4.721464e+000 -4.607726e+000 -1.335859e+001 1.435265e+000 6.993002e-001 -2.774053e+000 -4.389129e-001 -1.678048e+000 -1.335639e+000 6.319389e+001 -6.431066e-001 2.531382e-001 -3.678352e-001 5.514210e-001 7.068527e-001 5.363520e-001 1.669389e-001 -2.007331e-001 1.749334e-001 1.351350e-001 2.405982e-001 -5.663047e-002 -4.137407e-001 -8.967300e-002 8.234862e-002 -2.317915e-002 3.879046e-002 9.434912e-002 5.906064e-002 -1.949943e-002 -4.508129e-004 5.191369e-002 5.027027e-002 -1.369132e-002 -3.011266e-003 -3.233297e-002
<VARIANCE> 39
 2.611189e+001 2.004752e+001 5.149025e+001 4.569711e+001 8.317439e+001 6.238805e+001 1.499459e+001 2.809470e+001 5.522445e+001 2.188683e+001 2.502361e+001 1.840459e+001 3.647457e+001 1.639435e+000 1.281508e+000 3.605556e+000 1.904684e+000 3.722470e+000 3.531189e+000 1.452433e+000 2.011674e+000 5.556618e+000 1.456582e+000 1.848471e+000 1.315559e+000 1.498903e+000 1.689542e-001 2.294296e-001 6.055330e-001 3.342659e-001 5.145043e-001 5.864741e-001 2.709752e-001 3.574112e-001 8.725149e-001 2.530549e-001 3.270367e-001 2.534042e-001 2.296649e-001
<GCONST> 1.129743e+002
<TRANSP> 5
 0.000000e+000 1.000000e+000 0.000000e+000 0.000000e+000 0.000000e+000
 0.000000e+000 6.706377e-001 3.293624e-001 0.000000e+000 0.000000e+000
 0.000000e+000 0.000000e+000 7.134018e-001 2.865983e-001 0.000000e+000
 0.000000e+000 0.000000e+000 0.000000e+000 9.469054e-001 5.309460e-002
 0.000000e+000 0.000000e+000 0.000000e+000 0.000000e+000 0.000000e+000
<ENDHMM>
~h "iy"
<BEGINHMM>
<NUMSTATES> 5
<STATE> 2
<MEAN> 39
 2.894613e+000 -5.300604e+000 1.701923e+001 -1.087739e+001 -9.357009e+000 -1.848162e+001 -3.290595e+000 -7.727670e-001 -9.840717e+000 -8.186840e-001 -3.366262e+000 4.837402e+000 6.557382e+001 -4.751704e-001 5.129177e-001 8.209348e-001 -5.481118e-001 -1.201849e-001 -2.996418e-002 2.850804e-001 -6.160336e-001 -8.791075e-001 -1.903671e-001 1.527114e-001 5.690988e-001 -9.288509e-002 6.500675e-002 1.104898e-001 -2.735249e-001 1.837950e-001 1.608133e-001 2.587495e-001 -1.212263e-001 -2.375377e-001 1.852843e-001 4.480155e-002 -5.872769e-002 -2.150646e-001 -1.425680e-001
<VARIANCE> 39
 6.794862e+000 1.435393e+001 3.210562e+001 1.412894e+001 1.335590e+001 1.203775e+001 2.606960e+001 2.238407e+001 4.206171e+001 1.356927e+001 1.211819e+001 1.631195e+001 6.142390e+000 4.048177e-001 6.707495e-001 1.234680e+000 6.587434e-001 1.612322e+000 1.094760e+000 1.325898e+000 1.309518e+000 1.667601e+000 9.405454e-001 9.546829e-001 1.348640e+000 2.161798e-001 4.808041e-002 8.048436e-002 1.481549e-001 9.995089e-002 1.931066e-001 1.964152e-001 2.045891e-001 3.233228e-001 2.109470e-001 1.979920e-001 1.751956e-001 2.111361e-001 2.867128e-002
<GCONST> 8.027370e+001
<STATE> 3
<MEAN> 39
 1.494252e+000 -6.626821e-001 1.809729e+001 -1.084243e+001 -7.622122e+000 -1.541662e+001 -3.537854e+000 -6.614356e+000 -1.153646e+001 -2.947365e+000 -2.683723e+000 5.378213e+000 6.237842e+001 -4.870205e-002 7.470540e-001 -8.572794e-001 7.031415e-001 5.470586e-001 8.287263e-001 6.967413e-002 -4.195980e-001 7.387585e-001 -1.921271e-001 7.467376e-002 -6.909068e-001 -6.072413e-001 -3.991420e-002 2.435233e-002 -2.943112e-001 2.290329e-001 9.328111e-002 2.310522e-001 4.854503e-002 1.259871e-001 2.843206e-001 1.169560e-001 5.538480e-003 -2.377231e-001 -5.207728e-002
<VARIANCE> 39
 6.718828e+000 1.233861e+001 2.376275e+001 2.028664e+001 1.378599e+001 2.101937e+001 1.733089e+001 1.832948e+001 3.799821e+001 1.746094e+001 1.180005e+001 1.492317e+001 7.893400e+000 4.608490e-001 6.091045e-001 1.919814e+000 1.820336e+000 1.124624e+000 1.571469e+000 1.206889e+000 1.538540e+000 1.793845e+000 1.252591e+000 9.326360e-001 1.316622e+000 2.766071e-001 1.219318e-001 1.005965e-001 1.596328e-001 2.772933e-001 2.079091e-001 3.282512e-001 2.053760e-001 2.807685e-001 2.802176e-001 1.885117e-001 1.832763e-001 2.021308e-001 4.588206e-002
<GCONST> 8.596214e+001
<STATE> 4
<MEAN> 39
 -1.476090e-001 4.542972e+000 1.499391e+001 -6.091732e+000 -4.948789e+000 -5.017686e+000 -2.580920e+000 -7.952839e+000 -6.376094e+000 -3.812556e+000 -2.223186e+000 1.598298e+000 5.677564e+001 -1.817032e-001 1.148064e-003 -6.222579e-001 5.928963e-001 4.750105e-001 9.860823e-001 2.878302e-001 1.336975e-001 5.726369e-001 3.419770e-001 -8.424577e-002 -3.891315e-001 -5.729172e-001 -2.303885e-002 -1.118724e-001 -4.169420e-002 -1.280730e-002 -5.785866e-003 -2.330780e-002 3.113667e-002 6.797028e-002 3.923817e-002 6.551705e-002 -4.256508e-003 5.752536e-002 6.542174e-004
<VARIANCE> 39
 8.278569e+000 1.141247e+001 2.525933e+001 2.432929e+001 2.689661e+001 4.641917e+001 1.988330e+001 1.632124e+001 2.369205e+001 2.152500e+001 1.485601e+001 1.543052e+001 1.642306e+001 6.172994e-001 8.625906e-001 1.319239e+000 1.301924e+000 1.352664e+000 1.860941e+000 1.165921e+000 1.272692e+000 1.775557e+000 1.354955e+000 1.178183e+000 1.352753e+000 3.297047e-001 7.904379e-002 1.006705e-001 1.477279e-001 1.770629e-001 2.011348e-001 2.786411e-001 1.982907e-001 2.012933e-001 2.228072e-001 2.164241e-001 2.202451e-001 2.329283e-001 3.649053e-002
<GCONST> 8.759662e+001
<TRANSP> 5
 0.000000e+000 1.000000e+000 0.000000e+000 0.000000e+000 0.000000e+000
 0.000000e+000 8.682850e-001 1.317150e-001 0.000000e+000 0.000000e+000
 0.000000e+000 0.000000e+000 7.974219e-001 2.025782e-001 0.000000e+000
 0.000000e+000 0.000000e+000 0.000000e+000 8.725730e-001 1.274270e-001
 0.000000e+000 0.000000e+000 0.000000e+000 0.000000e+000 0.000000e+000
<ENDHMM>
~h "jh"
<BEGINHMM>
<NUMSTATES> 5
<STATE> 2
<MEAN> 39
 -4.691276e+000 -3.629053e+000 -1.349306e+000 -1.297552e+000 2.272321e+000 3.421190e+000 2.884747e+000 -3.845848e-001 3.003583e+000 4.969406e+000 -5.487429e-001 1.305315e+000 5.480354e+001 1.473935e-002 -4.045971e-001 -1.128697e-001 -8.989684e-001 -3.569134e-001 2.877630e-001 -6.446703e-001 6.480092e-001 7.681656e-001 6.041571e-001 3.505071e-001 8.850650e-002 8.914385e-001 1.874766e-001 1.905386e-001 2.458344e-001 -3.168842e-001 -1.910987e-001 -1.371777e-001 -2.580498e-001 -2.982012e-001 -2.185095e-001 5.729008e-002 -1.741630e-001 -1.977880e-001 3.139772e-001
<VARIANCE> 39
 2.976483e+001 5.771669e+000 2.055443e+001 6.174804e+001 1.527966e+001 1.788778e+001 1.735620e+001 2.808015e+001 2.658522e+001 1.509729e+001 1.921296e+001 1.919370e+001 5.672190e+001 4.290291e+000 1.353310e+000 1.948820e+000 2.591337e+000 1.403798e+000 2.138636e+000 1.788802e+000 2.697363e+000 1.872954e+000 1.848565e+000 1.814243e+000 2.033230e+000 2.444900e+000 4.260604e-001 1.109822e-001 3.182624e-001 5.476692e-001 3.238429e-001 3.778903e-001 4.862979e-001 3.954303e-001 3.813914e-001 3.058771e-001 2.247927e-001 2.693823e-001 5.062276e-001
<GCONST> 1.070238e+002
<STATE> 3
<MEAN> 39
 6.745420e+000 -8.612166e-001 -3.564373e+000 -1.869004e+001 1.786330e+000 2.339069e+000 -6.716496e+000 -2.652959e+000 -7.155795e+000 8.933621e+000 -3.749322e+000 -7.222339e+000 6.484137e+001 2.132744e-001 1.302219e-001 6.439247e-001 -2.828903e-001 -6.754596e-001 -8.262490e-001 -8.199165e-001 -3.336745e-001 -9.548493e-001 -1.027986e-001 -1.421502e-001 -3.012169e-001 1.659818e-001 -3.494468e-001 1.793437e-002 2.247097e-001 5.598332e-001 2.145662e-002 -2.166943e-001 3.144110e-001 -7.570074e-002 2.179216e-001 -2.823493e-001 -1.032782e-001 3.104170e-001 -5.981570e-002
<VARIANCE> 39
 1.232808e+001 6.122383e+000 1.844063e+001 4.429764e+001 6.586480e+000 9.695493e+000 2.185312e+001 1.927567e+001 5.534922e+001 1.449070e+001 2.036292e+001 3.525355e+001 2.133157e+001 2.443603e+000 3.342579e-001 6.189927e-001 6.502622e+000 1.072153e+000 9.381236e-001 3.436726e+000 1.374843e+000 5.147892e+000 1.619830e+000 2.661249e+000 2.917774e+000 1.859092e+000 3.525802e-001 1.632967e-001 1.363603e-001 3.128618e-001 1.693966e-001 1.399606e-001 3.355592e-001 3.828908e-001 4.300551e-001 4.155857e-001 4.318032e-001 3.496274e-001 8.712985e-002
<GCONST> 9.891356e+001
<STATE> 4
<MEAN> 39
 -4.614908e+000 -8.725447e-001 7.260607e+000 -3.988351e+000 -4.565094e+000 -1.896043e+000 -5.412799e-001 -5.555590e+000 -1.667526e+000 3.318944e+000 -3.440349e+000 7.900547e-001 6.016121e+001 8.167889e-003 -1.241770e-002 7.972077e-001 9.446326e-001 -3.337601e-001 -7.403330e-001 4.408886e-002 1.916682e-001 -2.196083e-001 -3.907689e-001 3.101240e-001 3.020550e-001 1.735063e-001 2.805862e-001 -2.448678e-002 -1.451534e-001 -1.444906e-001 9.577148e-002 1.930153e-003 -8.386274e-002 -3.914936e-002 -1.456604e-001 7.924567e-002 4.085809e-002 -8.374460e-002 -4.583678e-002
<VARIANCE> 39
 9.400834e+001 1.461304e+001 2.370823e+001 4.873757e+001 3.764302e+001 7.774791e+001 5.107327e+001 3.999917e+001 6.429091e+001 2.940578e+001 5.407853e+001 2.540197e+001 3.630152e+001 1.031091e+001 1.762977e+000 2.119380e+000 5.159750e+000 2.985020e+000 7.081415e+000 6.036111e+000 3.477479e+000 4.963907e+000 3.784691e+000 4.166235e+000 2.557111e+000 4.412018e+000 1.253670e+000 3.434656e-001 3.796171e-001 1.207643e+000 5.447663e-001 1.043204e+000 1.137239e+000 6.653125e-001 5.554188e-001 7.752073e-001 7.961624e-001 5.169679e-001 7.319561e-001
<GCONST> 1.335821e+002
<TRANSP> 5
 0.000000e+000 1.000000e+000 0.000000e+000 0.000000e+000 0.000000e+000
 0.000000e+000 7.861663e-001 2.138337e-001 0.000000e+000 0.000000e+000
 0.000000e+000 0.000000e+000 7.630894e-001 2.369106e-001 0.000000e+000
 0.000000e+000 0.000000e+000 0.000000e+000 9.377407e-001 6.225930e-002
 0.000000e+000 0.000000e+000 0.000000e+000 0.000000e+000 0.000000e+000
<ENDHMM>
~h "ng"
<BEGINHMM>
<NUMSTATES> 5
<STATE> 2
<MEAN> 39
 6.243663e+000 -4.713122e+000 -1.174932e+001 -1.310260e+001 9.009830e+000 2.140764e+000 2.036602e+000 -1.165293e+001 -6.921353e+000 -1.911100e+000 -2.089804e+000 -9.353992e+000 6.562736e+001 1.272571e-001 6.570163e-001 -9.613834e-002 3.285938e-001 -2.819131e-001 6.147758e-001 6.760873e-001 -3.404082e-001 -9.150075e-001 3.393062e-001 4.490595e-001 1.385851e-001 -6.431084e-001 -5.019165e-002 1.646797e-003 2.249997e-001 -3.169652e-002 -1.358265e-001 -1.055935e-001 4.032451e-002 1.431117e-001 4.697083e-002 2.331483e-002 -3.407342e-001 1.393479e-001 -1.473026e-002
<VARIANCE> 39
 4.159523e+000 1.392606e+001 9.839927e+000 1.434859e+001 9.502462e+000 1.513383e+001 2.303311e+001 7.805571e+000 2.863550e+001 1.833971e+001 2.281434e+001 1.349825e+001 1.058278e+001 2.624871e-001 3.142357e-001 9.600686e-001 4.921329e-001 7.028666e-001 5.889326e-001 1.195469e+000 9.235019e-001 1.284468e+000 9.021723e-001 3.029183e+000 1.654288e+000 2.155735e-001 3.673455e-002 4.659636e-002 8.203655e-002 6.878781e-002 1.461166e-001 7.623603e-002 1.868018e-001 1.922182e-001 2.315028e-001 1.685334e-001 2.138113e-001 2.008021e-001 2.219787e-002
<GCONST> 7.182489e+001
<STATE> 3
<MEAN> 39
 4.529181e+000 1.006257e+000 -5.590082e-001 -1.018968e+001 2.225823e+000 1.722380e+000 4.632842e+000 -1.068657e+001 -7.872209e+000 8.090080e-001 -1.314393e+001 -4.055233e+000 6.004835e+001 -1.484782e-001 3.878768e-001 1.245405e+000 4.959496e-001 -4.388337e-001 -3.019810e-001 -4.323345e-001 3.901040e-001 6.247203e-001 -4.589848e-002 -9.858524e-001 1.055381e-001 -4.019745e-001 2.067538e-002 -1.012574e-002 -8.518012e-002 9.634285e-002 1.163877e-001 2.774436e-003 -1.184951e-002 3.761377e-002 6.826729e-002 3.925406e-003 1.816223e-001 -9.664358e-002 -2.222136e-002
<VARIANCE> 39
 5.002527e+000 6.548454e+000 3.274633e+001 1.469748e+001 1.244882e+001 1.890737e+001 2.282130e+001 9.003154e+000 1.556893e+001 1.120484e+001 2.589049e+001 1.687005e+001 6.538258e+000 2.784232e-001 3.131167e-001 8.833347e-001 5.472438e-001 8.407633e-001 1.001897e+000 9.973608e-001 8.725576e-001 1.048627e+000 8.511284e-001 1.216450e+000 1.361227e+000 2.768427e-001 4.347128e-002 5.971912e-002 1.177846e-001 8.531087e-002 1.229306e-001 1.721583e-001 2.141915e-001 1.735415e-001 2.031036e-001 1.506817e-001 1.137551e-001 2.801220e-001 4.047649e-002
<GCONST> 7.303538e+001
<STATE> 4
<MEAN> 39
 2.715496e+000 3.527517e+000 6.932809e+000 -5.654889e-001 3.561666e+000 2.448960e+000 4.106033e+000 -6.246086e+000 -1.829646e+000 1.125905e+000 -1.322961e+001 -3.159309e+000 5.364051e+001 -4.149452e-001 -2.685476e-001 1.131228e-002 9.120112e-001 3.638178e-001 4.801700e-001 3.509087e-001 5.102358e-001 5.134081e-001 1.370968e-001 7.614999e-001 3.111834e-001 -7.533479e-001 -7.245999e-002 -1.379942e-001 -1.395137e-001 -1.555374e-001 -6.550964e-002 -5.240895e-003 3.190797e-002 -1.381061e-002 -2.059690e-002 5.267029e-002 9.528584e-002 9.486450e-002 3.114275e-002
<VARIANCE> 39
 5.251027e+000 3.532167e+000 6.202747e+000 1.987163e+001 1.314717e+001 1.247367e+001 1.336336e+001 1.843430e+001 1.361242e+001 1.905410e+001 1.385208e+001 1.980538e+001 5.547708e+000 2.909011e-001 4.061739e-001 7.837041e-001 1.817310e+000 1.037991e+000 1.097193e+000 1.588431e+000 1.722465e+000 1.415697e+000 1.618763e+000 1.049357e+000 1.461711e+000 1.347450e-001 3.007134e-002 4.987161e-002 1.092524e-001 3.132750e-001 1.874365e-001 1.895312e-001 3.101171e-001 3.289263e-001 2.694424e-001 3.377552e-001 2.309043e-001 3.085080e-001 2.266913e-002
<GCONST> 7.718871e+001
<TRANSP> 5
 0.000000e+000 1.000000e+000 0.000000e+000 0.000000e+000 0.000000e+000
 0.000000e+000 9.157759e-001 8.422413e-002 0.000000e+000 0.000000e+000
 0.000000e+000 0.000000e+000 9.136435e-001 8.635648e-002 0.000000e+000
 0.000000e+000 0.000000e+000 0.000000e+000 8.750484e-001 1.249516e-001
 0.000000e+000 0.000000e+000 0.000000e+000 0.000000e+000 0.000000e+000
<ENDHMM>
~h "ow"
<BEGINHMM>
<NUMSTATES> 5
<STATE> 2
<MEAN> 39
 3.824673e+000 1.652066e-001 -1.847047e+000 -9.487020e+000 -1.940808e+000 4.216999e+000 1.607161e+000 -3.698010e+000 -6.592111e-001 1.266624e+000 -1.493322e+000 -2.854475e+000 5.495947e+001 -2.410181e-001 1.523442e-001 7.873396e-002 -1.053070e-001 4.288301e-001 1.698046e-001 -4.832816e-002 3.634962e-001 -1.597096e-001 -2.038289e-001 7.718557e-002 -1.852994e-001 -1.707479e-001 -5.622618e-002 -4.224671e-003 -6.294486e-003 2.755064e-001 -1.621158e-003 -7.024528e-002 1.434274e-001 -7.272511e-002 9.324162e-003 -4.162039e-002 1.006205e-002 -1.802554e-002 -3.581308e-002
<VARIANCE> 39
 3.613901e+001 2.344146e+001 2.368854e+001 1.076727e+002 4.203262e+001 2.710002e+001 3.248675e+001 2.875816e+001 4.175354e+001 3.968240e+001 4.241643e+001 3.378700e+001 6.351649e+001 3.817812e-001 6.670558e-001 8.535463e-001 1.688953e+000 1.663548e+000 1.359469e+000 1.883889e+000 2.173224e+000 2.138314e+000 1.703226e+000 1.713197e+000 1.345564e+000 3.206347e-001 7.209884e-002 9.973806e-002 1.412385e-001 4.093810e-001 2.106995e-001 2.152477e-001 3.155189e-001 4.014192e-001 3.516552e-001 3.507532e-001 3.325255e-001 2.590039e-001 4.438687e-002
<GCONST> 1.005819e+002
<STATE> 3
<MEAN> 39
 7.908582e+000 3.689637e+000 -4.666255e+000 -2.251244e+001 -5.468547e+000 5.241589e+000 -9.732969e-001 -2.072443e+000 -3.376933e+000 -3.068071e+000 1.053200e+000 -5.597448e+000 6.129728e+001 3.655665e-002 3.831522e-001 2.934892e-001 1.465961e-001 9.183661e-003 -3.191736e-001 9.542751e-002 2.875721e-001 -3.531079e-001 -4.215004e-001 -7.837570e-002 -7.522578e-002 -3.181359e-001 -6.188875e-003 -3.308396e-002 3.209105e-002 2.073972e-001 -2.544969e-003 -6.530298e-002 7.701334e-002 -6.220215e-002 8.227407e-003 9.134016e-002 -1.087148e-001 1.102799e-002 -5.279144e-002
<VARIANCE> 39
 7.744198e+000 1.195408e+001 1.848823e+001 6.025965e+001 3.288824e+001 2.497510e+001 2.408581e+001 2.745555e+001 3.260443e+001 4.530343e+001 2.659380e+001 2.678427e+001 2.744857e+001 1.896475e-001 2.634394e-001 4.733248e-001 1.097323e+000 8.791591e-001 7.205161e-001 8.755295e-001 9.174650e-001 1.082214e+000 1.248839e+000 9.720994e-001 1.011879e+000 2.541023e-001 3.654204e-002 4.521655e-002 7.953514e-002 1.442627e-001 1.018340e-001 1.136873e-001 1.501826e-001 1.665388e-001 1.937375e-001 1.886550e-001 2.159164e-001 1.595251e-001 3.858119e-002
<GCONST> 7.923940e+001
<STATE> 4
<MEAN> 39
 6.981215e+000 4.135860e+000 -3.464234e+000 -1.699429e+001 -4.481451e+000 3.841345e+000 5.326338e-001 -2.417686e+000 -3.914336e+000 -3.670587e+000 -9.358209e-001 -5.389890e+000 5.760404e+001 -1.708082e-001 -5.710775e-002 1.800499e-001 6.010218e-001 4.053141e-001 -9.627826e-002 2.051819e-001 -1.463726e-002 2.049192e-002 3.057846e-001 -3.732581e-001 -8.770485e-002 -1.308010e-001 -1.045590e-001 -5.962155e-002 5.660766e-002 1.118969e-001 3.818892e-002 -4.250175e-003 3.337194e-002 -4.501059e-002 1.246458e-001 1.083571e-001 -9.101027e-002 6.486310e-002 3.358352e-004
<VARIANCE> 39
 1.960055e+001 1.531639e+001 2.839188e+001 1.006987e+002 3.475574e+001 3.435842e+001 2.495487e+001 2.515555e+001 4.950992e+001 3.954362e+001 3.279350e+001 3.120394e+001 3.533157e+001 1.103350e+000 6.923712e-001 1.522518e+000 4.985502e+000 2.207855e+000 1.642112e+000 1.590033e+000 1.720301e+000 2.001166e+000 2.218097e+000 2.516510e+000 1.990958e+000 1.433377e+000 1.266782e-001 8.158969e-002 2.209913e-001 4.980678e-001 2.145154e-001 2.321735e-001 2.693153e-001 2.764685e-001 3.229082e-001 3.430653e-001 5.091207e-001 3.175467e-001 1.576474e-001
<GCONST> 1.062104e+002
<TRANSP> 5
 0.000000e+000 1.000000e+000 0.000000e+000 0.000000e+000 0.000000e+000
 0.000000e+000 5.027925e-001 4.972075e-001 0.000000e+000 0.000000e+000
 0.000000e+000 0.000000e+000 8.326445e-001 1.673555e-001 0.000000e+000
 0.000000e+000 0.000000e+000 0.000000e+000 8.617344e-001 1.382656e-001
 0.000000e+000 0.000000e+000 0.000000e+000 0.000000e+000 0.000000e+000
<ENDHMM>
~h "sp"
<BEGINHMM>
<NUMSTATES> 3
<STATE> 2
~s "silst"
<TRANSP> 3
 0.000000e+000 2.256134e-001 7.743866e-001
 0.000000e+000 9.707857e-001 2.921436e-002
 0.000000e+000 0.000000e+000 0.000000e+000
<ENDHMM>
~h "th"
<BEGINHMM>
<NUMSTATES> 5
<STATE> 2
<MEAN> 39
 -5.060990e+000 5.324699e-001 8.837494e-001 -7.475172e-001 4.870279e+000 -2.262976e+000 3.848604e+000 -9.109147e-001 1.286243e+000 7.003398e-001 -8.800703e-001 -4.642787e-001 5.458257e+001 -1.751417e+000 2.742212e-001 -6.580827e-001 3.559871e-001 8.192657e-001 -3.194191e-001 2.071052e-001 1.241452e+000 6.868985e-001 -4.863463e-002 7.887055e-001 2.755778e-001 7.040996e-001 -1.027775e-001 -5.236598e-002 -4.971300e-002 -8.698083e-002 -7.633566e-002 -7.864007e-002 3.145089e-002 3.483095e-002 5.979480e-003 2.799874e-002 8.144348e-003 8.797958e-002 1.088424e-001
<VARIANCE> 39
 2.919223e+001 2.108239e+001 1.804496e+001 2.084525e+001 2.865433e+001 3.242233e+001 2.695697e+001 3.232240e+001 2.851662e+001 2.323448e+001 2.713216e+001 2.210406e+001 3.891405e+001 3.365996e+000 1.355595e+000 1.622485e+000 2.951003e+000 2.068986e+000 3.726627e+000 2.406963e+000 2.405576e+000 2.518987e+000 1.780618e+000 2.254491e+000 2.302162e+000 1.394381e+000 3.980589e-001 2.319611e-001 2.333978e-001 3.594441e-001 3.539073e-001 5.488508e-001 4.603508e-001 4.373281e-001 4.222301e-001 3.123728e-001 3.668375e-001 4.418150e-001 1.391385e-001
<GCONST> 1.106307e+002
<STATE> 3
<MEAN> 39
 -1.512857e+001 4.025693e+000 -2.859689e+000 5.891119e-002 8.862688e+000 -4.318272e+000 4.896643e+000 4.795143e+000 4.508203e+000 -2.168472e-001 1.021500e+000 7.258390e-001 6.121072e+001 2.404550e-001 1.847842e-002 1.874761e-001 -1.712562e-001 8.397032e-002 -1.031418e-001 -2.413095e-001 1.660821e-001 1.086532e-001 -1.048837e-001 -1.827565e-001 -1.638636e-001 1.050174e-001 4.540573e-001 -6.845202e-002 1.748059e-001 -8.137514e-002 -1.628398e-001 -2.968513e-002 -2.074254e-001 -1.979731e-001 -5.988878e-002 3.020225e-002 -1.327973e-001 -1.364391e-001 -5.384812e-002
<VARIANCE> 39
 6.478408e+000 1.021790e+001 1.070942e+001 1.925993e+001 2.623986e+001 1.440979e+001 1.960172e+001 2.053294e+001 1.652904e+001 2.027769e+001 1.530288e+001 1.582875e+001 7.734201e+000 1.972339e+000 7.828097e-001 1.110938e+000 1.452406e+000 1.407940e+000 1.462585e+000 1.756722e+000 1.651304e+000 1.547500e+000 1.728884e+000 1.529705e+000 1.507431e+000 3.409439e-001 2.721922e-001 1.431950e-001 1.990579e-001 2.792540e-001 3.339453e-001 3.042273e-001 3.453198e-001 4.463018e-001 2.909250e-001 3.810744e-001 3.408559e-001 3.080205e-001 5.324380e-002
<GCONST> 9.224806e+001
<STATE> 4
<MEAN> 39
 8.333559e-001 6.250880e-001 3.615863e+000 -4.244127e+000 3.270842e+000 -6.985328e+000 -4.488903e+000 -6.400360e-002 4.440351e+000 1.708140e+000 -4.167202e+000 -4.660487e+000 6.173100e+001 4.287230e+000 -1.823029e+000 1.054305e+000 2.729714e-001 -3.469131e+000 -5.842496e-001 -1.781644e+000 -3.025972e+000 -6.326486e-001 1.592941e+000 -1.032915e+000 -1.123431e+000 2.398151e-001 -4.190213e-001 -2.971486e-001 -4.923065e-001 5.870368e-001 -3.726763e-001 -1.112172e-001 6.656554e-001 -8.645210e-002 -3.849861e-001 1.225425e-001 3.621936e-001 2.135177e-001 -1.067931e-002
<VARIANCE> 39
 5.233656e+001 1.744916e+001 1.319057e+001 1.555775e+001 3.708667e+001 2.606164e+001 2.865687e+001 4.490793e+001 1.503171e+001 2.563547e+001 1.717639e+001 1.449916e+001 1.118621e+001 2.504558e+000 1.807897e+000 2.009768e+000 3.266859e+000 2.192413e+000 2.660311e+000 3.679454e+000 2.978442e+000 1.656302e+000 1.966422e+000 2.120738e+000 1.513386e+000 6.172838e-001 7.611822e-001 3.159857e-001 3.363667e-001 4.219767e-001 7.463037e-001 5.418784e-001 6.599936e-001 1.096650e+000 3.034140e-001 5.601306e-001 3.867967e-001 2.859400e-001 1.188895e-001
<GCONST> 1.104431e+002
<TRANSP> 5
 0.000000e+000 1.000000e+000 0.000000e+000 0.000000e+000 0.000000e+000
 0.000000e+000 8.422899e-001 1.577102e-001 0.000000e+000 0.000000e+000
 0.000000e+000 0.000000e+000 9.216437e-001 7.835622e-002 0.000000e+000
 0.000000e+000 0.000000e+000 0.000000e+000 7.448971e-001 2.551030e-001
 0.000000e+000 0.000000e+000 0.000000e+000 0.000000e+000 0.000000e+000
<ENDHMM>
~h "uh"
<BEGINHMM>
<NUMSTATES> 5
<STATE> 2
<MEAN> 39
